-0.04235913
0.03697043
0.06194871
-0.04742513
0.02944420
-0.05126314
0.04975763
0.08424474
-0.08305359
-0.01306555
0.01752036
0.10615982
-0.09546952
-0.00145241
-0.03860485
0.02978904
0.16370203
0.07463131
-0.03731910
0.04936546
0.01148138
0.05837382
-0.01699633
-0.02632755
-0.05281667
0.09881333
-0.03580468
0.03934819
-0.06374069
0.05005346
0.05328820
0.04691162
0.04077863
-0.05074661
-0.04695055
0.03659127
-0.10977155
0.00393373
-0.07164380
-0.14204615
-0.00751931
-0.09120607
0.07576951
-0.00636304
0.05081096
0.04738978
-0.00480694
0.15066303
-0.00185011
-0.02816667
-0.03966733
0.05107820
0.07030097
-0.03278487
0.12475359
0.00731800
0.14982329
-0.20795983
-0.00656012
-0.15555368
0.05287784
0.19704364
0.00126284
-0.04508955
-0.00051282
0.03866006
-0.02818507
0.03492330
-0.09673952
0.00163033
-0.05729181
0.07403151
-0.04358892
-0.01920770
-0.00202458
-0.03952517
-0.02720468
-0.09089665
0.02727325
0.07967956
0.08684731
0.01358382
0.08004361
-0.02273208
0.00825169
-0.06776384
-0.09521080
0.01165219
-0.03949171
0.09382042
-0.04828587
-0.15302673
0.05417305
-0.13278508
-0.01148175
-0.04730392
0.13588859
-0.05121468
0.06772065
-0.05984550
-0.02025189
-0.10424035
0.04486661
-0.04841766
0.02941426
0.08972843
0.12883313
-0.03533933
-0.08221035
-0.07166281
-0.04028584
0.00625297
0.07494253
-0.03263523
-0.05282932
0.04662592
-0.02853402
-0.06822116
-0.04910973
0.00626152
-0.07721699
0.05871596
0.06078038
0.12010080
0.08912265
-0.16338250
0.03648880
0.01061569
-0.02860229
-0.03190520
0.01465387
-0.05050818
-0.10277148
-0.03098470
0.00612536
-0.06095557
0.10421935
0.05061309
-0.02923165
0.00396724
-0.06649590
0.06382627
0.02642258
0.05007089
0.05934642
-0.00052956
0.03538797
-0.01960950
-0.17110440
0.09474535
-0.14333270
0.08890478
-0.03891773
0.01055113
-0.14892976
0.04419168
0.05465224
0.05113092
-0.10764925
0.07032703
-0.00441170
-0.03543992
-0.02803357
-0.02724894
0.03413454
0.05706876
0.06863651
-0.00121153
-0.06954690
0.03308835
0.07528280
0.03712322
-0.03980688
-0.05063914
0.02082179
0.01791981
0.11639859
-0.00141080
-0.07469868
-0.03747241
-0.02196841
-0.01096241
-0.08841084
-0.03203547
-0.04046671
-0.03156592
-0.02998272
-0.07371668
0.05169946
-0.00895762
-0.02239896
0.05683628
0.05430317
-0.04221517
0.00517413
-0.03736368
-0.00253500
0.09140386
-0.05946728
-0.05246097
-0.11466201
-0.06147840
0.10551175
-0.12331853
0.04420630
0.10793915
0.00177251
0.04594841
-0.02411647
-0.03148644
-0.00748171
-0.02144693
0.07818644
0.20976804
-0.02617225
0.01083096
-0.04889566
0.04173294
0.17115837
-0.01548211
0.10117967
0.04341623
-0.05983909
-0.06484041
-0.05378870
0.20292065
-0.01921727
-0.01433517
0.10300884
0.00981779
-0.10597099
0.06870951
0.05871078
-0.01026914
-0.07342285
-0.00973616
-0.00972349
0.04923331
0.01704253
-0.03211327
0.10563946
0.00730500
-0.07710905
-0.00033156
0.02435833
0.14868861
-0.10375074
-0.13111025
-0.09484226
0.04162266
-0.05356761
-0.01231589
0.07171290
0.02733353
0.10239355
-0.01915681
0.03158048
-0.05087953
0.07883375
0.02550746
0.03288520
-0.02348230
-0.04266277
0.06726268
0.05759802
-0.18034162
-0.07032442
-0.06026700
0.07752097
0.01915229
-0.04398210
0.12900579
-0.10564946
0.10438541
0.00592962
-0.11769428
-0.08124976
0.05836258
0.05890447
-0.06190108
-0.00932393
0.06161762
-0.06670000
0.05556241
-0.00540812
-0.01631632
-0.01403502
0.04082676
-0.01176853
-0.01403770
0.00548896
-0.02821649
-0.08661532
-0.06552633
0.08294923
0.00290484
0.05792711
0.04085889
0.02124290
-0.05867234
0.01921290
0.01799580
-0.01481695
0.17722318
0.00621304
-0.05446042
-0.05813370
-0.00910150
-0.63175046
-0.09748421
-0.05766508
-0.10501599
0.06525907
-0.02685201
0.00659610
0.07508011
-0.00338131
-0.07595634
0.06516321
0.04487252
0.02242358
0.07223359
-0.01298833
-0.15201780
0.00039189
-0.13552171
0.03326550
0.05890065
-0.06839577
-0.03324044
0.13787463
-0.02195421
-0.10011922
0.06202309
-0.02725340
0.11035436
-0.09088702
-0.01351188
-0.10733157
0.02299613
0.11024344
0.10774429
0.08026644
0.04213174
0.01476667
-0.05722315
0.07525257
-0.06710622
0.03453212
0.02590884
-0.05694026
-0.11426839
0.10057767
-0.20585281
0.06962024
0.05355036
-0.05535899
0.03486717
0.03181593
0.07797732
0.06448068
-0.01947263
0.18120092
0.10707646
0.17960611
0.13260618
-0.12427206
-0.06570196
-0.06812429
-0.06066492
-0.04210968
0.04661115
0.00050923
0.01084595
-0.07716423
-0.00094696
0.00792208
-0.03213342
-0.04684164
-0.04261231
0.03353180
-0.74448866
-0.06548297
-0.12808958
0.10836536
0.03582636
-0.01115460
0.05213609
-0.00975956
-0.04130738
-0.02511289
-0.04114021
0.01861859
-0.09821168
0.02976163
0.02053399
-0.10500481
-0.01799077
0.05607518
-0.02004321
-0.07216001
0.01201023
0.07460999
0.00172472
-0.23722158
-0.04219855
-0.03542843
-0.08819772
0.01980260
0.01258985
0.00406651
0.05934250
-0.05488681
0.00483420
-0.05866626
-0.01408399
-0.09703509
-0.17720254
-0.01409946
0.05793149
0.05806771
-0.07341319
0.07911831
-0.10855794
-0.11657874
-0.03240940
-0.01792231
-0.10334532
-0.09583794
0.04207655
-0.12072939
-0.07313801
-0.05494303
0.01383290
-0.01900992
0.04189729
0.02892174
-0.05910033
0.06206823
-0.02614272
-0.03414912
-0.05813887
-0.04790330
-0.08763993
-0.00530350
-0.01261678
-0.02167412
0.05214446
0.04299833
0.03111186
0.14796302
-0.01639225
0.09174977
-0.06555533
0.07418948
0.09317328
0.02454773
0.01040332
-0.18361612
-0.05696393
0.01577029
-0.03371475
0.04850969
-0.00000205
0.17868164
0.04393695
0.10072456
-0.14715502
-0.00697637
0.06800865
0.00282418
-0.06534277
-0.01821322
0.05054603
0.03536336
-0.05017612
0.01961677
-0.07757410
-0.01037975
-0.15406574
0.05615567
-0.08191940
-0.14726228
-0.13031709
-0.19340619
0.03689976
0.06815418
0.06848501
0.01824345
0.05898899
-0.07294414
0.05177011
-0.07160787
0.06310266
0.02295634
-0.06305648
0.05115331
0.04103008
0.02680361
0.04928267
0.01274549
-0.01260360
0.04235255
-0.07141331
-0.01349055
0.02658645
0.02897745
0.09075086
-0.10938272
-0.00417338
0.02825108
-0.09694576
0.02948913
-0.01652828
0.08133669
0.16593860
-0.06412487
0.06536726
0.05677557
-0.00214336
0.01288651
-0.03671316
0.10433228
0.00534397
-0.09968544
-0.01483453
-0.14481786
-0.05386240
0.03793373
0.13256413
-0.02789464
0.03696407
-0.02158833
0.00278157
0.04686923
-0.14052975
0.04802249
-0.01030822
0.08704065
-0.16570638
0.06045022
-0.03341110
0.01566721
0.03127479
-0.04027826
-0.08016974
0.00979481
0.03759588
0.05185872
0.09715054
-0.07070269
-0.03434790
0.02322830
0.02498909
0.01686865
-0.07339778
-0.02067864
0.07313791
0.03596103
0.00393806
0.03264943
0.12531105
0.09888818
-0.06240410
-0.04942462
0.13206859
0.06473634
0.11407028
0.02953641
0.01029568
0.02201641
-0.00430762
0.03558837
-0.08890203
-0.12446624
0.05572353
0.10395651
-0.15905400
0.02259070
0.00194216
-0.08187739
0.06685682
0.09817556
0.00377897
-0.08793092
-0.02221678
0.20776460
0.03987972
-0.04546667
0.01618724
-0.00506388
-0.10489909
0.02754604
0.06106951
-0.05377422
0.03498086
0.03445623
0.06452814
-0.03636739
0.13538328
-0.01889867
0.04129883
-0.03051965
0.08696952
0.08852620
0.05488048
0.05364999
0.05151964
-0.07775737
0.05487036
0.04899817
-0.05073059
0.07553987
0.00793611
-0.09278648
0.00434573
-0.00330532
-0.06298095
-0.00108837
-0.07547985
0.11295221
0.06031801
-0.01740829
0.03689533
0.00009392
0.05768594
0.13170896
-0.03917731
-0.03487312
-0.04962823
0.07408769
0.10078949
0.00804565
0.15778321
-0.02907616
0.02909407
-0.01897318
0.08431442
0.08081356
-0.04045295
-0.07358606
0.08446468
-0.01690323
-0.08609124
-0.01030319
-0.05549354
-0.00592403
0.15375309
0.01947814
0.18458518
0.02002033
-0.04498138
0.01502020
0.09859324
-0.04153249
-0.00876341
0.07528335
-0.00498389
-0.02505099
-0.03347815
0.07159507
-0.05371183
0.15663195
-0.03733328
0.00375030
0.01337057
-0.00430679
0.16889419
0.14998002
-0.06709357
0.13593794
-0.02641831
0.10040997
0.00327183
0.06601868
-0.01437085
0.10953385
-0.04640863
-0.04352782
-0.02540234
-0.00854362
-0.08982474
0.17607890
-0.07038361
-0.00994729
0.08110715
0.01328792
0.07378604
0.01531040
-0.03810463
0.01267526
-0.01229279
-0.07719485
-0.03154746
0.15625162
-0.01644746
-0.16563247
-0.09859765
-0.15204793
-0.10823567
0.10457185
-0.10517059
0.11007612
0.08531292
0.10057081
0.02685685
0.13293339
-0.09308349
0.08300033
0.06550446
-0.05762128
0.00235451
0.06301415
0.05813529
-0.06825691
-0.01555341
-0.03036464
0.01198996
0.09982822
0.02910782
-0.20716701
0.01874360
-0.02401972
-0.07858282
0.06587137
-0.03517168
-0.00747661
-0.10878983
-0.02264349
-0.01066021
0.00765420
0.13753644
0.06813687
-0.08528333
0.19287966
-0.13816592
0.02233745
0.17738549
-0.03848346
0.05617910
-0.01862044
0.04795194
-0.06466608
0.05291655
-0.05733202
0.00445290
-0.01096133
-0.02324123
0.04812595
0.01166166
-0.05658088
-0.01460989
-0.04006813
0.09213595
-0.14267910
0.04348515
-0.14476587
0.02706485
0.10351708
-0.15971416
-0.09478266
0.10669523
0.05884542
-0.00460925
-0.13202466
0.00513667
-0.03749919
-0.05109635
