-0.03163833
-0.04330853
-0.05099387
-0.01749745
-0.16430038
-0.04113596
-0.10128076
-0.07646348
-0.02917457
-0.02010199
-0.03859357
-0.07690735
0.02827862
-0.06972895
-0.04269981
-0.11008425
-0.10001291
-0.07657441
0.00236217
-0.06678612
-0.13514371
0.01631274
-0.08783097
-0.19280398
-0.08510517
-0.12749118
-0.01809953
-0.00239541
0.09311498
-0.10117242
-0.01824488
-0.00898778
-0.13652590
-0.01319768
-0.05769444
-0.03790180
0.02162337
-0.03014105
-0.05815507
0.07739729
0.01676932
0.05549572
0.00361430
-0.07253055
-0.02413924
0.01702856
-0.03516442
-0.03967698
0.00265282
0.01552355
-0.00415876
0.00500042
-0.15027706
0.04046120
-0.08685580
-0.10338926
-0.06707276
0.05386605
0.00298855
-0.00728210
-0.03862399
-0.07162959
-0.01638770
-0.06615011
-0.03638803
-0.09432340
-0.03468047
-0.06430236
-0.03974974
0.04384711
0.02619224
-0.05318517
-0.03165793
0.02991607
-0.09697407
-0.02383338
-0.00973239
-0.05177524
-0.06367237
-0.10815337
-0.05810102
-0.03980174
-0.06451011
-0.11664920
-0.02767392
0.01922166
-0.07774757
-0.03200031
0.01872456
-0.05308869
0.04243106
0.05927940
-0.21198997
-0.02350072
-0.08634612
0.03059017
-0.09654562
-0.03506654
-0.03581518
-0.01988157
-0.01589334
-0.03498010
-0.07440761
-0.00238465
-0.00496888
-0.04251810
-0.02629931
0.00600098
0.05631535
-0.02507056
0.05937417
-0.01719118
0.11201199
0.00808022
-0.04012335
-0.03148105
-0.05400746
-0.03778492
0.00902082
-0.07757617
0.00162279
0.01064803
-0.03804468
-0.10102471
-0.07151762
0.03285408
-0.02761221
-0.11239171
-0.00694416
-0.00371588
-0.03449829
-0.05826914
-0.00237908
-0.03209679
0.04970060
-0.00981659
-0.07712618
-0.08046266
-0.03009107
0.00638114
-0.01193150
-0.04604755
-0.04097363
-0.10428002
-0.08714044
0.05513607
-0.01349074
-0.03263570
0.01118363
-0.14603233
-0.01869506
-0.11799771
0.00471308
-0.01934167
-0.06457891
-0.08146741
-0.05805134
-0.05709806
-0.09669682
0.01471836
-0.07836410
0.01639086
-0.02166752
-0.03918561
-0.02017091
-0.07900629
-0.11005945
-0.06323726
0.09293278
0.01821176
0.00808091
-0.01603726
-0.02458955
-0.09628335
-0.00556435
-0.15393364
-0.06346608
-0.06726845
-0.07618371
-0.00726034
0.00121047
-0.08952875
0.03294978
-0.09756786
-0.06580789
0.02512304
-0.11748980
-0.13817988
-0.07071488
-0.01365141
0.00214006
0.12216464
-0.17932723
0.01960095
-0.09316055
-0.05710777
-0.04995941
-0.13443963
-0.05247151
-0.04486388
0.03269542
-0.04310724
-0.08764894
0.01103690
0.01494142
-0.06453940
-0.08793583
-0.01663419
-0.10438405
-0.08370931
0.00793134
0.01564849
-0.07417838
-0.11118026
-0.04264464
-0.00022753
0.02749836
-0.00111246
-0.17446914
0.04692959
-0.09648162
-0.14587504
-0.00425128
-0.06251486
0.00971423
-0.12365332
-0.04761948
0.01432569
-0.09675492
-0.02233443
0.00323202
-0.03801902
-0.11820288
-0.00457376
0.00600524
-0.09207708
-0.01275103
-0.06003490
-0.08683351
0.06448933
-0.05597113
-0.03345519
0.00975353
-0.14419739
-0.07642876
-0.03425683
-0.02048591
-0.04289143
0.04751352
0.03990386
-0.00242869
-0.19631454
-0.05129492
-0.04144874
-0.06339648
0.02718028
0.02862158
-0.02218405
-0.05149235
-0.03468712
-0.07063530
-0.00893813
-0.01252440
-0.04940919
-0.03807298
0.05391374
-0.03507777
-0.01680108
-0.02620495
0.01493594
-0.02680449
-0.05568972
-0.00462782
-0.09325223
-0.04117056
0.02160489
-0.04831517
-0.01291852
-0.00808393
0.02575380
-0.07889333
-0.10991641
-0.01373599
-0.00270671
0.02276474
-0.08435094
-0.11038022
-0.06880083
0.01873726
-0.05113540
-0.03492922
-0.01763598
0.03139843
-0.01815831
-0.12744406
-0.05583912
-0.09306947
-0.13712084
-0.10393863
0.00047708
-0.04325291
-0.10220557
-0.00248365
-0.02633243
-0.21643387
0.03579687
-0.02525180
-0.02780737
0.95942944
-0.00274942
-0.00060087
0.01265143
-0.08985136
-0.07186809
-0.04248622
-0.06899680
-0.03476264
-0.02944596
0.00223651
-0.07166151
0.06878886
-0.08210327
-0.09024554
0.09820733
-0.02435315
-0.01768833
-0.04822018
-0.06764223
0.00053218
0.04038118
-0.05001952
-0.03302201
-0.00134313
-0.15990348
0.01679205
-0.03608808
0.01621071
-0.01103170
-0.02037182
0.03063457
-0.07476638
-0.12718777
-0.07432976
-0.08729935
-0.03015087
0.04796321
-0.06414749
0.05032461
-0.02108746
0.05194243
0.03009695
0.03275799
-0.06699921
-0.03746187
-0.04207173
0.02128419
-0.05607833
-0.06770986
-0.03483604
-0.07072613
-0.06515549
-0.01632226
-0.08812898
-0.02785808
-0.07508145
-0.01079611
0.02869125
-0.10258923
0.01212292
-0.01626738
0.01213074
-0.00439156
-0.04767724
0.06034908
0.06729715
-0.04747234
-0.08043753
0.01075298
0.06037622
-0.07560199
-0.01383158
0.30265704
-0.03768119
0.03917848
-0.07586275
-0.00027194
0.07609040
-0.04753173
-0.01750625
0.02742340
-0.09375033
-0.07387912
-0.08233426
-0.01475818
-0.06203208
-0.02833961
0.07858681
0.03640195
-0.04798938
0.03767022
0.00327796
0.02392952
-0.05136177
-0.00109147
0.02074805
0.07031482
-0.04002509
-0.00709915
-0.11434145
0.01359098
-0.00760106
-0.00600669
-0.08758229
-0.05109229
0.00917366
-0.10036056
0.00518617
0.00713946
-0.08991642
-0.03690495
-0.01863409
0.08126085
-0.02745148
-0.00209912
0.02530317
-0.07067628
-0.02451221
0.04211684
0.03287835
-0.09558456
-0.06143415
0.03698790
0.01302589
-0.13087568
0.05066479
-0.07047271
0.02382501
0.03584009
-0.01889343
-0.00621505
-0.07279190
-0.05983353
-0.06416078
-0.05994657
-0.01612549
0.01418931
0.04253766
-0.03931302
0.00701950
0.04665317
-0.01845138
-0.03760536
-0.06778034
-0.00123872
-0.08580346
-0.09816700
-0.02336782
-0.09378368
0.02102485
0.00912442
-0.08270553
0.07889502
0.02691620
-0.08477154
-0.10211141
-0.02059403
-0.06922396
0.00403805
-0.04581638
-0.03494593
-0.04129218
-0.00216490
-0.05179968
-0.03456222
-0.04482150
-0.03300399
-0.01777440
-0.06012475
0.06501258
0.04571278
-0.02915859
-0.09662511
0.01224287
0.03220315
-0.00976316
0.01004049
-0.10548788
-0.09913498
0.06153392
-0.04571529
-0.03192198
-0.00377633
-0.06095389
-0.08447058
-0.03769088
-0.01701497
-0.01524171
-0.02105023
-0.04908263
-0.04669474
-0.06180586
-0.10605392
0.01872223
0.02203463
-0.05887160
-0.10177700
-0.04157212
-0.03256002
0.05312151
-0.01211869
0.01716340
0.00525386
-0.02398189
-0.01009603
-0.02572314
-0.17441934
0.03146042
-0.06361344
0.05743621
-0.06762201
0.03997051
-0.07827105
-0.07667153
-0.01554604
-0.01396124
-0.00513690
-0.01572392
0.01182314
-0.03281309
-0.11282246
-0.10541337
0.00960053
0.01781521
-0.05152708
-0.06084100
0.06959248
0.00378585
-0.04909246
-0.04862477
0.13024078
-0.08125611
-0.02283371
-0.00639772
0.00846932
-0.01458375
0.07909296
0.06242718
-0.03519326
-0.14769028
-0.10071857
0.04294701
-0.01009337
-0.08708390
-0.04710241
-0.00228984
0.00605583
-0.00248635
-0.11878288
-0.04674294
0.04705997
0.00442056
0.01069618
-0.03512507
-0.03510476
0.01821980
-0.04822597
-0.10292882
-0.01090004
-0.01519401
-0.00500272
-0.01501960
-0.07503313
-0.09928562
-0.06990368
0.05280541
-0.05035331
-0.00803638
0.05015510
-0.07006650
0.05758480
0.04065050
-0.12337667
-0.09902475
0.00801281
-0.03753904
-0.00196471
-0.21498533
-0.00733886
0.00180184
-0.07176646
-0.04190331
-0.00657258
-0.11690751
-0.04362794
-0.06985033
0.03139723
-0.05722199
-0.04819076
-0.01772909
-0.03733028
-0.06417653
-0.04014963
0.03845662
-0.08492278
-0.10013763
-0.11179874
-0.04861163
-0.01886820
-0.04360925
-0.04118975
-0.04928878
0.00746734
-0.02098585
-0.05696796
0.02011224
-0.02753840
-0.02394230
-0.04651635
-0.04677123
-0.00456966
-0.13628396
-0.06019000
-0.06042686
-0.09666258
-0.00857672
-0.07122076
-0.12892008
0.03509937
-0.06223558
-0.02976558
-0.08040546
-0.09127401
-0.10630236
-0.12130439
-0.02418518
-0.03035715
-0.04666004
-0.06941071
-0.09343050
-0.05012918
0.03950138
-0.07938938
-0.06937972
0.02366190
-0.05882875
0.02924604
-0.06028603
-0.08231225
-0.03900748
-0.07630917
-0.07439006
-0.12553248
-0.12209707
-0.07973132
0.04537294
0.00360712
-0.08566561
-0.02240523
-0.04093461
-0.00002320
-0.05486212
0.00847214
-0.06701677
-0.01092478
-0.02520691
-0.01380193
-0.09002701
-0.13722059
-0.05697190
-0.10302004
-0.07692127
-0.03319236
0.06454837
-0.06972986
-0.05561341
0.03214164
-0.13740262
-0.05095799
-0.07858050
-0.05975057
-0.01919414
-0.04274673
-0.13130912
-0.04963499
0.00513581
-0.02975157
-0.07651304
-0.07526086
0.06997171
0.00124795
0.01478367
-0.00190210
-0.11323459
-0.03592031
-0.02033418
-0.07526588
0.02511117
-0.08106282
-0.00021226
-0.02546806
-0.07651940
-0.02931335
0.04841558
-0.05543771
-0.08298418
-0.08456443
-0.07280152
-0.05633084
-0.05090967
-0.07592181
-0.10320352
-0.04187173
-0.13977052
-0.06038734
0.00189615
-0.05576618
-0.03942916
-0.06675158
-0.03910554
-0.02378283
0.00771536
-0.03513655
0.01978865
-0.00539275
-0.11478797
-0.00763603
-0.03882514
0.00768270
0.01946067
-0.06339801
-0.07490491
-0.08549152
-0.03741371
-0.11258716
-0.18864094
0.00649086
-0.01843776
-0.11166659
-0.02677306
-0.04206844
-0.05314929
-0.04202687
-0.03709563
0.01227137
-0.00409107
-0.08369365
-0.00261151
-0.00198916
-0.06697999
-0.08982296
0.00697758
-0.00970170
-0.01451356
-0.10981694
0.07549455
-0.03347188
0.01869303
-0.12249976
-0.03072181
-0.02131081
-0.04297945
-0.08464295
-0.04069836
0.01732059
0.02768537
-0.07405641
-0.06021227
-0.03416950
