0.01992653
0.03577779
-0.04943555
0.02988789
0.04970530
0.03255927
-0.03319260
0.01236710
-0.05532549
0.03192717
-0.10205003
0.04222385
0.10057431
-0.00744874
0.01732129
0.08925088
-0.03208185
0.09108378
-0.03447519
-0.04206805
-0.16379422
-0.12470048
-0.08283109
-0.00828882
0.03998865
-0.03698003
-0.00003782
0.04897601
0.07358842
0.08664856
0.07403797
-0.07871351
0.02921856
0.00809542
0.06159600
0.10312128
0.07347463
0.01336753
0.10492573
0.00238941
-0.04183573
0.02999331
0.10594124
-0.04890200
0.05759031
0.01000113
-0.01818525
-0.03304150
-0.07516645
-0.01895785
0.02063590
0.02317590
0.01014123
-0.10575052
0.03740992
-0.08275701
-0.09667221
-0.15283783
-0.08548997
-0.12436479
0.02317575
0.05594581
-0.05251170
0.02228767
-0.03054121
-0.05098456
0.01405669
-0.04043199
-0.03700631
-0.03506552
0.07166635
0.00465656
0.11839846
-0.06072708
-0.05560635
0.04899941
0.07961801
0.14704826
-0.06610145
-0.08555307
-0.02153069
0.05310025
-0.04492581
0.00393202
-0.15037811
-0.06597217
0.12093262
-0.14925565
-0.03577435
-0.07422537
0.05911563
0.01087216
0.00475249
0.14388902
0.00623048
0.03013285
0.00892965
0.06490204
0.01180524
-0.01473235
-0.05689584
-0.09705398
-0.01704733
0.12113916
0.02265273
-0.00043383
-0.01497025
0.00126733
0.02877186
-0.01268680
-0.09863265
-0.03553823
-0.07067160
0.06274023
0.04033624
0.00603518
-0.02574009
-0.03380366
0.03456879
0.00314109
-0.03079904
0.07994348
-0.10987659
0.01893717
0.04618448
0.01257872
0.04627358
-0.14526799
0.14189610
0.11651117
0.07453970
-0.08746900
-0.02603680
0.02588098
0.04696722
0.01108656
-0.02068324
-0.08676904
-0.02220815
-0.17621109
-0.03121851
-0.04629860
-0.02244991
0.07334448
-0.08870568
-0.05585061
0.00824041
0.06121967
0.06363221
-0.09615956
-0.03280200
0.09675691
-0.06729926
0.03510316
0.03972335
-0.00727981
-0.07848920
0.02585747
0.08802529
-0.20327391
0.03892330
-0.02275460
0.19430651
0.03188710
-0.09911121
-0.05288817
-0.00830423
-0.04149825
0.19524978
-0.00984054
0.09512164
-0.00002646
-0.14123407
-0.09056768
-0.03739189
-0.04389921
-0.05412279
0.00807061
-0.00385658
-0.04006565
0.01451896
0.01466488
-0.02445720
0.07695967
-0.03759741
0.03806299
0.02731299
-0.04864438
-0.01172415
-0.08210850
-0.02930910
0.02842752
-0.00825847
-0.00948393
0.06890515
0.04238143
0.02854643
0.01242665
-0.02840585
0.07367459
-0.03080507
-0.09897552
-0.07921392
-0.00534928
0.01353678
0.04226688
-0.06197532
0.05335307
-0.05991265
0.11848415
-0.03950531
0.05456081
-0.09625249
-0.01497931
0.05806006
0.10791418
0.10608277
0.03883993
-0.17983508
0.04048098
0.00296250
-0.04801142
-0.01704448
0.13507840
0.00851049
-0.08363530
-0.11257219
0.04505613
-0.08422507
-0.04501725
-0.08089479
-0.04463058
-0.10119532
-0.06486494
0.04858378
0.07893921
-0.03394497
0.05130830
0.01939006
0.18358520
-0.08810748
0.00775399
0.08159133
0.02200062
-0.04374346
0.03778586
-0.11556163
0.05914472
0.14161268
0.09360888
0.03710505
0.00643113
0.01529153
0.00014313
-0.02761982
0.02370510
0.05456815
-0.01365443
0.02169800
0.04623142
-0.01411624
-0.01352733
0.00939559
0.00231118
-0.14344966
0.10254131
-0.01321337
-0.10019004
-0.01475815
-0.02007058
0.03056557
0.07365483
-0.03181237
0.02851094
0.06522461
-0.10368868
0.03270473
0.08734276
0.11341181
0.03032935
0.04020466
-0.00819466
-0.03174107
-0.04199637
0.01224459
0.12553902
0.02437593
0.01922953
0.02776387
0.01254484
0.08763650
0.02046674
0.05965948
-0.02861109
0.02858354
-0.12138827
-0.20699596
0.06125027
0.05213889
-0.10227326
-0.01454925
0.12973034
0.09184272
0.03480419
-0.07956829
-0.00097724
0.11603255
-0.03874903
0.28072497
-0.01497553
0.10362808
-0.14350541
-0.08238401
-0.06761377
-0.01363341
0.04118843
-0.02741061
-0.08616935
-0.01643761
-0.22843739
0.02447745
0.05634593
-0.05603392
0.03844339
-0.10153273
-0.12462462
-0.01658072
-0.00506415
-0.08515682
0.12198032
-0.00113044
-0.14790010
-0.03930553
-0.04639640
0.03469658
-0.08094989
-0.02549462
0.03062374
-0.03069482
-0.01160324
0.07679287
-0.01684144
-0.17108321
0.01736391
-0.14723782
-0.00119306
-0.02888325
-0.05060341
0.04711149
-0.05170557
0.10273550
-0.10893546
-0.03333062
0.06500572
0.06332836
0.00714400
0.03283994
0.00733752
-0.10188175
0.01522364
-0.15161887
-0.04205936
-0.09593464
-0.02727368
-0.07721241
0.03331080
-0.12872870
-0.02846560
-0.03401054
0.13156955
-0.01373866
0.01104980
0.00254892
0.00277940
0.01960157
0.05451915
0.03932590
0.01907882
0.03479333
0.04822131
0.06156362
0.00645914
-0.00776384
0.02212141
0.03116587
0.07102584
-0.10094289
0.02483101
0.03480889
-0.02236424
0.02092516
0.01960880
0.07484505
-0.06889650
0.04512025
-0.04314791
-0.04377840
-0.09615122
-0.00186125
-0.03188458
0.02013302
0.01631002
-0.13271801
0.00426894
0.01163971
-0.02402530
-0.00775337
-0.00882148
-0.02207963
0.04853042
-0.00664629
-0.03184927
-0.03379286
-0.04385679
-0.04955144
-0.01823163
0.02324978
0.08005323
0.02958972
-0.21645145
0.10487321
0.09167941
-0.10886509
-0.08976317
0.11465932
0.07691392
-0.13171984
-0.04509676
-0.03469580
-0.21826389
0.13623920
-0.00104683
-0.01434588
-0.02677674
-0.02006559
-0.05117189
-0.02605266
0.07607128
0.01731801
-0.03162893
0.06825077
-0.05649501
0.14632645
-0.06419511
0.12812982
0.00489347
-0.09581403
-0.13711879
0.03283824
-0.00055884
-0.02987232
-0.00281448
-0.04206749
-0.01804901
0.01218174
0.02926557
0.02520822
0.01850653
0.00733022
0.13075019
0.09845605
-0.04298618
-0.11837424
0.02306394
0.06508274
-0.07507402
0.08010423
0.08480496
-0.10109557
0.06898004
0.05291182
0.05379967
0.03059092
0.10727013
0.10880556
-0.01855185
-0.03386460
-0.08313215
-0.11991192
-0.00443355
-0.10771065
-0.11124516
-0.14210320
-0.11198510
-0.13814376
0.05161786
0.03191238
0.02967310
0.05191819
0.04704794
0.05201678
-0.02772678
-0.21897338
-0.05983274
-0.05770167
-0.00875072
-0.18464492
0.03345352
-0.04480958
0.02873982
0.06933725
-0.02250260
-0.06180547
-0.13035125
0.13174200
0.00996405
-0.03971250
0.02823070
0.00356663
-0.01906673
-0.02172231
0.11318905
0.06385984
-0.04140264
0.01674666
-0.02448371
0.02499647
0.14066650
0.10531928
0.01593752
0.01872033
-0.07205078
0.00070519
-0.01118839
-0.10393914
0.05778103
-0.09875938
0.04864065
-0.08601356
0.10649151
0.14932330
0.17399786
0.01171869
-0.15649296
-0.07970513
-0.00520395
-0.05434267
0.02003676
-0.08020827
0.00945521
0.03347503
-0.03172208
-0.00589044
0.01363434
0.05334620
0.07175951
0.05596314
-0.02988037
-0.02605627
-0.10775059
-0.05450596
0.14031269
-0.00132120
0.02247509
-0.00366405
0.07491701
-0.12510432
0.13786992
-0.00443757
0.06236099
0.00265290
-0.10997222
0.15023898
0.07464863
0.06487758
-0.03310272
0.08595236
0.05398916
-0.02610952
-0.05676373
0.08156201
0.04327736
-0.00388652
0.12934966
-0.02617029
-0.04497111
0.04283340
0.04024965
-0.00106626
0.06211387
0.02910564
0.04793993
-0.05215592
-0.09518559
0.01185001
-0.00718360
-0.01001123
-0.00965723
-0.00923314
0.07700038
-0.00968139
-0.01513373
0.00917686
-0.01017144
0.00085724
-0.10565717
0.04626961
0.02057520
-0.00326437
-0.10169798
-0.04502137
0.01124137
0.04788584
0.05574378
0.07684005
-0.11895217
-0.03166202
0.22813559
-0.01459872
0.10760237
-0.03671096
0.12054848
0.07598249
-0.02300243
-0.15994832
-0.02520608
0.08238121
-0.04800057
0.03829518
-0.07221485
-0.00045018
0.09683486
0.01262316
0.09393431
-0.10270532
0.01701403
0.02426545
-0.09889112
-0.01925195
0.05386167
-0.03730826
-0.09060568
0.02694807
-0.01881522
-0.00611766
-0.01076194
-0.04036251
0.00902181
-0.14704035
0.03690170
-0.02823716
-0.11255171
-0.04343091
-0.04429770
0.04298088
0.00502160
0.04837765
-0.07848713
0.02218931
0.00508845
0.03978332
-0.12511705
-0.07547952
0.12013233
0.05805800
0.06759527
0.14007311
-0.00195700
0.03698812
0.10963606
0.00082824
-0.08723461
-0.03591960
-0.02473724
-0.03489339
0.02001565
0.00168394
0.07945292
-0.03452192
0.04924021
-0.05241214
0.01232849
0.01874162
0.04756691
0.01036628
0.05086168
-0.04427988
-0.02840072
-0.01416977
0.06568646
0.01865691
-0.02951492
0.06852142
0.06229914
0.05583154
0.08159725
0.01144630
-0.03086898
-0.01712072
0.00209658
-0.00578749
-0.01370473
0.06275183
0.04631625
0.11561114
-0.10750670
0.16121027
0.04787081
0.02243667
-0.07284123
-0.04889016
0.04489258
-0.02204881
-0.03358883
0.00278148
0.01673063
0.01408155
0.01784752
0.08464117
0.09555116
0.14208947
-0.04081880
0.05574392
0.03333608
0.09569538
0.06042236
0.03148702
-0.02172469
0.01928573
0.00331474
-0.00686513
0.03000990
-0.05832122
-0.00646836
0.05907951
0.01202740
-0.07635713
0.01001842
0.18972719
0.00220871
-0.00767866
-0.00331326
-0.03489199
0.02136181
0.06778502
-0.12846988
0.03043585
0.02484492
0.03286397
-0.01835795
0.10250716
-0.06272799
0.05302924
0.09532729
0.05263899
-0.12803599
-0.12291337
-0.14683214
0.04369472
0.03185757
-0.00074374
-0.02103273
-0.14263035
0.14614406
-0.05560856
-0.06026148
0.16367595
0.01801509
0.00576317
-0.15175016
-0.12241333
0.13495994
-0.05393837
0.01046191
-0.03107084
-0.10382236
-0.04110618
-0.06018672
