0.09821316
0.00066756
-0.01210133
-0.26430610
0.22555044
-0.29645947
0.24772610
0.11774455
-0.02835349
-0.07020449
-0.03162687
0.31068915
-0.26598993
0.20710564
-0.07211574
-0.00987792
-0.13617644
-0.12847137
-0.06276969
0.40717930
0.38709658
-0.28332561
0.14918770
0.22142376
-0.05571792
0.28066352
0.16640726
-0.11134213
-0.24640389
0.05318424
-0.06324266
0.17490521
0.15835944
-0.12999518
0.02062237
-0.13241881
-0.24452020
0.25354379
0.19444117
-0.23675716
-0.04111568
-0.21272650
-0.02676989
0.22379860
-0.02805808
-0.10265637
-0.17473701
-0.14022261
0.10427599
-0.05740838
-0.29991931
-0.00691823
0.24471188
-0.29218554
0.08561669
-0.04432263
0.06082987
-0.31656817
0.16712336
-0.08675843
-0.11820456
-0.02824203
-0.30943108
-0.27655870
0.00071761
0.14984317
0.01674482
-0.05718039
0.00025435
-0.16993144
-0.25384283
0.07786506
-0.22400667
-0.12997410
0.20041703
0.09274720
-0.01399624
0.16480607
0.09620652
0.13575774
-0.00279887
-0.03144661
0.16548488
0.17743081
0.04392313
-0.02967702
-0.25204340
0.12803617
0.03454803
0.08685323
-0.08612075
-0.02557085
0.64714235
-0.13152225
0.12291684
-0.06818202
0.30960616
-0.17307951
-0.05869715
-0.05054801
0.15467288
0.17361477
0.04709864
-0.10699009
0.12508953
-0.00921362
-0.14964084
-0.14822058
0.10047261
0.04811598
0.02899768
0.05041007
-0.25850180
-0.24089570
-0.07857254
-0.01095483
-0.04064770
0.02806196
-0.09463828
0.16994193
-0.09162954
-0.47677997
-0.15548144
-0.02001374
0.01818076
-0.16440864
-0.08117062
0.12088808
0.01354283
-0.01474607
0.03750666
0.12371820
-0.18438593
-0.05106575
-0.13777673
-0.22341682
-0.03112396
0.09995417
-0.18072079
-0.21587873
-0.02841729
0.03711222
-0.08491433
0.09229421
-0.01801929
-0.71964425
-0.01058419
-0.00312203
-0.07921244
0.35152987
-0.00886178
0.14351918
-0.16176488
0.10025907
0.11674376
-0.06026738
0.18796226
0.32681978
0.10423070
-0.05242575
-0.01543763
-0.06358711
-0.12424920
0.04953947
-0.03383236
0.17088072
0.10507476
-0.22902760
-0.90144348
-0.05483943
-0.09109407
0.09117766
-0.01031638
0.43073332
0.06549031
0.27625918
-0.04248403
-0.01391681
-0.02627520
0.16770667
-0.11265111
0.04649609
-0.08434377
0.24222101
0.18405202
-0.06724899
0.22223547
0.15407179
0.13364361
0.03064841
-0.03661817
-0.35862932
0.20277047
-0.04555649
0.05961445
0.09174746
-0.06764505
0.18765874
-0.07011276
-0.14187010
-0.16674615
0.16692072
0.09029400
0.06328248
-0.09722966
0.12164929
0.08706262
0.01849153
0.11604243
-0.07518241
0.00025025
-0.14853992
0.15054578
0.21936087
-0.06317111
-0.10247655
-0.21079445
-0.06772304
0.34462103
-0.17142202
-0.00758669
0.14808209
-0.00013801
0.01565586
0.00084301
0.33010694
0.19011801
-0.12780221
0.12788326
-0.03566795
0.17744397
0.02754119
0.16489838
-0.01602543
-0.00631422
0.16777107
-0.00563519
0.01122376
-0.07712577
-0.19697520
-0.02818207
0.07189066
-0.14017391
-0.01059761
0.02511210
-0.16426954
-0.19395703
0.09852893
-0.18573342
-0.50462252
0.03743651
0.26281300
-0.08921555
-0.06559350
-0.02333372
-0.15920992
-0.27234250
-0.15568554
0.05171892
0.06804581
0.12644790
-0.12909247
0.20378351
0.11681176
0.19501089
-0.02303007
-0.05354045
0.07009814
0.11685649
-0.00288008
0.00611579
0.02286757
0.00254441
0.03129083
-0.21237254
0.09817001
-0.17552991
-0.22301260
-0.09413321
-0.17943060
0.14718148
0.03056235
0.00561971
-0.18704470
-0.29921311
-0.02605230
0.12480679
0.28211764
0.09761229
0.00904382
0.02914807
-0.07554987
-0.11745141
-0.06102183
0.18002863
0.03770558
-0.04301301
0.33101138
0.03031946
-0.00815562
-0.17136684
-0.02242069
-0.09775949
0.13620915
0.30696553
0.18300188
-0.32869896
-0.12028187
-1.51099539
-0.02952626
-0.05734070
0.25778070
0.04687840
-0.05365264
0.02990487
0.02422621
0.03276546
0.04071093
-0.08748761
0.20399542
-0.12003779
0.00034396
0.13749962
-0.21827994
-0.00851043
0.19451250
0.03779374
-0.06819326
-0.05037884
0.05301144
-0.08196035
-0.07084014
0.07976735
0.25328192
-0.15875567
0.05721939
-0.06414245
-0.14825287
0.00343245
0.03153049
-0.08092554
0.07930675
0.14715247
-0.04239704
-0.01489633
0.27744702
-0.00917029
-0.19308127
-0.16883746
-0.26665774
-0.11013219
0.24200037
-0.05718653
0.20576318
-0.04197206
-0.11112949
-0.06733740
0.08897576
-0.12698561
0.12034679
0.10011829
-0.10089524
0.04562409
0.08381043
0.05218071
-0.15325968
-0.04729334
0.10066818
-0.13952273
-0.18108161
-0.09744344
0.00273812
0.07883819
0.08161331
-0.23559535
-0.05535585
-0.05996617
-0.10969445
-0.22206122
-0.04964617
-0.07106021
-0.87035525
0.14636868
-0.33418220
0.01454735
-0.04662950
-0.17115772
0.17248932
-0.10453521
-0.10366955
0.07535016
0.02879571
0.14154282
-0.05331651
0.10320487
-0.04493894
-0.12863457
-0.27072260
0.03950221
-0.08023334
-0.06063575
-0.06625595
0.02247693
-0.25406232
-0.00741585
-0.35199887
0.11455879
0.01780666
0.06815112
-0.14733547
-0.14558050
-0.20517316
0.00599701
0.09043942
-0.00362650
0.08617125
-0.03055857
0.02532479
0.01903554
0.02689414
-0.07210689
-0.23267074
0.20476677
-0.04557430
-0.29366189
0.09878051
-0.06138813
-0.10978033
-0.22160932
0.18091913
0.02338996
-0.16245332
-0.17126958
0.10276449
0.02173687
0.21067910
-0.26275468
-0.21328123
-0.09565942
-0.14862910
0.00746659
-0.01446909
0.02868623
-0.08694917
0.02147442
-0.09434547
-0.23367712
0.11988536
-0.01282986
-0.28936252
-0.05709603
0.00201278
0.20237166
-0.25862712
0.03315035
-0.06930904
-0.02550809
0.11284664
-0.08693010
-0.16726364
0.05444328
-0.31460905
0.07772765
0.23408927
0.10313965
-0.07141043
-0.24549259
-0.03737062
0.11124813
0.03561439
-0.03208543
-0.20420124
-0.04978954
-0.11276304
-0.06753322
-0.04697322
-0.01765817
0.03698909
-0.11587535
-0.07370517
0.14938718
0.25801978
-0.10696511
-0.01766559
-0.01410454
0.04229439
0.06970972
0.09150952
-0.28154588
-0.00409029
0.00540851
0.02744208
0.20727381
0.02190561
-0.07669141
-0.01772977
-0.07026970
0.06326126
-0.02858183
0.07470987
0.00975448
0.04355681
0.01868303
-0.04649998
-0.10653353
-0.02103807
-0.13264015
0.05337598
-0.10839217
-0.03942315
-0.05168676
-0.08671544
0.01766128
-0.02078655
-0.24789132
0.18830524
-0.09482756
-0.02247450
-0.25506195
0.06414311
-0.13864399
0.18424173
0.10994503
-0.11962125
-0.18973355
-0.10985088
0.10320730
0.00385277
0.07397278
0.08751512
-0.20725702
-0.10323542
-0.01976085
-0.04535185
-0.01278518
-0.04706426
-0.03974494
0.11601327
-0.01457287
-0.30712086
0.02824797
-0.16657975
-0.09878609
0.00989169
-0.08039595
-0.60775030
-0.10731637
-0.09235830
0.17842464
0.19602185
0.00423433
-0.19658567
0.14699671
0.09924688
0.13824227
-0.18682382
0.10528969
0.03728674
0.11397475
-0.03871880
-0.17444767
-0.09363972
-0.20608518
-0.06760754
-0.09263931
0.04709569
0.06236704
-0.14974172
0.03296567
-0.09517640
0.02570183
-0.00813952
0.08997906
0.04313148
-0.09692555
0.01449162
-0.12221951
-0.15714538
0.17918858
-0.08260500
-0.16509962
-0.00925902
0.14813469
-0.03761066
-0.02918390
0.04670852
0.38875461
-0.06269104
-0.11307990
-0.04652282
0.12354512
-0.05334482
0.05333313
0.00508426
0.12213625
-0.00386976
0.09503133
0.11221839
0.15230130
0.03310927
0.07027266
0.08091785
-0.19902404
0.01390874
0.10597063
0.07486922
0.02940177
0.13641471
-0.00020319
-0.10791190
-0.00047721
-0.07663238
-0.04538629
-0.04807872
-0.09097774
0.05403547
-0.11800842
-0.00333252
-0.07595681
0.08939786
0.14858803
-0.07820016
0.02241952
0.06002336
-0.06148374
0.19535872
0.31625310
-0.24108177
0.03604908
0.04937911
0.14396676
0.24504559
-0.09834959
0.24800225
0.09331129
0.03252542
0.07364472
0.05765429
0.09890340
0.17400280
-0.17660971
0.10846598
0.04687522
-0.03445768
-0.09716289
-0.12707703
0.12070021
-0.07661382
-0.10605045
0.16795939
-0.04977246
0.10272729
0.10539738
0.15139043
-0.30493262
-0.06938135
-0.02941995
-0.03484470
-0.01339723
-0.09837297
0.07042250
-0.04140625
0.02990277
-0.17510384
0.02699562
-0.07305316
0.01119398
0.01887368
0.12606673
0.02618884
-0.00380806
0.04925904
-0.12405975
-0.11623408
0.03961018
-0.14931577
0.21336046
0.09895791
0.19095281
-0.10454344
0.01362032
-0.09258147
0.24566631
-0.09716578
-0.10317486
-0.13941956
0.17780763
-0.07966986
-0.11445893
0.06182252
-0.00813202
0.16700855
0.10044010
0.12120190
-0.15137729
0.20296788
-0.20224637
-0.10453560
-0.04188654
-0.13071550
0.08407629
-0.03064340
-0.08124645
0.08389174
0.02802559
0.10668986
0.22564271
0.14283079
0.08327822
0.12403265
-0.24375139
0.08156095
0.10296814
0.08806615
-0.21613902
0.09540790
0.03886013
0.11656120
0.04272829
0.06016297
-0.10070278
-0.09166550
-0.06176542
-0.08157576
0.09314066
-0.02922465
-0.01392907
-0.01703133
-0.11220344
0.03334441
-0.08450934
0.19754642
0.08443654
0.08978976
0.19606330
0.06805624
0.22145350
0.08375465
-0.05934746
-0.01011367
-0.07344589
0.03469377
0.09856957
-0.14868951
-0.02685244
0.17300740
-0.10543345
-0.05810447
0.11839788
-0.05972056
0.04666239
-0.20794642
-0.03470705
0.05144724
-0.13794214
0.08541770
-0.39809266
0.17879015
-0.00182319
0.07550499
0.12739210
0.13425776
0.04102099
-0.17005289
-0.12557720
0.03119926
-0.07506168
0.04079016
