-0.06795108
-0.01447714
0.09855989
-0.23238808
0.27815136
-0.09097659
0.08793328
0.13673109
-0.02850957
-0.10380455
-0.10098478
0.06975579
-0.06497864
0.08935682
-0.04906660
0.09002393
-0.02791085
0.00766671
-0.08170225
0.08266764
0.20405442
-0.13827130
0.08650316
0.40566349
-0.03999788
0.19038890
0.12712082
-0.13657746
-0.21524005
-0.00017642
-0.00430292
0.03463228
0.14798971
-0.15318511
0.06164297
-0.03240028
-0.24372399
0.12524787
0.15831536
-0.26865685
-0.12423266
-0.08557181
0.07944112
0.10488972
-0.05048883
-0.19506720
-0.01979866
-0.09906731
-0.02969880
-0.01307170
-0.15993492
-0.10930533
0.19251367
-0.31850526
0.05888931
0.06939498
0.05217302
-0.18399796
-0.03204943
-0.00089263
-0.08590510
0.11926467
-0.10755749
-0.10836579
-0.02105130
0.10152031
-0.09526252
-0.02639866
-0.02162391
-0.17174146
-0.19314620
0.06136507
-0.10993829
-0.13433799
0.07898381
-0.04224046
-0.10960794
0.10157035
0.01581154
0.04761453
-0.06200711
0.01532766
0.10780324
0.15353602
-0.05023079
-0.22781135
-0.00133173
-0.04330449
-0.04559878
0.04195720
-0.08482849
-0.22973275
0.62670171
-0.06687599
0.09741845
-0.09997334
0.24005677
-0.11011589
-0.05814054
-0.08150710
0.01708066
0.07491078
-0.02602851
-0.05059309
0.04950342
0.00739956
-0.08585827
-0.12041243
-0.08213328
-0.02848304
-0.16844641
-0.01001738
-0.29725841
-0.11407451
-0.02494033
0.01911281
0.03141186
-0.01407871
-0.17422384
0.09270824
-0.09616191
-0.14965595
-0.06273506
0.06972529
0.12847653
-0.25515953
-0.06981620
0.22190274
-0.12949823
-0.03090526
-0.10366365
0.14832219
-0.15549590
-0.10174695
-0.08302455
-0.07245164
0.00310103
0.08038368
-0.13844208
-0.18902476
-0.10824347
-0.03237106
0.01433999
0.05471373
-0.00850731
-0.49933162
-0.07051537
0.03013721
-0.08770429
0.23825918
0.10322297
0.17179872
-0.09428909
0.08054519
-0.00903054
0.05989071
0.10030799
0.18902631
0.04992080
-0.21587050
0.00955711
-0.15063101
-0.08921719
0.05127667
-0.01714071
0.06040423
0.16342911
-0.02573820
-0.46790543
-0.16518663
-0.16444594
-0.06008833
-0.09992908
0.21258670
-0.02417825
0.23096903
0.00475307
0.14529045
0.16718660
-0.05941448
-0.01014099
-0.01956441
-0.12706026
0.12014816
0.08607706
-0.07863775
0.13025044
0.17402130
0.05648347
0.09569170
-0.00632725
-0.30312151
0.21622092
-0.03584130
0.10168301
0.08206672
-0.02309488
0.19714093
0.02932367
-0.11348466
-0.21922371
0.04204606
0.13914831
0.08010761
-0.15343907
0.12581247
0.06216228
-0.14096141
0.05379916
0.09485514
-0.06134299
-0.09514309
0.00703286
0.18828523
0.07091627
-0.07150731
-0.20175228
-0.08368461
0.16226111
-0.11867583
-0.06623805
0.20113634
-0.04698716
0.05988741
-0.11029024
0.22677469
0.05786500
-0.20940775
0.02663514
-0.05262848
-0.00191387
-0.03038068
0.07419986
-0.01070976
-0.00070843
0.16920181
-0.01423235
-0.19220538
0.01475205
-0.20257665
0.01203043
0.11051687
-0.17822357
0.02242541
-0.00410317
-0.06497926
-0.11377570
0.06159484
-0.18874015
-0.22455916
-0.03138685
0.42823830
0.04148389
-0.06485786
0.00888318
-0.06587335
-0.38659149
-0.00517650
0.03374462
-0.08107676
-0.00771123
-0.13689995
0.01776720
0.00696822
-0.09228190
-0.11514968
-0.05043952
0.02655516
0.07388754
-0.04829643
0.01016089
-0.01845255
-0.11690889
0.10351054
-0.03587803
0.08975277
-0.13680092
-0.15668324
-0.16863006
-0.12418272
0.09690114
0.01219548
-0.10915590
-0.24049230
-0.23979782
0.10077008
0.12754688
0.19105199
0.02842229
-0.01622859
0.06701002
-0.14197914
-0.09850948
-0.03983005
0.09782217
-0.06732300
-0.00748119
0.28618422
0.06229277
-0.02402535
-0.03773225
0.07853483
-0.14965101
0.09004128
0.32083061
-0.03967131
-0.08698295
-0.06416267
-1.11427212
0.00744595
-0.06420021
-0.09396090
0.11276240
0.03093037
-0.09022158
0.02168768
0.04277474
-0.02031430
-0.16519578
0.00161440
-0.24412413
0.05814182
0.14046648
-0.28995889
-0.13029802
0.10353960
-0.07113031
-0.18450981
-0.03919037
-0.09829247
-0.04656056
-0.05990949
0.07767678
0.06663692
-0.07014367
0.05044415
-0.06779093
-0.16538136
-0.03869964
-0.07327679
-0.03943508
-0.03039192
0.14043668
-0.04645680
0.03099970
-0.01962251
0.05682674
-0.10294747
-0.17304660
-0.23518798
-0.17579395
0.01812688
0.04899360
0.00338528
-0.01692684
-0.04553297
0.11711099
0.08446438
-0.01392963
0.06331128
0.02213926
0.06677555
-0.00847197
0.01939533
0.01830977
-0.08469695
-0.06726739
0.13656600
-0.11535791
-0.14127073
-0.08083374
-0.07048542
0.03688161
-0.04378563
-0.18273641
-0.00734496
0.02165615
-0.14728071
-0.19567706
0.07024173
-0.02354084
-1.39595306
0.05850179
-0.21112642
0.07801330
-0.12878363
-0.31208026
0.07341982
-0.08415104
-0.03248044
0.10098016
0.05995968
0.13371648
-0.10990219
0.03546196
-0.04015110
-0.17320907
-0.21632954
0.06916400
-0.10483300
-0.09577920
-0.17523818
0.15346482
-0.13207580
-0.06306418
-0.12255609
0.05170308
-0.11087003
0.14056481
-0.15370616
-0.11255912
-0.06427665
-0.00496960
-0.00193857
-0.15681802
0.04963224
-0.05212845
-0.02862052
0.08278027
0.03696407
-0.15054440
-0.17682591
0.04144448
-0.00804461
-0.21600878
0.18132553
0.03969595
-0.21568242
-0.23366463
0.11739575
0.07477336
-0.25005373
-0.22665362
0.24193487
-0.19841127
0.10674638
-0.20833190
-0.04341832
-0.16627103
-0.04933861
0.05180223
0.04533423
0.15717021
-0.12233412
0.01691608
-0.03779107
-0.21154441
0.04548156
-0.07975896
-0.23996191
-0.01666762
-0.06904720
0.11712293
-0.15576555
0.09204459
0.03430307
-0.12559849
0.12881319
-0.09729519
-0.11345527
0.03501501
-0.24352145
-0.09806213
0.12294852
0.09549205
-0.11769039
-0.06335581
-0.10726859
0.03697077
-0.01212671
0.03537446
-0.12064438
-0.07934760
-0.05038129
-0.03050014
-0.07508848
-0.14088356
0.07614280
-0.19850911
-0.10850526
0.10315775
0.16702993
-0.16559239
0.00039129
-0.05068075
-0.00128487
0.09396116
0.08822002
-0.21836182
-0.03349708
-0.06028639
0.00018546
0.04630217
-0.01981427
-0.01666034
-0.07454927
0.04669540
0.02726096
-0.07983040
0.01096055
0.11583152
0.11612090
-0.04799418
-0.02443577
-0.02976083
0.03980854
-0.11111555
-0.05388587
-0.14539120
0.04074737
-0.14550816
-0.05643514
-0.03261211
-0.11133858
-0.10170337
0.25841823
-0.06579226
-0.02115721
-0.23900446
0.08311669
-0.11650788
0.29830280
0.09997784
-0.12372658
0.02852667
-0.02676085
0.02108792
-0.07096789
0.08092890
0.11898228
-0.01050543
-0.16604985
-0.06554402
-0.07957321
0.06996650
-0.10773025
-0.05347342
0.00027327
0.04928114
-0.30042002
-0.01101958
0.01109596
-0.13738662
-0.00145586
-0.13431436
-0.44642580
-0.22313431
-0.07226117
0.23989859
0.18582310
-0.03415187
-0.09475657
0.00680456
0.05924017
-0.03160485
-0.06091271
0.01099488
0.09296331
0.07149500
-0.05651731
-0.06980576
-0.17612837
-0.06126112
-0.05545447
-0.14406471
0.05009769
0.10011079
-0.12530853
-0.02739472
-0.09144162
0.01037446
0.03404569
0.04063810
-0.07738944
-0.16405691
-0.03494802
-0.18622819
-0.08919854
0.14571692
-0.07930236
-0.17541197
0.07786258
0.12940717
-0.18409851
-0.19548351
-0.06111895
0.37548298
-0.07913222
-0.15384628
0.08091436
0.02286520
-0.03080238
0.09496728
0.08382089
0.06312415
-0.01659180
0.10947859
0.04754446
0.08517217
0.02164770
0.04946179
0.02757117
-0.10712884
0.05448150
0.13371243
0.17321202
0.11335300
0.07168179
0.09163801
-0.00029294
0.01011376
-0.18090391
-0.10511028
0.07053689
-0.28730154
-0.03459755
-0.08543047
-0.00424525
-0.09892282
-0.12937433
0.10471091
0.01825525
0.11581232
0.09692800
-0.03982830
0.10633924
0.22549309
-0.16786675
0.05559351
0.00895391
0.18847805
0.08998419
0.02791263
0.23470913
-0.01482549
-0.01016706
0.00316849
0.00185407
0.17074382
0.09774216
-0.05871905
0.15343767
0.08890335
-0.07684930
-0.04857978
-0.16507520
0.01588476
-0.01689201
-0.04794237
0.00049512
-0.06560963
0.15672483
0.12811567
0.10094266
-0.18232211
-0.01252614
0.01474079
-0.00206345
-0.05948570
-0.10548694
0.08882728
-0.02782341
0.05661477
-0.13286585
0.05660994
-0.12158705
0.13306624
0.13878785
0.08856843
0.09676168
0.03694798
0.04118405
-0.15668978
-0.01862706
0.06686752
-0.13812290
0.29455844
0.19518124
0.13919753
-0.07265941
-0.01533953
-0.06700012
0.19486168
-0.00415224
-0.16348988
-0.03698154
0.12994510
-0.00087623
-0.14427158
-0.02406851
-0.06321459
0.02916895
0.08763091
0.00485790
-0.02634612
0.02837002
-0.18205066
-0.00056316
0.00011136
-0.12385967
0.05550590
-0.04548753
-0.05439324
0.01324025
0.09423745
-0.00327158
0.23940760
0.08700798
0.03135337
0.11422306
0.05983681
0.01695953
0.03732413
0.11321776
-0.00670574
0.18038021
-0.03507467
0.06243766
-0.04068869
-0.02566370
-0.07841565
-0.11207490
-0.07650838
-0.04698443
0.09339932
-0.03472168
-0.06283547
-0.06617244
-0.09221747
0.02082442
0.05535914
0.14758404
0.09879128
0.12343182
0.25141805
0.01478189
0.00395991
0.12562719
-0.01263023
0.07375858
0.02094716
-0.03977399
-0.01846712
-0.01360948
-0.03800139
0.00713260
-0.08676697
-0.02206714
0.14218190
0.00203494
0.06248792
-0.12534706
-0.03312699
0.14268462
-0.20830993
-0.09543274
-0.11348248
0.07448976
-0.08695684
0.04423431
0.04674068
0.10211968
-0.01294661
-0.13650261
-0.20447671
0.03600414
-0.00893805
0.04206323
