-0.00148205
0.01758635
-0.04156922
0.01643672
0.00502292
0.01270120
-0.03945558
0.01428786
-0.03912167
-0.00569731
0.00984509
-0.00434156
0.08192985
-0.05047664
-0.00019822
0.02469832
0.05818950
0.00331183
-0.00867105
-0.06121371
-0.05545643
0.02065060
-0.04962878
-0.04332161
0.06453133
-0.02387378
-0.06605450
0.03467718
0.00925839
-0.00922110
0.04665733
0.01435054
-0.03284102
-0.01307065
-0.03891182
0.02745456
0.05414911
-0.02756872
-0.02704497
-0.03377690
-0.00700026
-0.01016773
0.01583799
-0.04158176
0.05608936
-0.01705098
-0.00311648
0.01502377
-0.00589914
-0.03903256
0.04779526
-0.01661486
-0.04013768
0.05218549
0.03426205
0.00239289
-0.02805459
-0.02831499
0.00593357
-0.02659304
0.01647955
-0.00989348
0.06743952
0.00939323
-0.03418754
-0.03195528
0.00153204
0.00175597
-0.03226990
0.00741354
0.02648569
0.00355860
0.04818128
0.03475000
-0.03891957
0.05745360
0.05546753
-0.04802841
-0.06207578
-0.05710449
0.04099279
-0.01745647
-0.00463579
0.04264421
0.01030871
-0.03658087
0.02458993
-0.01922162
-0.02018086
0.00890952
-0.00025132
-0.02919982
-0.09689244
0.04767889
0.03781016
0.05266600
-0.03115110
0.06429447
0.01801900
0.01626658
-0.00462247
-0.03138117
-0.01999651
0.02994043
-0.02293886
0.04654032
0.00172324
-0.00481563
-0.02390083
-0.00376729
-0.02782471
0.01497421
-0.00463734
0.01652737
-0.00293353
0.00340617
0.00588323
0.00407785
0.00298857
-0.05911627
-0.02667181
0.08571687
0.04089694
-0.05043460
-0.00466468
0.01199319
0.03137804
-0.01131023
0.02150153
0.09039375
0.03459450
-0.02984381
-0.03034453
-0.05053950
-0.00862319
0.00403093
0.01355497
-0.04333696
-0.01745678
0.01712966
0.01043612
0.05018804
-0.01979177
0.01163470
-0.03705138
0.13260160
0.03363973
0.02665703
-0.04622767
-0.01136796
-0.02766832
0.01142554
-0.04848348
-0.01439067
0.01186646
-0.00501415
-0.00684174
-0.03927854
-0.03667456
-0.08641154
-0.03398255
0.00129897
0.06232628
0.02831683
-0.00616922
0.00048799
-0.03392024
0.02455930
0.15314530
0.03112734
-0.00328751
0.01410253
-0.00683596
-0.03556249
-0.00704010
0.05021501
0.01501839
-0.00749396
0.05542335
-0.02977225
-0.04611642
0.00020019
0.03005440
-0.03992146
-0.02327936
0.00517985
-0.03606940
-0.02730213
-0.04119448
-0.02931814
0.00186689
0.03278479
-0.02228263
0.03450185
0.03376642
-0.00880370
-0.02228909
-0.08236171
-0.03914631
0.06722891
0.02076521
-0.07481042
-0.08067942
-0.07015572
-0.01807116
-0.02040990
0.02904053
-0.00477930
-0.01044423
0.01023641
-0.02762027
0.03494186
0.00868438
-0.05493279
-0.01549134
0.01431463
0.01550861
0.01605292
-0.10776511
0.01180178
0.01149358
-0.00913346
-0.01836692
-0.00306896
-0.01224425
-0.07363544
-0.02499794
0.03699300
-0.00983881
0.00655830
-0.01045400
0.01401517
-0.00803470
-0.00122501
-0.01408144
-0.01798749
-0.03420524
0.01619413
-0.02002757
0.02781580
-0.03935453
-0.03470749
0.03918031
0.01081635
0.02215230
0.04744713
-0.06358582
-0.03865692
0.03166569
0.05284410
-0.01523067
-0.04487222
0.00390276
0.00502493
-0.03754148
-0.01325410
0.01255239
0.03264121
0.02141533
0.02908268
0.06514796
0.01722812
-0.02485129
0.04611267
-0.02254860
-0.00877256
-0.00432736
0.00462607
-0.00183438
0.01529659
-0.02268689
0.00923441
0.01660691
-0.00809033
0.01855521
-0.04953862
0.00970517
0.04855719
0.04074012
0.02553352
-0.02067179
-0.02788870
-0.01856781
0.02719552
0.03216442
-0.02288789
-0.01399455
-0.02422175
0.02172747
0.00733119
-0.02801995
-0.00836050
0.02702514
0.00850583
-0.00406216
-0.01505813
-0.04210126
-0.01499217
-0.01223752
-0.04222587
0.00838685
0.03267811
0.01459325
-0.00981552
-0.10006778
-0.02880837
0.02020639
0.01230316
0.77297747
-0.03662583
-0.00748234
-0.07098347
-0.00002715
-0.00432858
-0.01023293
0.05441684
-0.01706157
-0.04468456
-0.01221445
-0.06032327
-0.00303441
-0.02820784
-0.00353338
0.04466563
0.03687329
-0.04946394
-0.08242801
0.02963633
-0.01821970
-0.03129910
0.05002739
-0.11528952
0.01581270
-0.01569049
0.03898019
-0.01420833
0.01334778
-0.00797859
0.01155861
0.00628618
0.01416952
-0.03182002
-0.05743861
0.00839654
-0.00629601
0.01272815
-0.03586224
-0.01039834
0.00359120
0.01596041
0.02663694
-0.02317400
0.01590842
-0.10963568
0.00952687
0.00899022
-0.00038014
0.02729427
-0.01300371
-0.04745049
0.01937090
-0.03069610
-0.01078237
-0.00680766
-0.03022150
0.02743041
-0.05907134
-0.06133465
-0.02398588
0.00036270
0.00980031
0.02711846
-0.03448237
0.02029555
-0.00997332
0.01325887
0.01366332
0.02387028
0.03814681
-0.01087076
0.00228717
0.06783238
-0.04448218
0.05610431
-0.01252372
0.03740534
0.02105060
-0.02510371
0.01936643
-0.05373039
0.01615107
-0.05534366
0.00274394
-0.04579537
-0.02212895
0.00029239
0.03140801
0.04651937
0.00897688
0.01434033
0.04219762
0.02970958
-0.00067064
0.01941688
-0.00098124
0.02796131
0.00309710
-0.02791754
0.00706401
0.01558798
0.02247120
0.02012370
0.01470845
0.02074215
-0.04447332
0.00703701
-0.01691744
0.00883028
0.02446950
-0.09120435
0.04282949
0.07526829
-0.01872388
0.00290057
0.05663688
-0.03703057
-0.02807053
-0.04451561
0.01031391
-0.07728693
0.03004113
0.01392870
0.02700329
0.00244689
-0.01571652
-0.00742381
0.01391550
0.02856859
-0.00128428
-0.05251645
0.03175795
-0.00865061
0.01178424
0.05650526
0.01786985
0.02303835
0.01497441
-0.01076229
0.04046611
0.04028353
-0.01183379
0.01528764
-0.00707340
-0.00792098
0.00661208
0.03114749
0.01919361
-0.02961586
-0.01448027
0.01141778
-0.01591512
0.06098547
-0.00258721
-0.00117363
0.05865176
-0.03445087
0.00406895
0.02925250
-0.01891052
0.06837043
-0.00711310
0.00156357
0.00303264
0.03543940
-0.00593557
0.00789625
-0.04090263
-0.03041087
0.04170594
-0.01002857
0.00731877
-0.03927575
0.07760116
-0.02554869
0.01998552
-0.02311803
-0.02428095
-0.02933441
0.04046116
-0.06484478
-0.00607372
0.00613370
-0.06770507
0.01418793
0.01298042
0.01663685
-0.09556939
0.01502608
-0.00951081
-0.00945756
0.00366166
-0.02008561
0.01274280
-0.04937327
0.02285041
-0.01607982
-0.02570361
0.00268464
0.01503284
-0.01507798
-0.01566916
-0.00171401
0.04063546
-0.00051209
0.02045038
-0.05037063
0.00448681
-0.00752415
0.00512713
-0.00396691
-0.00189916
-0.04006709
0.01297009
0.02208004
-0.01496007
0.03831224
-0.00189073
-0.02528434
-0.01242677
-0.02294466
0.05082337
0.01722534
-0.02625557
-0.04302154
0.00059997
-0.00440481
-0.03020218
-0.03054421
0.00894327
0.00881572
0.00624398
0.01478885
0.02468157
-0.01200449
0.00385796
0.07653266
0.04359786
0.01586873
0.00369369
-0.01189465
0.00321975
0.08626546
0.02648647
0.00110086
0.03069750
0.01271343
0.01340055
0.02903575
-0.02041441
0.00302842
-0.00894022
0.02230190
0.02084446
0.02416285
-0.02930235
-0.02020805
-0.00478871
0.03863581
-0.00330077
0.02089829
-0.00470329
0.03948633
0.05195968
0.06889408
0.02079877
-0.00045048
0.02054158
-0.00200351
-0.00645213
0.03124148
0.01817149
0.00352328
-0.02366252
-0.02204053
0.03392040
0.00602896
-0.06885368
0.00113671
0.04091254
0.03730020
-0.02865908
0.01482736
-0.01172214
0.01637845
0.03204391
0.01948385
-0.01717077
0.02537739
-0.02327094
-0.02046044
0.00069681
0.00965620
0.04147258
0.00323566
-0.04627498
-0.10592593
-0.02465768
0.07798361
-0.00277311
0.05304935
-0.02811115
0.05688336
0.01983976
-0.05193531
-0.02181117
0.02816273
0.01845789
-0.00351571
0.04319852
0.02425438
-0.03717262
-0.00432883
-0.00195429
-0.02279400
-0.01779818
-0.01269058
-0.02809804
-0.04279032
-0.00415288
-0.00542879
-0.07254717
-0.06397423
0.06257362
-0.03581607
-0.01074248
0.02458866
0.00357744
0.00434670
-0.06931087
0.02323230
0.00580189
-0.03546366
0.01375813
-0.09039368
0.04044951
-0.02571544
0.00796816
-0.00117155
0.07958019
0.02696703
0.01484703
-0.01563944
-0.01782772
0.05600019
-0.00363167
-0.03680832
0.04792422
0.01100368
0.02215823
0.04752423
-0.05148427
0.00654076
-0.03019496
0.03815683
-0.02449040
-0.00933228
-0.01907234
0.00025372
-0.03138919
0.01314280
-0.10035270
-0.03839628
0.02027124
-0.00166465
0.00916916
-0.00668748
-0.03268645
-0.01767683
0.01113017
0.01840744
-0.02732476
0.00612409
-0.00737950
0.00723780
0.01708016
0.04981183
-0.06572502
-0.01364437
0.01739461
0.00846900
-0.00385010
-0.02816418
0.00237128
0.00860093
0.03823663
-0.01824497
0.00408559
-0.02431513
0.02385470
-0.00923814
-0.01553275
-0.01023910
0.02424012
-0.03162807
-0.03257199
-0.03617471
-0.01948650
0.00475682
0.03219089
0.00153833
0.08116793
0.00081210
0.01576975
0.03155838
0.01362534
-0.00887630
-0.02125583
-0.00035488
0.00598212
-0.00708621
0.03162727
-0.02895511
-0.04543161
0.01074023
0.05081645
0.00474416
0.05722081
-0.00193203
0.04589721
0.00736555
-0.00043032
-0.01698248
-0.04147501
-0.02139872
-0.03247120
0.02526158
-0.03293997
-0.00425631
0.00856300
-0.02459473
0.00227254
-0.04591822
-0.00255710
0.03530234
0.00226233
-0.05233968
-0.03412782
-0.05678389
0.00063022
0.00884396
-0.02111052
-0.01459533
-0.02440421
-0.00686069
0.05486998
0.01885099
0.04340334
0.00144816
0.03792293
0.00695861
-0.04213112
0.01472196
-0.02073831
-0.01600606
0.04163469
-0.00494046
-0.00541544
-0.02371178
