-0.01809320
0.10978997
-0.02424758
-0.03342242
0.10428341
0.12464480
0.09208359
0.08282928
-0.08338376
-0.11548974
-0.07643586
0.01594456
-0.04592901
0.08427090
0.07797010
0.26005688
0.15519139
0.11045415
-0.00038147
-0.04866019
0.10708202
-0.07005360
0.05089739
0.17016874
0.05172797
-0.02467474
0.13488013
0.00008394
-0.04448978
0.02921768
0.02362731
-0.09221539
0.13279676
-0.08542175
0.01173986
0.04922020
-0.08583630
-0.02751387
0.05563701
-0.00011146
-0.05880208
-0.03128169
-0.02318843
0.13310955
0.04155502
0.02294765
-0.07121231
0.12695688
-0.11890934
0.02846739
-0.05505046
0.09312832
0.19248174
0.10392689
0.11868465
0.13718896
-0.11403878
-0.10467152
-0.05450350
-0.07607620
0.07501489
0.04589924
0.10044932
-0.12065890
0.05728802
0.02329652
-0.04423264
0.06900139
-0.08947368
-0.05649413
0.01292949
0.02563580
-0.03987975
-0.03161749
0.13794732
-0.05645803
-0.14872338
0.18803543
0.06186767
0.14982684
0.00143849
0.05386596
0.12939763
0.00628386
0.04286737
-0.08545441
0.01074202
-0.04182372
-0.16257070
0.07108968
-0.13191555
-0.04689318
0.06720134
0.09116697
0.07394363
-0.08710825
0.09057370
0.00345488
0.05313579
-0.08850683
0.00431452
-0.02946227
0.09469859
0.02268188
-0.10404345
-0.00340407
-0.19865374
-0.12832250
-0.05809087
0.03049175
0.03837996
0.14624737
-0.14634182
-0.10186518
-0.04983310
0.13354217
0.06130503
-0.05916911
-0.01765255
-0.04546392
0.07719769
0.10929554
0.00294780
0.08121032
0.04865756
0.03718117
0.05387786
0.04094004
-0.12670982
-0.06684679
-0.00833940
0.04854079
0.01529394
0.02011263
-0.13585065
-0.04529470
0.05443045
-0.03896264
0.01854627
0.07137436
-0.03794303
-0.07793806
-0.13637006
0.05918612
0.15456873
-0.07437193
-0.01522788
-0.19846061
-0.04474299
0.11988127
-0.08931404
0.02147217
-0.09295028
-0.04349454
-0.03928826
0.09327140
0.02564426
0.08328450
0.02663273
-0.11853451
0.03036486
-0.00195387
0.03410331
-0.10131710
0.06017225
0.11993869
0.06630202
0.08220535
-0.07613194
0.01489607
-0.09083545
-0.04826586
-0.01721671
-0.09632137
-0.02930839
0.06451103
0.01342730
0.03908784
0.16732769
-0.00958999
-1.16678393
0.06753595
-0.05369196
0.01040281
0.00486747
0.04694856
0.18634501
-0.06446383
0.08496062
-0.03076187
-0.08169021
-0.04289598
0.06459621
-0.12986785
0.18734138
-0.06523837
-0.12523450
0.15082669
0.11090130
-0.04417193
-0.15484472
-0.09063783
0.01153801
-0.13145763
-0.15367891
-0.04213725
-0.04659878
0.01593132
-0.02977485
0.15592431
-0.08600624
-0.08250026
0.05776643
0.09753036
0.04370300
-0.02221374
-0.10506332
-0.11307398
0.11436571
-0.19021781
0.05181758
0.06843619
-0.11601796
0.07181673
-0.03161305
0.25762820
0.17219059
-0.08303539
0.05281290
-0.02222616
-0.08334302
-0.00977060
0.14311461
-0.10895459
-0.01744700
0.13492472
-0.05212492
-0.06842238
0.13243693
-0.19445054
0.06729350
0.19373964
-0.06292520
0.12415705
-0.12261359
-0.02533848
0.08768018
-0.09102573
-0.04541934
-0.00899751
-0.14824709
0.10961103
0.07276128
-0.09635946
0.00278693
-0.05016001
-0.06855767
-0.07539488
0.05971784
0.17182246
0.01788875
0.01389327
-0.02629208
-0.05147171
-0.06907433
-0.12312286
-0.01141605
-0.15205184
0.05502206
-0.02922261
0.12684990
0.07093768
-0.10469195
0.00725672
0.01266174
0.03675270
0.03742728
0.08346927
-0.04127422
-0.04376543
-0.01582319
0.09201133
-0.08458447
-0.14346273
-0.16608854
-0.08807126
0.11721633
-0.12685795
-0.05562262
-0.05658706
-0.11715852
0.11725178
-0.04347508
-0.03375227
0.11049084
0.13275409
-0.00508596
0.01534680
-0.01573312
-0.01844521
-0.07040782
0.08696499
0.00715036
0.05568737
0.14880185
-0.06387705
-0.06865336
-0.09724203
-0.84854048
0.00353764
-0.14348955
-0.10901390
0.08422381
0.01286909
0.05353045
-0.09382959
-0.05299334
0.04749591
-0.04254202
-0.02914622
-0.09751118
0.05281310
0.18527447
-0.02204509
-0.08383933
-0.00721521
-0.04115226
0.05186401
0.06308243
-0.01223473
-0.06459570
0.08717869
0.09505592
-0.02017665
-0.16415086
0.00805453
-0.08866881
-0.13164711
0.05327357
-0.18992773
0.04114414
-0.01429268
0.01871058
0.00474949
0.10852420
-0.14025488
-0.00652154
-0.18266037
-0.07315862
-0.11565338
-0.16366850
-0.06969808
0.16992421
0.00045609
-0.05046561
-0.11995704
-0.07877216
0.21257962
0.04409716
0.00667017
0.09136363
-0.10506660
0.11020391
0.08621243
0.05437213
0.09998091
-0.01910268
0.17345168
-0.03528559
-0.01591512
-0.18817727
-0.15306903
0.09746046
-0.11238182
-0.04696523
-0.08758799
0.10710285
-0.01239594
-0.19595523
-0.01859463
-0.00184242
0.28458279
-0.02859118
-0.08024061
0.13785860
-0.06770990
-0.11216192
0.04130182
-0.05350847
-0.07498592
0.00770211
0.23730513
-0.02480516
-0.03714012
-0.01942516
-0.02898767
-0.11112411
-0.07807006
0.15054776
-0.04443789
-0.04127022
-0.13715778
0.07062891
0.05648011
-0.10667557
-0.00055558
-0.02681579
-0.06162398
0.03846288
-0.04012739
-0.07503786
-0.03510054
-0.06260349
-0.09397198
-0.10870260
0.08076208
0.05831626
-0.12673257
-0.02183590
-0.02275860
0.03066169
-0.07247478
0.10381529
-0.05412246
0.00551698
0.13383074
0.12857857
-0.06019966
0.03674585
0.08289044
-0.13156681
-0.06273015
-0.02667474
0.18779783
-0.04363248
0.01897151
0.15346129
-0.14520621
-0.03655197
0.05803604
0.12854704
0.04556634
0.04865083
-0.08887106
-0.01419065
-0.10216583
-0.09355485
0.16654620
0.00695220
0.02640296
-0.01481497
-0.00185130
0.08671043
0.05810147
0.08730032
-0.07899912
0.00354339
0.03755089
-0.13983163
-0.00098200
0.01275507
-0.17261282
-0.05742933
0.04895818
-0.02671635
0.05510705
0.13311055
-0.22077768
-0.00921680
-0.00221412
-0.05546641
-0.02666472
-0.02446677
0.09019131
-0.15818827
-0.05412887
-0.07503757
0.04373307
-0.03747103
-0.12259238
-0.03778979
0.13611776
0.00720282
0.10697219
-0.10616064
-0.02078443
-0.03089462
0.09736139
-0.00138349
0.01680240
-0.08887140
0.03090949
0.11666077
-0.04576088
-0.05149475
-0.08630238
-0.05695524
-0.04476046
-0.04896095
0.07367083
0.02117520
0.05880222
-0.11608896
-0.14909476
-0.06697643
0.13128178
-0.03788531
0.05993022
-0.04540725
-0.05268689
-0.06870764
0.02791929
-0.00696629
-0.06371257
0.06846157
0.14422016
0.05823038
0.07421860
-0.09606580
-0.08465850
0.00661256
0.02951501
0.06455712
-0.01306948
0.09805731
-0.07456312
-0.00999279
-0.02441097
-0.04246114
-0.07524435
0.04552345
-0.13286528
-0.17743792
0.02223358
0.01491008
-0.09532105
0.04260236
-0.04981674
0.03727095
-0.17068243
0.05737912
0.11185160
0.08733629
0.00084362
0.02900598
-0.05842217
-0.10382836
0.10148121
0.13973443
0.05645685
0.00855473
-0.07740279
-0.00540815
0.04759454
0.05652364
-0.04549301
0.07526820
0.05158740
0.02295066
-0.07276002
-0.09667420
0.08103473
0.02264980
-0.01814950
-0.09297355
0.02469462
-0.02261159
0.07156661
0.05611460
-0.04428754
-0.06442687
0.01655499
0.10859971
0.03622171
0.06853582
0.06745487
0.06478722
-0.11710259
0.03991389
-0.20564891
-0.06491760
0.06021959
0.06654294
-0.01500773
-0.01680675
-0.08438660
0.05372663
-0.11154281
-0.02920370
-0.03205232
-0.05045616
-0.05948012
0.13667744
-0.06982929
0.04416740
0.08595470
-0.07974307
0.06839981
-0.05200827
0.11198260
-0.07620052
-0.01584562
-0.12443816
0.06286800
0.11867077
0.12581815
0.00286507
0.11022641
-0.02474045
0.00596590
0.17917347
-0.06223707
0.09351917
0.17223726
0.08649121
-0.07679741
-0.11459326
0.10858812
0.03136859
-0.14558341
0.04109886
-0.01699363
-0.02359471
0.09636083
0.05316560
0.01893360
0.06533154
0.08098530
0.02107972
0.03176254
0.17067929
-0.00341722
0.15865453
0.15456121
-0.00204108
0.03271391
0.19033612
0.06813014
0.03730727
-0.11024647
-0.01602607
0.17163135
-0.09947355
-0.08286159
0.01559561
-0.11615735
0.01762918
0.11184452
0.07408371
0.18477260
0.02151988
0.07155629
0.05399776
0.04440338
-0.07257156
-0.07165627
0.08003489
0.11702807
0.06731384
-0.02456176
-0.00511389
-0.12092335
0.05295363
-0.09243269
0.11462045
0.03949697
-0.03992823
-0.00981401
0.05120336
0.18899247
0.21935548
-0.01251612
-0.12739830
0.00253997
0.14297137
0.08868678
0.02803964
0.07127115
-0.04846976
-0.04205621
0.04553669
-0.01730163
0.14840582
-0.07702172
-0.07772260
0.04295108
0.03105297
0.00874591
-0.10586239
0.02514422
-0.08300339
-0.13976650
-0.01413194
0.00772873
0.04163627
-0.03288681
-0.01476432
-0.09370345
0.08487617
-0.06158034
0.10030318
0.10141655
-0.09317178
0.10515352
0.14876853
0.10919573
0.15548858
0.12200124
0.05345941
0.09817802
-0.09747615
0.02003052
-0.06573021
0.17285320
-0.01700741
0.01202926
-0.07062653
0.01093684
0.00920519
-0.03131524
-0.06747095
0.05717417
-0.11810037
0.01129122
0.15564585
-0.04880991
-0.02682084
-0.15847085
0.01543317
0.01060005
0.07277154
0.05873849
-0.01760336
0.07970584
0.06901438
-0.00519625
-0.05987776
0.16790928
-0.07316176
0.08623732
-0.02100337
0.00039382
-0.13336149
-0.03193300
0.04460661
0.04648941
-0.00563730
-0.06791192
-0.01064959
0.12861343
-0.03442661
-0.13756073
-0.04465044
0.01820580
-0.16173738
-0.11819304
-0.11117399
0.10294872
-0.01543213
-0.03458421
0.11336203
-0.10119295
0.17212865
-0.08664773
-0.09295478
0.03486232
0.03751098
0.00351576
