0.01798601
0.12333204
-0.05702791
0.06887354
0.00869885
0.00108794
-0.05123440
0.02079303
-0.03314948
0.04094549
0.02307083
0.00618716
0.08615385
-0.19641711
0.04038919
0.07333449
0.01269016
-0.10127071
0.03169665
-0.10308548
-0.17686874
-0.02106016
-0.01980986
-0.11326607
-0.04009376
-0.04121208
-0.15706447
0.06641302
0.01338316
0.05729748
0.08718584
-0.15581597
0.06642240
0.00144384
0.04045773
0.12755877
0.11895351
-0.07784653
-0.03677089
-0.01202146
-0.03902918
0.01400307
0.01218254
-0.04256500
0.08070502
-0.12107746
-0.00731153
0.02614808
0.03279017
-0.00666581
0.05554299
-0.01324848
0.03084455
0.05090738
0.10916652
-0.10377471
-0.13018252
-0.06726677
-0.03665839
-0.01158806
0.10763738
0.15370822
-0.03859891
-0.00506931
-0.03076204
-0.07626301
-0.04666253
-0.07506856
-0.11744067
-0.04064723
-0.02296202
0.09042095
-0.00171802
-0.15663251
0.00142490
-0.11581202
0.04627828
-0.13977034
0.00411627
-0.11622397
0.03656583
0.03923918
-0.00215458
-0.03665410
-0.02818283
-0.08303799
0.12165075
-0.12627317
-0.02944454
-0.00353702
-0.05147795
0.00481109
-0.10363697
0.09341528
0.02092320
-0.03323300
0.13827749
0.16595130
0.08815482
-0.05919146
-0.08224986
-0.01732164
-0.08003574
0.16318545
0.04128588
-0.41570029
0.00927273
-0.00282067
-0.06571018
-0.08194617
-0.00504079
-0.02641607
0.11026906
0.10118068
0.03656175
0.08122424
-0.10975477
0.05716299
-0.01896232
-0.15719259
-0.15661564
0.04992546
-0.00800751
0.11945558
0.18470263
0.04487371
0.18663304
-0.08360755
0.06678151
0.26635975
0.03728564
-0.00550466
0.27995607
-0.05607475
0.07695413
0.00166738
-0.02984338
-0.06959189
0.04190202
-0.02821214
0.01666218
-0.05442523
-0.06514660
0.14708601
-0.10650074
0.02657022
0.05597205
0.09650886
-0.07490508
-0.01019216
-0.04746237
0.07547224
-0.08534943
-0.03097192
0.08416431
-0.01302900
0.01566136
-0.10693984
0.03657093
-0.04024247
0.08752806
-0.00912979
0.14404511
0.03492567
-0.02248609
-0.04894285
0.00949451
-0.05037643
0.41190600
0.01169847
0.09425327
0.15371092
0.00191203
0.00601497
-0.00987595
0.13902885
0.08689578
-0.01175261
0.09527734
-0.17086387
0.00565130
0.01845690
0.06337875
-0.02091618
-0.03175553
0.17549384
0.06122405
-0.01606292
-0.14417876
-0.12210566
-0.14294092
0.03659505
0.04613052
-0.03512431
0.12384416
0.07149501
-0.06218953
-0.07170529
-0.17690702
0.14204620
0.07583029
-0.06785113
-0.27732959
-0.03204375
-0.02417728
-0.09306704
-0.03763429
-0.00230725
0.00535978
0.12816469
-0.02642111
-0.01292021
-0.04066946
-0.09247559
0.04259980
0.26567230
-0.01874827
0.01184870
-0.24036558
0.06796490
0.06579694
-0.06474201
-0.01721657
-0.02095852
-0.01397736
-0.12690884
-0.14756761
0.21558382
-0.10499451
-0.06018438
0.01537090
-0.00851208
0.04570333
-0.04157566
0.04184106
-0.06128088
-0.25969121
-0.10076729
-0.03725120
-0.11331469
-0.17915183
0.06968946
0.10185427
0.14775816
-0.00968288
-0.21647149
0.00649863
-0.06243289
0.02912232
0.14689286
0.03888923
0.05148287
-0.00734268
0.01948389
0.00950557
-0.11091083
-0.00958637
0.12820493
0.03021928
0.05426703
0.00400294
0.00411310
0.03105300
0.00095195
-0.01354732
0.03270307
-0.05601383
0.00844605
-0.05413388
0.01583183
0.00579869
0.03385812
-0.04688766
0.09596454
0.04651402
-0.07675686
0.06052046
0.13678177
0.08451565
0.16544138
-0.10998883
-0.03712683
-0.01027446
0.21592642
0.02005075
0.01657968
-0.07662147
-0.01568247
0.01437921
0.07468908
-0.00448381
0.12486751
0.08713128
-0.05230031
-0.02077733
-0.07292526
-0.12701707
0.04618999
0.02536543
0.00548743
0.00871154
0.09159122
0.12226918
0.06612850
0.00773567
-0.07439779
-0.02218834
-0.03207856
0.14556478
-0.01689556
0.12343962
-0.14056490
-0.02455074
0.01363856
-0.08760121
0.20709151
-0.02634648
-0.02496793
0.00436671
0.22686227
0.05657613
0.11049952
0.05202467
-0.03061901
-0.04744247
-0.11596245
0.03143172
-0.06479876
-0.07453598
-0.06497420
0.10419906
-0.37435120
0.06646795
-0.04817513
0.02904703
-0.08937448
-0.12465622
0.01724892
0.02310468
0.00497904
-0.08854655
-0.04040529
-0.13963854
0.03701317
-0.08080010
-0.23851018
-0.05190604
-0.03552624
0.04173630
-0.06801100
0.01318328
-0.00747143
-0.04874955
-0.12396336
0.05826477
0.00517875
0.02229142
-0.05985594
-0.01370952
0.04967344
-0.09053291
0.06451806
0.02558027
-0.04015159
-0.06249347
-0.00498921
-0.25318149
0.01507687
-0.04699515
0.14663590
-0.15605320
0.13261600
-0.00860209
0.02110847
-0.06371465
0.03575304
0.01118560
0.10628694
0.11199908
0.08714649
0.06724572
-0.00418107
-0.05637043
0.03961463
0.01459446
0.02075551
-0.03784772
-0.02429827
-0.11534681
0.01431830
-0.09068285
-0.09501442
0.05043650
-0.04501562
-0.04476465
-0.00559931
-0.10493311
-0.08886372
0.06614847
-0.01516103
0.09202031
0.04888077
-0.01494998
0.06351137
-0.02302246
-0.00141031
0.01186058
-0.10423036
-0.01904233
-0.01778995
0.01145838
-0.04826378
-0.03136807
0.08432173
-0.05569483
-0.02722097
0.12687808
0.07255515
-0.05173060
0.11453011
0.13256222
0.13725446
0.05723069
0.13009658
0.21617129
-0.00504016
-0.13940158
-0.04580109
-0.03404351
-0.18494955
0.11913692
0.09013915
-0.08587983
-0.08782998
-0.01123447
-0.10075918
0.05239860
0.09873106
-0.00208739
-0.10207739
0.09694861
-0.03441978
0.02628153
-0.06131082
0.01759076
-0.00860618
-0.03434960
-0.12736379
0.17566508
-0.09233820
-0.03975880
-0.01422965
0.08404492
0.00147658
-0.00494122
0.02006485
0.02994563
0.04400990
-0.03942117
0.09810369
0.09796320
0.17232980
-0.04198883
-0.05112870
0.01561180
-0.05459226
0.04267462
-0.03142494
-0.16793501
0.09970094
-0.01216128
-0.00455017
-0.10513504
-0.00241236
-0.01725543
-0.03505455
-0.01439404
-0.12189097
0.02108236
0.05499674
0.05078950
-0.09527773
0.00443324
-0.11234752
0.05932915
0.01859583
-0.16464204
-0.03735931
-0.05719586
0.03542133
0.03087704
0.03868992
-0.28098971
-0.00827820
-0.05090547
-0.10774476
0.07755204
0.03889960
0.00020535
0.00951810
0.02636176
0.03721214
-0.01383398
-0.06485678
0.22785410
0.00077676
-0.00812561
0.08497339
-0.11669134
-0.04453744
0.09010834
0.05276062
0.06245709
-0.03832151
-0.06774125
-0.05030751
-0.05691348
-0.03206720
0.08178973
-0.06308939
0.09542631
0.01255290
0.00725240
0.25937235
-0.14915994
0.12312304
-0.18235160
-0.03417038
-0.04478464
0.24904716
-0.03801753
0.05986039
-0.00990393
-0.07895046
-0.12019306
0.00415973
-0.03201929
0.03309822
0.05933221
-0.09473532
-0.12556566
0.00876813
0.01031918
-0.00596182
-0.02066913
-0.01351444
0.05556103
-0.00948854
0.09814546
-0.01941399
-0.03983060
0.13594104
-0.03909464
0.04640922
-0.08782247
-0.03017480
-0.10282328
0.02193949
-0.03452179
-0.00995120
0.03344819
-0.08658000
0.00045120
0.07253464
0.07911427
-0.08007308
0.08819771
0.07199352
-0.00709947
0.02372677
0.18704949
0.04265067
-0.01888477
-0.27944088
-0.05664152
-0.04412936
0.04560846
-0.26884016
0.01388406
0.07731331
-0.03657179
0.07485171
-0.01424416
-0.02110050
0.07127664
0.00305106
0.05183102
0.04848577
-0.00851639
0.16576347
0.13254397
0.05754197
0.00358922
0.05254742
-0.07146136
-0.11631651
-0.03753797
0.00856552
-0.04842760
-0.11006957
-0.08003367
0.03801499
0.03490137
0.04954183
0.02359556
-0.02002359
-0.05704523
0.15241037
0.01080915
0.00232873
-0.00314522
0.17015944
0.03052952
-0.16012126
0.09736428
-0.04791404
-0.00234930
-0.09261557
0.01281608
-0.06297090
0.09523979
0.08839500
-0.03055729
-0.02900939
-0.11217977
0.00036868
0.04841532
-0.19897193
0.13397151
0.11296268
0.03301660
-0.29424360
0.01809914
-0.00397388
-0.05899541
-0.01922054
-0.05564098
0.15984927
-0.15968150
0.10021555
-0.06899084
-0.07385014
-0.03919179
-0.07374330
0.07757948
0.11563555
0.03148743
-0.09407432
0.14281082
0.05777577
0.00267967
-0.05383689
-0.00852213
0.07968837
-0.29425943
-0.11138013
0.06239495
0.00954360
0.04644994
0.06603893
-0.07687797
-0.04694050
-0.00857806
0.03004966
-0.01207587
0.11054860
-0.01029626
-0.02418242
-0.04753899
0.05840697
-0.08033518
0.04532846
-0.00419914
-0.05828936
0.04113820
-0.07520726
0.05824600
0.08188203
0.04801612
0.09859513
0.00117298
0.00569792
0.09317663
0.04175728
0.02279092
0.13467769
-0.05205920
-0.08558158
-0.06429920
-0.02096450
-0.00979076
-0.03144823
0.05286762
0.05917478
0.06455816
-0.13285668
0.10413861
-0.04333273
-0.05741463
-0.12063592
0.01066312
0.03736114
0.00963824
0.03403930
-0.05822473
-0.05942585
-0.14669664
-0.10837144
0.00201055
0.00338691
0.28283787
0.01202697
-0.01583471
0.01774218
0.08048148
0.11798251
0.02597506
-0.13250813
-0.03083228
-0.15267083
0.00611647
0.02952348
-0.01980446
-0.06580236
0.00272972
-0.00389104
-0.05269177
-0.01245553
0.23247705
-0.06981659
-0.02571097
0.04471551
0.02106765
0.10007071
0.02054998
-0.05821928
-0.05872654
0.07536015
0.00347808
0.10051555
0.09261378
-0.02637802
0.05675105
0.06991738
-0.00163531
-0.08698279
-0.07022935
-0.06869899
0.00861780
-0.02137165
0.01703537
-0.05443028
-0.20959350
0.10076341
-0.05375186
0.03819697
0.04208149
0.03609020
0.08499344
0.07400926
-0.04878677
0.11638681
0.00012897
-0.05834023
0.01847284
-0.08203861
0.09610924
0.00835133
