-0.07616056
-0.10427728
0.03219375
0.07637908
-0.11201723
0.12030225
-0.18906553
-0.13376461
-0.06938758
-0.06776471
-0.05456613
-0.14183694
0.06974201
-0.20921282
-0.00251937
-0.02317541
0.06904679
0.08837232
-0.02650739
-0.26669529
-0.09949338
0.17354636
-0.16657342
-0.06135796
0.04635934
-0.11935797
-0.10167062
0.05256469
0.07807948
-0.07855675
-0.01447749
-0.05544766
-0.13015409
0.07146518
-0.10022818
0.01578023
0.01949508
-0.07342337
-0.09397827
0.10350480
-0.06120024
0.07176533
-0.02430627
-0.09762933
0.02143084
0.07236259
0.06586590
-0.01581041
-0.12979397
-0.00881484
0.12635908
-0.09154917
-0.22872156
0.20667024
-0.13449299
0.10457396
-0.00364161
0.14129737
-0.08053659
0.11375850
0.00022323
-0.03215241
0.12441467
0.18014431
0.01233772
-0.04334480
0.00183883
-0.04634172
-0.05810680
0.01025167
-0.03187132
-0.03032714
0.15661769
0.10765851
-0.13981332
-0.10228757
-0.04535374
-0.17434651
-0.07518724
-0.05583913
-0.02281633
-0.06187928
-0.06784897
-0.05983990
-0.08244792
-0.09580772
0.05331029
-0.12319833
-0.04317655
-0.04714391
-0.03798859
0.00416488
-0.21556252
-0.00198597
-0.05641185
-0.02154765
-0.19472125
0.11594113
-0.04271690
-0.00587982
-0.02646683
-0.12051797
-0.00593072
-0.00457204
-0.10067103
-0.04511911
0.13325155
-0.05669419
-0.07168726
-0.03187935
-0.04436332
-0.09585770
0.21649854
0.10746796
-0.04283331
-0.04235061
-0.09428564
-0.09494580
-0.07825203
-0.10505397
0.10890837
0.40454897
0.02675693
-0.06950453
-0.03548373
-0.01288935
0.04110209
-0.11250330
-0.09504622
-0.01433550
-0.04387517
-0.14145562
-0.05487267
-0.07101768
-0.00378363
0.02626251
0.07552442
0.05745088
0.12578005
0.14199084
-0.00411969
-0.06184760
-0.00640867
-0.03843760
-0.07201957
0.18504831
-0.01386812
0.07699755
-0.08041833
-0.07325379
-0.08705448
-0.09698597
0.04173621
-0.07877398
-0.04617888
-0.07988290
-0.19027948
-0.16021088
-0.06812217
-0.06950656
-0.01266501
-0.04425182
-0.01396490
-0.05734025
-0.05439789
-0.09296152
-0.01928507
0.10730960
0.33179975
-0.02248520
-0.05094771
-0.12716396
-0.09157926
-0.19300810
-0.13031116
-0.06504157
-0.03407108
-0.09495832
-0.10947046
-0.03746407
0.00619503
-0.00055040
-0.10653813
-0.15602282
-0.11370733
-0.07930429
-0.16129741
-0.18537998
-0.09233925
0.03881983
0.10871079
0.04229917
-0.22149114
0.05156694
0.00567865
-0.05667901
0.00684805
-0.10763699
0.02097553
-0.01442474
0.03316435
-0.18992206
-0.12888288
-0.18736073
-0.04175964
-0.08893878
-0.16982648
-0.00811237
-0.03257675
-0.01569538
-0.07356980
0.05054974
-0.18388894
-0.07872328
-0.01786728
0.02205091
0.06738541
-0.00900727
-0.13697332
-0.07739974
-0.05574239
-0.18052062
-0.14948042
0.06880494
-0.12322716
-0.05780723
-0.04828848
-0.02831474
-0.02498079
-0.04110303
-0.14510185
-0.01603303
-0.11950542
-0.01398158
-0.05498626
-0.08767070
-0.07258561
-0.09400899
-0.02122821
0.04092979
0.07049195
-0.03326348
-0.08045541
-0.12578388
-0.07116747
-0.05405351
0.11097078
-0.00830992
-0.01725792
0.08750596
-0.12491798
-0.08814234
-0.01654369
-0.00463514
-0.00822594
0.05163518
0.03120155
0.08023958
-0.02936352
-0.02111506
-0.12887229
-0.01005698
-0.12513836
-0.12029280
-0.21746668
-0.12612459
-0.04028333
-0.04699197
-0.08305845
-0.04489294
-0.10416225
-0.03531466
-0.02107144
0.00450253
0.09278314
0.00133180
-0.03285312
0.02802356
0.02600460
0.02413319
-0.10504773
-0.06964497
-0.03026127
-0.00308263
0.04820794
0.03679778
-0.09843110
-0.11306101
-0.17652126
-0.06723642
-0.06329688
-0.06379900
0.04091958
-0.03835859
-0.10918870
-0.02657211
0.07430985
-0.22987315
0.02911597
0.06333990
-0.08326212
0.06620282
-0.00988332
-0.10075285
-0.10114337
-0.16909340
-0.00918075
0.04292943
-0.67532533
0.02395864
-0.03060068
-0.11708114
-0.01189630
0.03761859
-0.10647893
0.02007128
-0.09319525
-0.04281410
-0.02726230
-0.18669292
-0.02594664
-0.01219474
-0.05743522
-0.01523241
-0.06997082
-0.13624342
-0.07456252
-0.05749642
-0.01757327
-0.06702492
0.07565559
0.08366859
0.02880129
-0.13559514
0.02918268
-0.00837963
-0.05806664
-0.03374621
-0.09254509
-0.17684166
0.05087824
-0.16420589
0.00253838
-0.08187635
0.08972462
-0.16899079
-0.05801843
0.04148332
0.00943049
0.13590008
0.01998462
-0.17859435
-0.01605882
-0.05577386
0.00620520
0.08967911
0.07130911
-0.01477527
0.02507458
-0.03302028
-0.14022535
0.03950082
-0.01855002
-0.04622445
0.01465451
-0.05765910
-0.01982271
-0.01916326
-0.04566116
-0.08010315
0.08313233
-0.06243087
-0.10571682
-0.09517761
0.07922596
-0.00602267
-0.02111246
-0.00996119
0.01790951
-0.04573201
-0.01976851
0.27703628
-0.10011865
0.13757221
-0.03656233
-0.04919998
0.05683455
-0.10998601
-0.04871122
0.06471124
0.01559045
0.00093380
-0.16155441
-0.04562543
-0.05618710
-0.09273402
0.01887762
0.04803203
-0.04559411
-0.05177426
-0.05600876
0.00153124
0.03687728
0.00509450
-0.08869237
0.10228579
-0.11236876
-0.05680994
-0.04963567
-0.01822427
0.08693653
-0.00429073
-0.06229629
-0.10010624
-0.01423635
-0.01191107
-0.04087154
-0.09304432
-0.09244239
-0.02172313
0.00670630
0.10403250
-0.16213211
0.00862235
0.03645116
-0.04209047
-0.08154843
-0.00656168
-0.00860256
0.00677285
-0.09086232
-0.03193251
-0.02721150
-0.01222992
-0.05332245
-0.11602847
0.04118776
0.00585212
0.01526299
0.08592130
-0.11172292
-0.03848476
0.02561915
0.13441484
-0.04040811
-0.05231307
0.03756927
-0.05841978
-0.03050008
0.02195854
0.03216633
-0.08446756
-0.19005640
0.06760452
-0.08962455
-0.05485446
-0.06205162
-0.06957794
0.02065529
0.03767335
-0.11132991
-0.02252836
-0.05992722
-0.15935932
-0.12705895
0.11115254
0.11821343
-0.11643157
-0.08383587
-0.07566407
0.01183655
-0.02775473
-0.01378123
-0.04658276
-0.07983021
-0.08499061
0.06090474
-0.02127186
0.05487083
0.03577903
0.04646514
-0.13510539
-0.03795180
-0.02690537
-0.03589616
-0.10895812
-0.04486791
-0.17544334
0.11169647
-0.01293047
-0.06256077
0.01466540
-0.17254493
0.00592784
0.14278869
0.06298268
0.24127181
-0.06531270
0.02487658
-0.01432335
0.00923266
-0.05144553
-0.05874895
-0.06675839
-0.10812321
0.02661014
-0.13259487
-0.00141158
0.10044143
-0.08162358
-0.07384112
0.03679498
-0.17877880
-0.07243674
0.08639643
-0.12126477
0.06866349
0.04904300
0.08618756
-0.02114324
-0.05061701
-0.09695718
-0.09364757
-0.01143859
0.13195869
0.00006051
-0.03144200
-0.02861309
-0.04164156
0.01848013
-0.00353050
-0.05180923
-0.10553564
0.03648033
-0.02675944
0.10186545
0.07052734
-0.09835792
-0.08758595
0.08923543
-0.12608318
0.28292313
0.02670773
-0.12192032
-0.06642395
0.06053843
0.08981784
0.09808408
-0.14915681
-0.15417694
-0.01339076
0.06894772
-0.05598387
-0.12724727
-0.09741592
-0.02361979
-0.03297614
-0.12954582
-0.13577044
0.01340887
-0.00040210
0.07262918
0.06696595
0.01046352
-0.01955666
-0.02879973
-0.04059439
-0.00469515
-0.01265574
-0.02808576
-0.10626670
-0.06620937
-0.01097331
-0.01542528
-0.05986059
-0.05406659
-0.05865880
0.08430928
-0.03597701
-0.03673871
0.03581196
0.07910156
-0.19176516
-0.04692974
-0.03082917
-0.05660696
-0.23714180
-0.08552820
0.00441853
-0.01274596
-0.07208578
0.01616187
-0.05357336
0.02671896
-0.09854615
-0.00844403
-0.07909206
-0.02864386
-0.09590559
-0.06962499
-0.08310306
-0.09945728
0.06189490
-0.08949969
-0.03479548
-0.17308581
-0.06731196
-0.16471641
-0.02003524
-0.05653360
-0.00795550
-0.05729340
-0.01563635
-0.01986747
-0.06391298
-0.06480249
-0.07800525
-0.01195798
-0.13744318
-0.17419820
-0.09205545
0.01629487
-0.02843279
-0.03517054
-0.02512628
-0.05430533
-0.15402766
0.04089510
-0.00915273
-0.04958227
-0.05457669
-0.06608183
0.07274323
-0.15136184
-0.12008930
0.00761558
-0.08894828
-0.08952443
-0.03942980
-0.15793262
0.04425028
-0.05819833
-0.12279514
0.00033370
0.00176558
-0.06116736
-0.14657758
-0.01578178
-0.03338251
-0.10062865
-0.05029338
-0.05344556
0.00799825
-0.07393754
0.29385886
-0.02102593
0.05232027
0.03244129
-0.05124857
-0.07249662
-0.11103830
0.04388814
-0.08720412
0.00035804
-0.05431727
0.00403896
-0.02071701
0.08289281
-0.07791538
-0.06343858
0.06140155
-0.09813157
-0.06413724
0.00759435
-0.03201558
0.00540087
-0.25978807
-0.12580869
-0.10032966
0.00509717
-0.05597216
0.00255025
-0.18971741
-0.00401758
0.01193885
0.04945993
-0.11336141
0.06391658
0.01457797
-0.04826152
-0.12664367
-0.12872545
-0.03301005
-0.09618975
0.05198794
-0.22622971
0.09139425
0.01733618
-0.03126049
0.02144495
-0.08661000
0.01297365
0.13683414
-0.12227762
0.04126679
-0.06557334
-0.16278613
-0.07559796
-0.11962258
-0.02928550
-0.01833528
-0.17697476
0.02637815
-0.10547394
0.09351441
-0.15075314
0.04593863
-0.03707256
-0.04690964
0.00238307
0.05060181
0.00223703
-0.06706425
-0.03777247
-0.12758431
-0.03503017
-0.04009891
-0.00667733
0.09469988
-0.13251364
0.00026893
-0.16760786
-0.05075920
-0.04974331
-0.14900480
-0.02979506
-0.09009928
-0.01181167
0.10830137
-0.04888558
-0.01024085
-0.02909408
-0.15044640
-0.01075588
-0.09949320
-0.12835358
0.00976937
-0.01914857
-0.07772624
-0.05134276
-0.05572033
0.10271281
0.05739675
-0.20243938
-0.02512132
-0.08858704
0.24171743
-0.07947056
-0.03274217
-0.06560863
-0.05455213
-0.08731499
-0.04532476
0.07056341
0.00548779
-0.05043904
-0.02621018
-0.04872096
