-0.00653582
-0.02032883
0.04596502
0.01638440
-0.04287369
-0.01302395
-0.00998283
-0.03505266
0.02665445
-0.03522035
-0.06074044
0.02942467
0.01815104
0.01067619
-0.00324642
-0.04859096
0.00035735
-0.09355156
0.00973192
0.01273568
-0.05866859
-0.00582376
0.00461022
-0.04502678
0.00561458
-0.04066605
-0.04911091
-0.05155350
-0.09128193
-0.04067072
-0.02777384
-0.04653043
-0.01107062
-0.07609481
-0.04146637
-0.05637121
-0.02777826
-0.07715876
0.00636693
-0.05977133
0.05351322
-0.02107502
-0.04707260
-0.07035310
-0.10900988
-0.01806448
-0.13387725
-0.00181502
-0.10820387
-0.11763453
-0.02121098
0.04487707
0.03303463
-0.02593304
-0.08839300
-0.00926242
-0.00106744
-0.06293415
-0.00093999
-0.07015071
0.04305720
-0.08440575
0.02077871
0.05091099
-0.04398968
-0.04894936
-0.00117978
-0.06072015
0.03351521
0.00026140
0.02367179
-0.02261801
-0.06749511
-0.05430365
-0.01340564
-0.08493698
0.04915623
-0.04944117
0.04037290
0.03112798
0.03392524
-0.03497352
-0.05153930
0.01991226
-0.05794106
-0.03726710
0.02988317
-0.01313995
-0.04775850
0.02892860
0.01562518
-0.07792312
0.05275929
-0.01595344
-0.04225265
-0.11549702
-0.04041284
-0.01348364
0.02926694
-0.01012622
-0.08097540
-0.07554225
-0.09174472
-0.02809106
-0.10914395
-0.01885102
-0.02739940
0.04943317
-0.05129070
-0.02297980
-0.03581446
-0.03822773
0.01420327
0.02061723
-0.01996247
0.03459424
-0.00348826
0.03611717
-0.00178753
-0.00714176
0.03564300
0.11564654
-0.00279891
-0.03254582
0.01130637
0.05024341
0.00988922
-0.00381661
-0.03520885
-0.12769306
-0.00640126
-0.00232603
-0.00684327
-0.03335179
0.06512131
-0.11026819
-0.04684204
-0.00201024
0.03831162
-0.03460895
-0.01025614
-0.00385627
0.03978066
-0.02938676
-0.01634584
-0.08648056
-0.03660368
0.03117241
-0.06617201
0.03175959
0.00625399
0.05853864
0.07371359
-0.07098266
0.01594144
0.08218115
-0.01426841
-0.06980752
-0.11933941
-0.01218483
0.02429703
0.05250770
-0.01955433
0.05170793
-0.06628098
-0.07102747
0.00223663
-0.09430517
-0.05065707
-0.05329861
-0.02253860
-0.01703696
0.01886457
-0.00380932
-0.07882000
0.05879238
0.09269098
-0.03444050
-0.04940724
-0.07936785
0.13176462
0.01412553
-0.01701244
-0.03768229
-0.01466272
-0.06016218
-0.06285468
0.00691898
0.03475137
0.00860870
-0.03353806
-0.11096448
-0.01179260
0.00002529
0.04267886
-0.05170006
0.01078197
0.12205115
-0.00791738
0.02699638
-0.04460551
-0.02705126
0.03933718
0.05208180
-0.08622894
0.04413506
0.04296830
-0.06259353
0.04330371
-0.06200631
-0.01365557
-0.06973563
0.04324450
-0.08853209
-0.00463709
-0.02893145
0.05631833
-0.06947975
-0.04926081
0.00533843
0.03112111
-0.06294366
-0.01894142
0.00513493
-0.07594211
-0.11948176
0.03744559
-0.10136410
-0.03195669
0.00250795
-0.05322594
-0.04515218
-0.10136686
0.00152784
0.06303614
-0.02023809
-0.00812890
-0.03609274
0.04178311
0.03240816
-0.04404692
-0.00158362
-0.04909388
0.01823840
-0.00242658
-0.03289487
0.04477216
-0.07640900
-0.07595252
-0.04354840
-0.05879845
-0.09638430
-0.02272553
-0.02731593
0.07782777
-0.08088114
-0.04762139
0.00750002
0.02674142
-0.05814930
-0.06045952
-0.03257518
-0.03148417
-0.12823212
-0.05134652
-0.06607116
-0.19246386
-0.05160352
0.00208948
0.02922460
0.08058169
-0.03041255
0.01660297
-0.07381918
-0.03446835
-0.05281029
0.11698817
-0.00068398
0.00372066
-0.06686174
-0.04386239
-0.01169727
0.04902414
-0.08977187
0.06677353
-0.02434755
0.01340971
-0.09675467
-0.11911168
0.01091054
0.01513491
0.04345237
-0.02923301
-0.05269545
-0.01204630
-0.03357087
-0.02311813
0.09041747
-0.06600201
0.01382875
0.03780593
0.03121037
-0.09408644
-0.04400420
-0.01516524
-0.03151802
-0.01244438
0.00376396
0.22637430
-0.05406295
-0.02024247
0.00461306
-0.02555053
-0.02337044
0.06674783
-0.01563303
-0.00261841
0.03435364
-0.02629508
0.04399474
-0.03116273
-0.03516836
-0.01001387
0.06661246
-0.07832919
-0.03065901
-0.04449687
0.01693758
-0.08131368
-0.03188146
-0.02698955
-0.04269927
-0.09130573
0.06702189
-0.03758811
-0.00055556
-0.04823126
-0.01779515
-0.05032132
0.07419711
-0.02527350
-0.01442428
-0.01254077
-0.05318198
0.03030174
-0.04561399
-0.03123969
0.01452275
-0.01440546
-0.04472055
-0.08199739
0.03527243
-0.10959139
-0.06973967
-0.02293470
-0.01820196
0.03536791
-0.07040282
-0.05642086
-0.01082494
-0.05275149
0.06245893
-0.09696832
-0.03557613
-0.09987628
-0.00906597
0.00426031
-0.09240948
-0.03628924
-0.00751723
-0.03644725
-0.03113254
-0.09403157
0.01335596
0.03661004
-0.03595291
0.01239528
0.06363425
-0.02817079
-0.06172445
-0.05158694
-0.02032916
-0.02219477
0.01758270
-0.05692380
-0.10446320
-0.00937053
-0.00527691
-0.05503970
0.01713080
0.12950408
0.05457951
0.00635938
-0.05002141
0.05465611
-0.00166977
-0.02801594
0.05758325
0.02402192
-0.07520005
-0.05960574
-0.01237941
0.02362308
0.10733147
-0.01607573
-0.06448126
0.02769325
-0.06494305
0.08433688
-0.04402779
-0.00158926
-0.04879007
-0.02597885
-0.02297974
-0.05171368
-0.05323766
0.00624172
-0.03116895
0.01628611
-0.00701795
-0.00949013
-0.17118788
-0.01571681
-0.03462279
-0.06749484
-0.02973595
0.00822625
-0.00543918
-0.07522739
-0.01571577
-0.07899818
-0.02475269
-0.14942683
0.02219306
0.01038311
-0.02455808
-0.00036264
-0.01958146
-0.03968691
-0.01502844
-0.02572834
-0.06785581
0.03548935
-0.00048575
-0.04859036
0.05962084
0.04821655
-0.10300969
-0.02681707
-0.04526363
-0.02222236
-0.04168771
-0.01495376
-0.00164813
-0.06824492
-0.06119633
-0.04570682
-0.00742844
0.07426578
-0.04627080
-0.01462590
-0.03685856
-0.14086874
-0.09316206
-0.01234417
-0.05361235
-0.05912671
0.05484756
-0.04024220
-0.09100308
-0.05437472
-0.02051391
-0.01370625
0.04273773
-0.02709166
-0.01425573
-0.05151701
-0.07591363
0.05790307
-0.06369982
-0.05372718
0.00490875
0.01210164
0.03237037
0.01014664
0.00087839
0.09442147
0.03834578
-0.00001146
-0.02565474
-0.00637436
-0.00927427
-0.04591430
-0.05817538
-0.02901040
0.01026475
-0.04122379
0.06510072
0.04879060
-0.04003691
-0.04701968
-0.01457636
-0.04553287
-0.01635496
0.00029498
0.09813454
0.01262723
-0.01852847
-0.02432240
0.00483749
-0.06181346
-0.06697030
0.03166819
-0.05277726
0.09110723
-0.10543380
-0.08996075
0.00540437
-0.03889027
-0.07277025
-0.04614158
-0.01114881
0.00255803
-0.09814380
-0.05847016
0.00941398
-0.04775010
0.00073857
0.03574444
-0.00590915
-0.12759236
-0.02871977
0.02984247
0.07330811
-0.01197245
-0.02768371
0.10099001
0.01152714
0.03569282
0.04199493
-0.03580664
0.06853740
-0.08291671
0.00162473
-0.05103496
-0.00884329
-0.06402422
0.01370502
-0.03551064
0.00300409
-0.03457528
-0.06204247
-0.05008654
0.02792594
-0.00859125
-0.00132381
0.01867699
-0.06575117
-0.01590088
0.02430882
0.02376367
-0.04013936
0.01075660
-0.08276220
-0.02187680
-0.04807363
-0.05068592
-0.04865575
-0.03677702
0.00844203
-0.04678278
0.01748138
-0.10803338
0.07352777
-0.03578670
-0.13654386
-0.06815552
0.03919558
0.01366871
0.00852971
0.05140948
0.04069627
0.05386988
-0.05821455
-0.02505405
0.01947171
-0.00693571
-0.00306209
0.03893411
0.00995239
-0.07387215
-0.04504278
-0.04796010
-0.01087156
0.01521668
-0.09499450
0.01224787
0.04603541
-0.02128305
0.02251821
-0.02378542
-0.02070135
-0.09293363
-0.05129375
0.03640651
-0.02560413
-0.00393536
-0.01930029
-0.00640915
0.05433761
-0.05337325
-0.09243526
-0.09182230
-0.05201925
0.00344879
-0.11501125
-0.02403430
-0.01229440
0.03692060
0.01053953
-0.05880844
-0.01701601
-0.10065261
-0.12883882
0.03450925
-0.06602347
-0.10776707
-0.02276864
0.01131013
-0.08828636
-0.05842894
-0.01919714
0.02928102
-0.08511474
-0.04802773
0.03460094
-0.02508541
0.01123917
-0.02179578
0.13754509
-0.08484121
0.00452658
0.00444008
0.02749962
-0.01863747
-0.03131860
-0.07916269
-0.02204376
-0.09506945
0.00898636
-0.02935995
-0.04052158
-0.01361232
-0.05401667
0.03767795
-0.05958854
-0.04290412
0.00838117
-0.02352046
0.02767244
-0.08237767
-0.06155318
0.00592631
-0.00715535
-0.09814124
-0.02943607
-0.06425866
-0.04117760
-0.01551220
-0.03307492
-0.00109366
0.01028874
-0.03169522
-0.02774760
-0.02224684
-0.03998886
0.01169957
0.03140733
0.02018244
-0.05367894
-0.06472135
0.02937506
-0.04182233
0.03018063
0.07449520
-0.03605843
-0.01372451
0.07086566
0.06394975
-0.03584610
0.00601249
-0.02349191
-0.02269672
-0.10181464
-0.03148656
0.07531386
-0.06964969
0.01849856
-0.04317698
-0.08881540
-0.11466839
-0.05610586
-0.06433514
-0.10320318
-0.10675482
-0.00339216
-0.02758791
-0.00794944
0.01590142
-0.03236913
0.02247825
-0.03860746
0.01268120
0.01861837
-0.02019093
-0.01919215
-0.05693579
0.06989063
0.03717579
-0.00523566
-0.05572116
-0.00158971
-0.02111796
-0.11609905
-0.01178002
0.01832663
0.02623926
-0.11302784
-0.09180429
-0.04113280
-0.00757443
0.06377123
-0.00801127
0.06400964
-0.07680099
-0.02192015
-0.00009243
-0.01706476
0.01434766
-0.06245166
-0.03040561
-0.00701463
0.07912593
-0.11239045
-0.09518781
-0.05624568
0.01984613
-0.04418361
-0.05518826
-0.07546949
0.05927370
0.02112540
-0.06987991
-0.07883284
-0.00184166
-0.02218565
-0.10378513
0.02169113
0.07544178
-0.03954743
-0.07185371
-0.01786233
0.00816314
-0.04481559
-0.00834263
0.01679812
0.03680338
-0.01710881
