-0.06593415
0.04208663
0.01210986
0.00314066
0.05477908
0.04583259
0.02077118
-0.05602352
-0.02059238
-0.09972300
-0.09788731
0.05178773
-0.07311956
0.08490405
0.06073195
0.12139317
0.00997020
0.00232348
0.02789441
-0.03300940
0.02303271
-0.00504271
0.00571483
0.01423979
0.02900555
-0.00577773
0.05547211
0.06312037
-0.01556243
-0.01754239
-0.00069617
0.04699356
0.03586539
-0.07594193
0.02494880
-0.02412619
-0.03061634
-0.00572011
0.02447291
-0.05965564
-0.00422969
-0.01799652
-0.04198608
0.00916254
0.04935306
0.04891209
-0.08650478
0.07534195
-0.10025083
-0.08032534
0.00392709
0.05916839
0.07802147
0.00172677
-0.02269153
0.06166290
-0.02847164
0.06226175
0.03697768
0.04188742
-0.01598429
-0.02493927
0.06867345
-0.00807708
-0.02233836
-0.05566859
0.05369300
0.07416677
0.02942288
0.04597013
-0.00272091
0.03244536
-0.03833497
-0.08016333
0.10816339
-0.06563250
0.04645487
0.02374239
0.05282877
0.08687374
0.07376157
-0.03241624
0.02527900
0.01004574
0.00204221
-0.06387764
-0.08855169
-0.03031073
-0.01679245
0.09598887
-0.07521598
-0.00561261
0.08345480
0.05337457
0.03936718
-0.14880566
0.01302226
0.00630869
0.08538581
-0.03237784
-0.06318503
-0.04004832
-0.00084572
-0.00124941
-0.13693860
-0.07935067
-0.05902430
-0.07295601
-0.08005022
-0.09184894
-0.02597849
0.02428759
-0.08931372
0.01534736
-0.05305242
0.01414594
0.04006837
0.04693252
-0.04190750
-0.03365421
0.05191001
0.14511731
0.03886922
-0.00344219
0.04361444
0.03646182
0.05303635
-0.02288545
-0.01648435
-0.07790886
-0.01316474
0.06536418
0.00678099
-0.00499950
-0.01238410
-0.07996301
0.04059851
0.01509230
0.08502681
-0.03363203
-0.04950922
-0.03990945
-0.11713935
0.03664036
0.06800540
0.00635952
-0.07913245
-0.10254735
-0.09458482
0.11776236
-0.06760921
0.07050414
0.00998215
0.00043605
-0.04414470
0.08874899
-0.00628500
0.03352065
-0.01129139
0.02361393
0.04608306
-0.00673915
0.05173909
-0.03667333
0.00183519
0.02820709
0.03056682
-0.01824389
0.04417581
0.03370397
-0.06872886
-0.00527685
-0.02454167
-0.05630183
-0.02872658
-0.00912631
-0.00249395
-0.00284589
-0.07444271
-0.00884438
-0.16051853
0.00317724
-0.03235807
-0.05651633
-0.06075086
0.02521980
0.05437186
-0.02245054
0.07683629
0.01799052
0.04445944
-0.10016100
0.05358294
0.00004424
0.06068885
-0.07777092
0.01914334
0.04095802
0.06391613
0.04622734
-0.08973252
-0.02435377
0.04969653
-0.09467203
0.02012351
0.12676714
0.02122222
0.03103979
0.03919220
0.01996578
0.01138551
-0.05412644
-0.00508993
0.01104531
0.09958158
-0.08398932
-0.02681880
-0.11655131
0.04018178
-0.08930334
0.04452997
0.04120548
0.00105823
0.00270389
0.00712233
0.05307869
0.02345265
-0.03452002
0.04683203
-0.09323754
-0.05677956
0.02078174
0.03482147
0.02600106
0.04517246
0.07156868
-0.01402688
0.03156089
0.11495797
0.02327438
0.13617566
0.00333718
0.01938253
0.09655322
-0.09173735
-0.01090997
0.05256220
-0.00259872
-0.02499659
0.01859276
-0.01052308
-0.05862319
-0.00080205
-0.05015940
-0.00555486
-0.03454662
-0.08194790
-0.04763195
0.05164540
0.10949225
-0.07292514
-0.02856786
-0.02751236
-0.02028490
0.05270321
-0.00655684
-0.07569423
-0.04716389
0.05452806
0.08854568
0.07733472
0.01499769
0.00812014
-0.12859738
0.02628012
0.09527606
0.00680669
-0.01158797
-0.05259352
-0.02571016
0.00715592
0.02207684
0.00372061
-0.01295434
-0.07065634
-0.03368369
0.07260600
-0.08256766
-0.06525524
0.08497595
0.04462359
-0.01539338
-0.02462001
0.10209545
0.03329618
0.00614001
0.00244146
0.07179177
-0.04952993
-0.00296606
0.00330247
0.04837870
-0.00820172
0.01448374
0.02166951
-0.08310530
-0.07417578
-0.07399744
-0.57188851
-0.06113341
-0.08500806
-0.01823302
0.04480658
-0.02687653
-0.01392743
-0.01676094
-0.02913140
0.03503289
-0.05508926
0.04303116
-0.04334380
0.00871298
0.03966733
0.06315199
-0.08238483
-0.03714785
0.03618443
0.11269207
-0.01182896
-0.05253168
-0.01199189
-0.03202087
0.00517032
0.01362547
-0.06425399
-0.00786929
-0.07202157
-0.02629913
-0.04193991
-0.00036248
0.02753468
-0.07750811
0.06951313
-0.00630555
0.02158179
-0.03287000
0.04057290
0.02442602
-0.04916754
-0.00434615
0.00104448
-0.06751129
0.02611331
0.02846436
0.01259458
-0.02893029
-0.02363622
0.07186671
-0.06253687
-0.03946743
0.05259508
-0.00115644
0.01211710
-0.00207193
-0.05930495
0.01141647
0.03619199
0.07654377
-0.01365151
0.06796850
0.04227307
-0.03597343
0.06658673
0.01941305
0.05462495
-0.01454212
0.09476691
-0.05753704
-0.00445225
-0.05637523
0.01727480
-0.11266951
-0.02006069
-0.01205524
-0.02217462
-0.03923854
-0.01887263
0.04827062
-0.11557632
0.02986698
0.10935397
0.08023762
0.01033200
-0.03900903
0.04455301
-0.10200524
0.00133752
0.03461371
0.01689059
-0.02298933
0.00641714
-0.04509886
0.08406305
0.01231339
0.00739631
-0.08928318
-0.02053052
-0.05600859
0.00563832
-0.02871386
0.03088767
-0.06338943
-0.08191831
-0.04068989
0.03571877
0.08361423
0.02637957
-0.07064208
0.05031858
-0.01610279
-0.03706130
-0.05398668
0.06930730
-0.05906633
-0.06734483
0.02891275
0.02192011
0.01430009
-0.04296997
0.03034377
-0.09490318
0.03143217
-0.01653511
0.05820677
-0.01050336
0.02611339
-0.05244456
-0.00667115
0.04177582
-0.01242686
0.03225524
-0.13913952
-0.02330355
-0.10783419
-0.04331364
0.00912405
-0.01071000
0.01882893
0.03512932
0.02054747
0.04094291
0.05477754
0.05505384
0.07114561
0.01145885
-0.02948945
-0.00561249
0.01643702
0.04893137
-0.01579486
0.07918418
-0.03487356
-0.00887284
-0.08065099
0.07542375
0.00214276
-0.01457208
-0.01239676
-0.01097786
-0.06118263
-0.04548128
-0.02117412
-0.01964068
0.01803429
-0.05372647
-0.04367390
-0.01108426
-0.00572335
0.05379774
-0.06083566
-0.03357223
0.02867882
-0.01166038
-0.02059241
-0.04399932
0.05437602
0.05418386
0.04422096
0.05388972
0.00176820
0.02417318
0.07461245
0.00943622
-0.01303873
-0.03256165
-0.01718840
-0.04109830
0.03587816
0.07135439
0.00233529
0.00080611
0.09320666
-0.06690865
-0.01910422
-0.05839189
0.00349473
-0.04115410
-0.01184288
-0.05806192
-0.03968546
-0.17954193
0.01334635
-0.02122021
-0.03327689
0.10818998
0.09253564
-0.01663670
-0.02294596
-0.07078723
-0.03196913
0.00399768
0.02556909
0.03752452
0.00607120
-0.02827073
-0.01969100
0.07491698
-0.14788255
0.05482919
-0.02750003
-0.08498443
-0.07118414
-0.03469282
0.04223908
-0.00704796
-0.10316353
0.01937107
-0.00025232
0.04459091
-0.09991966
0.04563405
0.05722258
0.13634650
-0.03065947
-0.01437231
0.06324384
-0.01901927
0.09320613
0.05085433
-0.02132432
-0.00581777
-0.01579746
-0.07447651
-0.00849720
0.00349524
-0.06374580
-0.00646923
0.08332001
0.04603291
-0.00048518
-0.01063930
0.02483686
-0.01912339
0.08598525
0.00898769
0.01557883
0.01604866
0.03603167
0.05157138
-0.00298352
-0.05791084
0.01576180
0.02810111
0.09584407
-0.03016041
-0.04023074
0.02584131
0.04261867
0.02402765
-0.05299611
-0.01230110
0.07442250
0.02660756
-0.03953354
0.00111556
-0.02540536
0.02849123
0.01122138
0.12312656
0.03647191
-0.02236719
0.09091121
0.04764809
-0.01376673
0.02681292
0.01334559
-0.01694874
0.07196224
-0.02554494
0.06051416
-0.01333527
-0.01192952
-0.04681441
-0.08627066
0.05133732
0.10959529
-0.05425595
-0.00797361
-0.01807172
0.03634569
0.02088526
0.04597247
0.02997676
-0.04229227
0.05113478
-0.04591127
-0.05271024
-0.01713439
0.06368974
-0.14678550
0.00930559
0.00458577
-0.05763856
0.01166376
0.02841168
-0.01495209
-0.00475262
0.01894027
0.01061854
-0.02050108
0.00904706
-0.04732123
0.06833918
0.04002912
-0.00603539
-0.02466423
0.04022758
0.06111225
0.06638630
-0.01545978
-0.06221017
0.02438291
-0.06736032
-0.09674273
0.00060514
-0.12291595
-0.02765885
0.01418564
0.00510742
0.04252712
0.03066337
0.00344181
0.01297887
0.03900483
-0.05819188
-0.02796863
-0.01917259
0.01069393
0.03475714
-0.06390671
-0.06069950
-0.12792975
-0.00858469
-0.03596848
0.03901136
-0.02397997
0.01968273
-0.07919038
0.01640817
0.09043914
0.09080897
-0.00008723
-0.02493976
-0.02735576
0.07804267
0.05010079
0.00789126
0.07879195
-0.05767652
0.04860879
0.05378227
-0.02637487
0.05289020
0.03086491
-0.01639503
-0.01217811
0.03878958
0.03001709
0.07011089
-0.02692819
-0.05625865
-0.09060297
-0.00794295
-0.06976327
0.01051216
0.07323179
-0.05869905
-0.06546117
0.09539386
-0.06923426
0.06324254
0.05102127
-0.06718385
0.03186287
0.05537402
0.07683003
-0.01098332
0.07584052
0.12463409
0.08527703
-0.03301419
-0.01797972
-0.06949066
0.06161894
-0.01938296
0.00787388
-0.00376829
0.06691482
0.13821295
-0.04009802
-0.03473682
0.02334355
0.01554125
0.06183539
0.07513603
0.00518335
-0.06805538
-0.04600224
-0.00149887
-0.04911247
0.00143625
-0.00662858
0.02693217
0.04072193
0.06841365
-0.03317100
0.03390221
0.09597114
0.02162627
-0.00834203
0.01857893
-0.04189502
-0.05613843
-0.02306055
0.01798305
-0.02282979
-0.03061652
-0.09431873
-0.08024601
-0.02813918
0.02912025
0.05263042
-0.19034626
-0.05827412
-0.09234568
0.00964495
-0.04282593
0.08432226
0.02251651
-0.04820194
-0.04543225
0.01568830
0.03842120
0.00052258
-0.06593270
0.05663200
0.03005238
0.04614759
