-0.00692890
0.00856551
0.00670392
-0.00524207
-0.00017896
0.00506848
0.00418040
0.00186354
-0.00101897
0.00118956
0.00027066
-0.00024563
-0.00054681
-0.00255784
-0.00473384
0.00048603
-0.01810152
0.00483136
-0.00445366
-0.00538970
0.00319537
0.00194771
0.00490547
0.00776249
0.00284621
-0.00138962
0.00191941
-0.01555918
-0.00158707
0.01221745
-0.01185489
0.00025238
-0.00574560
0.00472909
0.00483756
-0.00370809
0.00161338
-0.01199915
-0.01103215
-0.00912634
0.00158111
0.00405040
0.00035638
-0.00162888
0.01096727
-0.00850374
-0.00279928
-0.00341975
-0.00008384
0.00603073
0.00684945
-0.00411676
0.00446312
0.00841487
-0.00317068
0.00167192
0.00002549
-0.00735265
-0.00151076
-0.00476930
0.00929321
-0.00402165
0.00063089
-0.00646491
-0.00202059
-0.00098130
-0.01253937
-0.00727478
0.00144932
0.00012148
-0.00247655
-0.00608379
0.00575727
0.00140909
0.00031080
-0.00731559
-0.00503211
-0.00124097
0.00621608
-0.00429165
0.00213866
0.00604900
0.00015636
-0.00811203
0.00025493
0.00124732
-0.00036001
0.00336433
0.00203917
0.00736541
0.00213759
-0.00270407
-0.00449786
0.00701548
0.01171058
0.00335185
0.01094987
0.00382770
-0.00040843
0.00172661
0.00434962
-0.00904026
-0.00094870
-0.00766192
-0.00665953
-0.00615909
0.00141802
0.00266244
-0.00171412
0.00379174
0.00308667
0.00505726
0.00854622
-0.00994233
-0.00208098
-0.00032214
0.00410388
0.00278759
0.01230910
-0.00729054
0.00580962
-0.00572443
-0.01584367
0.00886884
0.00075721
-0.00670876
-0.00005345
0.00665303
0.00070891
-0.00238359
-0.00348009
0.00908820
-0.00345906
0.00100846
-0.00159130
-0.00304122
0.00064338
0.00372880
-0.00801259
-0.00274297
-0.00087348
0.00012993
-0.00446318
0.00309098
0.00013590
-0.00723770
0.00468319
-0.00040115
0.00511247
-0.00021036
0.01009722
0.00863019
-0.00671079
0.00258201
-0.00028322
0.00851604
0.00119020
0.00099237
0.00046737
0.00511363
0.00684072
0.00035398
-0.00183642
0.00450977
-0.00158926
-0.00730270
0.00077145
0.00605625
0.00108251
-0.00452586
0.00115956
0.00001607
0.00082740
-0.00222249
-0.00677185
-0.00516461
-0.00384313
-0.00299880
-0.00357659
0.00188605
0.00356237
0.00016096
0.00699595
0.00199138
0.00181312
-0.01429645
-0.00212641
0.01142981
0.00002500
-0.00029619
-0.00090634
0.00570772
0.00868991
-0.01231677
0.00929548
0.00812581
0.00704162
0.01709261
0.01405585
-0.00417275
-0.00120808
-0.00650873
0.00085041
-0.01293129
-0.00065760
-0.00953025
-0.00426906
-0.00498617
0.00836813
-0.01032456
0.00271974
0.00367990
0.00549897
-0.00285034
-0.00910364
-0.00360954
0.01272528
0.00504250
0.00493740
0.00084564
0.00480565
-0.00729012
-0.00115165
0.01437380
-0.01914053
-0.00570131
0.01270791
-0.00181131
-0.00141124
0.00879373
0.00187238
0.01955524
-0.00187026
0.00520010
0.01402025
0.00397047
0.00088318
-0.01281918
0.00140888
0.01500098
0.00259381
-0.01595864
-0.00987046
0.00118947
-0.00228868
0.00121162
0.01177203
-0.00196867
-0.01150000
-0.01347851
-0.01429511
-0.00025825
-0.00455041
-0.00376654
-0.00579366
0.00778618
-0.00382947
-0.00193333
0.00680491
-0.00446282
0.00165508
0.00371359
-0.01585765
-0.00534947
0.00039600
-0.00127601
0.00015099
0.00155986
0.00102952
0.00055349
0.00020891
-0.00126120
0.01737529
0.00817427
-0.00067034
0.01025355
-0.00880583
0.00137046
0.00086300
-0.00919247
0.00041660
-0.00756499
0.00000681
-0.00165824
-0.00508907
-0.00752193
-0.00378539
-0.00092838
0.00673250
-0.00438029
-0.00102074
-0.01236656
-0.01086596
0.00551951
0.00456300
-0.01013314
-0.00016747
-0.00606772
0.00183079
0.00271597
-0.00068589
0.00489486
0.01436175
0.00595638
-0.00166575
-0.00855696
-0.00239053
0.00261641
-0.00341043
0.00364740
-0.00042868
-0.00394688
0.00213036
0.00570460
0.00091637
0.00019189
0.00101804
-0.00637136
0.00745093
-0.00083969
0.00164674
0.00644969
-0.00717949
0.00099222
-0.00934256
0.00497547
-0.00049802
-0.00056574
-0.00720452
0.00158226
0.00480321
-0.00393077
0.00370055
-0.00706984
0.00399874
-0.00100201
-0.00160050
-0.00298245
-0.00069768
0.00260179
0.00762996
-0.00311582
0.00074699
-0.00140748
-0.00375370
0.00312949
-0.00300892
-0.00040619
-0.00382683
0.00806302
0.00107877
-0.00800383
-0.00597064
-0.00049333
0.00529793
-0.00349038
0.00504398
-0.00675827
0.00528100
-0.00062861
0.00155716
-0.01074777
0.00866682
0.00525281
-0.00079207
0.00412530
0.00575506
0.00166936
0.00181746
0.01017163
-0.01212759
-0.00524266
0.00204049
-0.00715253
-0.00197262
0.00034394
0.00222404
0.00466053
-0.00922798
0.00411799
0.00576359
0.00451831
0.01133852
0.00236962
-0.00265884
-0.00352835
0.00314708
-0.00222765
0.00177361
0.00603816
-0.00450676
-0.00066091
0.00026278
-0.00408765
-0.00260141
-0.00160056
0.01294561
-0.00515174
0.00175267
0.00859826
-0.00134621
0.00542153
0.00689986
-0.00157387
0.00437075
0.00444146
-0.00506433
-0.00305479
-0.00037418
-0.00458108
-0.00083605
-0.00255682
-0.00497783
0.00930143
-0.00411626
0.00523382
-0.00336095
-0.00641798
-0.00313300
-0.00443305
0.00602863
-0.00793674
-0.00227339
-0.00129444
0.00221885
-0.00229929
0.00658321
-0.00409486
-0.00140224
0.00267580
-0.00313826
0.00482532
-0.00189846
0.00021024
-0.00487495
0.00013193
0.00078667
0.00341674
0.00284801
-0.00060556
0.00450881
0.00113757
-0.00473611
-0.00912736
-0.00243252
-0.00663660
-0.00361377
-0.00366329
0.00406056
0.00609304
0.01009568
0.00225127
0.00458242
-0.00355273
0.00129831
0.00266009
0.00519983
-0.00255863
-0.00324488
0.00556277
0.00373493
-0.00226311
-0.00477022
-0.00054411
-0.00365464
0.00420886
0.00106361
0.00790620
-0.00112916
-0.00278340
-0.00563142
0.00026623
0.00215209
0.00148766
0.01060844
-0.00442224
-0.00422711
-0.01615267
-0.00140307
0.00650232
0.00551535
-0.00709800
0.00022875
-0.00523344
0.00558245
-0.00131636
0.00407717
-0.00858509
0.00032347
-0.00405959
0.01084817
0.00403993
0.00309894
-0.00070970
0.00660456
0.00217736
-0.01132996
-0.01460381
0.00112166
0.00927751
-0.00796585
0.00682307
-0.00345668
-0.00682742
-0.01176229
0.01199547
-0.00898401
0.00359187
0.00202897
0.00894498
0.00152841
0.00268839
0.00392203
-0.00185625
-0.02203334
-0.01673168
0.01101748
0.00094418
-0.00292865
0.00277270
0.01099386
-0.00441679
-0.00307331
0.00912744
-0.00194919
-0.00221628
0.00184899
0.00092678
-0.01479001
-0.00588577
-0.00074369
0.00636501
-0.00662940
-0.01036263
0.00258796
-0.00581530
0.00291861
-0.00634163
-0.00196605
-0.00692942
0.01486533
-0.00258292
0.01947875
0.00486810
0.00955808
0.01221505
0.00747391
0.00238471
0.00515504
-0.00691925
0.01113434
0.00459690
-0.00714277
-0.00301466
0.00831504
-0.01441985
0.00296206
-0.00639557
0.00403218
-0.00495513
-0.00432056
-0.00189509
-0.02156684
-0.00737494
-0.00335360
0.00172733
0.00464668
-0.00731923
-0.00375165
0.00695050
-0.00665540
0.00022093
-0.00578508
-0.00709858
0.00645234
-0.00764133
0.00659322
-0.00245394
-0.00067695
-0.00443514
0.01453885
0.00035079
0.00165853
0.00440238
0.00328139
0.00699799
-0.00725945
-0.00644190
0.00141617
-0.00774827
0.00129266
-0.00159311
-0.00507801
0.00017698
-0.00554549
0.00153232
-0.00957768
0.00296154
0.00760526
-0.00460381
-0.00445248
-0.00521832
0.01484664
0.00097605
0.00236045
-0.00146205
-0.00245071
0.00642874
-0.00168239
-0.00251096
0.00121523
0.00430217
0.00209011
0.00015536
-0.00843241
0.00742553
-0.00286235
0.00475489
-0.00291315
0.00496677
-0.00633125
-0.01052899
0.00760809
-0.00761824
-0.01075404
0.00685472
0.00574255
0.00003116
-0.00774309
-0.00816432
0.00393015
-0.00074874
-0.00059020
-0.00699423
-0.00194710
-0.00731485
0.00402338
-0.00046903
0.00365830
-0.00590803
0.00579975
0.02348114
-0.01144782
-0.01066216
0.00380662
-0.01203003
-0.00978211
-0.01762906
-0.00333445
0.00167399
0.00704866
-0.00408892
0.00750284
0.01371666
0.00584686
-0.00462024
-0.00103688
-0.00286818
-0.00534667
0.00669289
0.00722467
0.00708654
-0.00127934
0.01791504
-0.00884848
0.00462657
0.00477235
0.00094461
0.00125821
0.01633947
0.01043418
0.01353273
0.00210518
0.00181810
-0.00373993
0.00150182
0.01279115
-0.01223496
0.01172233
-0.00566522
-0.01006492
0.00164981
-0.00575022
0.00557022
0.00366017
-0.00328148
-0.00897105
0.00949557
0.00081535
-0.01074763
0.00814422
-0.00235678
0.01239720
-0.01071583
-0.00231876
0.00416752
0.00876661
-0.00187742
-0.00330707
-0.01023625
0.01199349
-0.00498534
-0.01100179
-0.00046365
0.00290779
-0.00247178
0.00101141
-0.00358873
-0.00386478
0.00989901
0.00016218
0.00184197
-0.00416713
0.00224997
-0.00175394
0.00717379
-0.00144847
0.00012975
0.00101270
0.00754830
-0.00421561
-0.00470950
0.00201479
0.00317586
0.00543200
0.00415160
-0.00239160
-0.00159821
-0.00197238
-0.00570608
0.00075423
0.00237168
0.00113296
0.00214575
-0.00018828
-0.00007061
-0.00338182
-0.00116420
-0.00472399
-0.01224224
-0.00061426
0.00219227
0.00162582
0.00351514
-0.00301858
0.00143880
0.00228964
-0.00340605
-0.00509379
-0.00168280
-0.00769294
0.00545176
0.00268511
0.00210322
0.00581038
-0.00773256
0.00298573
-0.00289647
-0.00108374
0.00567454
-0.00113450
0.00515688
0.00992498
-0.01016048
-0.00163061
-0.00205639
-0.00216983
0.00415701
