-0.03665350
-0.01365895
-0.03865646
0.00278796
-0.05523999
-0.06539831
-0.00939978
0.06430812
-0.01737834
-0.04156549
-0.00378789
0.02282548
-0.02278160
0.07426901
0.00980250
-0.03284115
0.06094807
0.02085605
0.03011759
-0.02441597
0.11335844
0.05709883
0.04589417
0.00906783
0.08327413
-0.03711725
-0.04706939
-0.07760283
-0.06246577
-0.01523042
0.05972047
-0.01634400
0.01402769
-0.03333532
0.03355071
-0.02783847
-0.05148577
-0.00101691
0.11603838
0.01185324
-0.02175572
0.06599836
-0.01965283
0.01188430
-0.02359997
0.04069994
-0.03733804
0.00933245
0.02491206
-0.04959857
0.02315474
0.01762779
-0.01265027
-0.00323196
-0.04799100
-0.02851018
0.02614765
-0.02546412
-0.05517042
-0.03587852
-0.08487720
0.04545671
0.02566481
0.05048965
-0.03395453
0.51641303
0.31664583
0.09067085
-0.07794768
-0.05048613
-0.34418070
-0.42659241
-0.39981931
0.26416361
-0.05455042
-0.03347612
0.27544740
-0.08880627
-0.10577969
0.04250139
-0.59638596
0.41542339
-0.24095573
0.24202567
-0.10826264
-0.21162173
-0.19717036
-0.97257048
-0.56228060
-0.55975884
0.06767620
0.69231319
0.29797968
0.84895933
0.12631455
-0.43728545
-0.38667464
0.20262082
0.01112223
-0.12983291
-0.60215861
0.18307540
-0.12737381
-0.22036615
0.06008565
0.16793036
0.02850076
0.88080645
-0.52389652
0.36746001
-0.14823078
-0.27111626
0.20231879
-0.85040498
-0.42368764
-0.24817798
-0.67395586
-0.19066730
0.23140126
0.65194368
-0.25897768
0.25137690
0.08254173
-0.36566633
-0.18521313
0.00795590
0.35679334
-0.51043659
-0.04055757
0.02779041
-0.00411725
-0.16091669
0.00774442
0.09270409
-0.09678595
-0.07345422
-0.08899026
-0.18871327
-0.26519766
0.05068573
-0.06992158
0.01114342
0.17418428
0.09343599
0.11314828
-0.11986747
0.06779310
0.01680936
-0.03236113
-0.04428848
-0.16620059
-0.09768245
-0.09252341
-0.35855040
0.08401646
0.02572361
-0.31460416
0.07227959
-0.02997184
-0.01847365
0.07834175
0.03611920
0.15006110
-0.09504545
0.37568298
0.08996411
-0.01778361
0.06488979
0.07247496
0.02360564
-0.09897161
-0.26255730
0.18713818
0.02628655
0.04056129
-0.26353434
0.14237589
0.22329476
0.36271676
-0.04041041
-0.09352805
-0.14308533
-0.09865427
-0.11635592
-0.16320565
-0.10497338
-0.07629331
-0.05087169
0.18323150
0.13542409
-0.09751773
-0.14244290
0.02657083
-0.00655613
0.01623655
0.03930623
0.00596520
0.01632029
-0.16081350
-0.03262700
0.00688050
-0.03217574
-0.02230416
0.02152603
-0.00522646
0.03679081
0.01275251
0.02895165
0.00644383
0.04546066
-0.02832958
0.00293329
0.00017828
0.00089782
-0.00086584
-0.00076619
-0.00417928
0.04932965
-0.05164042
-0.01137392
-0.03922016
0.01152492
0.02041799
-0.01817247
-0.03533410
0.00570147
-0.00972248
0.04726139
-0.05328551
-0.00103349
-0.07924385
0.00636449
0.01118838
0.01391344
-0.00066768
0.01998408
-0.03141324
0.01395844
-0.00826049
-0.01037636
0.00063525
-0.04723246
0.02827383
0.00479034
-0.02490729
0.01673272
-0.01013767
0.00883945
-0.02028183
0.22379284
-0.07504242
0.01962432
0.02899689
0.12657534
-0.01827686
-0.01310240
-0.03058144
0.02341241
0.06305438
0.00217974
-0.08588324
-0.14196368
-0.49440485
-0.00048228
-0.06242209
-0.06880638
-0.01635113
0.17931145
0.07006856
0.05156025
-0.47855189
-0.04197114
0.08958353
0.09911571
0.18749484
0.19830698
-0.19094011
-0.05516145
0.00548999
-0.18307884
-0.52570373
-0.49438271
-0.04445457
-0.01685108
0.12077121
-0.01284494
-0.05987808
0.04675823
0.11346662
-0.26239157
-0.03443585
-0.01270611
-0.00096233
-0.00402246
-0.04096975
-0.28943434
0.04300867
-0.29487023
0.11000417
0.09338743
-0.33847877
0.01626495
-0.19154996
0.06983472
0.11221267
0.05403534
0.03582870
0.10640331
0.27919096
0.02771843
-0.18848015
0.22709686
-0.09207325
0.00722294
-0.03190676
0.19499065
0.23235242
0.07470130
-0.07137719
0.19317815
-0.54712611
-0.17603545
0.60163808
0.20495430
0.01654302
-0.17513603
0.07828499
-0.30724749
0.28433678
-0.23953147
-0.04195933
-0.18647979
0.08146784
-0.23529992
0.15398808
-0.01034861
0.02151486
-0.47614169
-0.81538463
0.75546688
0.10596064
-0.83911657
0.80297351
-0.00449567
-0.60153013
-0.03216404
-0.12073840
-0.33679357
0.17504634
-0.07269268
-0.34645447
-0.32176238
-0.18836920
0.18772769
0.32312900
-0.10826781
-0.33857569
-0.23267840
-0.26057059
0.06262764
0.10409331
-0.39118323
1.05157137
0.15423089
-0.18725240
0.05035671
0.03592930
0.16908848
-0.27932507
1.06824291
-0.06067990
-0.11738359
-0.23208654
0.31402305
-0.45415688
-0.46753722
-0.70600921
-0.24294722
-0.60965371
0.28941497
-0.32761180
0.19048108
-0.05770787
0.31573990
0.15458597
-0.09262767
0.54596698
0.15506318
-0.02677921
-0.03208592
0.02201944
0.08084082
-0.00652105
-0.07294951
0.70190358
-0.11745403
0.02158311
0.35844994
-0.04052693
-0.18198562
-0.11100042
0.06644731
-0.12812270
-0.11217174
-0.21646839
0.20566545
-0.00946551
-0.32613611
-0.12109847
-0.25877523
-0.02542374
0.00737140
0.07854771
-0.04206926
-0.14742845
0.43558255
0.06832670
-0.15056151
0.49044302
0.04534199
0.07102095
0.02836429
-0.16987170
-0.14020774
-0.21732193
-0.11526998
0.25536624
-0.01581343
0.09666174
0.14404160
-0.29027337
-0.09488000
0.00832658
0.09765979
-0.26846647
0.00583331
0.38107616
0.43651727
-0.15991935
0.30961737
-0.02320586
0.25189185
-0.69279140
0.34615925
-0.15379220
0.23850872
0.25220066
0.11832314
-0.07711743
0.05670198
0.22717440
-0.00770673
0.01332433
-0.04713411
0.02041842
-0.07733888
-0.02895864
0.00840170
0.07971199
-0.08408652
0.05207314
-0.04179546
-0.01999813
-0.03032792
-0.08752670
0.00393450
-0.02702481
-0.02627743
-0.10544863
0.00348473
-0.05972957
-0.03875459
0.12489538
0.02458857
-0.01999373
0.19831592
-0.10466716
0.07893090
0.05199347
0.06115999
0.06350402
0.03825678
-0.04624364
-0.06100452
-0.04045539
-0.05357913
-0.07524347
0.04692127
0.02747993
-0.06451301
-0.07121166
-0.06135518
-0.00803432
0.05383531
0.15908273
0.03789690
-0.00971194
-0.00258914
-0.11489251
-0.01299836
0.01853049
0.00122477
-0.04029024
0.07213038
-0.03365526
-0.03873342
-0.00398612
0.00271981
0.00319469
-0.11221566
0.01837343
-0.00217340
0.05282101
0.08925293
0.04913061
-0.06755818
0.01427775
-0.09956864
-0.14370345
-0.09342363
-0.07498082
0.08421571
0.03510184
-0.04961958
0.05546694
-0.10883519
-0.02779055
0.07987342
-0.04404004
0.15768264
-0.03646757
-0.01486992
0.03409039
0.20333655
0.04078184
-0.11823784
-0.17398401
-0.07296449
0.00494819
0.08084024
0.09305273
0.14495438
0.10724480
0.00128912
0.09647021
0.24703023
-0.07136551
-0.12666902
-0.07791948
0.02769379
0.24223493
0.13195154
-0.19594772
0.02490556
-0.08475944
0.03683828
0.29913604
-0.09289226
-0.03136036
0.02435841
-0.10951470
-0.28249019
-0.19996715
0.02349259
-0.11282345
0.02058523
0.15109815
-0.27669373
-0.00634033
0.10770209
-0.07649620
0.00799650
-0.00331717
-0.14079766
0.12831505
-0.02278535
0.03501508
0.38516790
-0.04786455
-0.03314451
0.66567785
0.06718680
0.14547427
-0.24118674
1.07822084
-0.69450992
0.46364868
0.38006595
0.48177275
-0.05420428
0.72470784
-0.74661237
0.04146547
-0.26572087
-0.31717461
0.02238265
-0.57213742
-0.16398253
0.36663494
-0.73638868
-0.46078119
-0.45250487
0.89519024
0.01335580
0.46455151
0.94567597
0.33044103
-0.24402784
0.10418744
0.08817383
0.34338072
0.01811265
0.00907121
0.41373107
0.07351369
0.10596725
-0.34891003
-0.10980467
-0.39827770
0.18523864
0.11569703
-0.59277087
1.00609970
0.02026652
-0.61978543
-0.10079814
0.09634502
0.55444658
-0.55120772
-0.39172155
0.47162852
0.52172780
0.01789001
-0.22412887
0.28783059
-0.76023078
-0.07204661
0.06528318
-0.30258790
-0.16371898
0.02389006
0.04107768
0.04183982
-0.00775644
-0.02327912
0.03194576
-0.02243447
0.03387599
0.04146712
0.01463959
0.01104869
0.05162114
-0.03889325
0.01507839
0.02833240
0.01610453
-0.00031093
-0.01388809
0.02878352
0.02947614
0.03022589
0.00731766
0.02676022
0.00542305
0.05156315
-0.00728187
-0.00265256
-0.00424231
-0.03144698
-0.00378165
-0.02634127
0.02374732
-0.04395508
0.00849570
0.02502383
-0.02047496
0.03597664
-0.00092994
0.00127012
-0.00356434
-0.05435975
-0.02906025
-0.00311679
-0.01136534
-0.00527952
-0.11979209
0.02219410
0.01444817
0.00193013
-0.00051793
-0.00581399
0.13225295
-0.02416086
0.05362076
-0.02460773
-0.02176246
0.00495934
0.00560557
0.03932963
-0.25722566
0.01879382
0.00119309
-0.16260418
-0.00278908
0.06154507
0.05279665
0.11463101
-0.00753179
0.02665174
0.00328427
-0.03971029
-0.24838261
-0.03085894
0.02662465
0.04450506
-0.03761833
0.03891787
-0.07026691
0.14911272
0.17718735
-0.03175971
-0.04084384
-0.03759172
-0.04810509
0.05486693
-0.28982109
-0.11240043
0.01026891
0.10056329
-0.02215998
0.03318124
0.02926988
-0.05998564
-0.08207557
0.01709764
-0.00761848
-0.04663903
0.07293463
-0.04698800
-0.04527969
-0.49406314
0.04320759
-0.09613296
0.05237118
-0.20162131
-0.05611478
-0.01127945
0.01920403
0.05927216
-0.01442504
0.16437115
0.12791739
-0.05201727
-0.09201947
0.00919037
-0.43095550
-0.06192800
-0.07237681
-0.01196546
0.03595898
-0.01592697
0.01060766
-0.01118570
-0.13170750
-0.04044087
-0.26702651
0.00642388
-0.01201223
