-0.01349044
-0.01316258
-0.00519271
-0.00315630
0.00140209
0.02416950
-0.00539766
0.00628421
0.01652716
-0.02963774
-0.01621411
-0.03707911
0.00075273
0.00369365
0.00180757
-0.00510205
-0.00418461
-0.01557467
-0.01927199
-0.00646734
-0.01214109
0.00575141
-0.00556161
-0.00555248
-0.00710386
0.00288067
-0.01590475
-0.00286125
-0.00429547
0.00030167
-0.02412041
-0.00811246
-0.01957573
0.01065079
-0.00302672
0.01063251
0.01171549
-0.01194626
0.00424874
0.01308926
0.00257027
0.00206378
0.03009044
-0.00050752
0.02311561
-0.00199162
0.00441076
0.00386318
0.01164874
0.00592186
-0.00924892
-0.01172205
-0.00318227
0.00508507
-0.01075649
-0.01025758
0.00273069
-0.02340936
-0.00833177
-0.01190137
-0.01197138
-0.00246065
0.00615620
0.02058278
-0.00041674
0.01921602
-0.00135646
-0.02318671
-0.06431785
0.00056756
-0.02900374
0.00026107
0.00961126
0.01656228
-0.05473171
0.01075544
0.00708164
-0.03686035
0.02432268
0.00031475
-0.01372810
-0.03225152
-0.00578691
-0.00896380
-0.00203637
0.00657283
-0.01644650
0.01010929
-0.01884422
-0.01310222
0.02355339
0.00225908
0.00379002
-0.00035156
-0.00410276
0.00123395
0.02776088
0.01200302
0.00093575
-0.02725746
0.01655398
-0.01741824
0.00872459
-0.00010053
0.01132234
0.03741175
0.03980800
0.01568498
-0.04098384
0.00443531
-0.00247340
0.01576218
-0.00148849
-0.03523684
-0.01150872
-0.03675379
-0.03354857
0.02413798
-0.01123309
-0.00731610
-0.01406396
0.01658200
-0.01659535
-0.02228033
0.00139111
0.00932866
0.00276276
-0.01246509
0.03140007
-0.00986354
-0.02968431
0.01774626
-0.03591048
0.03218029
-0.01976214
-0.01411036
0.00069818
0.00361497
0.02769214
-0.01096335
-0.00575418
-0.02153656
0.00007056
0.00419665
-0.01330361
0.02913346
-0.00091533
0.02123485
0.01608496
0.00980792
0.01413763
0.02006181
-0.00436382
-0.00452923
0.00272677
-0.00167510
0.04074602
-0.00914821
0.00061764
-0.03032980
-0.01164889
-0.01449764
0.01413143
-0.01691242
0.00447110
-0.00320993
-0.02178481
0.03048887
0.02112318
-0.02038306
0.00665262
0.01726381
0.00598845
-0.00896211
0.00849753
0.01640455
0.01269136
0.00289184
-0.02767010
0.00456168
0.01237292
0.01038024
0.02259942
0.00421025
-0.03119465
-0.02147841
0.00632781
0.02058640
-0.01624260
0.01969946
-0.00187541
-0.01937293
0.01755161
-0.02602857
0.00173772
-0.03340617
-0.00411368
0.00108642
-0.00362666
-0.03070101
0.00282154
-0.03892624
-0.00535991
-0.00997192
0.05372922
-0.01181813
0.01327621
-0.00601369
0.02333601
-0.00215913
-0.01124932
-0.01501380
0.00123510
0.00452666
-0.00278436
0.00823219
-0.02380667
-0.00557726
-0.04287964
-0.00403592
0.01153059
-0.02209716
0.00367860
-0.01956308
-0.01311149
0.00371868
0.01623975
0.00187703
0.05123490
-0.01011880
-0.00985686
0.00807088
-0.01172697
0.01798532
0.00629955
0.00040022
0.06140573
-0.00246535
-0.00111526
-0.02118760
0.00409999
-0.01258738
-0.01143966
-0.01153382
0.00029655
-0.01694058
0.00993101
-0.01067974
0.05576756
0.01228350
0.00425865
-0.00565569
0.05165083
-0.00630100
0.01122547
0.00880385
-0.01215874
0.01033283
-0.00093195
-0.00049782
-0.02449444
0.04396197
0.01289080
0.00215676
-0.01992234
-0.00743239
-0.00084583
-0.02779669
-0.01050311
-0.00220477
-0.01938816
0.01289612
0.02644985
-0.01677932
0.03449687
0.00625454
0.00230619
0.02080181
-0.03759508
-0.02308727
-0.02625947
0.00101344
-0.02723871
-0.02354514
0.00819254
0.01023317
0.01863328
-0.03498880
-0.00824363
-0.00834743
-0.01929879
0.00967970
-0.02475087
0.02276000
0.00532600
0.00293595
-0.00435528
0.00371805
-0.00247315
0.01561973
-0.00984356
-0.02922207
-0.03250746
0.00449342
-0.00840390
-0.00846798
-0.02648628
-0.02164668
0.00218820
0.02988781
0.01165504
-0.01105476
0.00345696
0.01629701
0.00679363
0.00386793
0.03392713
0.00261941
-0.02280436
-0.03735854
-0.00748319
-0.01191859
0.00361739
-0.00488361
-0.00405742
0.00338289
0.00084825
0.02236902
-0.00611453
0.03444954
-0.01142874
0.02728465
0.02300091
-0.00814060
0.02682598
0.03833912
-0.00781585
-0.02397987
-0.05455448
-0.00692145
0.02308119
-0.04271963
-0.02362439
-0.00385112
-0.01057134
-0.00163066
-0.00385569
0.03184085
0.00396518
-0.00463332
0.01287119
0.02242221
0.00541149
0.01376150
-0.00909806
0.00578551
-0.04010221
0.03723124
-0.01558927
-0.04865570
-0.03933639
0.03588692
-0.03125186
0.00725604
0.03457040
0.03622785
-0.00559441
-0.01436364
-0.02359823
0.04655705
-0.00609554
0.04642156
0.01596450
0.01730830
-0.03092299
-0.00275749
-0.01721180
-0.03211083
0.01149139
0.00583076
-0.03511805
-0.01573080
0.02893920
0.02394248
-0.00406875
0.03485021
0.02105970
0.00457423
0.01331492
-0.01114246
0.01395939
0.01329496
-0.00807210
-0.02193559
-0.00132801
-0.00024563
-0.02826395
0.01161267
0.00431022
-0.01508808
0.00753861
-0.00989635
0.01987919
0.01903302
-0.01318980
0.00997736
-0.00183594
-0.01607157
-0.00378658
-0.00682716
0.01033175
0.02237707
-0.00225321
0.01874173
0.00457443
-0.00196770
-0.01460430
0.00238183
0.02730214
0.00565254
-0.03348122
-0.01767762
0.00504076
-0.00099455
0.00771368
0.01586858
0.03117318
-0.01041191
0.00676771
-0.03601843
0.00801161
-0.02616619
0.00899396
-0.00165251
0.00661476
-0.01165173
0.00994112
-0.01266076
-0.01098259
-0.00393888
0.01231292
-0.01325308
0.01750746
-0.00358311
0.01099570
0.00273212
0.02614250
0.00833200
0.01846207
0.00072950
0.00295581
-0.00155180
0.03950061
-0.00417345
-0.00136863
0.00573741
-0.01232263
0.00850166
-0.01224525
0.01840265
-0.00034045
-0.01737649
0.00727127
0.02614719
0.00131861
0.00151181
-0.01001985
0.01646895
-0.00208653
-0.01614273
-0.02176698
-0.00612560
-0.00680400
-0.02107866
-0.00072464
-0.00587478
-0.00718727
-0.00893369
-0.00739483
0.00783824
0.00637542
-0.00048055
0.00123390
-0.01372954
0.01279367
-0.00066328
-0.00343411
-0.01091176
0.02410516
-0.00436325
0.00791010
0.00431439
-0.01045542
0.01112154
-0.00762318
0.03426782
-0.01978794
-0.01407965
-0.01091425
0.01561839
0.02291335
-0.00915844
0.00292687
-0.00312490
-0.01429301
0.00097006
-0.01569526
0.00446272
-0.01393402
-0.02474864
-0.00672578
0.02025067
-0.00651669
-0.00089137
-0.02153426
0.04073261
-0.03177952
-0.01974116
-0.01204467
0.02009125
0.00215848
-0.01431724
-0.00886314
-0.00254919
0.02561774
-0.01967054
-0.00923359
0.01432391
-0.01456213
0.03110377
0.00003525
-0.02350984
0.00643625
0.00580518
0.02306330
0.00937791
0.00024216
0.02661220
0.00995130
0.01389908
-0.00686308
0.00680851
-0.01493028
0.02696266
-0.01618920
0.00235297
0.01153806
-0.01133546
0.00395184
-0.00926068
0.04666368
-0.01914182
0.01990838
0.01030909
-0.00394807
-0.01060635
0.00547235
0.03816603
0.00780188
0.00562555
0.01820759
0.00748666
0.01764983
0.01069081
-0.02757911
-0.00211836
0.03059863
-0.03318534
-0.01257076
-0.01202097
-0.05646687
0.00270805
-0.00430864
-0.00783709
0.01171056
-0.00509548
0.01672102
0.01604558
-0.01136738
0.31140783
-0.02485022
0.02879288
-0.02959579
-0.00438228
-0.01590241
-0.01963443
-0.00539491
0.02068189
-0.02097749
0.00880751
-0.03147337
-0.00941383
-0.00723679
0.02681307
0.01053749
0.00024243
0.03985243
-0.00395169
0.04207108
-0.00441797
-0.00219323
-0.00755171
-0.00581073
-0.04743869
0.03382592
-0.01719221
-0.03232204
0.02772724
0.02629899
-0.01684090
0.02658436
0.01949015
0.00547941
-0.02565015
-0.01955123
-0.06170828
-0.00753559
0.10342723
-0.00149513
-0.00948537
-0.02985435
0.02482861
-0.00618830
0.07894957
0.00242386
-0.05977380
-0.01999273
0.00244737
0.05150244
-0.01751107
-0.00512212
-0.00451910
-0.00104839
0.00245605
-0.00254138
0.00594407
0.00461085
0.01824336
0.04358158
-0.00665023
0.06203784
0.00397957
0.03362824
-0.05702741
0.05160091
0.05712279
0.00806339
0.01097595
-0.07462313
0.00322610
-0.06206794
0.00636414
-0.04854571
0.05407847
-0.03495744
0.09534901
0.04839502
0.00658236
0.28710330
0.01782189
-0.00570623
0.01876798
0.04769705
-0.01784475
-0.03033641
0.01546281
0.01661077
0.02376797
-0.03371435
0.01205459
0.05047066
0.01988579
-0.02804695
0.02560290
0.02846427
0.01302456
-0.04205722
-0.00667555
0.03530097
-0.05890905
0.02109472
0.03502498
-0.00113148
-0.03707846
0.05238279
-0.06276169
0.03431565
-0.20612547
-0.02520600
-0.00067061
0.01327551
0.05884568
0.00894832
0.02765882
0.04279664
-0.01176269
0.09029011
0.00493845
-0.02792959
-0.03727872
-0.01262952
-0.04085648
-0.07599305
0.01824124
0.04734715
0.03915333
-0.00439931
0.00809671
-0.01418268
-0.01280064
-0.00832502
0.01661761
0.00213994
-0.07636278
0.01181850
0.01976779
-0.00948223
-0.02653950
0.00966456
0.03261494
0.00063202
0.02511048
-0.00806410
0.00087135
0.02858069
0.00127597
-0.00073514
0.04365634
0.05941297
0.01208629
0.00512498
0.01944314
0.03557480
-0.02008058
0.01925683
0.01574896
-0.04139400
-0.00660257
-0.02953655
-0.01860939
0.01988302
0.02179997
-0.02453051
-0.01238610
0.04227377
-0.03895424
-0.01613052
-0.02308494
0.01990378
0.00291335
-0.01056584
-0.01897474
0.00718458
-0.03522527
-0.04332608
0.02773871
-0.01182451
0.02690832
0.03348725
-0.02660229
-0.01171534
0.04057051
-0.00160954
0.00867080
0.05732947
0.02481528
-0.00278341
-0.01320123
