-0.06339905
0.06220664
-0.03044581
0.00895190
0.06277437
-0.01767500
0.00188575
0.09125841
0.00428396
0.04827861
0.02058941
0.04741731
0.02529536
0.02423803
-0.09678260
0.01500665
0.14130965
-0.05705540
-0.00003919
-0.03888710
-0.06690905
-0.08592065
-0.06242431
-0.07836153
-0.02157870
0.03933771
-0.06980973
0.08698864
-0.11691726
-0.03195412
0.05505602
0.00147840
0.00364643
0.03998928
-0.05438862
0.08451266
0.01163126
-0.01501620
-0.06984569
-0.00675059
-0.01426077
0.00309908
0.01103295
-0.01290667
0.00553816
-0.07805715
-0.02608061
0.11568926
0.01821285
-0.07510708
-0.06929848
-0.08245146
0.06819282
-0.03802041
0.00460415
0.06564713
-0.00585664
-0.15015313
-0.00373992
-0.10133991
0.00501205
0.08139812
-0.05161683
-0.10868341
0.01498712
0.06704014
-0.09041879
-0.04574168
0.03888780
0.01010267
-0.17297897
0.04949116
-0.01070485
-0.00734828
0.01062858
0.03084024
0.02828772
-0.00869288
-0.03682746
0.14023502
0.03992080
-0.03615308
-0.01981574
0.10593832
0.05307542
-0.18606909
-0.03859894
0.02542134
-0.03351644
0.09607705
-0.03084514
-0.07445360
0.00945609
-0.03100617
0.09554049
-0.08511180
0.16004132
-0.00743863
-0.00553788
-0.08570907
0.04754104
0.00430288
0.02238218
0.04998916
0.13585556
0.09996469
-0.02987701
0.02064502
-0.05076377
-0.16848971
-0.01780604
-0.03642814
-0.05059807
0.03210471
-0.03630323
0.08690679
-0.05955154
0.03945632
-0.04410795
-0.04053920
-0.02504255
0.24305184
-0.09254126
-0.03315067
0.16267174
-0.14568640
0.05044769
-0.00066696
-0.03059810
0.05390867
0.00946952
-0.09656370
0.01740622
-0.02544972
0.04158716
0.01857929
0.10287087
0.03747978
0.00192767
0.15620865
0.00381339
0.01378234
0.01273026
0.01121589
-0.08103943
-0.01832284
0.13016585
0.08045296
-0.07066681
0.14477693
-0.02109941
0.07789957
-0.15604964
0.00181396
-0.01329752
-0.13306521
0.05991352
0.03515286
-0.05664792
-0.02450895
0.03506261
-0.02934543
0.00216739
0.04181188
-0.04415212
0.14922473
0.03158607
-0.10514065
0.02868394
-0.02829978
0.05527342
0.12144360
-0.04463930
0.03124783
0.00561233
-0.10013819
0.00773985
-0.02240055
-0.01004125
-0.03970926
0.02660403
0.01933992
-0.05978382
-0.04040072
0.01242992
0.01468030
-0.02867126
0.06147332
-0.02641932
0.01839736
-0.03135964
-0.01641856
-0.04799495
-0.06713811
0.13621742
0.06627364
-0.02155656
0.11441591
-0.03968316
-0.00961354
-0.03355090
-0.03510972
0.03348173
-0.12365500
-0.03236854
-0.00277329
0.01678312
0.04263317
-0.00836365
0.05057198
0.08131202
-0.05071831
0.04176647
0.01317157
0.04669164
0.13827172
-0.19844361
-0.01409971
0.06718835
-0.08497536
0.08073235
0.03011421
-0.04806636
0.03598836
0.09964085
0.04035944
0.06908237
0.04732107
0.01812074
-0.03131029
0.04627769
-0.00142220
0.01541089
0.01933295
-0.01277368
-0.06267696
-0.02060905
0.10893590
-0.10054785
0.04117432
-0.03718304
-0.03676884
-0.03286504
-0.01573122
0.02127119
-0.08717858
-0.17471838
-0.08827730
0.03650508
-0.19707170
-0.02361834
0.01969722
-0.10177005
0.06683351
0.07871395
-0.00358873
-0.08474704
0.01687387
0.00765070
0.03298230
0.01919045
-0.06607066
0.03004313
0.14356494
0.02313308
0.04627611
-0.02266294
-0.01918707
0.09504198
0.03947663
-0.00688132
-0.00274866
-0.03968762
0.13669695
0.03555843
-0.10208533
-0.16750950
0.11523972
0.10067111
0.01725610
0.03599487
-0.02642475
-0.07193849
-0.18872288
-0.02838555
0.01779502
-0.03069381
0.04085732
0.01881164
0.05886799
-0.01608122
-0.09200374
-0.06319000
-0.07142471
0.06824994
-0.17974643
0.04114933
0.01720327
0.02212044
-0.00700523
0.01780669
0.08577849
0.10831568
0.05085125
-0.04788298
0.03922699
-0.08326310
0.09185587
-0.36599234
-0.01477563
-0.06321338
-0.00644298
-0.03830250
0.11458720
-0.04318197
0.11169606
-0.00280317
-0.03878259
-0.09932305
0.13661748
0.01896132
0.03884025
0.03284311
-0.14598455
0.04790919
-0.02891294
-0.05036576
0.01087824
-0.00582945
0.03748550
0.09726939
-0.26390472
-0.03746862
0.05324137
-0.05666404
0.03105976
-0.11905500
-0.09340429
-0.01106299
0.03147439
-0.07221089
-0.04382057
-0.07975787
0.11332590
-0.10521051
0.14801955
-0.01222087
0.00942886
0.15745148
0.05379012
-0.03346516
0.00809047
-0.05135569
0.06240932
0.03777489
-0.01241843
-0.02886678
0.00572178
0.05998592
-0.00783719
0.04727762
-0.05539816
0.05414417
0.01885729
0.05800594
0.03520904
-0.10227182
-0.01553253
-0.02015242
-0.16903391
-0.09650949
0.07695832
-0.01854057
0.13158406
0.02760098
0.03054625
0.01990147
-0.12445659
-0.03099876
0.04658858
0.04171349
-0.05883121
-0.02127756
-0.06419659
0.04802846
0.09396961
0.01162779
0.03422188
-0.07922234
-0.07611275
0.04725184
-0.05768427
0.03925860
-0.17125814
0.10112677
0.00423806
-0.04941856
-0.19465117
0.04628432
0.03274442
-0.03501302
0.12395144
-0.01175529
-0.01652897
0.02182405
-0.06308869
-0.03211166
-0.04797778
-0.09268977
0.00016491
0.00952858
0.08613284
-0.02128805
0.05054673
-0.09647196
0.02644441
-0.07766329
0.05818207
0.05908746
0.05427941
0.07430600
-0.02616366
0.11268280
0.06991893
0.06272231
0.07250411
-0.05778519
0.00532302
-0.02223107
0.01930581
-0.02998007
-0.03322756
-0.02387597
-0.06103215
-0.11650147
0.01538705
-0.07414385
-0.01029450
0.01487112
-0.07597274
-0.11518042
-0.02953622
0.11502016
0.04080883
0.03493433
-0.01880900
0.03302384
0.06675772
0.03013116
-0.10146901
-0.04846228
-0.03641813
0.09002388
-0.01741363
0.01744898
0.06946809
0.03162863
0.00523877
-0.13925345
-0.04498747
-0.04742784
-0.17052369
-0.02750676
-0.05289365
0.07320820
0.05460778
-0.05630578
-0.14572302
-0.08403737
0.10277411
-0.05203197
-0.02647729
0.03781523
0.02279179
-0.03332790
-0.10733768
-0.14007044
-0.00480126
-0.05078122
-0.05509025
0.12731719
-0.01793480
-0.06796527
-0.17185424
-0.05835688
0.00037247
0.05021811
-0.00587966
-0.04180051
0.03212918
0.00692863
0.07789294
-0.04266796
0.10500941
-0.04030151
-0.02608385
0.05028698
0.06553988
0.06238636
0.03573247
0.02179553
-0.00639216
-0.03199008
-0.00652545
-0.00381128
0.05011521
0.01264282
0.00169957
-0.10496773
-0.00461910
-0.01092777
-0.02715086
0.05615239
-0.05956843
-0.06898803
0.05127598
-0.11535979
-0.12898806
0.01954707
-0.02829142
0.05033693
0.01203741
0.03337847
0.15185508
-0.09321532
-0.01729044
-0.07184333
-0.04768861
0.01990723
0.04195432
0.07241870
-0.00276219
-0.01564974
-0.09741173
-0.00820562
-0.07681273
-0.03192053
-0.03734044
-0.03332341
-0.12016927
-0.08079308
-0.05402881
0.00155236
-0.01959624
-0.05965005
0.04413193
0.06605157
0.04230034
0.03672401
0.06621177
0.02761465
0.05386627
0.05537044
-0.01097228
-0.01157071
-0.02839255
0.00602396
-0.01137687
0.02220017
0.03120013
-0.02512506
0.13112125
-0.00212418
-0.01113111
-0.01105178
0.01557825
0.04561953
0.06919777
0.01989980
-0.00897367
0.04302691
0.05365729
0.06782142
0.09988732
-0.01025760
-0.04258942
-0.01350003
-0.20367089
0.00709002
0.03765199
-0.27787867
0.12780958
0.10714088
-0.08948247
-0.04492979
-0.05734267
0.06181850
-0.03423696
-0.01537930
0.10106522
-0.02276210
0.00250061
0.00943674
0.13883184
0.04759770
-0.10389794
0.00968191
0.04371634
0.00518266
-0.05389615
0.03039611
0.04014669
-0.00045173
0.02000597
0.05758875
-0.07485528
-0.02983283
0.17293856
0.02899292
0.07539629
0.00074603
0.01669866
0.10040563
-0.14215969
-0.17856686
0.03329607
-0.04552543
0.04330481
-0.03775773
-0.10390142
0.17284879
0.19138677
-0.03561512
0.04618637
-0.05645093
0.09563186
0.08263208
-0.06831131
-0.01676947
0.02976965
0.07597413
-0.05403215
-0.01014264
0.11069585
-0.07916647
0.00785800
-0.04725641
0.05014377
-0.02873809
0.08307067
0.07286441
-0.05667930
0.05553178
-0.00870503
-0.01109466
0.07465373
0.03024799
0.00718009
-0.03282262
0.06048644
0.08281691
0.03494423
0.03425032
0.11842119
-0.07584662
-0.04858917
-0.02234606
-0.03186749
0.00812411
-0.04197699
-0.00317616
0.04827926
-0.11220870
-0.00330810
-0.01894655
-0.01124430
0.00616370
0.06582929
-0.05286067
-0.03562244
-0.10995521
0.00895332
0.01023464
-0.01268944
0.04985531
-0.14424680
-0.01935231
0.00204966
0.03897400
0.03598294
-0.02759407
-0.05260321
0.03727705
0.01691256
-0.03464302
0.01564306
0.01033362
0.02565625
0.01412652
-0.05668780
0.00779392
-0.10218944
-0.00641839
0.10308444
0.06738102
0.02553164
-0.07126543
-0.04776779
-0.05671082
-0.08869219
-0.02629060
-0.08632855
0.10590428
0.08300558
0.00372211
0.01927738
-0.01112405
-0.16356188
0.04771110
0.07192345
0.02646818
0.04261771
-0.02636974
0.13450658
-0.18824552
0.05240214
0.04846180
-0.09286558
0.00284242
0.09788940
0.00169996
0.01772386
-0.02114366
-0.06669142
0.06744006
-0.01210838
0.03238729
-0.07144025
0.10898276
0.04639800
0.01552413
0.10823181
0.08262178
0.04063570
0.14366262
-0.07623070
0.02208074
0.00608205
0.06553134
0.00014789
0.01886499
-0.02596879
0.01902584
0.08912915
-0.05435951
0.03125179
-0.06770927
-0.12542564
0.10470500
-0.01458433
0.06271998
0.01275989
-0.03296623
0.04822974
-0.10958135
0.16051844
-0.14121559
-0.08838951
0.22495620
-0.01846127
-0.02979099
0.08422520
0.00206130
-0.02834024
-0.07284686
-0.07436167
-0.07479050
-0.00179131
