-0.11387186
-0.11565650
0.07878543
0.07802393
-0.14240801
0.12771817
-0.14853337
-0.07887955
-0.01976624
-0.05461918
-0.04339297
-0.18557805
0.10502505
-0.22768612
-0.00502499
-0.05345238
0.06023375
0.03459067
0.01919725
-0.25002530
-0.17367238
0.16299899
-0.14517623
-0.09299082
0.04328793
-0.14361891
-0.13517359
0.06303909
0.07528105
-0.06106370
0.00070334
-0.08396275
-0.09570795
0.06534538
-0.06967678
0.02658479
0.04278221
-0.15591526
-0.15938759
0.10955022
-0.03905341
0.10435390
0.00315264
-0.12960124
-0.00371384
-0.00321046
0.09819987
0.00296992
-0.10352749
0.01280550
0.09382625
-0.09301287
-0.17027660
0.09959077
-0.05675754
0.03710156
-0.04172341
0.10358503
-0.08981989
0.07325259
0.04706241
-0.05389129
0.14593199
0.10282899
-0.02572267
-0.08670332
-0.06626191
-0.03711941
-0.07993568
0.01270008
0.01731984
-0.01906067
0.06734452
0.01547207
-0.13960740
-0.00286051
-0.05677027
-0.14945622
-0.05781947
-0.12361522
0.01755094
-0.02530403
-0.08167440
-0.15383004
-0.06051721
-0.08656891
0.08147268
-0.17998984
-0.07016936
-0.03806159
-0.06119068
0.01892406
-0.29699117
0.08271933
-0.07811230
-0.01380022
-0.16062090
0.08784451
-0.00869735
0.01279066
-0.03825214
-0.10743700
-0.03564905
0.05731261
-0.12013009
-0.17422013
0.04068774
-0.03855336
-0.08437362
-0.13222706
-0.01665491
-0.08875339
0.13419409
0.13749331
0.02128147
-0.01484625
-0.07051599
-0.06035318
0.01266611
-0.17634836
0.03306904
0.16459316
0.04668195
-0.05924281
0.01515319
0.01691676
0.00663979
-0.07945393
-0.02478127
0.10349964
-0.11106656
-0.10081697
0.00717425
-0.00836290
0.05196222
0.10459757
0.01874083
-0.02109181
0.08213596
0.05477817
-0.05352525
-0.09035544
-0.02260019
-0.03834303
-0.05859010
0.22156194
-0.00744546
0.06365442
-0.03270951
-0.15626970
-0.02244205
-0.11385874
0.03777099
-0.05488117
-0.05060159
0.03208508
-0.13961390
-0.19021343
-0.08770489
-0.04981082
-0.02859032
-0.06659578
0.03957003
-0.06629112
-0.07742649
-0.18648511
-0.07537343
0.07840653
0.16032204
0.00131956
0.01270452
-0.10246207
-0.06829127
-0.19070406
-0.11708451
-0.16709611
-0.08834355
-0.03008923
0.03842734
-0.06081960
-0.00784496
-0.02494817
-0.03651707
-0.18250379
-0.14386639
0.01852411
-0.17459257
-0.10851315
-0.14528409
-0.02034185
0.02933853
0.15456635
-0.16682015
0.01121412
-0.02177627
-0.08334748
-0.03103714
-0.13271381
0.02760877
-0.00676592
0.03737975
-0.14014424
-0.12517262
-0.08403374
0.01128824
-0.14950883
-0.10155977
-0.03001622
-0.04669166
-0.03331875
-0.08295048
0.08474367
-0.13537353
-0.12764683
-0.02778555
0.09236549
0.03755099
-0.01587316
-0.16148306
-0.05488598
-0.05381859
-0.16055533
-0.11931183
-0.00621146
-0.05136914
-0.10960316
-0.09719437
0.00449027
-0.10043137
-0.00559482
-0.11038762
0.00718988
-0.07279768
-0.02429997
-0.04684550
-0.10079063
-0.07272530
-0.11349736
-0.03868913
0.01329490
-0.02661596
0.02547241
-0.00494689
-0.02558123
0.03234954
-0.05339309
0.08979442
-0.05490629
0.02567246
0.13423702
-0.07376034
-0.09673081
-0.00108924
-0.00839743
0.00205559
0.03013161
0.08858660
0.05645877
-0.08535133
-0.04513198
-0.10564895
0.08393850
-0.13149378
-0.03271201
-0.14374086
-0.10152160
-0.02821671
-0.04710286
-0.10316586
-0.05396083
-0.05837476
-0.04982330
-0.05326994
0.02826942
0.06043302
-0.08228435
0.00662382
0.07120897
-0.02215343
0.11078972
-0.16024961
-0.11568315
-0.06900800
0.04484251
0.01241012
-0.00899391
-0.06512758
-0.15137139
-0.13544974
-0.02368810
-0.07100850
-0.07418468
0.05555491
-0.03396894
-0.15367603
-0.05990573
-0.02207688
-0.20506613
-0.01164030
0.05508233
0.00829982
0.02103931
-0.00223589
-0.06178360
-0.12742628
-0.17051810
0.04699876
0.05992280
-0.06831414
0.05328740
-0.02210448
-0.08861034
-0.05887879
0.08849418
-0.08460403
0.08561894
-0.03591795
-0.00637618
-0.03415323
-0.04683202
-0.07506748
-0.00423274
-0.09925713
0.02959502
-0.04422718
-0.12171707
-0.03623638
-0.03187713
-0.01004533
-0.05019226
-0.01703190
-0.01053604
0.01709844
-0.15574551
0.01805893
-0.03049686
-0.05857177
-0.00538406
-0.03957758
-0.08408630
-0.00337942
-0.11089917
-0.07787438
-0.01315325
0.00981623
-0.21189618
0.01462476
0.04586675
0.03677363
0.02837206
-0.01052812
-0.14025258
-0.00049188
0.04342803
-0.00570413
0.00933072
0.01145730
-0.05879892
0.09761421
-0.04185909
-0.10463922
0.00509341
0.02570936
-0.04306107
-0.08757896
-0.01543680
-0.02064247
-0.03821776
0.00986382
-0.01988342
0.03488785
0.00261482
-0.09320357
-0.05468975
0.04312969
-0.01889453
-0.02971963
-0.02457201
0.08182939
-0.03336107
-0.04347587
0.11799882
-0.11674528
0.07147362
-0.00555036
-0.04877741
0.05842681
-0.13174072
-0.08249228
0.09142063
-0.04095993
-0.06250137
-0.11040318
-0.03812435
-0.11195847
-0.00832029
0.00313390
-0.00939003
0.01606766
-0.07619236
-0.00929203
0.04245239
-0.03375711
0.03445209
-0.02852259
0.14036909
-0.11424739
-0.03560693
-0.06635159
-0.00147996
0.14326401
0.03756249
-0.01583423
-0.01180545
0.02226278
-0.09858345
-0.04190911
-0.01348875
-0.08847473
0.01251672
0.01701545
0.13559037
-0.11363649
0.06458592
0.06468350
-0.08610658
-0.05015294
0.03275315
0.02243510
-0.03044406
-0.02533958
0.00039444
-0.00747042
-0.05734765
-0.11176924
-0.12064739
0.09107991
-0.00245858
0.01128912
0.06619572
-0.06204022
-0.08292037
-0.05495972
0.10385533
-0.02982113
-0.00845928
0.05993699
-0.07119833
0.00773389
0.06550502
-0.01391600
-0.07234965
-0.15731940
0.13551861
-0.12536237
-0.03315339
-0.01678947
-0.06871011
-0.02450596
0.06041746
-0.03287563
0.07937428
-0.06340304
-0.19660357
-0.11568324
0.08034076
0.08271483
-0.05501185
-0.11878978
-0.05544093
-0.03995506
0.05593710
-0.02937379
-0.01367328
-0.04686112
-0.01475478
0.01129840
-0.00631586
0.04515697
-0.00382902
0.00705120
-0.08430366
-0.02301190
-0.05344433
0.06036821
-0.04462373
-0.10296863
-0.11550546
0.11596256
-0.00197512
-0.02275117
0.03019741
-0.17527434
0.04305990
0.06648443
-0.06199619
0.20437029
-0.08541093
0.02793129
-0.04013644
-0.02504849
-0.03960507
-0.04595964
-0.05116406
0.02172291
0.05050631
-0.00170301
-0.01655032
0.03976780
-0.05798373
-0.04639141
0.03417015
-0.09533226
-0.03655094
0.07113311
-0.17618872
0.06434279
-0.09570621
0.07186964
-0.09902067
0.00254841
-0.09302768
-0.14080591
0.04857963
0.02711107
-0.02013109
-0.07224829
-0.04802210
-0.10072120
-0.03694122
0.06019610
0.00514166
-0.06892432
-0.00885496
-0.02051225
0.00538320
0.01617470
-0.08794058
-0.05173238
0.00504770
-0.10072545
0.06978279
0.00690271
-0.07702792
-0.01047626
0.07422751
0.06810876
0.08556052
-0.08048413
-0.12296505
0.00082271
0.11571502
-0.07020219
-0.09921551
-0.14845769
0.01623744
-0.10980099
-0.08025861
-0.10788744
-0.01264233
-0.01264148
0.02460985
0.05330173
0.01993464
-0.01406823
-0.03613915
-0.07856824
0.04693284
-0.02854034
-0.02001987
-0.06598861
-0.02154387
-0.04235437
-0.08216313
-0.08258487
-0.09027664
-0.01388022
-0.06976543
-0.08301686
-0.07003924
0.04066100
0.01902175
-0.09261073
-0.05735978
-0.05054580
-0.10097041
-0.25377965
-0.03242091
0.02159308
0.02645538
-0.02772569
0.09581921
-0.02838921
0.02603721
-0.12212316
-0.03182250
-0.11570171
-0.04506982
-0.10073218
-0.09898618
-0.08100290
-0.06498332
0.04956387
-0.09204058
-0.06334763
-0.09451224
-0.06272503
-0.09448678
-0.00866790
-0.00541945
0.02341005
-0.00762788
-0.06163896
-0.04023872
-0.01254130
-0.05029793
-0.04227915
0.00458548
-0.07717425
-0.11349933
-0.02945785
0.04598388
0.00105713
0.01804929
-0.01363807
-0.04535910
-0.18238974
0.01579221
-0.03670586
0.00946547
-0.04895470
-0.13879995
0.05700336
-0.15524812
-0.21353193
-0.02945565
-0.10860838
-0.06128765
-0.08451173
-0.14979362
0.06357711
-0.08103688
-0.06275441
-0.08358909
-0.01847897
-0.01961239
-0.04749422
0.01451050
-0.01601412
-0.16026920
-0.02424552
-0.03312476
-0.02153620
-0.10004111
0.05734028
-0.03438799
0.01289438
0.00734005
-0.02652730
0.02006933
-0.05921727
0.01842378
-0.08127415
0.00326089
-0.06311207
0.02512427
-0.03245798
0.01458942
-0.07071824
0.02567926
-0.03169051
-0.15118241
-0.02083770
0.05904950
-0.05748824
0.00901586
-0.17607176
-0.04734236
-0.08254819
0.02261548
-0.11804351
0.01734242
-0.12298950
0.04983427
-0.03129927
0.08378209
-0.15235327
0.03921452
0.00931700
-0.04491861
-0.02752730
-0.13238156
-0.05806139
-0.08753608
0.05881966
-0.17425875
0.08206122
0.00466757
-0.08952740
0.07188269
-0.11964777
-0.01922694
0.06902624
-0.02770945
-0.00505484
-0.07314071
-0.19997516
-0.12968008
-0.06815933
-0.01426010
0.04470776
-0.12827359
-0.03368774
-0.09590957
0.08497808
-0.07534312
-0.01279143
-0.09869073
-0.09729746
-0.09945144
0.04631348
0.07133148
-0.05207500
0.03072689
-0.10169114
-0.02540605
-0.01876864
-0.04258496
0.09241559
-0.08998802
0.07656195
-0.10570456
-0.06931740
-0.05291135
-0.14094813
-0.05427205
-0.14890489
0.01175912
0.07952743
0.01726714
0.05665724
-0.05028348
-0.09417676
0.04902535
-0.06473590
-0.09700341
-0.01250723
0.01614770
-0.07657683
-0.04862574
-0.00602264
0.08378182
0.00492996
-0.08363046
-0.02106669
-0.05734633
0.23102516
-0.11183231
0.02872272
-0.03751540
-0.04531397
-0.10490686
-0.05398902
0.08034087
-0.00387449
-0.02524842
-0.00851427
-0.02534299
