-0.03186265
0.01225256
-0.04610721
-0.02886309
0.07948573
0.05079983
0.01188475
-0.02016276
-0.10972936
-0.11627194
-0.08582293
0.02600029
-0.11622640
0.01417449
-0.03082645
0.03735581
0.05612846
0.04585749
-0.00867080
-0.07866921
-0.02390649
-0.03205104
0.06913164
0.03257726
0.03274711
-0.02793475
0.00787337
-0.05825043
-0.10385714
-0.01437960
0.06210794
-0.07376993
0.00067063
-0.03120103
-0.13493696
-0.07152976
-0.05068872
-0.01681078
-0.05420683
-0.10104859
-0.14045031
-0.06280319
-0.07232094
-0.01569390
-0.08271449
-0.04748181
-0.14355637
0.03772213
-0.07966454
-0.03612417
-0.10490930
0.06937981
0.03259270
0.06370497
0.02733316
-0.01565405
-0.13840319
-0.01727516
-0.06634311
-0.07836466
-0.00946703
0.04053736
0.10951635
-0.04420915
0.01165707
0.05954928
0.01667204
0.01802176
-0.11009017
-0.12360790
-0.10785778
-0.09657731
-0.06144436
-0.03302967
-0.07144024
-0.12339488
-0.02511807
-0.01878952
0.01591810
0.09249862
-0.07191341
-0.02356880
-0.03453267
-0.02201296
-0.04278309
-0.08647300
-0.09022199
0.09371639
-0.05948709
0.06965683
-0.09999070
0.01422883
0.01354166
0.10651050
0.00740506
-0.13428125
0.11715481
-0.07447793
-0.04137813
-0.01322315
-0.09272986
-0.07756211
0.00506127
-0.04591068
-0.13535015
-0.09651596
-0.07111152
-0.08987143
-0.05404792
-0.01018121
-0.09907296
0.00839171
-0.06616616
-0.07624146
-0.16431233
0.09208459
0.06893905
-0.11311199
-0.09424352
-0.01671904
0.04993457
0.05951694
-0.02608753
0.33272043
-0.01541062
-0.04709773
0.00085600
0.05475749
-0.10934402
-0.10904115
-0.02436836
0.11642413
-0.00340044
-0.10077481
-0.06706845
-0.14817205
-0.05895266
-0.10797870
-0.00361529
-0.03564942
-0.05153531
-0.09825822
-0.08281001
-0.06609747
-0.05928611
-0.03961705
-0.03203985
-0.10259282
-0.02426610
-0.06139650
-0.05710046
0.00156330
-0.15239204
-0.16107112
-0.06397345
0.05440618
0.06683893
-0.04140814
-0.09265376
-0.03185871
0.03087385
-0.06722379
-0.06344392
-0.10540616
0.03602466
0.02402421
0.08037950
0.06231610
-0.10960903
0.06491636
-0.07018390
-0.09038962
0.05808370
-0.07182457
-0.08550178
-0.06830095
0.06665503
0.02475963
0.06959904
-0.01502947
-0.62028873
0.04238350
-0.10136079
0.01535182
-0.05184967
-0.02943635
0.12513299
-0.01906799
-0.01454125
-0.06826673
-0.15091880
-0.11555464
-0.02057684
-0.04595873
0.03626159
-0.00489521
-0.11175287
0.00666608
-0.04873040
0.04100132
-0.12849985
-0.10543550
0.05926093
-0.07508311
-0.13273168
0.03263115
0.03744193
-0.04557540
-0.03372074
0.00286551
-0.04112542
-0.04357848
0.07114414
-0.04607264
0.03631785
0.02272203
-0.05576643
-0.02440483
0.00259749
-0.07213729
0.03417722
-0.03864766
-0.05447302
-0.01085833
-0.04566455
-0.13242404
-0.00378360
-0.06529514
0.07482170
-0.03553001
-0.07579624
0.00427671
-0.04367706
-0.05560867
-0.03163551
-0.06888843
-0.01713856
-0.09527397
0.05656400
-0.09996060
-0.00405472
0.05435563
-0.01579376
0.12155412
-0.07924245
-0.06312661
-0.03217281
0.00748501
-0.11497885
-0.14223710
-0.05547366
-0.12731640
-0.04008974
-0.04077904
-0.06086801
-0.08511078
-0.01546779
-0.02392337
0.01200510
0.07651114
-0.06490422
-0.01782875
-0.01428390
-0.06284929
-0.12350552
-0.17051843
-0.02507588
-0.09674101
0.00695997
-0.03633239
-0.00650676
0.05531919
-0.08957078
0.03900408
-0.11371966
-0.04979581
0.00473672
-0.00965047
-0.06142472
-0.02628388
-0.01867382
0.08431353
-0.09879677
-0.08689461
-0.11176476
-0.15329863
0.05784063
-0.14090699
-0.00844368
-0.00131460
-0.07481331
0.04111790
-0.07948923
0.03794761
-0.00062598
0.05044244
0.00389640
-0.01359520
-0.00015968
-0.05069060
-0.05579491
-0.00766101
-0.06690698
0.02529356
-0.11310925
-0.02489304
-0.01649774
-0.14564231
-2.25733376
0.03645759
-0.01877813
-0.10605906
-0.01031476
-0.07712030
0.02258153
-0.12539144
-0.05838458
0.03675053
0.01535301
-0.06780329
-0.04876227
0.04225637
-0.00639076
-0.09272668
-0.02384570
-0.04344879
0.01492133
0.02002386
-0.05991494
-0.16422057
-0.13509829
0.07008334
-0.02216636
0.04973173
-0.07476093
-0.05433191
-0.10172515
-0.07128228
-0.04125390
-0.10028240
-0.01517523
-0.02126496
-0.07902694
-0.09084361
-0.00223523
-0.01777133
-0.12336796
-0.11227632
-0.10405254
-0.07141929
-0.05178826
-0.01451868
0.16073839
-0.09945077
-0.07180717
-0.11434101
0.00492042
0.05568536
-0.01907296
-0.00066749
0.06938333
-0.07788528
0.05408573
-0.04514363
-0.00872680
-0.01843164
-0.12046057
0.03099625
0.00357525
-0.08715997
-0.12100323
-0.12565027
-0.03042615
-0.14699815
-0.13458523
-0.09956916
0.10869496
0.05380883
-0.06129345
0.07375298
-0.08241674
-0.27800250
-0.01393002
-0.12822998
0.03144613
-0.04901438
0.01328665
-0.00016778
-0.10666122
-0.09105599
-0.03551653
0.04687144
-0.00803321
-0.07792322
-0.04670095
0.02561102
-0.04272877
-0.08828356
0.01252068
-0.07194404
-0.03950874
-0.09851918
0.04244350
0.02724629
-0.06849933
-0.04387010
0.00732130
-0.00250994
0.04130828
-0.14794150
-0.08223354
-0.06755242
-0.06779063
-0.04015354
-0.08928837
0.05565342
0.05713954
-0.05755393
0.02201803
-0.02346966
-0.00666225
-0.07592707
0.06421398
-0.09562168
0.03993912
0.07417699
0.00956420
0.02905660
-0.01501686
0.06844757
-0.10289776
-0.00176329
-0.10085675
-0.01087056
-0.08061083
-0.06172390
0.06376913
0.00825580
-0.05669576
-0.10667522
-0.02370062
0.05531524
0.01683008
-0.04882627
-0.14019519
-0.19683731
-0.09898245
-0.09656056
-0.08095112
0.03589078
0.03347791
-0.01551140
0.12981036
0.00766678
0.02508021
0.01473965
-0.09108588
-0.00105969
-0.02562608
-0.05964604
-0.00256125
-0.04867905
-0.08691353
0.05730470
0.08389644
0.00513286
-0.06022839
-0.07049853
0.03032509
-0.10701686
-0.08562084
-0.04331246
-0.00765711
0.12022197
-0.08479280
-0.06801236
-0.01341776
0.13117439
-0.04093569
-0.09572261
-0.08500876
-0.01110532
0.00703817
0.02638695
-0.12144615
-0.10895292
-0.03267357
-0.00693222
-0.06814858
-0.10564750
-0.09247561
-0.00956296
0.14582939
-0.12083154
-0.08711366
-0.12051653
-0.11739203
-0.03748371
0.03685941
-0.00915180
-0.02420891
-0.07169926
-0.08429486
-0.14322491
-0.05313842
0.01600023
-0.07903748
0.01292853
-0.02913596
-0.01908497
-0.13101165
0.03982307
0.07248510
-0.20256062
0.03170579
-0.04120312
-0.07461441
0.06504682
-0.11041752
-0.06776237
-0.07538219
0.02340449
-0.01283847
-0.01880400
-0.01263195
-0.06375980
0.14706194
-0.13025588
-0.04157499
-0.11468592
-0.01999842
-0.11424230
-0.02955893
0.04619753
-0.06181695
-0.07712381
0.00083986
-0.14252590
-0.03640061
-0.12394603
0.04204598
0.08215136
-0.08857540
-0.07739674
-0.08089248
-0.09882520
-0.08420452
-0.01458700
0.01992971
0.05215506
-0.01658169
-0.11723631
-0.07815375
0.02341736
0.02900410
-0.08757770
-0.08360264
0.09824078
-0.04700917
-0.16176319
-0.13014574
-0.04163289
0.05758695
0.01056673
-0.12815560
-0.06230284
-0.08572993
-0.02987405
-0.00076287
-0.07509902
-0.10509053
-0.00865954
0.04578126
-0.03260915
-0.04545858
-0.05345498
0.08399563
-0.07185226
0.02375091
-0.03544619
-0.11457676
-0.02923963
-0.01960789
0.02357734
-0.05523736
-0.03203390
0.10908654
-0.13742584
-0.10076198
-0.01242832
-0.09299500
-0.03329099
0.01197049
-0.20307295
-0.01309065
0.03256495
-0.10937215
-0.02411206
-0.01911903
-0.01400821
-0.01904076
-0.05984236
-0.02237978
-0.05258347
0.06933061
0.03942687
-0.11748985
0.04092189
-0.08693638
0.05983474
0.11034466
-0.00310683
-0.02536103
0.05598041
-0.04969263
-0.13990864
-0.12324359
0.00624916
0.01420600
-0.11654889
0.02056349
-0.01090846
-0.08340959
-0.06029674
0.01136600
-0.12654784
0.00453948
-0.06521366
0.00681748
-0.04885729
0.08693676
0.03355322
-0.02833313
0.01188595
-0.00868965
0.03553547
-0.03838221
0.10493160
0.05300296
0.01134684
-0.03602395
0.05610554
-0.17639194
-0.09310904
0.03323627
-0.10656372
-0.03281962
0.01976333
0.05656235
-0.01806010
-0.09145398
0.09603202
-0.07426137
-0.02519207
-0.02604640
-0.04451312
0.02826347
-0.03055005
0.02847029
-0.02967909
-0.02960778
-0.08959187
0.00574085
-0.05891636
0.04608455
-0.02527853
-0.10196608
-0.04938722
-0.05915070
0.01730885
0.12177555
-0.05432903
-0.08183192
-0.04985020
0.00778008
-0.04253772
-0.04355737
-0.00936995
0.06286336
0.05858073
-0.10178631
-0.06442099
-0.00809502
-0.06272294
-0.02475644
-0.01970426
-0.06047339
-0.02357440
-0.03471121
-0.07459924
-0.13419044
-0.16800277
-0.13237627
-0.03591719
0.02372416
-0.09892534
-0.08298892
-0.07744546
0.04947745
-0.14701615
0.05898277
-0.01223269
-0.11080600
-0.10034950
0.06511543
0.01449012
0.04529646
0.02010329
0.04793793
0.06402866
-0.06902835
0.03213826
-0.03181968
0.08838741
-0.04941226
-0.10214372
-0.16270992
0.01717340
-0.04346106
-0.06675662
-0.51679772
0.01480195
-0.07624935
-0.00747197
0.02376896
-0.04512715
-0.01366138
-0.16845457
0.00661746
-0.03219099
-0.00162672
0.00638603
-0.08220059
0.09676712
0.03081366
-0.04991521
-0.12405450
0.02282414
-0.08483126
-0.07070258
-0.08853262
-0.04335761
-0.12750587
-0.15056612
0.07909281
0.00660064
-0.08550189
-0.06134232
-0.05779365
-0.00841611
-0.06035326
-0.09339818
-0.06086581
-0.05345968
-0.05420981
-0.11432165
-0.18628730
-0.02077029
-0.04554281
0.01982389
0.09559042
-0.11869845
-0.00387632
-0.12899628
-0.04418729
-0.04270124
0.05380194
0.02542890
