0.02521555
0.00405044
-0.00428565
0.02254422
-0.01741649
-0.05821599
-0.00843538
-0.01937634
0.04707365
0.04589834
0.07579680
-0.02627996
0.02990442
-0.03128230
0.00790245
-0.01245894
0.00942188
-0.03856164
-0.00748355
-0.00801411
0.03734667
0.02212574
-0.03563445
0.00110187
0.00743660
-0.03374729
-0.05094969
-0.03896448
0.01308861
-0.02574975
-0.07091555
0.00476487
-0.05005101
0.00226837
0.06591925
0.05888732
0.04279513
-0.03284920
0.03277337
0.03895783
0.00471177
-0.02178309
0.04261013
-0.03339368
-0.00029554
0.00490947
0.03362152
0.01155053
0.01141965
0.09363455
0.02497190
-0.03800230
-0.00969679
-0.05741872
0.00784153
-0.00080788
0.04208529
-0.09496437
-0.05074536
-0.02970237
-0.04958398
-0.00692792
-0.07155093
-0.02193615
0.00287039
-0.01938755
-0.05487775
0.02123429
-0.04563420
-0.03583551
0.01545067
0.01719273
-0.00087186
0.00555824
0.01389823
0.08264582
-0.08552568
0.02255770
-0.02592920
-0.04416215
-0.06160240
0.01329494
0.02815454
0.00234448
0.05521477
0.00800725
0.04680976
-0.03980301
-0.03018776
-0.04297305
0.03493392
-0.01985741
-0.02595080
-0.06365669
-0.00108654
0.07641472
-0.03200065
0.00372138
-0.05022753
0.03352362
0.01481986
0.00964073
-0.01550439
0.02939872
0.04228194
0.01385840
-0.01458850
0.03547547
0.01133136
0.08315212
0.07324190
-0.03874762
0.02526728
-0.04299120
0.05550001
-0.05306128
-0.03461763
0.02175433
0.00567699
-0.00291549
-0.04013653
-0.09065038
0.01993041
-0.03592971
-0.01418721
-0.00396755
-0.06429031
-0.01820235
-0.00187200
0.05285845
-0.02431171
-0.06146815
-0.02519769
0.02685582
-0.01206114
0.01558174
-0.04283755
0.03281558
-0.04856328
0.05123921
0.01917342
0.04374700
0.03869211
0.00023846
0.02956877
0.04354978
0.04618446
0.03383730
0.06924983
-0.04348225
0.02408736
-0.03922257
0.02829133
0.02090290
-0.02044685
-0.05673870
-0.07258858
-0.00079193
0.01458599
-0.00063140
-0.05982059
0.04454565
0.01331623
0.04585931
-0.01655322
-0.03476793
-0.05999815
0.00634923
-0.00018218
-0.01000687
0.01647897
0.01983318
0.00341133
-0.01557457
0.01773582
0.01076503
-0.02633428
-0.04040780
-0.03926487
-0.04310468
0.08440340
-0.03263450
0.02744188
-0.02003781
0.01005152
-0.02798161
-0.03799199
0.02222549
0.02091356
-0.00824159
0.00851894
0.02757895
-0.06712198
0.03789463
0.02031673
-0.01594681
0.03607342
-0.03211155
-0.02191793
-0.08454846
0.06586870
0.03496936
-0.07943251
0.03380420
0.02941836
-0.08134073
0.00580838
-0.00950020
-0.03990661
-0.03054825
0.01234286
0.02959733
-0.04917715
-0.00866736
-0.02442142
0.01768230
0.03177404
-0.02968420
0.00118564
0.01190959
-0.11350156
0.02860317
-0.00223597
-0.03290047
0.00606631
-0.05553551
0.01855718
-0.01607615
-0.07121221
0.04842863
0.01639884
0.01117615
0.04643176
0.01526351
-0.03041895
0.02591994
-0.04631962
0.00780218
-0.00641894
-0.05046725
-0.11716644
-0.01009358
0.07349044
-0.08303822
0.05419268
0.01370151
-0.03931850
-0.01459470
0.05223314
-0.03181266
0.00422526
0.02567911
0.03966986
-0.02229245
0.00669456
0.01460546
0.02297643
0.02176007
-0.01686291
-0.05211214
0.04102817
0.02343496
0.01694520
-0.01142581
-0.00337954
0.00093880
0.00299525
0.05067832
-0.05539180
-0.01994022
0.00990948
-0.02533009
-0.00011248
0.06158838
-0.02735396
-0.03519089
0.01218438
0.01985949
0.03411400
-0.03233261
-0.03728132
-0.05522717
-0.01642947
0.04507003
0.02996618
0.04265437
-0.07299709
0.07769497
0.01496535
-0.06934655
0.01380140
-0.01443437
-0.00689077
-0.03442780
-0.00980311
0.00549458
0.03528232
0.00987823
0.05206227
-0.00235334
0.00273444
-0.01788815
0.04535799
-0.00287675
-0.01092142
-0.01372398
0.00689850
0.03077026
0.12503317
-0.02150104
0.02276291
-0.01997581
0.01823530
-0.01584109
-0.01541299
0.07242174
0.03833451
-0.02232101
0.02089747
-0.02772879
-0.00363607
-0.03231215
-0.00076058
0.01803452
0.01450953
0.02132878
-0.06488086
-0.06457572
-0.00167759
-0.01176687
0.06446730
-0.02823836
0.06882095
-0.04396112
0.01008766
-0.00420146
0.01241981
0.00182872
0.00039680
-0.01169071
-0.02585695
0.06341346
0.03559828
0.02289289
-0.00782769
-0.03416328
-0.00672611
-0.00612668
0.03555121
0.01592874
-0.00314018
-0.00874140
-0.05619643
-0.01406530
0.03786858
0.04451434
-0.00636717
-0.00531355
0.03335543
-0.01890872
-0.07623968
0.03177689
-0.04607901
0.04454797
0.00205498
-0.02821426
0.05968791
-0.01248307
-0.01850259
0.00629288
-0.01133311
-0.01655310
-0.00366346
0.00677879
0.02633757
0.03322070
-0.02701597
0.00688386
0.00378035
-0.00374498
-0.02188699
0.01559905
0.03898452
0.02466892
-0.01861702
0.00962887
-0.01883879
0.01204476
0.05360241
0.00369068
-0.02431186
-0.03627843
-0.03048393
0.01987706
0.02433501
-0.00643366
0.00747847
-0.02710669
0.03291724
0.02565698
-0.04514242
0.05890983
-0.03106214
-0.02362380
0.02047498
0.07517610
0.01928096
-0.02597463
-0.04626555
0.07174905
0.03617420
0.06203026
0.02819971
0.02143585
-0.03881558
-0.09848875
-0.04587647
-0.02298226
-0.05313525
-0.04824169
0.04831611
0.03481367
-0.06374889
0.04709926
0.00877774
0.00303379
0.03964853
0.01468438
0.02099830
-0.03089359
0.03863537
-0.03855146
0.01925551
-0.01644204
0.03355704
0.02148865
0.00140294
-0.04050991
-0.02120663
0.04590327
-0.04082642
0.01870134
0.02203594
0.03693387
0.01062379
0.04332741
0.02599965
0.08608370
0.03248426
0.01314609
-0.06224487
-0.03949321
-0.06218507
-0.00661473
0.01667480
-0.00780149
0.02843751
-0.02536902
-0.01087559
0.02462634
-0.00793126
0.01146293
0.00526252
-0.02071060
-0.06545864
0.01034662
-0.01013671
-0.04245333
-0.00417605
0.10060254
0.02603316
0.01856849
-0.02188399
-0.04624540
0.06198898
0.00505002
-0.06833526
-0.06394701
-0.00687208
0.00312896
0.00056958
0.01102591
-0.03553465
0.01005623
0.06250267
0.01574961
-0.05581123
-0.01231560
-0.03159699
0.01441820
-0.00241154
-0.00286703
-0.04292700
0.04432061
0.02165724
-0.00472577
0.02863672
-0.02301170
-0.03787055
0.02952000
0.04193390
0.02341098
0.04351571
0.03603924
0.09638114
0.00638796
0.05169999
-0.00235238
0.02604897
-0.03070266
0.13769731
-0.01414022
-0.03741098
0.09467236
-0.04461351
-0.03483722
0.05559226
-0.04760783
0.07160658
0.01692229
0.02161311
-0.01408566
0.02369798
0.02199291
-0.01009038
0.01193509
-0.02490595
0.05485761
-0.04554585
0.02567637
0.03086327
0.00567046
-0.07159825
-0.05828078
0.02654738
0.08139569
-0.00861819
-0.00587811
-0.04484784
0.05675917
-0.04347978
-0.04652521
0.02183612
0.10324709
0.03136764
-0.00494844
0.00068469
0.00427827
-0.03106624
-0.04438002
-0.01810685
0.02246781
0.05853985
-0.04601027
-0.04437194
0.03641039
-0.01327067
-0.07651949
0.00166920
0.08232630
0.03782166
-0.00343429
-0.07479855
0.01793568
-0.01051119
-0.01749630
-0.03276591
-0.01686476
-0.07912784
0.04839777
0.05806482
-0.05370174
-0.02468357
-0.02429837
0.02544834
0.03999778
-0.01301236
0.01855250
-0.02364835
0.01464739
0.06579155
-0.01417040
-0.01320714
-0.03902191
-0.01515759
-0.01086587
-0.04394966
0.00689567
-0.02841127
-0.04807419
-0.01570505
-0.03117575
0.03290120
0.08306048
-0.02473670
-0.02228363
0.02448345
-0.02709079
-0.03896974
0.01700045
-0.00661644
-0.02087830
-0.03549197
0.02719021
-0.03094613
-0.03101369
0.07597779
-0.01493791
0.02930844
-0.05810380
-0.04297783
0.01314451
-0.01426871
0.05389372
0.02044784
0.04078456
0.01917471
0.07031417
0.00704633
0.03695295
-0.03053883
-0.00937504
0.01956822
-0.01625020
-0.02528641
0.04763459
0.03077990
0.03473128
0.00938903
0.02713688
-0.01658712
0.00227810
0.02484437
-0.04366247
-0.05372383
-0.01406619
-0.01549337
-0.01715633
-0.08609519
-0.05738306
-0.02623252
0.00656554
0.07935084
0.08345086
-0.04124028
0.09123289
0.00188361
-0.06569295
-0.01419532
-0.00100040
-0.00853922
-0.04233864
-0.00327850
-0.01855377
-0.02152048
-0.03095299
-0.01828784
0.02070771
-0.04714486
0.01867313
-0.00041047
0.01138694
-0.03219017
0.03628737
-0.03661660
0.01629038
0.02284852
0.01197258
-0.00978835
0.00919026
-0.05570403
-0.06089780
0.00431356
-0.02639022
-0.03160460
0.02600809
-0.01315703
-0.03955706
-0.02976872
-0.06201971
-0.01377596
0.03195625
-0.01054247
0.01123214
-0.03912895
0.00741545
-0.04580554
-0.03565140
0.00952774
0.00094926
0.05401022
-0.01965757
0.01298752
0.01718911
-0.00385193
-0.02962185
0.03395282
0.03136472
-0.03086496
0.00682723
-0.05729738
-0.01814071
0.06280060
0.02165837
-0.01233373
-0.02508576
-0.01195967
-0.00108123
-0.06097553
-0.04932279
-0.00436786
-0.00289084
0.05711004
-0.01925725
0.02892253
0.02773436
0.05603753
-0.01547261
-0.04229285
0.03836148
-0.00751489
-0.00582606
-0.03733975
-0.01294910
-0.04011469
0.05362324
0.05048002
0.07864549
-0.00342887
-0.00412396
0.00210332
-0.03457337
0.00070939
0.01176945
-0.02133325
0.04922110
0.02037775
-0.06480788
0.04397987
0.03248397
0.00958720
0.00077373
0.02740627
0.04529897
-0.05773493
0.01094003
0.01648651
0.01346308
0.05322103
0.04186286
0.01630690
-0.03166086
0.08792153
-0.00215484
0.02767225
0.02943082
0.04184523
-0.04155316
0.04281508
0.01408820
-0.06750463
0.01193970
-0.03124526
0.01658388
0.03956480
0.00160833
-0.05561247
-0.05271835
