-0.06757752
0.03154360
0.15722285
-0.14988373
0.14665897
-0.04254792
0.15134694
0.04700298
-0.06138939
-0.01590898
-0.06443676
-0.00468339
-0.13705169
0.17905256
0.02604259
0.20508738
0.05865645
0.08251736
-0.03856329
0.07478859
0.17320633
-0.10492387
0.15226278
0.29475501
0.08003128
0.16074204
0.09957172
-0.02294856
-0.24940406
0.13521434
-0.01848191
-0.06603156
0.17203245
-0.18657832
0.12729138
-0.04604378
-0.12682010
-0.05912456
0.14012341
-0.30879298
-0.05351289
-0.15981168
-0.06119797
-0.00624638
-0.01999245
-0.10456882
-0.02140456
-0.02455902
-0.09190118
-0.12557399
-0.07535419
-0.12192554
0.26261440
-0.14337836
0.11257902
0.09646901
0.09455488
-0.21947134
-0.16690223
-0.05635501
-0.04229857
0.11705302
-0.06400820
0.00986622
-0.05068443
0.16656394
-0.06864799
0.05931881
0.00853083
-0.19862680
-0.12050955
0.07968006
-0.05700363
-0.09822275
0.07175992
0.06513766
-0.07386210
-0.02017770
0.14202663
0.05008375
-0.01428359
-0.00747580
0.04375734
0.12487223
0.00616448
-0.11189269
-0.07331423
-0.02312646
-0.11088297
0.01700176
-0.06791981
-0.18986684
0.63335645
0.08763062
0.19531700
-0.13980110
0.21109520
-0.11535840
-0.13072847
-0.08794037
-0.10079891
0.01846556
-0.02704875
-0.04247417
0.00009187
-0.11898012
-0.12342051
-0.09467445
-0.21064837
0.02852520
-0.14539436
-0.08502390
-0.19355063
-0.12926209
-0.03621015
-0.01519674
0.04614072
-0.01615519
-0.13599987
0.13066085
-0.09853555
-0.10190582
-0.05846409
0.07887556
0.24872763
-0.13613939
-0.12944797
0.17826286
-0.11056685
-0.06097679
-0.01118023
0.14039603
-0.11429369
-0.08618143
-0.03879562
-0.05766489
0.12459181
0.10719766
-0.21048963
-0.07945319
-0.11962946
0.03259235
0.03543483
0.08482941
0.10317828
-0.49388087
-0.04679892
0.04284829
-0.16428773
0.22348250
-0.00698661
0.08462290
-0.24752975
0.05986134
0.08430500
0.02927100
0.03450263
0.00727130
0.00844257
-0.25372908
0.04795044
-0.10909874
-0.02579665
0.06525807
-0.07235777
0.08074926
0.07428392
0.09182642
-0.37885275
-0.04915863
-0.07176785
-0.03378149
-0.08868895
0.07260687
-0.09687318
0.21338250
0.06702532
0.04981302
0.11468646
-0.06874842
0.02080161
0.09557712
-0.16029495
0.10629508
0.00929379
-0.11195397
0.09074514
0.16547202
0.13597962
0.00477825
-0.05884407
-0.37208498
0.28856087
-0.10775656
0.17603174
0.04057524
-0.02932528
0.17479767
0.04491896
-0.04367979
-0.11713587
0.02989328
0.10268307
0.02880421
-0.16274197
0.10043371
0.02673981
-0.06557644
0.02047364
0.10454806
-0.16099027
-0.10512698
0.17886595
0.16047800
0.00797431
-0.01878350
-0.19889194
-0.07428730
0.09525093
-0.01565418
0.07155179
0.23893255
-0.09030292
0.02301534
-0.17560701
0.33092660
0.16442344
-0.06356005
0.04836369
-0.10389978
-0.04255748
-0.02004215
0.05056210
0.04086119
-0.03113944
0.01684491
-0.00608441
-0.18519109
0.11860888
-0.27265510
0.06506678
0.03034132
-0.13340108
0.00314892
-0.04074151
-0.05551162
-0.09227234
0.06392393
-0.22301356
-0.23522985
-0.02911474
0.43968594
-0.01007962
-0.02086323
0.07222070
-0.12006339
-0.29067230
-0.07525183
0.02064818
-0.01205295
-0.06250682
-0.04845231
-0.11590414
0.03699403
-0.04788455
-0.26411593
0.00814170
0.03096347
0.00640257
-0.13211130
0.00373652
-0.05801840
-0.15808758
0.00631940
-0.07750256
-0.05110770
-0.10819031
-0.14471570
-0.11415115
-0.08833428
0.11431959
0.02899586
-0.09894722
-0.15053454
-0.10658648
0.13934405
0.07435916
0.03329367
-0.00396193
0.02323354
0.09990260
0.00417854
-0.16967706
-0.09142058
0.16744739
0.09684744
0.06893946
0.22719003
0.14090949
-0.06207573
0.09916891
0.07182060
-0.09011188
0.10827176
0.39512402
-0.21339139
-0.08662487
-0.11272765
-0.91075397
-0.06062395
-0.13377185
-0.14821056
0.02610696
0.00687152
-0.04092747
0.06659335
0.03810498
0.04231051
-0.19431807
0.03711820
-0.20792979
0.13018890
0.26285079
-0.21403567
-0.03405649
0.01076046
-0.06910421
-0.15082389
-0.05413802
-0.15906307
-0.01298453
0.12534377
0.01581719
0.14976208
-0.18488678
-0.01176314
-0.10952263
-0.09604092
-0.05184578
-0.18200955
0.00360283
0.05745096
0.03256169
0.04716517
0.09885517
-0.01693328
-0.00443327
-0.19629079
-0.05002493
-0.21491660
-0.27265784
-0.07395858
0.04813934
0.08678474
-0.07897353
-0.11928086
0.03086498
0.06768199
-0.08623262
0.01291048
0.05445743
0.03068163
0.01725676
-0.01045550
0.01104891
-0.03491863
-0.08575044
0.12432580
-0.06725974
0.03844516
-0.00907288
-0.07672190
0.00785467
-0.11488542
-0.05379047
0.00577398
0.05071050
-0.16998430
-0.17397103
0.03838325
-0.02466017
-2.00206256
-0.01598061
-0.14757498
0.04475700
-0.12538715
-0.25191417
0.06777002
-0.04262426
-0.08294503
0.12131514
0.11875163
0.11251076
0.00219893
0.07041795
0.00325289
-0.22668618
-0.17564237
0.08545749
-0.17526606
-0.05974323
-0.09254847
-0.00702236
0.01700446
-0.03790533
-0.15695657
-0.00292856
0.02116078
0.19352175
-0.17498523
-0.03372276
-0.03507366
0.03956700
-0.05613346
-0.16002111
0.08940483
-0.05409211
-0.08521359
-0.03777434
-0.03237499
-0.07359960
-0.24514544
-0.00056464
-0.10296308
-0.19584358
0.02186331
0.00268282
-0.26681727
-0.18045081
0.15229976
0.01189756
-0.17872933
-0.23326507
0.16314504
-0.17270139
0.01530171
-0.23562805
-0.00370958
-0.07499065
-0.04507450
0.02758065
0.04928043
0.17237853
-0.01612516
-0.02454223
0.07411166
-0.24667510
0.01554501
-0.08655056
-0.18169300
-0.01185114
-0.04928848
0.03309022
-0.08954237
0.06613505
0.10908040
-0.17613038
-0.07107750
-0.17100739
-0.10737320
0.00600956
-0.34882128
-0.08896586
0.07836410
0.05332508
-0.12150738
0.05587767
-0.09470531
0.08885100
-0.05505526
-0.01020395
-0.10284105
-0.00286646
0.01160879
-0.07989096
-0.12251811
-0.13941208
-0.03342160
-0.17658013
-0.27931842
0.02911537
0.17099510
-0.10524599
-0.02103520
-0.06824421
-0.01378213
0.16320765
0.02124170
-0.17906836
-0.09274024
-0.02508036
-0.11354743
0.02890624
-0.01657738
-0.04793298
-0.01415766
-0.01525642
-0.08235209
-0.00033568
0.04888713
-0.02985411
0.08677222
-0.06453930
-0.17205486
-0.04109937
0.19147561
-0.06068192
-0.00896221
-0.01409720
0.02347941
-0.12409941
-0.04792694
-0.00262370
-0.05436214
-0.08776768
0.25489926
-0.08367172
0.02258205
-0.28735685
0.04642458
-0.18010397
0.19058780
0.11054114
-0.20813426
0.02057288
-0.02302944
0.00480236
-0.19070712
0.00944481
0.07867035
-0.07361193
-0.16488518
-0.11627864
0.03095777
0.13564174
-0.03546494
-0.08100145
0.11541170
0.03433600
-0.20392221
0.11978160
-0.05215631
-0.11230516
-0.00059411
-0.08991944
-0.31575924
-0.20270909
0.05455035
0.27040106
0.08540144
-0.10693307
-0.08794276
0.11301540
0.05043234
-0.07712108
-0.12510711
0.01056682
0.16532291
0.03942314
-0.03308656
-0.07860887
-0.06370580
-0.11732129
-0.03103675
-0.19598901
-0.07067170
0.03355377
-0.08288518
-0.05654759
-0.10496478
-0.08133134
0.06458288
0.10643551
-0.00218185
-0.22351590
0.02043331
-0.02018540
0.03741644
0.07070516
-0.20131682
-0.12347287
0.17538215
0.10304992
-0.14373183
-0.07729540
-0.11762588
0.41184485
-0.11453962
-0.05656959
0.02433848
-0.02547261
-0.01077329
0.12929550
0.04611285
0.06960634
-0.07631298
0.00912781
0.05920104
-0.03275528
0.09020389
0.05445765
0.00452305
-0.10227475
-0.03103327
0.01776655
0.09950262
0.04987057
0.07226928
0.07453892
0.05900609
0.04881207
-0.21857069
-0.12749757
-0.00960390
-0.16908416
-0.06612904
-0.13216414
0.00514508
-0.01675755
-0.13845800
0.10674198
0.02720765
0.03361077
0.04921659
-0.01828852
0.08092079
0.07685694
-0.19897667
0.06556259
0.03789472
0.17357723
0.12488432
0.08998229
0.19974750
-0.04331793
0.05224151
0.02110824
-0.01765365
0.15574466
0.04293167
-0.16728225
0.08864269
0.03438636
-0.13211203
0.00784646
-0.11017641
0.00265450
0.06753069
-0.08888321
0.01494068
-0.00022507
0.15814215
0.15710659
0.06574639
-0.08047687
-0.03344783
0.07552558
-0.00044261
-0.03547163
-0.09309307
0.09323258
-0.09262871
0.07160332
-0.05044572
0.02232076
-0.14818816
0.08143362
0.12312680
-0.00047833
0.12751694
0.12908114
0.00755864
-0.13852347
-0.12630975
0.07160483
0.01315264
0.14704104
0.12160688
0.06095182
-0.08377138
-0.06762704
0.00868953
0.19584993
-0.04697556
-0.17921922
-0.01497722
0.13702455
0.09706344
-0.10661919
-0.00742496
-0.11491253
0.07245842
0.03919323
0.06002111
-0.01773101
0.02929743
-0.17698167
0.05524409
-0.09033039
0.00713427
0.07091182
-0.07415214
-0.19893394
0.00996673
0.15301448
0.10688428
0.09583023
0.02832210
0.05077560
0.07766961
-0.00216331
-0.02935155
0.02922696
0.00074546
-0.06637897
0.09358419
-0.04847603
0.00245812
-0.05373195
0.04071870
-0.05809136
-0.00773576
-0.06307400
-0.07183295
0.09426619
-0.05275973
-0.01055986
-0.14309464
-0.10097628
0.09230746
0.01534319
0.13797881
0.03364139
0.11140573
0.27058673
0.00352724
-0.00807197
0.05849314
-0.02743982
-0.02909786
-0.01321967
-0.06142967
-0.08633672
-0.08799152
0.02288505
0.03005301
0.04218608
-0.05478414
0.04527519
0.06645507
-0.06320544
-0.19007705
-0.02234416
0.11479691
-0.24101722
-0.01035730
-0.14273916
0.14426032
0.01548575
0.03416498
0.06696872
0.07600317
-0.03080956
-0.22589286
-0.17182451
0.14490768
-0.03410838
0.01907947
