-0.09285290
-0.04348611
0.05697403
-0.09537863
0.11872582
0.06705230
0.04881900
0.13008997
-0.07191116
-0.00819159
-0.02074387
0.04324274
-0.10616029
0.10107827
-0.02772300
0.10339218
0.24445504
0.07822703
-0.00850639
0.03691004
-0.01148805
0.04692405
0.03091801
0.02046624
-0.06309853
0.05156110
0.04242876
0.07435468
-0.08505952
0.04375789
0.07933397
0.00761877
0.12344692
-0.09851524
-0.04167438
0.05117464
-0.10470122
-0.06033876
-0.09059577
-0.10627692
-0.02355973
-0.10177153
0.03510992
0.00932584
0.04069978
0.03904830
0.03367306
0.14675052
-0.04670913
0.01333874
-0.08913779
0.04143029
0.15300925
-0.00356742
0.09670313
0.05274017
0.08691984
-0.06222121
-0.04131425
-0.09604638
-0.02092613
0.06802125
-0.01791449
-0.09094431
0.04765519
0.08232683
-0.08121327
0.08752619
-0.12233591
-0.03226226
-0.05471762
0.07267686
-0.00711643
0.03137998
0.03880779
-0.03876325
-0.05986407
0.12538949
0.04514235
0.06320726
0.05199098
0.01047615
-0.00236230
0.09489486
-0.02733775
-0.12091040
-0.03801880
-0.05883403
-0.07040304
0.06642948
-0.07074431
-0.10982956
0.12790069
-0.12902243
0.02978623
0.04895516
0.20635159
-0.02348052
0.10193888
-0.08127683
-0.00384692
-0.04766793
0.05203011
-0.03824241
-0.02875265
0.14522101
0.03242045
-0.06459317
-0.07827107
-0.04779942
-0.01919971
0.05709437
0.10018659
-0.11384804
-0.02966533
0.06058072
-0.08000465
-0.03237284
-0.05657550
-0.00909212
-0.03032202
0.07105997
0.00464383
0.43099368
0.07492907
-0.17299978
0.00733387
0.00255997
-0.03326121
0.03226799
-0.07199881
0.00289357
-0.05108069
-0.00443311
-0.00423669
-0.01484788
0.13947441
-0.00260774
-0.02736750
0.03528551
-0.05918942
0.02211704
-0.00347449
0.09256531
0.12739491
-0.04873950
0.01060743
-0.13509049
-0.12051277
0.09508731
-0.14823923
-0.02752577
-0.08766428
0.03728695
-0.11330503
0.06567796
0.06555450
0.02860118
-0.06443791
0.02977184
-0.00408496
-0.02758611
0.01814607
-0.01564060
0.07619198
0.09263954
0.13040762
0.08380041
-0.05847978
0.03701090
0.01284917
0.02619961
-0.12174522
-0.12069914
-0.01726519
-0.03750307
0.08300199
0.00973241
0.03031212
-0.03775512
-0.17044482
0.03633452
-0.01972664
0.00195049
0.01056188
-0.04329164
0.06703924
-0.07137690
0.08293055
0.07260781
-0.05573052
-0.01345141
0.13806310
-0.10076832
0.00582420
-0.04554205
-0.07419842
0.00628380
-0.06370568
-0.01307200
-0.04339301
-0.00434309
0.05132653
-0.12329993
0.01171698
0.11629549
-0.04543558
-0.03335607
-0.05803375
-0.00090068
-0.10298325
-0.00299746
0.05483004
0.19548818
-0.04190259
0.06170664
-0.17744246
-0.02430743
0.07695306
-0.08409805
0.09743108
0.05534335
-0.05164625
-0.03071104
0.04357899
0.26678640
0.07927628
-0.05986655
0.00080872
-0.03534644
-0.16293715
-0.00218289
0.11860660
-0.07659218
-0.03786263
0.00670820
0.07334829
0.05663446
0.04904374
-0.05423674
0.13054213
0.04119377
-0.03169942
-0.00169884
0.01030452
-0.02121794
0.06283707
-0.04121869
-0.08945611
0.04141543
-0.06675763
0.07734936
0.00526996
-0.04490346
0.05609522
-0.05650726
0.05987804
-0.06640939
0.01032493
0.07076763
0.02318310
-0.03392192
-0.06210980
-0.00439991
0.01630016
-0.17131558
0.00172685
-0.08865707
0.05244952
0.00074612
-0.02838070
0.08827918
-0.00920928
0.12571692
0.00340811
-0.07876532
0.10496815
0.04667252
-0.00972465
-0.03892808
-0.00091441
0.08454079
-0.02463554
0.02874699
-0.10165981
-0.00082087
0.02570680
0.00493568
-0.04651348
-0.04049240
-0.03699606
-0.01877580
-0.08962169
-0.05870722
0.08516583
0.05476329
0.01706949
0.02177130
0.03175951
-0.09051287
-0.05178110
0.07044896
0.02262703
0.10846873
0.03478288
-0.02694580
-0.05933041
-0.03886046
-0.80910665
-0.07310291
-0.04533305
-0.09958839
0.09398258
0.07736043
-0.01703688
0.10173642
-0.01715741
-0.12260042
-0.01753457
-0.00638435
0.06384116
0.12092660
0.11194442
-0.17656641
-0.03063909
-0.08829318
0.05105967
0.07804298
0.01733357
0.03167550
0.05104008
0.06926515
-0.04661203
0.04650729
-0.07931065
0.00549486
-0.07069886
0.03370757
-0.05743182
-0.07553493
0.14076500
0.03886633
0.08488516
0.05857733
-0.02373283
-0.03067824
0.09892318
-0.09093660
0.07506689
-0.03118305
-0.00649539
-0.09347662
0.14319590
-0.16351238
0.05937847
0.03599625
-0.05737374
0.04378948
0.04265185
0.05786052
0.05961541
-0.12635463
0.10088697
0.10455222
0.16036217
0.10485967
-0.06576965
0.01700510
-0.06250023
-0.03103720
-0.10908520
-0.02971190
0.00165372
-0.07033885
-0.02053122
-0.01849841
0.02777600
-0.04103424
-0.13108404
-0.00493658
0.01897646
-0.73256373
-0.06939075
-0.12571718
0.13084897
0.00215101
-0.06228249
0.05247793
0.01116207
-0.04687299
-0.03007215
-0.00218849
0.05974533
-0.11293051
-0.03453737
-0.02566367
-0.11221398
-0.04369793
0.15701778
0.01697482
-0.04894063
-0.04510050
0.12142053
-0.04569075
-0.06834973
0.08331009
-0.05042612
-0.13164186
0.05501195
0.02784686
-0.01753149
0.14514790
-0.03969091
-0.03315099
-0.04743291
-0.00729593
-0.07611673
-0.08837073
-0.05540696
0.01710221
-0.01205103
-0.11212161
0.04558519
-0.07576354
-0.00987913
0.05645366
-0.00719581
-0.09692039
-0.06259450
0.08067397
-0.11018699
-0.12524125
-0.03665670
0.07661525
0.03269663
0.01790872
0.04243508
-0.05111107
0.03261534
0.03086102
0.04843368
0.00488519
-0.05226415
-0.11572593
-0.02751204
-0.10524926
-0.06973729
0.09568515
-0.01178319
0.03171910
0.05838510
-0.06481723
0.05951752
-0.12603168
0.07467917
0.04570932
0.04967797
-0.01192847
-0.30241784
0.00230163
-0.01246077
-0.14135917
-0.01228156
0.01123642
0.08938246
0.04262570
0.18188252
-0.16321008
-0.02399695
0.01305801
0.00413813
-0.03910282
0.01263184
0.06592284
0.02288826
-0.03250247
-0.05402912
-0.07494047
-0.13138811
-0.12201008
-0.00536228
-0.08523788
-0.14375380
0.04608456
-0.12537166
-0.00890773
0.03110569
0.05316541
-0.01926383
0.05704426
-0.10837275
-0.02601304
-0.02646138
0.08843508
0.01011708
-0.03124236
-0.00222928
-0.02309656
-0.01595104
0.04246306
-0.00068532
0.03061280
0.03924558
-0.07189047
-0.03816088
0.06657770
-0.06987220
0.10764072
-0.14698121
0.01098393
0.00629799
-0.13254113
-0.04714418
0.00090310
0.00613305
0.15422788
-0.02096918
-0.07977060
0.03281382
0.11034157
0.02203837
0.02994809
0.08114545
-0.01970411
-0.04654189
-0.04572305
-0.14548576
-0.06458955
0.05042017
0.06375782
0.00666629
0.05165871
-0.03176249
0.02870988
0.01996039
-0.05116389
0.01726626
0.00933867
0.06004874
-0.13884199
0.03685870
-0.06129494
0.00009359
-0.02976259
-0.00760299
-0.07406194
-0.03180895
0.03847229
0.03772112
0.06279854
-0.03418050
0.02448583
0.00939845
0.06396098
0.00901860
-0.04160241
0.04174919
0.05314030
-0.01174831
-0.04295203
0.02552296
0.04183663
0.11084436
-0.07039752
-0.07168006
0.05540210
0.00209189
0.12314402
0.00496809
0.10618918
-0.00976925
0.01154326
0.06664278
-0.10410935
-0.08163904
-0.03606198
0.07776675
-0.19275492
0.02583559
-0.10691220
0.01100465
0.07275138
0.10870715
0.07707997
-0.13364780
-0.02328281
0.15596716
-0.00159042
-0.13550362
0.01035079
-0.01677622
-0.11890692
0.00328038
0.02031877
-0.01133293
0.11370994
0.00762258
0.03194092
-0.01754181
0.12555844
0.03497315
0.02630911
0.00114351
0.11895628
0.09106787
0.09659540
0.06160021
0.06591183
-0.13151877
0.06933687
0.14729564
0.00615028
0.03902754
-0.01877130
-0.01572598
-0.05965822
-0.08179632
-0.04871114
-0.05941184
-0.11522445
0.15296531
-0.01690336
0.02525200
0.02057896
0.00643079
0.04201324
0.09435562
0.00643124
0.06541406
-0.01910478
0.16616188
0.01095933
0.09809420
0.11628998
-0.00504055
0.10464227
0.08555946
0.05966507
0.10370696
-0.05072927
-0.12081534
0.07403633
-0.06083781
-0.11934475
0.00967307
-0.11387056
-0.01310974
0.20345791
-0.00164752
0.23669843
0.01956667
0.05798407
0.09297495
0.17329870
-0.09894956
-0.03314507
0.10582495
0.03954943
0.00887940
-0.01893709
-0.00623598
-0.08597393
0.10873201
0.01219988
0.01375831
0.01049241
-0.00167235
0.12405200
0.13892591
0.10478191
0.12221900
0.00289441
0.02351074
-0.03008954
0.10604965
-0.00077883
0.06723808
0.00821821
-0.09765282
-0.01497842
-0.02249421
-0.07000699
0.09723593
-0.03916495
0.03111321
0.02636670
0.01907793
0.14384052
-0.03720766
-0.00997413
-0.02057379
-0.05957254
-0.03726453
-0.03852472
0.13174136
0.03912630
-0.16288470
-0.10825317
-0.06494541
-0.01866721
0.15672344
0.04070192
0.01971876
0.04562350
0.12500376
0.04242225
0.09183977
0.01984850
0.03630250
0.01802259
-0.04108858
-0.00683256
0.05433347
0.03875051
-0.00712499
0.00934223
-0.05091027
0.00863295
0.11325592
0.00501500
-0.38404047
0.01400552
-0.02587052
-0.01570500
0.06443138
-0.02580851
-0.03967346
-0.11057568
-0.05202427
0.01541311
0.03623028
0.11768596
-0.01695212
0.00415429
0.20541421
-0.05460460
-0.01107297
0.17165840
-0.07843465
0.07998373
-0.03105751
0.00207729
-0.14179976
-0.05776970
0.00324329
0.05205005
0.05751215
-0.09395265
0.06361952
0.01392948
-0.06814155
0.01087360
-0.03082875
0.08109712
-0.05679110
-0.02733708
-0.05782665
0.07714488
0.06551022
-0.13812013
-0.09494654
0.00622922
0.05009812
-0.07082730
-0.07549191
-0.03806442
-0.03644094
-0.07551810
