-0.00077759
-0.00065845
-0.00010716
0.00119157
-0.00179880
-0.00275003
-0.00078327
0.00258566
-0.02256009
-0.00268703
0.00236907
0.00327983
0.00171285
0.00170946
0.00047216
-0.00432883
0.00129757
0.00380480
0.00005593
-0.00244135
-0.00288246
-0.00349710
-0.00346649
0.00264224
-0.00595242
-0.00383148
0.00587068
-0.00265786
0.00410462
0.00256416
-0.00390922
0.00497678
-0.00230493
0.00194089
0.00600087
0.00239778
0.00007957
0.00049693
-0.00205149
-0.00239185
-0.00187299
0.00354937
-0.00015484
0.00051958
-0.00039161
-0.00553440
0.00247250
-0.00176498
0.00183172
0.00405638
-0.00164435
0.00018399
-0.00259368
-0.00478799
-0.00077160
0.00454581
0.00234599
-0.00389137
0.00309445
-0.00624564
0.00298739
0.00456546
0.00054481
-0.00763049
-0.00618811
0.00219424
-0.00200124
-0.00550099
0.00470576
0.00802768
-0.00065622
0.00515109
0.00666574
-0.00168132
-0.00123245
-0.00411668
0.00582869
0.00652893
-0.00288612
-0.00554316
-0.00419325
0.00349241
-0.00250964
0.00266938
-0.00196680
0.00145229
-0.00052882
0.00347868
-0.00212904
-0.01082617
0.00057124
-0.01277149
0.01219627
0.00091922
-0.00007052
-0.00251790
-0.00254528
0.00141929
0.00354239
-0.01005788
-0.00904710
-0.00214896
-0.00729519
0.00164411
-0.00195573
0.00167393
0.00003201
0.00068638
0.00004676
-0.00461568
0.00149220
-0.00180987
0.00583964
0.00262041
0.00080571
-0.00037575
0.00478418
0.00450113
0.00188844
0.00200941
-0.00305448
0.00112240
-0.00338164
-0.00167995
0.00260870
-0.00231238
0.00973249
0.00407254
0.03315780
-0.00393944
-0.00585502
-0.00837109
-0.00438138
0.00096019
0.00274699
0.00093023
-0.00950635
0.00540864
0.00442770
-0.00570431
0.00707775
0.00396235
-0.00405767
0.00518138
-0.00229610
-0.00166967
0.00356508
-0.00081354
-0.00837224
-0.00000593
0.00884799
-0.00496910
0.00293244
0.00375336
0.00238517
-0.01310265
0.00274604
-0.00367898
0.00054048
0.00033219
-0.00354605
-0.00034295
0.02063689
0.00636223
0.00439369
-0.00771614
0.00252452
0.00652447
0.00010101
0.00929358
0.00454633
-0.00319238
0.00530873
-0.00839226
0.00170437
-0.00167776
0.00163437
0.00252107
-0.00087525
-0.00844648
0.00517717
0.00296330
-0.00864072
-0.00442730
-0.00228557
0.00747976
-0.00520465
0.00108971
0.00638232
0.00462845
-0.00446979
-0.01465322
-0.00240634
-0.00103428
-0.00105600
0.00125053
0.00281785
0.00647330
-0.00300034
0.00186083
0.00320552
0.00335247
0.00387821
-0.00105750
0.00358526
0.00296557
0.00221622
-0.00006164
0.00024377
-0.00151123
0.00080244
0.00504028
-0.00180738
-0.00351562
-0.00043088
-0.00125093
0.00402069
-0.00288853
0.00162371
-0.00143166
0.00247400
0.00031842
0.00154176
0.00238201
-0.01315652
-0.00913292
-0.00333768
-0.00162768
-0.00733803
-0.00416600
-0.00072144
0.00060544
-0.00013077
-0.00312645
-0.00160544
0.00899990
0.00524939
-0.00384467
0.00254737
-0.00083251
-0.00093349
-0.00234504
-0.00642043
-0.00543765
-0.00104609
-0.00086640
0.00099430
-0.00132750
-0.00339794
-0.00410381
-0.00205275
-0.00441032
0.00048979
-0.00270105
0.00486024
-0.00418588
-0.00026710
0.00320838
0.00210692
0.00516777
-0.00020081
-0.00363237
-0.00540443
-0.00252817
0.00643639
0.00033636
-0.00424888
0.00080811
-0.00772294
0.00092580
-0.00241216
-0.00301051
0.00318716
-0.00854116
-0.00263132
0.00119695
-0.00188206
-0.00274488
0.00190232
-0.00916311
0.00604659
0.00266408
0.00232631
-0.00661026
0.01244482
0.00359578
0.00154408
-0.00555390
-0.00377058
0.00292305
-0.00327679
-0.00365685
-0.00253667
0.00363885
0.00257380
-0.00058546
0.01041509
0.00395665
-0.00532565
-0.00104186
0.00775851
-0.00436395
-0.00112558
0.00054466
0.00305076
0.00543497
-0.00307462
0.00326338
-0.00187385
0.00219015
-0.00058450
0.00259715
0.00149216
-0.00242958
-0.00192372
-0.00322951
-0.01192010
0.00888340
0.00254500
-0.00196688
-0.00631459
-0.01353066
-0.01405332
-0.00585472
-0.00511757
-0.00009166
0.00639718
0.01425738
-0.00061178
0.00222093
0.00595952
0.00022670
0.00671818
-0.00541755
-0.00215999
-0.00308313
-0.00375420
0.00165662
-0.00238396
-0.00120032
-0.00116578
-0.00535619
-0.00040132
0.00543474
-0.00355068
-0.00438269
0.00630598
0.00533204
-0.00174262
-0.01359703
0.00091324
0.00379881
-0.00393412
-0.00211560
0.00879566
-0.01191096
0.00559818
-0.00354901
0.01533096
0.00651997
-0.00397162
-0.00742053
0.00741315
-0.00190596
0.00236001
-0.01123859
-0.00294918
-0.01741531
-0.00176742
-0.00117713
-0.00228976
-0.00462721
0.00504901
0.00019128
-0.00431442
-0.00095296
-0.00059903
0.00077616
0.00498456
-0.00046794
0.00542246
0.00871119
-0.00488112
0.00376114
0.00211769
-0.00682129
-0.00278568
0.00313752
-0.00009659
-0.00107629
0.00541501
0.00926918
0.00255433
0.00497459
0.00794711
0.00312339
-0.00386402
-0.00311931
0.00058283
0.00228510
0.00359033
-0.00162205
0.00084133
-0.00071599
-0.00164811
-0.00330131
-0.00076349
-0.00039654
-0.00039092
0.00404660
0.00256114
-0.00801708
-0.00059666
0.00147226
-0.00499822
-0.00414766
0.00179369
-0.00194655
-0.00289656
-0.00170240
-0.00097344
-0.00497002
-0.00288538
0.00287015
0.00183179
-0.00350658
-0.00326116
0.00357084
-0.00155740
0.00415031
-0.00028655
0.00849125
0.00745291
-0.00575111
-0.00197596
-0.00178764
-0.00083327
-0.00170186
-0.00302340
-0.00095611
-0.00074429
-0.00258286
0.00033659
-0.00345284
0.00287812
0.00100318
-0.00014292
-0.00371565
-0.00143359
0.00181330
0.00183126
-0.00480025
0.00191951
0.01157575
-0.00580659
-0.01020882
0.01286885
0.00022083
-0.00097877
0.00172132
0.00201355
0.00640529
0.00065060
0.00198491
0.00616466
-0.00608149
-0.00557698
0.00504502
0.00306201
0.00255695
0.00370491
-0.00546910
0.00043789
0.00353555
-0.00340602
-0.00404372
-0.01807509
0.00424765
-0.00186353
-0.00664626
-0.00272159
-0.00549033
-0.00126565
0.00786358
0.00223158
0.00043001
0.00434739
0.00229060
-0.00126663
-0.00634388
-0.00245084
-0.00813352
-0.00634751
0.00021147
-0.00039104
-0.00279439
0.00355920
-0.00033453
0.00560359
0.00919474
-0.00222394
-0.00182606
0.00124639
-0.00171910
-0.00094325
0.00045330
-0.00519369
0.00198921
-0.00096265
0.00227596
-0.02005854
0.00426033
0.00170392
0.00317017
0.00071813
-0.00285767
-0.00683287
-0.00270134
-0.00935613
0.00623461
-0.00073901
0.00579391
-0.00101589
0.00481718
0.00262241
-0.00288850
-0.00334563
-0.00299935
0.00194307
0.00132191
-0.00254929
-0.00198501
0.00391861
0.00370402
0.00233415
-0.00287768
0.00146315
-0.00325294
-0.00950467
0.00282756
-0.00931912
-0.00008201
0.00274793
0.00020998
-0.00745727
0.01357405
0.00299276
-0.00656183
0.00028257
0.00808622
-0.00821796
-0.00430719
0.00326712
-0.00015619
0.01166451
0.00357964
-0.00270066
0.00865846
0.00929235
0.00924968
-0.00710291
-0.00045210
0.00525990
0.00098429
-0.00795050
-0.00814519
-0.00373339
-0.00840801
0.00926386
0.00283318
-0.00367204
-0.00234434
-0.00206621
-0.01274841
-0.00355333
-0.00202590
0.00048944
-0.00008966
0.00196088
0.00253816
-0.00115640
-0.00335540
-0.00307155
0.00335500
0.00484522
0.00840998
0.00395970
-0.00788273
-0.00736349
0.00502881
0.00406594
0.00409842
-0.00817210
0.00296183
0.00054611
0.00317136
-0.00242418
0.00009218
0.00817430
0.00147427
0.00109442
-0.00029958
-0.00032228
0.00575080
0.00563440
-0.00842560
-0.00073965
-0.00307318
-0.00054653
0.00645178
0.00505960
-0.00116131
0.00373882
-0.00330170
0.00015977
-0.00472755
0.00319011
0.00228806
-0.00434062
0.00021701
-0.00788439
0.00028308
0.00287184
0.00916007
0.00833806
-0.00246584
0.00199821
-0.00171050
0.00881108
-0.00433039
-0.00409697
0.00003030
0.00582068
0.00644210
0.00081012
0.00197094
0.00203486
0.00152145
0.00442184
0.00373874
-0.00184844
0.00337155
-0.00458118
0.01112912
-0.00359536
-0.00718079
0.00083984
-0.00392914
-0.00384593
0.00451264
-0.00525367
0.00349763
-0.00198720
-0.00004581
-0.00603933
0.00396152
-0.01466800
0.00885108
0.00199154
0.00522213
-0.00659571
-0.00511427
-0.00143915
0.00491862
-0.00771131
0.00313380
0.00418759
0.00629775
-0.00451933
-0.00216236
-0.00476336
-0.00457052
0.00768201
-0.00419232
0.00575809
0.00200352
-0.00459320
0.00450073
-0.00304606
0.00031421
0.00146522
0.02976537
-0.00088596
-0.00374712
0.00365373
-0.00618474
-0.00132347
0.00451994
0.00239185
0.00395946
0.00362154
0.00016094
-0.00377941
0.00119436
0.00306510
-0.00659795
-0.00413089
0.00903973
-0.00683060
0.00412255
0.00121684
-0.00026246
0.00222273
-0.00202477
0.00369614
-0.00139179
-0.00260655
-0.00051078
0.00086483
0.00303899
0.00298821
-0.01236719
-0.01078804
-0.00869217
0.00159101
-0.00168919
-0.00134849
-0.00118582
0.00290527
0.00713344
0.01043271
-0.00392271
-0.01679647
-0.00616743
-0.00898199
-0.00075180
0.00523531
-0.00496194
0.00041603
0.00121831
-0.01035076
0.00526745
-0.00037897
-0.00449504
-0.00782325
0.00202657
0.00046211
-0.00776271
0.00496536
0.00402457
0.00393232
0.00601848
-0.00200508
-0.00222590
0.00697422
0.00664394
0.00894892
-0.00193520
-0.00056059
-0.00086169
-0.01008211
-0.00144816
-0.00637384
-0.00230004
0.00036195
-0.00462994
0.00047661
-0.00202088
-0.00279147
-0.01191718
0.00206050
0.00313472
0.00330902
0.01005170
0.00014147
-0.00758462
0.00313295
-0.00151479
