0.04906233
0.11939205
0.21882199
0.08750599
-0.20555642
0.22699891
-0.34389701
0.06433554
-0.41540453
0.11518385
0.28549412
-0.10667695
0.21109942
0.06455992
-0.09065697
-0.06195747
0.11225079
-0.19334072
-0.01106389
-0.24779424
0.07187595
-0.20729125
-0.18149754
-0.01935716
0.05770260
-0.04078159
0.31516317
-0.16647331
0.36664343
0.02913577
-0.09118614
-0.04362015
-0.12124358
0.10980079
0.04719743
0.05665750
0.25824744
0.10838213
-0.22746508
-0.15839227
-0.20819785
-0.28588817
-0.16898531
0.17426674
0.02945692
-0.08712335
-0.12852111
0.00004354
0.13943444
-0.14731303
-0.15030968
0.08101429
-0.24646352
0.13995312
-0.48621374
-0.03752666
0.07878628
-0.54184395
0.18067846
-0.24761611
-0.08121262
0.20493774
-0.12816216
0.17007071
0.33680728
-0.53099644
0.26904497
0.15609609
0.25966069
-0.06753851
-0.10745663
0.06703521
0.00489001
-0.17893746
-0.00911645
-0.11878454
0.02716656
0.09441752
-0.12172442
-0.17335773
0.01288662
-0.14429615
0.05287347
-0.07111505
-0.10319751
-0.07945809
0.12493467
0.12451793
0.28658742
-0.24279201
0.06976098
-0.15595549
0.05443302
0.22107245
-0.06534202
-0.29454473
0.19334416
-0.01995724
-0.03516807
-0.12388407
0.11938087
0.11174390
0.04870815
0.29021123
-0.16673936
0.08868974
-0.05782194
0.18296658
0.11559720
-0.11137085
-0.13600041
-0.12861615
0.00555485
0.03570761
-0.22664547
-0.16920912
-0.03628210
0.14208417
0.16246961
-0.13688299
0.46027964
-0.01460773
0.25979224
0.24071054
-0.32383832
-0.10155298
-0.00574612
-0.12962037
0.17946081
-0.00657098
-0.03312081
0.00968726
0.04006175
-0.00552591
-0.01091056
0.04519535
-0.05785917
-0.00576074
0.03259647
0.02532877
0.02497622
0.00606700
-0.07197782
0.04988658
-0.06548680
-0.02957120
-0.05217478
0.01918327
-0.01323647
-0.02489576
-0.02051084
-0.02438703
-0.05176046
0.08599456
0.00635423
0.05354242
-0.06971249
0.03286448
0.05577192
0.03067425
-0.03732920
-0.01571464
-0.01905045
-0.06862933
0.05964864
-0.03054334
-0.01981256
-0.02602787
-0.05410081
-0.03158331
-0.02341610
0.04795622
-0.06779593
0.01016597
0.06225341
0.01647717
0.04576069
-0.04055682
-0.02561072
0.07613545
-0.00922177
0.06716722
-0.00660912
-0.05095996
0.06784691
-0.01367321
-0.01060987
0.01451895
0.08973693
-0.03283557
0.01315105
-0.05869612
-0.28295302
-0.21946485
0.07515523
-0.19347639
-0.23810175
-0.20558009
0.14901748
-0.20707785
-0.10450626
-0.33230516
0.29799849
0.01652692
-0.03473720
-0.05031646
0.17812462
-0.15605317
0.44337696
-0.34247339
0.06093751
-0.48401386
-0.17294705
0.55913818
-0.19185200
-0.17011788
-0.06714638
0.46225417
0.11519047
-0.10971006
0.02504110
0.09314078
-0.33680582
0.09670974
0.11401911
0.25177619
0.24060550
-0.03270750
0.11274093
-0.13434607
0.11273222
0.19441013
0.28842950
0.03644257
-0.09180178
-0.01904114
0.08380841
-0.29582986
0.43869346
-0.31135446
0.26718616
-0.24089992
0.10272928
-0.00027012
-0.07816319
-0.27119356
-0.00852866
0.01150689
0.23952994
-0.29539114
0.08401228
0.03432296
0.19727547
-0.06216488
-0.02514741
0.08752854
-0.25229579
0.15501107
0.23837091
0.39867535
0.11284067
-0.17660284
-0.34632400
-0.45360675
0.07669728
-0.07487369
-0.00443105
0.18539125
0.42481664
0.02143632
-0.19388644
-0.08434010
-0.20850720
-0.39742213
-0.16367368
-0.10248005
0.16696090
0.14609553
-0.21538278
-0.11072575
0.07059223
-0.17929879
0.00478949
-0.15037850
-0.24950616
-0.23026678
0.19821152
-0.19055629
-0.05625755
-0.02387725
-0.40346110
0.13516423
-0.00466979
-0.27175876
-0.13838015
0.06396223
0.27312866
0.19634831
-0.12842579
-0.01485478
0.38783124
0.15039501
0.09910924
0.66730624
0.15951979
0.12737052
0.16009949
0.14530905
-0.07505817
-0.39428642
0.01649671
-0.03530191
0.14520958
0.13104919
-0.10943118
0.04575909
-0.14694002
0.06874580
0.02968707
-0.05067918
0.34343085
0.01489532
-0.12048320
-0.36348203
0.01353246
-0.11344396
0.55427086
0.63910443
-0.09011707
0.05763547
0.01963035
-0.19528969
0.58214146
0.15123986
-0.21991660
0.08308716
0.35092697
-0.21022667
0.12009864
-0.15100886
0.08028682
-0.25273478
-0.04976222
0.41760001
0.13813564
0.08999733
0.75617146
0.28760907
0.00612970
0.16034524
-0.43611670
0.04241614
-0.29104599
-0.18048230
0.76157385
0.06319614
0.20128733
0.25899765
-0.18162619
-0.13631532
0.17853573
0.10024468
0.00355011
0.37565711
-0.07376096
-0.05506722
0.79523057
-0.37312800
0.45684004
0.38839620
-0.46337673
-0.31242597
-0.09705134
0.11221868
0.17300197
-0.17256802
0.26583773
0.50148666
-0.21306634
-0.14023174
0.12891543
0.26135561
0.12952210
0.01795205
0.01937159
0.20230424
-0.00416294
-0.05152755
-0.03798670
0.17642872
0.14054194
0.26399884
-0.24564102
-0.20741338
0.07460394
0.08052510
-0.08819470
0.09677152
-0.00577217
0.09556624
-0.05832881
0.01721854
-0.05005976
0.00351362
-0.00805239
-0.14082333
0.17075749
0.01500321
0.07882904
0.14256391
-0.07945376
-0.04355747
-0.12976080
0.09045810
-0.11408067
0.06683699
-0.02964766
-0.05031611
-0.06957199
0.12627642
-0.00763781
-0.11928894
-0.07004794
0.03822615
0.05318323
-0.23984471
-0.07429080
0.50797403
-0.07177638
-0.12525232
-0.07293082
0.20645146
-0.03288056
-0.00139039
-0.01025411
-0.21478525
0.20961441
0.04193949
-0.00745159
0.31733263
-0.17625158
-0.02677262
-0.01692381
-0.25816858
-0.05625790
0.22851551
0.05590770
0.05039281
0.44288686
-0.06628077
0.01680367
0.16777919
0.19571257
0.08415199
0.55457455
-0.14446807
-0.39599663
-0.01498525
0.33787635
0.11857612
-0.36070660
-0.45977893
-0.10926999
0.19351718
-0.08419916
0.17371091
-0.19904391
0.03449436
0.09819750
-0.31401190
0.26959595
0.13066004
-0.07501946
-0.55217308
-0.19760163
-0.18614222
0.24337463
-0.31989798
0.03194199
-0.26348084
0.06203609
0.14542913
0.26742437
0.26300916
0.16894819
0.30371964
0.03544522
0.10097130
0.30668667
-0.10166249
0.34992534
0.78450316
0.52064592
0.00256794
-0.00625314
-0.41144606
-0.48635504
-0.44632414
0.33572078
-0.11431139
-0.39743847
0.38352549
-0.23465672
-0.06800141
-0.10136934
-0.15472974
-0.31730214
0.14865462
-0.04180372
-0.53971541
-0.01273927
0.44926989
0.21223229
0.08669570
-0.42987403
-0.83004260
-0.22520679
-0.20796713
0.23834747
-0.15987547
-0.36624679
0.08417223
0.00783638
-0.05500483
0.11985420
0.53456169
0.13976437
-0.10959312
-0.07844435
-0.20689571
-0.17081860
0.08994910
-0.05339872
0.00996511
0.50459796
0.09159458
0.26944128
-0.29771495
-0.41168490
0.17395015
-0.04722441
0.27120650
-0.45800182
0.11429393
0.07644038
-0.19516788
0.09116803
-0.02611583
0.31109464
0.12954146
-0.49261665
0.10866074
-0.31472006
-0.02027311
-0.08326015
0.49685600
0.25157374
0.15853827
0.18486294
0.36606151
-0.09060749
-0.50297678
-0.50756085
0.24084269
-0.18809786
-0.19766617
0.23753607
0.23772705
0.36104670
-0.14216030
-0.25391036
-0.14162055
0.52042633
-0.27524918
0.05809725
0.17605460
-0.02607683
0.06230246
-0.01767292
0.07308759
0.19124563
-0.14316750
0.06099417
0.22356488
-0.07741629
-0.04223952
0.17728965
0.07702626
0.16640745
-0.06774447
-0.23210791
0.17172047
-0.02119791
-0.03360974
0.00745252
-0.09558660
-0.23378943
-0.15274949
-0.04455303
0.26084331
0.11364305
0.17996813
-0.03787800
-0.16885954
0.24813639
0.05391378
-0.05576845
-0.09063011
-0.11545223
-0.11839884
-0.17043981
-0.04199107
0.12769680
0.08773092
0.12047331
-0.19955181
-0.03625243
0.04096190
-0.15349147
0.33636975
0.11481173
0.02921275
-0.14097162
-0.15438181
0.09151895
0.03658103
0.04152531
-0.08401197
0.10348183
0.08194987
-0.12341323
-0.07851542
0.03058986
0.22483400
-0.23018435
0.11978593
0.06686309
-0.10890552
0.21559714
0.07382884
0.15420525
0.34340200
-0.27985650
0.57013679
-0.11331299
0.24719463
-0.06764724
-0.27632600
-0.12061384
0.11302235
-0.16676527
-0.04606340
0.02450237
0.32590076
-0.22391301
-0.08286451
-0.58246201
-0.03841481
0.29484645
-0.23617133
-0.53435230
0.10059927
-0.18662131
0.24644083
-0.10683355
-0.08070716
-0.07281245
0.03739794
-0.25680587
0.00558108
-0.23327728
0.09654442
0.10555656
0.21068735
0.32282129
-0.13705769
-0.15240823
0.30617210
0.04322476
0.08300596
0.00568140
0.36458480
0.17615131
0.10577398
0.15091984
-0.30127978
-0.18478701
-0.12822239
0.13300438
-0.01010556
0.06823324
-0.00318603
-0.17119217
0.20887883
0.42451069
-0.20113973
0.09180545
0.18860032
-0.23069485
0.32082355
-0.01722467
-0.01369725
0.02705533
-0.19106883
0.04818080
0.10334454
0.42523813
0.23472002
0.44244426
-0.03531835
0.11298645
-0.01032046
0.23443724
-0.10618915
-0.12646849
0.30382523
0.65471953
0.18509254
-0.01219687
-0.10147935
-0.28107837
0.49742964
-0.09302919
-0.15314853
-0.04901277
0.08391591
-0.41278747
0.19688447
0.05868200
0.07133859
0.01076246
-0.04780420
0.36597550
0.08248030
0.40601283
0.45707652
0.32535619
0.46937421
0.24826655
0.00802105
-0.14080434
-0.81799293
-0.24486662
-0.07787613
0.15645917
-0.20331378
-0.58909929
0.15282404
0.06190562
0.12051851
-0.10967571
-0.15065561
0.43427208
-0.14768632
0.01148695
0.45276201
0.00772089
0.16591300
0.05958780
0.05331448
-0.08208123
0.28597519
0.10113040
-0.15479206
-0.19627962
0.25864348
0.18332408
0.15124631
