0.01438414
-0.00607401
0.00079547
0.00235295
-0.00553731
0.00903278
-0.01117129
-0.00413610
0.00147075
-0.00626542
-0.00095555
0.00383691
-0.00681791
0.00378237
0.01610927
-0.00390541
0.00739755
0.00942424
0.00898910
-0.00804949
0.01044465
-0.00541024
-0.01406059
-0.00647084
0.00497587
0.00514191
0.01250293
0.00213496
0.00490552
-0.00551648
0.01066291
0.00262554
0.01177776
0.00161521
-0.00887547
-0.00299020
-0.00396708
0.01576455
-0.00210399
0.00975605
0.01518530
0.00203808
-0.00684992
0.01432218
0.01668233
-0.00962332
-0.00628051
0.00307441
0.00610953
-0.00631659
0.01466687
0.00829875
-0.00681645
-0.00656121
0.01110748
0.01213619
-0.00200542
0.01441387
0.00291264
0.00981767
0.00208435
-0.00174673
0.00213181
-0.00128926
0.02012573
0.01129103
0.02329197
-0.00279033
-0.02858247
0.06566073
0.02083869
-0.00129520
0.04662336
0.03886086
-0.01578227
-0.01559868
-0.01132651
0.00886509
-0.00235034
0.00192611
-0.02613585
0.00542189
0.00012251
0.02032788
-0.01866079
0.04390541
-0.03435970
0.02062276
0.02441685
-0.04465355
-0.00098783
-0.02209197
-0.01979699
0.04322788
-0.06996926
-0.02201189
0.01347048
0.02380551
0.02366880
0.00764228
0.04433665
0.01355429
-0.05391156
-0.04087395
-0.03380596
-0.03212224
-0.02561523
0.01288435
0.00679977
0.03356202
-0.01864368
-0.01180865
-0.03209822
-0.00310721
-0.00668006
0.00336228
-0.02071268
0.00216971
0.02169987
0.03048997
0.00756767
0.01575651
0.00981821
-0.04218194
-0.02584566
0.02388279
0.01011030
0.07677230
0.00758413
-0.01670431
-0.00072949
-0.01773342
-0.01373098
-0.00446265
0.03086687
-0.01177678
0.02203585
-0.00159080
-0.00904240
-0.00629827
0.01026018
-0.01277394
-0.01047749
0.00851997
0.00695574
0.00159773
0.02274744
0.01690499
-0.01170707
0.00816324
0.02259313
0.00440970
-0.00491957
0.01802537
0.00590485
-0.01102924
0.03990626
0.00660794
-0.00702627
-0.00907551
-0.01710751
-0.01593178
0.01159675
-0.01773805
-0.00178004
0.02129085
0.01055557
-0.01545614
0.01065123
0.00854368
-0.01545556
0.01488960
-0.00412937
0.03399999
-0.01221836
-0.01206908
0.02336584
-0.00340986
-0.00816261
0.00467181
0.01800220
-0.09732413
-0.04514720
-0.02074454
-0.01421277
-0.02534451
-0.00284298
0.01120422
-0.00578492
0.01178912
-0.00095417
0.02060289
-0.02127830
-0.02051164
-0.00377563
-0.02744386
-0.00706417
-0.01309323
-0.00739167
-0.01428975
0.01140326
-0.00674073
0.01937446
-0.00551325
0.01259282
-0.00753284
-0.01213586
0.01531721
0.03018928
0.00375981
-0.00672442
-0.00011874
-0.00090567
0.01861900
0.04013404
0.03047907
0.02446255
0.02163643
-0.00412684
0.01599718
0.02183578
-0.00465332
0.01088538
0.05206860
0.00643652
0.00076947
-0.02031085
0.01180272
-0.01053957
0.00420500
0.02801483
-0.02820451
-0.00098488
0.03198144
0.01515590
0.01148253
-0.00974818
-0.03919448
-0.03364235
-0.00720003
0.00571240
0.00713194
-0.02564091
0.01100781
-0.01408308
-0.00731619
0.01167751
0.00781682
-0.00492569
0.02934917
0.01178624
0.00991480
-0.00218333
0.01799370
0.01193679
0.03765964
0.01985481
-0.00252529
-0.01050636
-0.02282332
0.00802442
0.00900482
0.01233394
0.01986129
-0.00745903
0.00035444
0.00283086
-0.01103605
0.01520668
-0.04214681
0.02497814
-0.00121816
0.00495089
-0.01760958
0.01329636
0.00302603
-0.02233850
-0.01400102
0.01333206
-0.01219820
0.01611353
0.00169832
0.01421725
0.00407235
-0.00787772
-0.01354023
-0.01642134
-0.03704867
-0.01074932
-0.00024841
0.00306881
0.02409419
-0.00165320
-0.02069260
0.00053484
0.00150636
0.02297376
0.00165887
0.02814331
0.00649672
-0.02527067
0.01203068
-0.00331540
-0.03336306
0.02045213
-0.01939556
0.02109962
-0.02119542
0.00427584
-0.02137150
-0.02227622
0.01713418
0.01223572
0.02466349
-0.00314109
0.03259920
0.01700216
-0.01597525
-0.01934105
0.00525180
-0.05824166
-0.00584586
0.00248719
0.04865211
0.01823843
0.02657841
-0.01644282
0.00894899
0.04924722
0.01748477
-0.04200739
0.01794709
0.05705983
0.01221569
-0.01494865
-0.01166975
0.02394333
0.00808827
0.05317487
0.03779584
-0.03477678
-0.02667500
-0.04526873
0.03709033
-0.03207922
0.01560346
-0.03938587
-0.00412958
-0.01735086
-0.02488238
-0.01157939
-0.00451332
0.03743970
-0.05891827
-0.00747538
0.04756512
-0.01975605
-0.00955505
-0.02583570
0.00747447
0.00536819
-0.00030673
-0.00461940
-0.02371235
0.03589875
-0.01545837
0.00895306
0.01799706
0.02527524
-0.01425698
-0.01853377
-0.03741924
0.00536126
-0.01240375
-0.01193423
0.03444536
0.04414395
0.00123941
0.00013561
0.01207684
0.01340115
-0.01663132
0.04829897
-0.03477177
-0.00115775
0.00821586
-0.00395131
0.00115466
-0.00853467
-0.01126937
0.01208093
0.01115193
-0.00690462
0.00848870
0.01301411
-0.00035782
0.01081603
-0.01432044
0.00625993
0.00335542
0.00634458
-0.02344684
-0.00185273
0.00190720
0.00216608
-0.00998018
-0.00534811
0.02387147
-0.00868164
0.00659062
0.04398565
0.01370851
0.00555308
0.00171353
-0.00578175
-0.01165385
-0.00803856
0.00096948
-0.00307641
-0.00688767
-0.01588892
0.01047160
0.01242265
-0.00988986
-0.00280646
0.00103527
0.00558423
0.00778291
-0.01456432
0.01516869
-0.01524823
-0.00416552
-0.00030224
0.00805324
-0.00602298
-0.01697800
0.01774084
0.00514630
0.01896405
0.00970889
0.00851543
0.00434611
-0.01842836
0.01028840
0.00102370
0.01406441
0.00521030
0.01329517
0.01555290
-0.01736065
0.01291335
0.01118657
-0.00283479
-0.02909618
0.03962374
0.00190727
-0.00658919
0.00050494
0.00337887
0.02568445
-0.03497077
0.01886946
0.03127983
0.00425980
-0.03041996
0.00382694
0.02456712
0.00897889
-0.00730516
0.00206339
0.00084599
-0.01186369
0.00324379
0.01117414
-0.00611833
-0.02127888
0.01717009
0.02025133
0.02347121
-0.00180332
-0.00199880
0.01724001
0.00611931
-0.00538540
-0.00624757
-0.01140534
0.00008953
0.00884597
-0.00432976
-0.00471097
0.00352354
-0.01216422
0.00463492
0.00995059
-0.03112526
-0.00963316
-0.02250602
0.00700762
-0.03441516
-0.01091409
0.00987150
-0.00552164
-0.00033701
0.00015582
0.02990837
-0.02770953
0.01101861
0.01625741
0.01935581
0.01510062
0.01447045
0.02607378
-0.00186038
0.05168219
-0.04107403
0.02761340
-0.01821958
0.01416011
-0.02794952
-0.02181373
-0.03680737
-0.01315017
0.01201427
-0.00437726
0.02146851
-0.00680294
-0.05624001
-0.01627353
0.00193041
-0.01379553
0.00450680
-0.00035812
-0.00726515
-0.03126862
0.04477225
0.02013555
-0.00984712
-0.02323269
-0.03420446
0.00216660
-0.00792142
-0.02106819
-0.03196195
0.04011199
0.02313806
0.03967914
-0.01377894
0.00608647
-0.00979588
0.01466724
-0.03270301
-0.00969415
-0.03582285
-0.01751522
0.02028916
0.04027472
-0.01264085
-0.00425119
0.07051790
-0.05512875
0.01676446
-0.02588930
-0.00167375
-0.01092791
0.01614879
0.05676638
-0.02362008
-0.00084076
-0.03113317
-0.00357051
-0.00899087
-0.02092773
-0.06964789
-0.12419184
0.02271971
-0.00094173
-0.02174453
-0.01284771
-0.03545799
-0.00340848
0.01285540
-0.01121247
-0.04547765
-0.02089117
0.01081433
0.01920692
0.00650618
-0.00387580
-0.02910332
-0.02038548
0.00419501
0.00523264
0.00702799
-0.01320083
0.00172942
-0.00089915
-0.01860416
0.00162414
0.00989875
0.00817030
-0.00068139
0.00868683
-0.01478948
0.01756695
0.01712191
-0.00392762
0.00165126
0.01145359
0.00777267
-0.04223597
0.00083566
0.01865541
-0.00371607
0.00740307
-0.02220643
0.00076327
-0.00981631
0.01778211
0.01263482
-0.00760735
0.00639637
0.01615276
-0.00311007
0.01713782
-0.01365501
-0.01807583
-0.00115247
0.00279206
-0.01019724
-0.01193250
-0.00067897
-0.00025148
0.00803101
0.09131306
0.01733579
-0.00504492
-0.00808224
-0.01491723
0.00718762
0.01258914
-0.02239216
0.00098000
-0.00934765
0.01137072
0.01151651
-0.01283379
0.01280556
-0.00648790
0.00278603
-0.00541377
-0.00669230
-0.00264025
0.00612593
-0.01360071
0.00352648
0.00497437
0.00480833
-0.00487030
0.01348399
-0.00085562
0.00592624
0.03176056
0.02803499
-0.01895238
-0.01037437
-0.00212852
-0.01535904
0.01778752
-0.00185192
0.01573736
0.00479781
-0.00200532
-0.00285813
0.01965098
-0.00752514
-0.00831218
0.00734764
-0.01171424
-0.00922183
0.00536569
-0.00007621
0.01003827
-0.02059671
0.00126644
0.01483836
-0.01135084
0.01933530
-0.02150873
0.00801645
0.01759704
0.00144158
-0.00326274
0.01158160
-0.00490053
-0.00543832
0.02499446
-0.00150356
0.00564035
0.00824455
0.00249248
-0.00827092
-0.01720344
-0.00740397
-0.01560705
0.03684166
0.00015981
0.00255587
-0.00127743
0.01904677
-0.02028446
0.01632168
0.01398885
-0.00710063
-0.02292203
0.01190936
0.00815230
-0.02263190
0.00351135
0.03233469
-0.01329322
-0.04493129
-0.00522637
-0.00120084
0.01639670
0.00529506
-0.02397584
0.00570668
0.00419599
0.02911129
0.00061587
-0.01284223
-0.04388255
0.01057990
0.00177944
-0.01097246
0.03654616
-0.00124408
-0.01262040
-0.00242220
-0.01917996
-0.01505311
0.00427848
0.00305344
0.02007385
0.00195630
-0.00469304
-0.00388425
-0.01192085
-0.02154965
-0.00696899
0.00204576
0.00324355
0.00700842
-0.01224148
0.01939814
0.01318068
0.01705961
-0.00355597
0.00284628
-0.02086759
0.00252428
0.00133789
-0.01530305
-0.00872290
-0.00589472
0.00429663
-0.01456316
0.01713280
