-0.01126830
-0.03164252
-0.08621533
0.03741708
-0.13907775
-0.02184134
-0.09995619
-0.08633708
0.00234480
-0.01343658
-0.00528320
-0.03084102
0.00487124
-0.10069527
-0.03679392
-0.09416131
-0.08879095
-0.06726253
-0.01299113
-0.09701332
-0.14355290
0.01937308
-0.10491696
-0.16365156
-0.03986801
-0.14803427
-0.08288042
0.00988626
0.06373056
-0.07745481
-0.05388908
-0.03022700
-0.11628001
0.07270385
-0.09477754
-0.00351935
0.03460667
-0.04817494
-0.12391659
0.15344466
-0.01739571
0.05699548
-0.04301073
-0.03355826
-0.03482281
-0.00599496
-0.01575163
-0.00598548
-0.02461646
0.02630871
0.05452694
0.00647480
-0.16312680
0.03959640
-0.09174161
-0.06974857
-0.07673340
0.05113265
0.01613920
-0.00800086
0.00925528
-0.09844330
-0.01204744
-0.03045979
-0.02928479
-0.11689107
-0.01635107
-0.03796989
-0.02527401
0.03523234
0.04649052
-0.09060583
0.00139988
-0.01697499
-0.08464468
-0.05076549
-0.00625031
-0.02643541
-0.08341511
-0.08031007
-0.02984732
-0.06357918
-0.02206484
-0.07678758
-0.03676240
0.01469778
0.00110579
-0.04254615
-0.01886770
-0.07323085
-0.01898856
0.04459075
-0.24596258
-0.05950042
-0.12411974
0.02900119
-0.11611716
0.05717822
0.01017682
-0.00228784
-0.00514038
-0.03778292
-0.00098538
-0.00554227
-0.04098124
-0.00579897
0.01782068
-0.01222745
0.06035161
-0.06058059
0.03579048
0.00096066
0.03498889
0.04187231
-0.01525916
-0.03603937
-0.06843197
-0.02952697
0.03948054
-0.11343899
0.02826941
0.02561249
-0.01500302
-0.07889025
-0.10422802
0.02307294
0.02638333
-0.13923807
-0.01889837
-0.01181024
-0.05115869
-0.11968821
0.01695335
0.03581806
-0.03874620
0.00595709
-0.08242312
-0.05532239
0.08308434
-0.00839890
0.01310453
-0.05438366
-0.05258394
-0.07690475
-0.07947083
0.14986557
-0.00386558
-0.04177226
0.04301939
-0.13500358
-0.04654387
-0.09282552
0.03587838
-0.05890977
-0.07072425
-0.05235916
-0.07443504
-0.07958834
-0.06281115
0.06282652
-0.06973500
0.01899078
-0.04462839
-0.09397434
-0.02880871
-0.10090814
-0.07135499
-0.07292744
0.12283493
-0.00864986
-0.00850665
-0.04183106
-0.01219513
-0.10572941
-0.02498052
-0.11861479
-0.08536687
-0.10294474
-0.10661431
-0.02857239
-0.03215725
-0.08266500
0.02476577
-0.10315197
-0.03600911
0.01380179
-0.15452112
-0.09686702
-0.12722221
-0.06711696
-0.00671633
0.08733911
-0.18174148
0.00513629
-0.07514784
-0.08461194
-0.00551809
-0.09464972
-0.03615729
0.00108932
0.01942274
-0.06250361
-0.08336646
-0.06297459
0.04356068
-0.11749395
-0.06660553
-0.00465122
-0.04903761
-0.07112215
0.02405301
0.00678136
-0.13068390
-0.07416027
-0.07944670
-0.02635326
0.03859041
-0.03186325
-0.05119364
-0.03197151
-0.06967173
-0.13854901
0.01500844
-0.03866361
0.02448673
-0.14430709
-0.08727338
-0.00149029
-0.06349789
0.03294893
-0.03364735
-0.00404078
-0.04414964
-0.05491738
-0.01233823
-0.04164812
-0.04240564
0.02206292
-0.07676933
0.06436537
-0.05256222
-0.05521418
-0.00436656
-0.06692056
-0.03013874
-0.04008198
0.02725272
-0.07395829
0.06886563
0.08284473
-0.03905539
-0.20684658
-0.01286225
-0.02384150
-0.04600530
0.00535710
0.09358960
-0.01599337
-0.05075866
-0.04684006
-0.03454665
-0.01556063
-0.01729557
-0.05454782
-0.02257782
0.03588558
-0.03821735
-0.01842957
-0.06579125
0.00268162
-0.03949508
-0.03747341
0.00922413
-0.06216708
0.01351801
-0.02839904
0.01539578
0.05026182
0.01112194
0.02413530
-0.09470535
-0.03640183
-0.02420358
0.03659360
0.01789431
-0.10570836
-0.09769608
-0.11477000
-0.07553521
-0.01994729
-0.09338272
-0.00483255
0.03991251
-0.01532844
-0.13737632
-0.06385771
-0.06530496
-0.18673711
-0.05570858
-0.02431069
-0.10927508
-0.07796082
0.01742998
-0.11339163
-0.21694529
0.02679818
0.00696334
0.00875053
0.78583497
-0.04190119
0.02730098
0.05354267
-0.05729989
-0.02191931
-0.00305390
-0.07060140
-0.08312327
-0.07776434
0.03540733
-0.04352853
0.05365245
-0.09659170
-0.14808217
0.07068339
-0.03046184
-0.06890104
0.01553550
0.02382118
-0.02552820
0.04208248
-0.02232189
-0.08317334
-0.05062276
-0.11976060
0.01707929
-0.04835515
0.01680274
-0.00599335
-0.01714304
0.01821049
-0.03874662
-0.10079625
-0.06393408
-0.04423484
-0.05232392
-0.04075845
-0.05657706
0.02488650
0.01094840
0.05889793
0.06343538
-0.04119198
-0.09407398
-0.04041782
-0.01767875
0.02883379
-0.07616300
-0.06678382
-0.01804284
-0.01490880
-0.08705550
-0.04996509
-0.05521010
-0.05164165
-0.05951219
-0.02181901
0.00948009
-0.09804887
0.02795511
-0.04067528
-0.02376985
-0.01368210
-0.06461836
0.02398507
-0.01651862
-0.05277087
-0.05760929
0.01933379
0.01194651
-0.07320572
-0.04659146
-0.33662221
-0.03239353
0.03701954
-0.06270969
0.00809201
0.08491007
-0.08400761
-0.01180862
0.00456293
-0.07679300
-0.09736425
-0.12745686
-0.03000485
-0.08369096
-0.04407702
0.06925382
0.04941473
-0.07853708
0.01768501
-0.01893761
0.01905256
-0.06070405
-0.05292013
-0.00464660
0.02431394
-0.05599864
-0.05804174
-0.13328835
0.04827901
-0.00173692
-0.06455427
-0.07963806
-0.02076001
0.03017939
-0.06100607
-0.02176165
-0.01928564
-0.04617926
-0.01718695
0.00870440
0.03856198
-0.04700225
0.00318643
0.06355149
-0.07458729
-0.05678457
0.05704230
0.06113834
-0.09440301
-0.05129387
0.04413176
0.06248318
-0.09724555
0.04177642
-0.08162587
0.08057687
-0.05795435
0.00537301
0.01299115
-0.04950456
-0.07418434
-0.10033953
-0.01609304
-0.01180837
-0.04627278
0.10481209
-0.05110085
-0.01321945
0.03644498
-0.06470063
-0.02378306
-0.09736536
0.00911240
-0.10872866
-0.08099969
0.02584713
-0.00881930
0.05852076
0.00259902
-0.04379846
0.07296894
-0.00301843
-0.09474589
-0.10338601
0.02228720
-0.05319081
-0.01013970
-0.07214451
-0.02899171
-0.05038169
0.01900059
-0.02923105
-0.04327427
-0.00615750
-0.00755305
0.03253606
-0.03483600
0.04780529
0.07920574
-0.06687945
-0.10181761
-0.01072505
-0.04469243
0.01724290
-0.03357863
-0.09868477
-0.07754845
0.04995636
0.00383248
-0.02173865
0.00560996
-0.07846457
-0.03112236
-0.00597953
-0.02139239
-0.02771012
0.00012097
-0.02313433
-0.06267872
-0.02557832
-0.06108224
-0.03499961
0.02869656
-0.03253330
-0.08902403
0.01590001
-0.05141297
-0.04033468
-0.07324962
0.03067138
-0.01671319
-0.04793712
-0.00727432
-0.01062708
-0.14384875
0.02872669
-0.04161878
0.12552255
-0.07270247
0.05335645
-0.14014094
-0.09137022
0.06130750
-0.02745794
-0.01778604
-0.05407894
0.04926553
-0.06382664
-0.05783411
0.03863332
0.01684934
-0.01017512
-0.04150588
-0.11453239
-0.02244248
0.00534935
-0.08778853
-0.06073258
0.12272677
-0.08859873
-0.00684347
0.02424241
-0.04519717
0.02948711
0.16070166
0.07358226
-0.07302318
-0.16933887
-0.07519122
0.01525329
0.01734080
-0.09213027
-0.08117536
-0.03238076
0.01202560
-0.03314913
-0.11177704
-0.08558901
-0.02717795
0.00314761
-0.01343208
-0.00623983
-0.07517239
0.04044285
-0.02495669
-0.05336306
0.00868035
0.00163641
0.00932282
0.00054991
-0.08446639
-0.08929779
-0.03577917
0.04710017
-0.04724734
0.00920673
-0.05007881
-0.09690943
0.00805660
0.02723770
-0.11237280
-0.10158987
0.01644776
0.01568593
0.00916104
-0.23896135
-0.00104024
-0.02819695
-0.06308636
-0.02749684
-0.03121493
-0.09438833
-0.07048360
-0.07325133
-0.01778366
-0.04558393
-0.06952915
-0.05397170
-0.09918727
-0.07654069
-0.04551653
-0.01600394
-0.05108154
-0.05510246
-0.06760733
-0.07593365
-0.09441508
-0.08738781
-0.08379708
-0.05593098
0.04720192
0.03028663
-0.03295121
0.03450852
-0.00764812
0.03534331
-0.03231617
-0.06388901
0.02505750
-0.07665765
-0.04895518
-0.08541218
-0.04198224
-0.02789072
-0.06115206
-0.08209711
0.04057619
-0.07001194
-0.03997730
-0.12747091
-0.08559378
-0.07583500
-0.15173724
-0.03734925
-0.07185789
-0.05486815
-0.06180834
-0.10664599
-0.10606776
0.04880360
-0.07289772
-0.05757974
0.00854113
-0.05939407
0.02815698
-0.06748423
-0.07083752
0.01626937
-0.04184145
-0.04853198
-0.11524526
-0.08166350
-0.07025713
-0.00266621
-0.02427048
-0.08688131
-0.03522750
-0.01221010
-0.00980660
-0.10945395
-0.00604878
-0.10832772
0.00362834
-0.05045456
0.01333686
-0.10437683
-0.08848378
-0.05709626
-0.07928564
-0.07330871
-0.05602472
0.00987134
0.01790765
-0.08341014
-0.03952337
-0.14400215
-0.10967079
-0.12238130
-0.00651147
-0.05784607
-0.05273886
-0.15364990
-0.02051535
0.06328426
-0.01086628
-0.10683721
-0.06194668
0.01863865
-0.04848779
0.00846624
-0.05702424
-0.04641116
-0.06052072
-0.06948917
-0.04640147
0.03863060
-0.04274954
-0.03701478
-0.02104530
-0.07873845
0.01344593
0.04647930
-0.04411769
-0.10463751
-0.05559436
-0.09250246
-0.05954172
-0.07869534
-0.09150061
-0.04514923
-0.02568305
-0.03769381
-0.07496444
-0.02200325
-0.09319808
-0.00668663
-0.05895129
-0.01963921
-0.05985842
0.00590012
-0.01669048
-0.03066812
-0.03245610
-0.06185219
-0.02245125
-0.00309506
0.04273705
0.01718059
-0.07485206
-0.02693414
-0.12688008
-0.08163187
-0.12091532
-0.17427234
-0.02852067
-0.04093642
-0.05006266
-0.00594472
-0.02400915
-0.03455350
-0.01172151
-0.01086344
-0.01066344
-0.05121240
-0.04980446
-0.03861844
0.00950995
-0.07177968
-0.07183220
-0.03518495
0.07304053
-0.02038903
-0.08531269
0.05842668
-0.00572706
0.05475401
-0.11420072
-0.03617806
-0.04752784
-0.07923251
-0.08146873
-0.03775419
0.08962174
0.01821162
-0.05338468
-0.02612469
-0.04686579
