-0.03186739
0.05652015
0.03729493
0.01918791
0.09062528
0.03316068
0.06549129
0.13851342
-0.01576350
0.00810838
0.06212618
0.06629626
-0.06804370
0.02713723
-0.01278169
0.03033182
0.12171338
0.04816923
-0.04492821
0.01035261
-0.02184537
-0.01137827
0.04054661
-0.00427317
0.02933591
0.10228310
-0.07565032
0.03587490
-0.13769668
0.09902413
0.04052690
-0.05644773
0.04208616
-0.05799378
0.00522050
0.03874681
-0.05223836
-0.01487939
-0.07039110
-0.07275593
-0.02742452
-0.04014686
-0.02504330
0.03261929
-0.02898183
0.00892157
0.03561845
0.14010999
-0.02492166
-0.06003443
0.01967524
-0.04027946
0.07426710
-0.13068767
0.02101462
0.14010821
0.06987157
-0.17014715
-0.00997894
-0.06639829
0.04613108
0.13375917
-0.11531344
0.06714417
0.01999222
0.04360319
-0.01994335
-0.01495971
-0.06178038
-0.02314823
-0.04831617
0.01183763
0.00647719
-0.00285780
0.02368192
-0.00211571
0.03450564
-0.05863562
-0.02607629
0.03880271
0.08237581
0.01377274
0.03925312
0.06767122
0.05204482
-0.10522931
0.07345431
0.02663189
-0.09042662
0.08292972
-0.09912748
-0.10061137
0.15384066
-0.10760411
0.07897476
-0.11444808
0.20423763
0.00808002
0.00790084
-0.03493060
0.01002786
-0.05719110
0.10736411
-0.06852366
0.04643577
0.05090236
0.06377036
-0.05900875
-0.09838556
-0.08366380
-0.09574924
0.02683703
-0.11203356
0.02115148
-0.02424446
0.07659759
0.02401733
-0.00587172
-0.06669158
0.01028278
-0.03218352
0.01915773
0.01137351
0.03127332
0.12290975
-0.12583335
-0.01556378
0.05187996
-0.03803281
-0.00475009
0.02761524
-0.01080368
-0.08750445
0.02345085
-0.00310938
-0.00788023
0.03805392
0.07544365
0.05081555
-0.08979273
-0.02668983
0.09919751
0.02996406
0.00332694
-0.00725527
0.04559137
0.01385137
0.00771860
-0.12921388
0.06880950
-0.01971228
0.05028817
-0.08839148
-0.02452807
-0.09191505
-0.04161565
0.06574631
0.04337623
-0.03921210
-0.02212530
-0.00417745
-0.01885445
-0.00007349
-0.06423984
-0.09464102
0.08365670
0.08962099
-0.00794315
-0.10640128
-0.05636705
0.04350990
0.02368166
-0.04604213
-0.03563383
0.01458702
0.14178164
0.00688537
-0.00383030
-0.04217737
-0.07516912
-0.04137364
0.04618394
-0.08193750
0.02349215
0.00431157
-0.09246240
-0.02039721
0.00007238
-0.01398066
-0.04783126
-0.03076471
-0.01404876
0.04808467
-0.06969612
0.08108622
-0.01598401
0.07090060
0.14875412
0.01311116
0.05288465
-0.10629583
-0.09419892
0.05951428
-0.09879555
-0.03751182
-0.01296648
0.03488416
-0.00225270
0.04396144
0.01119482
-0.00445866
0.00042987
0.05689365
0.10796294
-0.04096061
0.04875260
-0.05399518
-0.01664863
0.24367547
-0.04430596
0.09212774
0.11423425
0.00035975
-0.04129839
-0.03043878
0.11440801
-0.09581658
0.02288895
0.09700280
0.03349797
-0.10239477
0.06126174
0.06464021
-0.00999365
-0.05044983
0.00745422
-0.03835462
0.05560284
-0.03997276
-0.07927755
0.08928382
-0.08643935
-0.05047543
0.11219431
0.10066546
0.07769582
-0.01534623
-0.05920665
-0.05854775
0.02159981
-0.11623874
0.00172183
0.02733172
0.06035209
0.06850670
-0.07263462
0.04840809
-0.04418819
-0.00257048
-0.02965188
0.03868263
-0.03303016
-0.02200116
0.06326414
-0.01801040
-0.14068499
-0.04582218
-0.04363236
0.05054544
-0.05266462
-0.01228047
0.06083822
-0.06843781
0.07764614
0.06978036
-0.17386945
-0.01719128
0.02236964
0.09014297
-0.08392306
0.04626367
0.04058646
-0.08049612
0.05330164
-0.01481709
0.01364530
0.04560523
0.02310028
-0.05195168
-0.00186370
-0.06574729
-0.03575679
-0.08018146
-0.07714310
0.03153769
0.01845180
0.15130199
0.05630424
0.05845268
0.00292467
0.07192155
0.07661269
0.03645553
0.07929426
0.07596756
-0.08114730
-0.01496167
0.03215560
-0.51726437
-0.04520745
-0.05934536
-0.06109824
0.02438937
0.07083953
-0.01129458
0.08000806
-0.02962922
-0.04713644
-0.02370359
0.12893932
-0.03638463
0.06821527
-0.01975269
-0.13547516
0.01702638
-0.11681964
0.05667173
0.12026868
-0.03805766
-0.00916596
0.07137239
-0.06610662
-0.07353642
0.14920445
-0.02385492
-0.01332424
-0.10200239
-0.04273326
-0.07082411
-0.01209988
0.09013443
0.06091302
0.00573276
0.07780824
-0.02417199
-0.11427762
0.06500722
-0.05615373
0.03275601
-0.00243382
-0.06127184
-0.10861238
-0.00215979
-0.14328054
0.09695582
-0.00406152
-0.02230032
-0.02222696
0.02179938
0.09208563
0.07384177
-0.03022701
0.11493622
0.04031764
0.11372271
0.03852184
-0.12539166
0.00166918
-0.00800999
-0.03444806
-0.03187247
0.01947759
-0.03714812
-0.04522759
-0.06597971
-0.02274582
-0.01267872
-0.09699127
-0.08197371
0.05643436
0.00519577
-0.54924256
-0.03760275
-0.11809283
0.01021206
-0.02593418
-0.06867494
0.04781666
-0.02592789
-0.07390779
0.00828273
-0.03504877
-0.00117009
-0.08146698
0.06806794
-0.00054939
-0.07724628
-0.07004146
-0.04634683
-0.02911454
-0.08541696
-0.03761230
-0.04220826
0.00768034
-0.09209858
-0.03805765
-0.02652596
-0.03727121
-0.02836978
0.00259300
-0.04222186
0.00736121
0.02725783
0.06279356
-0.08607212
0.05680857
-0.09549230
-0.08961730
0.04483417
0.02658855
0.06690716
-0.22617897
0.00726981
-0.00753708
-0.06526837
0.00639503
-0.00777035
-0.01894453
-0.02110786
0.05930462
-0.00407774
-0.04271480
0.02035264
0.03061257
-0.12340303
0.03384622
-0.00373683
-0.09591082
0.01838677
-0.02506202
-0.02379138
0.01609068
0.00878732
0.00908416
-0.00035908
-0.05631892
0.05601332
0.00885918
-0.04348376
-0.03765750
0.00047108
-0.00544771
0.01790188
0.00597449
0.04256160
0.14449599
0.06528126
0.04902341
-0.04561434
-0.06109255
0.03365898
-0.05476839
-0.04457156
-0.01687075
0.13041221
0.02944534
0.05672921
-0.07873956
-0.03958426
0.05240937
-0.00996846
-0.03285265
0.05395540
-0.03787278
0.04175041
-0.07341863
-0.00732420
0.01991424
-0.07699158
-0.12622257
0.04879946
-0.00099356
-0.07919747
-0.17218044
-0.08525283
-0.05583576
0.09177597
0.07855336
-0.07065736
0.01146389
-0.02020106
0.02165900
-0.04900454
0.08440991
0.00611616
-0.04546620
0.01591303
-0.00736912
0.05063054
0.03967268
0.03248722
0.00524416
-0.08622941
-0.02505156
0.04102802
0.10476850
0.06316399
-0.01487161
-0.08880645
0.00057501
-0.03547281
-0.07677611
0.00579473
-0.00465475
0.06739978
0.16702622
-0.06293856
-0.00435613
0.06438071
0.07470806
-0.02596271
0.01178347
0.04794482
0.04882824
-0.05969961
0.04886402
-0.07447945
-0.05887313
0.00814213
0.14189726
0.10927343
0.01572810
-0.07079317
-0.03370115
0.03096436
-0.10195679
-0.01421773
0.02668604
0.03476042
-0.10857523
0.06099183
-0.04620538
0.01102042
-0.01282035
0.00924421
0.04679186
-0.04024901
0.07940193
0.03539312
0.06716345
-0.04291060
0.03539754
0.05929997
0.01172197
-0.05436264
-0.02612394
-0.09040170
0.03970048
-0.01688441
-0.06761051
-0.04773708
0.02837117
-0.00343227
-0.02557243
-0.05861209
0.06392870
0.02291444
0.01949723
0.01318445
-0.02873502
-0.02754654
0.03368088
0.01731250
0.06088458
-0.07317603
-0.00191491
0.05502384
-0.18515295
-0.01361860
0.03316098
-0.11680952
0.08451365
0.12442017
-0.04497559
0.01680966
-0.02653086
0.16214564
0.05017509
-0.03386040
0.01165479
0.04542820
-0.09349493
0.01702512
0.04947164
0.02720540
-0.08726643
-0.02555232
0.07333769
-0.01388705
0.03419228
0.07654113
0.06505666
-0.02261831
0.03047682
0.06418736
0.01859264
0.02402954
-0.01761519
-0.02677818
0.04670988
0.00454655
-0.01337404
0.04341825
-0.00941655
-0.11661952
0.02616173
-0.04022223
0.02248236
0.03833326
-0.03328117
0.09296142
0.07593980
-0.02301100
0.05361233
-0.07192853
0.06754314
0.07762819
-0.09861362
-0.09588303
-0.05530128
0.07482419
0.04217216
0.03885995
0.09317714
-0.08244118
-0.05021085
-0.01503434
0.03040567
0.02107433
-0.07193329
-0.08522905
0.06039444
-0.02058056
-0.07277845
0.00388353
-0.00312115
0.03231380
0.10076899
0.01521404
0.12470821
0.05216854
-0.01527137
0.03701738
0.06463422
-0.09004533
-0.05833388
0.05655368
-0.05107513
0.01002125
-0.04444760
0.04043815
-0.02842296
0.02454471
-0.03039784
-0.01564304
-0.01038584
0.05485852
0.20288149
0.05001355
0.01340781
0.10066695
0.00961166
-0.01721848
0.03298236
0.06332857
-0.01872041
0.06932166
-0.01904751
-0.00774341
0.01290573
-0.03333748
-0.03626687
0.11178203
0.00734616
0.05518712
0.02731777
0.03688776
0.09768867
-0.01439280
-0.06986918
-0.02037177
-0.06599282
0.05940581
-0.01433988
0.06118307
0.02210817
-0.10231074
0.00593963
-0.11264241
-0.08653597
0.07631318
-0.07480702
0.10422997
0.05082128
0.02203811
0.06976188
0.03983719
-0.03607991
0.11331879
0.03912307
0.03712342
0.08702707
0.11682869
0.05409987
-0.05688866
0.00466400
0.02135523
-0.00642580
0.03584973
-0.02105297
-0.09259978
-0.01613866
-0.05821019
-0.02829525
0.11047997
-0.01745980
0.03195963
-0.09786979
-0.01238951
0.06369158
0.10798215
0.04721191
0.03579528
-0.00642153
0.18948226
-0.18779652
0.00721521
0.16713133
0.00643914
0.05460888
-0.00128009
0.01074934
-0.00115215
0.05785189
-0.08650982
0.04931333
-0.01990630
-0.06293841
0.12938288
-0.02572704
-0.04591358
0.01506563
-0.07298787
0.09393091
-0.14479081
0.02097232
-0.11609530
0.02860865
0.14406866
-0.12978256
-0.07419261
0.08147649
-0.05898098
0.03134159
-0.06384742
0.03072753
-0.00602902
0.00591308
