0.00005361
0.00346379
-0.00175880
-0.00613196
-0.00044075
-0.01007987
-0.00325169
-0.01767564
-0.00548661
-0.00456070
-0.00067941
0.00388942
0.00086033
0.00664007
0.00604151
0.00193865
0.00534084
0.00744973
0.00513658
-0.00917749
-0.00165704
0.00948657
0.00040896
0.00602504
0.01054185
0.00964030
0.00220607
0.00047393
0.00694944
-0.00940627
0.00686155
-0.00610219
0.00786760
-0.00204164
0.01076321
-0.00287446
-0.00201133
0.00941516
0.00041244
0.00023699
-0.01331943
0.00168755
-0.00323597
-0.00332616
-0.01469121
0.00558684
-0.00115717
0.00893219
0.00869995
-0.01178223
-0.00145621
0.00119634
0.00755878
-0.00241956
0.01067220
-0.01794010
-0.01337698
-0.01343177
-0.00735123
-0.00734725
-0.00186303
0.00274945
0.00500287
0.01042730
-0.00057326
-0.00059240
0.00459220
-0.00088297
-0.00127213
0.00508280
-0.00270849
0.00131278
-0.00016198
-0.00110888
0.00559928
-0.00494056
0.00378430
-0.00678813
0.00046910
-0.00675669
0.00833942
0.00377331
-0.00250293
0.00080514
0.00308748
0.00333165
-0.00675079
0.00867885
0.00774850
0.00307328
0.01267640
-0.01015483
0.00164446
0.00381614
-0.00214330
-0.00716578
0.00655049
0.00108529
-0.00133944
0.00923881
0.00120957
0.00613037
-0.00664242
0.00224446
0.00647777
0.00397594
0.00000051
-0.00301168
0.00815281
0.00087868
0.00036880
0.00496445
0.01034631
-0.00037420
-0.00631162
0.00445485
0.00074205
0.00609854
0.00191820
0.00569201
-0.00524171
-0.00777252
0.00349632
-0.00292934
0.00540178
-0.01066305
-0.00337473
-0.00226008
0.00156394
-0.00866830
0.00235090
0.00387798
0.00491250
-0.00052013
-0.00663900
0.00960624
0.00064944
-0.00301939
-0.00790685
-0.00184915
0.00632212
0.00059660
-0.00359120
0.00080367
-0.00017621
0.00715926
0.00033009
0.00273668
0.00329040
0.00051393
0.00426718
-0.00474447
0.00394721
-0.00448552
-0.01336836
0.00826714
-0.00036377
0.00492096
0.00012106
-0.00466525
0.00120345
0.00284403
-0.00601714
-0.00427892
0.00262026
0.00180546
-0.00253859
0.00562132
0.00535363
-0.00445845
0.00309138
-0.00077424
0.00417374
0.01108138
0.00190581
0.00521160
-0.00767519
-0.01321014
0.00013319
-0.00055267
0.00023962
0.00096397
-0.00548458
-0.00450494
-0.01191663
0.00169912
-0.00007021
0.00256025
0.00272275
-0.01392355
0.00369475
0.00132434
0.00638316
-0.00358565
-0.00747079
0.00090043
-0.01202723
0.00735142
0.00569493
-0.00046234
0.00398027
0.01058844
-0.01255695
-0.00730474
0.01029585
0.00391801
-0.00490127
-0.00675799
-0.00170785
-0.00166267
0.00426838
0.00116164
0.01269482
0.00634178
-0.00349466
0.00122704
0.00141310
0.00371058
0.00357817
-0.00572280
-0.00771972
-0.00324577
0.00724189
-0.00242847
0.00282998
0.00233468
0.00193623
0.00579903
0.00270090
-0.00016893
-0.01281777
0.00490402
0.01022763
-0.00318042
-0.00822913
0.00282033
-0.00062895
-0.00139804
-0.00210471
-0.00759334
0.00780318
-0.00247754
-0.00042285
0.00041128
-0.00145741
-0.00180059
0.01016399
-0.00441449
0.00204856
0.00339609
0.00315830
-0.00205533
0.00218713
0.00270240
-0.00598452
-0.00596000
-0.00097359
-0.00654024
-0.01379435
0.00857773
0.00028251
-0.00174303
-0.00192033
0.00062579
0.00369826
0.00783145
-0.01604758
-0.01165722
0.00207638
0.00364676
0.00657854
-0.00778287
0.01071229
0.00325573
-0.00014056
-0.00231243
0.00376353
0.00122988
0.00480202
-0.00934612
-0.00098178
0.00797597
0.00257100
-0.00239737
0.00016489
0.00381543
-0.00037009
0.00584849
-0.00121238
0.00758585
0.00294679
-0.00361887
0.01576179
0.00479753
-0.00175275
-0.00648781
0.00294034
-0.00222117
0.01361142
-0.00249814
0.00671230
0.00338484
0.00539792
0.00650075
-0.00753786
0.00514481
-0.00407074
-0.00864926
0.00078688
0.00091006
0.01682616
-0.00388463
-0.00911264
-0.00142687
0.00367429
0.01387392
0.00641559
0.00685789
-0.00134318
-0.00291224
-0.00804480
-0.00335401
0.00105486
0.00742842
-0.00691695
-0.00246246
0.00099147
0.00007036
0.00415155
-0.00189338
-0.00212686
-0.00629888
0.00112462
0.01198080
0.00564811
-0.00353854
-0.01178230
-0.01323638
-0.00573346
0.00385780
0.01352501
0.00937300
-0.01137835
0.00487098
-0.00046431
-0.00742189
-0.00094895
0.00271139
-0.00098020
-0.00509141
0.00430274
-0.00020883
-0.01491456
-0.00498845
-0.00929009
-0.00106617
-0.00362061
-0.01297609
0.00231097
-0.00239108
-0.00254915
-0.00049249
-0.00324589
0.00426097
-0.00281052
-0.00734573
-0.00747163
0.01480792
0.00388431
-0.01312744
0.00365829
0.00116307
-0.01562261
0.00343703
-0.00320593
0.00371071
-0.00865920
0.00177160
-0.00815848
0.00294385
0.00545278
-0.00418204
-0.00137353
-0.00117530
-0.00391651
-0.00552522
0.00745135
0.00101318
0.00354659
0.00014893
-0.00753828
0.00245098
0.01446711
-0.00092063
-0.00344317
0.00552619
-0.00148212
-0.01021987
-0.00029118
-0.00529303
-0.00375705
-0.00665058
-0.01160485
0.00427369
0.01148233
-0.00222500
-0.00556337
-0.00161783
-0.00292191
-0.00153458
0.01285443
-0.00744214
0.00754372
-0.00244670
0.00947888
-0.00617736
-0.00711848
0.01047137
0.00786249
-0.00130353
0.00335150
0.00853546
-0.00104604
-0.00388696
-0.00248996
0.00493473
-0.00812203
0.00099450
-0.00470290
0.00417160
-0.00723867
0.00666650
-0.00028513
-0.01293603
-0.00067691
-0.00255532
-0.00413306
-0.00241077
-0.00558639
0.00168524
0.00846636
0.00325783
-0.00335085
0.00578092
0.00664650
-0.00121479
0.01133325
-0.00091242
-0.00934930
0.00148162
-0.00145456
0.02012236
-0.00223164
0.00673016
0.00508514
-0.00682798
-0.00451249
0.00850703
0.00029672
0.00268733
-0.01095764
-0.00233424
0.00188419
0.00394993
-0.00551360
-0.00884526
-0.01049312
-0.00419187
0.01017857
0.00643779
0.00767383
-0.00076782
0.00339466
-0.00060583
-0.00281518
0.00364755
-0.00183164
-0.00355520
-0.00123036
0.00749782
0.00269645
-0.00586528
0.00622213
0.00093263
0.01119775
-0.00209545
-0.01122921
0.00606963
-0.00144857
-0.00058731
-0.00921198
-0.00977619
0.00074233
0.00040456
0.00534311
0.00041413
-0.00908784
-0.00068337
0.00770130
0.00584543
-0.00244937
0.00717591
0.01021168
0.00020468
-0.00261616
-0.00324704
-0.00300372
-0.00186317
0.00236040
-0.00552365
-0.00440544
0.00268067
0.00099828
0.00626379
0.00010361
0.00321267
0.00315289
-0.00111615
-0.00531180
-0.00618978
-0.00390429
-0.00193116
0.00455849
-0.00591821
0.00068422
-0.00703311
0.00317845
0.00831054
0.00307664
0.00179023
-0.00841117
0.00251978
-0.00182147
0.00411477
0.00400572
0.00229321
0.00593548
-0.00145525
-0.00103106
-0.00075781
-0.00389813
0.00598451
-0.00196623
-0.00367770
0.00034070
0.00545199
0.00137359
-0.00103000
-0.00758174
0.00678705
-0.00556322
0.00225403
0.00285042
-0.00290996
-0.00679768
0.00062511
0.00805794
0.00102040
0.00343184
-0.00229123
-0.00221140
-0.00357509
-0.00250936
0.00337285
0.00103822
-0.00006132
0.00012515
-0.00785411
-0.00102084
0.00505582
-0.00876722
-0.00197487
-0.00222057
-0.00350737
-0.00119334
-0.00863665
-0.00228020
-0.01024747
-0.00848346
0.01522182
0.01207538
0.01069927
-0.01569108
-0.00867462
0.01772959
-0.00705639
-0.01372715
0.01022719
0.00502929
0.01553010
-0.00527319
-0.00510123
-0.00004446
0.00247187
0.00838055
0.00830332
-0.00051673
-0.01688647
0.00473663
0.00505744
-0.00390213
-0.01070892
0.00881798
-0.00018273
-0.01604651
-0.00042074
-0.00067318
-0.00916336
0.01619782
-0.00705930
0.00365224
-0.00710905
0.00386115
0.00710502
-0.00505674
0.00020104
0.02529260
0.01112124
0.01036962
0.00762883
0.00348818
-0.01030130
0.00207611
-0.01165808
0.01297942
0.01318586
0.01135538
0.00103887
-0.01105057
0.00436323
0.00165660
-0.00192352
-0.01785910
-0.00132342
0.00033192
0.00479515
-0.00125263
0.00491109
0.00752636
-0.00249907
0.00998955
0.00803555
0.00433244
0.01241643
0.00764101
-0.00538393
0.00914629
0.00647806
0.00001177
0.01383861
-0.00485551
0.00892546
-0.00206684
-0.00658517
0.00901027
0.00399759
0.00123535
-0.00575289
0.00058355
0.00582628
-0.00661371
0.00160088
-0.00344305
0.00224846
-0.00331353
0.00134278
-0.00486777
-0.00673994
0.00596327
0.00199532
-0.01282758
0.00867228
-0.00382452
0.01529794
0.00974840
0.00624169
0.01309628
0.00240921
-0.00163327
-0.00034674
-0.01002998
-0.00761403
0.00230018
0.00516887
0.00521354
-0.00755866
-0.00379114
0.00784007
0.00699942
-0.00833938
-0.00044845
0.00258475
0.01587218
0.00125513
-0.00190093
-0.00448272
-0.00441110
-0.00122000
-0.00063288
0.00962360
-0.00922934
0.00480240
-0.00025336
-0.01459287
0.00928856
0.00791456
0.00695338
-0.00743504
-0.00271323
0.00163439
0.00135654
0.00056420
-0.00407754
-0.00424568
-0.01011177
-0.00081994
-0.00568809
0.00030757
0.00333128
0.02078845
-0.00089317
0.00412630
0.00871824
0.00457541
0.01193289
-0.01445655
-0.01806556
-0.00483274
0.00177344
-0.00479528
0.00350278
0.00858001
0.00155767
0.00653808
0.00704955
0.00328218
-0.01255301
0.01247641
-0.01133879
-0.00900724
0.01216556
-0.00769220
0.01124147
0.01867164
0.00124144
0.00765104
-0.00603134
0.00142558
-0.00432137
-0.00209816
-0.00535712
-0.00408820
0.00541814
-0.01477812
-0.01055041
-0.00224095
-0.00912724
0.00006724
0.00719700
0.00074038
0.00993106
-0.00770427
0.00403589
-0.00010990
0.00163668
0.00051083
-0.00631273
0.00113052
