-0.25258651
-0.23881821
0.02707419
0.01010785
0.18477531
-0.10966767
0.43118811
0.13839409
0.49627888
-0.19827540
-0.05384098
0.05217800
-0.11422592
-0.11696845
-0.18714975
-0.09007760
-0.11904573
-0.06595843
0.07298450
0.74206495
0.11903942
-0.39939669
0.09418936
0.14773774
-0.00821150
0.14328536
0.18180136
0.14583762
-0.00233948
-0.00234078
-0.26079628
0.24726343
0.17390276
0.03621369
-0.17221215
0.07121494
0.09560417
-0.08280687
0.41854441
-0.12430991
0.07369947
0.13774781
-0.30245915
-0.01165346
0.04415386
-0.63010049
-0.00767587
-0.01068682
-0.03754170
0.03337076
-0.47703275
0.10827400
-0.10256671
-0.06964212
0.16644976
-0.10941081
0.06140148
0.28325003
0.32031441
0.16330834
-0.11183866
-0.54671645
-0.02873021
-0.07806642
0.14534238
0.08624481
0.27325532
-0.19664274
-0.01306432
0.01337767
0.05268464
0.16494229
0.06280891
0.02813171
-0.02502538
-0.00981107
0.03513010
0.09361354
0.05687131
0.10670918
-0.09560837
0.06986937
-0.05360135
-0.13124023
-0.10950463
0.00893340
-0.09789588
-0.08087542
-0.21489549
0.38692573
-0.03241920
0.05696112
-0.10200219
-0.10760666
-0.39936560
-0.20681582
-0.07874737
-0.04295792
-0.06596959
-0.13587181
-0.07227423
0.07265031
0.11705717
0.04391492
-0.10733702
0.06794583
-0.25485462
0.23131502
0.12038769
0.01273401
0.05754194
-0.12027087
0.18291849
0.00010449
-0.07349695
-0.00695372
0.26249778
0.12946461
0.15581772
0.04379988
0.07075661
0.00216290
-0.14891434
0.10013994
0.00875132
0.09819310
0.07830232
0.05615182
0.11203330
-0.19918820
0.10752624
0.18716446
0.22116613
0.33622515
-0.43870190
0.11760051
-0.01152366
-0.07115321
-0.14832319
-0.00849491
0.02317858
-0.03164966
0.09029052
0.01061188
-0.07792494
0.07400554
-0.02669587
0.04544307
-0.03166838
-0.01607751
0.10719499
0.01090455
0.12721136
0.01753876
-0.29907697
0.32210633
0.06187405
0.21172975
-0.05377590
-0.05969529
-0.00628440
0.09019040
-0.33724067
-0.07446194
0.04308532
0.20419396
-0.00008623
-0.00252590
0.03894455
0.09099983
0.23007777
0.05411023
0.19623382
0.07253689
-0.00344228
0.10172027
-0.20313253
-0.44493809
-0.13858253
0.02585678
-0.05068232
-0.00997449
0.04485346
-0.03370716
-0.47741342
-0.01653129
0.07439299
-0.00678230
-0.05340633
-0.41111532
0.13874933
0.02472532
-0.10799836
0.17653358
0.21782497
-0.15256047
0.27137724
-0.01535931
-0.10650195
0.21038333
-0.04472752
-0.00188431
-0.10760073
0.37973246
-0.44699621
-0.08260371
0.02729843
-0.11475208
0.01818815
0.45178291
0.45670840
-0.07710779
-0.51938891
-0.23089053
-0.34395763
-0.25402364
-0.10479358
-0.69023311
-0.02504722
-0.03012769
0.18003456
-0.32139915
0.00919622
-0.06976741
0.05955252
-0.11623438
-0.11138242
-0.26042962
-0.31839210
0.10556149
0.43976402
-0.07684505
-0.06416330
0.04642636
0.18584558
0.15783279
0.06029020
-0.07249916
-0.29987708
-0.01950122
0.03783339
0.20421006
-0.02578366
-0.36831346
0.12862803
0.08259669
0.02642138
0.05120346
-0.09049355
0.09950591
0.06677572
0.02681444
0.17337674
0.03658689
-0.01026988
-0.09605821
0.25796700
-0.02845951
-0.16376020
-0.07227639
0.45403293
0.26658091
-0.03342718
0.00110629
0.01630329
-0.06809486
0.21987408
0.00279236
-0.21758705
-0.13652247
0.00777244
-0.02060191
-0.24593374
0.01226392
-0.08623894
0.07702166
-0.00741035
-0.23240499
-0.19395904
-0.08679308
-0.01168953
-0.15331504
-0.27482620
-0.14987807
-0.16116671
-0.21354461
0.10269778
-0.00849816
-0.02067319
0.04019713
-0.50787133
0.03347547
-0.67417270
-0.22161882
0.09230309
0.03053975
0.15840060
0.16814031
-0.08201450
0.09944823
0.09075726
-0.02051125
0.07317965
-0.00627497
0.19659834
-0.16110420
-0.18555106
0.14670587
-0.05921736
0.16954544
-0.22437111
0.06341529
-0.00822621
0.06294692
-0.00637501
0.05820594
-0.05271435
-0.30522507
-0.05495808
0.04304148
-0.07952958
-0.05504205
0.05701628
0.05629236
0.09517105
0.03680675
-0.10101164
-0.14608335
0.02262888
0.13861805
-0.20277567
-0.16457470
-0.07164180
-0.02321933
0.33739772
0.08094601
0.02229722
-0.11630271
0.09555090
-0.34184134
0.16570804
-0.26445135
-0.09473789
0.02778994
-0.33388439
-0.68159199
0.07624959
0.06525354
0.00565207
0.39185360
0.11830167
0.13124935
-0.57597828
-0.10365950
-0.12915683
-0.30500388
0.24866185
-0.11573148
-0.27766818
-0.19434188
-0.04180117
0.03510384
-0.15978643
-0.14868255
-0.20871966
0.15788141
-0.12445167
0.28085464
0.03690569
0.33415413
0.12920074
-0.34037977
0.06987256
-0.03768552
0.07583889
-0.05395494
-0.33099395
0.03322269
0.05953445
-0.02803425
-0.27842945
-0.33487150
-0.29768133
0.23408160
0.19556564
0.00989870
-0.00876885
0.17848992
-0.13659520
0.02303598
0.17764978
0.10320874
-0.02541497
0.19332366
0.06462704
-0.10618804
-0.26435727
0.52093369
-0.39237112
0.44353241
-0.11581264
-0.29542580
0.01811343
-0.09539399
-0.04246833
0.17321487
-0.15824479
-0.59512973
-0.01177846
0.01536690
0.08806892
-0.18153898
-0.06630395
0.14041637
0.28145424
-0.31916970
-0.11814881
0.02748635
-0.16704385
0.06207680
0.01516705
-0.03335842
-0.21014103
-0.01691538
0.13032527
-0.39356482
-0.05802480
-0.12826848
-0.19640331
-0.13212638
-0.21175593
0.21227904
-0.28016877
0.06892299
0.00732722
0.24369830
0.11052068
-0.08371678
0.02023893
0.09606040
0.06243945
0.07429364
-0.43144771
0.13909568
-0.07165550
0.34556285
-0.27206138
-0.24221157
-0.13814341
0.11775716
-0.14732115
0.54415137
0.11653570
0.09919252
0.14872675
0.06830329
-0.04667867
-0.01446617
-0.03716396
-0.05718451
-0.44158599
-0.05960604
-0.12296239
-0.09545536
-0.00130112
0.03799564
-0.04677554
-0.12130975
0.50650746
-0.08346494
0.17922886
0.00177238
-0.21698798
0.06731578
-0.17646113
0.07132457
0.01671324
0.00481843
0.00993332
-0.00009656
-0.01182271
-0.07436755
0.03927586
-0.00815511
0.01113279
0.14379281
-0.03229111
0.06119922
-0.05355361
0.04929278
0.03723166
-0.03207987
0.04477344
0.10807116
0.05037244
0.00422409
-0.12707594
-0.02658251
-0.09510175
0.11562975
-0.02106750
-0.03782629
0.00232105
0.12547722
0.11412346
-0.01792343
-0.32052073
0.15741436
0.01199245
-0.05737274
-0.08793718
0.07550032
0.02136004
-0.09490558
0.13153641
0.17032735
0.21896747
0.07982445
-0.11692958
0.10596319
0.05023338
0.06681868
-0.10736715
0.15084229
0.07391347
-0.02541870
-0.18454252
-0.09828520
-0.05966303
0.08574725
0.09279896
0.16459346
0.10138991
-0.13539249
-0.14495343
0.01258221
-0.16292274
0.18301000
0.00111479
-0.06955612
0.11534126
0.04146171
-0.06305639
0.06162832
-0.00490144
0.00231372
-0.07401375
-0.12674299
-0.26262230
0.20915113
0.00739259
0.25862807
-0.05077232
0.03011161
0.11287026
-0.08907591
0.09951455
-0.15598027
0.00292082
-0.09012333
0.05889210
-0.08680689
0.15806642
-0.16567050
0.26494309
0.16186585
0.12846670
-0.18786484
0.11450977
-0.16214491
-0.23354466
-0.13891692
0.26138920
0.02277671
-0.06950614
0.04277589
-0.11315012
-0.02147543
0.00325100
0.04024391
-0.08690831
0.06291372
0.21831077
-0.16001582
0.04847248
0.14620718
-0.01680473
-0.08308336
0.01606603
0.07322519
0.03207704
-0.01427019
-0.06814075
-0.11413327
0.12513880
0.16543654
-0.21240944
0.04170682
0.06022340
-0.14615950
0.10981600
-0.22981003
-0.10154755
0.06570278
-0.00779658
-0.00220626
0.00052058
0.03383392
0.05181368
-0.01605436
-0.08641627
0.02961154
0.00430628
0.05040848
0.02179238
0.03669267
-0.53026831
-0.02306897
0.10067172
-0.46925640
-0.10560677
-0.28897411
-0.04929256
0.14833033
-0.08366285
-0.34384415
0.03969801
-0.05422751
0.05135883
-0.01598474
0.14219314
0.01342224
-0.00372562
-0.09580106
-0.02202172
-0.10666578
0.15090680
0.15912643
-0.12665825
0.16153505
-0.01655605
-0.07730580
-0.20410204
-0.21896960
0.04404336
0.05015590
0.06484392
0.10666794
0.08976687
-0.19047600
0.11027774
0.03679813
-0.10644554
0.03183683
-0.10015920
0.22306973
0.04202461
0.08052117
0.24001697
0.12756179
0.00853128
0.29218823
-0.24066977
-0.17725927
-0.05056867
-0.03038946
-0.14573252
-0.40125546
-0.21384713
0.08896965
0.15839529
-0.02097289
0.03580108
-0.03655697
0.03979579
-0.00448375
0.04720199
0.09112660
0.11736288
0.58580297
-0.02673745
0.01799827
0.18309049
0.00130746
0.10792693
-0.55071855
-0.06369492
0.23941347
-0.05590963
-0.19595203
-0.01387270
-0.11237616
-0.06377179
-0.27920866
-0.01087297
0.02698461
0.08398295
0.06863037
0.16090120
0.04418368
0.06470334
0.00676256
0.06367195
0.00631001
0.09635215
0.10766073
0.22665611
-0.11581268
0.02882629
-0.01104803
-0.02563825
0.08330027
-0.01436382
0.04868126
0.00783468
-0.03369001
-0.02141193
-0.11281332
0.06394012
0.41918802
-0.02572203
0.15820773
0.07668523
0.08074626
0.00865317
-0.12128301
-0.07527400
-0.04521505
-0.03725248
-0.14069745
-0.10931760
0.22874542
0.13215505
0.13625236
0.13515036
0.15441389
0.03108784
-0.00119088
-0.11031507
0.04965601
-0.20989603
0.06546833
0.20308940
0.42311469
0.07294704
0.00417209
-0.05525009
-0.09725220
-0.09502263
0.02038782
-0.07040109
-0.08831459
0.11917087
-0.18366662
-0.07161876
-0.10965503
-0.08228176
0.00895848
0.27701813
-0.06068162
-0.02129323
-0.30080521
0.10444850
-0.17773256
0.20770501
-0.02006778
-0.03982450
-0.17640641
