0.02880070
0.00601173
-0.03546167
0.00202727
-0.02459556
0.00937892
-0.00495030
-0.02219536
0.03416144
0.03517381
-0.00052939
0.00602747
0.02205858
0.02363862
0.02163192
-0.01559473
-0.00982207
-0.02917424
-0.04920079
-0.01952660
0.00918829
-0.01909157
-0.01028084
0.02635320
-0.02470754
-0.00605234
0.01171205
0.01056723
-0.01316998
-0.03543073
-0.02229691
-0.04104713
-0.00547839
-0.01451970
-0.00532277
-0.04441916
-0.01456831
-0.02373942
0.04621650
0.05029617
0.04790117
-0.03601577
-0.01953108
0.03931233
-0.04190489
0.02238755
0.01022642
0.04340929
-0.02010125
-0.03997343
0.03071107
-0.03651834
-0.00188541
0.01081641
0.02209478
-0.00221757
0.04009145
0.04397650
-0.02390281
-0.01911419
0.03095535
0.04713202
0.00507404
-0.01791913
0.00275785
-0.03612709
-0.01958355
-0.01919217
-0.00482972
-0.06018639
-0.04477024
-0.03004329
-0.01048374
-0.01040105
-0.00100259
-0.01763804
0.02396639
-0.00407125
0.03193605
-0.02426214
-0.11087234
-0.01576446
-0.03536468
0.00250317
0.00746045
0.00968437
0.00778023
-0.02377301
0.04066331
-0.01813058
0.03285406
0.01217157
-0.02692826
0.00556131
-0.06691702
-0.00565767
0.02033669
-0.02664664
-0.01366106
0.02427924
0.03731390
-0.05539557
-0.01253059
0.01819973
0.03524761
-0.03292076
-0.00206111
-0.00696658
-0.00148969
-0.00188099
0.04914767
0.00401995
-0.01161407
-0.03437651
-0.01315530
-0.01066659
0.04610678
-0.00135594
-0.00373589
-0.05023402
-0.00719773
0.00648108
0.00492570
-0.01677768
0.02908764
0.02614274
0.01558806
-0.02672264
-0.00614157
-0.05571318
-0.05616014
0.03334587
-0.04378664
0.07603435
-0.42689243
0.02558805
-0.03541534
-0.10107721
-0.07475442
0.02005278
0.02989855
0.02546319
0.14526415
-0.01013849
0.00959254
0.00738700
-0.02779760
0.07481481
0.02701611
-0.12952913
-0.08150198
-0.07808238
0.10807548
0.03067217
0.06149997
0.09083464
-0.01518263
-0.00880068
-0.01625615
-0.06537123
0.00839332
-0.10314490
0.05599518
-0.01982162
0.09881879
-0.05356340
-0.05186056
0.09471197
-0.11521425
0.03457991
0.02915836
-0.11602747
-0.04199698
0.07625978
-0.02854354
-0.00739518
0.06362806
-0.11001094
0.05457556
0.04410305
0.08856889
-0.06812349
-0.00634183
0.08695850
0.09090582
0.00336783
0.11909892
0.09587449
-0.02466515
0.23939344
-0.02140551
-0.03103460
0.03151675
-0.01478042
-0.01090570
0.00863104
-0.00914718
0.00361551
0.00248166
0.00297010
0.00806007
-0.00586253
-0.00099192
0.00544370
0.01036558
-0.00212294
-0.00915130
-0.00867693
0.00144128
0.00246068
0.00618641
-0.02298730
-0.03417776
-0.02115068
-0.00193945
-0.00708521
0.02044196
-0.01380792
-0.00922078
0.01791677
-0.01421980
0.01211505
-0.00339063
0.00098763
0.01136907
-0.01776473
-0.00118158
0.01595095
-0.00410884
-0.01725516
0.00352003
-0.00074107
0.01363956
-0.03348185
0.02640620
-0.00384333
-0.00226267
-0.00400017
-0.01869804
0.01868102
-0.00728240
0.00079039
-0.00873678
-0.02466914
-0.00285913
0.02003874
0.00799029
-0.01480641
0.01326079
-0.00149507
-0.00727378
-0.00248422
0.01536200
-0.01446261
-0.00368596
-0.00096282
-0.02038649
0.01526323
0.01414538
0.02668064
0.01891750
0.07434593
-0.00901323
-0.03682088
-0.02738615
-0.01992153
-0.01291267
0.02119826
0.01784229
-0.00487324
-0.01646773
-0.02808030
-0.03073040
-0.02910987
0.00007430
0.04617000
-0.00467551
-0.00154227
-0.01956875
-0.00093149
-0.00247089
0.00359950
0.02327554
-0.00046904
0.06271148
-0.02652111
-0.04177333
-0.04724416
0.01897150
0.02810316
-0.01941984
-0.00334175
-0.02875786
0.00309915
0.02074530
-0.03290959
-0.03337290
-0.01057624
0.00738751
0.03342855
-0.02239688
-0.00192567
-0.06402351
-0.02264886
0.00607570
0.05760630
0.01602794
-0.03287311
0.05096572
0.03609931
-0.01427125
-0.00829263
-0.03130832
-0.01563676
0.00792058
0.01857496
-0.01613389
0.01455605
0.02238066
-0.03206258
0.04641976
-0.04651565
-0.01767659
0.08742875
-0.06841733
-0.02469446
0.01878237
-0.05076351
-0.01002547
-0.01189990
0.07181186
-0.29906005
0.02984183
-0.01031064
0.02040210
-0.03296315
0.20036975
-0.00409015
-0.01805869
-0.01020027
-0.00791293
0.05314079
0.03212383
-0.00830233
0.11239142
0.05805177
0.01884219
-0.11513144
-0.00731995
-0.01284478
0.06196265
0.03601304
0.12213128
0.08450197
-0.01452718
-0.02551162
0.05474593
0.04122322
-0.03087185
-0.05363674
-0.07899199
0.02686056
-0.03476691
-0.02940864
0.00800740
0.02207685
-0.04213690
0.03291840
-0.08553997
0.05878120
0.04753331
0.03640833
0.04767354
-0.11715223
0.01999423
-0.00528631
-0.01099057
0.07411882
0.00264999
0.05027274
-0.00184395
0.08688999
-0.02709825
0.03547630
0.02505116
0.08413246
0.01767587
0.04487149
-0.01459152
-0.06778595
-0.06081057
-0.02368807
0.02814930
0.08536874
-0.07663403
0.03744387
0.05150457
-0.00204629
-0.00884055
0.01088323
0.05671508
-0.03518406
-0.44833815
0.12697423
-0.01369183
-0.08160576
-0.01769686
-0.02646352
0.06327195
-0.09040077
0.05920754
-0.00142681
-0.05442285
0.00725119
0.01540154
0.04948260
0.06319059
-0.00103134
-0.04792220
0.05059280
-0.01468209
0.06162414
-0.07137404
0.04672496
-0.01858875
-0.04215029
0.07288221
-0.00522339
-0.07786283
-0.05485256
-0.05860976
-0.02105667
0.04777585
0.01990170
0.02052425
0.01501484
-0.01463422
-0.01987960
0.03261191
-0.09502373
0.10789600
0.00370797
0.00469649
-0.00913097
-0.08193791
-0.12045496
0.02973593
0.04225757
0.00883496
-0.02604363
0.01824137
0.00669445
-0.01909965
0.01141140
0.00111748
-0.00269913
0.01335427
0.03469936
0.01134559
0.01267057
0.01247131
0.04111031
-0.02027853
-0.01145995
0.00082532
-0.01190817
-0.02000158
-0.00112972
0.00302337
-0.00024731
0.02633272
0.00941092
-0.02663898
0.01191194
0.01884348
-0.02615527
0.02338233
0.02343857
0.02604418
0.02972637
0.02043064
-0.00874911
-0.00623370
0.01348942
-0.01487564
0.03791816
-0.00136826
-0.01140262
0.02221980
0.01687264
0.00300372
-0.00211932
0.00812741
-0.01473315
-0.00801647
0.00846200
0.00700640
0.01275617
-0.01588898
-0.01641370
0.00345268
-0.00889602
0.00470846
-0.00184827
-0.00724744
0.03032733
-0.00444385
-0.01595961
-0.01849648
-0.00537972
0.01357454
0.00328671
0.01650198
0.03811946
0.00062151
0.00200612
0.03569044
-0.04634038
0.03081919
0.01052364
0.03559935
-0.00292106
-0.00936428
-0.01846091
0.01723618
0.05393249
-0.01544398
-0.02798485
0.00085796
0.02167681
0.03831234
-0.00418223
0.01757171
-0.00722918
-0.01746514
0.00299424
0.03572008
0.00421036
0.00761735
0.00334721
0.00181551
0.02660188
-0.00259751
-0.00404930
-0.00269816
0.01632049
0.00513519
0.00253738
-0.02311399
0.02205394
0.00970379
-0.01859535
-0.02341095
-0.01974488
0.01333942
0.00764659
0.01614646
-0.02322555
-0.04827770
-0.00608256
-0.02180680
0.00197984
0.00981917
0.01175647
0.00003521
-0.00584929
0.00021171
-0.01092925
0.02540419
-0.02431688
-0.00086199
-0.00390957
-0.00241003
0.02905812
0.00195630
0.01382349
-0.00895563
-0.00711271
0.00953358
-0.00462159
0.01343122
0.01416646
-0.01218827
0.01152780
-0.01238524
-0.02326153
0.03000519
0.03007345
0.02051700
0.03169408
0.01726653
-0.01801583
-0.00245635
-0.02228967
-0.03399919
0.03354640
0.01099881
-0.01868123
-0.04049686
-0.00999983
-0.01259813
-0.05655291
-0.00157359
0.00812188
0.02185649
0.02411814
-0.01110933
-0.00274489
0.02349003
-0.02549065
-0.00202106
-0.03054781
-0.00025380
0.00093737
-0.02102040
-0.00805842
-0.03533961
0.02670062
-0.00526342
-0.03272607
0.00618055
0.01447131
0.01005773
0.00815884
-0.03981832
-0.01392216
-0.01923110
0.02587020
0.00157549
0.04437655
-0.00307876
0.02078090
-0.00677648
-0.02176502
0.01925092
0.01007118
0.03565870
0.03445932
-0.01195926
-0.02482851
0.00139903
0.00483274
0.01019392
0.01041546
-0.04336890
-0.02958742
-0.01016271
0.04521572
0.00581954
0.00102084
0.00129256
-0.03449648
-0.01742670
0.01159035
0.00411057
0.01711204
0.04300958
-0.02623296
-0.02039059
-0.01468101
-0.02081528
-0.01871009
0.00530327
-0.00846812
0.00349341
0.02314527
-0.00665565
-0.00444875
-0.01329325
-0.00326681
0.01261972
-0.01842742
-0.00841577
0.00864315
-0.03131575
-0.02765640
-0.01727051
-0.01547802
-0.00455827
0.00547168
0.02228942
-0.01088099
-0.02334257
-0.00967833
-0.00328343
0.00102588
-0.00470315
-0.01566467
-0.02859513
-0.03173491
-0.03371800
-0.01963216
0.00787876
0.01561612
-0.01756524
-0.00459465
-0.00421917
0.00028993
-0.00573779
0.02954417
-0.00590193
-0.02544360
0.00952816
-0.00780262
0.07791912
0.00685978
-0.00191306
-0.02057220
-0.03907816
0.02070952
-0.01092850
-0.01857911
0.03660347
0.01529179
-0.00975985
0.03777326
0.01351717
-0.04745807
0.00867404
-0.02616434
-0.01855505
0.00036504
-0.02506747
0.00741990
0.02754523
-0.00122673
0.00501788
-0.03109555
-0.03250575
-0.00268352
0.05511098
0.00612830
0.01790522
0.01975929
0.02076677
-0.03508771
0.04547888
-0.02586985
-0.00835556
0.03824645
0.05029250
0.01292677
0.03177731
0.05550106
0.00010005
-0.03686227
-0.04624073
-0.00724519
-0.03109670
-0.02307519
-0.06150890
-0.01652834
0.01852050
0.05516391
-0.01622820
0.06072029
-0.06511510
-0.01588249
0.01868893
-0.00636697
0.03097230
-0.02207671
0.04580088
0.02895728
-0.00405425
-0.01851830
-0.01318093
0.01332042
