0.02060517
0.01493718
0.05309680
0.03270210
0.00973021
0.01807616
0.02137190
-0.06717116
0.03224712
0.06436700
-0.03062882
-0.06863370
-0.06125533
-0.01792254
-0.05843700
-0.02561101
0.05655498
0.06908410
0.00935122
-0.00335945
-0.02044499
-0.00144925
-0.02125456
-0.00059970
0.03470927
-0.05431435
-0.02257043
-0.10216064
0.13452457
0.01683671
-0.02857158
0.00092403
-0.01954877
-0.03851880
0.05343165
0.04696386
0.03364572
-0.08553873
0.01677421
0.05313256
-0.03142935
-0.05918388
0.01461986
-0.01610256
-0.06503733
0.04085243
0.00102075
0.05029515
0.02282450
0.05148029
0.03403265
-0.05702531
-0.03522250
0.07929549
-0.01366949
-0.03648260
-0.00162629
-0.11267357
-0.11225102
-0.09712839
-0.07770395
0.05207082
-0.03830318
-0.00165305
0.01122794
0.02739220
-0.02796194
0.07805870
-0.07529864
0.04534280
0.04110811
0.05142479
-0.00723576
0.06927440
-0.01293318
0.08377749
-0.11408142
-0.02707004
0.01310842
-0.06712116
-0.00592730
-0.01601055
0.02830592
-0.02075883
0.04097536
0.09528814
-0.02068279
0.05184201
0.00863343
-0.12413629
0.07804157
-0.03305006
-0.04744264
-0.05322032
-0.03110706
0.08245799
0.07301972
0.01421770
-0.05791302
-0.02497035
-0.01792774
-0.00856328
0.08275936
0.02860506
0.09318362
0.00009807
-0.00370529
0.00118544
-0.05655569
0.11134589
-0.03156447
-0.03323288
-0.00139302
-0.04179632
0.07104711
-0.00869082
-0.06753357
-0.01387782
-0.10458624
0.09302787
-0.12076815
-0.12668489
0.07226428
-0.04165823
0.07841280
0.04633458
-0.06647786
-0.05237412
-0.08074743
0.00606135
-0.03405010
-0.02990940
0.02913364
0.03376959
0.02057195
0.00452028
-0.02145241
-0.10819535
-0.02322062
0.13717899
0.04904291
-0.05880447
-0.01199467
0.09017945
0.03859909
-0.00529883
0.00759762
-0.04211310
-0.02504312
-0.03048920
0.00115915
-0.05040795
0.08042470
-0.04162403
-0.02804643
0.03392089
-0.04829255
0.01108419
0.00969846
-0.01967918
-0.05964778
0.05922584
0.07379732
0.06257690
0.05270756
0.01835776
0.02649381
0.01333207
-0.05711930
-0.02926034
0.04469175
0.07081225
-0.01001693
-0.04738806
-0.01425462
0.03683830
0.01874159
0.02287729
-0.02319296
-0.05868173
0.05919486
-0.00173278
-0.00193974
0.01448341
-0.02716648
0.07649536
-0.06434493
-0.04808437
0.05500967
-0.01139947
-0.02677612
-0.00751596
0.02281232
-0.01855378
0.06607030
0.01933856
0.00183159
-0.00062083
0.00369071
-0.15902945
0.03573709
0.08722986
0.03288780
0.06074046
0.09990098
-0.05261794
0.02784704
-0.03512332
-0.05636073
0.03135278
0.11311670
0.02956712
-0.05060694
-0.00695646
-0.06644851
0.06084753
0.00074148
0.03634432
0.00434000
-0.02992091
-0.05428913
0.00456881
-0.06334863
0.00253985
0.04639051
-0.03276990
0.01754972
0.05830199
-0.01290541
0.07622831
-0.02271548
0.01306329
0.01709755
-0.07057217
-0.01792251
-0.00080742
-0.04221109
0.00184407
-0.01228960
-0.07965174
-0.07396426
-0.04789805
0.05917456
-0.05796973
0.09180685
0.09168318
0.01597008
-0.03102372
-0.04243800
-0.00653460
0.07428788
-0.02786519
0.05411067
-0.07311644
-0.01705492
0.05630206
0.07097874
0.02263889
-0.03755294
-0.14557448
-0.05195475
-0.08364623
0.01541116
0.07376555
-0.09699360
0.02589956
0.01467837
-0.00881217
-0.02945608
-0.04896657
-0.03950066
-0.00790944
-0.04141339
0.04529695
-0.00624832
0.01445396
0.02302057
0.05755465
-0.02002080
-0.05218355
0.06012053
-0.05227289
0.02414002
0.13088875
0.05537077
0.05189949
-0.02821366
0.06867587
0.05875182
-0.11998323
0.05145354
-0.01944529
-0.00315483
0.00265881
0.01967527
0.01269360
0.02742147
-0.00622462
0.05461970
-0.03630586
-0.08234731
-0.01770989
0.05484923
-0.03287549
-0.03422041
0.00199313
-0.04019552
-0.07179193
0.16592088
-0.04696241
0.02399226
-0.02432789
0.03138278
-0.03910652
-0.01742516
0.04254324
0.05324864
0.01557974
0.06428165
-0.07728904
0.00561058
0.02109443
-0.00533274
-0.00457365
-0.03897358
0.04831797
-0.10896337
-0.06665007
0.04479397
-0.09607908
0.09662051
0.06031940
0.08940215
-0.03085252
-0.01280106
-0.02938852
0.09358618
0.04042571
-0.01122420
-0.05748649
0.00472000
0.00719825
-0.09502786
0.03671597
0.03348279
-0.06034246
-0.02993038
-0.02921259
0.09992976
0.05344805
0.03936212
-0.06045952
-0.04418565
-0.03013666
-0.03493461
-0.03030554
-0.00324163
0.01218892
0.06211872
0.08226313
-0.07186741
0.03456910
-0.03868562
0.00008970
-0.02654278
-0.00516490
0.01388003
-0.05059952
-0.01777155
0.03665356
0.02125380
-0.04743905
0.04572399
-0.01289342
0.06097455
0.00242599
0.06450000
0.07109764
0.07245608
-0.05486973
-0.03955378
-0.06849550
0.02808859
0.07380570
0.03841241
0.00196465
-0.01712388
0.04284751
0.10602046
-0.07830223
-0.01172908
0.00545917
-0.01372412
0.05315106
0.07840190
-0.02727716
0.03919716
0.00003889
0.05055309
0.02255837
-0.07527530
0.04508676
0.00241394
-0.05627138
0.00354251
0.08904602
0.07620330
-0.01076368
-0.00515301
0.06011607
-0.00284823
0.02689954
0.02639929
0.00580306
-0.03999615
-0.07578740
-0.03185257
-0.06062904
-0.05263412
0.01350668
0.04277838
0.02826034
0.02967197
0.10632805
0.00630375
-0.00794039
0.03633651
0.08170853
0.05700623
0.07259644
-0.03465627
-0.00923750
0.01822685
-0.08093036
0.05890984
0.02157211
-0.06402729
0.01771678
-0.05884792
0.05960639
-0.04316197
-0.01525158
-0.01604547
-0.09036709
-0.06767066
-0.01111748
0.03164984
0.15945931
0.01850088
0.07652263
-0.02442825
-0.01600249
-0.01539047
0.00107438
0.06135641
-0.01379878
0.01714732
0.00305265
-0.00399842
-0.02410893
-0.05363057
0.02371863
-0.04001450
-0.04655194
-0.06488247
0.03518224
0.01582667
-0.03187539
-0.02542904
0.13607103
0.00233686
0.02217402
0.01664159
-0.02094380
0.06231513
-0.03134616
-0.00188109
-0.00849666
0.02725557
-0.08183149
-0.05675574
0.02481537
-0.03903085
-0.03374782
0.01314793
0.02041329
0.01318769
0.01450525
-0.09282742
-0.02717883
-0.05242144
-0.02282787
0.03757631
0.05023010
0.03263283
0.03964502
0.06191741
-0.00809857
-0.08015803
0.06462388
-0.00329752
-0.00585577
0.09331797
0.09544819
0.10640508
0.04909328
0.00726583
0.06702194
0.06723253
-0.00256198
0.09018046
0.04219325
0.02256430
0.01076456
0.01449273
-0.04387439
0.02568447
-0.04057399
-0.01161426
-0.00315922
0.00060871
0.05961104
0.13191283
-0.03774060
0.02370177
-0.04815071
-0.03735489
0.07130028
-0.05268529
0.00324978
0.07604663
-0.08250599
-0.08034360
0.01812389
0.10892181
-0.03580235
0.00920913
-0.03540312
0.02975887
0.04434108
0.05913190
-0.00962033
-0.00570307
-0.02309442
0.06689586
-0.06295215
-0.08513636
-0.01976567
-0.10137999
0.03658939
-0.04398749
-0.05412865
0.01190797
-0.03019552
-0.03139943
0.02828367
-0.02315946
-0.08116347
0.01658029
0.00228810
-0.00019254
0.04465478
-0.04804967
-0.01920210
-0.04324827
-0.00934079
0.01745058
-0.07005906
-0.03373750
0.05387138
0.14023697
-0.10550507
-0.03140442
0.00732329
0.04478575
0.07709419
-0.02878895
0.02340165
0.00314173
-0.01981005
0.04544592
-0.01935373
-0.07725732
-0.00629017
-0.00597268
-0.08781873
-0.01253889
0.06301372
0.09360602
-0.13215160
-0.06292485
-0.12145745
0.05429393
0.11640312
0.00157836
-0.04855666
-0.02214797
-0.06680940
-0.06194487
0.04182478
-0.04994846
-0.04007113
-0.06326975
-0.00953767
-0.04196401
-0.01946246
0.10134816
0.01768023
0.02941002
-0.04041347
0.08284745
-0.02761574
0.03475239
0.04183452
0.00229923
0.01764474
-0.03095492
0.04671859
-0.07921888
0.03321456
-0.07274870
-0.05629262
0.03488295
-0.01150287
0.02833310
0.03152684
-0.03337958
0.11901242
-0.05444355
0.04693876
0.02827425
-0.00392933
0.03758799
-0.01081690
0.02989494
0.01987785
0.03466435
0.03105362
-0.09911063
-0.05043353
-0.05429332
-0.05743536
0.03554751
0.07405267
-0.07600733
0.11176271
0.03632286
-0.04128348
0.01542256
0.05999628
-0.00980857
-0.06974909
0.06419377
-0.06532421
-0.01803556
-0.01610304
0.10349668
-0.01134824
-0.05100947
0.06197742
-0.03997375
-0.12103633
-0.01927854
0.01264702
-0.03433226
0.06901794
0.06435716
-0.05548363
0.03552326
-0.02760431
-0.06151153
-0.03467187
-0.01228537
-0.01195013
-0.01613904
-0.07177069
-0.06656522
-0.03932083
-0.03549649
-0.01080082
0.06296360
0.00586838
-0.04238682
-0.00900731
-0.02576426
-0.02319641
-0.03216602
-0.03753610
-0.11047143
0.06192426
0.04063154
0.04621056
0.01337814
-0.01655885
0.01563714
-0.06638301
0.02042585
0.04192426
-0.00169213
-0.14391223
-0.03398077
-0.01285579
0.01742844
-0.05748441
-0.04521397
0.02780583
0.05660311
0.09209854
-0.09812783
-0.09543464
0.03374698
0.05040986
0.06125860
0.01931678
0.10219835
0.01742183
0.15639812
0.01119521
-0.03911220
-0.01869270
-0.04931539
-0.00724636
0.00019393
0.03629687
-0.00224609
0.02371479
0.08565331
0.03706753
-0.05478266
-0.00970778
-0.00816053
-0.00438824
-0.00139492
-0.00501609
-0.04949303
0.03765827
-0.00783714
-0.05415139
0.05921307
-0.05712489
-0.01258317
0.00986792
-0.01907938
0.01898431
-0.06312069
-0.01091269
-0.06873833
0.01018802
0.02049862
0.07581202
0.00363873
-0.03125846
0.05299697
0.00825330
-0.03504713
0.04893377
0.05614442
0.03642854
-0.00956146
-0.00524112
-0.08721038
0.02669907
-0.01632952
-0.07817848
0.00409780
0.03674362
-0.08828684
-0.13162257
