-0.11019520
-0.04304908
0.02645769
-0.06221822
0.14492267
0.02477490
0.00926772
0.14317767
-0.10836236
-0.02428478
0.00827225
0.04209323
-0.12737244
0.06921449
-0.07076067
0.13543095
0.05375295
-0.00605068
-0.01595484
-0.03397994
0.07247603
-0.02293726
-0.00307045
0.05543508
-0.08718415
0.07020233
0.03291736
-0.06147472
-0.07843207
0.03106893
0.12890851
0.03844312
-0.04605674
-0.06394956
-0.07374971
-0.08327571
-0.01830779
0.05925944
-0.09765725
-0.13134222
-0.10228156
-0.15100597
0.01438424
0.13458006
0.05288136
-0.08543117
-0.03963381
-0.09428637
-0.01591242
-0.07868122
-0.34223357
0.03413472
-0.07273575
-0.06919304
0.14335880
0.06599310
-0.11078303
0.01946808
-0.04536510
-0.12797184
-0.00178633
0.03425876
-0.04444901
-0.12026124
0.04584364
0.08649201
0.03338068
0.09605423
-0.25446838
-0.05028388
-0.14531676
0.05063406
0.02171889
-0.07055858
0.01302305
-0.16370501
-0.08231191
0.06388813
0.01751462
0.03404962
-0.00970979
0.04372028
-0.06325119
0.10288006
-0.03342809
-0.10933955
-0.00868035
0.01390373
0.03715169
0.23249482
-0.14501005
-0.04909316
-0.03183791
-0.05422044
-0.02451858
-0.10972389
0.14756770
-0.09277932
-0.01889708
-0.09203581
0.01625753
-0.09543731
0.00649329
-0.01654204
-0.08981557
0.03246990
-0.03310810
-0.07832237
-0.01369420
-0.04314500
-0.05954808
0.07213333
0.01769424
-0.09387213
-0.04243623
-0.04308435
0.01232594
-0.07534311
-0.11422849
-0.00401141
0.00618370
-0.05599593
0.07473654
0.76661938
-0.11855106
-0.07797354
-0.11810361
0.03912243
-0.07688496
0.00558471
0.05727833
0.06379089
0.02953517
-0.06283844
-0.07959421
-0.06336335
-0.05265214
-0.00679635
-0.06982752
-0.01544437
-0.07185306
0.00600826
0.00214803
0.13857426
-0.02196490
-0.00158248
0.00719698
-0.25885749
-0.08147957
-0.05098218
-0.00422807
0.03237088
-0.14286952
-0.15148667
-0.08127044
0.01584086
0.06083716
0.10426944
0.06012874
-0.04756050
0.02345799
-0.10101553
-0.06207140
-0.04095346
0.18022470
-0.01619992
-0.05173066
0.02637474
-0.12604839
0.00635264
-0.00991199
-0.04700438
0.18175027
0.00239106
0.06863741
-0.06104222
0.02928599
0.01525705
0.05779469
0.17639458
-0.46782473
0.10810698
-0.01774818
0.01405053
-0.02342559
-0.01179744
0.17568506
-0.01866570
0.03566014
0.05093318
-0.10271327
0.05797660
0.06162965
-0.04970670
-0.01744072
0.05357061
-0.11928301
-0.04155779
0.00704765
0.06200260
-0.00654201
0.03396144
0.06966162
-0.06857053
-0.12395605
0.36298135
-0.00216500
0.04336439
-0.01537319
0.03417087
-0.07132526
-0.01401101
0.03431503
0.13644530
-0.00219306
-0.11246497
-0.06599286
-0.02074973
0.07284430
-0.03881154
-0.00020826
0.04402789
-0.00403546
0.09143168
0.00899508
0.18357362
0.00633251
-0.16743532
0.03802314
-0.11006008
-0.03574089
-0.06742814
0.10270213
-0.07935174
-0.03410053
-0.06475979
-0.05371682
0.00272915
-0.02491543
-0.12315471
0.09248479
-0.03636795
0.01195704
0.16112670
-0.07363389
-0.04307319
-0.02114640
-0.00945460
-0.08254943
-0.11547282
-0.14220433
-0.01259810
-0.11466538
-0.01369716
-0.05515937
-0.13787323
0.02033743
-0.11008342
0.03818337
0.02587416
0.15255545
-0.01672617
-0.00523292
0.06505563
-0.04593531
-0.01445651
-0.01322716
-0.01885100
0.01822673
0.02584177
0.03973620
0.01534297
-0.05194406
0.15902443
-0.11157740
-0.08931502
0.01688900
-0.04826149
-0.08583938
-0.13497083
0.13104001
0.18831649
-0.06337544
-0.10366836
-0.23482662
-0.09306622
0.05213268
0.02127780
0.02005627
-0.04420313
0.01167289
0.09085372
-0.03307927
-0.05386368
0.12363216
0.00839095
-0.08560195
-0.08480208
-0.00782278
0.01881202
-0.16406360
-0.01199917
-0.03247916
0.04014955
-0.06174530
0.02190025
0.03207469
-0.05303053
-1.35185277
0.04527528
-0.13271199
-0.09925476
0.17037626
-0.01079749
-0.05805785
-0.05419533
-0.04992623
0.00279399
-0.01495087
-0.09311363
0.00760076
0.18351024
-0.00030525
-0.19924845
0.03340748
-0.18053181
-0.02717449
0.34230962
-0.05965459
-0.08332750
-0.03792658
0.01649757
0.00186211
0.13430642
0.03668517
-0.02591307
-0.14159313
-0.01774355
-0.02257736
-0.01031148
0.02078346
0.18784855
-0.07736732
0.03453816
-0.04538229
-0.15723279
-0.02444009
-0.09478022
-0.00406702
-0.24126817
0.00351859
0.01178581
0.21696159
0.02386993
-0.05758796
-0.03302511
-0.09336719
0.05691058
0.02015727
-0.00492316
0.01198353
-0.16780770
0.13453010
-0.00595102
0.07658733
0.09731054
-0.17596307
-0.04150627
-0.11435618
-0.11224750
-0.26970908
0.02198961
0.03984340
-0.11876514
-0.33657271
-0.00651211
-0.05000097
-0.10998192
-0.05851339
0.08066604
-0.01394937
-1.88824427
-0.03572442
-0.09896328
0.12755103
0.00678242
-0.03987936
0.00010719
-0.07241467
-0.14238130
0.00742055
-0.02787236
0.01808798
-0.10840775
-0.06630345
-0.00268504
-0.10157987
-0.15782167
0.01301529
-0.02070094
0.05168205
-0.03577936
0.04622930
-0.02778343
-0.04733691
0.04316261
-0.01879181
-0.04737975
0.03777515
-0.03471157
0.02071233
-0.04243094
0.04461467
-0.01326306
-0.06106471
0.01830809
0.10894326
0.04841089
0.07195674
-0.00255740
-0.00386877
0.02594301
-0.00080191
-0.12299453
0.08449967
0.04168770
0.03119613
-0.14634930
-0.04833541
-0.05266799
-0.07693870
-0.13775995
0.01355659
0.01172839
-0.13532880
-0.01227992
-0.00756291
0.08603591
-0.06322422
-0.13935883
0.11772311
0.10219195
0.03604983
-0.04738845
-0.03922782
-0.47155479
-0.08087658
0.01041704
-0.00381245
-0.08358932
0.04305813
-0.00422121
0.16073523
-0.00472200
0.08830555
0.03835282
-0.03605362
0.04218655
-0.18428390
-0.16663547
0.02429012
-0.06388097
0.03962860
0.13917881
0.24553519
-0.02831415
0.07189900
-0.14618918
0.08341984
-0.10802483
-0.05624394
-0.09395599
-0.05735978
0.05489620
-0.06040672
-0.13418165
0.01484243
0.02985360
-0.18958619
0.02756924
-0.01609058
-0.04372519
-0.07662044
0.05164274
-0.06308432
-0.09369333
-0.11569162
0.17146879
-0.06838378
-0.09898918
-0.05108561
0.02357412
0.07091982
-0.03680819
-0.02974739
-0.10389376
-0.04390277
-0.04160140
-0.01526589
0.06385166
0.01353955
-0.06863807
-0.09376819
-0.16717994
0.01629103
-0.04055095
-0.14423561
0.06567837
-0.04795491
-0.06943094
-0.01390340
0.02852992
0.02679825
-0.14506529
-0.00471983
0.12424801
-0.17171638
-0.06425732
-0.15402877
-0.08709960
-0.12366533
0.06840927
-0.07626551
-0.00507167
-0.07636094
-0.09636784
0.25284886
-0.08657347
-0.02014867
-0.07106049
0.05251730
-0.01944666
-0.09196039
0.01618863
0.08771242
-0.04804893
-0.01360944
0.00420407
-0.03217437
-0.31705481
0.02515356
0.01825663
-0.03619241
-0.08704668
-0.10796088
-0.19390161
0.05736979
0.06219461
0.08313507
0.03059019
-0.05765858
-0.09890372
0.06288072
0.11209602
0.04443677
-0.05928408
-0.02764016
0.10430750
-0.00163582
-0.13347524
-0.04813170
-0.06310016
0.12589581
-0.07096152
-0.13741182
0.02888551
-0.07948352
0.08587300
-0.03607534
0.05671440
-0.15956292
0.08121903
0.13645911
-0.07173287
-0.01888421
-0.03885085
-0.03416355
-0.18835333
0.06984793
-0.07898703
-0.05882322
0.00029579
-0.07808820
0.07756433
-0.04061393
-0.04439373
0.07358028
-0.10565715
-0.20272844
0.01049185
-0.05264902
-0.04417345
0.01366275
-0.25470063
-0.05737419
0.03652779
-0.07286179
-0.02704334
0.12218640
0.04991416
0.01407966
-0.01323001
-0.06967221
0.09654545
0.12142912
0.05838689
0.00177935
-0.04323696
-0.11499538
0.00567380
0.09733576
-0.08343374
0.02683595
0.02881064
0.04483906
-0.17246497
-0.10575987
-0.04385476
0.02408504
-0.17765673
0.24535663
0.10512298
-0.04288822
-0.02765073
0.05086599
-0.03959358
0.06449376
-0.09526329
-0.00593768
0.07331824
0.08931192
0.01172519
0.04801820
0.14510481
-0.05428149
0.03741822
0.06733392
0.21349676
0.05832397
0.03818261
-0.05245347
0.04454055
-0.10044341
-0.14028583
0.11754660
-0.15505973
0.03989278
0.18505687
0.04371880
0.00615617
0.11691356
0.02760604
0.07975671
0.02394389
0.04943907
-0.03650097
0.11475310
0.16197880
-0.00640391
-0.04178900
0.07786036
0.02387499
0.13141868
-0.03678535
0.04556147
-0.02279959
0.00526396
0.18383436
0.05250553
0.02302936
0.14713864
-0.04363594
-0.03608581
-0.06314302
0.08609025
-0.08014757
0.09630501
-0.09780972
0.08458813
-0.05347968
0.07302317
-0.04423489
0.05134435
-0.09046179
0.00884719
-0.05441526
0.01882162
0.05692332
-0.04910522
-0.03949809
-0.15763447
-0.13851696
-0.01906492
0.01347436
0.04805870
0.00217373
-0.05992447
-0.13221674
-0.01402595
0.00571852
0.09940659
-0.01988470
-0.05777555
-0.01054200
0.08220783
0.01682756
0.12330372
0.04337743
0.00310119
0.08309939
-0.16454196
0.05955372
-0.00377075
0.03835406
-0.02711303
-0.02585185
-0.27193269
-0.03743875
0.02959253
0.04575649
-0.91690332
0.00252541
0.00479526
0.04198425
0.03300665
-0.15653394
-0.17536658
-0.17379922
-0.11139382
-0.09165125
-0.05639973
-0.03423524
-0.09486885
0.02264404
0.09213387
-0.05079005
-0.08498506
-0.03964235
-0.12687653
0.07265991
-0.06118619
0.01084901
-0.13755055
-0.14401825
-0.05796880
0.06868346
-0.05235793
-0.10331572
0.05813125
0.08869673
-0.05710552
-0.05754607
0.09322709
0.08725410
-0.03623749
-0.14733617
-0.24489857
0.06961844
-0.11067057
-0.02381937
0.10976201
-0.06561656
0.00111340
-0.11837089
-0.02461203
-0.08120789
-0.04650853
-0.05425278
