-0.00513453
0.00833192
0.00377466
0.00929039
-0.00417898
-0.00803390
0.00357637
0.00527924
-0.00333669
0.00376491
-0.01504944
-0.00020084
0.00054292
0.01006052
-0.00374670
0.00307919
-0.00561742
-0.00585326
0.00314375
-0.00369067
-0.00368295
-0.00948799
-0.00884630
0.00937533
-0.00083287
-0.00001005
0.00732114
-0.00126017
-0.00735721
-0.00070291
0.01213579
0.00522419
0.00071203
-0.00110540
-0.01015927
0.00168914
-0.00645821
0.00450286
-0.00083678
-0.01369409
-0.00067924
-0.00149906
-0.00569011
-0.00049585
-0.00519440
-0.00523569
0.00024640
-0.00133422
0.00678110
0.00416712
0.00626939
0.01114431
-0.00964426
0.01259531
-0.00090557
-0.00647183
-0.00045629
0.00741953
0.00629648
-0.00312073
0.00391398
0.01270660
-0.00665668
0.00230575
-0.00658546
0.00361029
-0.00895853
-0.00202329
-0.00115557
0.00737879
-0.00196222
0.00834123
-0.00376325
0.00782835
-0.00314150
0.00002968
0.00779618
0.00737147
0.00037279
0.00130315
-0.00502352
0.01276420
0.00064569
0.00303947
0.00241002
0.00066191
-0.00168415
-0.00933446
-0.00375270
0.00146903
0.00478860
-0.00040481
-0.00236977
-0.00252966
0.01677143
0.00613624
-0.00585263
-0.00304926
0.01026306
0.00123787
0.00060026
0.00216498
-0.00469451
0.00128397
0.00836844
-0.00311578
-0.00424737
-0.00537478
0.00847181
-0.00036006
-0.00806536
-0.00242212
0.00205912
-0.00409825
-0.00277320
-0.00177955
-0.00302759
-0.01241423
0.00732635
-0.00901757
0.00026499
0.00329878
-0.00335288
-0.00711245
-0.00437152
0.00163470
-0.00481728
0.00573961
0.00134815
0.00192712
0.00285728
-0.00134328
0.00414528
0.00856718
-0.00332948
-0.00563781
0.00376469
0.00087200
0.00965319
0.00244006
-0.00352148
-0.00424488
-0.00574844
0.00331214
-0.00048577
0.00553900
0.00015332
-0.00423420
0.00823755
0.00670324
-0.00448039
0.00397722
0.00077502
-0.00423905
0.00446507
-0.00069834
0.00591568
0.00253952
-0.00520205
-0.00094462
-0.00402962
0.00136894
-0.00624131
0.00390580
-0.00247305
-0.00392624
0.00660697
-0.00158964
0.00258843
0.00259538
-0.00257472
0.00470300
0.00303827
-0.00990786
-0.00648064
0.00283221
0.00679670
-0.00084746
-0.00277856
-0.00484482
0.00503886
-0.00130555
-0.00030458
0.00199406
-0.00578435
-0.00177531
-0.00296106
0.01109218
0.00409630
0.00261738
-0.00300999
-0.00147285
0.00397480
-0.00917128
0.00102622
-0.00451466
0.00186161
0.01307570
-0.00306427
0.00092479
-0.00103141
0.00745307
0.00055490
0.01411258
-0.00314782
0.00005624
0.00771775
0.00580423
0.00116444
-0.01193814
0.00520579
-0.02105496
0.01082729
0.00312817
0.00106344
0.00222564
-0.00525991
0.01363133
0.00253468
-0.00233311
-0.00374943
0.00311131
-0.00254131
-0.00326333
0.00063555
-0.00529132
-0.00623833
0.01254039
-0.00632641
-0.00791072
-0.00669780
0.01981274
0.00967833
-0.00409487
0.00329806
0.00158480
-0.00046569
-0.02412300
0.00760072
-0.00660788
0.01494669
0.00438636
-0.00250179
-0.00593229
-0.00032282
0.00084738
-0.00301748
-0.00691332
0.00296888
0.00017117
-0.01288999
0.00561426
-0.00951783
0.00230900
0.00033116
-0.01691587
0.00118272
-0.00218890
-0.00633654
0.00777824
0.00806659
0.00451074
-0.01257029
0.00013393
-0.00766900
-0.00202351
0.00698581
0.00888739
0.00131914
-0.00299110
0.00228153
0.00077903
0.00719130
0.00481999
-0.00144688
-0.00542140
-0.00341589
-0.00547327
0.00700016
0.00364997
-0.00147398
0.00430174
0.00007692
0.00612085
-0.00109693
-0.00504105
0.00860190
-0.00194780
0.00413250
-0.00366189
0.00426075
-0.00024288
0.00595549
0.01019849
-0.00399855
0.00054360
0.00232196
0.00374510
0.00559857
-0.00478821
-0.00396185
-0.00549603
-0.00396234
0.00428160
-0.00325701
0.00150506
-0.00109008
0.00746798
-0.00108512
0.00240701
0.00732572
-0.00283475
0.00294455
0.00244827
-0.00385290
0.00145175
-0.00426646
0.00182722
0.00622849
-0.00702354
0.00283344
0.00179283
-0.00499639
0.00546114
0.00158360
-0.00278970
0.00201226
-0.00042406
-0.00060234
0.00714407
0.00338011
-0.00720157
0.00467655
0.01126238
0.00802253
-0.00142817
-0.00606874
-0.00124731
0.00159980
-0.00196493
0.00253785
0.00424928
0.00249666
-0.00323974
0.00516922
0.00041034
-0.00033325
-0.00077018
-0.00190151
-0.01827997
0.00175448
0.00530773
0.00303275
-0.00600766
-0.00489423
0.00352035
0.00026110
-0.00146619
0.00451155
0.00380641
-0.00429197
0.00809822
-0.00273944
-0.00358696
0.00040168
-0.00138525
0.00477806
0.00170620
0.00328818
0.00690529
0.00364760
-0.00347471
-0.00345240
-0.00452840
0.00281896
0.00370361
-0.00166159
-0.01617860
0.00125464
-0.00418246
-0.00600994
0.00316815
0.00542488
0.00391775
0.00517580
0.00521690
0.00621422
-0.01219568
-0.00484158
0.01343613
0.00076226
0.00101865
-0.01626159
0.01141281
-0.00290294
0.00132786
-0.00797412
0.01554163
0.01320133
0.00779256
0.00261038
-0.00497731
-0.00060181
-0.00549566
0.00120447
-0.00775846
-0.00292215
0.01094746
0.01215550
0.00880720
0.00273553
0.00440948
0.00344145
0.00870416
-0.01637412
-0.00104326
-0.00633336
-0.00000767
-0.00365626
-0.00286354
0.00246180
0.00487925
-0.00954984
-0.00187029
-0.00933782
-0.00055640
0.01209971
-0.00169412
-0.00452874
0.00240212
0.00357037
-0.00024452
0.00094979
0.01797680
0.01125454
-0.01410965
0.00933708
0.00059469
-0.00108167
-0.00191494
-0.00995840
-0.00642316
0.00832889
-0.00527242
-0.00921552
-0.00789754
-0.00512118
-0.00491103
0.00366423
0.00534958
-0.00463888
0.01061163
-0.01399071
0.01398867
0.00508224
0.00474356
-0.01419356
0.00211492
0.00563061
0.00760122
-0.00722663
0.00641439
-0.00018489
-0.00089579
-0.01505675
-0.00062998
-0.01080298
-0.00807535
-0.00016453
-0.00531486
-0.00107993
0.00796271
0.00999975
-0.00996766
0.00357900
-0.00136270
0.00111827
0.00345722
-0.00198834
-0.00017172
-0.00868443
-0.01363276
0.00309956
-0.00887757
0.00858302
0.00354746
0.01093440
-0.00152401
0.00192502
-0.00743062
0.00438630
0.00378199
0.00151403
0.00668686
0.00293971
0.00622096
0.03233482
0.00021509
-0.00252100
-0.00241443
-0.01001191
-0.00955143
0.00162201
0.01053033
0.01499668
-0.00440957
-0.00109480
0.00106555
0.00185425
-0.00772545
-0.00248992
0.00816172
0.00942116
-0.00748263
-0.02026680
-0.00037790
-0.00062842
-0.00350795
0.00457655
0.00379662
-0.00465862
0.00143458
-0.01085071
0.01014470
0.00720918
0.01215555
0.00659047
-0.01101454
0.00396385
0.00187099
-0.00286788
0.00345292
0.00137400
-0.02349353
-0.01447628
-0.00174058
0.00131715
-0.00260071
-0.00937387
0.00863971
-0.01038388
0.00842611
0.00347892
0.00809598
-0.00259252
-0.00795257
0.00966424
-0.02021491
0.00201631
-0.00404564
-0.00166340
0.00611042
0.01879158
-0.00578122
0.00304904
-0.02476436
-0.00439750
-0.01558334
0.00461201
0.01290488
0.01669371
-0.00035412
0.00289385
0.00630068
0.00343289
-0.01074976
0.00543525
-0.01042744
-0.00299668
-0.00391222
0.00216299
-0.01254342
-0.00484369
-0.00064297
0.01259676
0.00358149
0.00346761
-0.00988847
-0.00360455
-0.00086465
-0.00669468
0.00478566
-0.00116449
0.01258576
-0.00434017
-0.00547002
-0.00682634
-0.00787014
-0.00125980
-0.00116579
0.00525567
0.00625828
0.00276856
-0.00167761
0.00185480
-0.01135891
0.00130266
-0.00048395
-0.00384549
-0.00196137
0.00422805
-0.00159679
-0.00164301
0.00358338
0.00243283
0.00347296
0.00026287
0.00769933
-0.00348394
0.00813898
-0.00972757
-0.00479052
-0.00040262
0.00758209
-0.00134486
0.00754658
-0.00140850
-0.00748233
0.00289994
-0.00781193
-0.00059161
0.00220579
0.00497273
0.00746448
-0.00243110
0.00277593
-0.01041139
0.00297130
0.00125069
0.00221410
0.00645584
0.00263288
0.00506464
-0.00440981
-0.00823508
-0.00090623
0.00021739
0.00756933
0.00237982
-0.00846369
0.00952768
-0.00216497
-0.00179427
-0.00775772
-0.00157717
-0.00578324
-0.00849518
-0.00077911
-0.00238563
0.00077488
-0.00172385
-0.00149009
0.00404986
0.00139858
0.00401314
-0.01454369
0.00707764
-0.00605399
-0.00232156
0.00741911
0.00281426
-0.00227817
-0.00895701
0.00078961
-0.00620276
-0.00163495
-0.00445771
0.00764929
-0.00444967
-0.00493260
0.00925419
-0.00313943
0.00590026
-0.00314037
0.00254312
0.00216305
0.00216462
-0.00785065
0.01262583
0.00364706
0.00057285
-0.00452957
0.00481592
-0.00098331
0.00725759
0.00267212
0.00644000
0.00653333
0.00374288
0.00447699
-0.00155417
0.00454494
0.00224430
0.00358773
-0.01013080
-0.00533499
0.01049799
0.00328437
-0.01133657
0.00646748
-0.00701699
0.00538925
-0.00431324
0.00537136
-0.00350271
0.00674661
0.00032510
-0.00849503
0.00646479
0.00053522
0.00593726
0.00125618
-0.00311587
0.00069510
0.00937880
0.00787424
0.00143134
0.00565130
0.00988353
-0.00536206
0.00686837
0.00793266
0.00182768
0.00445549
0.00854555
-0.01051520
-0.00875586
-0.00853407
0.00493500
0.00044604
-0.00069660
-0.00446010
0.00473242
0.00881795
-0.00312985
0.00094722
-0.00615402
0.00040338
0.00504246
0.00285121
-0.01171770
0.00057204
0.00436978
-0.00977423
-0.00254049
-0.00077289
-0.00417292
0.00139054
0.00203087
-0.01165431
0.00286306
0.00830585
-0.00255856
-0.00403499
-0.01367182
0.00353872
0.00106610
-0.00061022
-0.01452547
-0.00830223
-0.00344164
-0.01173056
-0.01269919
0.01182576
-0.00237563
0.00463811
-0.00645201
0.00039097
