-0.14582030
0.40693718
-0.32768321
-0.02850581
-0.26055601
-0.01041337
0.28313217
0.28971672
-0.08597611
0.39885175
-0.46424913
0.24597612
-0.00153510
0.16405264
-0.16521525
0.11451662
-0.16674045
-0.19641784
-0.47446814
0.01361443
-0.32412893
-0.20649703
-0.29876250
-0.75588942
-0.25167626
-0.48241445
0.32230037
0.47248819
-0.42927653
-0.23473871
0.16105457
0.41408139
0.04817988
-0.16813256
0.31308001
0.03215544
0.35129181
0.21783906
0.39964598
-0.21015342
0.09941406
0.05233564
0.10838323
0.12105764
-0.19356875
0.03118727
0.40021807
0.38020724
-0.04416864
-0.07324413
0.27663609
-0.06396473
-0.12420982
0.25130016
-0.14124618
0.00324787
-0.34941852
0.06181895
-0.04226048
0.27510995
-0.43168572
0.38427320
0.35334766
0.09107543
-0.20929229
-0.30022296
0.44109040
0.01557515
0.26714000
-0.21499668
-0.35237139
-0.24713740
0.12684359
-0.05340085
-0.07688371
0.29006460
-0.03896394
-0.04073599
-0.09443312
-0.19112548
-0.28421384
-0.15759595
-0.12071968
0.27720693
-0.46566704
0.08490778
-0.04448090
0.25889957
0.29923543
-0.21248035
-0.03194213
-0.32168445
0.03950782
0.12477739
-0.04745616
-0.13776486
0.01044179
0.60415345
0.05555267
0.33933437
-0.10789067
-0.29902485
0.13920802
0.14239846
0.10483093
0.02915215
-0.02072740
-0.28136092
0.36432579
-0.00031006
0.18518312
0.57831234
-0.13158686
-0.05628132
-0.34621012
-0.13025099
0.13986185
-0.03882252
-0.24723820
-0.17181894
-0.27026138
-0.11091103
-0.24963896
0.05604146
0.06456683
-0.01122965
0.30421004
0.00282147
0.27280468
-0.10923646
-0.05986962
-0.06319180
0.19348723
-0.09591120
0.05313114
-0.07107524
0.16864033
0.09745250
0.06813903
-0.08955689
-0.00628286
0.10728036
0.08479604
-0.06100677
-0.09966931
0.09567566
-0.02823580
0.18462265
0.10937920
-0.03502945
0.01074534
0.04260563
0.07516956
-0.19008121
0.00505012
0.09737245
-0.15449455
0.09610196
-0.17122522
-0.00333108
0.03745033
0.10538193
-0.24966325
-0.06814026
0.04993667
0.05814467
-0.44534308
-0.18472828
-0.01149411
-0.08781227
-0.12175670
0.18613514
0.00125704
-0.09453937
-0.01689363
0.08463681
0.04779300
0.06454590
-0.07724229
-0.27565533
0.08462787
-0.00204002
0.03722451
0.31220406
-0.04231062
0.02502197
-0.10549733
-0.35266936
0.09178933
0.13901481
-0.00125338
-0.00722275
0.07930887
-0.02446190
-0.11803608
-0.08097275
0.00893665
0.04174601
-0.18105811
0.25266260
0.01138912
0.13652368
0.23754819
0.28172621
0.06250815
0.00338910
0.05286104
0.03071139
0.08871681
0.29176465
-0.00145640
0.04297918
0.06530879
-0.08442369
0.27077207
-0.00397041
-0.09411562
-0.21978123
-0.14471982
0.41515806
0.05763312
-0.06661809
0.16543016
0.06936856
-0.12614517
-0.12240301
-0.17619361
0.05630168
-0.07420565
-0.07723434
-0.15883794
-0.08660569
0.04901694
0.11710235
-0.17921056
-0.09214790
0.01070546
0.06485199
0.28299689
0.01997508
0.46050814
0.14557359
-0.04163294
-0.11971835
-0.21682866
-0.14588478
0.08516940
-0.07939597
0.07123712
0.24574307
0.01224132
0.03537954
0.16677530
0.10548603
0.07084761
-0.03130055
-0.11966719
0.14924434
-0.29176736
-0.18259698
-0.09497143
-0.07809021
0.27827510
-0.01982724
-0.13466997
0.27613419
0.15547428
0.32219353
0.14587970
0.09669636
-0.05635430
-0.32492211
-0.42310894
0.73457426
-0.02751687
-0.05475697
0.11577047
0.39905000
0.30226088
-0.08452208
0.28178987
0.03640582
0.17591874
-0.12905397
-0.28725657
-0.12003906
-0.25554457
0.25009370
0.26319796
-0.04795075
-0.12653202
0.22781363
0.47705641
0.41032913
0.12325932
0.08769076
0.13157429
-0.16361563
0.17578058
-0.11105037
0.11611295
-0.11762239
-0.01763521
0.09645055
0.23193103
0.33189988
0.06098500
0.09189358
0.16562371
-0.14439866
0.13497572
0.23187229
0.08333526
-0.08829856
0.02774948
-0.16099037
0.08526233
-0.20714812
-0.19854926
-0.02969644
-0.02421489
0.04326654
-0.02635910
-0.12084628
0.00001379
0.15579630
0.09429807
-0.04495789
-0.08117858
-0.14348029
0.26756296
0.16723743
0.07771685
0.03260058
0.00857503
0.07384866
0.21129133
0.17785138
0.07003114
-0.02934497
-0.06924681
0.07931374
0.10622252
0.10072546
0.07090370
0.10189930
-0.00798031
0.11721566
-0.22814833
-0.39533484
0.07415409
-0.18846597
-0.03072896
0.30259082
-0.09806159
0.06403881
-0.31331626
0.04683555
-0.20558889
0.11133884
-0.12732121
-0.03632414
-0.08879086
0.08475193
-0.05159492
-0.05198851
-0.06546328
-0.04942556
0.02981411
-0.05514411
0.05202992
0.01206010
-0.06752522
-0.03651498
0.14934339
-0.06101592
-0.03305880
-0.06227924
0.01921803
-0.05048478
-0.00139457
-0.11917190
0.08394851
-0.11994708
-0.20930196
0.29905328
-0.38748500
0.07838727
-0.00471845
-0.08705914
-0.00835040
0.30856603
0.19092807
0.00947791
-0.18429920
-0.01000962
0.37098119
-0.21966746
-0.26219708
0.38455164
0.20200613
-0.29072374
-0.20336016
-0.27951905
0.04716085
-0.13158326
0.00150834
-0.00010842
0.59068114
0.27134731
-0.17719720
0.05167606
-0.01400661
0.15531698
0.07156724
0.15628293
0.37284854
-0.16921811
-0.24121402
-0.19871303
0.22490075
-0.26087686
-0.70666951
0.10250200
0.04306755
-0.06665928
-0.16365620
-0.09562504
-0.45841873
0.16762383
0.08469562
-0.70202029
0.16345075
0.17178442
0.05165733
-0.10465559
-0.27279252
-0.08634802
0.04056346
0.14628242
0.28815192
-0.11244977
0.33840346
-0.03567679
0.12849271
0.02964973
-0.49959785
-0.26109976
-0.03063225
0.24986795
-0.16272268
0.03902479
-0.07232003
-0.19276372
-0.32230902
0.28846264
0.12492122
0.50641912
0.50685495
0.04364068
0.42653656
-0.23809493
-0.04443256
0.28839421
-0.31083626
-0.01338538
0.30279657
-0.01460483
-0.02299875
0.17406191
0.15910828
0.04161892
-0.23986162
0.30671442
-0.26162815
0.09676178
-0.43712151
-0.22370899
0.42381015
0.16648526
-0.28249002
-0.31552517
-0.13204883
0.28991681
-0.15808907
-0.15000205
-0.04025309
-0.08511182
-0.11958057
0.23627692
0.07369768
-0.06151684
-0.06904395
-0.29148617
-0.15428391
-0.14773309
-0.29820773
0.18093759
0.16578352
0.14836025
-0.05449899
-0.15076457
0.13842167
0.20389289
-0.35332572
0.31799182
0.29378253
-0.02526873
-0.34184912
0.28930262
-0.10778543
-0.22873053
-0.01972429
-0.01119315
-0.03633612
0.01914083
0.01812612
0.01320659
-0.01512856
-0.02840362
-0.01973418
-0.03086034
0.07164899
0.01568526
0.03463549
-0.03220659
0.02726733
0.00071345
-0.05573752
0.06141330
0.02741696
0.05170957
-0.11421680
0.00980210
0.06475276
-0.00772803
-0.06224626
-0.06062615
0.02499386
-0.02986931
-0.17459460
0.07547985
0.04660038
0.06200815
-0.00967359
0.08507562
0.00318310
-0.09925483
-0.05586072
0.10910648
0.01440948
-0.00321042
0.05156992
-0.03733480
-0.00812301
-0.00591936
-0.03023929
0.01242724
0.03966452
0.02470330
0.05526133
0.02292855
0.10651069
0.00239339
0.00200949
-0.01802203
0.03163755
0.02735587
0.01749177
0.01221187
0.00728654
0.04926169
-0.01762415
0.07168692
0.05314413
0.06614797
-0.12667435
-0.19845730
0.08542112
-0.17778720
0.39813420
-0.00661904
0.76481909
-0.16885830
0.09387649
-0.19615407
-0.10452629
-0.17001626
0.06539626
-0.29709753
0.35354868
0.14091820
0.04942549
0.12058409
0.03802466
-0.11804710
-0.47949979
0.04546900
-0.02747969
0.21855901
-0.05424601
-0.17722428
0.48338553
0.21828593
0.15096115
0.00410947
0.06490200
0.14747366
-0.04838751
-0.00883811
-0.28242245
-0.57471532
-0.09267227
-0.14609349
-0.38776112
0.23585479
-0.05953449
-0.11144517
0.13423960
-0.03745341
-0.14076822
-0.04484830
-0.13346364
-0.00814296
0.02654110
-0.02746068
0.00559495
-0.38703847
0.17608219
0.21452647
0.31508470
0.12502620
-0.00794470
0.06737919
-0.55651522
0.15238254
0.51892591
0.12263392
-0.03447666
-0.36407214
-0.07277063
-0.13919386
0.14690009
-0.05402742
-0.16350614
-0.00821264
0.12132666
0.20558028
0.33720136
-0.08929785
-0.06437217
0.17892453
0.15882455
0.02046957
0.03268603
-0.00442089
-0.09034614
0.03116348
0.09256980
-0.14891145
-0.19469182
-0.03074628
-0.43571806
-0.19139075
0.08148160
0.26242632
-0.22628908
-0.12462940
-0.00919680
-0.01268172
0.00234336
0.05192799
0.16412108
0.14076626
0.09226103
-0.02706448
-0.13248302
-0.16583507
0.00886885
0.16576505
0.03179555
0.11600021
0.08889341
-0.00705898
-0.07818283
-0.11935391
0.01194875
0.02045433
0.23132928
0.05090156
0.41193986
-0.07769120
0.19252948
0.21510227
-0.35178864
0.20442194
0.05035768
0.21881901
0.02873979
-0.42404583
-0.00904663
-0.12103659
-0.04676737
0.18321358
-0.01732490
0.00886433
0.03527878
-0.09928750
0.09647358
0.00967663
0.05824283
0.13105281
-0.03932934
0.02043237
0.09989591
0.00425842
-0.07156270
-0.00140625
-0.11508972
-0.00132424
0.06939452
0.10780321
-0.03243630
0.00471803
0.14238480
0.02717863
0.01971059
-0.06985064
0.00342501
-0.01846621
0.06936279
0.07164906
-0.07326118
-0.03294782
-0.00730527
-0.09119084
0.11305242
0.01257467
0.14318760
-0.05387097
0.00620247
0.06158342
0.03917887
0.08011069
-0.13759497
0.05500041
0.01002881
-0.08376289
-0.02133245
-0.06288494
0.02339634
0.02371662
-0.10051785
0.02938278
-0.00216310
0.03652023
-0.04606279
0.08715136
-0.07534490
-0.03989742
-0.03399868
-0.12175620
0.07135137
0.09339533
0.04782795
-0.00638196
-0.05802703
-0.01712931
