-0.04275668
-0.02605176
0.00589301
0.00189506
0.04922230
-0.02569369
-0.04060825
0.00670601
0.00312298
0.00372942
-0.00781671
0.01742049
-0.00935123
-0.02350887
-0.01084083
-0.00447672
0.01632563
-0.03359557
-0.04033377
-0.02180353
-0.00255485
-0.04220452
-0.08210968
0.02387582
-0.06057549
-0.01181461
-0.02190171
-0.01738792
-0.00500643
-0.00781585
-0.00593017
-0.01245165
0.02440314
-0.03245172
0.02819436
-0.03415463
0.01924923
-0.02335256
0.03870546
-0.01300522
0.05722146
-0.03307325
0.03395065
0.01747565
-0.00180831
-0.02290824
-0.02079481
0.01532538
-0.03514334
0.05475070
-0.02070438
0.04455643
0.02189908
-0.04490944
0.04367982
-0.00166547
-0.01570998
0.01124080
0.03185520
0.04836955
0.00319937
-0.01985326
-0.02008878
0.02918201
0.02997611
-0.06326161
-0.00073473
-0.00073358
-0.02403948
-0.03616722
0.01994945
0.06128747
0.00786316
-0.00967712
0.02136105
0.01510087
-0.01506713
0.00680323
0.00795748
0.00744864
-0.00709480
-0.01399615
0.01820061
0.03539895
-0.00171982
-0.00258906
-0.01065365
0.04560105
0.01965369
0.02754624
0.01274941
0.00198820
-0.00997906
-0.01091179
-0.01070960
0.02741091
0.00400885
0.00939564
-0.06000635
0.00452839
-0.04178734
0.03378628
-0.02046462
0.02283084
-0.00431232
0.02788628
0.00948428
-0.02610133
0.01912907
-0.01904961
-0.01406682
-0.01586730
-0.02055379
-0.01524391
0.01976911
-0.00045407
-0.00830430
-0.00733945
-0.01504983
0.01301642
0.00331925
0.00951654
0.02068222
0.02088300
-0.02133175
0.02061266
0.02301713
-0.01220529
0.00525173
-0.04583150
-0.03235313
0.01299870
-0.02040353
0.00802096
-0.01065403
-0.00845877
-0.00236846
0.02229728
-0.03155128
-0.01501305
-0.00086977
-0.00339371
0.02584071
0.00747073
-0.02553643
0.01966285
0.02193419
0.02119771
0.01581138
-0.02823698
-0.00775250
-0.01009539
-0.01892798
-0.01353114
0.01067299
0.02164307
0.01566761
0.01009560
0.02358587
0.02409968
0.00109013
-0.00929211
-0.00282222
0.02031772
0.01552675
0.04003463
-0.00881973
0.01752244
0.00708113
-0.02711412
-0.03081189
-0.03306001
0.02680759
0.00874146
0.03475035
0.02431479
-0.03536962
-0.03641917
-0.00759679
-0.00416879
0.01153683
0.01520186
-0.00964389
-0.00676756
0.00529993
0.00980741
0.03413284
0.00471379
0.01545977
0.01397975
-0.04851258
-0.01210282
-0.03966538
-0.05777506
0.00015318
-0.02844171
-0.04069972
0.04310545
-0.02155360
-0.05501748
0.02833945
-0.01259743
-0.06097492
0.03192177
0.01973126
0.11463279
-0.04987322
0.01724325
0.00942619
-0.08990099
0.03140646
0.00131853
0.00722543
-0.04304043
0.05202476
-0.06176407
0.08017878
0.07616075
-0.02642543
0.01238218
-0.10295748
-0.02769283
0.01039953
0.01830358
0.00590451
-0.07260247
-0.03709437
0.03787750
-0.00158174
0.10343756
0.05039244
0.05054105
-0.17560920
-0.00712625
-0.08895438
0.00372928
0.04946712
-0.00663561
-0.09528715
0.05708417
0.00431322
0.11869819
-0.11043788
-0.03119799
-0.03574678
0.05197311
0.07319590
0.01063900
-0.06690612
-0.00554905
-0.05748052
-0.00792101
0.00981287
-0.12119778
0.01605420
-0.03847885
-0.00293926
-0.03466921
-0.00358136
-0.01425635
-0.01425463
0.00824765
0.00482656
0.01085736
0.01940325
-0.02073310
0.00013844
-0.02295199
-0.02067836
0.00474119
-0.03661240
0.00196011
0.01814765
0.01842636
0.03904885
0.04732639
-0.03607260
0.03395163
0.02264887
0.01293625
-0.03508204
-0.01540849
0.01516165
0.04207192
-0.00854919
-0.00412495
-0.03745949
0.00311458
0.02051173
0.02410617
-0.01327199
0.01941201
-0.03545765
0.00928073
-0.01337286
0.03997646
0.02504499
0.02968853
-0.02099958
0.00727059
-0.01635111
-0.01105769
0.02195990
0.02722355
-0.01218623
-0.02955612
0.01721110
-0.00445458
0.00956097
-0.00386484
-0.03804693
-0.01752992
-0.00294485
0.00538781
0.00309144
-0.00830409
-0.02245178
-0.03493317
-0.01171892
0.05671822
0.04963359
0.00521970
0.00336025
-0.00799495
0.00350958
0.00752001
-0.01676096
0.01853164
0.01991369
0.02435173
-0.01721752
0.01560333
0.01908115
0.01906428
-0.01358701
0.00898832
-0.00121296
-0.01693946
-0.01063955
-0.01479288
-0.01374558
0.00893936
0.00202943
0.00827494
0.00003632
0.01101557
-0.00306737
-0.02136889
-0.00066269
0.02100229
-0.00829512
-0.01168468
-0.01711973
0.00087004
0.05246542
0.01660272
0.00164451
-0.00409820
-0.02964550
0.02101387
-0.01890658
-0.02513867
0.00523563
-0.00229032
-0.04291827
-0.00945037
-0.01331636
-0.00199398
-0.02352230
0.01238625
0.00488926
0.00216010
0.03059056
0.00745079
0.01089620
-0.00008102
-0.01086437
-0.00509534
0.03672078
-0.02587584
0.02424233
-0.01674723
0.00702795
0.00458684
-0.01079957
-0.00518498
-0.08102037
0.02927708
0.01198353
-0.01314666
-0.06806362
0.03028047
-0.00382854
0.01942389
-0.02449601
-0.00955448
-0.02843192
-0.03147661
0.00302325
0.03751416
0.02242454
0.01848031
0.05605114
0.01307797
0.04440203
0.00022164
-0.00860829
-0.01498227
0.01566987
0.06543250
-0.00115417
0.00582638
-0.00106216
-0.02867789
0.03745874
0.03540219
0.05781879
0.00159281
0.03373931
-0.04250310
-0.04535151
0.04563788
0.06714099
0.06116839
-0.00586742
-0.03606375
0.08779130
0.01964740
0.01747367
0.00484393
-0.02479924
-0.00300604
-0.01307965
0.05601664
-0.02203431
0.04519421
-0.07198156
-0.00725936
0.03148498
-0.01660798
-0.01612815
-0.04873121
-0.01193276
0.01432360
0.05226440
-0.07787840
-0.23724909
-0.03356981
-0.01396689
0.04180304
-0.02359680
-0.02605934
0.00705694
0.02356509
-0.03619923
0.02260511
0.02954470
-0.04570689
0.03504358
-0.00976694
-0.01925937
0.02265779
0.07613589
0.01626205
-0.01860997
-0.01420113
0.00968727
-0.02023321
0.06048391
-0.00937822
-0.07111056
-0.01085587
0.01969745
0.03773010
-0.04245146
0.01869483
-0.00784301
-0.00911006
0.01504401
0.04854441
-0.07535324
-0.01760150
0.02243960
0.02785578
-0.05194488
-0.00292239
-0.00562007
0.04761216
0.01322037
-0.01672512
0.01093533
-0.00457943
0.03776461
-0.00490154
0.01950304
0.04051166
0.04300914
0.00270456
0.02287652
-0.01928267
0.01895681
0.03346490
-0.00625251
0.01202006
-0.01220597
0.05036517
0.03423847
-0.01297077
-0.04749912
-0.00797400
0.01676381
-0.00239929
-0.01690154
0.01757973
-0.00093534
0.03512049
-0.02204919
0.05276301
0.09452598
-0.00241336
0.00599677
-0.00230913
0.02019410
-0.08230360
-0.00589868
0.03591453
-0.00146856
0.02638317
0.03073149
0.00676901
-0.01710000
-0.08758674
-0.15350136
0.02055475
-0.01279406
0.01850554
0.00805368
-0.00680485
0.00915081
0.03027025
0.02377526
-0.04421945
-0.01406370
0.08747149
0.01774779
0.00827732
-0.00095617
0.11746413
-0.00986934
-0.02560002
0.03778378
-0.00732974
-0.00169494
-0.02797511
-0.00513452
0.01953770
0.00302169
0.02392654
-0.00452595
0.02374127
0.01915839
0.02446962
-0.01014190
0.02117657
-0.01002468
0.03491021
-0.00629740
-0.14048970
0.02171630
0.00392271
0.01534627
0.00281766
0.02067072
0.00947802
-0.01254112
0.04442103
0.02028882
-0.06991791
-0.08088421
-0.08420266
-0.02883542
-0.14454313
-0.01581549
0.02920380
-0.11420900
-0.01709696
-0.09849434
-0.02205729
0.05049893
0.05845087
-0.15285173
-0.01490335
0.00429556
-0.05205077
0.04123801
0.09736840
0.01082492
0.02899157
-0.00935671
-0.09777001
0.00722873
0.03583642
0.07923689
0.07202591
0.02981591
-0.04482260
0.02648217
0.02594155
0.00462612
0.25579298
0.03203437
-0.05362315
0.03345042
-0.21681462
-0.06025162
-0.05120000
-0.01143191
-0.00394249
-0.01083235
0.04328510
-0.08310779
-0.04952044
-0.01995519
-0.01288792
-0.02650671
0.06195844
0.05189094
0.07782209
-0.01722444
-0.06837656
-0.07903941
-0.01861983
0.02709302
0.04006702
0.02292845
0.02086537
-0.02109333
-0.00621235
-0.01060325
-0.03236215
-0.02789058
0.00889035
0.02293992
-0.00418939
-0.04925625
0.00983590
0.00115824
0.05362796
-0.00454127
-0.02381498
0.00408237
-0.02552981
-0.00832290
-0.01988689
-0.01356780
0.01917973
0.01057754
0.01492486
0.03599150
-0.01146155
-0.05188058
-0.00088352
-0.01131314
-0.05705412
0.02709920
-0.00451543
0.01390348
0.03732247
-0.03650975
-0.01685529
-0.05973808
0.04198561
-0.00603809
0.03747641
0.01626781
-0.03461204
-0.01104884
0.02431754
0.04955203
-0.01435580
0.03345186
-0.01368990
0.01199075
-0.01086941
-0.04371458
-0.03592422
0.00781710
0.05628812
-0.00211128
0.02581085
-0.05106065
0.00876784
0.06269892
-0.00000618
-0.02150114
0.00315315
-0.00437661
-0.01991001
-0.02239260
0.00975136
0.00674264
-0.01859590
-0.01094203
0.01208450
-0.00112590
0.00142761
-0.00378318
0.02107697
-0.02235401
0.02120456
-0.00193329
-0.00189243
0.01668750
-0.00384487
-0.01392556
-0.00238120
0.01621117
0.01459374
-0.03159507
0.01305023
0.12662579
-0.04475880
-0.00271543
0.06302968
0.00395974
0.01477707
0.03156959
-0.01539314
-0.01999114
0.01585592
-0.01334420
-0.02864538
-0.01020540
0.01863345
0.04019090
-0.05515787
0.01730985
-0.01096237
-0.01763460
-0.00313386
-0.00758212
-0.02328067
0.00955500
-0.00162025
-0.01626577
0.02343923
0.01639515
0.01995327
-0.00373285
0.01742601
0.00966137
-0.08301871
0.01358748
-0.00266846
0.02793699
0.01341439
-0.00652600
0.01090528
-0.01042110
0.00520685
0.01255282
-0.01660689
-0.02684963
-0.01090720
0.01986069
-0.00971497
-0.01615697
-0.01911145
