0.05054792
-0.03010552
-0.00418214
-0.00068495
0.04476019
-0.02275907
-0.00957722
0.01178007
0.04041215
-0.01518218
0.03551309
0.03521542
0.01636739
0.04153475
0.00776814
0.01551098
0.03076945
0.02326227
0.00427558
-0.01736465
-0.00916323
0.00018068
-0.03666385
0.06257782
-0.01146278
0.02640430
0.00582096
0.02045283
0.02124683
-0.01726348
-0.00195004
0.00127049
0.02607208
-0.00397892
-0.01019029
0.00772564
-0.03927397
-0.01192065
0.04475246
-0.03371752
0.01846717
0.02668340
-0.02033382
0.00315519
-0.07183247
-0.05656626
-0.02150830
0.00513489
-0.00287476
0.01908299
0.01030835
0.01498191
0.02014367
-0.04399011
0.02612964
-0.03865212
0.02764577
-0.01297298
0.05092663
-0.01237378
-0.00978773
0.03992536
0.05875019
0.00230943
-0.03864929
-0.03754599
0.03371608
0.00537211
0.01630801
0.01515906
0.05253088
-0.02511585
-0.00605738
0.00213652
-0.00962363
-0.02397852
0.01791984
-0.01270789
0.00832975
0.02356045
-0.02362248
0.01390513
0.00165736
-0.01155894
0.00653773
0.01323460
0.00307381
0.04241110
-0.00421039
-0.02748351
0.00019261
0.00419152
-0.04948347
-0.01882071
-0.04211295
-0.02662340
-0.00307674
-0.03025482
-0.01008173
-0.00469454
-0.00621186
-0.00087731
0.03000685
0.01015425
-0.01770511
-0.01386087
-0.00860998
0.00338641
-0.01456734
-0.02123166
-0.05543350
0.03365642
0.03874894
0.01134409
0.00047610
0.04834526
0.02034319
0.00607538
0.00346601
-0.00782033
-0.00122012
0.01850245
0.02934657
-0.03221258
-0.00868586
0.03711733
-0.00025698
0.04232140
0.01764456
0.00461927
-0.01617030
-0.01068720
0.01540487
-0.00483239
0.00565354
-0.01242482
0.01930405
-0.02015547
0.01365321
0.01557453
0.00501455
0.00498396
0.02029736
-0.05196634
0.02424157
0.00056363
-0.01506496
-0.02135415
0.00079950
-0.00610562
0.01493730
0.00051345
0.02696744
-0.01598846
-0.01603084
-0.01827611
0.01945922
-0.00832342
-0.01997645
0.03228382
-0.00261255
0.00524309
0.00369084
0.01684711
-0.02588501
-0.01451251
-0.00623113
-0.02118100
-0.01120853
0.01268927
-0.00018138
-0.00514354
0.02098026
-0.01790414
-0.04480657
-0.01227696
0.02974376
-0.01471823
0.00080763
0.00540589
0.00411237
-0.02021128
0.00998670
-0.00819511
-0.04635506
-0.00529830
0.01122295
-0.01678123
0.01406488
-0.00372475
0.02197449
0.01241535
0.00816318
0.00161028
-0.02637966
-0.00520038
-0.00965633
0.04468468
0.00856645
0.00747508
-0.01684101
-0.00747019
0.00843541
-0.03462652
-0.01929088
-0.00172589
-0.01266682
0.03617628
0.00862677
0.00777364
0.01023537
-0.00918935
-0.00498191
-0.01047285
0.00047201
-0.00605869
0.00457447
-0.02887320
0.03390082
0.00766114
0.00099062
-0.01367844
0.01659209
0.04107911
-0.04823568
0.00674097
0.01688152
0.00732980
-0.01055906
-0.00344231
-0.01390234
-0.00187141
0.00707161
0.00128021
-0.01514380
0.02150105
0.01911320
0.00283848
0.03008475
0.00202221
0.01070478
0.01392287
-0.02137634
0.01455827
0.02015147
0.01270545
0.02706348
0.02113779
-0.03098876
-0.00484416
0.01427771
-0.02890739
0.00167169
-0.05375481
-0.00781684
-0.00375881
-0.00794357
-0.01894415
0.00356441
-0.01557948
0.01230895
-0.00718545
-0.01330298
-0.00572158
0.00281566
0.01814872
0.01285333
0.00663147
0.01468803
0.02933563
-0.00464667
0.01523958
-0.03080321
-0.02536025
0.02694060
0.00792538
-0.01441072
-0.00928186
0.02508992
-0.01568346
0.00664159
0.02284366
0.00510606
0.01147650
0.00865050
-0.00385324
-0.01110242
0.03389191
-0.01116181
0.00340358
0.01462355
0.02909982
-0.02092909
0.02011840
-0.02471633
0.01602028
-0.01782592
0.02263807
0.00544331
-0.00784864
-0.00544248
0.00149310
0.03251967
-0.02225097
-0.00875015
-0.02719706
0.01695537
-0.00581105
0.02336844
-0.02731540
0.01842427
0.01778547
0.00595119
0.00312170
-0.01088430
0.02521650
0.02663336
0.00906226
-0.02289226
0.00801427
-0.00553408
0.01024230
-0.02224304
-0.01732100
0.00465347
0.01705147
0.01903574
-0.00378165
-0.00549961
0.03308211
-0.03155309
-0.01595700
0.00615915
0.00670571
-0.02815037
-0.03945218
0.05430272
-0.04086885
-0.01330364
0.00126470
0.01272310
0.06864511
0.01994599
-0.00834416
0.01252563
0.01263332
0.00810451
-0.00939493
0.04189079
0.01006213
0.03268342
-0.00831071
0.02679194
-0.00383701
0.01865976
-0.03001454
-0.04957703
0.00537950
0.03076268
0.00514243
-0.00428348
0.02072218
0.02531373
-0.02628734
0.00775400
0.01684850
-0.04056302
-0.02955508
0.01111993
-0.01646185
0.01205483
-0.02275989
0.00232560
0.00827587
0.01307728
-0.03968408
0.03549252
0.02106202
-0.01593025
-0.02647838
0.01139693
0.02551544
0.01213919
0.03290565
0.02378929
0.02815042
-0.00456078
-0.07962736
-0.01622764
-0.00875056
-0.04017981
-0.05085169
-0.02042329
-0.01029208
-0.00060887
-0.04721704
0.01268535
0.06302695
0.02048192
0.00067095
-0.00962457
-0.01264042
0.05745398
0.00325752
0.03556557
0.03428725
0.00882144
-0.01514697
-0.03200086
0.01884374
0.00359231
0.03881124
0.03692665
0.01925725
-0.07931945
0.02179156
0.01777250
0.08123004
-0.02875490
-0.00210642
-0.05796372
-0.01009265
0.05907531
0.00879924
-0.01795835
-0.00288192
-0.04023233
-0.05445458
0.03436673
-0.01633023
0.00453632
-0.07051630
-0.00834072
-0.01692108
-0.03170162
0.02238685
0.07040758
-0.01403151
0.02100591
-0.02166986
-0.03376428
-0.02377414
-0.04450915
-0.02956336
-0.06015165
-0.01983934
0.02623973
0.03450521
0.02534348
-0.01231266
0.04867644
-0.00257969
-0.01623788
0.03016637
-0.00328061
0.02613514
0.00063084
0.01878972
0.00931756
0.01034288
-0.00816136
0.00032594
-0.00570335
0.03928214
0.00868808
0.00687261
0.02247891
-0.01948640
-0.00680958
-0.01328668
-0.00034808
-0.02445522
-0.01485878
-0.03565588
0.03389712
0.04267268
0.02887476
0.01536069
0.03371627
0.00355009
0.03495538
-0.01658763
0.00649449
0.02069957
-0.00491828
-0.00030371
-0.00231862
-0.02939853
-0.00748442
-0.01325151
-0.02374183
-0.00739564
0.00271767
-0.01518795
-0.00736035
0.03510047
-0.04104200
0.03523964
0.04022707
0.00967012
0.03150197
0.02505767
0.00958576
0.00752828
-0.04898630
-0.00413792
0.01104418
0.02454636
0.00843853
-0.00175738
0.04458454
-0.01622127
-0.00500382
-0.00348917
-0.00833040
-0.00733422
0.01159741
0.01605345
0.01316844
0.01262007
-0.00825952
0.01269496
0.00426083
0.00999637
-0.00653827
0.01192478
-0.00777798
0.00425251
0.00485083
0.00403022
0.00197542
0.00094155
-0.01188280
-0.01866542
-0.01441539
0.00023170
-0.01428377
-0.01092628
0.00051908
0.00182509
-0.01349364
-0.01193487
0.00354236
0.00028510
-0.01413331
-0.00661127
0.00782476
-0.01747298
0.01006789
0.00326627
-0.00446089
0.00841572
-0.00144159
-0.01892521
0.00310951
0.01315721
-0.01239985
0.01549908
0.00332022
-0.02137203
-0.00073797
0.03263641
-0.01214838
0.01834723
-0.01154229
-0.01242380
0.00480753
0.00692834
-0.01677091
-0.01046895
-0.00460023
0.01504563
0.00322363
0.01041562
0.00090058
0.02019648
0.03843467
0.09793361
-0.02395140
-0.09585441
-0.03372935
-0.03307646
-0.03673470
0.00037427
0.02441352
0.02825836
0.04611861
0.02307290
0.02738285
-0.05906639
-0.06507155
-0.00442404
0.07335564
-0.04767740
0.04689271
-0.03491610
-0.03988500
0.01447107
-0.08181356
0.04514358
0.00877789
0.04849249
-0.06155062
0.03846977
0.04678388
0.01102717
-0.00025215
0.06692196
0.00289661
-0.01638364
-0.00211104
-0.01860945
-0.02861395
-0.02117780
0.03027869
0.02232836
-0.09931627
-0.08695065
0.07369316
-0.03937422
0.01565588
0.01014917
0.00378629
-0.19749099
-0.02539811
-0.00075379
0.01346308
0.03135095
-0.07337043
0.04359150
0.01834961
-0.01179156
-0.04146694
0.01322126
0.00395698
0.01637394
-0.01374592
-0.03028262
-0.01789065
0.06021148
0.01669166
-0.03383306
0.00016304
0.03121263
-0.01522327
-0.02191437
-0.00231015
0.02878890
-0.03615787
-0.00758242
0.03457094
-0.02317155
-0.01874048
-0.02930320
0.03714895
-0.02442341
-0.01028575
-0.02516958
-0.03229918
0.03186388
-0.07083339
0.01732994
-0.03147244
-0.01414172
0.04953766
0.05136558
-0.00646163
-0.00915685
-0.04733303
-0.01643316
-0.02089334
-0.00802896
-0.04304928
-0.00365680
0.01429680
0.02051749
0.01626017
-0.03627372
0.03996278
0.02078230
0.03048009
0.02250594
0.02696942
0.05184953
-0.00047413
0.04378777
-0.02926009
0.04616565
0.01297386
0.03365497
-0.01477638
-0.03780504
0.02066117
0.00669292
0.04358523
-0.00726880
0.06130091
0.02730557
-0.01924274
0.05164828
-0.01826945
-0.02826794
0.01153807
-0.02534938
0.02486516
-0.02538312
0.01406727
-0.03458536
0.00517757
0.05914582
-0.00733855
-0.01869685
-0.00388585
-0.00299130
-0.01085639
0.05618662
-0.02456672
0.02991788
-0.04041359
-0.01064218
0.00375078
0.00581288
-0.00395170
-0.05017231
0.00601868
-0.01485037
-0.03151941
0.04880017
-0.04962916
0.00358097
-0.02090518
-0.00825510
0.01005603
0.01340219
0.01417652
0.01000983
-0.00473637
-0.03732947
-0.00732293
0.00085520
-0.00021300
-0.00260911
0.01241050
-0.04003046
-0.05415281
0.00943609
0.01443314
-0.04988167
-0.03536731
0.00016901
-0.03880896
0.01284530
0.00700697
0.01273929
0.00810616
-0.02807965
-0.00518231
0.04045044
0.04736640
-0.01517838
-0.05110175
0.01179245
-0.00231580
0.00472489
-0.01277214
-0.01609211
-0.02861828
-0.01110852
