0.00465378
-0.01707774
0.02870429
-0.01092890
0.01995645
-0.04330558
-0.01660524
0.00841786
-0.01457408
0.01355600
0.02592365
0.05236269
0.05062843
-0.03239026
-0.01686220
0.03139066
0.03185278
-0.01222842
-0.00258248
-0.00331300
-0.00133885
0.01821520
-0.01615166
0.01868335
0.00211308
0.00566936
-0.00437275
0.02428839
0.01288310
0.05545740
0.01629434
0.02984906
0.01332978
0.01103522
-0.00660068
0.01912800
-0.05140094
0.02150493
-0.00157097
-0.00950555
-0.04073936
-0.02261958
0.03872120
0.03345073
-0.00661750
0.04046962
-0.00017747
-0.02657074
0.02532861
-0.02899168
0.01815356
0.01437708
0.00042960
0.01337117
0.05162071
-0.02109943
0.00732212
-0.01075195
-0.01327634
0.01966542
0.00631779
0.03301107
-0.04032109
-0.03675710
-0.04106726
-0.01580019
0.00171267
-0.01542640
-0.02687221
0.04279868
0.02442064
-0.00750522
0.00344638
-0.00078293
-0.01210511
-0.00237300
-0.00127621
-0.13705555
0.03066679
-0.01261964
0.03011719
0.05917639
0.00440069
0.02507164
0.03808294
-0.04538880
0.03166604
-0.03951141
-0.00969226
-0.03781320
-0.03134469
-0.02873075
0.05996234
0.02107651
0.03237102
0.04931712
-0.06752293
0.06353243
0.02717986
0.00113688
0.00138956
0.00493535
-0.04187898
0.00631724
-0.00977241
-0.13827498
0.00138190
-0.06424024
0.03668348
-0.01779339
0.02857235
0.02526402
-0.00140573
0.01769204
0.04545227
0.01446661
0.00129572
0.01490376
0.02631340
-0.02947828
-0.02208445
-0.14057124
0.01852887
0.02599077
0.04915719
0.00058889
-0.06215663
0.04076529
0.03728178
0.05866985
-0.03649136
-0.01093701
-0.03169145
-0.01209480
-0.01424562
-0.02449160
-0.04886285
-0.04654279
0.02999615
-0.06423617
-0.01021683
-0.00682985
-0.01914543
0.02967109
-0.00170551
-0.18961588
-0.02916321
0.00659790
-0.04305603
0.04174429
-0.00262957
0.04514630
0.01695698
0.01054775
-0.00655317
-0.03404212
0.01807834
-0.00763739
0.04515539
0.12841828
-0.00604667
0.00067286
0.04130557
-0.01661016
0.03070205
0.02125044
-0.03386215
-0.01114749
0.10379610
0.02575249
-0.00239737
-0.02766540
0.00386048
-0.00615268
0.00850525
0.14971435
-0.04120468
0.02132896
0.00879054
0.04707966
-0.00202474
-0.01999580
-0.00265758
0.00894322
-0.02309963
0.02081171
0.02562511
0.01928027
-0.00359895
0.00540187
-0.02038760
0.04440894
0.04357091
0.01637598
-0.05956127
0.00002843
-0.02670678
-0.01691202
-0.02198416
0.03579164
0.03205193
0.02735966
-0.06940469
0.00798736
0.03358491
-0.01712438
-0.01977501
-0.00510131
0.00418942
-0.01991766
0.01391481
0.02900696
-0.03911510
-0.00744281
-0.03062551
-0.08512204
-0.10925338
0.00356838
-0.08367084
-0.01838881
-0.04923792
-0.00062283
-0.00446463
-0.03160303
0.01628110
-0.12780821
-0.05107908
-0.03874172
-0.01713784
-0.03008553
0.00164782
-0.00000832
0.03841145
-0.00191948
0.03408396
0.01816652
-0.02211857
-0.03683068
0.01541878
-0.01685276
-0.00138714
0.03654580
-0.00395226
-0.01331518
-0.02692264
-0.12666766
-0.02066420
0.04555781
-0.00402608
-0.01491175
-0.01068046
0.03817967
0.01684867
0.03196998
0.01818791
0.04989241
-0.02142360
0.02619660
0.04284720
0.02006724
0.01200789
0.04400495
0.02930819
0.03323600
-0.04938266
0.01255125
0.00491327
0.04678513
-0.05332035
0.02604972
-0.05966584
0.02210861
0.01918006
0.02389924
0.00792228
0.00380264
-0.03884869
-0.02894669
0.00330292
0.02018690
-0.04135475
0.00354931
-0.02280830
-0.06851438
0.00758067
0.00535340
0.03147681
-0.02160482
-0.05846095
0.01759286
-0.00156183
-0.01234132
0.00418274
-0.00947088
0.03209001
-0.05569501
-0.04611744
0.02597055
0.01203286
-0.00487132
-0.00997044
0.00206900
0.02165584
0.00714657
-0.02644407
0.01105524
-0.06118730
-0.00539659
-0.30690223
-0.00888914
-0.01246402
0.03900011
0.00481779
-0.01034419
-0.03275487
0.04161390
0.00864988
0.01873342
-0.01512133
-0.02349081
0.01210818
-0.00515795
0.01246497
-0.01098905
0.01228419
-0.02116802
-0.00301076
-0.01020733
-0.03592973
0.00511042
0.02183386
-0.06891207
0.06224408
-0.02731024
0.01081253
-0.02588688
-0.02810662
0.02588685
0.02558005
-0.00312194
-0.00743699
-0.02418278
-0.03438491
-0.01757882
0.01671109
-0.03836398
-0.02268764
-0.01172593
0.00391974
-0.02819245
0.01865109
0.00425994
0.00930950
-0.04213031
-0.02230302
-0.04944235
0.00295263
-0.01535907
-0.00830976
0.00526924
-0.03457358
-0.01046024
-0.03516515
0.01804266
-0.01865147
-0.01674327
-0.01655635
-0.00953785
0.00201764
0.09141165
-0.03231524
-0.01383456
-0.01169450
-0.00131938
-0.03118021
-0.01350022
-0.01320618
-0.00065605
0.05968719
-0.00433246
-0.00466019
-0.02887715
0.02168434
0.00644350
-0.00705072
-0.01236891
0.00245610
-0.01143252
-0.04000545
0.01184076
0.01662330
-0.01748346
0.02346692
-0.01675600
0.00529516
-0.03498624
-0.02284351
0.01750524
0.02727734
-0.02067528
0.02661841
0.09840929
0.02277176
-0.01962013
-0.01857785
-0.00602266
0.01461083
-0.01697125
-0.01426680
0.00046431
0.06057571
0.01205197
-0.02237494
0.05947560
-0.00804134
-0.05682217
0.01282777
0.06658335
0.00512270
0.05434732
-0.00449988
0.00192659
-0.00617660
0.00786064
0.02090660
0.02065691
0.03021139
-0.02654123
-0.02321086
0.03077994
0.04020326
0.01057706
-0.03569164
0.00725280
0.01198050
-0.02467981
0.00487585
-0.06997949
0.01739131
-0.04582714
0.04141933
-0.02268121
0.00500265
-0.06546158
0.01027649
0.01075424
-0.03060448
0.00602210
0.02670680
-0.01277079
-0.04879139
0.02218032
-0.00089265
-0.00524172
-0.02909299
-0.00435510
0.00307258
0.00385891
-0.04509775
-0.01872455
0.04590078
-0.06091662
-0.00921283
0.02932520
0.01128981
0.02950405
0.00507476
-0.02338462
-0.08498324
0.05195538
-0.00915998
-0.00027356
-0.03583277
-0.01724936
-0.00418542
0.04258902
-0.06816059
-0.03085795
0.02632484
-0.01364676
0.00867240
-0.04213505
0.05902639
-0.02426859
0.02805021
0.01363046
-0.01780764
0.00824578
0.00586305
-0.03222622
-0.01772232
-0.01209277
-0.05487023
-0.01994847
-0.01961638
-0.01839886
-0.03740817
-0.01045337
0.01001218
-0.01640709
0.00450953
0.01064557
0.01917061
0.04670849
0.06251007
-0.00807283
0.04204430
0.00690664
-0.01461186
-0.01370145
-0.05297275
-0.00689113
-0.00059329
0.02291108
0.00238993
0.02878899
-0.02047689
-0.03768959
0.02252327
-0.00316772
0.01829145
0.02907016
0.01713887
0.01811011
-0.04180567
0.02480676
0.00299987
0.01988857
0.01499504
0.05509932
-0.00777868
0.00932916
-0.01632719
-0.02922069
0.03210974
0.01217643
0.00246098
0.06508452
-0.00348729
-0.04324414
0.02849952
-0.17288469
-0.00448621
-0.02962296
0.04235082
0.00458683
0.00366236
-0.02603008
0.02507072
0.03338877
-0.01767603
0.02293727
-0.00727168
-0.00850176
0.00726077
-0.02479337
0.02840569
-0.00223665
-0.01112191
-0.00917906
-0.00598961
-0.02963277
0.01188081
0.02080658
-0.01658818
-0.01042286
0.00987612
-0.00091061
-0.00890345
-0.00638770
0.02211218
0.01463895
-0.01013057
-0.02796027
0.04211148
-0.00127637
-0.02900781
-0.15081151
0.02217520
0.03387917
0.01780033
0.00458150
0.05529091
0.00960924
0.01553682
0.00259820
0.01036188
-0.02273975
-0.02801970
0.00772789
0.02349723
0.03839650
0.01407918
0.05995806
0.00859813
0.02655637
0.00444931
0.04205128
0.04348257
-0.00083221
-0.03999999
0.01655065
-0.03183840
0.06113421
0.00682022
0.04382261
0.00359375
0.03801850
-0.01818628
-0.01525317
-0.01443607
0.01765243
0.01296056
-0.00102190
-0.05146727
0.01906814
-0.01831416
-0.02744236
-0.03170765
-0.02906985
0.02199504
0.02123786
-0.00168507
0.04549921
-0.03156687
0.03969336
0.01151300
0.00243911
0.03062501
0.02435970
0.00530532
-0.00383811
0.01976517
-0.02598930
-0.03685580
0.05177385
-0.00500399
0.03044285
-0.04783697
0.01256045
-0.00703070
-0.01539019
0.00412947
-0.06505782
0.00110344
0.01614156
0.04371276
-0.04372367
0.02586541
0.01972876
0.01222500
0.05363768
-0.04667367
0.06405873
-0.12337960
-0.01748164
0.03705380
0.01202859
-0.00341574
0.01730943
0.01146610
0.00392204
-0.00365725
-0.04833177
0.01874524
-0.01147762
-0.01345355
0.00126825
0.01928888
0.00700202
-0.12000029
-0.04229348
-0.02249873
-0.00071609
0.02947379
-0.01948327
0.05877170
0.03735920
-0.00749407
0.00849724
-0.02728284
0.02467895
0.04602312
0.04125655
-0.01212679
0.07899529
-0.03519489
-0.03597210
-0.01703976
0.00692012
-0.02738054
0.00899630
0.02943969
-0.01388490
-0.00390434
-0.00786276
0.02618678
-0.00780566
0.01779937
-0.03101659
0.01682658
0.01149596
-0.00179825
0.06313587
-0.03892731
0.01437317
0.00536606
0.02541191
-0.01044580
-0.00334464
0.01065132
0.04970498
0.00985769
-0.00024721
-0.00380238
0.02699315
0.01519897
-0.01202462
0.01419639
-0.00247400
-0.00290708
0.01083319
0.00660472
-0.01746718
0.00768366
-0.03177227
0.00611828
-0.00106573
0.03185887
-0.00981250
-0.02011734
0.02096053
0.00132578
0.00515641
0.05390487
-0.01906581
0.00396649
0.03496544
-0.02252631
-0.00824060
0.03365698
0.02912639
0.01291650
0.05044914
0.00391795
-0.01164065
-0.05983726
0.00460140
-0.02881408
-0.01697985
0.01220347
0.01578620
-0.01505960
0.01728998
-0.00938703
-0.02113025
0.01830791
0.01600893
-0.02114001
0.00810066
-0.00777759
-0.00061632
-0.02002890
-0.03317018
-0.03430995
-0.03666832
0.01828345
-0.02920603
