0.25764436
-0.03047785
-0.27655849
-0.38757560
0.36875078
-0.46480146
0.51880890
0.19597478
0.00803503
0.00379428
0.05561048
0.24083251
-0.51599556
0.61926287
0.14171840
-0.16869576
-0.42013091
-0.41907465
0.09102282
0.60632902
0.30142081
-0.50399864
0.35355881
0.28237104
-0.38094479
0.26304373
0.34895521
-0.22522777
-0.23144644
0.04971673
-0.13823451
-0.01273061
0.37776130
-0.23434326
0.11922351
-0.24517563
-0.16862507
0.10524802
0.21477972
-0.45446238
-0.12545878
-0.35366830
-0.09229150
0.14418952
-0.08401666
-0.16194640
-0.22394593
-0.21848302
0.18920743
0.01494819
-0.42163083
0.15797706
0.57162422
-1.07221520
0.20262155
-0.27022839
0.03534336
-0.45837203
0.01311228
-0.27979720
-0.06811327
0.12678465
-0.75441223
-0.57198280
-0.21676214
-0.07642283
0.08085477
0.02976091
0.06023043
-0.19865029
0.10242614
0.03957904
-0.58807689
-0.28925189
0.16068594
0.32347053
0.11433545
0.10134466
0.07959330
-0.09597579
0.04221155
0.01602499
0.14790434
-0.03153420
0.23643926
0.14544141
-0.20438837
0.05180372
0.09879903
0.11107879
-0.01477132
-0.08441916
0.83465427
0.03165773
0.09834097
0.05806517
0.17830986
-0.19333731
-0.02281738
-0.10660505
-0.08326291
0.23617378
-0.03222825
-0.08170619
0.10145447
0.21374370
-0.41830581
-0.07364715
0.32030702
-0.10185521
-0.08750883
0.32134426
-0.79915267
-0.38866445
0.08747225
0.09774646
0.14655711
0.16021906
-0.08103839
0.09094895
-0.19854705
-2.18324208
-0.19048250
0.11731819
0.07279266
-0.03451587
-0.09530542
0.09047301
0.16804889
-0.09747294
-0.05917098
0.31990373
-0.12782291
0.11708432
-0.20172273
-0.32836556
-0.37543422
-0.24707983
-0.37966177
-0.74366981
-0.09838077
0.03934865
-0.16265327
0.18384206
0.20962645
-2.32030749
-0.13380025
-0.25167012
0.09844681
0.20287251
0.15378974
0.21355091
-0.16794170
0.06987973
0.06558356
0.05778022
0.38277346
0.32248491
0.23003246
0.41881356
-0.12690616
0.16608208
0.03448804
0.05617153
0.09072410
0.07518484
-0.00270320
-0.29742956
-1.70537448
-0.13665555
-0.01599858
0.24950960
0.29617846
0.50126165
0.17352290
0.51844597
-0.02709698
0.17406623
0.19542262
0.04603936
-0.12785423
-0.15779324
0.33852708
0.44334781
0.36396503
0.03945756
0.46087399
0.56081170
0.05824573
-0.02176451
-0.31033844
-0.42786613
0.59980571
-0.24448846
-0.19973926
0.05872221
-0.08570116
0.17477666
-0.23112589
0.12685107
-0.09390852
0.47029427
0.24460372
0.37299836
0.01771303
0.17660573
0.48990947
-0.12721489
-0.06621390
-0.12918833
0.05826371
-0.22651166
0.28314805
0.19954434
0.04159842
-0.42435160
-0.22359253
-0.09686418
0.73065680
0.16551276
0.11745887
0.41592938
0.23714931
-0.35061333
0.11550713
0.12613687
-0.10002149
-0.18748461
-0.02046408
0.09047062
0.21120292
-0.07741518
0.23799042
-0.09932821
0.14738014
0.25993940
0.20485839
0.19648442
0.08666990
-0.25242558
-0.26846203
0.05134293
0.03785061
0.31497946
-0.01160315
0.24620251
-0.47964388
0.03861733
-0.15611529
-0.10058666
0.31507811
0.47012308
-0.10263352
-0.04338633
0.00773305
-0.07970361
-0.29204756
-0.23028921
0.15429763
0.02045988
0.25825238
-0.05343490
0.32449251
0.10983284
0.61162645
0.30950037
-0.05760408
0.14826094
0.06744733
0.02233603
0.12145891
-0.07254297
-0.00573005
-0.09481559
-0.24773528
0.16141403
-0.02354397
-0.24680896
-0.04368161
-0.15039258
0.07361905
0.11603791
0.02261420
0.03481080
-0.16630389
-0.38670155
0.01271992
0.14369930
0.14125103
0.07155443
-0.00040404
0.42910743
-0.27025202
0.01311013
0.04794561
-0.10287058
-0.36827576
0.72917950
-0.14022939
-0.19679117
-0.01209104
-0.25687051
-0.00549485
0.17173728
0.45532528
0.28677088
0.08356884
-0.27863473
-4.20500994
-0.25393525
0.09449659
0.42393041
-0.14183940
-0.31965765
0.28960240
-0.20058697
0.07989385
-0.10731128
0.08031324
0.12402600
-0.03922133
-0.01697768
0.10564731
-0.03234744
0.09452876
0.32981569
0.12977870
-0.04098340
-0.08304674
0.14076510
-0.15938252
-0.13262294
-0.23161696
0.18997006
-0.06381292
0.11360554
0.07572138
0.08030479
-0.01439332
0.38587779
-0.01367641
0.21580029
-0.20576453
0.19133756
-0.31446052
0.41713572
-0.04123145
-0.36405680
-0.32461002
-0.41472831
-0.09748946
0.30822918
-0.11327664
0.29106009
-0.16822776
-0.37907979
-0.27982914
-0.17729144
-0.18222715
-0.04868920
0.31288713
-0.16179410
-0.02761194
0.01558156
-0.08682182
0.05973485
-0.04036937
-0.02434336
-0.10851393
0.19154102
-0.35933220
-0.00585957
0.14636968
0.13405050
-0.33247486
-0.11617772
-0.05169901
-0.08498878
-0.08055370
-0.02645351
0.02679087
-0.75784242
0.25953957
-0.43976483
-0.07880778
-0.08466793
-0.24598590
0.18194842
0.02768109
-0.29934469
-0.10439464
-0.05004524
0.37760898
0.23087585
0.09013561
0.00946950
0.00682537
-0.00346374
0.05681042
-0.15681031
0.15279390
-0.16203086
0.01067199
-0.16966143
0.18193443
-0.27509826
0.27043754
-0.16290994
0.07875743
-0.01652275
-0.35944834
-0.24340229
0.00314466
0.02255502
-0.17057693
-0.00865981
0.12042034
0.10581959
0.14899597
-0.07472460
-0.24641208
-0.16180156
0.22976825
-0.25320792
-0.10405423
0.13180991
0.05462370
-0.05320532
-0.08276120
-0.28484833
0.24294107
-0.08109645
-0.11373437
-0.06259361
0.14466245
0.17607698
-0.05162996
-0.09547557
-0.12275314
-0.24140601
0.13551080
0.07962722
-0.02317341
-1.01025355
-0.09610303
0.15949123
-0.45507142
0.00336124
-0.09342790
-0.04205739
-0.12526615
0.13616194
0.49829957
-0.22563572
0.08584799
-0.03256145
0.04604971
0.10842256
-0.19754599
-0.24710304
0.16997698
-0.14288478
0.06242432
0.37220764
0.28416649
-0.49245867
-0.35570517
0.27407786
0.25825804
0.03485839
0.19542620
-0.17873707
-0.16172135
-0.08810615
0.10364190
0.25659975
-0.30761424
-0.07100510
-0.14059661
-0.11704367
-0.24436450
0.21345133
0.22298081
0.04862598
-0.02699768
0.13409461
-0.00158860
0.32335895
-0.25843552
-0.12980199
-0.12108651
-0.36348841
0.31091744
-0.29423279
-0.55298513
-0.20363033
-1.04317319
0.11981060
-0.21524498
-0.06124594
-0.14166084
0.09769412
0.01210928
0.08798562
0.12172324
-0.22612517
0.22415197
-0.01012501
-0.29071981
0.02959832
-0.10493209
-0.25165868
0.53882653
0.00290894
-0.28502700
0.22591251
-0.15357724
-0.00925793
-0.35148305
-0.07458542
-0.18191390
0.23802115
0.16145858
0.00528626
-0.31493774
0.05580103
0.06322812
0.03954113
0.06377203
0.02191248
-0.04312513
-0.13167657
0.17298928
-0.11172402
-0.08654281
-0.22997381
-0.27075911
0.23642768
0.19390626
-0.13165312
0.33702496
-2.04004431
-0.12721409
0.24808803
0.03759393
-0.57935780
-0.40896657
-0.47474709
0.21484748
0.39841187
0.01675978
-0.12980737
0.11704887
0.18873598
0.13906276
-0.05308126
0.18383151
0.28136912
0.06512769
-0.11859386
-0.09296543
-0.42838770
-0.31089383
-0.23715290
0.13950281
0.10080203
0.05468763
-0.06974959
-0.07150325
-0.05483826
0.26243627
-0.05125177
0.02762860
-0.31345546
0.15878277
0.05079648
0.00198219
-0.43007684
0.09463201
0.01910816
-0.09310094
-0.27564356
0.39788511
0.10729968
0.07960512
0.17227422
0.56881124
-0.04951125
-0.19785213
-0.17289139
0.02975240
-0.31648898
0.17846993
-0.02872774
0.25110269
-0.03499463
0.14115788
0.06102563
0.10859255
0.09352791
0.03505071
0.20777990
-0.22298127
0.01310150
0.04146692
0.35244858
0.23674126
0.36611074
0.07471959
0.04137977
-0.01496711
0.14380760
0.04119658
0.07062087
0.27023190
0.01015492
0.28596184
-0.11468831
0.16349736
0.33492002
0.09153001
-0.16114065
0.06841376
0.04022370
-0.00425606
-0.03861164
0.16248873
-0.30237615
0.04169941
-0.02422298
0.09600050
0.03669707
-0.13059931
0.06856406
0.22465785
-0.06761581
0.18027663
0.08675367
0.08724672
0.33868521
-0.25497058
-0.03173603
0.15107676
-0.00060649
-0.15910766
-0.04990947
0.31945327
-0.10275324
0.01712497
0.28511143
-0.17532429
0.02462795
-0.11030264
0.15188658
-2.18392253
0.08029457
-0.27413499
-0.19627677
0.03403697
0.10684557
0.02278577
-0.20169254
0.08839698
-0.00223434
0.09128991
-0.29370809
0.02864608
-0.52013439
0.07993808
-0.07815940
-0.51764572
0.30648834
-0.00488260
-0.17508370
-0.01816006
0.12416670
0.58735812
0.26150635
0.02830396
-0.34653401
0.11778712
-0.06217938
0.53862524
-0.04109930
-0.05923269
-0.24867067
0.15874773
-0.35717681
-0.21367581
0.11441783
0.07528403
0.43360248
0.05622960
0.03506568
-0.30447522
0.39889660
-0.15739812
-0.14918821
-0.01795096
-0.11463866
0.25840881
-0.00128271
-0.65153527
0.16317247
-0.27569044
0.10440778
0.38004750
0.21232797
0.02467746
-0.18125886
-0.02137915
0.27466989
-0.08347221
0.07397211
-0.14850944
0.28864121
-0.09571259
0.13976832
-0.05164501
0.20379725
-0.04029132
-0.22684932
0.13254030
0.06916013
0.21961150
0.01817838
0.00531454
0.09022485
-0.33747974
0.01494106
-0.14318384
0.23546804
-0.11921421
0.18194745
0.37892926
0.11428883
0.14724965
-0.18867798
-0.33443898
0.11497749
-0.12583011
-0.04561689
0.35445490
-0.20400470
0.20967898
0.09580700
-0.06095205
0.04147828
-0.07059270
0.09014673
0.03453349
-0.26273349
-0.13827328
0.46501583
-0.07628173
0.27579302
-0.71733904
0.23521760
-0.19071242
0.14351974
0.19798329
0.08280163
-0.07558107
-0.26747996
0.06841205
0.16473253
-0.09074999
-0.12526870
