-0.00504395
0.00136688
-0.00394750
0.00645877
-0.00149490
-0.00190831
0.00053540
0.00027451
0.00030366
0.00139472
0.00062688
-0.00084026
0.00091941
0.00305483
0.00054632
-0.00532795
-0.00119733
0.00157863
0.00098088
0.00140181
-0.00359468
-0.00126325
-0.00226184
0.00457645
-0.00143349
0.00708857
0.00132110
0.00113881
0.00135558
-0.00059817
-0.00075369
0.00152541
-0.00027201
-0.00267075
-0.00975098
-0.00293380
0.00368887
-0.00080682
-0.00380226
-0.00078946
0.00136559
0.00104350
0.00226935
-0.00066394
0.00061234
0.00107513
0.00091897
-0.00129673
0.00006814
0.00052374
0.00045963
-0.00085913
-0.00055033
0.00370555
0.00013760
0.00137045
-0.00928493
0.00169335
0.00464765
-0.00043130
-0.00090811
0.00058540
-0.00035956
0.00013102
0.00313436
0.00948976
0.00033405
0.00366957
0.00405063
-0.01124988
-0.00673054
-0.00069611
0.00527866
-0.00887962
-0.00857367
0.00543749
0.00421510
0.00515967
0.01204802
0.00192145
0.01039141
-0.00227586
-0.00108045
-0.00775371
0.00466615
0.01516308
-0.00767052
-0.00774549
0.00513231
-0.00106870
0.00466699
-0.00192559
-0.00358056
0.00826143
0.00835537
-0.01073692
0.00362202
0.00067280
-0.00363277
0.00429171
0.01101484
0.00424757
0.00361047
0.00330898
-0.00100442
0.00021352
-0.00017699
-0.00725059
-0.00930396
0.00050629
-0.00558772
-0.00534499
-0.00309145
0.00120686
-0.00339430
0.00280193
-0.00446709
0.00941923
-0.00469258
0.00115028
-0.00224881
-0.00220098
0.00462273
-0.00468548
0.01169230
-0.00869287
0.00053570
-0.00788676
0.00108852
0.00355258
0.00492840
-0.00516014
-0.00023601
0.00173645
0.00048530
0.00044607
-0.00071745
0.00711400
-0.00321844
0.00259718
-0.00046018
-0.00187539
0.00303102
-0.00173552
-0.00114436
-0.00018004
0.00542639
-0.00184940
-0.00154755
0.00387891
0.00363344
0.00176217
-0.00041584
0.00052913
-0.00138029
0.00181083
0.00519792
-0.00016608
0.00322512
0.00194000
0.00042503
0.00147718
-0.00013048
-0.00075410
0.00027628
0.00355730
0.00336895
-0.00235760
-0.00065444
0.00169398
0.00278620
-0.00520397
-0.00015649
0.00121500
-0.00059722
-0.00099716
-0.00253592
-0.00458869
0.00459670
-0.00079478
0.00089719
0.00008217
-0.00133475
0.00232529
0.00285448
0.01241326
0.00314085
-0.00295374
-0.00394162
0.00445010
0.00257409
0.00339762
-0.00091188
-0.00446423
0.00090484
-0.00517315
-0.00292835
-0.00735673
0.00050127
-0.00187106
-0.00189292
-0.00023607
0.00437086
0.00225685
-0.00001967
0.00189038
-0.01252430
-0.00802766
-0.00080906
0.00238335
0.00017522
0.00568433
-0.00558490
0.00141310
0.00107537
0.00182672
-0.00508106
0.00101561
-0.00223982
0.00048485
-0.00001218
0.00075998
0.00382971
-0.00355882
-0.00160356
0.00656515
-0.00059867
0.00261821
0.00225359
0.00120582
-0.00106129
-0.00186279
0.00422070
0.00343229
-0.00153869
-0.00409786
-0.00271713
0.00052153
-0.00195701
-0.00091935
-0.00125213
0.00588338
0.00541391
0.00130934
-0.00505024
-0.00531871
0.00164092
-0.00910897
-0.00227458
0.00307143
0.00108601
0.00305219
-0.00557111
0.00207183
0.00232645
0.00294205
0.00954184
-0.00162002
-0.00686720
0.00560219
0.01115198
0.00217403
0.01413028
-0.02454047
0.00313603
0.00974455
-0.00219542
-0.00445340
0.00165178
0.00499291
-0.00709651
-0.00135140
-0.00283528
-0.00749392
-0.00140087
0.00984662
0.00296756
-0.00068524
-0.00940487
0.01535448
-0.00556592
-0.01175046
-0.01379994
-0.01077210
0.00868803
-0.00531300
-0.01007341
-0.00156411
0.00335247
-0.00132038
-0.00579613
0.00775526
-0.00812466
-0.00145967
-0.00365166
0.00586556
0.00124870
-0.00154826
0.00996207
-0.00261982
0.00564210
-0.00213192
0.00481386
0.00013401
-0.00750606
-0.00112889
0.00745402
0.00020245
-0.00278261
0.00743475
-0.00944062
-0.00368210
-0.00406508
0.00850241
-0.00578365
0.01465845
0.00476605
0.00517326
-0.00217310
-0.00189928
0.00062345
-0.00312624
0.00135747
0.00240149
0.00206528
-0.00325662
0.00554265
-0.00287234
0.00176253
0.00007071
0.00211941
0.00132671
-0.00148375
-0.00150599
-0.00002536
-0.00001015
0.00108456
-0.00303492
0.00163054
0.00263289
-0.00344973
-0.00136832
0.00384726
0.00228982
0.00133821
0.00144467
0.00374645
-0.00105310
-0.00009627
-0.00140604
0.00461069
-0.00372158
0.00109216
-0.00037857
-0.00105366
-0.00031276
0.00051808
0.00516005
0.00185228
0.00378655
-0.00652801
-0.00612951
0.00374251
0.00219478
0.00069130
-0.00078727
-0.00017610
0.00181085
0.00330009
-0.00034904
0.00303380
-0.00058932
0.00138181
0.00478479
-0.00045582
-0.00249434
-0.00394152
-0.00151714
-0.00057304
-0.00110134
0.00083225
0.00106867
0.00186503
0.00039733
-0.00077430
0.01046089
0.01122457
-0.01748241
0.01133587
0.00388958
-0.01604549
0.01352630
-0.02803325
0.00456281
-0.00161385
0.01422921
0.00292022
-0.00382180
-0.00243533
-0.00554989
-0.00208693
0.00311152
-0.00749962
-0.01453239
0.01773468
0.00672891
-0.00911932
-0.00274210
0.01184329
0.00639591
-0.01414138
-0.00643130
0.01978864
-0.00308887
0.00327151
-0.00338128
-0.00068264
0.00025619
0.00459905
0.01033814
0.00925420
-0.00512165
-0.01524757
-0.00513036
0.02208527
0.00300374
-0.00508259
0.00189627
0.00569816
-0.00458457
-0.00506800
-0.00220718
-0.00213970
0.00411626
-0.01051948
-0.00373339
0.00650232
0.01579890
0.00595418
0.00150440
0.00367153
0.00618843
0.00849592
0.00322083
-0.01577275
0.00067282
-0.00125353
-0.00096538
-0.00169676
-0.00709527
-0.00512819
0.00400125
0.00125498
-0.00222341
0.00055773
-0.00621076
-0.00269902
-0.00486911
-0.00673925
0.00515089
0.00063178
-0.00779287
-0.00349422
-0.00213795
-0.00260822
-0.00588559
-0.00286420
-0.00071083
0.00244038
0.00553869
-0.00246657
-0.00093947
0.00226584
-0.00054397
0.00294029
-0.00187218
-0.00104215
-0.00109979
0.00053178
0.00387658
-0.00469475
-0.00132407
-0.00338192
0.00043313
0.00248207
0.00688017
0.00015064
-0.00123165
-0.00080291
0.00194476
-0.00045906
-0.00462258
-0.00500292
0.00093194
0.00403752
-0.00132336
-0.00227855
-0.00434725
0.00291661
0.00214643
0.00086983
-0.00028283
-0.00249213
-0.00637429
-0.00372329
-0.00230355
0.00062188
0.00411305
-0.00053642
-0.00217508
0.01110276
-0.00677458
0.00275521
0.00057289
0.00174749
0.00205586
0.00061583
0.00011627
-0.00419970
0.00190291
0.00258178
0.00178927
0.00108993
0.00047901
0.00265445
0.00448138
-0.00019476
0.00274416
-0.00267579
0.00224906
0.00174205
-0.00271461
0.00039595
0.00170038
0.00265330
0.00311999
-0.00023958
-0.00287062
-0.00116989
0.00365284
0.00108515
-0.00008707
0.00272965
0.00184523
0.00409297
0.00226960
0.00385647
-0.00039958
0.00288726
-0.00066655
-0.00153721
-0.00219133
-0.00289728
0.00181470
-0.00204011
0.00158456
-0.00145166
0.00158303
-0.00092465
-0.00023842
0.00090662
-0.00235229
0.00061698
-0.00130965
0.00064146
-0.00308964
-0.00321692
0.00270366
0.00205487
-0.00227219
-0.00450856
0.00426224
-0.00063792
0.00007707
-0.00004478
0.00094589
0.00122692
-0.00177880
0.00053538
-0.00431793
-0.00076106
0.00039428
0.00127341
0.00215102
-0.00092099
0.00144363
-0.00566032
-0.00005362
-0.00408425
0.00401580
-0.00260695
0.00016293
0.00262382
0.00242811
-0.00407350
0.00217842
0.00047840
-0.00430998
-0.00103758
-0.00057075
0.00016271
-0.00491381
-0.00076413
0.00107781
0.00045135
-0.00243753
-0.00118099
0.00307709
-0.00226907
0.00168001
0.00269257
-0.00241602
0.00358482
-0.00042434
0.00214972
-0.00311466
-0.00005731
0.00043833
-0.00462745
0.00005938
-0.00225733
0.00701772
-0.00105019
0.00122492
0.00020234
-0.00206089
-0.00618700
0.00414449
0.00413863
0.00049840
0.00261490
-0.00269889
0.00068586
0.00131234
-0.00336480
-0.00186677
-0.00145788
-0.00147572
0.00184846
-0.00232466
0.00271383
0.00589719
-0.00011389
-0.00786644
0.00025814
0.00310781
-0.00563936
0.00266884
-0.00374884
0.00578810
-0.00022159
-0.00570330
-0.00640506
0.00028749
-0.00442937
-0.00404549
0.00638036
-0.00257338
0.00127143
0.00040098
-0.01153541
-0.01109752
-0.00496653
0.00191681
0.00173547
0.00220061
-0.00724110
-0.00828172
0.00803204
0.00368089
0.00111140
0.00269429
-0.00477959
-0.00291262
0.00256199
0.00084138
0.00048026
-0.00087624
0.00227744
-0.00502883
0.00087453
-0.00502008
-0.00160397
-0.00674418
0.00220011
-0.01100319
-0.00747364
-0.00021322
-0.00147384
0.00483849
0.00479911
0.00213044
-0.00185060
-0.00472199
0.00312123
0.00317262
0.00567883
-0.00853025
-0.00343326
0.00402790
0.00026743
0.00197514
0.00243303
-0.00055290
0.00139821
0.00793896
0.00155412
0.00116683
0.00173808
-0.00133849
-0.00091464
0.00286911
0.00308666
0.00087909
-0.00315811
0.00427908
-0.00700025
0.00646019
0.00933791
0.00191338
0.00070688
-0.00037773
-0.00614962
0.00362391
0.00349432
-0.00241031
0.00179477
0.00079800
-0.00407980
0.01252886
0.00620293
0.01202739
0.00780304
-0.00841540
0.00888840
0.01658314
0.00807166
-0.01158990
0.00664431
-0.00703748
0.00475095
0.00273677
0.00593799
0.00063652
0.00346483
-0.00638371
0.00483112
-0.01108325
-0.00385924
0.00230350
-0.00383414
-0.00182557
-0.00473762
-0.01376956
-0.00205209
-0.00339366
-0.00351091
-0.01808464
-0.00726670
0.00317354
0.01386346
0.00289253
0.00572762
0.00607747
-0.00666386
0.00478821
-0.00100407
-0.00184978
