-0.27649942
0.17455021
-0.24959466
-0.88080287
0.41198084
0.01712952
0.51163816
0.26653752
0.40476173
0.03384416
0.88757962
0.47193044
0.00678951
-0.80894834
0.42629358
0.00921429
-0.26037821
0.18284047
0.30942217
0.10925437
0.28264880
-0.33371261
0.64737993
-0.00336926
0.74737394
0.01789045
0.28143892
-0.58552319
-0.05072317
-0.42588291
0.75446200
-0.36551940
-0.52816081
-0.43202972
-0.23976043
0.61808383
0.24032396
0.52855676
0.40732116
-0.50393212
-0.30500430
0.55481309
-0.35031313
0.70981896
0.60573488
0.57233572
-0.17999184
-0.08437011
-0.32849824
-0.09508266
0.24408859
-0.00311102
0.50466794
-0.19721961
-0.02731876
-0.37491646
0.34961143
0.71247363
0.11155688
0.33658427
0.32343462
-0.21851955
0.60797352
0.55271542
0.21481454
-0.01106126
0.07606947
-0.11953904
-0.02261020
0.04550868
0.06282587
0.06304155
-0.20807035
-0.06975484
-0.52836800
0.03813099
0.00888722
-0.25573438
0.04380582
-0.00137203
0.57702464
0.08584915
-0.05257051
-0.01030435
-0.00036562
-0.12271995
-0.07192582
0.02668611
0.02357751
0.15589260
-0.03365008
0.01283407
-0.18470301
0.02097535
-0.10293335
-0.07630440
0.20444357
0.16001727
-0.19388486
0.13377036
-0.02188755
-0.13684213
0.55530077
0.33377445
-0.10272389
0.22433630
-0.05305879
-0.07884996
0.16055678
-0.14660600
0.00345526
-0.10057992
0.11524849
0.41311094
-0.13703956
-0.11180905
0.11901280
0.11856675
-0.04159076
0.00029164
-0.17164183
-0.10313366
0.62694329
-0.02414968
-0.06377234
-0.17495070
0.07223820
0.02367213
-0.10957050
0.00514277
-0.08541367
0.09484418
-0.05407865
0.12076836
-0.03992037
-0.07938237
-0.14017327
0.00658548
-0.06920760
-0.01962071
0.17008777
-0.03000594
0.00564096
0.10577087
0.13775279
0.01537289
-0.12286709
-0.05667309
-0.06399883
-0.05720077
0.08888309
0.00961947
-0.04752082
-0.01498272
0.08984236
-0.04187695
0.04611187
0.05554744
-0.05067289
-0.04770568
-0.01566742
0.00971704
-0.22737280
0.01780636
-0.08101618
0.03488081
0.04067771
-0.01713300
-0.04822655
0.01015255
0.11702313
-0.09182065
0.02166227
0.25460038
0.03902779
-0.09676728
0.02553898
0.05789773
0.01964585
-0.00325715
0.02618855
0.04198416
0.07811924
-0.03034262
0.05194395
-0.03348706
-0.00459826
-0.05398658
0.14419933
-0.00467027
-0.02002098
-0.07209614
-0.02319847
-0.03970102
0.01203640
-0.05959613
0.02410817
-0.01913763
0.04982354
0.02428626
-0.04856605
-0.01464696
0.06551391
-0.04631067
-0.01364971
0.06495126
-0.00621442
-0.08226988
-0.05068018
-0.08344917
0.04175025
0.02021421
-0.02660918
-0.00803772
-0.00945397
0.02847916
-0.03509659
-0.00340218
0.01513967
-0.04131540
-0.01702278
0.02744553
-0.02789196
-0.07048731
-0.00878788
0.11734731
-0.01756581
0.07509729
-0.00805457
-0.02329182
0.04066621
-0.00017161
-0.03916594
0.04538773
0.01760656
-0.11849510
-0.00477381
-0.09762113
0.03131607
0.01001930
-0.03847854
0.01240586
-0.01395156
-0.00824428
0.00042009
-0.07198288
0.01693795
0.02248774
-0.08225764
0.01670577
0.06331218
0.03904815
0.01689763
-0.00291347
-0.08139447
-0.03935792
-0.06001057
-0.04136484
-0.20059814
-0.02993135
0.18728936
-0.01407487
0.06407844
-0.16141683
-0.07758828
0.02105510
-0.02849282
0.02697791
0.01330850
-0.10350824
-0.18050379
0.29248163
0.12736075
-0.11837405
-0.10616556
-0.00337596
0.03700651
-0.18109329
-0.12506834
0.46524042
0.03948410
-0.21907665
0.05175784
-0.08741338
0.19477238
-0.22266522
-0.09221125
-0.12299997
0.06331191
-0.04486124
0.01452333
0.07068194
-0.22629264
-0.03086766
0.09123059
0.50832248
0.02438119
0.05049557
0.10885621
-0.11920094
-0.02848825
-0.03236513
-0.00962364
-0.00595082
-0.32875702
-0.07169296
0.06461856
-0.13054809
0.04146603
0.26661474
-0.21119575
-0.06001173
-0.02866742
0.00949984
-0.03178246
0.38455361
0.10201885
0.29250509
-0.03049392
0.01664457
0.01646129
0.14217214
0.06934397
0.00866186
-0.16413911
0.00319618
0.08222505
-0.12258096
0.08749143
-0.06172335
-0.04989355
-0.07849845
-0.02421655
-0.10542707
0.05913131
-0.01455488
-0.02211514
-0.00739334
-0.03865442
-0.08288745
-0.01713306
-0.06312665
0.05182886
-0.02822489
0.16901506
0.14664440
0.12624128
-0.10783593
0.00831816
-0.01308514
0.04256563
-0.09953210
0.05968418
-0.07292627
-0.05432557
0.07033738
0.02318471
-0.00893519
0.12857169
0.07529775
0.16880763
-0.06780254
-0.09534056
-0.12854756
0.02912806
-0.19502835
0.03270557
0.11413155
0.23069331
0.07626192
-0.03336143
-0.04816089
0.07689483
0.03567078
0.00901728
0.10842796
0.12501013
0.04916866
0.11692183
0.05207678
0.05123102
-0.05903602
0.04505529
-0.04583162
0.07804424
0.01715033
0.11779127
0.08041988
0.41654775
0.35455668
-0.07665145
0.14873005
0.06603384
-0.66254085
0.02356375
-0.66817951
0.04371869
-0.15529926
-0.02859159
-0.06446667
-0.12690987
0.01098413
-0.07027481
0.29977018
-0.02683485
-0.02456367
-0.03553947
-0.09832797
0.00504724
0.16452770
-0.03999716
-0.04124606
-0.00844081
0.03679327
-0.22467119
-0.05293480
0.02780511
0.01804584
-0.01972251
0.28817359
0.02530388
0.04653048
0.49910197
-0.00477414
-0.07175579
-0.09895376
-0.05436471
0.00237783
0.21567863
0.05248109
-0.24471013
0.00246404
0.15575583
0.56356579
0.05232143
-0.03694417
0.06425275
0.01885603
-0.10943218
-0.04508863
-0.06713141
0.21926324
-0.03940761
0.00777554
-0.52895677
0.26450920
-0.16429192
0.20231509
-0.05417779
-0.17420247
-0.06025366
-0.19707640
0.09733009
-0.02453170
0.03337649
0.05733090
-0.00778443
0.05254659
-0.06978872
-0.09502791
0.04588698
0.12245987
-0.22826247
-0.01638014
0.02316301
0.05069525
0.02632006
0.01415833
-0.02326756
0.25830311
-0.03874086
-0.08475836
-0.08495086
-0.03379597
-0.16209230
-0.09892327
0.06873897
0.07741171
0.04518480
-0.05299209
-0.03719051
0.05323127
-0.00122858
-0.06867158
-0.04145691
0.24221863
-0.03174233
-0.03998637
-0.01963340
-0.10463111
0.10845638
0.03087269
-0.19054399
-0.06822805
0.15802124
0.06472603
-0.04952384
-0.02411804
0.20044918
0.00788955
-0.04470515
-0.02218530
0.01843327
-0.03792829
-0.06874356
0.08646142
-0.08516157
0.13796294
0.09021931
0.04664896
0.14116879
0.04219313
-0.05930420
-0.01411485
-0.06768496
0.12677251
0.08926652
-0.05189273
-0.08591560
-0.04709608
0.04018987
0.03375023
0.03872814
0.02008378
0.03622973
0.10384785
-0.05243118
-0.03340595
0.00394772
-0.02348043
-0.03596776
0.15200874
0.02310524
-0.06061280
0.15447651
0.00874703
-0.00354870
-0.26365483
-0.07334735
-0.02570470
0.16915430
-0.03531055
-0.04043972
0.03273845
0.00685069
0.07741041
0.08170580
0.19113643
-0.10425314
-0.12997223
0.01465357
-0.01015071
-0.05633641
-0.05531188
-0.09454178
0.03523472
-0.14928214
-0.04562485
-0.05360066
-0.00758914
-0.00987035
0.01761428
-0.07834084
0.05199362
0.20796122
0.21246174
-0.22955802
-0.08698221
-0.05945487
-0.17140196
-0.02276296
-0.06669849
0.01446724
-0.13989128
0.09011714
0.05856239
0.17742504
-0.00962908
-0.09092455
-0.49687847
0.46531779
0.14241052
-0.23057261
-0.05650445
0.04052512
-0.28164995
0.65751076
-0.08407745
0.11543797
0.01020605
0.02122537
0.25075936
0.00539611
0.00076905
-0.03313190
-0.34396553
-0.10864653
0.19542730
-0.18108873
0.09126706
-0.25966901
0.43622050
-0.02721179
-0.11000782
-0.04026238
0.37480712
0.22161613
0.06769718
-0.05714909
-0.27371421
0.31837207
0.28154096
0.45159915
0.05649702
0.34376535
-0.18626162
-0.17858675
0.06837627
-0.19560957
0.07213752
-0.12179361
0.16016866
0.04973283
-0.03017422
0.09901167
0.01450606
0.44293648
-0.24788614
-0.28413647
-0.00311489
0.17667349
-0.00513817
-0.02212382
-0.20063917
-0.15045610
0.43232810
0.12975384
-0.07995289
-0.00601442
0.43357971
-0.06046257
0.01109686
-0.04413816
0.00482903
0.07193673
0.07399856
-0.05168647
0.01217252
0.07254884
-0.17404455
-0.18526484
-0.00695598
0.10262452
-0.00143751
0.04294429
-0.03446338
-0.06462547
0.07484850
-0.24571319
-0.09146070
0.00187222
0.31555665
0.01015629
-0.16989504
0.01977247
0.02942303
-0.00924887
0.11762235
-0.04858978
-0.01286898
-0.06494105
0.05288896
0.00874561
0.09345636
0.02458496
0.05303090
-0.10498833
-0.04695570
0.15594797
0.15827939
0.01926639
-0.08312736
0.01002964
0.12552406
0.02137921
0.08013337
-0.00109695
0.12276731
0.05491403
-0.01532037
-0.08883321
-0.02433152
0.09099427
0.03562067
0.04206444
0.02493459
-0.09352407
0.06906544
0.07630140
-0.23553480
0.11293699
0.06333825
-0.03630121
0.02166559
-0.00622460
0.01404162
-0.07054307
0.08231252
-0.02301041
0.01944465
-0.01386249
0.10301102
-0.02697174
-0.00539939
-0.01450206
0.08320094
0.08148315
0.03573869
0.05876138
0.10038772
-0.05861056
-0.09012264
0.04976628
-0.03061226
0.02992856
0.02174293
0.01137410
-0.03918432
0.02670926
-0.02332964
0.04286095
0.00596191
0.57944530
0.06832306
0.00248096
-0.02831999
-0.04564555
-0.05652672
-0.09238748
0.03973572
-0.08883233
-0.07174969
0.07482409
-0.05728003
-0.07305613
-0.08317014
-0.05864142
0.08982471
0.07459856
-0.01351375
-0.10312504
-0.03950189
0.04184519
0.11334742
-0.00607111
-0.03653231
-0.03560175
0.03681140
-0.01343915
-0.06445123
0.01740099
-0.01109820
0.02932858
0.04788449
-0.00158714
-0.07349075
0.12234627
-0.00433350
