0.00360564
0.02566887
-0.00630850
-0.00423708
-0.01298247
-0.02236458
0.09937499
0.01426775
-0.00751625
-0.01336161
0.00181890
-0.03350898
-0.01927614
-0.00899907
0.02178431
-0.02604407
-0.01368538
-0.02414471
-0.02607966
0.03088642
0.02248313
-0.00306216
0.01061374
-0.03652674
0.00880588
-0.00467228
-0.02271589
0.02126167
-0.01284634
0.02392914
0.02195001
0.00971086
-0.02138660
0.01404109
0.03090048
0.00803028
0.03343611
0.00871889
-0.00984255
0.00559115
0.02770161
0.01052597
0.00303347
-0.00385384
0.04700028
0.00053779
-0.01168580
0.03082147
0.00786230
0.00500320
-0.00482611
0.04633378
0.01995012
0.02035902
-0.00104036
0.00732589
-0.01342102
0.00425487
-0.01524180
-0.00104452
0.01113893
0.02285586
-0.02056338
0.00307286
0.08720425
-0.00620556
-0.03319358
0.01822830
0.01221840
-0.00444012
-0.00781923
-0.00235279
0.07920539
-0.00436447
-0.05229904
-0.00495003
0.08665922
-0.05066266
0.00343189
0.06026754
-0.01930418
-0.03440687
0.02411314
-0.07168717
0.02603363
-0.01228398
0.00857522
-0.03214177
0.04933744
0.03243601
0.02855887
-0.05982080
-0.00060184
0.04817084
-0.05649796
-0.02908971
-0.00830546
-0.03142808
-0.05208331
0.01787922
0.09218427
-0.07034912
-0.02707956
-0.05986561
0.00106535
-0.05308030
0.00871590
0.02784267
-0.04063521
0.06062901
-0.02178015
0.07548729
-0.01980469
-0.08582165
-0.01063607
0.00178714
0.08200084
0.20797566
0.07480419
0.05807511
0.09773888
-0.00416470
-0.04239004
0.09302329
0.07372888
-0.03346297
-0.04425511
-0.03745148
0.01502847
0.00110799
0.00261046
-0.02146400
0.00861950
-0.00556035
0.00560515
-0.00076700
0.00349242
-0.01561732
0.01630971
-0.01021025
0.01125629
0.00745182
-0.00639042
0.00946926
-0.00527356
0.00125245
-0.01360181
0.01300163
-0.02054872
-0.00340483
0.00529512
0.01000393
0.03877669
-0.00347604
0.02754661
-0.00335733
-0.01574883
0.01530226
-0.00333986
0.01084302
-0.00138198
0.00360759
-0.03132096
0.02671829
0.01934148
0.00350824
-0.01544327
-0.00754825
0.00808558
-0.01427131
-0.01402022
-0.01165067
0.00719371
0.02537480
0.01406838
-0.00809831
-0.00461503
0.01139464
-0.01658676
-0.01314489
0.00282131
-0.00926902
0.01491246
-0.00276542
0.00275443
-0.00702906
-0.02216009
-0.01013447
-0.00357487
-0.00541111
0.00318896
-0.00698176
0.03736628
0.00599093
0.00953253
-0.01883097
0.00967556
0.00761676
0.01953057
-0.00486716
0.00912352
-0.01284101
0.00572621
0.00493044
-0.00339712
-0.01783421
0.00675733
-0.00889175
0.01799263
-0.02046359
0.00138961
0.01086009
-0.00737821
-0.01438591
0.00916019
-0.00859775
-0.00015348
-0.03000840
0.00867770
0.02650217
-0.02463039
-0.00755558
-0.01268596
0.01041132
-0.00265830
0.02555626
-0.02940150
0.01648960
0.00081661
-0.01574615
0.00024709
0.00097365
0.02247387
0.00287605
0.00366723
-0.00024490
-0.01478519
0.00917415
-0.00229578
0.00714735
0.00853295
-0.00907300
0.01369982
-0.02568103
-0.00408882
-0.02493269
-0.00064731
-0.00293874
0.01543838
0.00206170
-0.00789272
-0.03207834
0.01316434
-0.00895701
0.00499500
0.00211315
0.09198309
-0.04698461
0.05294454
0.05780716
0.05637876
-0.06665636
-0.09630827
0.09959722
-0.04141384
-0.06953360
0.11656828
-0.11533948
-0.03424361
-0.00216117
-0.04532748
0.08946342
0.03455145
0.03522884
-0.02422984
-0.01907662
0.02806275
-0.01564955
-0.00975190
-0.03341922
-0.01051436
-0.06153442
-0.00596693
-0.08418344
0.03927139
-0.03697775
-0.10173685
0.14230506
0.04803723
0.00092404
0.01509373
0.14878513
0.03931758
0.08425866
-0.19004324
0.05654652
0.06061933
-0.13168746
-0.01284659
-0.02603109
-0.05381303
-0.00508756
-0.00149321
-0.02360661
0.08451701
-0.06704088
-0.05566884
0.09636471
-0.06113294
0.02638779
0.02476869
-0.18573107
0.04228131
-0.13045463
-0.01295541
0.05809790
0.07071842
-0.02513845
0.05282138
0.02841124
0.00848200
-0.00884559
0.00687692
0.00584857
0.00333778
0.00850597
0.01722615
-0.01421596
0.00223589
-0.00453872
0.01973603
0.00580058
-0.00344939
-0.01651438
0.00546914
0.00902249
-0.00088088
0.00718372
-0.00841001
-0.01390094
-0.01004245
0.03216330
-0.00570580
-0.00603654
0.02413149
0.00119239
-0.00846972
0.02398957
-0.00051003
0.01118204
0.01624004
-0.00700256
0.00673340
0.00669110
-0.03075793
-0.01953553
-0.00016686
0.03124102
0.00991410
-0.00042026
-0.02412805
-0.01047814
0.00449361
0.01277927
-0.01490523
-0.03601268
0.01872438
0.01140203
-0.01931367
-0.03282235
0.00640248
-0.03625741
-0.01208597
-0.00492406
0.01415394
0.01494761
-0.01040227
-0.00223377
0.03056752
-0.08120004
0.00248882
0.00185262
-0.04286332
0.00172961
-0.47877151
-0.00026470
0.05937025
0.02010217
0.06584559
0.00786908
-0.16048944
0.01566723
0.00454098
-0.03064823
0.06500212
-0.03198347
-0.02350610
0.01892804
-0.03252764
-0.35059398
-0.00412256
0.02287807
0.04590151
0.03011190
-0.03621546
-0.00205292
0.07885315
0.00616195
0.01802739
0.01236762
0.00294052
-0.00681216
-0.04547665
0.11082156
0.02974517
0.06069065
0.03197713
-0.00307840
-0.00445648
-0.01625554
-0.12409978
0.24974063
-0.05457565
-0.03840467
0.02542439
0.00578768
-0.02097701
0.04727840
-0.00360438
0.05248420
-0.02997810
-0.00516276
0.00920084
0.06273212
-0.01953689
0.12040791
0.02543188
-0.03431884
0.06967693
-0.09361240
0.00581165
0.03057481
-0.01874147
0.00860396
-0.00808668
-0.06555921
-0.08150677
-0.04050385
-0.00595627
0.02565343
0.01575233
-0.00258179
-0.03497130
0.00496588
-0.00657965
-0.00669180
-0.03188620
0.02121233
0.01304719
0.02794692
-0.03405400
0.01632026
0.00552701
-0.03910826
-0.00485941
0.00306585
-0.03334637
-0.01077410
0.01821120
-0.00272376
-0.01983063
0.01792533
0.02456556
-0.00208800
0.00383792
-0.01318043
0.01706855
0.04376688
-0.00563596
0.01177890
0.00360059
0.01493268
-0.02224439
-0.00436938
0.02737839
0.00367529
0.00539158
0.00481828
0.02838410
0.00638632
0.00545780
0.01011320
0.01569847
0.00439033
-0.00837228
0.00659356
-0.02296881
-0.03877337
0.00514544
-0.01920814
-0.01056165
-0.00397930
-0.00197648
0.01771538
0.00940881
-0.00159489
-0.02041505
-0.01259235
-0.00494580
-0.00889047
0.00834396
0.00875381
-0.00286571
-0.00282948
-0.01954793
-0.00037174
0.01471558
0.01109052
-0.00615391
0.00490070
-0.01824880
-0.00900595
-0.00045584
0.01829136
0.00357151
0.00481591
0.00459567
-0.01400226
-0.02588505
-0.00673717
-0.00756453
0.00728468
0.00952033
-0.02418556
-0.03221977
-0.00911932
-0.00301281
0.05286453
0.02486847
0.00889220
-0.01386369
0.01768541
0.00134154
0.01208333
-0.00657746
-0.00526300
0.00372206
-0.00622555
-0.00937121
-0.00292094
0.00755964
0.00853858
0.00867590
0.00711143
-0.02994997
0.01706891
0.02784397
0.01049751
-0.01169004
0.01348785
0.01043968
0.01004199
-0.00505574
-0.00078198
-0.04987717
0.01387939
0.04295310
-0.00289568
-0.00020662
-0.01188011
-0.02543731
0.01634084
-0.01409363
0.02413907
-0.00279104
0.01668739
-0.00220933
0.02541478
-0.00768674
-0.00404780
-0.01216531
-0.01486614
-0.02263786
-0.00538482
-0.00693669
-0.00461281
-0.00066463
0.01292584
0.01764471
0.00543525
-0.00706863
0.00550835
0.01187436
0.00629791
-0.03813975
-0.00459169
-0.00217819
0.04795621
0.02437486
0.00414851
0.00743328
-0.01808828
0.04735553
-0.01784878
0.01657789
-0.07375088
0.01023831
0.02811388
-0.00665203
0.01860799
-0.00601661
0.01166639
0.00290874
0.01251363
-0.00671140
0.04073358
0.00072421
0.01203911
-0.01039997
-0.01142011
0.00565053
0.01314692
0.01824664
-0.02409614
0.01249513
-0.01130754
-0.00338486
-0.00495320
-0.00484627
0.00581756
0.00319462
-0.00025285
0.00772866
0.00921782
-0.01094210
-0.00878820
0.01023435
-0.00389564
-0.01013697
0.00004608
-0.00955727
-0.02250115
-0.03758796
-0.00872753
0.01166956
0.02653064
0.03589011
0.02245080
0.01221093
-0.01931281
-0.00125864
-0.01560381
0.00296865
-0.01239991
0.00097992
-0.00940764
0.02679502
0.01220545
-0.00721141
0.00318304
-0.00172183
-0.02296233
0.00314973
-0.00161176
-0.01592612
-0.00784753
-0.01155514
-0.00339644
-0.00041924
-0.00666353
0.04038585
-0.01263961
0.01480967
0.02084661
-0.01460319
0.00801259
0.00632684
0.01999939
0.00561588
-0.00934754
0.02064087
-0.00444317
-0.00128640
0.02209356
-0.01945592
0.00779053
0.02153445
0.04243695
0.03175728
0.01786694
-0.04747668
0.01405991
-0.02103780
-0.00578233
-0.02208967
0.00553784
-0.02887674
0.02358147
-0.03438006
-0.00136201
0.00738148
0.02143973
0.02766026
0.00413380
0.01612213
0.03799191
-0.02487303
0.01513650
-0.04966956
0.01230160
-0.01701877
0.00243833
-0.03547449
-0.02820468
-0.05639512
-0.01913593
0.04930630
0.06443873
0.02072519
-0.02565046
-0.01871791
0.03614857
0.07746907
0.04583061
0.04111220
-0.01677315
0.02215204
-0.01841889
0.01255287
-0.06040588
-0.01477920
-0.00947815
-0.05411148
-0.01191592
-0.04133362
-0.01240516
-0.01959757
0.01847867
-0.00298242
0.05823303
0.00577348
-0.04498021
0.04623679
0.01863072
-0.01363409
-0.00720687
0.06057280
-0.00204414
-0.08550398
-0.03058508
0.00980738
-0.02651999
0.05232524
-0.11840771
-0.05698882
0.00212672
-0.06461067
-0.00482423
0.00020620
0.04827907
-0.00216280
-0.02398988
0.02281822
-0.03843732
-0.03350738
-0.02880162
0.03270336
0.01871784
