-0.00038361
-0.00127652
-0.00112754
-0.00157397
0.00036025
-0.00160907
-0.00130816
0.00212882
0.00262162
0.00023616
-0.00014794
-0.00000795
0.00195310
-0.00064925
0.00118839
0.00049345
-0.00026520
0.00076877
0.00242685
0.00259710
0.00137779
0.00101847
0.00108875
-0.00015893
0.00102610
0.00021732
-0.00268448
0.00131691
0.00083665
-0.00000275
0.00084317
0.00201053
-0.00121637
0.00062599
-0.00042616
0.00149929
0.00015013
0.00077630
0.00089224
0.00025546
0.00119315
-0.00230336
0.00079427
0.00008290
-0.00012455
0.00144920
0.00029271
-0.00080710
-0.00063299
-0.00039160
0.00121610
0.00190470
-0.00074664
0.00018118
-0.00330309
-0.00013622
-0.00061578
0.00257813
0.00133522
-0.00049373
-0.00020282
0.00093447
0.00087142
0.00087811
0.00294956
0.00734573
-0.00878288
-0.00221151
-0.01568135
-0.01273371
-0.00754722
0.00204263
0.00106736
-0.00374185
-0.00899805
0.00206542
0.00166604
-0.00219923
0.00001839
-0.00118216
-0.00528374
0.00154287
-0.00330090
-0.01112688
-0.00137095
-0.00178045
0.00041899
0.00362968
0.00097776
-0.00274289
0.00188599
-0.00564616
-0.00198008
-0.00558731
0.00159253
-0.01144547
0.00285034
0.00775544
0.00491907
0.00227835
-0.00124950
0.00405861
0.00040000
0.01250293
0.00906035
-0.00919456
0.00438662
-0.00338506
0.01266656
0.00257169
-0.00964769
0.01129285
-0.00790399
0.00154167
-0.00222639
-0.00558548
0.00022151
-0.01041362
-0.00990091
-0.00082907
-0.00413836
0.00837084
0.00253021
0.00574478
-0.00465491
-0.00071055
0.00613471
0.00687175
-0.00132355
0.00042737
-0.00855437
0.00418063
-0.00106670
-0.00035266
-0.00307425
0.00102199
0.00109238
-0.00519608
0.00660354
0.00019180
0.00415632
0.00027777
0.00365533
0.00055610
-0.00386327
0.00423896
-0.00276486
0.00153539
0.00794075
0.00548109
0.00021271
0.00674376
0.00534002
0.00221217
0.00014571
0.01043412
-0.00304142
0.00573288
0.00518241
-0.00093014
-0.00173372
0.00542003
0.00265391
-0.00030301
0.00263454
0.00509389
0.00271998
-0.00400962
0.00476469
-0.00039196
-0.00412343
-0.00733406
0.00157995
0.00232557
-0.00181859
0.00693717
0.00065359
0.00075627
-0.00111044
-0.00356941
-0.00042425
-0.00042499
0.00320548
-0.00075893
0.00389505
0.00288254
-0.00191795
0.00005776
-0.01223495
-0.00135880
-0.00459710
0.00101019
-0.00670893
0.00300678
0.00333387
-0.00312917
-0.00370683
0.00095421
-0.00284241
0.00392261
0.00433730
0.00316914
0.00199597
-0.00083923
0.00450106
-0.00082210
-0.00240748
-0.00870253
-0.00590147
0.00106470
-0.00245364
-0.00088806
0.00104176
0.00592737
-0.00062941
0.00121795
0.00247342
0.00520991
-0.00387226
-0.00177444
0.00060674
-0.00752501
0.00312089
-0.00181591
0.00375220
-0.00366897
-0.00182744
-0.00139484
-0.00362670
-0.00071120
0.00021660
-0.00096475
0.00521218
-0.00095008
-0.00192470
0.00145767
-0.00663366
-0.00242343
0.00159482
-0.00048287
-0.00006017
0.00030492
0.00466292
0.00810101
-0.01028054
-0.00128240
0.00211974
0.00197596
-0.00098158
0.00190584
0.00411642
0.00283171
-0.00428425
-0.00396660
-0.00293023
0.00541232
-0.00201514
-0.00156872
-0.00200355
0.00053300
0.00527758
0.00107107
-0.00109511
-0.00043641
0.00215395
0.00032699
0.00292708
-0.00106633
-0.00559203
0.00086327
0.00293987
-0.00093380
0.00075023
-0.00111506
-0.00048701
0.00017402
0.00422080
-0.00077112
-0.00282319
-0.00279691
-0.00340348
0.00553341
0.00026653
0.00555249
0.00259324
-0.00212128
-0.00304268
-0.00116258
0.00109357
-0.00147985
0.00511251
-0.00501677
-0.00244423
0.00300293
-0.00042231
0.00185240
-0.00137264
-0.00036902
-0.00052503
0.00137577
0.00097671
0.00214359
-0.00360568
-0.00110539
-0.00131984
-0.00133230
0.00107581
-0.00051789
-0.00082751
0.00080402
0.00532399
0.00052860
-0.00033104
0.00047678
0.00538562
-0.00182122
-0.00052178
-0.00467928
0.00680460
-0.00099698
0.00171732
-0.00092610
-0.00012170
-0.00134781
-0.00088965
-0.00153968
0.00195762
-0.00265602
-0.00303472
0.00128701
-0.00244227
-0.00204350
0.00100726
-0.00193453
0.00112286
-0.00120230
0.00002270
0.00066139
-0.00047088
0.00078684
-0.00044112
0.00108672
-0.00197846
-0.00124795
-0.00247692
-0.00277910
0.00005189
-0.00215113
0.00318365
0.00272828
-0.00152638
0.00353795
-0.00392660
0.00207214
0.00094547
0.00108847
0.00345603
0.00070238
0.00288261
-0.00203209
0.00003883
0.00103571
-0.00263794
-0.00149130
-0.00285323
-0.00948648
0.00125276
-0.00103794
0.00704958
0.00023025
-0.00460278
0.00533949
-0.00323567
-0.00008179
-0.00126519
-0.00208124
0.00206217
0.00143631
0.00350196
-0.00714115
-0.00321033
-0.00449487
0.00005810
-0.00250436
-0.00496371
-0.00102260
-0.00995914
-0.00201037
-0.00365220
-0.00104313
0.00430053
0.00449648
0.00337761
0.01001294
0.00718218
0.00089455
0.00780563
0.00471675
-0.00683387
-0.00778085
0.00358063
0.00298221
-0.00927212
-0.01112554
0.00475546
-0.00049989
0.00316537
0.00482273
0.01283758
-0.00103868
0.00104946
-0.00516562
-0.01378760
-0.00883645
0.00069802
-0.00735359
0.00672094
-0.00250515
0.00038465
-0.00133097
0.00816103
-0.00381085
-0.00100803
0.00571551
0.00337429
0.00449312
0.00598501
-0.00271745
-0.00116765
-0.00409306
0.02705505
-0.00534873
-0.00394835
-0.01603214
0.00468940
0.00312774
0.00496423
-0.00089403
-0.01242733
-0.01060560
0.00395595
0.01414703
0.00553400
-0.00149458
-0.00127357
-0.00002762
-0.01107177
-0.00648356
-0.00144487
0.00323931
-0.00452071
-0.00005036
0.00223321
-0.00365873
-0.00234710
0.00715625
0.00017411
0.00222807
0.00527590
-0.00399591
0.00243506
-0.00233221
0.00229345
-0.00154650
-0.00054005
0.00066631
-0.00359275
-0.00221799
-0.00477629
-0.00441286
0.00088842
0.00223836
-0.01405348
-0.00069474
0.00186259
0.00482096
0.00093790
0.00214497
0.00534549
-0.00008726
0.00354846
0.00510708
0.00154131
0.00456109
0.00026292
-0.00320828
-0.00213976
0.00010511
-0.00555554
0.00133126
-0.00427074
0.00151084
-0.00086135
-0.00395339
0.00035192
0.00317631
0.00039298
0.00040328
0.00337210
-0.00262330
0.00776670
0.00120899
-0.00470538
0.00414967
-0.00004226
0.00214042
-0.00098903
-0.00302527
0.00079999
0.00040429
0.00115353
0.00307814
-0.00273395
0.00249596
-0.00378143
-0.00942421
0.00112865
0.00002500
-0.00325197
-0.00328893
-0.00333283
-0.00638268
-0.00247822
0.00334749
0.00119999
-0.00086059
0.00087413
0.00326645
0.00145481
-0.00075411
-0.00133155
0.00194163
-0.00221676
0.00182170
0.00034967
-0.00189241
-0.00213528
0.00364824
-0.00023558
0.00020167
-0.00216872
-0.00173199
-0.00038428
-0.00106496
-0.00376572
-0.00420995
0.00133565
0.00742178
0.00386294
-0.00079419
-0.00316008
0.00452420
-0.00499902
0.00007404
0.00372805
-0.00147473
-0.00162654
0.00030105
0.00231905
-0.00251165
0.00498762
-0.00563401
0.00902393
0.00378568
-0.00152663
0.00534303
0.00123373
0.00121719
-0.00133385
0.00299619
-0.00030604
0.00360956
-0.00103204
-0.00018040
0.01002014
-0.00444304
0.00128644
-0.00053895
-0.00223184
0.00413474
0.00002523
-0.00014571
0.00184674
0.00103120
-0.00295515
-0.00125292
0.00229082
-0.00126479
-0.00395735
-0.00153537
0.00257307
0.00183747
-0.00366549
0.00143440
-0.00339827
0.00166032
0.00130051
0.00123050
0.00001893
-0.00058824
0.00082761
-0.00377142
-0.00294797
-0.00106442
-0.00178471
-0.00237023
0.00075095
0.00112668
-0.00296217
-0.00053856
0.00052362
-0.00144331
0.00089475
-0.00151548
0.00053458
-0.00062011
-0.00075316
-0.00115493
-0.00257880
-0.00065333
-0.00054424
0.00087301
0.00059864
0.00289512
-0.00063365
-0.00144496
-0.00378114
0.00406765
-0.00043579
0.00043869
0.00270949
0.00080099
0.00207990
0.00279569
0.00150083
-0.00028773
0.00066997
-0.00041765
-0.00090113
0.00041039
0.01136876
-0.00538493
-0.00451403
-0.00900330
-0.00540616
-0.00757794
0.00141656
0.00027844
-0.00144539
0.00399171
0.00411677
0.00996381
-0.00193391
0.00861275
0.00399089
-0.00119238
-0.00455403
-0.00380190
0.00393546
-0.00186821
-0.00176963
-0.00532118
-0.00295949
-0.00087620
0.00760162
-0.00152341
0.00871079
-0.00090920
0.00627397
0.01158852
-0.00464718
0.00078103
-0.00777894
-0.00982478
-0.01017578
-0.00229998
0.00129609
0.00295112
-0.00466278
0.00691034
-0.00041251
-0.00301102
-0.00294718
-0.00611749
-0.00438576
-0.00661081
-0.00135617
0.00381347
-0.00278485
-0.00639727
-0.00721533
0.01014982
0.00051193
0.00380358
-0.00242546
0.00602776
0.00200314
-0.00830451
-0.00049400
0.01114831
0.01183013
-0.00762744
-0.00413447
0.00137535
0.00247064
0.00004590
0.00220551
0.00008442
-0.00100387
0.00241260
-0.00018061
-0.00225710
-0.00010985
-0.00520469
0.00279640
0.00489190
-0.00022146
0.00105148
0.00159074
-0.00232429
-0.00331460
0.00322919
0.00022634
-0.00665523
-0.00427401
0.00412987
0.00018717
-0.00053580
0.00295599
0.00465947
0.00181162
0.00124419
0.00521005
-0.00071519
0.00034738
0.00140825
0.00180728
0.00379354
0.00142380
0.00300900
-0.01006817
0.00214288
-0.00316833
0.00092439
0.00179465
0.00628703
-0.00382610
-0.00131532
0.00438929
0.00161875
0.00324694
-0.00441429
-0.00917121
0.00215067
-0.00017146
0.00044334
0.00025867
-0.00181837
0.00144610
-0.00018172
0.00037935
-0.00108056
0.00098673
-0.00165374
-0.00259909
-0.00071926
0.00377559
0.00106280
