0.03727200
0.03533176
0.27841777
-0.21719909
-0.05457186
-0.04269996
-0.10703909
0.16297677
0.21776591
0.05479501
0.11365394
-0.15636002
0.34795591
0.25464952
-0.03214175
-0.13779742
-0.10031758
0.03542959
0.28490335
0.02447619
0.10763621
-0.15999185
-0.28908741
0.21821952
-0.24863784
0.00228476
0.18560900
-0.02516240
0.11943584
-0.23156895
0.22624919
-0.17140593
0.00342093
0.16750492
-0.28865182
-0.05683869
-0.04747378
0.10206032
0.32578680
-0.15706536
-0.00194804
-0.17708670
-0.12853669
-0.01134949
-0.09146064
-0.24860768
0.24859127
0.26519898
-0.04903338
0.02842938
-0.07446484
0.09669798
0.00438360
0.09539504
-0.24008483
0.06763490
0.03458671
0.16457501
0.07729653
-0.09180132
0.08054685
-0.01953874
0.06130938
0.30864376
-0.08124600
0.19273797
0.20235577
-0.23856008
0.08688249
0.02431095
0.00822635
-0.20000011
-0.15496881
-0.02843340
-0.01179898
0.19981000
-0.82125199
-0.24474041
0.01944162
-0.01602997
-0.04886679
0.08255454
-0.05125406
0.04518935
-0.06742305
-0.00537471
0.01746264
0.08401591
0.12505865
0.10921726
-0.01587169
-0.17930171
-0.07650087
0.37868175
-0.07122850
-0.01459262
-0.02916653
-0.10564762
-0.00592728
0.07873616
0.50381553
-0.14977357
0.09356856
-0.07977834
0.08751930
0.03920995
0.21198393
-0.03053195
-0.11685038
0.12216179
0.09776944
0.03745743
0.04263001
0.38543776
-0.10954507
-0.02741885
-0.02626483
0.18045293
0.08778062
0.12115955
0.01351366
-0.20842546
0.13960493
0.02458196
0.14422354
0.28582242
-0.05672177
0.15266824
-0.00841704
-0.06170313
-0.06239834
0.13877171
0.02674650
-0.16524974
-0.28612760
-0.00393069
-0.16777232
0.05049561
0.05657322
0.06762540
-0.08866312
-0.17121574
0.07735664
-0.27229390
0.07081141
-0.32135785
-0.15866758
-0.08334667
-0.13364220
-0.02163003
-0.25388709
0.14814168
0.09326192
0.06931856
-0.02257426
-0.42380273
-0.03517045
-0.19162329
0.01062220
0.00779825
0.19328877
-0.10783943
-0.07195345
0.10734458
0.04159044
0.00128036
-0.30015102
-0.07709808
0.01798154
-0.20434774
0.01044582
-0.01979622
-0.14808270
-0.04814792
-0.16161457
0.28094086
0.03549529
0.02223317
0.09313130
-0.01691816
0.09485085
-0.13379464
0.22615989
-0.21330589
-0.24605544
0.22936165
0.26804858
-0.06837215
0.27071866
-0.06815000
-0.02475753
-0.16386646
-0.09140155
0.03525877
0.09602460
0.17986377
-0.23796022
0.09976714
-0.12953685
-0.27044049
0.00162897
0.10719264
0.15380919
0.15330267
0.10091219
0.02686793
0.26344740
-0.16913263
0.07203346
-0.01554822
0.18103544
-0.14344549
0.02913748
0.08006368
0.20003405
-0.10064592
-0.26840302
-0.01562694
0.14378348
0.04245608
0.09837391
-0.06567755
-0.01278701
0.17412725
-0.04398654
-0.07268527
-0.32813290
-0.24969603
-0.20769703
0.08427143
-0.04713281
0.29873660
0.07936881
0.17773438
-0.17985909
0.12227284
0.04187928
-0.04644145
0.11446387
-0.10335772
-0.18925075
0.22980298
0.04119534
0.16123921
-0.07626715
-0.03024843
-0.13339683
-0.18960069
0.12780155
-0.11767527
-0.02562152
-0.02415074
-0.17489083
-0.09408337
0.16351047
-0.23640235
-0.09360650
0.45813695
-0.26862940
0.10120349
-0.12851281
-0.02842224
0.05980858
0.10001163
-0.18274643
0.02157417
0.03582852
-0.13347681
0.31358689
-0.16659741
-0.05204640
0.00179907
-0.06745432
-0.40409330
0.04487298
0.19220138
0.07455549
-0.02161223
0.13005212
-0.01141590
-0.32866231
-0.08444577
-0.00030868
0.33613229
0.07651319
-0.06817696
-0.12230159
-0.26661545
-0.09895875
-0.23950447
-0.26698786
-0.17297299
-0.00575421
0.00007236
-0.17018539
-0.20762067
0.06689990
0.06813186
0.10047631
-0.09725522
0.11969864
-0.20257677
0.23925735
-0.11481523
-0.22521935
0.09294139
-0.33100605
-0.04467596
-0.05632535
0.06783543
0.05512137
0.02393278
0.17758778
0.14546186
-0.04543304
-0.18685871
0.36916220
0.31459361
0.24106424
0.27709004
0.14394526
0.02954551
0.13310741
0.02041839
-0.09417134
-0.03914876
-0.01868600
-0.02643202
-0.01510134
0.00241196
0.02141953
0.00129619
0.06581463
0.00757335
0.03018239
0.00840700
0.22300836
-0.03550390
-0.10587948
0.05132968
-0.09963169
-0.11913560
-0.11914466
0.07871107
-0.02035983
-0.01996323
0.12870206
-0.05754514
0.08323938
0.20750402
0.03620374
0.04668923
-0.09150720
-0.11259089
-0.11336363
-0.00871822
0.17506434
0.07876783
0.01270247
-0.06824923
-0.01235150
0.16189249
-0.05279500
0.00225419
-0.19288588
-0.10631735
-0.00039656
0.00665135
0.06910995
-0.17953624
0.00763489
0.14181225
0.02030688
-0.00435142
0.10203932
0.11249173
-0.05811459
-0.14573501
-0.02490582
0.03933698
-0.09052191
-0.08759807
0.01399695
-0.00947810
-0.04536719
0.07328181
0.06339587
0.03773688
-0.09968232
-0.01578094
-0.01267363
-0.07375818
-0.11888885
0.17433076
0.04659227
0.02509504
0.25768134
0.00293630
-0.03374120
0.07670329
-0.11029590
0.05477329
-0.00274006
-0.02156426
0.07172333
-0.00426068
0.01700027
0.03591264
0.02137726
-0.09067109
0.02652962
-0.06406896
-0.02021525
-0.09944870
-0.02639295
-0.15523116
0.08058915
0.01789208
-0.03327938
0.07202236
0.03606570
0.00501482
0.09240415
0.04810306
0.05442536
-0.00346453
0.03044623
0.01308485
-0.03414466
0.07492459
0.32381311
0.05921212
-0.00011496
-0.07234649
-0.00147415
0.07481746
-0.03842770
0.07662262
-0.07064711
-0.00551047
-0.05596184
0.03616849
0.00354997
0.05870505
-0.00085807
-0.01358832
-0.02340278
0.01535206
-0.05885055
-0.06955160
-0.03643857
-0.10983701
-0.11405449
0.03941463
0.05680427
-0.06248532
-0.07013357
0.02444131
-0.00001313
-0.06070044
-0.03722294
-0.05025663
0.01110598
0.01767469
0.02669903
0.15195192
0.02791009
0.09311251
-0.11373022
-0.06582365
-0.05579426
0.05719397
0.10023869
-0.02882327
0.05771820
-0.08600798
0.13789737
0.03431453
-0.09327672
0.06770691
-0.02895061
0.00322195
-0.03052341
0.00012676
0.01917467
-0.12181238
-0.05032618
0.10551507
0.01328850
0.10576493
0.02285974
-0.07330538
0.01899951
-0.02787655
-0.05892939
-0.01543195
0.00704006
0.05862352
0.03642748
0.02805951
0.06386261
0.12196733
-0.01557194
0.09411515
-0.00560572
-0.05245682
-0.04081371
-0.00446492
0.01484977
-0.01392794
0.05265660
-0.07354433
0.01933081
0.01220612
-0.01174940
0.23933485
0.00627183
-0.02517341
0.04667613
0.07177071
0.08115304
0.21379571
-0.03251916
-0.01715976
-0.12852719
-0.00886200
0.01001765
0.05534100
0.26597139
-0.06193125
-0.04202764
-0.00586063
-0.08926675
-0.07751650
0.03589445
0.04333691
0.03333115
-0.01454246
-0.01917283
-0.05368256
-0.00515059
0.02997755
-0.02126735
-0.07054755
0.00270864
-0.08168351
0.00474754
-0.02792091
-0.06972001
0.00084933
0.06166331
0.00662221
0.04660860
0.04580816
-0.04421603
-0.11018553
0.07406918
0.04509370
-0.02617178
-0.04606532
-0.00294004
0.14953423
-0.12409653
0.01672459
0.03588327
-0.11945924
0.01195207
-0.08821402
-0.00991494
-0.01230365
0.10312679
0.10280184
-0.05520472
-0.02002660
-0.11196994
0.02358258
0.21183169
-0.14533161
0.04745745
-0.13316981
-0.18685342
0.12679116
-0.07990625
0.12044296
-0.07893402
0.24196975
0.07956564
-0.04103963
-0.35839123
-0.14192085
0.19060233
0.03141705
-0.07590181
-0.00511580
0.04647992
0.07504927
-0.18702193
-0.20467158
0.16225292
-0.06868032
-0.16088179
-0.05666478
-0.20003030
0.00905367
-0.25700879
-0.27432558
-0.24167643
0.04303130
-0.00454591
-0.03589804
-0.11446413
0.22911507
0.13169897
0.16623051
0.21934190
-0.01633169
0.43225601
0.00073625
-0.13632509
-0.17987250
0.00565533
-0.03493793
0.34629008
0.18200845
-0.03870806
-0.03261917
0.15034945
0.26528376
0.15565586
0.00810614
0.29354733
-0.11447179
0.15636565
0.11172954
0.17604335
-0.02851186
-0.04934495
0.21346486
-0.07613309
-0.01286213
-0.17211829
0.18906881
0.09804267
-0.04614663
0.04716651
0.06353314
-0.04056126
-0.06650067
0.10026482
0.10508233
-0.01934341
-0.09643584
0.15033022
0.01499540
-0.01546325
-0.00228012
-0.04084978
0.16160738
-0.10232653
0.02146092
0.04970774
-0.00130606
-0.08465032
0.07224955
-0.09905003
-0.01445922
-0.03216249
0.08473908
0.05468641
0.03893612
0.01785661
-0.03277647
-0.11139087
-0.06630936
0.00556070
0.16171513
-0.02029974
0.01930901
0.01899182
-0.01718721
-0.02308590
0.07623588
-0.11976790
-0.08360270
-0.03267771
0.01995492
-0.11803994
-0.04451580
0.03841301
-0.08026283
-0.00651872
0.13615511
0.09620751
-0.05576915
-0.07806489
-0.04943588
-0.03479359
-0.13205874
-0.00715043
0.03006067
0.05204248
-0.16091703
0.01396212
0.09169204
-0.09123003
-0.10359859
0.00199883
0.04525857
0.08281864
0.04825357
0.03332286
0.00037950
0.03686682
-0.00609692
0.13771731
0.06200685
-0.05093559
-0.05852132
0.02225390
-0.07726684
0.16730307
-0.01677627
0.04917373
-0.17351899
-0.02935118
0.08876348
-0.15639037
-0.01627507
0.08890674
0.02966197
0.05182679
-0.06713944
-0.01000356
-0.08011706
-0.08712550
-0.06231879
0.05944231
0.06192273
-0.07818554
-0.00815998
0.03719328
-0.10385932
0.06659099
-0.09727995
-0.00441295
-0.00195575
-0.01785518
-0.13661972
0.01985749
-0.01081601
-0.05024483
-0.02152051
-0.03973982
0.03866218
-0.04540661
0.12897247
-0.03815353
0.01500562
-0.27723327
-0.05435476
0.08914794
-0.13908380
-0.10588080
0.03339299
-0.00007113
-0.06160618
0.08031954
0.02454884
