-0.02693046
0.04996998
0.08314377
0.04150521
0.60172969
0.11751796
-0.05197999
-0.06459093
-0.03020372
-0.04147914
0.07925689
0.08038332
0.00359021
0.17665067
-0.04917064
-0.15589911
-0.02127943
0.01472966
0.02646099
-0.02332683
-0.19163626
-0.07794787
0.05060124
0.03388472
-0.03247638
0.11671545
0.09168958
-0.11824920
0.23175991
-0.01167959
-0.13073398
-0.04018345
0.07438678
-0.05545895
-0.15198354
-0.07418775
0.11534081
0.08252294
-0.13831450
0.08423246
0.12065485
0.01586280
-0.05615168
-0.03961971
0.05455144
0.06745572
-0.11375090
0.04279169
-0.25974974
0.16774623
0.18273975
0.05629926
-0.03670819
-0.02786729
-0.09249686
-0.00694659
0.04250373
-0.01148662
-0.09923165
-0.03158002
0.04043141
-0.04344568
-0.02606900
0.07163994
0.00785525
-0.00689466
0.02821428
-0.01404997
0.00610517
-0.01039489
0.00823763
-0.01201842
0.01502394
0.00017827
-0.01078037
0.01301654
-0.02624222
0.00187455
-0.00609590
0.00726786
0.01177574
0.01576573
-0.01803827
-0.00241607
-0.00338621
0.01450711
-0.00369196
-0.00952146
-0.02189271
0.01939315
0.01357462
-0.00754827
0.01283150
-0.01998898
0.00253656
0.00658270
-0.05706526
0.02973537
-0.02281593
0.04649537
-0.00099197
-0.00000413
-0.03007192
0.02023339
0.02101536
0.01805354
-0.02093361
-0.01641909
0.00660239
0.01725786
0.00488086
0.04805294
-0.02201905
-0.01844094
0.03661354
0.00531735
-0.05978271
-0.01294706
0.00567588
0.01630006
0.02172990
-0.00164622
-0.01546266
0.00621781
0.03533766
-0.02465322
-0.01024616
0.02287794
0.02045046
0.02569596
0.01426079
0.00042411
-0.03729319
0.01807307
0.00717005
-0.00858921
-0.00859279
0.02614837
0.00155521
-0.00123423
-0.02421801
-0.03499967
-0.01954509
-0.03055034
-0.00882136
-0.01655759
0.00974169
0.02969797
0.01675333
-0.00142984
-0.00711161
-0.00247687
0.01463855
-0.06777380
-0.01230350
-0.01160118
-0.00908867
0.02550338
-0.03000627
0.02510476
-0.01248635
-0.00413333
-0.01647929
-0.00148576
0.02366811
-0.00413415
-0.00135621
0.00999324
0.02469268
-0.06065516
0.04771112
0.00085057
-0.04461457
-0.00329993
0.02943475
0.02467999
0.01301877
-0.02239799
0.00779920
-0.00242539
-0.00213102
-0.00628416
-0.00879778
-0.02793431
0.01936400
-0.07563430
0.00506777
0.00437826
-0.00195621
0.00938840
-0.01881834
-0.07750945
0.01555767
0.01404802
0.01646276
0.02969065
-0.02911989
-0.03288516
0.00259204
0.01468939
0.00905757
-0.00627568
-0.00457711
-0.01709535
0.00500281
0.02933938
0.01060154
-0.01569383
0.00493222
-0.01169086
-0.03823891
-0.00408810
0.01488413
-0.02095210
0.00968574
-0.01617374
-0.01567866
0.00222771
-0.00914198
-0.01730892
-0.03169299
0.00859693
-0.01544297
-0.00114372
0.04022063
0.02422127
-0.00114112
-0.00735773
-0.01385240
0.00212948
-0.00364444
0.02908585
-0.00427783
0.00542194
0.02138232
0.02039762
0.00983396
-0.00954047
-0.02320783
0.01770665
-0.02343513
-0.00321681
0.00404323
-0.00360975
0.01213114
0.03207595
0.02578489
-0.00689833
-0.00010183
-0.01463291
0.02495998
0.01206696
0.00060194
0.03590871
0.00476252
0.01493427
0.05407168
0.06675872
0.01483994
-0.00663435
0.00071552
-0.01148601
0.01388089
0.01734185
0.00565331
-0.04526413
0.02605605
0.00533096
-0.01205449
0.00944906
0.01219831
0.02396297
-0.00370456
-0.01252492
-0.04682696
-0.01356242
0.08239456
-0.02954567
-0.02909911
-0.01500425
0.00533514
0.03877981
0.01445087
0.01118863
-0.01181667
0.02147556
-0.01105885
-0.00974914
-0.00617707
-0.02017977
-0.00288954
-0.01097149
0.01123279
0.00780015
0.00316834
0.00909479
-0.00964503
0.00060495
-0.04191332
0.00957708
0.02977908
0.00064431
0.01185240
0.02719588
0.00990453
0.02063677
0.00083799
-0.03610996
0.05852916
-0.03143415
-0.00864889
0.03518016
0.02752417
0.01258002
0.01146505
0.00016833
-0.00222279
0.00405885
0.01542275
0.03659863
-0.01725405
0.02781801
0.00274841
0.03197700
0.00519767
0.00325312
0.01114033
-0.01802301
-0.01481390
0.00374412
-0.01452272
-0.04052883
-0.03432264
-0.06678256
0.02992563
0.05952205
-0.00050695
-0.00711565
0.00217583
0.00341522
0.00933068
0.00991478
0.02177584
0.06284885
0.01602175
-0.02668715
-0.01627322
0.01571921
0.03144428
0.01961094
0.01790784
-0.00505660
-0.00584233
0.01741825
-0.00450159
0.00857668
-0.02478732
0.03420227
0.02322642
-0.00490115
0.01766124
-0.00173707
0.00182700
-0.02103684
-0.00614947
-0.01217658
-0.01564154
-0.01695391
0.01033506
0.01107892
-0.01992779
-0.00244417
0.01151439
0.01562700
0.03410547
-0.01121601
-0.00500001
-0.03437510
-0.02989757
0.01591920
-0.01183439
0.00790343
0.01442726
0.01926142
-0.05044487
-0.00170197
0.05618018
0.06686074
0.02286111
-0.01147684
-0.04968170
0.04330495
0.02835518
-0.03846300
0.08298050
-0.02904141
0.03035907
0.08468296
-0.02384897
-0.08417617
0.00579790
0.12580194
0.01629130
-0.01815800
0.00959394
-0.00362057
0.07585512
-0.01430428
0.03086046
-0.00992045
-0.06042824
-0.03646081
-0.05496823
-0.13554247
-0.05906758
0.04356419
0.03065131
0.01630716
-0.11696529
0.10885927
-0.04596284
-0.11759759
0.07464463
-0.00625331
0.04275501
0.04565301
-0.00465056
-0.07504737
0.03572956
0.13938436
0.04543405
0.01183970
0.11267848
0.08518279
-0.07725061
0.01343448
0.09547681
-0.11860508
0.07134826
0.10054195
0.02517827
0.02372132
-0.03516411
0.03040235
0.10565183
-0.09268676
0.06026359
-0.01960279
-0.03434825
-0.00799569
-0.01016385
-0.02838698
0.00799911
-0.00673571
-0.01259995
-0.01750359
-0.05049371
0.01104868
-0.01596073
-0.01837756
0.02542542
-0.02596023
-0.02999603
0.00750483
0.00032553
0.00895038
-0.03682654
-0.00706508
-0.01899495
0.03567421
-0.00498838
-0.02548860
-0.01406485
0.01042511
-0.02323338
-0.02282905
0.01066356
0.00668412
0.00088715
-0.00033926
0.00999235
-0.00671753
0.00145057
-0.00561805
-0.02086357
0.00940606
-0.01902485
0.01093316
-0.01709306
0.01242455
0.00702403
-0.01354087
0.01201234
-0.00371986
0.01570834
0.01256862
0.02930642
0.00846155
-0.00044739
0.01037167
-0.00450029
0.02166932
0.02136469
-0.01275330
0.00783305
0.00681997
-0.00662240
0.01723439
0.02963614
-0.00518425
-0.01433564
0.00165918
0.00436211
-0.00655166
-0.00350518
-0.00119295
0.00616424
0.01000929
0.01293754
-0.01663184
-0.01637806
0.00447087
0.00397757
0.00114215
0.02004625
-0.01642410
0.00134546
-0.00849622
-0.03263824
-0.00174339
0.00643490
-0.02015642
0.00608064
-0.01851447
0.00897264
0.02731934
0.01186169
0.00063179
-0.00223112
0.00480420
-0.00924380
0.00235985
-0.03936159
-0.00468469
-0.01313238
0.02283638
-0.01058252
-0.01324388
-0.00515959
-0.00466955
-0.02876575
0.04662284
-0.00360853
0.00779984
-0.00388779
-0.04087086
0.01300131
-0.01017298
-0.03729613
0.01380827
-0.03585573
-0.02502174
0.00831684
0.01674709
-0.01643056
-0.00413085
-0.04785916
0.00100513
-0.00255867
0.00395485
-0.03066369
-0.00404272
0.01825526
-0.02962578
-0.02435624
-0.02808278
0.11957812
0.12049708
0.05929850
-0.00718277
-0.13490567
0.11197954
0.08345134
0.19912146
0.05317134
-0.06711946
0.12735413
0.24992539
0.49882588
-0.16196345
0.06142055
-0.04831204
-0.05336238
0.04637206
-0.14678608
0.08462368
0.09991608
0.08018231
-0.05880680
0.00687549
0.00189720
0.09206801
0.12457829
0.25208738
-0.08641039
-0.02755989
-0.06144595
0.09060984
0.08052083
-0.11632763
0.15205100
-0.10801220
-0.10842656
0.09379752
0.10312130
-0.15109733
0.25553218
0.07007981
-0.04132192
0.02873666
-0.19458777
-0.28159881
0.06075281
-0.14677659
-0.03629650
-0.05293800
0.12501913
-0.12275790
0.20279205
-0.00895945
0.11094905
-0.00166318
0.08658680
-0.01781393
0.01173952
0.18874350
-0.10567302
-0.00363265
-0.06649999
-0.05936817
0.00379262
-0.02231723
0.00433131
0.01392179
-0.00950446
0.00522289
0.00858593
0.02045015
0.01763127
-0.00149369
0.01437364
-0.01294830
0.02287778
-0.01276853
0.00045595
-0.00768770
-0.00864559
-0.00874071
-0.01425420
0.00551485
-0.01771349
-0.00225251
-0.01331982
0.02550508
0.11550727
0.04353794
0.03264085
0.00180801
0.01220051
-0.00574966
-0.00305651
0.00435369
-0.00265141
0.04095669
0.05310832
-0.00430743
-0.01639772
0.02169913
-0.01521588
-0.01142904
0.01000503
-0.03427267
0.01777956
0.01789076
0.00267120
-0.00220361
0.01352009
-0.03648122
-0.00885567
0.00847000
-0.03749069
-0.01153504
-0.01988220
-0.01593759
-0.02058701
0.00343914
-0.00723351
-0.00569927
-0.01180318
-0.01140415
0.01631329
0.00415789
-0.05096326
-0.01180061
0.00603466
-0.01349554
-0.01351825
0.00316922
0.01297338
-0.00788690
-0.01071759
-0.00051603
-0.00218517
0.02019754
0.01582813
-0.00688332
-0.04528142
-0.02593925
-0.01443272
-0.00702358
0.00968353
0.01658550
0.02155504
0.04818903
0.01898130
0.01160223
-0.00403479
-0.01644627
-0.01698332
0.00113036
0.02432799
-0.00254937
0.01984612
-0.01649704
-0.01259295
0.02631151
-0.00612134
0.00493493
0.01361350
-0.01209782
0.01248850
-0.01161302
-0.02027487
-0.00372112
0.00666559
0.01608709
0.02114103
0.00306706
-0.01230316
0.00475059
0.00025806
-0.02199788
0.01120744
-0.02757209
-0.00945124
-0.03580312
-0.00556834
0.00542085
0.01445232
-0.01209241
0.00672333
0.00318296
0.00606334
0.00740056
0.01588815
0.02245669
-0.01748502
-0.02683475
