-0.02807459
0.04363434
0.05721888
-0.04724550
0.16105475
-0.02664340
0.17262654
0.09883666
-0.01600056
-0.09724573
0.04825233
0.07722579
-0.16138265
0.02125332
0.00195935
0.29251993
0.15696049
0.11070863
-0.08483014
0.01676760
0.18723771
-0.12071800
0.00682664
0.27947614
0.11314172
0.10985790
-0.00636610
-0.05215864
-0.28693107
0.12236743
-0.04219580
-0.05900013
0.18453762
-0.03695881
0.02516712
0.08150936
-0.17141904
-0.08613101
-0.03711316
-0.13833383
-0.14633718
-0.15929331
-0.12702045
0.15334211
-0.02450618
-0.15772215
0.03508447
0.07035019
-0.10188485
-0.09324706
-0.06103710
-0.10768626
0.25178885
-0.15940200
0.13964638
0.14631975
0.07526898
-0.26081288
-0.04227621
-0.13659066
0.07452692
0.07848463
-0.04559811
0.04679383
-0.08922846
0.07610042
-0.08360971
0.03626151
-0.00524721
-0.17843997
-0.06326561
0.07403587
-0.05462717
-0.19584773
0.08480994
-0.03154548
-0.10705202
0.06855623
0.09396221
0.09733708
0.04291566
-0.03504243
0.11908983
0.20839339
0.00214766
-0.16832581
0.11408364
-0.10293933
-0.20372367
-0.01113800
-0.19474313
-0.23224252
0.37583128
-0.04388598
0.10042986
-0.08399204
0.10277543
0.07981564
0.01131965
-0.06294969
-0.05140064
-0.06162830
0.17536104
-0.06740313
-0.05030354
-0.00125022
-0.01983899
-0.13638924
-0.19755526
-0.03165152
-0.13295591
-0.05722370
-0.34556481
-0.06480615
0.03712043
0.01749533
-0.02499690
-0.01247209
-0.08195529
-0.00989724
-0.06605263
-0.08885479
0.01155569
0.12588914
0.12408572
-0.22178398
-0.01675407
0.19272332
-0.13558552
-0.05674155
-0.06616047
-0.05409387
-0.10316978
0.03446373
-0.30050841
-0.04492137
0.08836873
0.11733402
0.00979609
-0.10390071
-0.03038041
0.01327290
0.01248959
0.09436012
0.13051756
-0.17490408
-0.05898081
-0.02544245
-0.17770553
0.20763078
-0.15244015
0.17570376
-0.12644601
-0.03991460
-0.03620002
0.03445521
0.02503153
-0.01754417
0.08303250
-0.09085160
-0.01551963
-0.15084431
-0.04551164
-0.12193362
-0.02340308
0.05204741
0.21441683
0.07057843
-0.28254089
-0.14103760
-0.09529239
-0.08249199
-0.11189187
0.04419062
-0.07826629
0.34010446
0.01795671
-0.04414028
0.09426224
-0.10560676
-0.07515736
0.03558659
-0.11629911
0.00274721
0.06760024
-0.15741774
0.03427662
0.12780410
0.03580672
-0.09199405
-0.12456420
-0.24521711
0.24971983
-0.16547436
0.12259499
0.01165691
0.00597971
0.32157549
0.04935288
0.02637117
-0.15288566
-0.02936630
0.08808152
-0.25857672
-0.08874267
-0.05350401
0.00999697
-0.05737476
0.13691947
0.09655557
-0.16208918
-0.12474781
0.01118471
0.27985224
-0.10726690
-0.18491076
-0.20118068
-0.15823732
0.43865764
-0.28468901
0.09427514
0.20314305
-0.09226305
0.03722626
-0.12376432
0.25029346
0.02307027
-0.15025015
0.08342174
-0.00238609
-0.17934220
0.00101745
0.26594970
-0.14765666
-0.04139278
0.13128303
-0.08297210
0.00779965
0.07000177
-0.25394168
0.07017201
0.08271398
-0.20751598
0.20134459
0.02577794
-0.07870304
-0.00946239
-0.01277362
-0.15982732
-0.08859619
-0.13740659
0.34917578
0.06036735
-0.01292628
0.13832884
-0.13145879
-0.17582442
-0.09643835
0.03440275
0.03082584
0.02573062
-0.04902568
-0.06115432
-0.05631234
-0.01484527
-0.35528830
-0.00114769
-0.05537373
-0.07425736
-0.11027873
-0.03803091
0.03987188
-0.14206956
0.13182716
0.03315990
-0.06613644
0.01565406
-0.01537406
-0.06617867
-0.14090097
0.05370700
0.12044588
-0.12143871
-0.04549563
-0.13301095
0.04095019
0.11868515
-0.07115761
-0.23195396
0.01880415
-0.03983361
-0.00703383
-0.12573251
-0.08936834
0.16306899
0.00564628
0.08043105
0.14658089
0.22204208
-0.12656052
-0.10538674
0.11821803
-0.07250457
-0.02297444
0.31618840
-0.15249132
-0.06717073
-0.08617789
-0.56302381
-0.15078527
-0.05075674
-0.09437318
0.11234767
0.10420533
-0.01613471
0.04568405
-0.08274337
-0.04974955
-0.14109805
0.07709556
-0.19145019
0.08526617
0.14089976
-0.32529610
-0.08470909
-0.10335192
0.03554153
0.01378878
-0.09101867
-0.12812620
0.09240527
-0.06988130
-0.05304368
0.19230528
-0.19431126
-0.00241004
-0.14814651
-0.09921326
-0.05337393
-0.22657704
0.12513426
0.02571486
0.13976066
0.08457211
-0.04109999
-0.28893483
0.03156016
-0.26405543
0.00207108
-0.23543137
-0.18467161
-0.22642221
0.00044372
0.00757117
-0.04032220
-0.14078978
-0.03863363
0.09026147
-0.03004100
0.12317400
-0.02343610
-0.04293771
0.03821988
0.01173302
0.11575391
-0.00864545
-0.11684261
0.16246960
-0.11855252
-0.04453821
-0.08862495
-0.11348337
-0.04263027
-0.20283629
-0.27039784
-0.05806571
0.04333543
-0.15190461
-0.24223655
0.00648397
-0.05693159
-2.04795575
-0.05910584
-0.17303944
0.05499669
-0.09803010
-0.23769853
0.00904385
-0.04297134
-0.16216423
0.02400602
0.03110693
0.02592982
-0.07001421
-0.01298000
-0.13031627
-0.27898356
-0.13227111
0.03077642
-0.19118308
-0.12599032
-0.10545417
0.06773469
-0.09689536
-0.25967103
-0.21834964
-0.01797930
-0.15791638
0.13176443
-0.10472962
-0.11229213
-0.17424293
-0.01028030
0.01623441
-0.09675720
0.17570712
-0.10849385
-0.18195997
0.02569558
-0.05078112
-0.08095276
-0.35253981
-0.00249815
-0.11587773
-0.10323721
0.06012743
-0.02918158
-0.23920353
-0.19445528
0.05175504
-0.01372160
-0.20098206
-0.14235665
0.24339624
-0.14057380
0.06626982
-0.02561877
-0.22706300
0.04899736
-0.03526233
0.09437820
-0.03034686
0.02123141
0.08855964
-0.03458750
-0.10523958
-0.08625563
0.05543499
-0.06755503
-0.24262263
-0.07102396
-0.05637977
-0.01758654
-0.09290083
0.05619868
0.11672641
0.00227721
0.10786755
-0.16226178
-0.08884654
0.03268008
-0.39986295
-0.08699138
0.10129856
0.07928973
-0.04928540
0.03598676
-0.20853187
0.03139398
-0.03047409
-0.01914642
-0.02222418
0.03045738
-0.01247643
-0.01612430
-0.05108282
0.00839597
-0.00264884
-0.23509140
-0.18724054
-0.01778948
0.15619865
-0.15747109
-0.17273618
-0.07170716
-0.11414889
0.10524212
0.09414285
-0.23695587
0.06803723
-0.05392936
-0.06629562
-0.00732506
0.05104616
0.04176034
-0.05078716
-0.04958120
-0.05169857
-0.01488677
-0.03167394
0.05895821
0.20905048
-0.17770061
-0.19005738
-0.01277860
0.08915387
0.02727904
-0.01002565
-0.26974303
-0.16041364
-0.10058774
-0.12740235
-0.05949996
-0.05431177
-0.03248109
0.30536264
-0.06408826
0.06909925
-0.11193152
-0.02589930
-0.09472022
0.01636735
0.09483468
-0.06570876
-0.01668048
-0.09125720
-0.16579942
-0.06491254
-0.05114688
0.19633506
0.24681430
-0.12146468
-0.19696653
-0.04618177
0.02376765
-0.28714085
-0.03827764
-0.02543986
0.01971881
-0.25489631
0.06065108
-0.04036780
0.03901418
-0.07835010
0.00021517
-0.08950441
-0.15250818
-0.07156713
0.20443287
0.16138823
-0.18698587
-0.05582085
0.08461742
-0.02920493
-0.08103000
-0.11988501
-0.08141854
0.16652562
0.00647299
-0.18580167
-0.10247588
-0.11793157
-0.03244157
-0.14586644
-0.19235015
0.03379739
0.14521047
-0.06431534
0.02395266
-0.03735044
-0.01367698
0.02494930
0.09744756
0.07696585
-0.17497838
0.02699833
-0.01907255
-0.31984469
0.07355831
-0.30138078
-0.18477829
0.09723664
0.11591453
-0.08648991
-0.04944284
-0.16617616
0.31438029
-0.10766779
-0.15937632
0.00369533
-0.01875873
-0.04592514
0.14485098
0.04465331
0.05003651
-0.16807139
-0.05725434
0.01096315
-0.12278206
0.03710011
-0.01510894
0.00986935
-0.21086682
0.04405567
0.07579856
0.15024681
0.04252306
-0.06689996
-0.05586992
-0.01113705
0.02458189
-0.11058104
-0.01552462
0.05557563
-0.11074986
0.01126114
-0.05025719
0.03473855
-0.09191088
-0.09754414
0.24438001
0.02676237
-0.04946586
0.19625151
-0.06535787
0.11435636
0.22080560
-0.16843194
0.02158237
-0.06353477
0.06560338
0.09678579
0.16026019
0.21114159
-0.08202209
-0.02243352
0.05747294
-0.03587804
0.12974383
-0.06954314
-0.12844253
0.09565548
-0.00088073
-0.18617636
-0.00986687
-0.17445177
0.04437093
0.06777137
0.02589273
0.20340075
0.05163920
0.11968581
0.22975957
0.15182540
-0.21783720
-0.10851562
0.15800162
0.01247452
0.07743017
-0.15100215
-0.01942764
-0.16739546
0.00099047
-0.14213368
-0.00293001
-0.07193668
0.03007748
0.21428178
0.05109922
0.14297196
0.13568507
-0.07312764
-0.29957658
0.08513391
0.07747267
-0.16325359
0.19735888
0.02695184
-0.07095908
-0.01143297
-0.09055966
-0.08509642
0.14169148
0.00628830
-0.07591823
0.01953602
0.02905879
0.11546636
-0.23761356
-0.08075716
-0.09849957
-0.03168409
0.09103257
-0.02598482
-0.05628114
0.08411691
-0.17137329
0.04807382
-0.19567528
-0.04960665
0.11090316
0.03035765
-0.15306476
0.05217794
0.05975222
0.11013720
0.08753465
0.03736110
-0.02604134
0.02802352
0.08887918
0.01483370
0.22880927
-0.01276075
-0.08658190
0.09635816
-0.03052832
0.00407687
0.01037407
-0.07877868
-0.10988266
0.04681321
-0.15741830
-0.13118047
0.17473887
-0.12874091
0.01222037
-0.07666819
-0.05262874
-0.00868179
0.13071068
0.07867900
-0.03716204
-0.02588850
0.28694811
-0.12534937
-0.01926703
0.28526267
-0.04555086
-0.01111112
0.01742227
0.02513821
-0.05877866
-0.10218929
-0.10948805
0.12579545
-0.04125630
-0.06784793
0.06264720
0.10702380
-0.11602803
-0.03749549
-0.03784086
0.17440581
-0.27743688
0.06275377
-0.04036190
0.12494692
-0.07059257
-0.05265227
-0.02645184
0.01305253
-0.00194528
-0.04389116
-0.22614062
0.10618081
0.02502470
-0.01500416
