0.00360915
-0.05893777
-0.05880870
-0.03397346
0.02881495
-0.01393763
-0.03486253
0.03675340
-0.01582707
-0.04166208
0.00427911
0.03408464
0.01026207
0.01017689
0.00362784
-0.05953118
-0.02324636
-0.02535247
0.02536712
-0.03602178
-0.06908297
0.02288421
-0.04366443
-0.03585963
0.02105086
0.01377163
-0.00355956
-0.03467340
0.00159177
-0.02090766
0.03662871
0.01636185
-0.01561584
0.03092765
-0.02895491
-0.01234903
0.02491511
0.05258765
-0.01944696
0.02668530
-0.00435780
0.00319027
0.06337909
-0.00578311
0.04980192
-0.00069951
0.01689412
-0.01274249
-0.00458177
-0.01926281
0.00078698
0.05364870
-0.06455593
0.02344924
0.02868959
0.00664087
-0.03623038
0.01605828
-0.02612039
0.00441122
-0.00944725
0.04161109
0.04249717
-0.01558108
-0.01113437
0.00417711
0.02220911
0.01776781
-0.05727582
-0.00186735
-0.00557745
-0.02332711
-0.01581873
0.06735288
-0.05467858
0.07782097
0.04256077
-0.05598582
-0.06771019
-0.03755207
-0.00458196
0.01036557
-0.01354383
-0.01149568
-0.00646408
0.00879836
0.03284113
-0.00234648
0.01745233
0.03769365
0.01975490
0.00396046
-0.10722300
-0.01993317
0.01470003
0.00457262
-0.02925766
0.02772395
-0.01957063
0.02727743
-0.00838342
-0.01746151
-0.07753208
0.02732400
0.02050043
0.08712580
-0.01485324
-0.03713161
0.07219576
-0.01951621
-0.02218455
0.01328519
0.02455494
0.00520528
-0.02816077
-0.00380982
0.00258810
-0.01281646
-0.00226250
-0.05439163
0.02227400
0.07496009
-0.02101846
-0.05610274
-0.07204783
0.01351282
0.02000721
-0.06696034
-0.01474676
0.03559158
0.01672762
-0.00631526
-0.03973695
-0.04733970
-0.02319651
0.01943585
-0.04192073
-0.06955296
-0.01766659
-0.00931074
0.00768455
0.01588651
-0.07139966
-0.01004856
-0.07362977
0.06248093
0.03975401
0.04198189
0.01902355
-0.05192428
0.04211650
-0.00611884
0.00043798
0.02630893
-0.00998271
-0.03628993
0.01620891
-0.00263814
-0.02662639
-0.04744169
-0.02616956
-0.00269396
0.04446186
0.01583646
-0.00325535
0.00889837
-0.04800026
-0.03736045
0.03401226
0.02440823
-0.00260585
-0.02160473
0.05730265
-0.05318641
0.00123117
0.01262451
-0.00453154
-0.02860165
0.03928285
0.01471705
-0.02823719
0.00331504
0.02384088
-0.03844304
-0.02187365
0.04450942
-0.04156971
-0.03534421
-0.06160662
-0.02185953
0.02818865
0.03534022
-0.04071758
0.06921164
-0.00343309
-0.03689055
-0.02733339
-0.11190104
-0.04389079
-0.01275396
0.00210961
-0.02558200
-0.01325382
0.09297264
-0.03006890
0.05310532
0.02679692
-0.04800487
-0.00032107
0.00797715
0.00438503
0.06400733
0.01671018
-0.07655149
-0.03049859
0.08441788
0.01688027
0.03823454
-0.07758137
0.06167959
0.03779968
-0.04230037
-0.02159824
-0.00169186
-0.00728367
-0.09434910
-0.04172190
0.02626596
-0.01889930
0.00597904
0.02060133
-0.01410132
-0.05084464
0.03579073
-0.00854766
-0.02088533
-0.01386322
-0.01892907
-0.01403995
0.05679801
-0.02949025
-0.05140082
0.04974119
0.02761039
0.03104099
0.01319500
-0.06761485
-0.01463316
0.05021818
0.02165802
-0.03020121
-0.08943866
-0.05562073
-0.03961527
-0.08579816
0.09084806
0.01398615
0.01879640
-0.02682170
0.01008725
0.05947877
0.01499673
-0.02036404
0.03529480
-0.04515787
0.05969756
-0.00606371
-0.02111070
-0.00716534
-0.01541085
-0.05957342
0.02701493
-0.00374760
0.00618099
0.01138728
-0.06654844
-0.05415105
-0.02182448
-0.00818770
0.01134866
0.05832113
-0.02841882
-0.05098618
0.01198734
0.01774871
-0.00070202
0.00346150
0.02700345
0.04075745
-0.03551598
-0.09634898
-0.05152609
0.05844465
0.01850818
-0.06174679
-0.03783648
0.05701415
-0.00134791
-0.03891711
-0.00664358
-0.00001161
0.01927137
0.00976132
0.00333341
-0.11902154
0.06974398
0.02971135
0.04470081
1.38391626
-0.00550575
0.01975258
-0.12715548
0.02114904
-0.01844827
-0.00835914
-0.03588136
-0.03299781
-0.07918966
0.05259155
-0.12769629
-0.03155515
-0.02806403
-0.05297514
0.03428525
-0.01131273
-0.02394482
-0.02232437
0.02878334
-0.02058171
-0.01624839
-0.00243198
-0.09560281
0.00976534
-0.02247003
0.08083379
0.01090331
-0.01109363
-0.00494881
-0.02508997
0.00474620
-0.02640353
-0.04572258
-0.07657959
0.00768178
-0.01713093
0.02738015
-0.04259850
-0.02162866
-0.04567173
-0.02129905
0.05338399
0.06657425
0.02174618
-0.00676127
0.01565346
0.04036195
-0.02493091
-0.00127370
0.02754820
-0.02172469
0.00843903
-0.00678708
0.01096465
-0.02289310
-0.02731018
0.00771570
-0.05942309
-0.06508393
-0.07190010
-0.05757076
0.01133823
0.02144886
-0.00593194
0.01276810
-0.00716527
-0.00443846
-0.02115447
0.01510782
0.02029505
-0.01709821
-0.01048058
0.22997549
-0.01638216
0.04492130
-0.02278346
0.01501875
0.06116917
-0.02412713
0.02410953
0.00553268
-0.01843981
0.00746429
0.00679168
-0.04617088
-0.04333005
0.02828493
0.09153868
-0.01934695
-0.00768991
0.01674988
0.06129222
0.02239222
-0.02142141
-0.00110555
0.02474043
0.03628670
0.00327560
-0.00158109
0.02876455
0.00301840
0.02338829
0.04987631
0.02128448
-0.01157546
0.01292823
0.00723880
0.01150580
0.04189180
0.03834695
0.00504822
0.00489676
0.06677823
-0.02546311
0.02014811
0.02049002
-0.00833170
-0.01680486
0.00102618
0.04771568
-0.01350122
0.01678569
-0.00689618
0.01188640
-0.11596172
-0.00318480
-0.00060016
0.01277371
0.04933605
-0.03139151
-0.02816587
-0.00406791
0.00654606
0.00586199
-0.05357994
0.00841915
0.01058208
-0.00862906
-0.03896804
0.00803332
-0.00128603
-0.00512236
0.04231318
-0.01296025
0.03485807
0.01828709
0.00189524
-0.02826547
-0.01784242
0.00706189
0.00593017
-0.07448950
0.14222306
0.04782484
-0.00889004
0.07124694
-0.04619275
-0.01557888
0.01505669
-0.01728963
0.03927477
0.00076178
-0.05379448
0.00950327
-0.04467710
0.02699292
0.03732796
-0.03682420
-0.00386332
0.04102877
-0.00095971
0.02076278
-0.02741523
0.02904958
0.01215690
0.01286528
-0.03626150
-0.03321142
-0.00150663
0.05108971
-0.06801733
0.01675210
-0.01164864
-0.05377840
0.00721244
0.02045257
0.03393395
-0.05269014
0.02869848
-0.02821029
0.00565086
-0.00643208
-0.04913964
-0.00084691
0.01226461
0.00287206
-0.03046671
-0.01974431
0.03444108
0.03928213
-0.00321088
-0.08750074
-0.03874280
0.06901240
0.01394872
0.03789600
-0.06434924
0.02480872
0.01887372
0.03500083
0.06851445
-0.00381915
-0.02506735
0.00203991
0.02745801
0.01467003
0.03200493
0.03508966
-0.00104463
-0.04469556
-0.06143415
0.01699553
0.00343847
-0.02181032
-0.02318236
0.01848253
0.02441579
-0.02231241
-0.05223982
-0.07938652
0.02394124
0.02021246
0.04866752
0.02115673
0.04180656
-0.00357913
0.04764151
0.01842511
0.02791331
-0.02849153
0.01344496
0.06824372
0.02309598
0.01973957
-0.00334679
0.04713113
-0.00503872
-0.00619720
-0.01436498
-0.05558364
0.01658263
-0.01664623
-0.01492718
0.06902212
0.03366727
-0.03091039
0.00468909
-0.03951573
0.02720737
-0.01918959
0.00661539
-0.04761615
0.02779762
-0.04683623
-0.00451227
0.05441364
-0.04784291
0.00487592
0.11408989
-0.02071809
0.06236251
-0.00734164
0.01287298
-0.02532337
0.02086711
0.03059308
0.02775902
-0.06964605
-0.03002774
0.05846434
0.02627864
0.01462991
0.04137756
-0.01789736
0.00498598
-0.01467342
0.05902158
-0.02916045
0.04989048
0.01544953
-0.00379368
0.02153335
0.02691321
0.07940344
-0.03616467
0.01310257
-0.03037743
-0.02693363
0.05938048
0.01013298
-0.00802665
-0.02200885
0.07719524
0.02316162
0.05959314
0.01568060
0.00962718
-0.01121682
0.01619124
0.03345953
-0.01725755
-0.01148308
0.01883615
0.01097843
-0.01205804
0.02143453
-0.04200073
-0.00044170
-0.05963875
-0.08148340
0.00588495
-0.07827333
-0.02027162
-0.01287493
-0.02927345
-0.01786281
0.03172079
-0.00641219
-0.03571728
-0.05691001
-0.00898719
-0.00124746
-0.00510927
0.02167993
-0.03682181
0.05516342
-0.00115468
-0.01815324
-0.00344998
0.05026902
-0.01216033
0.00555048
0.02495194
-0.02633040
0.05022361
0.00396182
0.05498477
-0.04539381
-0.01890349
-0.01058006
0.02151886
-0.02612336
0.01537525
-0.05253090
0.01925039
-0.03189912
-0.07539785
0.00191936
0.05227742
-0.03813805
0.00498312
-0.00305588
-0.03318230
0.04341831
-0.01631357
0.00642934
0.06607089
-0.04143830
-0.02034429
-0.00014229
-0.00293812
-0.01252442
0.01516586
-0.04098722
0.03705165
0.02577833
0.01571288
0.01024481
-0.03640737
0.04065384
0.02833162
0.01565559
0.00359728
0.03559220
0.01882081
-0.02281089
0.01758487
-0.00951757
-0.03742409
0.06036230
0.04140148
-0.00727774
-0.02415197
0.07147632
-0.04564268
-0.01441468
0.00983186
0.04751188
-0.01079490
0.00582896
0.01486021
0.04176027
0.02799931
-0.02284572
0.10624474
0.04004404
-0.03203780
-0.02583309
-0.01495386
-0.00034177
-0.00883476
-0.01267153
-0.08202422
-0.03856613
0.03057693
-0.03738009
0.04737375
0.02877238
-0.03133934
0.03355554
0.03465590
0.00085963
-0.01586694
0.00140001
-0.04148898
0.01670347
0.02970392
-0.01578288
-0.03156717
0.02322063
0.02620335
-0.00207920
-0.05577696
0.00582462
0.04896276
-0.02047748
-0.04919751
-0.01286582
-0.02650742
0.02858142
-0.04279577
-0.02057304
0.00055735
0.04572777
-0.03666887
0.01223537
0.00867977
0.01013918
-0.00706935
0.03763718
-0.00711416
-0.00627126
-0.00365485
-0.00572353
-0.01568166
0.09995782
-0.09019267
-0.04692667
-0.03704010
