-0.04310598
-0.07734954
-0.01432562
0.04975115
-0.12430134
0.00641371
-0.12210225
-0.07445791
-0.03061015
0.01647356
-0.00592035
-0.11699776
-0.01529474
-0.06995873
-0.03327964
-0.05629206
-0.01567868
-0.02008593
-0.00698771
-0.16569597
-0.13513002
0.06663839
-0.10480646
-0.11133550
-0.02559034
-0.13651423
-0.07380120
0.05678694
0.06083666
-0.04097422
-0.03509163
-0.04828349
-0.13121760
0.07349002
-0.08290048
-0.02285142
-0.00769571
-0.10816874
-0.10429253
0.13626871
-0.01729463
0.06789810
-0.03646440
-0.07712407
-0.04137737
0.01770609
-0.02202847
-0.00311463
-0.06389699
0.03122929
0.06863476
-0.01033390
-0.15665849
0.08746088
-0.05606462
-0.01442542
-0.06409112
0.07875519
-0.05541323
0.01255421
-0.00215538
-0.03428079
0.03056354
0.02128201
-0.05971986
-0.07498467
-0.04566029
-0.01664644
-0.05059671
0.02942820
0.09748352
-0.07931123
-0.00587860
-0.00902112
-0.09791500
0.00322481
-0.03112077
-0.06933087
-0.04670441
-0.05428667
-0.01875616
-0.05579561
-0.04245789
-0.10586911
-0.03968185
-0.00808377
0.01846985
-0.08668920
-0.04119809
-0.06547434
-0.02502594
0.03560776
-0.24896188
-0.00591389
-0.06602275
-0.01052556
-0.06702428
0.02444360
-0.00064181
-0.01954290
-0.07059881
-0.06226939
-0.05591188
0.02723701
-0.03273745
0.05713949
0.01364965
-0.01735587
-0.01401022
-0.05979536
-0.01068461
-0.04545017
0.06131016
0.04573191
0.01406102
-0.04475807
-0.05184876
-0.03493513
0.02076915
-0.10366559
0.00697074
0.09510440
-0.00883354
-0.05608867
-0.06115794
0.01536044
0.00329344
-0.06890791
-0.04974770
-0.00179554
-0.05830558
-0.05881784
0.01975720
0.02355798
-0.04115485
0.03393872
-0.01454791
-0.05646446
0.06196344
0.03382594
0.00246613
-0.05230596
-0.04118053
0.01530624
-0.07942024
0.14779888
-0.02671568
-0.02693622
-0.00186094
-0.16033576
-0.02356998
-0.09731040
0.07121126
-0.03693066
-0.06272716
-0.04027711
-0.08690520
-0.13659360
-0.06734726
0.00191960
-0.04200780
-0.00618350
0.00160070
-0.07460375
-0.00290024
-0.10243089
-0.07287822
0.02067729
0.20992760
0.00429355
-0.01523468
-0.05296299
-0.02449846
-0.18158776
-0.05846746
-0.11577449
-0.05486663
-0.07142551
-0.04402569
-0.07197972
-0.00566785
-0.06924782
-0.00397789
-0.11441351
-0.06989571
0.00018992
-0.12178505
-0.08222280
-0.11098471
-0.01539911
-0.00113120
0.03889801
-0.12882021
-0.00681404
-0.06629425
-0.07033700
-0.00758831
-0.10286469
-0.01993839
-0.00207980
0.06103891
-0.05195719
-0.03972898
-0.07238764
0.02762492
-0.08559304
-0.06703198
-0.02927868
-0.06438164
-0.00971216
-0.01428297
0.01520283
-0.06980332
-0.06995227
-0.07405236
0.00167053
-0.00189816
-0.00731235
-0.05954329
0.02222604
-0.01924131
-0.08022955
-0.02650542
-0.04579283
-0.01336759
-0.13962322
-0.08113439
-0.01548635
-0.09317005
-0.03892191
-0.06778382
0.00523327
-0.04860427
-0.02007639
-0.03735292
-0.05690942
-0.00181749
-0.04368249
-0.03645588
0.05973229
-0.01486914
-0.04343126
-0.01506163
-0.03808779
-0.05283277
-0.03727237
0.05971372
-0.06078513
0.06334010
0.12759112
-0.05625281
-0.10335518
0.01309985
0.00158545
-0.01903257
0.01563043
0.02793430
-0.01868732
-0.04764599
-0.01960615
-0.05853308
-0.00041545
-0.07840424
-0.03603485
-0.03991943
-0.01889663
-0.04691033
-0.04680080
-0.06797408
-0.04598765
-0.05523392
-0.02533214
-0.01868444
-0.00890881
-0.01089976
-0.08635344
0.01481527
0.03486465
0.02420691
0.03941601
-0.08697239
-0.04745403
-0.06601751
-0.00470092
0.03342769
-0.03448216
-0.10092998
-0.12077773
-0.11694174
-0.02100280
-0.07655329
0.00444533
0.04924728
-0.01356736
-0.10217107
-0.00293183
-0.00519393
-0.15543219
-0.03573815
-0.01557488
-0.06041913
-0.06304477
0.02102126
-0.07002816
-0.18278663
-0.03373666
0.04280932
0.00357898
0.20109485
-0.02449689
-0.02554025
-0.01293679
-0.02740896
-0.01160396
-0.03396738
-0.05084165
-0.04135229
-0.08103224
0.00188045
-0.08391669
0.01090551
-0.04912700
-0.10248556
0.05109276
-0.03800153
-0.08080238
0.00960860
-0.01250346
-0.03375012
-0.04554447
-0.00006746
-0.03564820
-0.03388343
-0.14230584
-0.03566384
-0.04695443
0.01549749
0.01624924
-0.01923804
-0.06205283
-0.03509924
-0.09440936
-0.05876181
-0.01049946
-0.01431593
-0.10108668
-0.02699232
0.03748169
0.01090839
0.06670074
0.01506291
-0.08277908
-0.03393196
-0.08715384
-0.05515605
0.02171129
-0.05650419
-0.02111315
0.00215636
-0.04045827
-0.05587659
-0.01051455
-0.02127879
-0.06793338
-0.02710463
0.01212520
-0.00700159
-0.06711928
0.01445608
-0.02759712
0.00361859
-0.02559452
-0.05951997
-0.00520885
-0.00247592
-0.04867978
-0.05311781
-0.03867344
-0.00525837
-0.05934417
-0.00698721
-0.08338421
-0.06649103
0.07379892
-0.02769908
-0.01959963
0.05906373
-0.08152416
-0.01494914
0.04272296
-0.03647373
-0.02482036
-0.09664775
-0.04868663
-0.10660220
-0.02961404
0.03788530
0.02034596
-0.04056481
-0.01491863
-0.02067541
0.00972370
-0.02933371
0.00203116
0.02394930
0.06772483
-0.06446613
-0.03184208
-0.10145505
-0.01896427
0.00762556
-0.00201976
-0.06985315
-0.07526144
0.00712730
-0.04398014
-0.02097874
-0.03693816
-0.02113807
-0.01020278
-0.02136515
0.09743626
-0.03612327
0.01411564
0.03670074
-0.07225750
-0.06877510
0.01590184
0.03371259
-0.09625003
-0.03546560
0.03408700
0.04990019
-0.07872594
-0.01755099
-0.09920293
0.04626065
-0.02998582
0.02860963
0.06783509
-0.05288523
-0.02025264
-0.04860128
-0.01123499
-0.02051912
-0.04361212
0.03713440
-0.07177333
0.01606135
0.07574139
-0.03770013
-0.04712597
-0.11359177
0.04616193
-0.07699932
-0.02222413
-0.04718705
-0.04770353
-0.01131336
0.00303962
-0.04225255
0.04713702
-0.00664318
-0.10514060
-0.10880988
0.01177780
0.00714183
-0.06514166
-0.05222459
-0.03281843
-0.06729604
0.04996825
-0.02261659
0.00854481
0.01091816
-0.00988398
0.00985546
-0.04714100
0.02774836
0.00219412
-0.03998631
-0.09415951
0.00522580
-0.02826884
-0.04307099
-0.03840622
-0.08229190
-0.10234725
0.06534486
-0.01120413
-0.03315456
-0.02902568
-0.08540574
-0.02278239
0.01332340
-0.00204772
0.02609402
-0.02302821
-0.02425299
-0.09301776
-0.03926352
-0.03080771
-0.02700715
-0.04065975
-0.00254155
-0.01925549
0.02505595
-0.03383077
-0.00486564
-0.04110661
0.00070009
0.00402942
-0.05200808
-0.03235717
0.01470821
-0.14041951
0.00653430
-0.00054973
0.09649919
-0.02842769
0.03248725
-0.10248528
-0.06006776
0.04041177
0.04034376
-0.01936946
-0.05254840
-0.02513987
-0.05025111
-0.05226215
0.00204311
-0.02578962
-0.04101781
-0.01904143
-0.04314848
-0.00706923
-0.01502906
-0.03764115
-0.04841346
0.03835697
-0.04280974
0.02127180
0.03208260
-0.06060224
0.01934599
0.11596738
0.04042011
-0.00545056
-0.11115972
-0.06150789
0.00330628
0.00165353
-0.11964118
-0.06449320
-0.08301406
0.00742390
-0.05382618
-0.04093533
-0.09529521
-0.00990737
0.01989364
0.03843707
0.02386504
-0.03973165
0.01361228
-0.03990422
-0.06819177
0.00022930
-0.03189612
-0.02512020
-0.02821094
-0.04955563
-0.04507395
-0.06423385
0.01402832
-0.03049361
0.00767352
0.02434175
-0.08369078
-0.04665014
0.03272757
-0.01723895
-0.11690228
-0.02196056
-0.03400294
-0.03862873
-0.21502440
-0.04958825
-0.03266793
-0.02842791
-0.03652383
-0.02514352
-0.06717594
-0.02689075
-0.11636199
-0.05286293
-0.01744929
-0.02743658
-0.07447567
-0.03935788
-0.03610703
-0.05963761
0.03415950
-0.07216104
-0.05142498
-0.08647080
-0.06149484
-0.10368665
-0.05669152
-0.00639468
-0.02753399
0.02213635
-0.01634554
-0.03312802
0.00146366
-0.03888985
-0.00864930
-0.04243811
-0.05526391
-0.04069954
-0.06507277
0.01019294
-0.07237697
-0.03901540
0.00221927
-0.10285977
-0.13255633
0.00042113
-0.07380302
-0.06381134
-0.11025346
-0.12263284
-0.05424596
-0.11320807
-0.05599906
-0.06468105
-0.03603006
-0.05879389
-0.06255395
-0.12717006
0.03640136
-0.07275990
-0.08550418
-0.05122473
-0.02453513
0.00443977
-0.10672509
0.00004437
0.00250271
-0.05400662
-0.04309688
-0.10943655
-0.06111832
-0.08328503
0.02996180
0.01437318
-0.06469151
-0.04407366
-0.00899283
-0.04699560
-0.05014053
-0.01806946
-0.09830631
0.02239309
-0.05744335
-0.00432898
-0.08114658
-0.04629155
-0.04283247
-0.06647258
-0.04655087
-0.03551939
-0.01721358
0.00504483
-0.07258624
0.00239073
-0.13984783
-0.09470104
-0.14246081
0.00890117
-0.05071198
-0.00534778
-0.14235623
0.02083614
0.00386838
0.00896729
-0.08965386
-0.00337558
0.00264032
-0.03218232
-0.01195963
-0.06492219
-0.06920879
-0.05315748
0.00521168
-0.08285604
0.03895229
0.00263228
-0.04295115
0.00513230
-0.09678879
-0.01539774
0.02462547
-0.03797057
-0.06062698
-0.03946618
-0.06261081
-0.07228916
-0.07391631
-0.08407916
0.04176628
-0.09711647
-0.07738806
-0.07576463
-0.01835774
-0.06808213
-0.04027414
-0.09102618
-0.06163688
-0.01531726
0.00922107
0.03267237
-0.04333548
-0.00661602
-0.08456596
-0.03726606
-0.02223104
-0.02298958
0.02421930
-0.06540553
0.01069036
-0.08676903
-0.10036781
-0.08055549
-0.15826623
-0.03013150
-0.07350136
-0.03450257
-0.02050948
-0.02109312
-0.06602554
-0.03101885
-0.08347574
-0.00067549
-0.03159453
-0.12485960
0.00548553
-0.01852978
-0.05752021
-0.05116696
-0.03067330
0.03782218
0.01402415
-0.08046546
0.01956925
-0.00545780
0.09871758
-0.10065089
0.00556794
-0.05509564
-0.04653073
-0.09227946
-0.06567729
0.07156154
-0.02516395
-0.03057904
-0.04270266
-0.05149874
