-0.05023579
0.04855203
0.01231154
0.05394998
0.08811025
0.00332725
-0.01140908
0.07622476
-0.02351921
-0.01115993
-0.02561546
0.06631220
-0.00130879
0.04729322
-0.04793523
-0.01807031
-0.00887548
0.00176255
-0.00988801
-0.03247527
-0.01078727
-0.06684858
-0.04273853
-0.05464208
-0.01789619
0.06483950
-0.00432249
0.01793965
-0.12665753
0.04387703
0.07169905
0.05921463
-0.02930939
0.02293984
0.01430788
0.02645426
-0.04132952
-0.00349034
-0.04536895
0.01614919
0.03982700
0.01826374
0.03408802
-0.00884066
-0.01720252
-0.03830787
0.03694180
0.11187209
-0.00545113
-0.07917698
0.01824461
-0.04943286
0.00382450
-0.08963934
0.02600686
0.06109422
0.02654585
-0.10593572
0.01986930
0.03518686
0.04556062
0.16994289
-0.06066968
-0.00378558
0.01422754
0.07269303
-0.06672834
-0.00652343
-0.04298886
-0.00903834
-0.08963358
0.00457470
-0.02693409
0.02235689
-0.02727899
0.03053794
-0.02583520
0.00873162
-0.03193940
0.00167614
0.05051780
0.00866665
-0.00295101
0.02688467
0.01483449
-0.12779021
-0.00400064
-0.01712530
-0.06061915
0.05934415
0.02189820
-0.04463117
0.07358222
-0.07655052
0.08789337
-0.02894108
0.20722359
-0.01286975
-0.02446499
-0.05160237
0.00459105
-0.00396746
-0.02989399
0.05523512
0.05270735
0.05010366
0.02393199
-0.04283451
-0.04907195
-0.06008674
-0.04987415
0.00984402
-0.09604747
-0.01128172
-0.03305489
0.02897535
-0.07182466
-0.01005887
-0.04895690
0.03165276
-0.04087617
0.04913138
-0.01989303
-0.03248242
0.10211385
-0.17039433
0.00826051
0.03794274
-0.06729468
-0.02752944
0.01866690
0.00463285
-0.05449510
-0.03339653
0.08242068
0.02828019
0.02265434
0.06404584
-0.01479432
0.01559348
-0.00924939
0.05620431
0.04242445
0.00323914
-0.07763024
-0.05361826
0.12413352
0.02007221
-0.03278909
0.01883735
0.01226629
0.09821653
-0.11154193
0.01809592
-0.07252774
-0.12554939
0.08145826
0.04262540
0.00540582
-0.09768947
-0.01904862
-0.02615797
0.01951404
-0.02093522
0.01222825
0.13068800
0.02464407
-0.04652580
-0.02971164
-0.04488241
0.02184916
0.04367907
-0.08452089
-0.00185562
0.04259264
-0.02902679
-0.08440685
-0.00734123
0.00507241
-0.11374877
0.04391294
0.00725623
-0.00454157
-0.03473731
0.03358733
-0.03691972
-0.07592886
0.07699850
-0.00772673
-0.00318611
0.02185083
0.01658509
-0.04927716
0.00466563
0.09991913
0.09656373
0.00932896
0.09856307
-0.03839423
-0.04913183
-0.04122898
-0.04354012
0.09560937
-0.02590661
0.00717477
-0.01163262
0.01845110
-0.01981000
0.01182384
0.11857177
0.04760503
-0.01915849
0.02170323
0.05109271
0.04900622
0.04859124
-0.12442218
-0.00242433
0.08296774
-0.03245524
0.02431874
0.07369706
-0.04124669
-0.00756121
0.02947560
-0.05879002
-0.03573531
-0.00263849
0.01762004
0.01851100
-0.01127620
0.04310505
0.02473395
0.03406955
-0.04283119
0.04433552
-0.02555772
-0.00394307
-0.01794866
0.00553022
0.05011412
-0.03105816
-0.03011869
0.04119000
0.00865054
0.01655329
-0.04860105
-0.06894763
0.01976892
-0.03571328
-0.03322896
0.00368577
0.05091401
0.01916736
0.04737290
-0.01228502
-0.07272267
0.04364577
-0.01278269
-0.04003197
-0.00323144
-0.09146956
0.04156641
0.05442430
-0.00464515
0.00908427
-0.03509663
0.03000693
0.03837502
0.00274679
0.00452955
-0.02138973
-0.09602322
0.07772426
0.02749210
-0.09806453
-0.12689944
-0.00792273
0.08632131
-0.04502629
0.06233577
-0.03734626
-0.09078660
-0.10658655
-0.00986452
0.02613191
0.04418190
0.06020880
-0.01222253
0.01004080
-0.01490078
-0.03064883
-0.02835158
-0.06472586
-0.04021968
-0.08939842
0.05039400
0.02295551
0.05344332
0.01100427
0.02294591
0.02765629
-0.02251066
0.06301967
-0.02327914
-0.02671913
-0.06516675
0.00853134
-0.34127221
0.00130726
-0.03713558
-0.02740253
0.03157534
0.07146950
-0.01873240
-0.04022739
0.02712240
-0.09766997
-0.06049019
0.02447079
-0.09710228
0.02230842
0.03004990
-0.09582041
-0.01481597
-0.01142860
0.04372058
-0.02216820
0.03051261
0.00344367
0.02680932
-0.12307657
0.02538369
0.03891051
0.05566315
0.00545073
-0.04955599
-0.08844595
0.01433655
-0.01273488
0.01295017
-0.05949990
-0.05577013
0.06511922
0.00041810
0.00775083
0.03282525
0.02291565
0.00096521
0.05647822
-0.00843325
-0.02773228
0.00872141
-0.15262155
0.00138209
0.01765608
0.07242697
0.02728865
0.10185202
-0.01225415
0.03161176
0.00248242
-0.00624201
-0.01147412
-0.00620987
0.06358270
-0.04586852
-0.03147346
0.03983335
-0.08673934
-0.04753453
0.11044567
-0.04937907
0.05504210
0.00306262
0.00763211
-0.00441837
-0.10412211
-0.06783468
0.04259800
0.07041812
-0.09046553
-0.04489516
-0.01914139
-0.00298340
0.02163952
-0.05548719
0.02788091
-0.05768517
-0.07487361
0.04827575
-0.02218180
0.03334421
-0.14229961
0.01714924
-0.00039423
-0.02905323
-0.10853950
0.01740487
0.03115747
-0.07138294
-0.00156583
0.01703374
-0.01198996
0.09988353
0.01006149
0.01904085
-0.05184391
-0.03284186
-0.00705176
-0.01353083
0.08508714
-0.01432267
0.02828749
-0.08070905
0.01490033
-0.11289577
0.02316802
0.06232885
0.07535774
0.00496561
-0.00147533
0.05010686
0.05027661
-0.03930511
0.09441312
0.01275771
0.01704415
-0.03347438
-0.02902422
0.01904364
-0.06163796
0.03737080
0.07329815
-0.08559616
0.01858100
-0.06500100
-0.05966242
0.00101911
-0.04851892
-0.06561219
0.02775592
0.08294762
-0.08190094
-0.03456499
-0.03302510
0.07203373
0.01244404
-0.03753098
-0.08654314
-0.00093883
-0.02282935
0.04724845
0.01525555
0.01371544
0.06383382
0.00464243
-0.00382910
-0.09297703
-0.06540785
0.02815212
-0.10410139
-0.03879880
-0.03952403
0.06919123
0.04620552
-0.04245559
-0.14819553
-0.07013886
0.09568442
-0.03162124
0.01796952
0.01706929
-0.03193992
0.04359644
-0.05086697
-0.09269295
0.02303714
-0.08862799
-0.03343911
0.09599207
-0.04263819
-0.06227136
-0.08699179
-0.03934015
-0.01482346
0.04918506
-0.00068825
-0.06146701
0.01112716
-0.04216358
0.04054828
-0.04906015
0.04566816
0.01371377
0.01310490
0.08006348
0.07626905
0.08170240
-0.00238783
0.06430711
0.00367038
0.01827164
0.04722675
0.04177993
0.04381311
-0.00619342
0.00667552
-0.05811368
0.05566674
-0.04680031
-0.03112481
0.06548353
-0.00997823
-0.06379785
0.10029081
-0.08235770
-0.13833506
0.03755802
0.06905417
0.00789308
0.04354542
0.01902552
0.02142539
-0.02740264
0.02838075
-0.04168184
-0.01318123
0.07992420
0.02714739
0.07151724
0.01856191
-0.05681716
-0.05091403
0.05612518
-0.05160272
-0.04738161
0.01747457
-0.07028974
-0.03160589
-0.03602741
-0.00259880
-0.01472193
0.03906670
0.00126236
0.05694025
-0.00360884
0.05641116
-0.00291005
0.02710014
0.07065450
-0.01567072
-0.03635672
-0.00252617
0.01225879
0.00576033
-0.01841634
0.00699342
-0.01643181
0.03177030
-0.01517388
0.06163525
-0.00913460
-0.02895166
0.01909164
0.05959618
-0.01095757
-0.00802641
0.03568065
0.01090202
0.03743679
0.00436068
0.02161941
-0.04437520
-0.02617158
-0.02211170
0.02369509
-0.08187854
-0.02809511
0.05275124
-0.22058819
0.07458544
0.06937333
-0.09996940
-0.06656034
-0.01483576
0.02501371
0.02289011
-0.06037522
0.00257664
0.00057234
-0.03756746
-0.01647797
0.11901017
-0.04188416
-0.08207014
0.06655789
0.08856744
-0.02786877
0.00212499
0.05826192
0.05804911
-0.01298090
-0.01013545
0.00885181
-0.01674015
0.03110079
0.02767411
0.01545062
0.04573458
0.00022099
0.00056438
-0.00835892
-0.04849599
-0.19446300
-0.02304542
-0.06334004
0.00870547
0.00638657
-0.06986219
0.04811046
0.07747772
-0.03440204
0.07499862
-0.04147743
0.04476688
0.01183720
-0.01643275
-0.08104248
0.00793975
0.04535745
-0.03423433
0.00356435
0.13877209
-0.02727736
-0.02526885
0.01084329
0.02721508
0.03750077
0.01826947
0.01560001
0.01893164
-0.01375683
-0.07081622
-0.04364461
-0.00031654
0.04298443
0.04172738
-0.01027455
0.00894156
0.02494097
0.02967122
0.01184621
0.04415880
-0.05069502
0.07335665
-0.02340985
-0.03298008
0.00741532
-0.13155419
0.05274080
-0.02597199
-0.00728404
-0.01032471
-0.00854631
-0.00992340
0.02872049
0.06963485
0.01595382
0.01920864
-0.03140316
0.04538691
-0.02193408
-0.00578634
0.05251600
-0.10390098
0.00454258
0.03838024
0.03283733
-0.03222801
-0.01383402
-0.05528397
0.06106589
0.04732620
0.00547383
0.03801999
0.01279839
0.02419417
0.00450181
-0.02640267
0.04130500
-0.03511526
-0.01233573
0.02190685
0.00393225
0.08635402
-0.05436200
-0.01888211
-0.00586821
-0.04452358
0.02800496
-0.04572799
0.12046880
0.08206854
-0.01000076
0.05590235
0.05856430
-0.03222655
0.01809939
0.07873562
0.00023182
0.04906425
-0.02474910
0.12105501
-0.02234287
0.07902174
-0.01645137
0.02155191
0.01945324
0.03150639
-0.01106542
-0.05784683
-0.00913462
0.00358634
0.02103934
0.01498945
-0.00516028
-0.03550724
0.08158952
0.04228061
0.07552755
-0.00364696
0.04953889
0.02705211
0.07191616
-0.10356411
0.01045046
0.06320379
0.06070094
0.02963529
-0.01015802
-0.01287100
0.00897910
0.13602422
-0.03349568
-0.00906783
-0.04280069
-0.07683203
0.11886161
-0.04299890
0.04421921
0.00376132
-0.03756947
0.04572044
-0.09632621
0.10577487
-0.06321257
-0.05463904
0.08092117
-0.02608810
-0.00883804
0.04922442
-0.03455567
-0.01555284
-0.07226305
-0.05742418
-0.04747628
0.01169370
