0.00104437
0.00035295
-0.00246573
-0.00010511
-0.00121016
0.00269508
0.00228385
0.00084313
0.00223838
0.00085145
0.00095705
0.00140809
0.00062908
-0.00166726
-0.00397722
0.00193296
0.00021027
-0.00663758
-0.00096894
-0.00138056
0.00286147
0.00386937
-0.00051723
0.00087853
0.00058686
-0.00344979
-0.00104747
-0.00028904
-0.00375323
-0.01121498
-0.00302693
-0.00097277
-0.00178513
0.00126202
0.00112622
0.00116979
-0.00054033
-0.00317839
0.00259348
0.00021958
-0.00033251
-0.00049613
-0.00182011
-0.00865179
-0.00253411
-0.00309140
-0.00026918
-0.00053580
0.00171631
-0.00046113
-0.00129740
0.00059981
0.00096727
-0.00448788
0.00118646
-0.00155530
0.00204849
0.00239817
0.00104059
-0.00079073
-0.00193149
0.00400865
-0.00155279
-0.00284996
-0.00415396
-0.00223297
0.00309437
0.00230146
-0.00573974
-0.00065311
0.00142884
0.00561026
0.00007637
-0.00027668
-0.00023185
0.00729490
0.00495852
0.00274680
-0.00215840
0.00519103
-0.00058389
0.00308144
-0.00172519
-0.00597033
-0.00245913
0.00367201
0.00127721
-0.00911238
0.00210848
-0.00205578
-0.00027508
0.00191107
0.00021525
0.00584004
0.00044544
-0.00649064
0.00147323
0.00070679
0.00297002
0.00370393
0.00061638
-0.00167598
-0.00102199
0.00075852
-0.00372885
0.00137894
0.00407239
0.00134175
0.00206145
0.00070545
-0.00109993
0.00015032
0.00010198
0.00523741
0.00062822
-0.00077531
-0.00102174
0.00229370
0.00008060
0.00034536
0.00032731
-0.00500988
0.00494771
-0.00236509
-0.00325620
-0.00904802
0.00003703
-0.00030979
0.00610117
-0.00503931
0.00224858
-0.00396117
-0.00257153
0.00349130
-0.00034496
-0.01085745
-0.00051119
-0.00258027
0.00596951
0.00067930
0.00564177
0.00575553
0.00049531
-0.00067491
-0.00031004
0.00280057
0.00150997
0.00679992
0.00705323
-0.00072854
0.00122728
-0.00207414
-0.01243948
0.00022061
-0.00250729
-0.00049338
0.00079366
0.00021729
-0.00238337
0.00017509
0.00104307
-0.00082712
0.00050899
-0.00556317
-0.00772930
-0.00338991
-0.00811750
0.00483464
-0.00685861
0.00372961
0.00116510
-0.00108109
-0.00239926
-0.00557101
0.00913936
-0.00973439
0.00578459
0.00409302
0.00283875
0.00128830
0.00195706
-0.00255700
-0.00667173
0.00372970
0.00688387
-0.00969828
-0.00491700
-0.00352844
-0.00042000
0.00276947
0.00326739
-0.00324602
0.00133779
0.00807894
-0.00158144
0.00040085
0.01058014
0.00303254
-0.00742014
-0.00431292
0.00222962
-0.00568324
-0.00225805
-0.00332099
-0.00018420
-0.00300329
-0.00099303
-0.00307581
-0.00677503
-0.00511840
0.00519380
0.00399647
0.00574488
0.00053445
-0.00335564
0.00258402
-0.01068735
0.00171601
-0.00657464
-0.00354243
-0.00674448
0.00198221
-0.00253317
-0.00280959
-0.00217545
0.00079024
0.00191406
0.00490132
-0.00398648
-0.00050519
-0.00425657
-0.00719203
-0.00698059
-0.00015685
-0.00090747
-0.00134080
-0.00355076
0.00360785
-0.00115154
-0.00333388
-0.00203443
-0.00533220
-0.00123761
-0.00145481
-0.00022616
-0.00155223
-0.00180577
0.00551819
-0.00879205
0.00829754
-0.00769218
-0.00568782
-0.00586684
-0.00091755
-0.00588249
0.00037722
0.00031905
-0.00084761
-0.00040328
0.00064728
0.00090982
-0.00072296
-0.00169487
0.00143250
-0.00050728
0.00133297
-0.00203726
0.00116596
-0.00179633
-0.00138002
-0.00101824
0.00234850
-0.00023923
0.00033170
-0.00167728
-0.00112959
-0.00002660
-0.00151750
0.00144006
-0.00080979
0.00212650
-0.00204723
-0.00335954
-0.00123735
0.00000062
-0.00108938
0.00012870
0.00118433
0.00069865
-0.00080705
-0.00216254
0.00357948
0.00077278
0.00074015
0.00173941
-0.00187858
0.00021424
-0.00025755
-0.00053752
-0.00207124
-0.00398056
0.00031844
-0.00138354
0.00058823
0.00303423
-0.00001546
0.00039925
0.00063189
-0.00319193
0.00202766
0.00061710
-0.00353497
0.00050379
0.00162906
-0.00242734
-0.00034278
0.00071207
0.00045203
-0.00040177
-0.00365611
-0.00085176
0.00062238
-0.00121001
-0.00445190
0.00461214
-0.00065955
-0.00075043
-0.00222148
-0.00287703
-0.00077410
-0.00831085
-0.00093264
-0.00125725
0.00169775
0.00173036
0.00320298
0.00262041
-0.00386996
0.00012477
-0.00435222
0.00082235
0.00171909
0.00457084
-0.00125000
0.00191809
-0.00022987
-0.00608596
-0.00331130
-0.00398719
-0.00182267
-0.00010416
-0.00037397
0.00041008
-0.00232447
0.00169550
0.00161668
-0.00418217
0.00166881
0.00232644
-0.00136144
0.00182431
0.00001839
-0.00004391
-0.00368254
0.00349696
0.00334238
-0.00222586
0.00137134
-0.00238998
-0.00543513
0.00105215
0.00374516
0.00067828
-0.00212833
0.00111989
-0.00195595
-0.00010403
0.00545125
-0.00057590
0.00402981
0.00170632
0.00089398
0.00516090
-0.00180016
0.00064102
0.00437056
0.00122458
0.00062880
-0.00069414
0.00282872
0.00135209
-0.00015267
0.00048081
0.00295633
-0.00036472
0.00314039
0.00202548
0.00065901
-0.00034445
0.00221853
0.00210417
-0.00036171
0.00115234
0.00044028
-0.00451607
0.00103678
0.00268071
-0.00154286
0.00004222
-0.00030660
-0.00079264
0.00196508
0.00025107
0.00109420
-0.00032407
0.00012808
0.00150794
-0.00335440
0.00098310
-0.00052103
0.00136978
-0.00474087
-0.00055279
-0.00063724
0.00030546
0.00130447
-0.00045312
-0.00219636
0.00076014
0.00005331
0.00047565
-0.00297859
0.00040314
0.00243637
0.00037909
-0.00128045
-0.00071113
-0.00321836
-0.00161733
0.00084975
0.00130383
-0.00035347
-0.00157863
-0.00173659
0.00085697
0.00090773
-0.00070834
-0.00062565
-0.00107479
-0.00008754
0.00026753
0.00236193
-0.00424458
-0.00223876
-0.00113066
0.00082155
-0.00077375
0.00192693
-0.00171254
0.00104847
0.00138587
0.00050266
0.00197242
-0.00159629
0.00063823
0.00046704
0.00209425
0.00018977
0.00157572
-0.00164491
0.00120687
-0.00218731
0.00197442
-0.00229940
0.00118664
-0.00140313
-0.00024188
0.00113956
-0.00067090
0.00256400
-0.00064888
-0.00239369
-0.00232985
-0.00122114
0.00205267
-0.00130016
0.00177297
-0.00076771
-0.00410676
0.00158186
-0.00047396
-0.00061350
0.00065145
-0.00141658
-0.00235321
-0.00314084
-0.00160968
0.00226233
0.00009206
-0.00074916
0.00233783
-0.00154237
0.00224374
0.00120510
-0.00057099
0.00179899
0.00058624
0.00288583
0.00188578
-0.00022920
0.00061716
-0.00169259
-0.00158247
0.00182080
0.00013367
0.00202716
0.00653436
-0.00120084
-0.00131733
0.00345777
-0.00359333
0.00300295
0.00216136
0.00454476
0.00255343
0.00009356
-0.00243916
-0.00034516
0.00363607
0.00143626
-0.00215615
-0.00436735
0.00247517
-0.00254124
0.00094333
-0.00296696
-0.00011768
-0.00321544
-0.00638788
-0.00079546
0.00148752
0.00193121
0.00173948
0.00552008
0.00260574
-0.00056587
-0.00716144
-0.00330880
-0.00323179
-0.00267612
-0.00082045
-0.00351472
-0.00015138
0.00366271
0.00038624
-0.00149370
0.00170120
-0.00150739
-0.00512031
-0.00345606
-0.00381117
0.00392679
-0.00049177
0.00232573
-0.00022996
-0.00376234
-0.00229785
0.00026067
-0.00182508
-0.00029422
0.00188235
-0.00061540
0.00207535
-0.00062940
-0.00276540
0.00541670
-0.00589343
-0.00378667
-0.00128645
-0.00196410
0.00592884
0.00389154
0.00190519
0.00064946
0.00013074
-0.00373728
-0.00296130
-0.00328983
0.00163307
-0.00005214
0.00154443
-0.00611146
-0.00108151
0.00279422
-0.00276576
0.00233046
0.00076708
-0.00182923
-0.00109403
-0.00295734
0.00171898
0.00243757
0.00109900
0.00418714
-0.00408408
-0.00297839
-0.00005881
-0.00209276
0.00318440
-0.00286874
0.00162739
-0.00190333
-0.00461031
-0.00134325
0.00026070
-0.00304524
0.00051072
0.00211783
0.00141065
0.00152121
-0.00209981
-0.00384417
-0.00268365
0.00243225
0.00206352
-0.00434122
0.00428675
0.00101815
-0.00196841
0.00131142
0.00212301
-0.00346346
-0.00000045
-0.00365503
-0.00076690
0.00418386
0.00026705
0.00176170
-0.00329201
-0.00335576
-0.00561627
0.00819147
0.00317086
0.00078440
-0.00412982
-0.00198085
-0.00092182
0.00418971
-0.00674871
0.00136324
-0.00511832
-0.00183069
-0.00293321
-0.00338888
-0.00214673
0.00079420
-0.00020571
0.00442173
-0.00001323
0.00476610
0.00598479
0.00371323
-0.00582378
-0.00149311
0.00471664
0.00310248
0.00755072
-0.00021978
-0.00322745
0.00421416
0.00286177
0.00228992
-0.00556138
0.00334480
0.00192571
0.00409469
0.00475848
0.00226633
-0.00399308
-0.00139680
0.00307080
-0.00195593
-0.00313441
0.00378948
0.00001226
-0.00296976
-0.00575238
-0.00103005
-0.00344291
-0.00589479
-0.00219158
0.00457725
0.00283471
0.00580358
-0.00162998
0.00143983
0.00815935
-0.00271058
-0.00170809
0.00607277
-0.00742596
0.00485241
0.00311636
0.00352154
0.00351082
-0.00268292
0.00011390
-0.00475496
-0.00193703
-0.00216994
0.00543411
0.00311138
-0.00417025
-0.00281116
0.00377504
0.00226208
-0.00178477
-0.00484690
-0.00355282
-0.00750726
0.00401954
-0.00455796
0.00280289
-0.00304282
0.00133868
0.00298485
-0.00238688
-0.00254878
0.00480192
-0.00640066
0.00792039
0.00017626
-0.00472397
0.00278352
-0.00118339
-0.00107134
-0.00021514
-0.00087527
-0.00420087
-0.00309344
0.00214008
0.00155106
-0.00102750
-0.00104688
0.00155684
0.00113253
0.00105116
-0.00583435
-0.00580176
-0.00252626
-0.00174015
-0.00477417
-0.00107109
0.00028479
-0.00193607
0.00047696
-0.00326949
-0.00448493
-0.00301729
-0.00080817
-0.00721967
-0.00118589
-0.00051738
-0.00017714
0.00369154
-0.00558533
0.00572741
0.00291351
