-0.04172698
-0.02127624
-0.07519476
-0.00790516
-0.09753101
-0.06400993
-0.11091686
-0.08867419
0.00427159
0.01085466
-0.06633663
-0.08027977
0.02981322
-0.06257249
-0.04842462
-0.10704651
-0.10692605
-0.06569134
0.01271985
-0.04888136
-0.11540650
-0.02841984
-0.08334542
-0.16207190
-0.05591877
-0.08814523
-0.06125190
-0.00620896
0.00215705
-0.05566721
-0.07613964
-0.04683334
-0.11283864
0.00096224
-0.01264910
-0.01963080
0.01840361
-0.01074626
-0.06972793
0.04507010
-0.00284855
0.05161774
-0.01178464
-0.04111841
-0.03918015
-0.02507032
-0.07389174
-0.04295932
-0.02897578
-0.02373841
0.07808259
-0.05584987
-0.11677018
-0.00043968
-0.08518294
-0.08819424
-0.05619460
0.02152711
0.01250982
0.02748128
0.00944940
-0.09573011
-0.04148361
-0.03829293
-0.02648287
-0.08534894
-0.04759059
-0.05949708
0.02215398
0.01073529
0.04257720
-0.03734861
0.01171903
-0.04507644
-0.06380089
-0.02311197
-0.03071527
-0.03118750
-0.06860291
-0.10705878
-0.05885791
-0.07921534
-0.04945853
-0.08024049
-0.05308457
-0.05304841
-0.05773611
-0.02872637
0.02480701
-0.12245128
0.00503597
0.00261514
-0.12854627
-0.03334012
-0.07126801
0.02875366
-0.09475917
0.01518736
-0.07204202
-0.00573047
0.00317713
-0.03926740
-0.09117933
-0.01968619
-0.02893092
-0.04199508
-0.01188782
0.01024820
0.00052606
-0.03609568
-0.00214228
-0.00880485
-0.02003949
0.01511732
-0.02396004
-0.04336018
0.00414548
0.00370307
-0.02150243
-0.04072748
-0.01044005
-0.02541181
-0.04015349
-0.37923419
-0.05372781
0.03332253
-0.04537300
-0.07314170
-0.01262550
-0.03275726
-0.02207956
-0.08934366
-0.00103939
0.00563914
0.00775872
-0.02024196
-0.04957905
0.00399448
-0.00365242
0.00063344
0.01920685
-0.03580447
-0.04077373
-0.11506704
-0.08527318
-0.01754290
-0.00939891
0.05893342
-0.01509769
-0.12099043
0.01635627
-0.10260903
0.04894286
-0.05366582
-0.01439064
-0.07130191
-0.04016037
-0.03339277
-0.03785795
-0.00780625
-0.06064232
0.01014433
0.00557138
-0.06828119
-0.10818578
-0.02691145
-0.13461511
-0.05590218
0.04860605
-0.04291192
-0.00135244
0.02047540
-0.05267097
-0.07239763
-0.04285282
-0.03828215
-0.10696312
-0.00390737
-0.03298231
-0.08412822
-0.19376723
-0.10894448
0.03837396
-0.03430705
-0.07104461
-0.03385859
-0.15521166
-0.05159761
-0.10718841
-0.01468039
-0.00918223
0.04343420
-0.09443995
-0.01834670
-0.08711781
-0.04431401
-0.03583675
-0.01733025
0.00682880
-0.02163451
0.00530963
-0.03840243
-0.04769107
-0.01446222
-0.01300922
-0.11880274
-0.04987993
0.02255492
-0.05968813
-0.05074670
0.00214098
-0.02369229
-0.09858193
-0.09126482
-0.03715181
-0.03770584
0.03569860
0.00798579
-0.10228749
-0.01205382
-0.06405068
-0.08181604
-0.03869760
-0.06619459
-0.01188426
0.43461335
-0.06378768
0.03035519
-0.10543337
-0.02642495
0.01088847
-0.04361486
-0.15226975
0.00533516
-0.01518398
-0.02816425
-0.03183552
-0.03310522
-0.09885962
0.07798656
-0.04014768
-0.06671184
0.06198740
-0.09294685
-0.03614623
-0.00240775
-0.05847777
-0.02247411
0.02560945
0.03528337
0.00210112
-0.11341047
-0.01258884
0.01727880
-0.07537860
-0.00949492
-0.00568364
0.04009091
-0.02692429
-0.07165169
-0.06347468
-0.01746891
-0.02450081
-0.00452252
-0.02538509
0.08172772
-0.04676600
-0.04572861
-0.07194875
-0.02292224
-0.00898242
-0.04705078
0.01417141
-0.04808852
-0.01242507
-0.03375473
-0.05071590
-0.04530123
-0.00478218
0.00885255
-0.05439620
-0.10025788
-0.05258216
-0.00153672
0.07299895
-0.04499435
-0.13599278
-0.05968250
-0.04373183
-0.01740998
-0.03322212
-0.04970568
0.02670521
-0.03760885
-0.09484354
-0.05404050
-0.02050000
-0.08048099
-0.09313989
0.01157226
-0.02001193
-0.06316107
-0.02306573
-0.07179773
-0.13927969
-0.02823465
-0.01605200
0.00926942
-0.41503701
-0.00856740
-0.00816611
0.00570345
-0.08615509
-0.03575542
-0.01582361
-0.08307702
-0.05242465
-0.02721287
-0.03390019
0.00311497
-0.00857679
-0.11266510
-0.06620354
0.08923216
-0.01434916
-0.00962449
-0.05295879
-0.10061233
0.00580330
0.03316015
-0.08926992
-0.07110205
-0.07496867
-0.12586392
-0.02499337
0.00242920
0.01521060
-0.02716160
-0.02065600
-0.00567684
-0.02852824
-0.07388624
-0.05231708
-0.07358073
-0.04390575
0.00258063
0.01131930
0.12492742
-0.00540542
0.06370016
-0.02006285
-0.02414861
-0.14649579
-0.02671960
-0.01789873
-0.00502513
-0.05071236
-0.07139091
-0.00566396
-0.04110907
-0.01762447
0.00654593
-0.08029900
-0.02981398
-0.06933066
-0.02311119
0.00054304
-0.02519424
0.01588909
-0.01632312
0.07344451
-0.02139009
-0.04560088
-0.00318046
0.04845462
-0.02780833
-0.09057622
-0.02633929
0.04250323
-0.04606217
-0.02809381
0.25813371
0.00698386
0.03613736
-0.14237611
0.00234788
0.00287339
-0.08556878
-0.03873638
0.03217122
-0.02993287
-0.03952756
-0.04073124
0.04549646
-0.03464160
-0.02987800
0.03779299
0.02496392
-0.11073874
0.02062674
0.01055276
-0.02923869
-0.07123711
0.00918239
0.01662936
0.05954714
-0.07482275
0.05015568
-0.11403308
-0.00318004
-0.04311236
0.00232236
-0.02262927
0.00859036
-0.03149497
-0.07393807
-0.04517442
0.00613521
-0.05956224
-0.04363392
-0.03634026
0.02223423
-0.06068904
0.01221004
0.02099166
-0.06046320
0.02919264
0.01198140
0.06845782
-0.08955974
0.00099494
0.01800125
0.01409087
-0.06454439
-0.00361219
-0.07098050
-0.03299640
0.01581843
-0.02442756
-0.02145066
-0.05110288
-0.05349117
-0.08987534
0.03472698
-0.01709096
0.02838059
0.07982439
-0.00619561
-0.04022259
-0.00079878
-0.10317654
-0.01895195
-0.10634458
0.03244055
-0.10052563
-0.10944116
0.01824544
-0.07528773
0.06951037
0.09123374
-0.05040947
0.02903174
-0.03820816
-0.07957392
-0.13101591
0.00847745
-0.08375814
0.04969585
-0.04676973
-0.05214752
-0.06237317
-0.06361040
-0.02477095
-0.11199102
-0.01001617
0.01774131
-0.02223117
-0.07474856
0.02734105
0.03348922
-0.01953488
-0.03053821
0.01096297
-0.06889587
-0.00841832
0.02185546
-0.06036440
-0.12858771
0.01303617
-0.03998000
0.00514127
-0.00329294
-0.05242015
-0.03723226
-0.07070231
-0.01907406
0.03113119
-0.05380617
-0.08456113
-0.10932098
-0.02262204
-0.06653222
-0.01624618
0.01196148
-0.03676073
-0.04191034
0.01757831
-0.06058642
0.00799114
-0.00652034
0.02134319
-0.01007821
-0.03054497
0.02065315
-0.04454112
-0.08647504
-0.01422814
-0.01005146
0.05345872
-0.03543345
-0.01420155
-0.06222732
-0.08925193
-0.01404512
-0.00020521
-0.01152948
-0.41494459
-0.00312880
-0.07608658
-0.05757156
-0.01494138
-0.03335343
-0.01585534
-0.06063937
-0.05714887
0.04974348
-0.04647692
0.00169220
-0.07246326
0.13967545
-0.07053469
-0.01157158
-0.04338625
-0.01716843
0.04378471
0.08650681
-0.00295849
-0.01391593
-0.12358843
-0.09454868
0.00382206
0.04173884
-0.06772663
-0.02958555
-0.02283211
-0.00334830
-0.02522679
-0.10897174
-0.04684695
0.00666127
0.01804678
0.02634255
-0.11704062
0.01114721
0.01090268
-0.03534331
-0.05363125
-0.05901635
-0.01035408
-0.04807232
0.00160728
-0.06112552
-0.10876947
-0.03354117
0.01820208
-0.06737009
-0.05348291
0.06990000
-0.06274424
0.04441554
0.00883771
-0.08153500
-0.04350593
-0.02972385
-0.00125830
-0.00986185
-0.20477004
0.00970461
-0.01641710
-0.02035104
-0.03748816
-0.02649902
-0.05905969
0.01028927
-0.03947587
-0.03634614
-0.02753045
-0.05017208
-0.05079919
-0.02918177
-0.04124640
-0.01315053
0.02417980
-0.06083595
-0.08536030
-0.09002435
-0.04012524
-0.04620752
0.00280309
-0.01547430
-0.08050853
0.02240035
-0.00479539
-0.05219580
-0.01844369
0.01162837
0.01033241
-0.01200407
0.02176866
0.03580668
-0.11960600
-0.03987382
-0.07385328
-0.00969903
-0.05244361
-0.04772984
-0.10984351
0.03485747
-0.07220200
-0.05767402
-0.10420489
-0.04478202
-0.06557562
-0.14888699
-0.03069425
-0.04682052
-0.06744888
-0.06293522
-0.08552557
-0.05758175
0.04209657
-0.11183330
0.00302676
0.05061429
-0.02299226
0.07545668
-0.03746284
-0.11235851
-0.04204841
-0.10329077
-0.07982117
-0.06229148
-0.10126396
-0.07866193
-0.01722595
-0.02280895
-0.09939365
-0.08605661
-0.03803191
-0.00197347
-0.06343860
0.02997554
-0.08735316
-0.02346319
-0.03709428
-0.05714608
-0.03454013
-0.12725249
-0.10896393
-0.09324766
-0.10660728
-0.01466060
0.02154876
-0.01012884
-0.07116160
0.01619198
-0.09153582
-0.07908437
-0.06168235
-0.00118442
-0.02577251
-0.01903619
-0.05933667
-0.00004713
0.00282823
-0.02839660
-0.05004843
-0.09130426
0.03141961
-0.04102003
0.00496900
-0.01912036
-0.03828972
-0.03436535
-0.01657434
-0.06032866
0.04935935
-0.04213705
0.01741698
-0.07318001
-0.07811005
-0.01317248
0.02851731
-0.02021805
-0.09760679
-0.06350270
-0.16232720
-0.06607591
-0.04327815
-0.10676672
-0.03630324
-0.03978583
-0.09957120
-0.08060052
-0.00724179
-0.05250364
0.05819950
-0.06624828
-0.04104282
-0.01579559
0.25003695
-0.02858696
-0.01317220
-0.03664333
-0.08125759
-0.00643260
0.01795490
-0.00869645
0.03539797
0.02858944
-0.04723971
-0.02397372
-0.02622276
-0.10176918
-0.13055044
-0.01900284
-0.02218498
-0.10274517
-0.00172772
-0.05166528
-0.03984227
-0.05413100
0.03093674
0.03187228
-0.03876218
-0.10292676
-0.06265628
0.02348515
-0.05514652
-0.05806939
-0.02160384
-0.01492612
-0.00859377
-0.07407743
0.01406668
-0.04200913
0.14450686
-0.06826510
-0.02606349
0.03376202
-0.05863579
-0.02611854
-0.07720640
0.04893237
0.02825642
-0.01580067
-0.02207181
-0.02206211
