-0.08836484
-0.01873686
-0.02994475
-0.08131833
0.09952179
0.05955583
0.07111547
0.06363033
-0.05059430
-0.06894960
0.01913545
0.04886565
-0.05765411
0.12229562
-0.01794244
0.14710018
0.17238757
0.02225008
0.00470774
-0.02201645
0.06540814
0.01623907
0.04864901
0.02444920
-0.03873067
0.05571188
0.09761287
0.05067488
-0.10143784
0.03864570
0.08798491
-0.03346707
0.06021814
-0.10740345
-0.07417980
0.02602997
-0.08612707
-0.02635266
-0.07086076
-0.03882831
-0.01473221
-0.11151113
0.01890494
0.09957566
0.06872319
0.01526393
0.01508745
0.02607525
-0.02180420
0.00437585
-0.14633965
0.07617451
0.12554061
0.02228555
0.12793584
0.09733054
0.01459493
-0.02512805
-0.05229801
-0.15382828
0.02903444
0.06789555
0.07755127
-0.10903360
0.04229793
0.08196676
-0.08690767
0.08065379
-0.08284020
-0.06907523
0.01451505
0.05509738
0.00445590
-0.05021512
0.01008966
-0.11457961
-0.05111790
0.12035857
0.07782076
0.08937751
0.00403939
0.00729583
0.00726426
0.10387384
-0.03573357
-0.16297427
-0.06168379
-0.00308812
-0.06449815
0.09713069
-0.12233041
-0.04549805
0.10293994
0.00480520
0.03280807
-0.01145874
0.11456037
-0.02382227
0.06671886
-0.09925142
0.05566514
-0.03827333
0.06265043
-0.04129776
-0.08668410
0.06658916
-0.02664369
-0.08124743
-0.03398794
-0.04279654
-0.04032318
0.15451309
-0.02514031
-0.05271561
-0.01655615
0.07457099
-0.01811662
0.05385377
-0.02516259
-0.00352470
0.02413120
0.08955126
-0.01030558
0.34611571
-0.00975650
-0.06163979
-0.02220277
0.06970105
-0.09648491
-0.00814628
-0.00373944
0.06852126
-0.02511562
-0.01404800
-0.07242167
-0.05646706
0.03570078
0.01708345
0.00980448
0.06166157
-0.06561630
0.01609248
-0.03785646
0.05021578
0.14975390
-0.02572414
0.00640498
-0.17212385
-0.11166255
0.05623251
-0.12623832
0.00501608
-0.09115952
0.02424101
-0.08808397
0.06126392
0.03267392
0.06218146
-0.06350801
-0.03776656
0.02956390
-0.02808062
0.04470483
-0.04225268
0.10137963
0.08998602
0.02760726
0.09747762
-0.05747423
0.03745076
-0.02339103
-0.01301307
-0.00915529
-0.06308449
-0.06258100
-0.08255565
0.04968992
0.02456444
0.12213426
0.05390000
-0.63741750
0.06262244
-0.00307947
-0.04192436
0.02380937
-0.02541737
0.13398759
-0.01174532
0.06427023
0.01559982
-0.06184511
0.05808993
0.06869362
-0.07796294
0.06916882
-0.00997407
-0.08967289
0.04416718
0.00388184
-0.00172751
-0.06220433
-0.04913940
0.04109462
-0.09401392
-0.07524403
0.11911373
-0.04260952
0.04664079
-0.00261931
0.12074820
-0.11934852
-0.04550737
0.04679281
0.16628651
0.04063314
-0.00798681
-0.08082273
-0.05500454
0.03630078
-0.12880607
0.07089783
0.04794000
-0.07757814
0.05981198
-0.01465047
0.13549088
0.07791536
-0.05261283
0.00035307
-0.01662311
-0.10494177
0.01111618
0.06421895
-0.07217255
-0.03682787
0.00546041
0.02748227
0.01935901
0.07914187
-0.07979593
0.12282708
0.06611751
-0.03218790
0.11491259
-0.02605279
-0.05917309
0.01033317
-0.02519390
-0.04068496
-0.01201986
-0.15638278
0.00423470
0.03149294
-0.00961991
0.05715038
-0.09267244
0.00755859
-0.04457220
0.08597312
0.11747687
0.06892805
0.04346417
-0.03681747
0.00186906
-0.00887683
-0.09144417
0.03078050
-0.07723855
0.07783700
0.06165971
0.10555851
0.14342761
-0.05785348
0.06046658
-0.01378102
-0.04304089
0.04667483
-0.01715203
-0.04243554
-0.04117896
-0.02299485
0.12408432
-0.06242888
-0.01209034
-0.13517794
-0.10634474
0.08889005
-0.07992501
-0.05264734
-0.00505869
-0.04675932
0.05166554
-0.08959575
-0.10185783
0.10360497
0.03642316
-0.00276974
-0.04746359
0.02046470
-0.02274406
-0.05965617
0.05036399
0.00086277
0.07274473
0.06960521
-0.04959784
0.02551671
-0.05654778
-0.61038744
-0.04458090
-0.08053441
-0.06046839
0.07023147
0.06931910
0.01083010
-0.02661596
-0.07818268
0.01205749
-0.00664815
0.03255557
-0.00924449
0.07187451
0.07218421
-0.14156464
0.01792749
-0.07755778
0.01082893
0.11124066
0.05282360
0.03792192
-0.10034873
0.01409956
-0.00175928
0.04042892
-0.06860572
-0.00210016
-0.04681262
-0.03902817
-0.04210397
-0.06433751
0.08650774
0.09297243
0.04198326
0.02848778
-0.00940912
-0.06312007
0.00356229
-0.08711405
0.01655301
-0.12055606
-0.08316728
-0.04611338
0.12730828
-0.05647460
-0.01349735
-0.04810004
-0.09161253
0.08559533
0.02768057
0.02499322
0.08280508
-0.09821413
0.10908958
0.03221554
0.04178053
0.10678443
-0.12270465
0.03519693
-0.04890820
-0.03368333
-0.14365593
0.00603186
-0.01759238
-0.06956133
-0.08738361
-0.04427448
-0.01936658
-0.04277385
-0.16029768
0.01709806
0.03208510
-0.29127964
0.00017482
-0.08715045
0.10058722
-0.09691661
-0.05315019
0.00078419
-0.05419610
-0.05024651
-0.01881310
0.10326615
0.03332283
-0.05194543
-0.05198693
0.01712786
-0.09825242
-0.04991423
0.10765298
-0.00953979
-0.04064340
-0.11640121
0.08472425
0.00444022
-0.07145744
0.01600458
-0.08714187
-0.06405491
0.02977783
-0.04464370
-0.04693188
0.03861509
-0.06415814
-0.00216705
-0.04535423
0.03009626
0.05744575
-0.03954787
-0.02467360
-0.01585037
0.01892122
-0.05172788
0.06062375
-0.13588952
0.03429236
0.10549030
0.01598229
-0.11737923
0.00515266
0.10509916
-0.10569256
-0.06549180
-0.00461141
0.11606596
-0.02865878
0.01887590
0.08036045
-0.04800967
-0.03259021
-0.02825197
0.12960455
0.03995724
0.00586852
-0.08376680
-0.01935105
-0.10312347
-0.05726601
0.06236409
-0.03581518
-0.02421410
0.04721393
-0.04378442
0.06361710
-0.01290036
0.08334257
-0.01314805
0.00878311
0.00457700
-0.18940720
-0.01567370
-0.02067523
-0.11441699
-0.03590799
0.11849736
0.08444089
0.00445722
0.11490794
-0.14998358
0.06376685
-0.03220331
0.01852654
-0.02180474
-0.03364537
0.07339101
-0.06440222
-0.09400538
-0.04768539
0.00556783
-0.06673657
-0.01873749
-0.00004561
-0.04045406
-0.11307162
0.04012064
-0.04321162
0.00037123
-0.01481124
0.09288616
-0.00844676
0.01361523
-0.04429797
0.04674204
0.04243478
0.04559281
-0.02974299
-0.00986238
-0.02212889
0.03933297
-0.02709593
-0.04691255
0.03069861
0.06203258
-0.09821397
-0.09620026
-0.04778698
0.05790243
-0.09189913
0.09500968
-0.12535277
-0.00308663
-0.04509530
-0.08585195
-0.02738338
-0.04072303
0.04215340
0.14052941
-0.02241739
-0.00251039
-0.08588919
0.03141328
-0.01728055
0.05401002
0.00193342
-0.07273193
-0.04109467
-0.03014216
0.02786290
-0.04914854
0.02442421
0.00007017
0.05320936
0.00957418
-0.04216440
0.05263967
0.01125974
-0.06681109
0.05781279
-0.01430816
0.06224073
-0.20248567
0.02680227
0.04238328
-0.00749598
-0.01128680
-0.03000779
-0.07763112
0.04247287
0.09412026
0.06829031
0.02340578
0.01766703
0.01675210
0.00332717
0.12371593
0.02438855
-0.04115062
0.03181258
0.02462707
-0.01910700
-0.06312811
0.00724843
0.06787097
0.05141943
-0.05883441
-0.12128633
0.03521680
-0.04199428
0.13889897
0.07754553
0.02714488
-0.07224239
0.02691272
0.14377660
-0.06985186
0.02035135
-0.01341663
0.02435479
-0.15028512
0.10338375
-0.12460648
-0.04189042
0.00983131
0.10630951
0.17225075
-0.02797433
-0.05912139
0.05630368
-0.09286772
-0.10036762
0.02719226
-0.02312146
-0.09005566
0.02087120
-0.06433013
0.00937181
0.06940427
-0.09022249
-0.01284040
-0.00147270
0.12752527
-0.00778605
-0.00013658
-0.09008684
0.08107659
0.10659055
0.08865232
0.03327824
0.04787501
-0.07494826
0.02533782
0.11094138
-0.01207719
0.07767902
0.05061911
0.09426323
-0.12354900
-0.05040419
-0.03922014
0.03212925
-0.05804634
0.11253712
-0.04101831
-0.02917127
0.00942965
0.05526183
0.01450111
0.09442245
-0.00114248
0.05540201
0.01567313
0.12729882
0.03663263
0.12781140
0.08373788
-0.00877343
0.07976494
0.07500438
0.11014852
0.12008668
0.00392622
-0.07518096
0.09594254
-0.10484655
-0.06387258
-0.01208960
-0.10585916
0.02203203
0.12668070
0.04701701
0.09383114
0.07867040
0.07344490
0.04202645
0.15062116
-0.04056574
-0.03823082
0.11257298
0.06580199
0.09415313
-0.04674644
0.07634079
-0.02303608
0.05874218
-0.04057685
0.09099736
0.01397281
-0.01319925
0.04355885
0.09074237
0.15571563
0.19062893
-0.02528653
-0.05277422
-0.06466331
0.16037953
-0.03845354
0.06017577
0.03164025
-0.06099931
-0.04398521
0.01612728
-0.07330320
0.14678662
-0.06122232
0.03566436
0.01532038
-0.01199614
0.07980113
-0.02586479
-0.01868432
-0.05209750
-0.12987113
0.02377261
0.02835158
0.10298879
-0.00934541
-0.11969879
-0.04756276
0.01892331
-0.06933051
0.14034316
0.04986855
-0.06799740
0.07879712
0.10220525
0.01273672
0.08537883
0.07335683
0.00307909
0.05988804
-0.12604490
0.03273002
-0.02298252
0.02814689
-0.02112542
0.00937095
-0.10810719
0.03362368
0.05568547
0.01493730
-0.55736560
0.02835431
-0.01881035
-0.01292092
0.04526804
-0.06208364
-0.01065081
-0.12779920
-0.01084363
-0.03722599
0.02898892
0.05717165
-0.04177880
-0.01259970
0.16042417
-0.01865229
-0.00590260
0.14714140
-0.10992329
0.01995719
-0.05574184
0.04688116
-0.09158269
-0.06048843
0.06975664
0.03554577
0.00768755
-0.02315548
0.01371633
0.11408550
-0.09102143
-0.04880833
-0.03813415
0.08464099
-0.06964877
-0.08419689
-0.15649822
0.08338825
0.05202211
-0.02959232
0.03035535
-0.04437671
0.13470426
-0.01421871
-0.05657555
0.03479511
0.02150396
0.00447924
