0.00719894,-0.03665679,0.02040234,0.04333453,0.03393339,-0.06961223,0.06162366,0.02277598,-0.01360635,0.00015975,0.01704777,-0.02883670,-0.01093795,-0.01027567,0.00339081,0.00341454,0.02753072,0.03457724,0.01310589,0.01745863,0.04445691,0.01485938,-0.01096758,-0.03379862,0.00917679,-0.00116206,0.09189748,0.01947572,-0.08363766,-0.00052860,0.01289428,0.03456836,0.04001032,0.01803349,-0.01038853,-0.01761615,0.00326878,0.05285460,0.00215733,0.06832230,0.03921732,0.01738861,0.04626922,-0.03449297,-0.04232316,-0.00406315,-0.05689618,0.06881823,0.01992086,-0.02915616,0.02055133,0.01621120,-0.05768554,0.04508783,0.01828818,0.00065690,-0.01844032,0.00826725,0.00054867,0.05656241,-0.00828158,0.00083753,-0.01979965,-0.01337433,-0.00692101,-0.04937607,0.00586044,-0.03281368,0.05032133,0.00452170,-0.01243531,-0.04389257,0.03118772,0.00554551,-0.00575316,0.00303198,0.00169008,0.02011198,-0.04617514,0.02176978,-0.02553578,-0.03126734,-0.07071611,-0.01564278,-0.00435467,0.04631681,0.08334526,0.06005247,-0.04416168,0.02743083,-0.09124251,-0.02311360,-0.01724762,0.01125489,0.02591551,-0.08134910,-0.01147037,0.04509043,-0.05319595,-0.05467608,0.01671872,-0.00238226,0.00181205,-0.03036954,-0.03437363,-0.04405811,0.05014353,-0.01607988,0.04959648,0.03083542,0.00703567,-0.01334092,-0.00917071,-0.05268285,0.04634138,0.00936715,-0.01418747,0.02056473,0.03218199,-0.02754707,0.01694630,0.17293170,0.05304361,0.03428099,-0.01887430,0.03382449,0.01067032,0.00531778,0.01600141,-0.07098447,-0.03077892,0.03919673,-0.01254709,0.04499778,0.02473494,0.01780689,0.01678782,0.00869167,-0.05319513,0.01311858,-0.02447076,0.02256216,0.00516141,-0.00865693,-0.00666081,0.01124871,0.01063797,-0.00356552,-0.01035130,0.03135942,0.01739879,0.02475437,-0.00728781,0.03019416,0.01360377,0.00041369,0.03817229,0.01308638,-0.03767510,-0.09692254,0.05562865,-0.02653496,-0.05034251,-0.01510258,0.03396462,0.02135722,0.02856938,-0.04525660,-0.01171059,0.02533182,0.00546651,0.01514138,0.03224757,-0.03023107,-0.03883458,0.01281257,0.03140510,-0.04552635,-0.05043791,0.01887362,-0.02564670,0.00930406,0.01551718,0.06661762,-0.07750723,-0.00406891,0.00024384,-0.05184406,-0.04588803,-0.00615829,-0.04054622,0.02987476,0.01073859,-0.04656833,0.10027684,-0.06322996,0.08234731,-0.01064692,0.00961748,-0.01758632,0.00501107,0.00149886,-0.00331687,-0.03746188,-0.04068511,0.00552231,0.03613710,0.03566054,-0.02812555,-0.01117332,-0.08912072,-0.00131855,0.00643712,-0.01596958,-0.02541487,-0.04541356,-0.06671438,-0.03257208,0.03187791,0.03213282,0.00397502,-0.00518628,0.02801551,0.01100266,-0.03018872,0.03328824,0.03207223,0.04201195,0.00776656,0.00757964,-0.04563233,-0.01343187,0.03705587,0.00913262,-0.02921931,0.02267264,0.00847871,0.07342643,-0.01197808,-0.03651384,-0.02678729,-0.03833737,0.00939478,0.00566976,0.01695535,0.02498050,0.04783266,0.03244505,0.03945171,0.01914653,0.03150774,0.00641114,0.00963388,0.00272056,-0.03403742,-0.02708613,0.01987433,0.03641266,0.02825098,0.01068583,-0.03360120,-0.03667675,0.01285539,0.02964049,-0.00832556,-0.03566396,-0.00648752,0.00752287,0.05276768,0.00281976,0.02046079,0.02809738,-0.06073381,-0.01229806,0.01541798,-0.02809673,0.03972892,0.00272577,0.08307415,0.02987491,0.05114854,0.04830890,-0.02582595,-0.02004900,0.00955165,0.05208489,-0.01094092,0.01814718,-0.08279375,-0.00911733,0.00762170,0.02154421,-0.00495258,0.00809307,0.04274137,0.02479992,-0.02535816,0.01793659,-0.00996011,0.04010204,-0.03070351,0.02208371,0.03053460,0.00503371,-0.03162615,-0.02012503,-0.00054585,0.01048364,0.02171129,0.07054653,-0.01041500,-0.05922506,0.02560852,0.02364385,-0.04125959,0.00232782,-0.04518396,-0.04385572,0.00244585,-0.02560529,-0.01115199,-0.06179430,0.03658074,0.05366501,0.00137940,-0.03442873,-0.02387477,-0.06285080,-0.03164121,0.02187627,0.03273426,0.02865597,0.00769324,0.01644846,0.02521691,-0.00953512,-0.06024741,-0.09809571,0.03573603,-0.01295341,0.00331268,-0.01172640,-0.07740317,-0.04119374,-0.05581153,-0.01025163,0.00388137,-0.00446481,0.00657733,0.00835836,-0.05184990,-0.01736344,0.00658990,-0.00438426,-0.00708755,0.00450418,-0.01465308,0.02870227,-0.03210310,0.04247586,-0.01319258,-0.02172973,0.00496163,-0.02020820,0.09017846,-0.00931565,0.02076342,0.03561204,0.00139066,-0.05144536,0.00581964,-0.00888586,0.01529031,-0.03929255,0.01627155,-0.09808612,0.04883939,-0.02028466,0.03257778,-0.04251824,-0.05529664,-0.01319001,-0.03002406,-0.04257805,-0.05516393,0.02016751,0.00811299,0.00549939,-0.05725793,0.02170045,0.00009443,-0.03705063,0.02154021,0.01933349,-0.04247724,-0.03354787,0.00516089,-0.01260110,-0.03631955,-0.02809122,-0.01135218,-0.00300786,-0.01312444,-0.00035785,-0.02051335,-0.01106900,0.02162763,0.09349866,-0.00445195,0.02751667,-0.04881797,0.05768257,-0.01774386,-0.03848185,-0.00596971,-0.03964130,-0.04801098,-0.01589554,-0.02122854,0.02872916,-0.01419670,-0.00579884,-0.02975470,0.00024277,-0.01091183,-0.03821804,-0.00423618,0.03750627,0.00685945,0.00638580,-0.03448934,0.00426958,-0.01671841,0.03307942,-0.02439364,-0.00775512,0.01272223,0.01249979,0.09371987,0.01460675,-0.04730304,-0.01822232,-0.05492158,0.04226963,-0.01933227,-0.00463818,-0.04004149,0.00570412,0.00840223,-0.06121287,0.05288001,-0.01361755,0.04754752,0.00181660,-0.06281340,0.03040026,0.00852008,0.04982466,-0.02456894,-0.00652737,0.06725889,0.02832297,-0.03024197,-0.01796835,-0.03250548,0.03515060,0.03160421,-0.00302567,0.01656029,0.00618819,-0.00825600,-0.00389143,-0.00013495,0.02764595,-0.03042052,0.03212018,0.01489918,-0.00751185,0.03775827,0.00859296,-0.03496898,-0.03007633,0.00070520,-0.03725501,-0.05344470,-0.03042112,-0.02285447,-0.01992440,-0.00139890,0.00237975,-0.03242837,-0.00951092,0.00286746,-0.00961969,-0.00987567,0.00764319,0.00368546,0.02607706,-0.02169938,0.03902724,-0.03867205,0.02157118,0.02956839,0.00254852,-0.03270207,0.01661899,-0.01240921,-0.00289181,-0.00973370,-0.04923165,-0.00516138,0.03147060,-0.02236833,-0.03708569,0.03402132,-0.01241095,0.01046778,0.00395496,0.03482664,0.00944602,-0.01582909,-0.01712598,0.01582396,0.02703889,0.00358457,0.08076587,-0.06249717,0.09782740,-0.05055514,0.10402606,-0.05799931,-0.02598283,-0.05182701,-0.00634881,-0.00783431,-0.05122404,0.01710710,0.01803776,-0.02516920,0.00492182,0.05791888,0.13653733,0.01204982,0.01317025,0.00205141,0.06354114,0.00577941,0.02103996,0.02622646,-0.01253445,-0.01472835,-0.00352092,0.06174095,-0.01366509,0.01667103,-0.02595003,0.01849827,0.05121335,-0.03237863,-0.00635941,0.08449163,0.02939695,0.01251371,0.01072180,0.04099049,0.01962469,0.00141185,0.04361362,-0.00571693,-0.03962245,0.07581864,0.01514092,0.00667188,-0.01146595,-0.04292896,0.01413939,-0.04647762,-0.00264306,-0.09239753,0.00201973,0.01480562,0.02778940,0.01702913,0.00505796,-0.01202102,-0.03372647,-0.00755039,-0.04153241,0.04932266,0.02870212,-0.03375270,-0.03649088,-0.01879563,-0.00483492,-0.00426614,0.09253249,0.04629488,-0.02774548,0.01330044,0.00026723,0.04422056,0.02291002,-0.00874822,0.05325858,0.03406641,-0.02701391,0.07559818,0.00107252,0.00093682,0.01215660,-0.01433233,-0.04629197,-0.06504586,-0.01028746,-0.00133485,0.00398598,-0.01346501,0.02069804,0.00241289,0.03736778,0.01906560,0.06902873,0.03513629,-0.01121172,0.03566249,0.02441913,-0.01108775,-0.00212701,0.02339888,0.02186649,-0.01456062,0.03748492,-0.03584985,-0.01965189,0.03731052,-0.03123634,-0.01501226,-0.03276855,-0.03579696,-0.01301667,0.00644049,-0.02014062,0.00316713,-0.00617234,0.01459106,0.01293548,-0.06174519,-0.04913204,-0.01782148,-0.05216335,-0.02872831,0.00932579,0.00382553,-0.02319989,0.12892385,0.03669142,0.00700454,-0.00000149,0.02122119,-0.00892789,0.03206310,0.01679013,0.02485994,0.00457379,0.05388797,-0.02267323,-0.05329586,-0.02917476,-0.02632188,0.02597339,-0.02387115,-0.03516583,0.06012140,0.02948855,-0.04398794,-0.04533364,-0.03134549,-0.00926414,0.02094484,-0.00909354,0.06967716,-0.04456760,0.04551578,0.00069100,0.00792896,-0.03880399,-0.00852040,-0.02064443,-0.01116963,-0.01639693,-0.01082856,-0.06592705,0.02856526,0.06009632,-0.07038511,-0.03610749,0.00032633,-0.01376162,0.00292043,-0.01699975,-0.01806995,-0.03116102,0.05629680,-0.03553839,0.05233515,-0.04180724,-0.05049971,-0.01502280,0.01486045,0.01576395,-0.03112846,0.02606330,-0.01340512,-0.00289110,0.08048858,-0.03690251,-0.01680197,0.02479899,0.01035568,0.00336194,0.00272860,0.01430041,-0.00240039,0.00440463,0.00414199,0.03890230,0.02149285,-0.01424391,0.00806004,0.02497218,0.03626229,-0.03197591,0.00595054,-0.00990660,0.00447588,0.04549013,0.00286643,-0.05137344,-0.03428126,-0.03943140,0.01067187,-0.04044090,-0.02117930,-0.02355083,-0.03135105,-0.00104700,-0.01103315,0.02719240,-0.01599390,-0.00133554,0.02423416,-0.02570662,-0.01641277,-0.00782409,-0.01411133,-0.02228954,0.02894436,-0.02290135,0.01751774,0.01270764,-0.03819183,-0.07386144,0.01223511,-0.03938678,-0.02328695,0.01367490,-0.01234781,-0.01058678
0.02676433,-0.06471269,0.01631959,0.00930757,-0.04411750,-0.09378558,0.04036181,-0.00161383,-0.00090697,-0.00734369,-0.02632077,0.02773915,0.00684645,0.05212089,-0.04528029,-0.01003738,-0.02438945,-0.01809886,0.02122483,-0.06253924,0.01222645,0.01666177,0.05051786,0.02902148,-0.01628846,0.01178117,-0.00251020,-0.02895004,-0.00405013,-0.00013256,0.02897508,-0.03683850,-0.00759308,-0.02323577,-0.00851178,0.02573127,0.00369850,0.01642944,0.01562399,-0.01356943,-0.02067676,0.03064076,-0.02917853,0.00793570,-0.01054890,0.06787658,-0.04642667,0.02861141,-0.01047726,0.05625942,-0.04815734,0.02740420,-0.00786560,-0.00990103,0.02636399,0.00100603,0.01064413,0.01961566,-0.00567718,0.01543028,0.00675566,0.02215071,-0.01863274,-0.02337432,0.05770410,0.02689058,0.03661254,-0.00568643,0.02094449,-0.04176688,-0.04886750,0.02427766,0.02775092,-0.01071458,-0.00197754,0.04681790,-0.00160384,0.01504117,0.03072307,0.01620670,-0.03509158,-0.05532275,-0.00718483,0.01100400,0.07847790,-0.05018875,0.02429542,-0.00033048,-0.07031544,0.00962284,-0.01334557,0.04655158,0.02149668,-0.05850198,0.05007658,-0.02796154,-0.02578614,-0.02787894,-0.00671771,-0.01425752,0.11913106,0.02414362,0.03699977,-0.06519925,-0.00726440,-0.00990196,-0.00450440,0.04216424,0.02109315,0.01455165,0.03719930,-0.01149920,0.05963572,0.04988945,0.02897705,0.02739267,-0.00494788,-0.06105676,-0.02513987,0.02692845,0.01699457,-0.12698999,0.00161195,0.00580475,-0.00439326,-0.03269824,-0.02597614,-0.04915709,0.01926495,-0.06401115,0.00593367,0.03132712,0.01013426,0.08528675,-0.04119583,-0.01991788,0.07324003,0.01940750,0.00376814,0.01492793,0.00856021,0.02182144,0.00649201,0.01744777,0.01415408,-0.01256314,0.04259354,0.02181434,0.04493062,-0.01969002,0.00792500,0.06648143,-0.01919318,0.07168577,-0.02677135,-0.04269255,-0.02597353,-0.01045494,-0.01677355,0.08064722,-0.04521992,-0.00424038,-0.02610239,0.00079011,0.02930078,-0.03026221,-0.03199040,0.03222434,0.01919221,0.02113423,0.08174983,0.01079850,-0.02872533,-0.00142187,0.03719811,-0.03347252,0.04723888,0.01566258,0.01130495,0.00849501,-0.05032868,-0.01754559,0.00735255,-0.00994974,0.00940224,-0.02151715,0.02291541,-0.02099525,0.02137626,-0.03518903,-0.02057166,-0.00318527,-0.02125871,-0.00964045,0.04376164,0.01193393,0.01336673,-0.00585193,0.01595578,-0.04578040,-0.00658872,-0.02527046,0.01944129,-0.02325004,-0.00764193,0.01976512,0.00701543,0.02208379,0.00198449,0.01821680,0.04255831,0.06930620,0.01709073,-0.01830896,-0.07516646,0.01376755,0.04581536,0.01136870,0.00746091,0.03183894,0.00173529,0.04872303,0.00023364,0.00609790,0.05347737,-0.04921858,0.00441669,-0.00256188,0.01324565,0.03167716,-0.03000973,0.00114922,0.02866586,-0.01319805,-0.04313837,0.02573074,-0.02483927,-0.00635986,0.08909108,-0.03668012,-0.00050802,0.02495711,-0.03405310,-0.00557550,0.02155250,-0.07239442,0.00634290,0.01401811,0.02206411,0.03494728,-0.01690663,-0.00827847,-0.02267591,0.01664590,0.02048863,0.04090341,-0.01965010,0.00687693,-0.07792725,-0.00338316,0.00762822,-0.04334702,0.00567833,0.06534438,-0.01457160,0.01700376,-0.00877786,0.01956044,-0.01969706,0.03542745,0.02046172,-0.03956657,0.06698277,0.02609617,0.00748856,0.04558832,-0.03847989,0.00604870,0.01888499,-0.03335970,-0.01966686,0.05947956,0.07813758,-0.03896644,-0.02129672,0.02117693,-0.00622343,-0.03491793,-0.02248374,-0.06089906,-0.00248861,0.00087468,0.02131818,-0.06994806,-0.03268317,-0.01164443,-0.00393075,0.02860308,0.02337702,0.09440646,-0.02295239,-0.00441008,0.03152318,0.01385712,-0.01690521,-0.02868868,-0.02270706,0.02036221,-0.02106434,0.02887691,0.01337328,0.02230981,0.02668924,0.02588836,-0.00078780,-0.04219433,-0.06351823,-0.00098083,0.09430037,0.00307098,-0.04981366,0.00659237,-0.07104003,0.00346203,-0.02577779,0.04938843,-0.04574406,-0.03078511,0.01227636,0.00774896,0.01020129,-0.08716845,-0.00185855,0.00636698,0.04670139,0.02100669,-0.01875990,0.00286115,0.06573133,0.01760134,0.00965054,-0.07446800,-0.04993821,0.03789243,-0.00471359,0.01106774,0.05536327,0.00418512,0.01708606,0.02946192,-0.00344712,0.02259522,0.01379866,0.03489016,0.01778364,0.00255403,-0.01697897,-0.01211322,0.09135742,0.00103949,0.10413330,-0.02163132,-0.01762786,0.00740414,0.03009607,-0.01474338,0.02911417,0.02988696,-0.01979288,-0.03529371,-0.12516350,-0.05109761,-0.00972328,0.00438399,0.03300324,0.01230354,0.04899763,0.02203409,-0.01916005,-0.03562919,0.01833478,-0.01516362,0.01588672,-0.08171094,-0.00659188,0.01440247,0.01295388,-0.00916665,0.04212619,0.02764512,0.03353581,0.02639331,-0.00088929,0.00465921,-0.00482520,-0.02321588,0.00867206,0.01004669,0.05194483,-0.00460791,-0.05437322,-0.00680137,-0.00147802,-0.01126337,-0.01958131,-0.00384772,-0.00296364,-0.00389131,-0.03097564,0.03650767,-0.08443351,-0.03304054,-0.01460795,-0.06383158,0.00824724,0.04538834,0.00767525,0.00476289,-0.01939745,0.01631540,0.00820999,0.03740184,-0.01169433,0.03442776,0.02200188,0.00623863,0.05029540,-0.00521575,-0.03568984,-0.00854302,0.05701800,0.01298222,-0.01146918,0.01126291,-0.00876568,0.02812743,-0.02116220,0.00136974,0.00276419,0.02581559,-0.05186693,-0.05558327,-0.00768097,-0.02215978,-0.02446193,-0.05194215,0.03613093,0.02729827,-0.00178123,0.08671342,-0.02304715,0.01232858,0.02086736,-0.01340009,-0.00040868,-0.05922377,-0.02354817,0.02498834,0.08127239,0.00932249,0.00954646,-0.00871823,0.02621609,0.05668512,0.05064036,-0.07314809,-0.04653240,-0.06166239,0.00853358,-0.02624159,0.01819957,0.00442798,-0.02410223,-0.04856453,0.00611455,-0.00586135,0.00583511,-0.05016789,0.00636170,-0.00692850,-0.01029815,0.03000203,-0.02862695,-0.04152337,0.02151651,-0.03209640,-0.04385762,-0.01943360,0.01297344,-0.02652606,-0.02062899,0.03208551,0.03183040,0.00494885,-0.00575642,0.01717514,-0.03642164,-0.01358228,0.02432225,-0.02741457,-0.00622668,0.00278759,-0.03329503,-0.03344612,-0.00495862,0.05331264,-0.04163836,-0.02625066,0.03900212,0.00862752,-0.10132011,-0.00227173,0.04412971,-0.00233083,-0.01465790,0.00931353,0.00378156,0.00181680,0.01552354,-0.02878073,0.02284972,0.00299439,0.01486613,-0.01282644,0.03909803,-0.03661074,-0.01960466,0.00722822,0.04010293,-0.04788527,0.01121736,0.02869791,-0.02501953,-0.02232633,0.02965052,0.02898828,-0.00193391,-0.02615415,-0.01971215,0.04379593,-0.01081401,-0.11479438,-0.03139296,-0.01804890,-0.02926100,-0.03058701,0.03129575,-0.03953345,-0.06792046,-0.02299115,-0.03416358,0.03723999,-0.05739032,-0.02253620,-0.00960539,0.04306407,0.01282518,-0.04783827,-0.03949279,0.01849968,-0.01309113,-0.01881392,0.01766313,0.02571115,-0.00217473,-0.00487924,-0.03578627,0.00272715,-0.01769715,-0.02153756,-0.04897329,0.06507991,0.04723648,0.04851305,-0.01226746,-0.05162490,0.01081834,-0.03433041,0.04381867,-0.04076451,-0.03504888,-0.02132492,-0.03643407,0.01650742,-0.02084246,0.01669918,0.02540239,0.00023058,0.00188580,-0.00283242,0.01286621,-0.01249785,-0.02357808,-0.00979508,0.03143036,-0.01145608,-0.03031669,-0.09748601,-0.00672580,0.02073350,-0.03266684,-0.00855800,-0.00432977,0.00721470,-0.00843338,0.01614733,0.07265901,0.02294368,-0.00296459,-0.00639116,0.02271308,0.03048470,0.06662716,-0.00623341,0.01942000,-0.04533016,0.01210980,0.02060903,-0.01954156,-0.00391820,0.01553996,-0.00743164,-0.01773408,0.02434426,0.00376542,0.02619551,0.04665998,0.03120613,-0.00933423,-0.02532136,0.03571879,-0.03087135,-0.02394079,0.01291719,0.10804471,-0.01986418,0.02053798,0.02070658,0.01201422,-0.06012440,-0.04565031,0.04812876,-0.02980960,0.02635183,0.00894100,0.02754911,0.04397309,0.01665090,0.00049958,-0.07898621,0.00619479,0.00539692,0.05387007,-0.03045714,-0.06865086,-0.00074987,-0.02724563,0.01552441,-0.00499380,0.04497185,-0.05876042,0.00368628,-0.01178814,-0.02356615,0.07470925,0.01535697,-0.06049154,0.02498209,-0.06876326,-0.07941346,0.01312150,-0.01751554,0.02808687,0.01671122,-0.02372473,0.05333861,0.02145059,-0.00555512,0.05987929,0.01581473,-0.00772542,-0.08358137,-0.01509864,0.00800265,0.02490937,0.01315806,0.02502789,-0.02362854,-0.00308580,-0.03490456,-0.02086797,0.01769489,-0.00803950,-0.03005264,0.01238362,-0.02396958,-0.00637127,-0.01899815,0.01161052,0.01989834,-0.00797087,0.00301597,0.00927680,0.02213147,0.02626416,-0.03973760,0.01324002,0.00895051,0.03182141,0.02220755,0.00270791,-0.00458465,0.03366962,-0.00258336,0.02650934,-0.01727232,0.05516497,0.01166462,-0.01052281,0.03492171,0.02117856,-0.02521954,0.00966978,-0.05320239,0.06398259,0.02234657,0.01828905,-0.00979027,0.00868255,0.01753063,0.01534680,0.01463401,0.01016849,-0.00828557,0.00360330,-0.01012864,0.03392337,0.02143607,-0.04101914,-0.04773729,-0.01875236,-0.04334380,0.04107535,-0.01457873,0.01680624,-0.03262665,-0.01702498,0.03295995,0.02550031,-0.03724441,0.00015164,-0.01310703,0.07101021,-0.01596317,0.04279304,0.03105014,-0.04257440,-0.01360767,-0.05991211,0.04590942,-0.05836600,-0.02459181,0.03484789,-0.03471070,0.01104745,-0.01822632,-0.04313992,0.01573039
-0.01852666,-0.01786922,-0.03418322,0.04678706,-0.01717925,0.00620579,-0.04586836,0.00911729,0.02490169,-0.00102902,0.00666689,0.02255349,0.01131331,-0.06547645,0.00114077,-0.00783847,0.08692028,0.00434972,-0.02427872,0.02681632,0.02366927,-0.00535380,0.04718968,0.00258905,0.00950684,0.02750490,0.00917350,-0.05822834,-0.02847448,-0.00808448,-0.01490877,-0.00764290,-0.03683965,-0.00697219,0.02884061,-0.01837670,0.02004623,-0.01941320,0.01711746,-0.04219205,0.05049562,0.02916953,0.03475855,-0.00854275,-0.01637906,-0.03293842,-0.07170697,0.03142386,-0.01971198,0.00077584,-0.02464046,0.00557418,0.01538290,-0.00498183,-0.03143001,-0.03743204,-0.00235901,-0.01212492,-0.04149695,0.01127249,0.03837653,-0.03839236,-0.02563963,0.01304616,0.02354741,-0.01621674,-0.04302439,-0.06848334,0.04883402,0.03462088,-0.04328944,-0.02940501,-0.05788102,0.03843575,0.06400711,-0.03428420,-0.00912251,0.00471430,-0.00079862,0.01588972,-0.02663478,-0.07114843,0.00479926,0.03483742,0.00898235,0.02048851,0.02898435,0.08601352,-0.03371440,-0.01163519,-0.00189501,-0.02705505,-0.05306052,0.00591980,-0.05216680,0.01562658,-0.00488728,-0.02688375,-0.02232285,-0.00780043,0.00302432,0.01600099,0.06089236,0.01852110,0.05509133,-0.01628620,-0.03160862,-0.01926867,-0.02651140,-0.00357055,-0.00300864,0.01898553,-0.04067221,0.00770863,0.02045683,0.02403724,-0.00391316,0.03908173,-0.02888540,-0.02396239,-0.01245936,-0.14708389,0.01673696,-0.06449532,0.00543106,-0.00393774,-0.01767981,-0.02583208,0.04382598,0.00600090,0.03932060,0.03348128,0.02931814,-0.02922944,0.02472644,0.01659253,-0.07944838,0.01206137,-0.00773753,0.02482323,0.00723899,-0.03111297,0.00264373,0.00149063,-0.00263984,0.00210002,0.04414329,-0.02227088,-0.02775305,-0.00315620,-0.02637017,-0.00624404,0.04019298,0.03180138,-0.01113820,0.04902237,0.05003837,0.05249437,-0.01781127,0.01560681,0.00696521,0.03056154,0.01255049,-0.02436360,-0.02481545,0.05958744,0.03579896,-0.08411966,0.01061036,-0.00164985,0.03203136,0.02970955,0.00904762,0.01409448,-0.01986113,0.00757656,-0.01819673,0.00495617,-0.01546739,-0.00711495,0.04419785,0.01886968,0.00371670,-0.02037015,0.02775233,0.04852867,-0.00160272,0.01440398,0.06031609,0.04231236,-0.01810026,0.03077417,-0.00202028,0.02278258,0.02332547,0.02681556,0.05311617,0.04530825,0.03258154,0.02557980,0.04378173,-0.05178303,0.02740512,0.03287409,0.05012907,0.01937639,0.03254884,-0.00971723,-0.01064163,-0.01633227,0.01582327,-0.01570311,0.02761981,0.00618398,-0.05748368,-0.04632619,0.06060484,-0.00636531,0.00956616,-0.01119858,0.01363757,0.03103319,0.01553020,0.03237754,-0.00253045,0.00585871,0.04297909,0.02938803,0.03906138,-0.04671808,0.00563830,-0.03042043,-0.06269184,-0.03803245,0.01073350,-0.02543689,-0.03288676,0.04857356,0.00975539,-0.00090771,-0.01011856,-0.09583645,-0.02904587,-0.01797260,0.01861269,0.00476560,0.05555497,0.05391717,0.03409339,-0.04895975,0.01533125,-0.00654582,0.02540627,0.00374121,-0.03161997,0.02086503,-0.01696780,0.00851615,-0.00780047,-0.01009228,-0.00032297,0.02331454,-0.02172439,-0.05583891,-0.03819799,-0.02399578,-0.01733136,-0.00524284,0.06554872,-0.00205982,0.03456401,-0.00665043,0.01357612,-0.00649450,0.05516296,-0.01590724,0.02274035,0.03423740,-0.04575445,-0.04343652,0.02678700,-0.03433824,-0.03637498,-0.02107758,0.00072495,0.02315628,-0.00864072,-0.00729941,0.03191206,-0.02621844,-0.07588561,0.04639217,0.01342549,0.02075833,0.04987684,0.00845874,0.01019432,-0.00612845,0.04166564,-0.04562042,0.02007805,-0.00509614,-0.05759653,-0.01837509,-0.02310791,-0.00093152,-0.05057943,0.00840504,0.00072343,-0.01806024,-0.01256564,-0.00242769,-0.05628013,0.01304208,-0.00300342,-0.00827428,0.02321733,0.01117538,0.00291650,0.00770126,0.02437327,-0.01145740,-0.07144938,0.03994967,0.00933756,-0.03951741,0.01255530,0.05157744,-0.03306638,-0.06177938,-0.08267120,-0.05665309,-0.00829887,0.02347068,0.03265441,0.02772195,-0.01217934,-0.01356638,0.01407647,0.06243385,-0.06829596,0.01617360,-0.06622049,0.02214314,-0.00514234,-0.00250012,-0.03184356,-0.01575340,-0.05826237,-0.03491223,-0.04963503,-0.03980564,0.01253462,-0.02229724,-0.02159521,-0.04654708,-0.03826103,0.04277630,-0.04915908,-0.08739346,0.01481719,-0.05138435,-0.00367153,-0.00523490,0.02486737,0.03717053,0.00287219,0.08598647,0.01901183,-0.03333935,-0.00025484,-0.01442703,0.00253322,-0.03164084,0.02025209,-0.02542815,-0.01362066,0.01168281,-0.04352698,0.04641876,0.04978240,0.00157074,0.03788887,-0.00562891,0.01019637,-0.00910200,-0.03230276,0.01036196,-0.08092170,0.07407121,0.03123406,-0.00132460,-0.02252079,0.01882156,0.00716677,0.03128025,-0.02593313,0.02642887,0.01465024,-0.02067728,-0.03949897,-0.00023532,0.02909936,0.00173878,-0.01299913,0.04226296,0.00595632,-0.01048089,0.02169219,0.04236695,-0.01133354,0.00682300,-0.01447246,-0.05482465,0.05749256,-0.05885483,-0.03180203,0.01910819,0.01055603,-0.05808323,-0.01534952,0.01003005,0.05668604,0.01573641,-0.02774606,-0.03474479,0.00822973,-0.02183495,-0.01374717,0.01789198,0.07296842,-0.01322119,-0.02185840,-0.02035125,0.01151199,0.00496149,0.01946615,-0.05868280,-0.02732546,0.03869363,0.00408045,-0.05549968,-0.03306105,-0.02358971,-0.00289310,0.02225597,-0.01216955,0.06721045,0.02062831,0.00501984,0.04479811,-0.00512480,0.01898455,0.00009999,-0.00968465,-0.00580290,0.04253785,0.04864717,-0.01494142,-0.00178811,0.00067452,-0.00016631,0.02240197,0.01699741,0.01979348,0.00745354,-0.01280002,-0.01761139,0.03571048,-0.02030507,0.00027613,0.02035087,0.06619596,0.01339647,0.00464830,0.04389489,0.01824704,-0.01054650,-0.00438600,0.00106324,0.02556216,0.02651704,-0.04202564,0.02183516,-0.00595401,0.04423791,-0.02858785,0.00080888,0.02834074,0.01897236,0.02246175,0.00679368,-0.06337013,-0.04585928,-0.03883119,-0.03697043,0.03992805,-0.00715912,-0.03509950,0.01087929,-0.02127060,-0.00439875,-0.05442292,0.01868655,0.02626757,-0.01894158,-0.01786493,-0.02359419,-0.01575341,0.03381587,-0.02179447,0.04398189,0.00145877,0.00332844,-0.01232158,0.00857567,0.00775316,-0.00342116,-0.01202066,-0.01108519,-0.01851994,-0.00383992,0.05085190,0.00717664,-0.00838236,0.04744809,0.00939632,0.02996249,0.03608900,0.01647337,-0.04768903,-0.02433466,0.02826114,0.00579018,-0.02845841,-0.04697478,0.01938933,0.03954588,-0.01212881,-0.03962109,0.06075518,-0.03723203,-0.02113540,0.07023136,-0.02250742,-0.00515650,0.00213573,0.01119282,-0.00574125,-0.01396238,0.02051963,0.04944903,0.02142264,-0.02924514,0.00997879,0.00487545,0.06533718,-0.00050284,-0.00296603,0.01386029,-0.01540437,-0.02729645,-0.02611208,-0.00560797,0.01568774,0.02103526,-0.01132850,-0.04122201,0.01343209,-0.02495352,0.01296057,-0.01293780,0.00415613,0.02195424,-0.00466755,-0.01797230,-0.01532186,-0.01709398,0.02286034,-0.01337285,-0.01484448,0.08023619,0.03558856,-0.01838376,0.01751683,0.01646766,0.00681338,0.07205920,-0.02283086,-0.01142764,-0.02370448,0.00988324,0.01616806,0.02991490,-0.01780588,-0.00660443,0.00853571,0.03578914,0.03541408,0.02044364,-0.02448901,0.01074130,-0.05010447,-0.00132720,-0.01296230,0.01513973,-0.02739832,0.03175544,0.00055567,-0.00462822,0.02300429,0.07148931,-0.03717677,-0.01407373,-0.02994783,0.00438276,-0.01427302,0.03066983,0.03213483,-0.04372986,-0.00674043,-0.02353793,0.04193002,-0.01541389,0.04374469,0.02329671,0.00719420,-0.02921706,-0.03333354,-0.00667333,0.03870508,0.05375904,-0.03434285,0.07392950,-0.03279024,-0.02986309,0.00811563,-0.03477034,-0.03372363,-0.03076353,-0.02069527,-0.01953462,0.01647144,0.01882911,0.03488541,-0.00000139,-0.02029990,0.01373434,0.02102136,0.02430429,-0.01501617,-0.02964571,-0.05040266,0.01438639,-0.12041974,0.01107834,-0.00704976,-0.01434375,-0.00387915,-0.00241895,0.05168451,-0.01714015,-0.00687306,0.01896810,0.02087229,-0.03882695,0.04245143,-0.01716259,-0.02299603,0.07469223,-0.01692453,0.00810501,0.08222295,0.04775537,0.05434938,-0.00808915,-0.04775548,0.00871733,-0.00352719,0.06176890,0.00471210,0.00159963,-0.00874260,-0.03864790,-0.00448273,-0.02362872,0.03535407,-0.02256422,-0.02370722,0.02430886,-0.00240528,0.03116966,0.01067698,0.00674357,-0.03874703,0.02093330,0.08022568,-0.01857074,0.01036480,-0.08750276,0.02645693,-0.00278572,-0.00750943,0.03327690,0.00930570,0.01406213,-0.02393468,-0.02031995,0.04067998,-0.00060483,-0.00976582,0.04649452,-0.01771720,-0.05056180,-0.02400846,0.00411602,-0.02976737,0.00538959,-0.01222125,0.00399164,-0.00860220,-0.02914303,0.00216459,-0.03805335,-0.00281635,0.01145291,0.02348900,0.03951911,0.01113824,0.02430617,0.01114599,0.01550602,0.01324000,0.00258203,-0.01116903,0.02743639,0.04401624,0.01068873,-0.02738887,0.01326752,0.01684924,0.01214131,0.00531697,0.03874429,-0.01132614,-0.02743677,0.01006996,0.02108443,-0.04533103,-0.01545175,-0.04646286,-0.01341170,0.01343319,0.02798555,-0.06500711,0.02566976,-0.02241186,0.03602229,-0.06530805,0.01917893,0.03108148,-0.03322579,-0.07797357,-0.01985247,0.03037966,-0.02733678,-0.04340582,-0.01022783
0.01784869,-0.03891445,0.00011218,-0.00880124,-0.03645452,0.05976643,0.09549052,-0.02503595,-0.02849103,0.05031995,-0.04223127,-0.06915062,-0.00991899,0.03135147,0.05481447,-0.00099593,0.05833392,-0.02119017,0.00202164,-0.00617274,-0.04063616,-0.02872314,-0.00615464,0.04031981,0.00270528,0.01960259,-0.07932089,0.02525902,-0.02781905,-0.04459877,0.01776869,-0.01281408,0.00399279,-0.02024653,0.04966940,-0.04674665,0.01360639,0.02577036,-0.02537101,-0.06583033,0.02133804,0.02469391,0.02377638,0.00111323,-0.03062023,-0.02861593,0.05157897,0.02656329,-0.04923270,-0.02832573,-0.03928369,0.01265353,0.04735157,-0.02111281,0.04216276,-0.02257978,0.05023663,0.02297918,0.04266751,-0.03413234,-0.00104376,0.00068829,-0.01256530,0.00199605,0.00774830,0.01922048,-0.00277324,-0.01660869,0.00736041,0.00868745,-0.01188041,-0.04987233,-0.01417945,-0.02385241,0.02420261,-0.02983348,-0.02623837,0.01095421,0.00375634,-0.04834248,0.00573234,-0.02157957,-0.00918410,0.02683861,0.04934008,-0.03711927,0.03477933,-0.07435240,0.01115515,-0.01617655,0.00030625,0.04411621,-0.01364323,0.01000910,0.03394024,0.01687334,0.02035036,0.00127738,0.00384065,0.00851754,-0.05921971,-0.03346971,0.02653368,-0.00681222,0.00636274,-0.00523283,0.04251131,-0.00363686,-0.00746821,-0.03090110,-0.04986328,-0.03863745,0.01899413,-0.00328095,0.01487126,0.00495768,-0.04078218,0.01099174,0.00224843,0.00678693,0.03545750,0.11603621,-0.01825848,0.06324055,-0.00866285,-0.01932271,0.00312203,0.01687030,-0.00109114,0.01618699,-0.00062454,0.00715188,-0.01079778,-0.00789402,-0.01882664,0.02165542,0.04808488,0.00460379,0.01501355,0.01374171,0.03174009,0.02038076,-0.03430608,-0.00572143,-0.09512904,-0.01804979,0.04772999,0.03843072,-0.02964395,-0.01328546,0.01538949,-0.04095985,-0.00918159,0.00124359,-0.01279941,-0.01163009,0.02051236,0.00613345,-0.00955707,-0.01613414,0.01069290,-0.02398300,-0.03752110,-0.02663990,-0.05395071,0.00762510,0.00587584,-0.03640034,0.01093184,0.01410965,-0.02048568,0.02093617,-0.03529411,0.04487136,0.04617380,0.02229647,0.00049060,-0.00763280,-0.00391759,-0.00424630,0.05892816,0.02652734,-0.03922815,0.01163246,-0.03619418,-0.00397612,-0.04477028,0.03680515,0.00768677,0.04481237,-0.00992466,0.02375690,-0.02668610,0.00767651,-0.03757593,-0.05198163,-0.01662690,0.01646118,0.02655690,0.03605923,-0.02482054,0.00743622,0.01314517,0.02053562,0.01212607,-0.01492912,-0.03749081,0.00117276,-0.02586047,-0.04427116,-0.00985966,-0.00145713,-0.06786110,-0.03960809,-0.04030143,0.03170153,-0.03602916,-0.03738044,-0.04408021,-0.03712210,-0.00830850,-0.03401537,-0.02891279,-0.01090467,-0.02385813,-0.08261785,-0.01117021,-0.00079405,0.04652507,0.03483506,0.04804864,-0.03849726,-0.03352825,0.03479631,-0.01353542,-0.00019005,0.02526535,0.00027097,0.00418705,0.03130354,-0.00704581,0.04694417,-0.03080410,-0.02226697,0.00636501,0.01134051,0.03200287,0.00275656,0.02245224,-0.03710282,-0.08263586,0.01684188,0.00769275,0.03322722,-0.01444094,0.00642268,0.01472578,0.02252495,0.04489284,-0.03803779,-0.02046775,0.03462895,0.00723949,0.03593565,-0.08692674,0.00172528,-0.03406458,0.05487648,0.06584978,-0.02873983,-0.00389499,0.01211382,-0.00818172,0.03457820,-0.00635114,-0.00080282,0.02689553,-0.01673848,0.00409975,-0.04551840,0.06275827,-0.02965035,0.06063450,-0.02769541,-0.01910173,-0.01919807,-0.02816827,-0.00381241,0.06871711,0.01040210,0.00447439,-0.00482364,-0.03115431,0.01383180,-0.02464041,0.00340575,-0.02612773,0.02348001,0.00547990,0.01776581,0.01452580,-0.01174130,-0.01345211,-0.01356804,-0.02554164,0.06953226,0.03393824,-0.00034120,-0.00241751,-0.00965159,0.01115683,0.00480528,0.02277773,-0.02903870,-0.02881809,-0.00642360,-0.04616554,-0.00945691,0.01934963,0.00627686,0.00866034,0.04285911,0.03853072,-0.00103642,-0.04312367,0.05315488,0.00520206,0.05997650,-0.01890753,-0.05473544,-0.06068964,0.06532135,0.01472684,-0.02309437,0.01667726,-0.02940201,-0.03068466,0.02698258,-0.02898781,-0.09694082,-0.02914810,-0.01929821,0.02124945,-0.03118930,0.03592882,-0.06112541,-0.06982905,0.03157583,-0.01704877,0.00564606,0.00633944,-0.03419559,0.03955687,-0.00169257,-0.02888633,-0.01682584,-0.04590034,0.02767001,0.01670964,-0.00106293,-0.03730133,-0.04198806,-0.00527812,0.06535284,0.00059888,-0.01138544,-0.02320940,0.03862876,0.00771713,-0.00579061,-0.02107933,-0.01104814,0.03381671,0.00227108,-0.01140197,0.02458062,0.04375848,0.04218008,-0.01793816,0.00848279,0.01699315,0.05676781,0.03450971,0.00203448,0.03013282,0.00630718,0.00598679,-0.04450424,0.03753790,-0.03502053,-0.03402923,-0.02405358,0.01967003,0.00183914,0.02698069,0.05902369,-0.02794884,-0.02807898,-0.03963361,-0.01765259,0.03600477,-0.01355369,0.01934906,-0.07249835,0.01741801,-0.02072047,-0.01555570,-0.02887897,-0.00044708,-0.05235342,0.03228191,0.01025847,0.05394667,-0.01100049,0.02184282,-0.03897977,-0.03509191,0.00853571,-0.01128033,-0.02446938,0.01684031,-0.02364979,-0.02158400,0.01032585,0.05741682,-0.02292737,0.05038377,0.00365837,0.04203944,0.05238248,-0.01084405,-0.01092582,0.02183279,0.05196274,0.01031936,0.00132636,-0.00123141,-0.04176470,-0.06567150,-0.01092843,0.05125323,-0.02291580,-0.03054259,0.01497493,0.06109197,0.00235045,-0.01555741,-0.03435404,0.04186639,-0.04300910,-0.02745707,-0.03379646,0.05081866,0.04468010,0.01806948,-0.02960136,-0.00006153,-0.09859987,-0.04101921,-0.00913000,0.03265444,-0.00825615,0.01144723,0.01829082,0.04893059,-0.04620416,0.01405850,0.05557413,-0.03566122,-0.01665986,0.00633367,0.01842940,-0.02731405,0.03395773,-0.01424597,-0.00899515,0.06434511,-0.03344231,0.01466010,-0.04581323,-0.01901975,-0.03772773,0.01040145,0.02871829,0.03185397,0.00684830,-0.01452598,-0.02116736,-0.05414138,-0.00502286,0.02574204,0.01059750,-0.08372599,0.07337506,-0.02057746,-0.03230534,0.01315962,0.03259986,0.04857453,0.00937808,0.06083493,-0.04131338,0.02835850,-0.02096937,0.04164440,-0.01000183,0.00304249,-0.00853470,-0.01361610,-0.00935864,0.05534130,0.06813604,-0.00918050,0.02120529,0.01169337,-0.03553439,0.03170025,0.05392791,0.04083738,-0.02033711,0.01322183,-0.04703004,-0.00553426,-0.01998517,-0.08102086,-0.02212830,0.06726882,0.00405513,0.02840294,0.01412683,0.08114983,-0.02473777,0.03157508,-0.01659653,-0.04712786,0.03160612,0.00923906,0.01274512,-0.00046108,-0.00077927,-0.06420776,0.10716204,-0.07317182,0.04117791,-0.02006686,-0.01321077,0.00208772,-0.00802368,-0.03767430,-0.05055518,0.01507248,0.05555952,0.03155251,0.03778088,-0.00431071,-0.01343336,0.04885231,-0.05095376,-0.02846671,-0.04160232,0.00260229,-0.03664961,0.05221868,-0.04946633,-0.00396628,-0.02293488,-0.01491351,-0.04032072,-0.06337112,0.06207899,-0.00761677,0.00619923,-0.05784019,0.08491494,-0.01131937,-0.05767027,-0.00701247,0.01452041,-0.01335958,-0.02946008,0.08223749,-0.04149122,0.00759240,-0.03594705,0.01092885,0.01630010,-0.07586098,0.04981370,-0.00690837,-0.04237538,-0.02107048,0.00369491,-0.00181312,0.05115518,-0.02005610,0.05251779,0.00276852,0.01773561,-0.04374660,-0.01608993,0.00998633,0.03441464,0.02501230,0.05068766,-0.00819722,-0.01734834,-0.02982967,-0.01508484,0.05744917,0.01024370,0.02354432,0.08860566,0.04488529,-0.02106169,-0.02041457,-0.00348877,-0.07926069,-0.02496036,-0.01300961,-0.01211921,-0.04365285,0.07279754,0.02634151,0.00253997,-0.01846209,-0.01575042,-0.00694467,0.02088200,-0.01962502,0.01462027,-0.00482569,-0.03019757,0.03462890,-0.02119846,0.01594082,-0.03266108,0.03139358,-0.01635510,0.02586729,-0.01406652,-0.00054217,-0.00375143,0.06823783,0.00502892,0.07900870,-0.02511017,0.05830736,-0.00913699,-0.03256074,-0.01501796,0.05277355,-0.03573132,0.05625473,0.09005661,0.10222463,0.01285674,-0.00317782,-0.02961965,-0.01766065,-0.01104914,0.04117952,-0.00600580,-0.01209617,0.04379595,-0.05853049,0.06709997,0.02601250,-0.04042248,0.05254374,0.00767038,0.04262834,-0.02695360,0.01157343,-0.00963095,0.07346384,0.02831516,-0.05264197,0.02978392,0.00496838,-0.02770242,-0.05618901,0.05452807,-0.01064679,0.01789308,-0.04499868,-0.00080591,0.02263388,-0.00763343,0.01621942,-0.02510946,0.03795817,-0.05697508,-0.01526298,-0.01867962,0.02091075,0.02107410,0.02088159,0.03648671,0.02757831,-0.00115813,0.02375179,-0.00276835,0.02819378,-0.00004537,-0.00673110,0.02569174,0.00333825,-0.02460070,-0.01651577,0.00786022,-0.03038406,0.02374781,-0.00399586,0.00238084,-0.02488123,-0.02570792,-0.00788465,-0.04429278,0.04857424,-0.00406419,0.00241014,0.01688884,0.02863213,-0.04868954,-0.05794704,-0.01649022,-0.01992537,0.01190319,0.02704768,-0.02314821,-0.00988675,0.01155149,-0.02525175,-0.00745453,0.07736902,-0.00596356,0.01271496,0.03688248,0.00813780,-0.06318408,-0.00986777,-0.07479624,-0.03613859,-0.01640598,0.10278619,0.04269142,-0.00598835,0.07858258,0.01003595,-0.00508723,0.01336932,0.01328787,-0.00395843,0.02214781,-0.02224606,0.00004864,0.10745549,0.04538088,0.04665514,-0.00868901,-0.02597420,0.02098773,-0.00711522,0.01812534,0.05289043,0.00995072,-0.04524646,-0.02446121
0.00677073,-0.06338879,-0.00290991,-0.01839913,0.02215549,-0.00518539,0.02531403,0.01205296,0.03952364,-0.01566710,0.00349998,-0.02147717,-0.00324740,-0.01472302,0.03137152,-0.00393341,-0.01522284,-0.00977095,0.03590022,-0.00257436,-0.00665353,-0.03818012,-0.01374003,-0.03725199,-0.03986900,-0.00942508,-0.03824270,-0.05181167,-0.00098373,0.00164393,-0.00451177,-0.01829440,0.02529787,0.00482519,-0.02537494,-0.00448889,-0.00460939,-0.01056340,0.03533459,0.01396991,0.02718303,0.02696349,-0.03273145,0.00686097,-0.02626446,0.00805444,0.02002302,0.03349031,-0.02478586,-0.01945606,0.05239139,-0.01417229,-0.00666576,-0.03239689,-0.02472401,0.03304936,-0.02781617,0.01354189,-0.01024027,0.02171856,0.05453478,-0.01770371,0.01370293,0.02721121,-0.00745139,-0.01843186,-0.00500241,0.01132639,-0.00327770,-0.01710376,-0.02047735,0.00032526,0.03053585,0.02891586,-0.01470107,0.00848564,-0.01136845,-0.04910682,-0.03966015,0.01146687,-0.00752482,-0.00926372,-0.02325791,0.01078136,0.02921223,-0.02598666,0.03074875,0.01908596,-0.00571133,-0.00612867,0.01366206,0.01312635,-0.06374230,-0.02516832,-0.02413347,0.02070384,0.00838458,0.02900470,-0.01458646,-0.01649345,0.00014627,-0.04428105,0.01614877,-0.01153525,0.01397140,-0.11136375,0.01173268,-0.04121539,-0.03155723,0.02611419,0.02407118,-0.00121959,-0.02045775,0.02445195,0.00311660,-0.00785561,-0.01556084,0.01159655,0.00790522,0.00488195,-0.03413825,-0.42807457,-0.03354401,-0.01012539,-0.08236507,-0.00266199,0.03189619,-0.00245342,0.01045796,-0.00853345,-0.02649383,-0.00387653,-0.03435862,0.00546865,0.03444044,0.03068414,-0.01081673,-0.00260602,0.00913913,-0.00506891,0.00879909,0.00390509,0.03542396,0.02101643,0.02886943,0.06388949,0.02159908,-0.00661361,-0.02247231,-0.00380543,-0.00909316,-0.00667807,-0.01300014,-0.00879498,0.02678308,0.00467819,-0.02083617,-0.02088593,0.01770959,-0.38378590,0.00679621,-0.03918603,-0.02843545,0.01856648,0.00577815,0.01180392,0.01863235,-0.03201356,-0.00285033,0.01314400,-0.03072568,0.00953685,0.00311315,0.00801683,-0.00376194,0.19232379,0.00404970,0.00527220,-0.00501350,0.06304540,-0.01061174,-0.00855626,-0.00821522,0.01239010,0.03630025,-0.00974973,0.01259726,0.01328828,0.00167583,0.00725787,-0.03929112,-0.03489769,0.02292811,0.01582804,-0.03413417,0.01484500,0.02269587,-0.04008536,0.02703743,0.01282003,-0.00651789,-0.00873601,-0.12440919,-0.00911540,-0.00499337,0.01314306,0.04276599,0.00013684,-0.00122662,-0.02373482,-0.01466230,0.01326165,-0.01061572,0.01301675,0.00964440,-0.14037135,0.34055802,-0.04035343,0.01271267,-0.02103722,0.00592112,-0.01502627,0.03104030,0.01561238,0.03768573,-0.04072356,0.01297820,-0.00383295,0.02471199,-0.02409452,-0.03936039,-0.00789440,-0.00209931,0.02134041,-0.00447453,-0.03112675,0.02269686,0.04246036,0.00651012,-0.04224596,-0.02921832,0.00798569,-0.01895215,0.01351755,-0.01949149,0.00150889,0.02384516,0.05959844,0.03437242,0.02395732,0.01611843,-0.02983413,0.00492815,-0.02963188,0.00282910,0.00297115,-0.00171993,0.00408829,0.03973207,-0.01508601,0.01804635,-0.00589809,-0.00827579,0.01675927,0.00688940,0.00511786,-0.00892514,-0.02928501,-0.00343619,0.01765883,0.00360733,0.00741433,-0.02851137,0.00528631,0.00865484,-0.04082676,0.01978225,0.00125285,-0.02187056,-0.03042964,0.01198235,-0.02751558,-0.03236473,0.04518226,-0.00953234,-0.02820708,0.00945523,0.03458987,-0.00383884,-0.00195311,0.00616860,0.00789232,0.02805416,-0.00490434,-0.02621298,-0.02037205,0.04865826,0.01319588,-0.00985592,-0.00146520,-0.04962074,0.02024867,-0.03862331,-0.00196150,-0.05703872,0.02855648,-0.01138648,0.01401600,0.01767460,0.00446988,0.00819412,0.04898509,0.00511039,-0.01130780,-0.00716872,-0.04272730,0.04277755,0.00630992,0.00328321,0.00635247,-0.03815763,-0.03183549,-0.01182242,0.04995125,0.01544578,-0.01882641,0.01120207,-0.01805950,-0.01928690,0.02328875,-0.00002953,0.02290373,0.02132330,-0.03141924,-0.04087507,-0.00102186,-0.00672850,-0.00978201,-0.00071607,0.03893085,-0.03509254,-0.08932143,0.03752878,-0.01021200,-0.05884881,0.05094096,-0.01018481,0.00379579,-0.00046578,-0.03428683,-0.00610984,0.01564729,-0.04217803,-0.15788135,-0.01337346,0.01002578,0.00748386,-0.00835003,0.04348556,0.01259504,-0.02470474,0.02091347,0.02756447,0.00766603,-0.01634020,-0.02580224,-0.02344182,0.01730645,-0.01178160,0.02788775,-0.04253798,-0.03524056,-0.01361712,-0.00725670,0.00828963,-0.01616354,0.01481838,0.04001778,0.00680925,-0.02592778,-0.00809829,-0.00203514,0.01724644,-0.02452756,-0.00494864,-0.01847196,0.00811820,0.00591932,-0.00375508,-0.01648877,0.04464902,0.02214300,0.01277636,0.00503179,0.00030798,-0.00693238,0.03294094,0.00667697,-0.01762532,-0.01419641,0.01202089,-0.00902394,-0.00779254,-0.01767053,-0.02070020,-0.03279034,0.02765353,-0.01275828,0.00752846,0.00880646,-0.00916862,-0.01841488,0.00801754,0.02801918,-0.01904985,-0.00604743,0.00031819,-0.02833198,-0.00614165,-0.14988245,0.00760233,-0.04259902,0.02666788,0.01608432,-0.00133345,0.03206221,-0.00448399,0.02849555,0.01452155,-0.01374398,-0.01132337,0.02232509,0.00476945,-0.01064511,0.00183406,-0.02756913,-0.01026549,-0.00513027,0.01035083,0.00779455,-0.00290709,0.01681764,0.04257543,-0.01390194,-0.05228093,-0.07190262,0.01974535,0.02024622,0.02823304,-0.02229828,-0.01764932,0.01743032,-0.00093259,0.01044801,0.02528012,0.01782847,-0.00124321,0.00224135,-0.01430265,-0.00154561,0.01299227,0.06028015,0.02237502,-0.02642071,0.02557347,-0.01507262,-0.03091745,0.02813162,-0.03691453,-0.03009177,-0.03195537,0.00471895,-0.01108176,0.01466481,0.02666359,0.01904406,0.00820855,0.00182585,0.01232487,-0.00249760,0.01656644,0.03807390,-0.00772318,0.01967032,0.00591654,-0.03521504,-0.01802752,-0.01049222,-0.00911353,-0.01489794,0.00895387,0.00752366,-0.00862233,-0.01157452,-0.06626561,-0.02233205,-0.05081101,0.00596470,0.00220768,0.02158381,0.03193440,-0.00595201,-0.00556610,0.01062579,0.04238061,-0.00623315,0.03288076,-0.03245167,0.00224138,0.00141901,-0.10458669,-0.02700230,0.01528489,0.00343858,-0.01785027,-0.00875112,-0.01802927,-0.18220361,0.04682396,0.00840371,0.00412574,-0.08076078,0.01140924,-0.00236954,-0.00642496,-0.01900755,-0.03994712,0.01909940,-0.00115450,0.38933098,-0.00598232,0.05225047,-0.01103060,-0.00481465,0.02693968,-0.01166193,-0.03435888,0.01008463,-0.04587799,0.07314334,0.02489278,0.24649648,-0.05510811,0.00722466,-0.01245299,0.02783172,0.02074525,-0.02913487,0.00359232,-0.03573612,0.00424028,0.00886847,-0.05489418,-0.00444107,-0.01918564,-0.01741707,-0.03599771,0.05066136,0.06686291,-0.02603125,0.01601335,0.00187902,0.00640723,-0.01196327,0.02788479,-0.01774289,-0.01714192,-0.01609267,-0.04303947,-0.00705325,0.04090406,0.03160518,-0.00576750,-0.00385273,0.00862015,0.02160987,0.00134411,0.15003021,-0.00778566,-0.00082885,-0.04743568,0.01942105,-0.01405962,-0.02247798,0.05138606,0.01213555,0.00263078,-0.01840554,-0.00331347,-0.02730169,-0.01316755,0.01689407,0.05430277,0.01996837,0.01460100,-0.02881064,0.01124355,0.02042937,0.02400160,0.00905127,0.02494137,-0.03247157,0.00321388,0.01028917,-0.05366667,0.01811157,0.00493992,0.02633703,0.03087011,0.04240526,-0.03673651,-0.02389527,-0.01225228,0.01924863,0.08225150,-0.03532400,-0.01501759,0.02183272,-0.00363564,0.00020036,-0.05465213,-0.01955662,-0.03469348,0.01625192,0.01605285,-0.00318117,0.00945690,-0.03068792,0.01583869,0.00036766,-0.01871149,-0.02800814,-0.02101035,0.01647557,0.01305047,0.01016951,0.04712909,-0.03185406,-0.01250623,-0.04438142,-0.00750455,0.01861585,-0.01441182,0.02830931,-0.03363129,0.00770019,-0.01167106,-0.00690493,-0.02912709,-0.00358827,0.03546286,0.02326560,0.02763556,-0.00242732,-0.37327689,-0.00174473,0.03055207,0.00413269,0.01020410,0.00079435,-0.00616894,-0.04616277,-0.01679249,-0.00059464,0.01806471,-0.01160423,-0.02467023,-0.02830989,-0.00839247,-0.02857245,0.05802268,0.01294728,-0.02787279,0.00398369,0.02353876,-0.00921291,-0.01162032,-0.00144214,0.00297783,0.03200371,0.01905106,0.01440281,0.02948220,0.01495930,-0.02739083,-0.01682099,-0.02538858,0.01710381,0.02134758,-0.00497800,-0.00036526,-0.00335890,-0.01921500,-0.01573335,-0.05373741,0.04029904,-0.02434116,0.00315784,0.00288407,0.01071918,-0.00352296,0.00042587,-0.02575492,0.01457134,-0.00573388,-0.00760143,-0.03049390,0.00134612,0.00567290,-0.00651853,-0.04678644,0.04025461,0.04676911,0.00550708,0.05301619,0.02905326,-0.06174458,0.00262578,0.03635961,-0.00337284,0.01393303,-0.03558496,-0.01293339,-0.01197672,-0.01987239,-0.01868403,0.01542897,0.05071175,0.01579878,0.06598480,0.00772695,-0.01870591,-0.00673661,0.10458546,-0.03570259,0.00769605,0.01829267,0.02466661,0.00090810,-0.01514533,-0.01358381,-0.02400955,-0.00062361,-0.00694302,0.00139300,-0.02379667,-0.00763558,0.00183235,-0.02789091,0.00100887,0.01822507,0.01355630,0.03503139,-0.02782830,0.00097215,0.04832529,0.00915089,-0.03538495,0.00164022,-0.01929995,0.00662891,-0.00107729,0.01970118,-0.03789087,0.00268844,-0.04538321,-0.00558687,0.00464238
0.01203988,0.03489134,-0.02819315,0.00579344,0.00478800,-0.03067585,-0.00506252,-0.07135315,0.02101007,-0.02621139,0.04441136,-0.02085504,-0.00978815,0.01978544,0.02320746,0.03692275,0.00601284,0.01910620,-0.01455947,-0.01985321,-0.01358083,-0.04391111,0.01046225,0.00312293,0.03956971,0.04531521,0.00927044,0.03374381,-0.00949572,-0.03661330,0.00563346,-0.00715012,0.02482366,-0.01395927,0.03407585,-0.00791806,0.00157773,0.01185508,0.00900529,-0.02282565,0.01421123,-0.05309301,-0.03222188,0.04965185,0.01169503,0.00408438,-0.05359652,-0.03685666,0.06645150,0.04801202,0.05219000,-0.00854094,-0.01216955,0.01182496,-0.06144045,-0.01049156,-0.00765694,-0.05205768,0.04859426,0.00358605,0.02311895,0.01531954,0.05249299,-0.05505384,-0.01481021,-0.06897585,0.04613697,0.02304924,-0.08388268,0.01833190,0.03832021,-0.02119767,0.02213455,0.02045259,-0.00570951,-0.01051821,0.00386746,-0.01377135,-0.04111089,0.02030090,-0.01747125,0.05293211,-0.05882766,0.01665667,-0.01707049,0.03972457,-0.05729418,-0.03729580,0.02970776,-0.04847063,0.01502746,0.02351116,0.06747960,0.01903817,-0.01529532,0.04652401,0.01905632,-0.00839653,0.02971592,0.01576985,0.00003057,-0.00175923,-0.00468881,0.01972534,-0.00944310,-0.01781845,-0.01811850,-0.00862190,-0.00659727,-0.01741024,0.03011386,-0.00703125,0.01163881,-0.06086147,-0.05396067,0.00477752,0.01335096,-0.01327372,0.01101853,0.00187211,-0.02852129,-0.06865026,0.02676764,-0.02322809,-0.01411431,0.05270147,0.01935589,0.03420275,0.02182218,-0.02575898,-0.07073976,-0.00475764,0.01290814,-0.08610114,-0.00527758,-0.03946467,-0.00343288,-0.02609702,0.00103388,0.05651612,0.00045020,-0.00783114,-0.01322994,-0.00318847,-0.01218141,0.01465615,-0.05118763,0.04358621,-0.01487215,0.02142738,-0.00270599,-0.00303387,-0.01385892,-0.00644762,0.00478802,-0.03329404,-0.03367749,0.03784101,0.00181612,-0.16850269,0.00424409,0.02080806,0.02831195,-0.02511769,-0.00230949,-0.01614028,0.02056788,0.04638533,0.01411665,-0.03490952,-0.00137729,0.02394344,0.05215138,-0.05981664,-0.00639893,0.06749856,0.01912196,-0.02284425,0.01417064,-0.02707454,-0.03390696,0.00643276,-0.00512827,-0.00944791,-0.02018747,-0.00518203,0.02761383,-0.00615871,0.01300584,-0.02963900,0.00693554,0.02055918,0.00164496,-0.02526261,-0.06370526,0.06041466,-0.04358852,0.02552332,-0.02386433,-0.03128048,-0.01640511,-0.04718047,-0.00773462,-0.01986022,0.02050631,0.00635679,-0.01118281,0.02174496,0.01739740,-0.10248061,0.02817737,0.03163531,0.02048889,-0.02369299,0.00993203,-0.03487939,0.11917839,0.04938524,0.06677023,0.00422405,-0.05962804,-0.02570458,-0.00895401,-0.03009442,-0.04451571,-0.03950016,0.01804144,-0.01484200,-0.01838055,-0.01881092,0.00942006,0.00070782,0.06021314,-0.00773844,-0.03119005,-0.02693560,-0.03270394,-0.00624304,0.02978688,0.00581668,-0.01388879,0.00893322,-0.02937476,-0.03889207,0.06983917,0.03669737,-0.04338519,-0.02145576,0.02785782,0.04373039,-0.00441199,0.01870064,-0.02622166,-0.04696682,-0.08311354,0.03377422,0.00568572,0.01133942,-0.03018696,-0.04908894,-0.00360235,-0.04214422,0.07259712,-0.04880460,-0.00124825,0.04080234,0.00503650,-0.03679155,-0.02270809,-0.04378111,-0.03744739,0.04168925,-0.00388582,-0.03748444,-0.00883682,-0.01227591,-0.01425618,0.02341198,0.01753986,0.00750288,-0.03322049,0.01612079,0.03708668,0.03048417,0.00849842,0.04683179,0.01407030,-0.00027627,-0.03343008,-0.06741385,-0.00811342,0.01692482,0.08809005,-0.09844387,0.03422897,0.00866463,0.01797709,0.04146149,-0.06978696,-0.03541470,0.02166889,0.03371932,0.07412282,-0.03318864,-0.01457104,0.01951746,-0.00133621,-0.05522813,0.00213995,0.02056856,0.02807268,0.01048005,0.03979281,0.02638085,0.01204134,-0.00292872,-0.00475028,-0.01581340,0.04683947,0.00380234,0.05818470,-0.00902882,-0.01606535,-0.02967198,-0.03697413,0.00564655,0.02733810,0.03831651,-0.03328344,0.01122453,-0.02706434,0.02459155,-0.06594136,0.01496100,-0.02557247,-0.00927391,-0.00400412,0.04382545,0.01780123,-0.04199230,-0.02500275,0.00340457,-0.06154402,-0.03062248,0.08281942,0.02032557,0.06289916,0.00289158,-0.01527882,-0.03233136,-0.02922546,-0.02339871,-0.02376822,0.00125409,-0.01181677,-0.03155731,-0.05356387,-0.03716349,-0.00350745,-0.05058432,0.05131622,-0.07812698,-0.05150582,-0.04522625,-0.00949072,-0.02860076,0.02478038,0.00609003,-0.00968316,-0.03577372,0.00535644,-0.01394260,0.00682658,-0.02710904,-0.01248970,0.00010089,-0.01710126,0.00309402,-0.06470631,0.01726711,0.02081037,0.05615452,0.07145550,-0.00288099,-0.01126426,-0.01755742,0.01879832,0.04867030,-0.01825954,0.02583397,-0.02239367,0.04333865,0.02768936,-0.00163974,-0.02890827,-0.04339319,-0.01080266,-0.04784739,-0.00842912,-0.00975292,-0.00523751,-0.07382626,0.04092278,-0.01267543,0.00201728,-0.03110688,0.03877130,-0.03771596,-0.04447674,-0.03864259,0.01152851,-0.01035018,0.04042620,-0.04434152,0.03853869,0.02203401,-0.00765464,-0.02098630,0.06645700,-0.03757924,-0.03161196,-0.02161385,0.01850387,0.01957668,-0.00484959,-0.00312485,-0.02444213,-0.00908692,-0.00026602,0.04906309,-0.04737577,-0.04129822,-0.01813075,-0.02976142,0.02024590,-0.00014233,-0.04238034,0.00793423,-0.05319547,0.04242469,-0.03437593,-0.05009104,-0.03967278,0.01942155,-0.06134188,-0.03055052,-0.06925923,-0.03673174,-0.03588197,-0.00119832,-0.01281054,-0.00400875,-0.00041359,-0.03835895,-0.01721465,0.03852140,0.00726730,-0.00807470,0.00693250,-0.01775223,0.01202364,0.00381247,0.03779098,0.03673901,0.00679533,-0.06610393,0.04407832,0.01055122,0.03734924,-0.01705277,0.05427942,-0.00463979,-0.00505550,0.01342582,0.07219023,0.01591944,-0.00719305,0.02216358,0.00903731,0.04449155,-0.04798990,0.02306500,0.01567348,-0.04053053,-0.00012508,0.04164968,0.03486433,0.01292235,-0.00106509,0.03086918,0.00923034,0.00510123,0.00486244,-0.02010503,0.00250532,-0.01872760,-0.04562727,0.00743984,0.02428078,0.01819828,-0.02378688,0.03006996,-0.00257583,0.01175781,-0.04771073,0.01307414,-0.04015606,0.03567672,-0.07721618,-0.02256264,-0.01011060,-0.01784268,0.03074556,-0.04731740,0.01116621,-0.01883269,-0.01774558,-0.01357230,-0.03186447,0.01011709,-0.01445407,0.07699202,-0.01438213,0.00101751,-0.01671263,-0.04045137,-0.04454023,0.02420948,-0.03805342,0.18109174,-0.02023228,0.05087573,-0.00772050,-0.00622653,0.02005036,0.00285531,0.04878081,0.03855988,0.02526842,-0.00538080,-0.03467399,0.09705899,0.04653337,0.00476532,-0.05708487,0.02387235,-0.00512618,-0.01703537,0.00039284,-0.00111892,0.01478684,-0.00363062,-0.06337193,0.00581665,-0.04810049,-0.02421251,-0.02331872,0.04586188,0.04231808,-0.06477450,-0.04154999,0.09680980,0.03985825,0.11544611,0.01180176,0.00873137,-0.03735437,0.00626513,-0.01126969,-0.00357903,0.02514463,-0.01608724,-0.03324261,-0.04837784,-0.05391089,0.05896409,-0.01555017,0.05377471,0.01155417,-0.01648469,-0.00900891,0.02066002,0.04154265,-0.03103765,0.02568123,0.01529381,-0.00731905,0.01283843,-0.00545370,0.00124397,0.05611087,0.02827954,0.03427596,-0.02655151,-0.03089021,0.02053991,0.05102812,-0.03239289,-0.07324056,0.02580782,-0.01248417,0.01351102,0.00078486,0.00347427,-0.02677727,-0.01177076,-0.06417551,0.02673651,0.01311620,0.00874951,-0.06907496,-0.03233870,0.01842395,0.02657488,0.00241319,-0.02286749,-0.00651588,-0.02409328,-0.03578861,0.04524182,0.04683432,-0.01566914,0.03134689,0.06784558,-0.07808928,0.03963814,0.02667695,0.03315798,-0.01393381,-0.01292734,-0.00156625,0.00813614,-0.00123767,0.01296500,-0.01560369,0.01114108,-0.02551157,-0.01737856,0.01134061,0.00272610,0.02979132,0.02672944,-0.00396730,-0.08375460,-0.04890788,0.02314888,-0.00817828,0.01292660,-0.01537850,-0.02346233,-0.00200989,0.05882848,-0.06126438,0.00551484,-0.06298469,-0.05024236,-0.01928448,-0.01692847,0.00346970,0.00261366,-0.02018281,-0.01073133,-0.05231101,-0.07359238,0.02647562,-0.03116823,0.02582807,0.02051331,-0.01508161,0.03255935,0.02573972,0.04589814,-0.08652344,-0.00364410,-0.01710343,0.03107536,0.06654553,0.00318957,0.02431972,0.07223316,-0.01413424,-0.01791346,-0.05673364,-0.00508860,0.02673119,0.03251982,0.07987454,-0.05102076,0.01101424,-0.03790334,0.02639423,0.04305101,-0.03449642,-0.02730055,0.06700706,-0.00860666,-0.01147835,-0.04528214,0.07381279,0.01347204,0.00945935,-0.04206316,-0.03529028,-0.07227137,0.03470329,0.01556202,-0.03625460,0.00442336,-0.00695701,-0.02429368,-0.02380700,0.03090790,0.07800252,-0.04973491,-0.02896965,-0.00772498,0.02342506,-0.02106265,-0.00162035,-0.03716469,-0.01329716,0.00087862,-0.00833815,-0.00793343,-0.00797076,-0.00508155,0.00170061,-0.00318421,-0.07768217,-0.01478452,-0.07592376,-0.00234112,0.02784465,0.02002969,0.02137576,-0.03102523,-0.01682944,0.03947173,-0.01994227,-0.00789705,-0.00940977,-0.06738544,-0.01415921,-0.04095394,0.00077461,-0.01493605,-0.01901351,-0.00243039,0.00793377,0.01542510,0.00544179,0.01289663,-0.08593086,-0.03633514,0.04274700,-0.02624169,0.02673319,0.01086874,-0.01821682,0.01621000,-0.03646284,0.00729128,-0.00992126,-0.00418447,0.03167019,0.01697742,-0.03518233,0.00086947
-0.02667921,-0.00755870,0.03120656,-0.00154089,-0.02733979,0.01944475,-0.04728993,0.06387949,-0.01107690,-0.00061055,0.00836733,-0.01513523,-0.01384500,0.02872953,-0.02534170,0.02574033,-0.05553850,-0.02975711,0.04962057,0.01288023,-0.02113605,0.03286248,-0.04272986,-0.00258343,-0.03839161,0.00051663,-0.03869243,-0.04264950,-0.02389376,0.04093039,0.03436349,0.01772198,-0.04230822,0.06134309,0.05538863,-0.05309091,0.01174998,-0.00904445,-0.03366331,0.00388190,0.06628338,-0.02111121,0.03037927,0.01987188,-0.00320410,-0.00967997,0.02589278,-0.04619632,-0.03391697,0.00974573,0.05211790,-0.02404463,-0.04785341,-0.00907761,0.00284555,-0.00226053,-0.07990146,0.11163195,0.01072617,0.02530472,-0.01649839,0.05927787,0.01911335,-0.00618118,0.07102553,0.00401379,0.02637905,-0.03312176,-0.05412811,-0.00934758,-0.05137353,0.02831010,0.01491291,0.02348081,0.00271318,0.03443154,-0.01760300,-0.02608968,0.00490059,0.01562965,-0.00246122,0.03150845,-0.04055386,-0.01385040,-0.00199816,-0.02920514,0.03962570,0.02520785,-0.03366743,-0.03486311,0.03237359,-0.05839305,0.01226372,0.02913343,-0.01698417,-0.00549870,-0.02081117,0.01542726,-0.01706770,-0.01983409,0.02870848,0.01255115,0.05783653,0.06117765,0.02687080,-0.03079512,0.06341314,0.07257663,0.01209436,0.04820453,0.02110174,-0.04113973,-0.02467683,0.01747162,-0.00833390,0.02934089,0.01452073,-0.04629804,-0.00236845,-0.01813414,0.05504241,-0.04316316,0.03410249,0.06088303,0.03718445,-0.05532127,0.00224231,-0.04403699,0.00384333,-0.03255595,-0.04698429,-0.02878188,0.00459780,0.01488501,-0.01593892,0.00434189,0.03501974,0.02726230,0.02011713,0.02112849,-0.08010928,0.02991004,-0.00781466,-0.00962919,0.06327327,-0.02733714,0.04847938,0.00173130,-0.02225265,-0.00463601,0.00960776,-0.02337964,0.02292923,0.04142921,0.01602552,-0.05411544,-0.05678499,-0.02828262,-0.03794997,-0.01802344,0.00984588,-0.00506929,-0.03462944,-0.00123988,-0.01257259,-0.06830285,-0.01150052,0.03181462,0.01290061,0.01735301,0.02072525,0.04410603,-0.06563255,0.01743834,0.01801507,0.01458824,0.00530664,0.00817440,-0.01859627,-0.01442506,-0.02042392,-0.00895434,0.01821192,0.04736785,0.01728942,0.00306659,0.05437440,0.02095226,0.06452940,0.00667770,-0.04637043,0.03923106,-0.05413476,0.01136391,0.02020909,0.06106861,0.00113009,-0.02338619,-0.00592849,0.01953617,0.04071691,0.01100897,0.03014417,0.03202929,-0.02845883,-0.00207673,-0.04646565,0.01229482,0.00189115,-0.01508573,-0.03836405,0.02055558,-0.00824000,0.03331287,-0.00468386,0.05216549,-0.00810053,-0.02713957,-0.04067993,0.02210905,0.00797550,0.00723400,0.01070085,0.04046843,0.03967165,-0.01297962,-0.05568540,-0.00579732,-0.01929044,-0.04553429,-0.04358580,0.04418934,0.04770084,0.05510459,-0.00377272,-0.00672693,0.01901177,0.04850891,-0.02717806,0.00806764,0.03398393,-0.00653795,0.01442502,-0.00451396,0.04353846,0.01399001,-0.04207347,0.00797525,0.00556586,0.04001314,0.01099255,-0.03848900,0.03467452,-0.03678435,0.00346162,0.03145361,0.00880718,-0.00509485,0.01888056,-0.02563836,0.05462160,-0.01136215,-0.02343535,0.06175298,-0.01887362,0.02817329,-0.00095078,-0.01893039,-0.01804384,0.05067963,0.01323339,0.04012755,-0.03274008,0.01389837,-0.01598459,-0.00822409,0.02068779,-0.01573006,-0.01289048,0.03457487,-0.06961763,0.01917177,-0.00835464,-0.02066249,-0.04783943,0.00729177,-0.01349475,0.01939040,-0.03733933,-0.03649426,0.01211144,-0.00827457,-0.06981191,0.04841306,0.02000916,0.05227640,-0.00241778,0.02306004,0.01866312,-0.03937175,-0.06328820,0.01739209,-0.04958109,0.03502099,0.01123242,0.02770477,-0.02788925,0.02561589,0.00227365,-0.01543948,-0.01256407,0.00891285,0.06062707,0.01610173,0.05811062,0.00326181,-0.00498344,-0.01072132,-0.01405030,0.04889994,0.00558572,-0.00485812,-0.00465017,0.01906363,0.02495960,0.00399200,0.06213256,-0.06983464,-0.00604174,-0.00021633,0.04241750,0.03256401,-0.00093499,0.01514249,0.02786913,0.00109593,-0.00290188,-0.01111006,-0.02344338,0.01727890,-0.03378122,-0.04374018,0.00427946,-0.06372443,-0.00104680,-0.01598824,-0.05934311,-0.00298046,-0.02767253,-0.03146543,0.00571662,-0.06934762,-0.02518461,-0.00676645,-0.05971259,0.03385765,0.03189699,-0.02620482,-0.00281598,-0.02139467,0.00499899,0.05198764,0.01821860,-0.06942353,-0.08792517,-0.05023320,-0.04442486,0.00124331,-0.03487216,0.02161495,0.00704379,-0.05497564,-0.03718349,-0.09896326,-0.00441934,-0.04784684,-0.02554726,-0.02771370,-0.01090172,0.03144150,-0.05716227,-0.02640703,-0.01722243,0.00937325,0.01311499,0.02563806,0.01286216,-0.00949284,-0.00019656,0.02224933,-0.03217379,-0.01523760,-0.02122670,0.01712818,-0.01968383,-0.00244257,-0.00564926,-0.00090289,0.04891255,-0.00705693,0.00193834,0.05528574,-0.03188232,0.00080081,-0.00180777,0.06073743,-0.03400109,0.02361369,0.03510097,-0.02607865,-0.02268222,-0.03862580,-0.00810774,0.05087787,0.05180958,0.02642523,-0.03649666,-0.02519316,0.02012479,0.03749117,0.01569478,0.03553159,-0.04149510,0.00349748,-0.01759466,0.03077517,-0.01605024,0.08581619,0.03801404,0.01478699,0.02090253,-0.00950249,-0.02393412,0.00360588,-0.03644625,0.01992102,0.00823377,-0.04158606,0.09868398,0.01476955,0.03933054,0.05971732,-0.02455219,-0.01526323,0.00182339,-0.02354262,-0.01381575,0.04426671,0.04999771,0.05359830,0.02988988,-0.03071003,-0.06994181,-0.03235260,-0.03919902,-0.05737323,0.00582515,-0.00053477,0.05679649,0.03064439,-0.00701445,-0.00477178,0.04705507,0.02092406,-0.00393003,0.03928818,-0.00104813,-0.01970741,-0.07754164,0.02660558,0.02384251,0.00334051,0.00506905,0.07436128,0.01581962,0.00343858,0.00870686,0.02577633,0.00313950,0.04878142,0.00539453,-0.01488938,0.05618544,-0.02954899,-0.03667687,0.02838618,-0.01403552,-0.03996091,0.00822587,-0.00106339,0.00763361,-0.00038310,0.03409279,0.03357211,-0.02676490,-0.00379883,0.02159701,-0.00065134,-0.03200521,0.04343146,0.02504804,0.01283373,0.01461024,-0.01036273,0.03588565,0.01537385,0.01848979,0.00659902,-0.02028844,0.01102917,0.02177072,-0.02701283,-0.01939951,0.00953977,-0.00707672,0.01503488,-0.01714222,0.03147895,0.02420988,-0.00980068,0.00480019,-0.01140753,-0.03030688,-0.06706274,-0.00259254,-0.02163559,-0.02396280,-0.04150324,-0.02539025,-0.01277259,-0.01701910,0.02864715,-0.05960922,-0.01139633,0.01018758,-0.01732689,0.01004247,-0.01179096,-0.00309142,-0.00604831,-0.06302545,0.01206637,-0.01942188,0.02301846,-0.01297226,-0.05132092,0.01848388,-0.01202494,-0.03067731,-0.00031222,-0.05623978,0.03851828,-0.03313827,0.02641668,-0.04331803,-0.02212595,-0.00803746,-0.02054269,-0.04579582,-0.02456126,-0.05295077,-0.03053820,-0.02014768,-0.03431790,0.03378541,0.02169773,0.02623500,-0.04778865,-0.05358167,0.01010528,0.02780682,0.04675890,-0.05363514,-0.06147084,0.03239852,-0.04326175,0.00143779,0.00415240,0.05112494,0.01622981,0.01194983,-0.00801314,0.02467805,0.01122587,0.00878679,0.05519974,-0.07171527,0.00586470,0.02398553,-0.05171606,0.01743471,-0.01130695,0.00003844,-0.01169768,0.05068332,-0.03180924,-0.01468725,0.04513991,0.03785456,-0.07311261,0.00751094,-0.01647560,0.00319888,-0.01367401,-0.05874747,0.03909029,0.00649566,-0.01955333,-0.08636096,-0.00014180,0.09508732,0.05194856,-0.02089717,0.01552187,-0.01538559,-0.02068981,0.00809970,-0.04558315,-0.00296220,-0.03314513,0.02768247,-0.02357844,-0.04835242,-0.03181882,-0.06615847,-0.02191341,0.03256569,-0.00175885,0.02130719,-0.02891349,-0.01820146,0.01847322,0.01860560,0.01917851,-0.02043972,-0.01353125,0.03309136,0.01996029,-0.05124447,0.00962524,-0.02780196,0.07083565,0.03140011,-0.06105082,0.01478052,0.02905072,-0.02637925,0.05484209,-0.01469176,-0.01388183,-0.00887283,0.01704427,-0.00123673,0.01483471,0.02608374,-0.03036572,0.07897604,-0.07917053,-0.03283274,-0.00971616,0.01264597,-0.03753843,-0.02228126,-0.00033912,0.04019680,-0.00209168,0.06130842,-0.05546136,-0.00854713,-0.08714642,0.01940440,0.02491229,0.01446860,0.03275485,0.04476650,0.05047787,0.01176008,0.01520885,0.02218693,0.00284816,-0.07044277,0.01277063,0.05273135,-0.01409549,0.05297811,-0.02700714,-0.01474611,0.03752082,-0.01720004,-0.00082383,-0.02905529,-0.02301783,0.00830884,0.01373926,0.03778238,0.00211018,0.03031508,-0.01066384,0.01288150,0.00871060,0.01607442,-0.00711563,0.01779253,-0.02591348,-0.01498104,-0.01599800,0.00603079,0.00453500,-0.01608835,0.05593767,-0.00425524,-0.05706754,0.02375333,0.02354422,-0.02982620,-0.04230696,0.03047807,0.01786855,0.08015537,0.00393402,0.07976142,-0.05259750,-0.00661544,0.04106403,-0.03160885,0.02717894,-0.04469880,-0.08113286,-0.03276678,0.01899338,0.04857456,-0.03802312,-0.02218708,-0.02194399,-0.04982216,-0.00735337,0.01688830,-0.00528473,-0.00861933,0.04174000,0.00470252,-0.01079755,-0.01629199,0.03893555,-0.00522942,-0.04238596,-0.00437952,-0.02868253,0.02844306,0.02434962,-0.02628621,-0.01752859,0.01929762,-0.00725031,-0.00086956,0.03941419,0.02688120,-0.07169521,-0.00594664,-0.04577334,-0.02594848,-0.07613432,-0.02705064,0.00334824,0.00617309,-0.00674759,-0.04152020,0.03576050
-0.06055005,0.04392155,-0.03869101,-0.00274093,-0.02200736,0.00188890,0.00591213,0.01412972,0.03139133,-0.01748122,0.02273900,0.04550175,0.02305332,-0.01868501,0.00532244,0.00057470,-0.00236470,0.02256876,0.03130973,-0.02332672,0.01788357,0.05542798,-0.03196506,-0.02097044,-0.06574029,0.01173181,-0.02249577,0.02908405,0.02168643,-0.04065037,-0.05002008,0.00227710,0.03249488,-0.01846361,0.01773941,-0.03206171,-0.03121878,-0.02755976,0.03887213,0.01370240,0.03080720,-0.02159243,0.00007966,-0.02870336,0.00614745,0.00276501,-0.00418696,-0.00138281,0.05532043,0.00808126,0.03390243,0.03820917,0.03771720,0.02439121,0.02035220,0.01102136,0.06940677,-0.02079504,-0.05304099,-0.00425755,0.00858090,-0.01108357,-0.04615857,0.03857267,0.06842391,0.03126423,-0.00473655,0.00336199,-0.01455099,0.02590827,0.00207894,-0.01682260,-0.00166480,-0.03853263,0.01925238,-0.07939267,0.04297365,-0.03259851,-0.07022873,-0.01303049,0.00754653,0.05411532,0.03692828,-0.02823074,0.00469079,-0.04043088,-0.01833098,-0.04435996,0.03431170,0.03010033,-0.03496509,0.01086091,0.01840491,0.00823015,0.01603726,-0.04380313,-0.00791125,-0.00416241,0.00738182,0.00107454,0.00006622,0.00940968,0.02255391,0.01393380,0.02390050,0.01717371,-0.00570009,0.00266766,-0.06220865,0.00124562,-0.00634372,-0.03005938,0.01833219,-0.00310014,0.00363125,-0.02665073,-0.02701332,0.00841590,0.00466604,-0.05584312,0.02197650,0.14434582,0.03558972,-0.00966694,-0.00634073,-0.02108872,0.00473295,-0.04666620,-0.04283476,0.01001098,-0.04617171,-0.00537618,0.02494753,-0.02077632,0.02681033,0.03248156,0.02030831,-0.07525561,0.01934044,-0.00181443,-0.04494780,-0.01480432,0.02294047,-0.04075024,0.00190872,0.01252147,0.03629309,0.02124177,-0.01135490,0.02160500,-0.00293090,-0.01757181,-0.03198906,-0.03028340,-0.03705846,-0.00346869,0.02571825,0.09952106,-0.02908344,-0.06196128,-0.04698536,0.08879886,-0.04636983,0.02284847,-0.02826517,0.01337914,-0.00534234,0.01724792,-0.03200905,0.04686894,0.04817200,-0.01487457,0.06955627,-0.02418866,0.01816774,-0.00393107,0.01785113,0.00118877,0.03243766,0.06979092,0.01260641,-0.02299130,0.03790842,-0.04441614,-0.06522836,0.00638151,-0.00528459,-0.02285963,-0.00438454,0.04237780,-0.00478707,0.05432377,-0.03303074,-0.00138685,0.03098620,-0.01208871,-0.03258023,-0.01444832,-0.00571831,0.01858385,0.01777832,0.08542044,-0.03700281,-0.00649554,-0.03854245,-0.01969223,-0.03326697,0.02001894,-0.02800936,0.01001546,-0.01832462,-0.00661112,-0.05174381,-0.07752138,-0.03163419,0.03904808,-0.03244978,0.03986975,0.00440579,-0.01560383,0.02808820,0.05091844,-0.01311778,0.01631395,0.04508095,-0.03759068,-0.04416944,0.06156727,0.00104776,-0.01433615,0.05436433,-0.00273579,0.00285040,-0.00690308,0.01628778,-0.00166620,-0.04008014,-0.00530827,-0.03309682,-0.06134018,0.07054815,-0.00538927,0.02581173,0.01221063,0.00922165,0.01692040,-0.00058061,0.03333418,-0.00670909,0.00259613,-0.00380656,-0.02513797,0.06538268,0.05952152,0.00656771,-0.03007363,0.00960528,-0.02511757,-0.00061057,0.03280195,-0.02135930,0.03418955,0.04368739,0.03723544,-0.04570517,0.00379402,-0.02882305,-0.03631353,-0.00206565,-0.00257549,-0.00620525,-0.02795049,0.00970658,-0.00707258,0.01974742,-0.01433968,0.06205931,0.02014230,-0.02705077,-0.02588819,0.09381761,0.05440666,0.00007344,-0.01676213,-0.01791918,0.02095002,-0.03176740,0.07589458,0.06872425,-0.01631737,0.05256193,-0.00012207,-0.03655684,-0.00819426,0.05926710,-0.01735586,0.02307431,0.00600090,0.00391157,-0.00621609,-0.04160049,-0.01750170,0.05685521,-0.01970332,0.02953077,0.00810499,-0.00734448,0.02783969,-0.00542719,0.01057904,0.00305715,-0.01422033,0.00531786,-0.04235249,-0.01556830,-0.01034479,0.00184451,0.00079512,0.02117976,0.03198808,0.02110735,0.00075458,0.00392708,-0.03591973,-0.01015493,-0.01162263,-0.05592049,-0.00179610,0.00138240,-0.04384409,-0.01576070,-0.02588225,0.01429424,0.03799080,-0.00906712,0.05479988,0.00534214,-0.01577370,-0.00773379,-0.03031097,-0.01007058,0.02542089,-0.01136465,0.01993054,0.01946127,-0.02448917,0.04340568,-0.01051763,0.00922676,0.05064092,-0.00595472,0.00964114,0.03339573,-0.01867079,-0.04041031,-0.03561491,-0.03321522,-0.00587552,0.01467711,-0.06103778,-0.03095464,0.00466196,0.00444710,0.03391893,0.00809010,0.05133680,-0.01057722,-0.03743852,-0.01396141,-0.07582684,0.01564016,0.05788296,0.04296017,-0.00798891,-0.01078217,0.01181279,-0.01929571,0.00349533,0.02960301,-0.05778290,-0.02799376,-0.01262431,-0.00231667,-0.03176554,-0.02734937,-0.03232204,-0.04156236,-0.07276993,0.03051472,-0.00124565,0.02259287,0.01057874,-0.00546802,-0.04986338,-0.01674301,-0.00360065,0.00714979,0.04802955,-0.04385471,0.02264046,-0.00028257,0.01423960,-0.01965806,0.01677909,-0.04324898,-0.03900354,-0.01074447,-0.00936250,0.00555347,-0.00822208,0.02937445,-0.03028331,-0.00236800,0.03572787,0.00112704,0.03888193,-0.00471741,0.04568723,-0.01642500,0.06157397,0.00859607,0.00888627,-0.04823327,0.02152271,-0.01237612,0.00163217,0.04240596,0.00464880,-0.00834407,-0.04229854,-0.00235099,0.01954741,-0.04442191,0.00907926,-0.14048399,0.03211237,-0.00342905,-0.06220265,-0.00515888,0.00933953,-0.02648410,0.01695824,-0.02566991,0.00206451,-0.01128861,-0.04175656,-0.03955195,-0.06987086,-0.01539841,-0.01644533,-0.04638616,-0.03870864,0.01984531,0.00882428,0.05582555,-0.05868923,-0.01253981,0.00237684,0.00613507,-0.03085139,-0.01419257,0.03957715,0.01860530,-0.00887994,0.06323957,0.02931201,0.03344776,0.01552124,-0.00652747,-0.02318794,0.05162114,0.07515245,0.01466326,0.02239506,-0.00033511,0.02214257,0.04125259,0.06242873,0.03778422,-0.04397314,0.06544740,0.00264868,0.04266237,0.05389285,0.01158450,-0.04582106,0.02005098,0.00209332,-0.00851598,-0.00241408,-0.02279705,-0.02044098,0.03828898,-0.01419930,0.02216086,-0.02861979,0.04570930,0.04696383,-0.02549271,-0.02385668,-0.02275935,0.00369723,0.01239736,0.02163168,0.00692770,-0.01817934,0.03449098,-0.01345125,-0.00170459,0.01760119,0.03547890,-0.01154908,-0.06257151,-0.00524074,0.04373510,0.03213227,-0.02627785,0.04625570,-0.02988536,0.01450458,0.00632141,-0.01453021,-0.01450658,-0.01130792,-0.02481426,-0.05353239,0.04423561,-0.02145222,-0.04508604,0.00639411,-0.00682579,-0.01491101,0.03011057,-0.00776046,0.02673510,-0.01973724,0.03017051,-0.07003268,-0.01860723,-0.02747991,-0.00712324,0.05116299,-0.02173962,-0.04136387,-0.00535290,0.02476906,0.03269162,0.03556728,-0.01678638,-0.00369042,0.01492564,-0.00808095,-0.02385406,0.00779195,0.05884679,0.02998528,-0.08039474,-0.03740567,0.02939913,0.01310050,-0.00646033,-0.00713604,0.05639194,0.01115930,0.01482113,0.04117706,0.01371916,0.03009491,0.00777144,0.03348631,0.01312313,0.05295067,-0.03513899,-0.04480420,0.03561852,-0.00470724,-0.00324315,0.01975846,-0.02525221,-0.03201439,-0.03095059,-0.05401113,-0.04828536,-0.02563712,-0.03210824,0.05813436,0.04631563,-0.02430272,-0.03080813,0.02330068,0.04881922,0.05803495,0.02023383,0.05201403,0.00084786,0.02707956,0.00395514,0.04356918,-0.00866909,0.02526139,-0.02757646,0.00625388,0.01644757,0.04835554,0.00056872,-0.03396807,-0.01014981,-0.00165873,0.00451219,0.01675677,0.03859483,0.00520290,-0.02208929,0.03702121,-0.00373039,-0.01889900,0.02998500,0.02414290,0.02057539,-0.04186650,-0.02756141,-0.01579081,-0.01064114,0.01149329,0.01771997,-0.03714710,-0.02450650,0.02045091,0.00384776,0.00610697,-0.03090451,-0.03949970,-0.02195133,0.02938692,0.01571153,-0.00278987,-0.00409409,0.01651326,-0.00310988,0.03566678,-0.02851863,0.02463676,0.01871089,0.04160655,0.02327304,0.02979752,0.00010238,-0.01383725,-0.02698391,-0.02762744,-0.04596943,0.05178167,-0.02521889,0.02180887,0.12076580,0.05150541,0.02151155,-0.09647573,-0.06273347,-0.01575019,-0.03445658,-0.00207257,0.04491499,0.04173640,-0.04175429,0.02942807,-0.03291098,-0.00360550,0.00573438,-0.07124535,-0.04234086,-0.00494856,-0.01077988,-0.03668948,-0.02445330,-0.00699958,0.03782240,-0.04585147,-0.02669562,0.00508865,0.03935449,0.04028301,0.00894516,0.01679336,0.04039159,0.00808884,-0.03172756,0.01386386,-0.01656406,-0.01096431,-0.03377205,0.02667577,0.02011407,0.01608005,-0.00527842,-0.03602729,0.00836366,-0.01246621,0.00453601,0.04377655,-0.05546231,0.04285904,0.04386475,0.01727231,-0.05163299,0.02170663,0.00213838,-0.05140587,-0.01132336,-0.01843796,-0.03641038,0.04058231,-0.00158644,-0.04525449,0.00287666,0.06631096,-0.02699498,-0.05406501,-0.01319071,0.02000363,0.02407145,-0.01248296,-0.02641149,0.02780194,0.02835851,-0.01502547,0.00955828,-0.00731696,-0.03737648,0.00942110,0.00115622,-0.03937164,-0.02567144,0.02328084,0.01354234,-0.04243602,0.00687629,0.02602480,-0.01618425,-0.02277660,-0.01515483,0.00903818,-0.00061368,0.01075882,-0.00927652,-0.00681599,-0.03384102,0.08567588,-0.01328062,0.00843078,-0.01621642,0.04470269,-0.00495898,0.02006631,-0.00646904,-0.00748165,0.01805324,0.00530068,0.01409528,0.04516881,-0.00743505,-0.03445439,0.00365679,-0.00902137,-0.03335245,0.00556454,-0.02195870,-0.05055255
0.00451773,0.01312192,-0.03448080,0.01332416,0.01830506,-0.01837831,0.00726020,0.07889586,-0.01969847,-0.00365436,-0.03336354,-0.05022726,-0.01118088,0.00638421,-0.00752114,0.02105660,0.01730885,0.08311232,0.04619357,-0.03221560,-0.01553059,0.07173262,0.00709887,-0.03103402,0.00301021,-0.00214881,-0.03233215,-0.00642642,0.01623876,0.03942343,0.00780975,-0.01960221,0.04410909,0.06225679,-0.03599934,0.03960486,0.01361244,-0.04272325,0.00909494,0.01511033,0.01918434,0.02273105,-0.02877172,-0.03912499,-0.05350702,0.05016591,-0.00305516,-0.00164892,0.01785029,0.00455795,0.00589937,-0.00979779,-0.02001730,0.00580906,0.02614000,-0.05213159,-0.02442142,-0.00960448,-0.05294981,0.03019343,-0.02752522,-0.05108215,0.02392159,-0.00607434,-0.06504637,-0.03632532,0.01651767,-0.02492623,-0.07376242,-0.00566197,0.01042085,0.02040774,0.00261159,-0.01698447,-0.02648675,-0.00881128,-0.01183002,-0.03101644,-0.03115800,0.04582156,0.00761459,0.03148411,-0.02125775,-0.06554092,-0.00266652,0.02618709,0.05365195,0.04874658,0.00304615,-0.01421942,-0.06230729,0.01402544,-0.02794751,0.01210765,-0.07538309,0.01749231,0.02640446,0.02931631,-0.09435346,-0.03039707,-0.00851580,0.05087818,0.06460887,0.02591598,0.00119575,0.00985949,0.02886217,-0.04081226,-0.00879693,-0.00087752,0.02483209,0.01359013,0.01240275,0.00463646,0.02241751,-0.05263814,0.05283583,0.02626833,-0.06002702,0.00222037,0.00876144,0.07503161,-0.00302790,0.00177405,-0.01258327,-0.04691507,0.01425977,0.00184637,-0.01603538,0.01639112,-0.02330708,0.00782649,0.06177701,-0.02080079,-0.02494536,0.00362874,-0.02455774,-0.07312526,-0.06356925,0.04270231,-0.02594021,0.00854266,0.02516618,0.00622996,0.04732968,0.02774060,-0.00763029,-0.02344288,-0.03653681,-0.03959063,-0.02053660,-0.01918507,0.02079112,-0.00692043,0.02778390,-0.04099355,0.05429526,-0.04440481,0.00668888,-0.06193129,0.00090405,0.00971820,0.00086529,-0.02475158,0.00918335,-0.02317544,0.05204383,-0.01485373,-0.00133307,-0.05292338,-0.04374043,0.01396571,-0.03052067,-0.01054248,-0.01549086,0.01593199,0.00644754,0.05114510,0.00382113,0.03780675,-0.01659459,-0.00283751,-0.04239311,-0.03024355,0.01803779,0.04469246,0.05566127,0.00615248,0.03888807,-0.02091658,-0.00410179,0.00890490,-0.01581586,-0.03451752,0.07676610,-0.01950055,-0.01756575,-0.02170063,0.03795413,-0.01124703,0.02676958,0.02272516,-0.01114367,0.02473745,0.00987728,0.01767481,-0.03414448,-0.00270691,0.01419301,-0.01691010,0.01019408,0.05191771,0.01547499,0.02890396,0.00705018,-0.01275792,0.07189712,-0.02928898,0.02668712,0.01738816,-0.00019528,0.04560509,0.01698532,-0.05654700,-0.00502123,0.00681232,0.00253407,0.00193420,-0.03934710,0.03249990,-0.02069880,0.00945044,-0.01258950,0.02616776,-0.02269124,-0.02162387,-0.00661407,-0.01903693,-0.00013862,-0.03715558,-0.05620603,-0.01824126,-0.00572745,0.05666614,0.01454144,-0.02453308,-0.06748933,-0.00614144,-0.03266756,-0.01492094,0.00296218,0.04132083,-0.00851808,0.02202573,0.04040537,0.00861376,-0.00410675,-0.00677991,-0.00406059,-0.04317230,0.00649071,0.06229922,-0.02962094,-0.04936514,0.06695282,0.03574154,-0.01695586,0.04599806,-0.00183844,0.03171032,-0.00289204,0.00946739,-0.02877295,0.03290847,-0.07543290,0.01037445,0.00679738,0.02390985,0.00825734,0.01375382,-0.01843518,-0.01191036,0.03835715,0.03455485,0.00081817,-0.02529051,0.01376453,-0.01989249,-0.05466587,-0.01937553,-0.03088510,0.04016909,0.02923258,-0.02913051,-0.02837415,-0.01304058,0.02771162,0.00199726,-0.06481636,-0.01959216,0.10733476,-0.02064915,-0.03748257,-0.01881235,-0.01528558,0.05508868,0.01242076,0.02341613,0.02151512,-0.08604024,0.02393739,-0.03994928,0.00506693,-0.03861785,0.04391759,-0.01571599,0.05558632,0.03663268,-0.00589979,-0.01265692,0.03620063,-0.03132913,-0.01436948,0.02666876,0.04369090,-0.03612338,0.02050713,0.00056896,0.00874536,-0.00899450,0.01328332,-0.02984945,-0.00838646,-0.00305249,-0.01699495,-0.01155152,-0.01130748,-0.01348659,0.05450932,-0.00764138,-0.03566260,0.01393079,-0.00829319,-0.07183044,-0.02118084,0.00891241,-0.01928175,0.02422501,-0.03366007,-0.03267349,-0.03568177,0.02502766,-0.03710727,0.00350564,-0.02244003,0.00287027,-0.00907061,-0.00841938,-0.10218323,0.00665382,-0.00606911,0.00034717,0.00207976,-0.08102499,0.04549115,0.03588225,0.00598915,0.01495547,-0.02228888,-0.01146636,0.01190526,-0.01430121,-0.00451434,0.03935626,-0.01783878,-0.02731500,0.02485958,-0.00825656,-0.02020707,-0.04631805,-0.00227710,-0.05017294,-0.02071294,0.02731294,-0.02838330,-0.00884575,0.01792420,0.04659578,-0.06547779,-0.00052640,-0.04885691,0.00517668,-0.04506230,-0.03334082,0.05673129,0.00327992,0.00070845,-0.00591471,0.00833243,-0.05419754,0.01361346,-0.00414505,-0.04123848,-0.00870299,0.02109731,0.00853644,-0.00505435,0.03824249,0.00402410,-0.02684413,-0.03253520,0.02867805,-0.05210844,-0.00464195,-0.01881328,-0.07646880,-0.04595934,0.00223537,0.02051817,0.03676104,0.08190230,-0.01392554,0.07306616,0.00943738,-0.00061108,-0.01082695,0.03308025,-0.00074989,-0.04627756,0.01810543,-0.03458965,0.02626933,-0.00684670,-0.03391023,0.01036208,-0.02054069,-0.01059798,0.01120310,-0.01677921,0.01709908,-0.02454460,-0.01177423,0.03865641,-0.03187434,-0.04256847,-0.00329930,0.02680731,0.00417796,0.02262845,-0.01237443,-0.07478349,0.02423086,0.04061739,-0.03109570,-0.01002622,-0.02342284,-0.02715312,0.04749353,-0.03524315,0.00270408,0.01772929,0.00534730,0.02092360,-0.06262403,-0.01650516,-0.06685491,-0.01854307,-0.01597193,-0.03883254,-0.03059913,-0.00721804,-0.01102618,0.04730170,0.06938767,0.03524549,0.05969444,-0.05318049,-0.00709638,0.00980041,0.02702105,-0.00229112,-0.01087350,-0.03018603,-0.02485280,-0.05826914,0.00500470,0.00470892,0.00165667,-0.01671812,0.00314595,-0.02618742,0.03740852,-0.02317768,-0.05690298,-0.02049596,0.00386981,-0.03869710,0.01389888,0.02950324,0.06625238,-0.02292189,0.06310561,0.03508739,0.03938447,-0.00758868,0.03448912,0.00683137,-0.04696896,-0.01405247,-0.02998320,-0.00599966,-0.02855760,0.00432467,-0.07376328,-0.02425057,-0.02374857,-0.02570418,-0.00263899,0.06347584,0.02517202,0.04932977,0.02600129,0.03207105,0.01776566,-0.00057684,0.03824943,0.01692023,0.00234455,0.00508514,0.06757759,0.00841581,-0.00694319,-0.01074182,-0.01411340,0.04002962,0.01029101,0.04525290,-0.01737038,0.00387935,-0.01008088,0.01187994,0.05708428,0.01529719,-0.03688003,-0.03091929,0.02406051,-0.00476302,-0.01315274,0.01112939,0.00643797,0.03730695,-0.02813430,0.05092330,0.04589537,0.00376804,-0.03630431,-0.03761366,0.01811409,0.03785018,-0.00415772,-0.01269221,0.10137875,-0.01661107,0.02958124,0.00194608,-0.00867748,0.06412975,-0.02076012,-0.01093298,0.02031063,-0.00553072,-0.01507866,-0.00846523,0.01968282,0.00346803,-0.00598162,0.01416645,-0.01666345,-0.05132133,0.00257763,-0.00960017,0.03022093,-0.02131839,0.00326125,0.04802322,-0.03198748,0.01904758,0.00314158,0.08443608,-0.00960013,-0.03427902,-0.00761314,-0.01474994,0.05084574,0.00335613,-0.00845936,-0.00282415,-0.08030711,-0.00545361,-0.03175755,-0.01995572,-0.02502823,0.00898727,0.00731865,-0.00826043,-0.00410474,-0.00587818,-0.01562332,-0.01865552,0.02425177,-0.01502550,-0.02800749,0.00949644,-0.01760486,0.02497585,-0.02970267,0.00139017,-0.00071658,-0.02095351,-0.00236257,-0.01593493,0.00612396,0.04190291,0.06018781,0.01130887,-0.02378138,0.02978483,0.00593592,0.02023320,-0.00453014,0.01676887,-0.00405204,-0.03403543,-0.01842794,-0.02494639,-0.03280774,-0.02386015,-0.03424263,0.04559164,-0.00217851,-0.02787706,0.03975536,-0.01703435,0.02237570,0.00148537,-0.04786251,0.01040695,-0.00181045,0.02651665,0.03299859,-0.02806029,0.00592471,0.04271549,0.03450127,0.05678758,-0.01738555,0.02368121,0.00192845,-0.00198921,0.00577667,0.03031322,0.00257152,0.03192729,-0.04101732,-0.03846797,0.02756680,0.03213118,-0.02064992,0.00971760,-0.06629569,-0.02049087,0.00391745,0.00967883,0.00331381,-0.03685251,0.02797796,-0.01854429,-0.02142732,0.00608395,-0.04100469,0.00351249,-0.06567380,0.03475758,-0.01957880,-0.02839863,-0.01975135,-0.00444814,0.00158914,0.04746260,0.00775880,-0.04937763,0.00955828,0.02113376,0.02502359,-0.02607104,0.05888289,-0.00410530,-0.00671210,0.01857081,-0.00193417,0.01390220,-0.05400609,-0.00126619,0.03374525,0.01611121,-0.00051353,0.00727827,0.01141071,0.00628430,0.00973355,0.01973101,-0.03090375,0.03505261,0.02768123,0.01102158,-0.01119722,0.01359554,0.02807388,0.00548542,0.01080583,0.07214142,0.02083045,0.04735435,0.03223589,-0.00156810,-0.04042133,-0.04009444,0.03642420,0.01549310,0.04543564,0.03132068,-0.02346804,0.01681000,-0.00414505,0.00058142,0.00987651,0.01090213,0.00601757,0.00682917,0.01237672,0.03799929,0.04840517,-0.04259827,0.04021566,0.03391299,0.00743549,-0.00261797,-0.00147770,-0.05015949,0.04019248,-0.02338407,0.04749240,0.04574966,-0.06183020,0.02782004,0.04697523,-0.01124717,-0.04184377,-0.00833125,0.00888359,-0.06243285,0.00069450,0.02987548,0.04201540,-0.01978317,0.00171730,0.01120115,-0.01313183
0.03292822,-0.04173074,0.04483479,-0.05731333,0.00392272,0.02219973,0.06971104,-0.05702200,-0.00422111,-0.08348980,0.00980347,0.01091257,0.03273423,0.05474762,-0.00000405,-0.03015018,-0.00163993,0.02684486,0.00610558,0.01192613,0.08212780,0.03818930,-0.03154252,0.02992317,0.02264824,-0.00708997,0.04251795,-0.10119366,0.02362904,0.02694510,0.04795160,0.03769911,-0.00430311,-0.00443001,0.04942986,0.02118160,0.02025621,0.00668287,-0.00556048,0.02261391,-0.05194232,-0.04206299,0.01874471,0.07291031,-0.04316113,0.04766611,-0.06218645,0.04489191,0.04078658,0.02076265,0.02748136,-0.02994138,-0.03960117,0.00397060,0.03715215,0.02938059,-0.00122121,0.03100654,-0.05874898,-0.02360900,0.01067498,0.00423295,-0.02920157,-0.02305119,-0.00521154,-0.01502846,0.03561961,0.01619905,-0.00049739,-0.00723811,-0.01880037,0.01522772,0.02304718,0.02995328,0.00447979,-0.01042068,-0.10931920,0.00989760,0.00212875,-0.05374882,-0.05176493,0.00002936,0.02040278,-0.02352481,-0.03056866,-0.00452555,-0.00990764,0.02162333,0.00589068,-0.00239162,-0.01048889,-0.00455547,-0.02714193,0.05179538,0.02268893,-0.03521616,-0.00063223,0.07022398,0.03595457,-0.01486322,0.02171838,-0.00716106,0.05973794,0.05353228,0.01280152,-0.02042980,0.07374424,0.00055004,-0.07247276,-0.04420107,0.01802203,0.02998168,0.00940003,0.07395031,-0.01908562,-0.03027100,-0.05331950,-0.01796977,0.02966471,-0.00147595,-0.01108250,0.02340549,-0.01044493,-0.07075881,0.02382663,-0.03012825,-0.07547907,-0.00778681,-0.01495546,0.04221931,-0.00972993,-0.00450307,-0.04401431,-0.05475531,0.00669038,0.04409280,-0.03927778,0.00904122,0.00653468,0.01978860,0.02406472,0.01388769,-0.01106347,0.05230561,0.00047842,-0.00077898,-0.05491424,-0.02283239,0.00464247,-0.04201664,-0.05665761,0.08888927,-0.00928295,-0.00770857,-0.01609836,0.03082659,0.01560717,-0.00764050,-0.01957529,0.00960487,-0.06336430,-0.00267642,0.01240958,0.00690762,0.04237821,0.02958905,0.00072118,0.05155003,-0.00359062,-0.00223690,0.05807691,-0.03742792,0.01158785,-0.00797314,0.01120062,-0.02768066,-0.01749133,0.01185515,0.00183326,-0.02683252,-0.02979756,-0.04259858,-0.04313949,-0.01820703,0.01434708,0.03320316,-0.09346782,-0.00599816,0.01846836,-0.02490169,0.01989698,-0.00199910,0.00523235,-0.02155799,0.00208513,0.01099141,0.03947884,0.02229323,0.01591625,-0.05219889,0.06814864,-0.04609524,-0.03006788,0.06984393,0.02173111,0.03348472,-0.00331430,0.01832093,0.05362479,0.05366736,0.03129179,-0.04100984,0.06171973,-0.01375457,0.03299313,-0.01713340,0.02847387,-0.01469980,-0.02123310,-0.04831553,-0.00053379,0.06710488,0.03140001,-0.03686518,0.02663191,0.01588982,-0.01961336,0.02649187,-0.02570852,-0.04230153,0.00016380,0.00088613,0.03794118,0.00604630,0.04600928,0.02790478,0.03710696,0.02744843,-0.00715554,0.01695950,-0.02178634,0.02083537,0.00758010,0.03194726,-0.01484356,-0.04497643,0.03351835,-0.00789044,-0.00376930,0.00001642,-0.10167740,-0.06229717,0.05244777,0.02212161,0.00420353,0.02716288,-0.02734312,-0.01193016,0.00416005,0.08924238,-0.03596400,-0.00910882,-0.00258477,0.00855532,0.04661813,-0.02360043,0.05941598,-0.01443668,-0.03157832,0.01900766,0.03025188,-0.04047449,0.00231412,0.02227100,0.03767849,0.03998433,-0.03481892,0.01597696,0.03365954,-0.03784539,0.02000803,-0.03104784,0.01410282,-0.03053893,0.02221709,0.02585995,0.01445796,-0.01863283,0.00849060,0.02368571,-0.05868153,-0.03058184,-0.01689607,0.04445795,0.02863719,-0.01965528,-0.00837258,0.00123601,0.03513352,0.00805927,0.01057528,0.00586669,-0.04684698,0.06666397,0.03830274,0.03144661,-0.01982775,-0.01389354,0.01881797,-0.02148566,0.04269991,-0.02317463,0.01963422,-0.02260968,-0.02143191,-0.01501994,0.03578940,0.00594782,0.01634806,-0.00937562,0.00211546,0.06877815,-0.02651982,0.02119204,-0.02216070,0.00823866,-0.03616168,0.00242263,0.04729039,-0.02060316,0.04285660,-0.07276089,0.02300907,-0.01161885,-0.01130848,0.04824099,0.00063699,-0.05408438,-0.00344464,-0.05398637,-0.03752204,0.01144779,0.02765506,-0.01497569,-0.05072774,0.02296223,0.00469892,0.00209189,0.00842671,-0.01379841,-0.01093116,-0.05936000,-0.07022416,-0.01829740,0.01961180,-0.04539274,-0.05481445,-0.00982117,0.04091399,0.01273614,0.05075150,-0.01462509,-0.04333867,0.01881066,-0.04099239,-0.00530847,-0.04821352,0.02028361,-0.02736862,0.00205514,-0.04544404,-0.03164415,-0.01762439,-0.00407574,-0.03568611,-0.01817993,0.02217842,0.02179841,0.00497172,0.01222779,0.01089364,-0.06499673,-0.01512500,-0.03748555,-0.01113082,-0.01814758,0.03159569,-0.01789670,-0.03477312,-0.00367545,0.02298659,-0.03522919,-0.00843994,-0.00916221,0.03608897,0.00197423,-0.02491031,-0.01885321,0.01926973,-0.02456601,-0.05525234,0.01825882,-0.02820072,0.01513292,0.03848151,0.00172473,0.04040297,-0.00123954,0.03280744,-0.01598620,0.02026534,-0.03562520,0.01872833,0.04106415,-0.01085033,0.05947031,0.02737565,-0.04962514,-0.02068303,-0.01641670,0.07257993,-0.00607187,0.06130405,0.01341827,-0.01654203,-0.01344283,0.01001686,0.03325588,-0.00139009,0.04605973,-0.04620733,0.01936082,0.01150623,0.02217851,-0.04185195,0.00128384,0.05071634,-0.02129684,0.02043658,0.03107999,0.03023286,-0.00383043,0.02858972,-0.00824200,-0.00963695,-0.02071604,0.03854655,-0.02479242,0.02760556,0.01226137,-0.02260358,0.05594135,-0.01005634,0.03836184,0.01687826,0.01870617,-0.00504887,0.02203585,-0.01643553,0.05040344,-0.02599316,0.01248555,-0.02495015,-0.02495327,-0.01372343,-0.00366439,-0.03603517,0.01645623,0.04124602,-0.07090341,-0.05109025,0.00780288,0.05844527,0.00429994,0.02216291,-0.02940453,0.05060903,0.01409643,-0.01257399,-0.01223739,0.01556735,0.05503093,0.00379672,0.00988716,0.01689642,0.03980505,0.07643804,-0.05184586,0.01588321,-0.03752005,0.06078954,-0.00173441,0.03326222,-0.01213402,-0.03425036,0.03577548,0.01102472,0.04010663,0.03698530,-0.02397981,0.02499568,-0.00681360,0.00075663,-0.00688332,-0.03253183,0.02321182,-0.03553020,-0.00745615,0.04901701,0.00373021,-0.01222159,0.04449476,0.00052463,0.02466406,0.00710821,-0.04409182,-0.00194293,-0.01381184,-0.03270754,0.02296387,0.00083986,-0.01382910,-0.00099962,-0.04901870,0.00203387,0.00532680,0.03255591,0.00272967,0.05002052,0.02480624,0.01710453,0.04258623,-0.05723105,-0.00319974,-0.00830680,0.02759418,0.03730581,-0.02629077,-0.04129123,-0.03024200,-0.00466697,-0.01951307,0.00261074,-0.01221964,-0.02027662,-0.00585172,0.04808948,-0.06644209,0.02481561,0.01025057,0.01191507,0.07291836,-0.02444096,0.04783837,-0.01106142,0.03059202,0.07621555,-0.00542174,0.07169045,0.00130562,-0.00375229,0.06976030,-0.05159311,0.01600052,-0.01030698,0.01869626,-0.03303688,0.01001913,-0.00472091,-0.00266774,0.01160517,-0.08657973,-0.04510950,0.01008472,0.00130563,0.02453164,0.01180644,-0.03723633,-0.04756986,-0.03157639,0.02155412,0.01952911,0.01108177,-0.00541755,-0.08527956,0.01762054,-0.01636760,0.03175073,0.02081458,-0.02273684,0.06040525,-0.04799234,0.01762195,-0.01682617,-0.05595593,0.00386496,0.02952677,-0.01955998,0.02667385,-0.00393893,0.00842357,-0.04961573,-0.00821691,-0.01407311,0.04415674,-0.04073487,0.01666613,0.06112299,-0.00254302,-0.00160140,0.00895730,0.01084317,-0.07423976,-0.00686093,-0.00380712,0.00405180,-0.02279707,-0.01513459,-0.00875858,-0.04346167,-0.01053167,-0.00563034,-0.00764128,-0.02518544,0.03800702,-0.02264025,0.01831746,0.00617959,-0.04026408,-0.09328980,-0.01512969,-0.00419777,-0.07694447,-0.02196196,0.01301736,-0.01568364,0.00825855,-0.01806133,0.02804166,-0.03716940,0.01500168,0.02394789,-0.00993094,0.01477356,0.02350453,0.04234035,0.03810272,0.00994758,-0.02717697,0.08987564,0.00224197,-0.02860651,0.00396917,-0.00768446,-0.03414009,0.02741076,0.02902044,0.02479035,0.08072441,-0.05416361,0.00289882,-0.03696658,-0.00972989,-0.03770025,0.00447473,0.00573167,0.02816468,-0.02020608,0.01095532,-0.03211600,0.01334012,0.04797735,-0.02995631,0.03370230,0.01979549,0.00266358,0.02259826,0.04374284,-0.01073212,0.00494056,-0.01230343,0.03644385,-0.01248762,-0.00280205,-0.04192888,-0.01654423,-0.07189222,0.02975320,0.02458832,0.01857086,0.04397607,-0.03178564,-0.05507377,0.04650901,-0.01373723,0.03454452,0.00145915,-0.01357013,0.06070003,-0.02152036,-0.04831551,0.05113641,-0.07421727,0.01757663,0.00048025,-0.00238598,0.02446656,-0.02895105,-0.01000586,-0.01902215,-0.00289156,0.02369064,0.02765934,0.04507164,-0.00475908,0.05354999,0.03201314,0.04476064,-0.02031359,-0.01903597,-0.02606373,-0.01127080,0.00786904,-0.05488029,-0.00558330,0.05362146,0.00007118,0.02212685,0.05029902,0.03743851,0.00318510,0.01271067,-0.06310365,-0.01406482,-0.04272165,0.03115636,0.03363173,0.03137231,-0.07642812,0.03273479,0.02989037,0.01948255,-0.04165391,-0.02592370,0.01542711,-0.05679708,-0.01685598,0.00207306,0.01618328,0.02379112,-0.02076084,0.00441777,-0.00250981,-0.05875879,0.00178295,0.01719538,0.08232300,-0.03449158,-0.02394362,-0.02869258,-0.02089526,0.02456920,0.01281176,-0.04149217,0.04005522,0.00498134,0.02970989,-0.03299693
-0.01187257,0.08206371,-0.00024005,0.00630712,0.06586993,0.00465304,-0.05854147,-0.06931632,-0.00360142,0.04188637,-0.00336427,-0.02507913,0.03665245,-0.01040412,0.02701369,0.00834537,0.03803442,-0.01169535,0.01489594,-0.02076701,0.05971615,0.04679171,-0.00515773,0.07648607,0.01097178,0.01559277,-0.02116922,-0.00996877,-0.00876846,0.02397279,0.06003311,0.02140949,0.02910381,-0.05239954,0.03643719,0.00648032,0.03058466,-0.01187022,-0.02723120,-0.05164904,-0.02777249,0.02660703,0.02164897,0.01628925,0.04462075,0.01852920,0.00441224,-0.03273671,0.02354355,0.00794274,-0.00755969,0.04166302,0.01695221,0.03798002,0.06600697,-0.04325306,0.02553004,0.04814079,0.03323086,-0.03289946,-0.02466522,0.01870940,-0.02252267,0.06367636,-0.00416331,-0.02030898,0.01203729,0.03429215,-0.03893394,-0.02103787,-0.03725700,-0.02513062,-0.02461997,-0.02262563,0.06302425,-0.01852658,0.08083682,-0.00561035,-0.01927802,-0.01799803,-0.01027059,-0.01736402,0.04021542,-0.03483456,0.08566544,0.02510841,-0.01798960,-0.01106486,0.04009612,0.01271325,0.01335100,-0.06168353,0.01598249,-0.02258348,0.01010362,-0.03220291,-0.00372610,0.01276761,0.06106647,0.01816572,-0.00022081,0.03821106,0.06454186,0.00106602,0.03887489,0.00375342,0.00595632,-0.04370953,0.00717681,-0.02942678,0.03167821,0.01144040,0.02752266,-0.02987063,-0.00284388,0.02689970,0.02386664,-0.04110688,-0.02464138,0.00653246,0.03698772,0.08282600,-0.01365460,0.03392256,-0.02182322,-0.01615239,-0.01609899,-0.05565121,0.03097481,-0.02057282,0.01527062,-0.01360147,0.02990027,0.01986961,0.03227036,0.04415036,-0.00199786,-0.01755346,0.05645915,-0.01686402,0.00068070,-0.02793956,-0.02819761,0.02695657,0.01326791,-0.01291995,0.01363497,0.02056380,0.03502911,-0.01582302,-0.02235222,-0.03290381,-0.01150481,0.06860228,0.01861676,-0.02469426,0.03050916,-0.02283997,0.04672955,0.09200683,-0.00825796,0.02542670,0.00657219,0.01002000,0.01488354,-0.00775908,-0.05423627,-0.03125452,-0.00747394,-0.02498172,0.00134077,0.03510070,0.05221741,0.00278320,0.01108471,-0.01402126,-0.01101879,0.00736667,0.02726415,0.04527549,-0.03778132,-0.04768673,-0.01798204,-0.01242436,0.00167266,-0.07553956,0.02513791,0.01722080,0.00022611,-0.01503444,-0.02852821,-0.00077808,-0.01684058,0.09233631,-0.02834371,0.01109157,0.00659389,-0.01808689,0.00722511,0.03421597,-0.00181034,-0.01890376,-0.01519602,0.06807481,-0.01042857,-0.03888731,-0.07206178,-0.00384409,0.00769202,0.00344544,-0.00990905,-0.01853320,-0.04280461,-0.01614822,-0.03522960,0.04386424,-0.15322779,-0.05361259,0.02848796,-0.03488707,0.02556747,0.00918151,0.05587015,0.04960932,0.00731369,-0.04056965,0.00920581,0.02513649,-0.05933212,0.01474367,0.01748297,-0.01430996,-0.03316543,-0.03086369,-0.03288042,0.00807010,0.02225107,-0.00991721,-0.01442339,-0.02157878,-0.01105305,-0.00756696,0.05237398,-0.05670903,0.06063082,-0.00023349,0.02397433,-0.02665485,-0.01293163,-0.00413987,-0.06849913,0.02840192,-0.03556299,-0.02550450,-0.02175032,0.00844457,0.06283612,0.04995973,-0.07419678,-0.00137030,0.02545737,0.06768471,-0.02508000,-0.01964243,0.02500442,0.02394842,0.00265792,0.04315966,-0.01489215,0.02937708,-0.01909952,-0.03154803,0.00643540,0.00945025,0.00105398,0.00699190,0.00325727,-0.01903974,0.00803083,-0.03654255,-0.02723121,0.01551580,-0.03048341,-0.02603202,-0.08058444,-0.03486878,0.01015212,-0.05884246,-0.04951110,0.00823805,-0.02975422,0.02945532,-0.04310124,0.02727220,-0.06017482,0.01387330,-0.00570780,-0.04851669,0.01429157,-0.05512956,-0.00960037,-0.05848764,0.02954064,-0.00600962,0.03071863,0.00106155,-0.01259449,0.03957420,-0.00072872,-0.05039405,0.08102542,0.01354558,-0.03777441,0.03664493,-0.01199736,-0.01729604,0.03082481,0.01700373,0.02200944,-0.01119604,0.01714516,0.03639197,-0.00339545,0.05010370,-0.00237703,-0.04000995,-0.08117028,-0.02727099,-0.02553879,0.01810395,0.01737289,0.00951141,0.01396539,-0.00475126,-0.00236480,-0.03181125,0.02592056,0.01107899,-0.04732552,0.03091401,0.03950732,-0.02134169,0.02958393,0.01762524,-0.02552021,-0.04130920,-0.04115177,-0.03322607,-0.02130281,0.01196949,0.00407089,-0.06308813,0.01972227,-0.04779163,0.05551435,0.02058169,-0.02126084,-0.03249386,-0.04311839,0.01585667,-0.00847796,0.00013875,-0.00309489,0.00309971,-0.07486173,0.04394869,-0.02859743,-0.02543879,0.00303289,0.05714717,0.04978876,0.03077611,0.01101806,-0.05205710,-0.00923677,0.00176540,0.00878952,0.05060516,-0.04685484,0.03271754,0.10308296,0.00325698,0.03660604,-0.00774147,-0.02513772,0.01368293,0.02376583,0.00241122,-0.06311141,-0.00480069,0.03169608,-0.02195983,0.01571164,0.01855200,-0.01398919,-0.02198304,-0.04618680,-0.00413631,-0.01832535,-0.07295541,-0.01052538,-0.02883510,-0.04478475,0.01488664,-0.02728443,-0.02313964,-0.00724325,-0.01785194,-0.01759543,0.00480270,0.05524787,-0.01455939,0.00770922,0.03937035,0.00688076,-0.02233722,0.04357038,0.04680363,0.01320824,0.02024473,-0.02701274,0.01872667,-0.05457950,-0.01546759,0.03439140,-0.05467107,-0.00209513,-0.03094368,-0.01463020,-0.00516482,-0.00824529,-0.00926064,-0.01800039,0.02495345,0.01387053,-0.03774974,-0.04399814,0.01343214,-0.00938898,0.00349409,0.05727762,-0.03085599,0.02917696,0.04702556,-0.00086693,-0.00946892,0.01342256,-0.01865158,-0.01973494,0.03537202,0.00247402,-0.01242161,-0.01624357,-0.01587186,-0.00860748,0.02222636,-0.00170655,-0.03652331,-0.00276269,0.03076540,-0.03713790,0.02663700,0.05577788,0.04962759,-0.03355711,-0.05889278,-0.00985572,0.01617181,-0.00437598,0.05665591,0.02112773,-0.05645848,-0.00885275,-0.02394728,-0.01582080,0.03251917,-0.03706752,0.02126501,-0.01956427,-0.03061690,-0.08062997,0.02199741,0.02840814,0.00886314,-0.00662149,-0.04053989,-0.00987873,0.03102655,-0.01199077,-0.02543379,0.02660881,0.07034126,0.01387335,-0.00567706,-0.01347544,-0.02785406,0.00982049,-0.00930601,-0.05679599,-0.04952800,0.05802052,-0.02502596,-0.04434505,0.02547605,-0.01377166,-0.04555157,0.00159655,-0.03343843,0.01394081,0.03718466,0.03658826,-0.01426265,-0.01624682,0.02009407,0.04121719,-0.03096277,-0.03709993,-0.00976595,0.00206827,0.02531495,-0.00293178,-0.01168644,0.02789526,0.04062656,0.04324805,-0.02035525,-0.05097622,-0.06835148,0.02296174,-0.13848223,0.00316471,-0.02236052,0.04992704,0.01812057,0.02179929,-0.01892811,-0.03145134,-0.02176821,0.04675801,0.00167073,0.01587769,-0.05254236,0.03898423,-0.03899464,-0.00477867,0.05518535,-0.07395463,-0.04021397,0.05854002,0.06112211,0.01705382,-0.01297873,0.04235078,0.01948320,-0.04691921,-0.02353196,0.05499703,0.02087250,-0.01430247,-0.02293316,0.02191995,-0.01081761,0.04192934,0.00476914,0.00658612,0.01175062,-0.00754879,0.00593856,0.03280661,0.04032924,0.03539890,0.00418177,-0.01288413,0.01675810,0.05550163,-0.04744878,-0.02461634,0.00354771,0.03458283,0.04782057,-0.00889220,0.04579001,0.05087600,-0.02439254,-0.00301061,-0.02411789,-0.01414501,-0.04705655,-0.03245231,0.04219905,-0.04399796,0.02008587,-0.03077453,-0.03040715,0.06598645,-0.04970405,0.00635424,0.00972279,-0.02134268,0.03638763,-0.00795775,-0.05973893,0.05175289,-0.00342259,0.00770680,-0.00820179,0.02185304,0.01377439,-0.00687392,-0.01881254,0.00732556,0.00274145,0.00475138,-0.00416680,0.01597594,0.00950821,0.01125850,0.00913535,0.04490038,-0.03619141,0.04942236,-0.01774632,-0.00845331,-0.04386564,-0.07535610,0.03158252,-0.04274998,0.01360721,-0.03527741,0.00985572,0.04008647,0.01636154,0.00051841,0.01147293,0.04566506,0.07559912,-0.03181390,-0.02842129,-0.02568842,0.00011816,0.03451896,0.02444013,0.02080915,0.02081451,-0.01793942,-0.02507500,0.02985261,0.01906057,0.00013856,0.05435084,0.02016469,0.00642376,-0.07586806,0.06433662,0.12129111,0.02868363,-0.05421336,-0.00275864,0.03637197,-0.02481229,-0.03157123,-0.02706094,-0.00972283,-0.01965020,0.03205281,0.03381719,-0.02513301,0.01330480,-0.05229975,-0.03229764,-0.02359432,-0.03087834,-0.01576050,0.04689177,0.08899113,0.01099781,-0.02093762,0.00413471,0.02322470,-0.07064316,-0.03740311,-0.00830329,-0.03405046,0.00075458,-0.04467964,-0.00222975,-0.01689327,0.04860364,0.04425808,-0.00337074,0.03822099,0.04170927,0.01013759,0.02128491,0.04520101,0.01322753,-0.00896881,-0.00235786,-0.05993774,0.04977445,-0.03355368,0.00557357,-0.07425246,-0.02916064,0.03424376,-0.01403613,-0.02070787,-0.02636309,0.04268971,0.00483669,-0.02108223,0.01524661,-0.00567418,0.06307671,-0.07231314,-0.03344852,0.01499289,-0.06910573,0.02309442,0.02817250,-0.01346301,0.02641184,0.00041059,-0.00788567,0.04559327,-0.02467163,-0.09863863,-0.03509405,-0.03804687,0.01873751,0.00427931,0.03309657,-0.03109004,-0.05609326,-0.03828985,-0.02360422,-0.01129949,-0.00226504,-0.02602842,-0.01669555,-0.05021931,0.00384996,-0.01545688,0.00561198,-0.00837317,-0.02029931,-0.01675417,-0.03244371,-0.00178408,0.00706914,-0.00839279,-0.01022367,-0.04283594,-0.03122789,0.01523934,-0.02197116,-0.01012625,-0.03551682,0.04239117,0.01170485,-0.02557709,-0.10906867,0.02717231,0.04335132,0.01926024,-0.01236303,-0.02194915,0.02522097
