-0.01672016,0.02562051,-0.02639840,0.03544861,-0.02248322,0.05292651,0.01320299,0.02346073,0.00280918,0.00020441,0.00877071,0.03142291,0.03630347,0.01099696,-0.05306166,0.00444293,0.05260023,0.03566004,0.05183544,-0.04627685,-0.04647107,0.04049281,0.08612666,0.02018206,-0.03774652,-0.05194917,-0.03965325,0.02204966,0.04358152,-0.00326261,0.02356819,-0.00280488,-0.03835052,-0.03769699,-0.02009928,-0.02096750,0.07935292,-0.00130432,-0.00713239,0.05687927,-0.05235059,0.03891521,-0.03705408,-0.01031829,-0.00028040,-0.01304447,-0.01720849,-0.07778503,-0.02762529,0.02353994,0.09366046,-0.02593750,-0.00158136,0.10886816,0.01295331,-0.02729550,0.00529263,0.00261390,-0.01898084,-0.01034000,0.04154633,-0.05499509,0.05899341,0.03956935,-0.02884368,0.05135221,-0.00296574,-0.03975442,0.04035805,0.06722882,-0.05381901,0.00655137,-0.01064340,0.06744159,0.03195683,0.03708099,-0.03947742,-0.04175205,-0.01356030,0.01852725,0.00259781,-0.00047561,0.01215980,0.07946043,-0.00575911,-0.00886365,0.05404332,-0.07677728,-0.02311657,0.00640463,0.01149992,-0.00917864,0.04126875,-0.00801497,-0.03700215,0.06039070,0.08671591,0.05369829,-0.04347866,-0.03063973,0.03057963,-0.04089657,0.02804926,0.05346628,0.02386281,-0.07776104,0.04504276,0.02951220,-0.03175711,-0.00782799,0.08812459,-0.01716630,-0.00676689,0.01519037,0.00574103,-0.00718891,-0.04284248,-0.00761081,-0.02894678,0.01037430,0.07155339,0.05658862,0.01474222,-0.07808303,0.03714418,-0.02560323,0.03639084,-0.06592791,-0.02727209,0.02747194,-0.00684661,-0.09378684,-0.01142809,0.00483643,-0.01760209,-0.01283345,0.04698985,0.03373724,0.03460280,-0.00046072,0.00767953,0.06424256,-0.02943498,-0.03690880,-0.03084650,-0.00025341,0.04047676,-0.04312161,-0.01085215,0.00284812,-0.06489738,-0.02465463,-0.02688461,-0.01609983,-0.00837478,0.02071016,-0.09011583,0.01547784,-0.02016240,0.06759790,0.04799458,0.00566729,0.02079083,-0.01788955,0.00555686,-0.00536455,0.06445256,0.05971751,0.07660210,0.04958697,-0.00818321,-0.06349187,-0.01663299,0.06051074,-0.01579877,-0.05897165,0.02708074,0.00409674,0.01647769,0.02028869,0.04474543,0.07529586,-0.01312056,-0.02504033,0.02795220,-0.01626445,-0.03578503,-0.01274238,0.01257052,0.00012504,-0.02723436,0.02261555,-0.05822730,0.02436109,-0.03816284,0.01922455,-0.02082506,0.03044122,0.04414209,0.01626959,-0.09051943,-0.00709285,0.05590164,-0.00144518,0.01283722,-0.06016081,-0.05786969,-0.05194890,0.05282947,0.02811661,0.01830779,0.04205644,0.03529052,0.01634308,-0.02313822,0.07551640,0.07256586,0.01503889,-0.03175179,0.03795527,0.03717053,-0.05018684,-0.03699112,-0.04737360,-0.01076274,-0.03198311,-0.04847154,0.03783933,-0.01816148,-0.00514637,-0.04479712,-0.00681278,-0.01351531,0.02698400,0.02753230,-0.02470021,0.00178977,-0.01825504,-0.03291862,0.03080221,0.02795939,0.01118340,-0.02860349,-0.03097113,-0.00083920,-0.07399618,-0.02637996,0.01227272,-0.01649439,-0.03408682,0.02655531,-0.02584849,-0.00477013,-0.06143270,-0.01999868,0.07356812,0.02281861,-0.07745518,-0.00697621,0.00073369,-0.00419208,-0.03194624,0.00202372,-0.01662472,0.01643785,0.00525827,-0.01413176,-0.00091042,-0.00628216,0.02545037,-0.02341891,-0.07091808,-0.02161237,0.01728795,0.00686862,0.00107172,-0.05189683,0.07980430,0.00513403,0.00679918,-0.07532325,0.00446671,-0.02643484,0.05623000,0.04444948,-0.01848035,0.04170049,-0.04567573,-0.00803512,0.02233308,0.03647619,0.00227286,-0.00300416,0.06521736,-0.05232789,0.05407349,0.04863908,-0.04920471,-0.03207540,-0.00497658,-0.00319219,-0.01741199,-0.04110111,-0.02670376,-0.05413300,0.06635418,0.00859625,0.00626826,0.01783681,0.00756393,-0.00098048,-0.03402082,0.00242411,0.04298199,0.00083519,-0.00781022,0.00199675,0.04557382,-0.04473764,-0.00751691,-0.02279922,0.08964422,-0.01067397,-0.02083349,0.00899354,0.06296322,-0.01205010,0.01848792,0.00368006,0.01951148,0.02767276,-0.07637803,-0.01551358,-0.05048347,-0.00548134,0.02548428,-0.00199162,-0.03695288,0.03573148,0.03685849,0.02045093,-0.02041854,0.02626327,0.01057937,0.07292937,-0.00857680,0.01693102,0.03674955,-0.04027291,-0.00034227,0.03473343,-0.01380161,-0.00533346,0.04896455,-0.00622920,0.01026196,0.02619607,0.02783706,-0.02815242,0.01038275,0.03606108,-0.02189787,-0.01284911,0.01626700,-0.02636780,-0.02128930,0.03686023,0.00401973,0.03241619,-0.03734445,0.01491158,0.02282238,-0.01009371,-0.00532263,-0.01671745,0.06956707,-0.00891880,-0.00430960,0.03765772,0.03951919,-0.00647525,0.06353692,-0.01707682,0.06219797,0.02000331,-0.00042875,-0.02531864,-0.03932868,0.02428504,0.01640264,0.00952142,0.07990310,-0.02105927,0.03662889,0.03555775,0.01568012,-0.02100239,0.03265784,-0.03915177,-0.04361887,-0.01391467,0.08583007,0.03887524,-0.03901569,-0.05215599,0.03750363,-0.05882328,-0.09028687,-0.02086747,0.03866878,0.02192038,-0.01015443,-0.00694366,0.05026414,0.03818374,-0.05306168,-0.02155832,-0.00888027,-0.02217779,0.10201000,0.07720616,-0.05301085,-0.00395419,0.01862994,0.08596542,0.02982014,-0.03078110,0.01019591,-0.02985088,-0.00796174,0.01475159,0.01560400,-0.02913396,0.05043405,0.07571075,-0.03886752,-0.01674448,-0.03997730,-0.00986514,-0.04119784,0.01176089,0.05156509,0.05502284,0.01471817,0.01666419,-0.00544891,0.00970113,0.01374050,-0.00068865,0.00686615,-0.02011202,0.06587873,-0.00297718,-0.01822167,0.00882573,-0.00690190,0.00334507,0.02895468,0.00522666,0.01418818,0.00014613,0.00956768,-0.00613662,0.02357693,-0.03597207,0.02862606,-0.00516252,0.00540140,0.03295695,-0.04568265,-0.03273194,-0.01375725,0.01969076,0.02147733,0.03638989,-0.05887582,-0.05949940,0.01124166,-0.02129395,-0.02396237,0.04172628,-0.03263956,-0.02943790,-0.00417185,0.01098323,-0.02800703,0.07120689,0.02536077,0.05148562,-0.01936240,0.02592945,0.01312357,-0.01398651,0.03138142,0.07221174,-0.03024459,-0.06429929,-0.00826070,0.02663702,-0.01833768,0.00121527,-0.00177556,-0.02302019,0.01744307,-0.02034506,0.02480662,-0.03803053,-0.02774704,0.02479615,0.01842520,0.04329552,-0.05647391,0.01227063,-0.01283070,0.00690938,0.00977504,-0.01521860,-0.01989468,-0.07568442,-0.02861101,0.04377506,0.04263497,-0.03127173,-0.06513713,0.03827243,-0.02619927,0.00263292,-0.00174913,0.00186084,-0.09761454,-0.01874752,0.03218661,0.01938860,-0.01912057,-0.03409564,0.00756164,-0.01246327,-0.01899267,-0.02343175,0.00645354,-0.02677839,-0.03166043,0.01316151,0.01394380,0.03039791,-0.03420646,-0.02712294,-0.04852894,-0.07157506,-0.06271140,0.05744302,0.02781337,-0.03198121,0.00549233,0.04279286,0.04978720,0.01686960,-0.02438847,-0.02558284,0.03171955,-0.05443910,-0.03508334,-0.01515944,-0.02200080,-0.00599153,0.04185964,-0.00011365,-0.01672087,0.01532758,-0.02206276,0.02280490,-0.01874332,0.02145086,0.00606932,0.01105823,-0.01664119,-0.00889198,-0.09199697,0.00719384,0.00752618,-0.00835769,0.00415514,-0.04168071,-0.09233589,0.05126195,-0.03509897,0.01608838,0.02650607,-0.02059168,-0.06951194,-0.04253024,0.05514375,0.02969177,-0.01386602,0.02303565,-0.05190073,-0.05824256,-0.00340339,0.06574508,-0.05007880,-0.01626111,-0.02370618,-0.00406414,-0.06002793,-0.03095673,-0.03950704,0.02446139,-0.03831814,0.10349020,0.08085527,0.01950875,0.05110752,0.01474363,0.01952405,-0.07922248,-0.05250460,-0.06130415,-0.01675846,-0.01631298,-0.05357005,-0.03043489,-0.03734785,-0.00182244,0.06110543,-0.00516439,0.02471912,0.02523237,0.06415606,-0.04743463,-0.04992763,-0.02885124,-0.08800221,0.05533343,0.07159278,0.01428771,-0.01963329,-0.01637186,-0.02867789,0.08035327,0.02980002,0.05939843,0.04510988,-0.05022735,0.05045856,0.00515302,-0.01485798,0.01534642,-0.00345809,0.03731413,0.00869158,0.03047565,-0.03900347,-0.03171300,-0.05352983,0.02950036,0.01882128,0.04835968,-0.03766195,-0.00742819,-0.04495926,0.03065638,0.00797478,0.00161024,-0.00896708,0.02639209,-0.01434652,-0.01728449,-0.05677238,0.03132530,0.01145528,-0.04419153,-0.09024175,0.02231170,-0.06324958,0.01695130,0.00960395,0.07866748,-0.00059879,0.01005340,-0.03912782,0.00418846,0.00133462,-0.02192748,0.03805211,-0.02337584,-0.03208077,0.00045306,0.01413530,-0.03421464,-0.00861109,0.00489261,-0.02003618,-0.04192307,-0.01601167,0.00567232,-0.00803629,-0.02026219,0.02591493,-0.00217402,-0.07091510,0.06542658,-0.01597665,0.00854009,0.03961435,-0.01051520,0.02581852,0.02975481,0.03579696,-0.03210233,0.06344020,0.04915997,0.00963494,-0.01516332,-0.00467441,-0.04044783,0.01254609,-0.03649573,-0.00280507,-0.03232878,0.00350507,0.02163925,0.03101678,0.00782643,0.05798513,-0.01980735,-0.02403058,-0.03937795,0.03573717,-0.03152807,0.02370198,0.00990002,0.01283627,-0.03186369,0.05257293,-0.04811254,-0.04937359,0.04553140,0.02602526,0.01938785,0.08202054,0.01626145,0.02788209,-0.04861688,0.00434444,0.03786765,0.02871807,0.04179357,-0.04570730,-0.00586264,0.02784790,-0.05145795,0.01796497,-0.05939328,-0.01169555,-0.07092696,0.06315921,0.00257385,-0.02010551,0.03476443,0.01110986,0.05567994,0.03296753,0.02570411,0.01335095,0.01045244,0.01365353,0.07560033,0.05609050
-0.03264385,0.03526684,-0.04316716,-0.06276760,0.00246691,0.04163722,-0.01935097,0.02021961,0.05273974,0.05714419,0.03936008,-0.00937270,-0.02019696,-0.00725480,-0.00265034,0.05193186,0.00007327,-0.00749840,0.00004489,0.07972381,-0.01058187,-0.03870234,0.00214485,-0.00692084,-0.03812311,-0.02181277,0.01890613,0.04274503,0.03656596,0.04227134,0.00601056,0.03871949,0.00736967,-0.01618838,0.01574053,-0.05303519,0.02474378,0.02068074,-0.02118767,0.03192309,-0.03683536,-0.01075896,0.00747388,0.02770038,0.07941931,-0.07893716,-0.01891161,0.00715388,0.02789938,0.01839618,-0.00751652,-0.02332936,0.03567735,-0.08937599,-0.02987235,-0.00527295,0.01919199,0.00464921,0.00081560,0.03149230,0.02669078,0.05901397,-0.03066283,-0.04039085,-0.05373472,0.00081777,-0.01472408,0.06327678,0.03007239,-0.03792757,0.00567935,-0.03236812,-0.05243183,-0.01015002,0.00722846,-0.01241744,0.00546808,0.05664959,0.04141232,-0.01932309,0.02180252,0.04202819,-0.03801067,0.01462738,-0.06014960,-0.02769086,-0.00193220,-0.00631329,-0.00997394,-0.04997806,-0.03069215,-0.01645330,-0.00241425,0.01458414,-0.03752666,0.04303883,0.04000895,-0.02363872,0.08079401,-0.03647407,-0.00694611,0.00157773,-0.01400468,0.02867737,0.04257324,0.01921313,0.00345460,0.00560452,0.00725085,-0.09788352,-0.03238970,-0.01903636,-0.04168961,-0.05667852,-0.05504291,-0.00010690,-0.01515610,0.04161446,0.00595987,-0.04930628,0.04609802,-0.06165794,0.02270313,-0.00607223,0.00656497,-0.00565185,0.03211048,0.01127237,-0.00047328,0.05821607,-0.01198991,-0.03443068,0.02808001,-0.00307657,-0.02506110,-0.01182694,0.00361099,-0.01948101,-0.02101238,-0.03411704,0.01616280,0.01738237,-0.00413966,-0.01826533,-0.01391593,0.00534683,-0.06184096,0.03179242,-0.00947486,0.01008489,-0.01175677,-0.02630833,-0.00122482,-0.02367462,-0.01210310,-0.04886374,0.06221718,-0.02440578,0.01893070,0.00895233,-0.04332157,-0.01034807,-0.03108015,0.01315683,-0.05129190,0.02290432,-0.00815249,-0.01231745,0.08166953,0.01149440,0.00715020,-0.05307637,0.03538738,0.03902277,0.00783669,0.04495160,-0.08690023,-0.05765432,-0.00994371,0.10879280,-0.00289249,0.04332621,0.02493566,0.03687016,-0.01925073,0.03598597,0.00986590,0.04937240,0.00673634,-0.03745471,-0.00998251,-0.05038980,-0.03434708,-0.02973905,-0.00137117,-0.02018947,-0.06372533,0.00139160,0.02160895,-0.00364905,-0.02308054,0.00929991,0.03987581,-0.04774188,-0.00562722,0.05036530,-0.00653100,0.03752530,0.05180979,-0.04551061,0.02366828,-0.04503547,-0.01981141,0.01939682,0.02270985,-0.03368584,-0.00824521,0.05168621,0.02497254,-0.04991952,0.03640947,-0.02380043,-0.04118077,-0.07127531,0.03839875,0.05430703,-0.03727568,0.05623559,0.02674861,0.08914646,0.02587908,0.02980441,0.01582429,-0.03663046,0.02357450,-0.02264424,-0.01359259,0.01700572,-0.07011507,-0.00585132,-0.01360890,0.03233708,-0.02248642,-0.02736990,-0.02996189,0.01813699,-0.00043796,-0.01191184,-0.01198158,0.02226291,0.00323373,0.00867574,0.02199847,-0.01153260,-0.05506089,-0.03780928,0.02362539,0.02745655,0.01799333,0.01020104,0.01954568,0.00552833,0.01384002,0.02348901,0.02602810,0.03324368,0.05298496,-0.00939352,-0.00303336,-0.02103575,-0.03957450,0.00578057,-0.10753588,-0.04503557,-0.01905898,-0.01288955,0.01141265,-0.04900449,-0.02713590,0.01168211,0.01311879,0.02926283,-0.04483582,0.11552946,0.01234491,0.00079323,0.04409973,0.02037482,0.03102808,0.01067142,0.06343121,-0.00562539,-0.06211688,0.06174782,0.02632953,0.00050805,0.03824846,0.04634590,-0.00950655,0.00959297,-0.02300175,-0.04478278,0.02261019,-0.01269996,-0.01628914,-0.06102386,0.02211525,-0.02192973,-0.00965793,0.02913909,0.06992275,-0.01971681,0.01500670,-0.03515318,-0.06863086,0.00353065,0.02029683,0.06859116,-0.02799057,0.01309321,-0.04449682,-0.02221177,-0.01302705,-0.03074200,-0.04471003,0.00253002,-0.01064195,0.01319454,-0.03931335,-0.03742085,-0.05969932,-0.00660946,-0.00440315,0.02082781,-0.04956622,0.02189109,-0.03260532,-0.04584524,0.00614673,0.01797537,0.07653182,-0.01185169,-0.05740647,-0.01859262,-0.02447782,-0.05521848,-0.03041815,-0.01069830,-0.03119447,-0.03168118,0.00531226,0.04638953,-0.04349407,-0.02332095,-0.01728238,-0.04639606,-0.00164243,0.06387150,0.04265793,0.00057773,-0.03322348,-0.02897124,0.04277283,0.03866631,-0.06649912,-0.00375665,-0.00128278,-0.09815361,-0.00014657,-0.03820574,0.03253189,-0.01643223,0.02995396,0.00175194,0.01132419,-0.00710679,-0.05328140,-0.03771844,0.03370262,0.03845695,-0.00966535,-0.02906376,0.01741845,0.00819023,0.02405626,-0.02186325,0.01818464,-0.00212607,-0.01670837,-0.01384190,0.05040231,-0.04306507,0.00089982,-0.00984119,-0.00608874,0.01174838,0.06326818,0.01264197,0.00971742,0.00621006,0.03613339,0.04356317,-0.00096487,-0.01930438,-0.00107114,-0.02059578,-0.00627715,0.02358659,0.00493725,-0.00966822,0.02401366,0.01721210,0.00929495,0.10321580,-0.03918715,0.04454464,-0.01068623,0.04434323,0.00381348,0.02874565,0.03282587,-0.05033620,-0.03463834,-0.06457321,0.02229476,0.01611399,0.00915218,0.00364407,0.01534672,0.04424366,-0.04002648,-0.02499552,-0.00924855,0.05373625,-0.00856181,0.01757387,-0.01601800,0.02583115,0.03638673,0.01049731,0.08577968,0.06775539,-0.05567267,0.05837409,0.03671782,-0.01681213,-0.01599573,-0.05764795,0.02351530,-0.03861410,-0.03202154,-0.00812387,-0.03555381,-0.00064131,-0.01738109,-0.02396008,-0.02823361,0.01040896,0.05579071,-0.01818639,0.06491646,-0.03651209,0.00114282,0.00735067,-0.00255607,-0.02042734,0.05519170,0.01901042,-0.00338132,0.05134822,-0.01748011,0.03195218,-0.01818664,0.00461751,-0.10328738,-0.02443687,-0.02413746,0.04405829,-0.02132717,-0.00552872,-0.04532111,-0.05253713,-0.04000526,0.06736333,0.01104174,-0.00520324,-0.01678636,0.00151260,0.03974626,-0.02187596,-0.03016350,-0.08385403,-0.05307330,-0.01491617,0.04390581,-0.06611566,-0.03933413,0.03367362,-0.00864396,-0.04254027,0.02855049,0.01283854,-0.02459300,0.04938137,-0.03820773,0.02554039,-0.00808633,0.03112348,-0.01128880,-0.00134150,0.01816293,-0.04596730,-0.02511588,0.01861159,0.01314832,-0.00049629,-0.05542630,-0.01295941,-0.02801084,0.01019015,-0.04168515,0.08501165,0.01794840,-0.00154625,-0.03842229,-0.01271138,-0.07958051,-0.00222936,-0.04720333,-0.06601122,-0.02076201,0.02122431,0.05300599,-0.04396566,0.00491068,-0.01775464,-0.03414823,0.02146416,0.02380787,-0.02458912,-0.00250670,-0.00450054,0.00405301,-0.04333180,0.01281926,0.04486624,0.00508787,0.01837124,0.04906099,0.02688500,0.02746083,0.04111415,0.01124242,0.00792033,0.02925259,-0.03303143,0.07124588,-0.03856396,0.04128665,-0.01001802,0.01192517,0.00060884,0.01638494,0.03416222,0.02675040,0.05068605,-0.01138940,0.03046528,-0.01481930,-0.00570384,0.03021439,-0.01727221,-0.06719633,-0.11522172,-0.02533400,0.03002534,-0.02573613,0.13872114,0.05157343,0.02539288,0.07462111,-0.01644700,0.00805502,0.00566019,0.02324597,0.06269015,-0.00688600,-0.00584460,-0.03229252,0.00492122,-0.03872966,0.02292350,-0.02306444,-0.00411788,0.01467127,0.05655445,-0.03951295,0.07302874,0.02653443,0.02332850,0.02925368,-0.00690066,0.02243815,0.01532843,0.03801792,-0.01635884,-0.03856002,-0.02367556,0.02100528,-0.01970461,0.05656446,0.01400382,-0.00870764,0.02783312,0.02591816,0.04293528,-0.02726233,-0.01471354,0.03352247,0.01792413,-0.01882003,-0.02095657,0.09345276,0.01884754,0.02353689,-0.06207944,0.05055487,-0.00388682,-0.00148503,0.02122864,0.02246183,-0.02511671,-0.01632473,0.03877421,-0.03716204,0.00391537,-0.04439982,0.05273568,0.02878354,0.00121966,-0.06168210,-0.08014623,-0.00323165,-0.00381615,-0.04211821,0.02307021,-0.05735194,0.01116750,-0.02513151,0.00193041,0.00959240,-0.01420280,-0.01894198,-0.00122772,-0.06035339,0.00289585,-0.00609480,-0.00066136,0.02077530,0.01022391,0.03428633,-0.00426891,-0.06044610,-0.01712557,-0.05647188,-0.01007507,0.07163835,0.02027786,-0.03350287,-0.03509150,0.03623185,-0.00837300,-0.01718799,0.04704950,0.01149721,-0.04109788,0.02250393,0.00511909,0.01356896,-0.04736004,-0.01303911,-0.01918553,-0.02529846,-0.00085117,0.01818047,-0.01493897,0.05289973,0.02175383,-0.00908245,0.03009501,0.01502163,0.02389981,0.01888564,0.01158615,-0.05425198,0.01587745,-0.02011919,-0.00437613,0.01858795,-0.02393246,0.02835712,0.02606321,0.03737114,-0.04281498,-0.00240224,-0.01624540,0.03195849,-0.03290576,-0.01173618,-0.04636782,0.02625743,0.04801391,-0.00392994,0.03290666,-0.04892926,0.01119382,-0.12304980,0.02784830,0.01792558,-0.01850632,-0.04326509,0.00562104,0.01095770,0.03864350,-0.01026148,0.00377180,-0.02547492,-0.03228143,-0.05278755,-0.03770820,-0.03243136,0.00653863,0.06943955,0.00506702,0.00626574,0.00764041,0.01762725,0.01980109,0.02103125,0.07162103,-0.02244141,-0.03427091,-0.03415301,-0.01406355,0.08177036,0.03115297,-0.03507018,-0.04970379,0.01755826,-0.01104713,-0.00220593,0.02988702,-0.00556687,0.08101149,0.00270160,-0.03686949,0.07725591,0.01843468,0.05846565,0.00746983,0.04805129,0.02399901,-0.11159728,0.01378877,-0.03872335,-0.05232180,0.13793890,0.00634007
0.01108253,0.03306269,0.01299388,-0.03264385,0.04298226,-0.03753732,-0.00134222,0.00984975,-0.00759013,-0.02280453,-0.02292605,-0.01541229,0.02168857,0.07051665,0.00076594,-0.00333607,-0.02755627,-0.01664199,0.09979914,-0.00231850,0.01813575,-0.04622641,0.05697552,0.05859637,-0.03783319,0.03341683,0.03698502,0.03190079,-0.02893227,-0.02961233,-0.01046469,0.06906097,0.03904198,0.02332425,-0.00939550,-0.00995561,-0.02701654,-0.00216020,0.02688351,-0.01745684,0.02004961,0.00226633,-0.02197564,0.00712420,0.01162862,0.00013468,-0.03099786,-0.04186306,-0.02841819,-0.00687924,-0.06182230,0.01178642,0.01681246,-0.01897127,0.05859687,-0.03262009,-0.04353259,0.02984670,0.01359765,-0.04093615,0.03564142,-0.05695881,-0.01268381,-0.01367190,-0.08746076,-0.02476693,0.00930367,0.03182609,-0.01396183,0.02524843,0.03995873,0.01042489,-0.00142536,-0.05027520,-0.00808723,0.00647869,-0.05494700,-0.03837698,0.03790451,-0.00324713,0.00203965,0.00427683,0.03214295,0.02660137,-0.05851907,0.04610901,-0.05295597,-0.03773441,0.02305244,0.01860864,-0.00885174,0.03630519,-0.02077277,0.00990257,0.05653004,0.02109630,-0.03802670,0.00180035,-0.00004671,-0.03415520,0.01168260,0.02555897,-0.01089391,0.10889549,0.03168944,0.07547902,-0.00720819,-0.00788702,-0.00345430,0.03113886,-0.06629432,0.00380392,-0.00305907,-0.01104657,-0.00572123,0.01014573,-0.01219245,0.06013539,0.03549713,0.02317176,0.00276515,-0.04699675,0.01893266,0.10097568,-0.00455469,0.00401162,-0.01657911,-0.04045612,0.05010298,0.03706431,0.00710395,0.02521232,-0.11004655,0.02197533,-0.02893043,0.00793796,-0.05523297,0.04402874,-0.00068526,0.06419450,-0.04679217,0.02083902,-0.00693635,0.01883128,0.05941703,-0.02409713,0.01207505,-0.01930352,0.01878569,0.06508683,0.04217852,0.01471509,-0.04464599,-0.00244879,-0.02234580,-0.00091549,0.03393254,0.00274423,0.05323244,-0.04541982,0.00119936,0.00819899,0.00714447,-0.00770322,0.00349167,0.03710477,0.04288160,0.02378570,-0.03771351,-0.03501578,-0.02019110,-0.04314964,-0.02200175,-0.07957438,0.02849880,0.03486560,0.01838766,0.00730806,0.03889449,-0.07290959,-0.02940913,-0.02119404,-0.03996360,0.01082678,-0.01349468,-0.00866520,-0.03572239,-0.00674955,0.01445114,-0.01948971,0.00805524,-0.01052650,0.03665050,0.02658979,-0.06085845,-0.04716907,-0.02615006,-0.04163442,0.02858039,-0.03890513,-0.02101041,0.03187491,-0.05379079,0.02980994,0.01067158,-0.05325724,-0.01295333,-0.00526549,-0.04400321,0.01106671,0.03266450,-0.02890827,0.03338645,0.06675065,0.01724896,-0.00409449,-0.00034004,-0.04011830,0.05209772,0.00661168,-0.00687967,-0.02844562,0.01600345,0.00953163,0.00702411,0.00272712,0.02824793,0.01709539,0.03390203,-0.00515266,-0.03189757,-0.02816554,0.04340717,0.01072494,0.00938786,0.02493178,0.04577791,-0.02400511,0.05260155,0.00281055,0.03633420,0.05149972,0.03140756,0.04622276,0.01117209,0.03689875,0.00384939,0.01461499,-0.00644711,-0.09413342,-0.01570848,0.00291547,0.00362893,0.00627729,-0.01965778,0.03690541,0.05434036,0.05294013,-0.02995496,-0.00891432,-0.04574808,-0.02483162,0.06577427,-0.00062683,0.02371325,0.04170676,0.01547660,0.05307405,-0.01949462,-0.00613685,-0.00311355,-0.01148708,-0.02119713,0.01138329,-0.01859315,0.03607286,0.03120902,-0.06045382,-0.06106000,-0.00730974,0.03923118,0.05427425,-0.00162432,0.00268658,-0.01473723,0.01560448,-0.00861367,-0.01340473,0.02237271,-0.00062591,0.00859050,-0.01688259,-0.02550419,0.01165837,-0.01416182,-0.00042363,-0.07428553,-0.01683447,-0.07600777,-0.00536918,-0.02749296,-0.04949899,0.06588325,-0.05398601,0.05820411,0.05935707,-0.00576849,0.00430605,-0.04367030,0.01290569,-0.00578295,0.06946721,0.06681103,0.01128268,0.05627648,-0.06716149,0.04492102,0.00959962,0.04056376,0.04779724,0.00300261,-0.01995394,0.05083263,-0.02104203,0.01933938,-0.04412230,0.04304428,-0.03651442,0.04093501,0.05288815,0.06344471,0.02194030,-0.02891850,-0.00812347,-0.01085751,-0.00562164,0.00078943,-0.01589232,0.02008820,0.00117644,0.02582157,-0.01288113,-0.01418651,-0.01142349,0.00592141,-0.03518201,-0.00916142,-0.06004518,-0.04271988,-0.01544491,-0.02345485,-0.00148377,-0.00783475,-0.05458353,-0.02681249,0.00827356,-0.02901783,-0.06124589,-0.06362000,0.04558856,-0.00755351,0.03049929,-0.01365998,0.00890863,0.00018150,0.01098505,0.00853804,-0.01003704,0.03068141,0.03885174,-0.00440146,0.05221546,0.01323412,-0.01665355,0.00499794,0.02518863,0.08203002,-0.06902305,0.05284617,0.03317939,-0.03523895,-0.06225937,-0.01076302,-0.04255650,0.00538539,-0.02933536,-0.02196864,0.05188213,0.05206166,-0.07310326,-0.04498112,-0.06416424,0.01204326,0.01891595,-0.01990661,-0.04064017,-0.04550909,-0.01455308,-0.02795221,0.00318921,-0.01938403,-0.07304864,-0.03200063,-0.04499739,0.04320199,0.03177534,0.03214581,0.00726761,0.00528171,0.00466557,-0.04014947,0.00372913,0.05109769,0.06760996,-0.02484024,-0.01415097,0.01979524,0.01990237,-0.00888352,-0.06867574,-0.03652991,-0.00653114,-0.01985775,0.04313909,0.01201436,-0.05936714,0.00004962,-0.00004268,0.00017757,0.00376877,-0.01868130,-0.06125004,-0.04948726,0.04265054,-0.03483345,0.01282956,-0.04860831,0.07410016,-0.04756510,0.02255652,0.03256820,-0.00494853,0.01630609,-0.04629388,0.06234217,-0.01642036,0.02753536,0.02372405,-0.04411349,-0.01392088,-0.03669812,-0.03732607,-0.00280710,0.01631095,0.03564730,0.06508823,-0.06133922,-0.02006360,-0.07536567,0.00113109,0.01886600,-0.05378517,-0.05034740,0.00105750,0.04323966,-0.06164599,-0.05970298,-0.01035985,0.00110923,0.01745242,-0.03861051,-0.07916643,-0.00255393,0.01226433,-0.06352504,-0.00480037,-0.03087365,-0.02725426,-0.01984098,0.00730786,-0.01096303,0.05197231,-0.02389888,-0.07135499,-0.06425854,0.00069452,0.03254361,0.05343963,-0.04222650,-0.02208318,-0.00889182,0.01042376,0.04931092,0.02476013,-0.00276469,-0.06368663,0.00222449,-0.03663561,-0.01466817,0.09861829,0.05006778,-0.00604553,0.01490710,0.01721355,-0.02703424,-0.00954439,0.03697745,-0.01218830,-0.02147569,-0.01708709,-0.00329061,-0.04039133,0.01745061,0.04035107,-0.02929622,-0.02472700,-0.01366494,-0.07920414,-0.03589782,-0.01817882,0.01253694,0.03451022,0.01748914,-0.00269733,0.01847014,-0.01842312,0.03278510,-0.03079750,-0.00357953,-0.01329803,-0.00986705,0.01320511,-0.00335443,-0.05167683,-0.02770650,-0.00191504,-0.03413569,-0.00420394,0.02736609,0.00859025,0.02170971,-0.02327122,0.00850773,0.00922440,0.02533342,-0.01159071,-0.00934534,0.00126173,0.05474680,0.01490572,0.00902785,0.05101118,0.03210258,0.03638307,-0.01007788,0.01305131,-0.04537112,0.00097763,0.02146240,-0.02789123,-0.01020504,-0.00732749,0.00027188,-0.01997797,0.02554547,0.01809923,0.01298909,0.02667508,-0.01797887,-0.03247632,-0.01310364,0.02391970,-0.06198366,-0.01581120,0.03924641,-0.02480148,-0.01336283,-0.00106644,0.02935071,-0.00941701,0.01168659,-0.04898043,-0.03253906,0.03158735,0.02647294,-0.05669264,-0.01195488,-0.01635697,-0.02020536,-0.05300505,0.03965691,0.02489821,-0.00196481,0.02922992,0.01690483,0.03486213,0.04678045,0.00019821,-0.03526149,0.02064922,0.03601700,0.06601890,-0.03194057,0.03032446,-0.00285998,0.03397094,-0.00214751,0.03793184,0.05998221,0.02981151,0.00200914,-0.01705074,-0.01230412,0.00334089,0.08191743,0.02298476,-0.03558931,0.02740997,-0.04701754,0.02920128,0.04493094,-0.01030396,-0.03041465,0.01730598,0.00142990,0.02992068,-0.02647642,0.00573502,0.05022624,0.03512233,-0.04669385,0.03659299,0.01760552,-0.02600926,-0.02925560,-0.03716340,0.01433025,0.02457029,-0.01337966,0.04182613,0.05601851,0.05040499,-0.04673692,0.00418513,0.01973668,-0.03358636,0.00839298,-0.02783194,-0.02837446,0.02214562,-0.05319988,0.01016177,0.04402177,0.04857082,-0.02414981,-0.02059894,-0.06140630,-0.00623376,-0.00102817,-0.00510795,-0.04280011,0.02163851,0.02467179,-0.00152608,-0.05430283,0.00206423,-0.02855849,0.02961599,-0.00396207,-0.02074917,-0.03905580,0.04094213,0.00577768,-0.04287553,-0.02957713,0.03101489,0.03015103,-0.04445696,0.00026998,-0.05849274,-0.01851577,0.03026938,-0.03752429,-0.03020423,-0.01828553,-0.01743848,0.01047675,0.01191089,0.03976002,-0.05947820,-0.01365951,0.00979433,0.02551770,0.04704786,-0.03814115,0.04101677,0.00840032,-0.04021594,-0.06119664,0.13025464,0.00598355,-0.03066548,-0.02044370,0.03661963,0.02451781,-0.01226413,0.00758556,-0.04443597,0.03692028,0.07113899,-0.04237296,0.01992111,0.07719672,-0.00998534,0.05730590,0.00405099,0.00274795,0.02070446,-0.00989534,0.04023769,0.00866665,0.07681562,0.07656675,0.12413328,0.02984975,-0.06549419,-0.00144722,0.00570921,0.01355679,-0.03324892,0.02090856,0.02730939,0.00806215,-0.03074505,-0.02971043,-0.03486795,0.00496212,0.03293695,0.01210907,0.01173915,-0.00803923,0.00126690,-0.01478604,-0.02091688,-0.02800400,0.01886182,0.00665815,-0.02833768,0.05412003,-0.02249443,0.01536497,-0.00111472,0.01219423,-0.06218526,0.03895278,-0.04349166,0.01422774,-0.04866653,0.05644777,0.02310285,0.00581789,0.04969594,0.05763246,-0.03010546,-0.00578105,-0.02657406,0.02488401,-0.04680566
-0.04412016,-0.00355367,-0.00481588,0.06075910,-0.00626090,-0.02405653,-0.06217783,0.07129800,0.00870775,-0.07194725,0.05473192,-0.02310874,-0.04734459,-0.01337973,-0.04419197,-0.01442382,-0.04123567,0.00048439,-0.03182418,0.00988206,0.01424101,0.01240814,0.00863495,0.00497300,0.06092898,0.00875499,0.04734532,-0.03666410,0.01901174,0.02004894,0.02630886,0.04506603,-0.02927668,-0.02434039,0.00031844,0.07736678,0.04578158,-0.08263709,-0.00945840,0.01248005,-0.03724304,-0.00281219,-0.03520823,-0.00116125,0.02844811,-0.00303828,-0.01879509,0.02497395,0.02401918,-0.05407555,0.03534672,-0.00267570,-0.04398044,0.11559153,0.01533415,-0.00832864,0.02805259,-0.04641481,-0.02096657,0.00782229,-0.00099364,-0.00259492,-0.03996658,0.02902195,-0.05088075,-0.00389130,-0.02076121,-0.11007200,-0.03557483,0.02670064,0.05171545,-0.00245754,0.04473338,-0.00892504,-0.05487579,0.03312021,-0.01878402,0.01176874,0.04099458,0.06159311,-0.04480344,-0.03956410,0.00245908,0.00200227,-0.04189553,-0.04634745,0.00700457,0.01913193,-0.00690284,-0.00458581,0.00097122,0.03283225,0.02762181,-0.03177311,0.03145805,0.02791395,0.03407326,0.05810133,-0.06722834,-0.03078993,0.01498266,-0.00244047,-0.02554770,0.04163331,-0.02844963,-0.06828126,0.02788927,0.02431957,-0.00109548,0.04342214,0.06456777,0.04207965,0.03168664,0.05869392,0.00278502,-0.00222784,-0.01731196,-0.03655349,-0.04937241,0.00306226,-0.06872256,0.08079744,0.04455138,0.00599511,-0.01924755,-0.04144692,-0.11829262,0.05440324,-0.01096983,-0.04919355,-0.01466779,-0.02504897,-0.01036656,0.01800215,-0.00576412,0.01516607,-0.07642352,0.04127381,0.01355130,0.04110365,0.03418851,0.03233650,0.02224990,0.05420496,-0.00972030,0.05670094,0.01545180,-0.01009177,-0.04107722,0.02203064,-0.04747618,0.02264086,0.01966127,0.02392079,-0.03448942,-0.03684443,-0.01950553,-0.06515138,-0.02996643,0.03514747,0.03223945,-0.05713158,-0.04110898,0.00462655,0.03276883,-0.01322024,-0.00862062,0.01899834,-0.02475226,-0.00145374,-0.02733776,0.00682876,0.03167883,-0.02232770,0.02597340,-0.07814173,-0.00462275,0.05917210,0.01910987,-0.02393536,0.01639568,-0.02490748,0.00711646,-0.01477448,-0.01138197,-0.00570321,-0.03289810,-0.04478266,-0.02239757,0.03578916,0.04372405,-0.02267325,-0.03861870,0.01179503,0.02342654,0.02006160,0.01326527,-0.05988044,0.00223813,-0.01861077,0.07452895,0.01704051,-0.02609604,-0.01569571,-0.04318186,-0.01270002,0.01031996,-0.00542311,0.00556921,0.07013775,0.02057741,-0.02688839,0.07518184,0.00205369,0.00881759,-0.05565251,0.01166987,-0.00404985,-0.03664112,0.02171253,0.03305208,-0.02926576,0.01193982,-0.03837501,-0.00822983,0.10213981,0.05824776,0.06368713,-0.00678107,0.00840811,-0.00628778,-0.01928162,0.04053855,0.03798459,0.06748468,0.04000264,-0.05125107,-0.01495629,-0.03377320,-0.01048023,0.01584183,-0.03533644,0.01882387,-0.03559124,0.04976521,-0.03227133,-0.01165715,0.01650968,0.01851323,0.03567341,0.06981467,0.00200059,-0.00493512,-0.04402130,0.05506759,0.02068277,0.00895963,0.04828131,-0.03762612,0.00000987,0.00822732,0.02420570,-0.05148347,-0.04529453,0.03751038,-0.07356072,-0.01727638,0.01244701,0.03808625,-0.00848979,-0.00082362,-0.06363542,0.00291594,0.06321310,0.02613751,0.01502545,-0.05262063,-0.00290550,-0.00888764,0.06202865,-0.02892943,0.03998779,-0.01825729,-0.00110255,-0.00724146,-0.04607176,0.05244458,-0.00347362,-0.08922780,0.01974941,0.02208117,-0.03956629,-0.02511266,-0.04116362,-0.00100038,0.02055526,0.14726284,-0.02598718,0.00150261,0.00155364,0.01337957,0.05501823,-0.00436889,0.03246154,0.05093385,-0.00763640,-0.03027377,0.05110535,0.04119608,0.00226389,0.00247042,0.07377561,-0.03285908,0.03020893,0.01761390,-0.00748202,0.01344734,-0.02389096,0.00191356,-0.09821259,-0.04884007,-0.01234972,0.02003311,-0.03095938,-0.02666193,-0.01869202,-0.00918982,-0.02000266,-0.00596638,0.05888515,0.02853185,-0.07632209,-0.03923201,0.02706610,0.01726709,0.00261794,0.07864559,0.02168804,0.02012840,-0.00107098,-0.00552630,-0.04172562,-0.04574192,-0.02577797,0.05104371,-0.03510141,0.05558838,0.02950955,0.01236162,0.00401140,0.03011144,-0.03972408,0.00091739,-0.02532932,0.04407629,0.04438810,0.01484701,0.00282117,0.02556906,0.02030586,-0.02091573,0.03784341,0.00367077,0.00141491,0.00159531,0.02378794,-0.05349704,0.00298326,-0.01285762,-0.01780394,0.00957324,0.02514444,-0.04058189,-0.04867567,-0.01918335,0.00167027,0.00904861,0.07907484,-0.00435629,0.01152930,-0.03041512,0.08051479,0.01202619,0.04688024,-0.00271955,-0.01004088,0.01799747,-0.05065249,0.02227625,0.05722515,0.00240116,0.01797242,0.00883898,-0.08123930,-0.03169500,-0.02269399,-0.01155945,-0.00171397,0.03721466,0.03098653,-0.02528171,0.00112397,-0.00191601,0.03710419,-0.05748953,0.04400277,0.00617452,-0.01993699,0.03433218,-0.02918461,-0.02916401,-0.08518129,-0.06229496,-0.02312747,-0.03517461,-0.02654249,-0.02815436,0.06073264,-0.06855578,-0.03469596,0.00908956,0.00272350,-0.01780162,-0.02799618,-0.02817390,-0.03097749,0.04630212,0.03908519,0.01984681,0.02293387,0.03091778,-0.02017725,-0.02484361,0.01427520,-0.02941834,-0.00405953,0.00440392,-0.00347443,0.03749057,0.01106774,-0.04768318,-0.01763186,0.04867851,-0.10135381,0.07893638,0.00709249,0.02821414,0.05197040,0.01291578,-0.00058147,0.00511583,0.00068656,-0.03405999,-0.01709525,0.02764188,0.04405452,0.02369998,0.06489272,0.00774932,-0.02825154,-0.02284208,0.03649982,-0.06268256,-0.07470849,-0.03122384,0.09712790,-0.00972847,-0.04065824,0.02693702,0.04748548,0.01250865,0.02933372,0.01411142,0.03838895,0.00031639,-0.02180098,-0.00438665,0.01987199,-0.00853785,0.01049791,-0.03688140,0.03154343,-0.07623503,0.00574289,-0.01938321,0.04217512,0.02805845,-0.01631437,0.00594468,-0.01916442,0.02725795,-0.00425720,0.00207288,-0.04429129,0.03681456,0.01589549,0.04860884,-0.03112216,0.00889624,-0.09161223,-0.02663355,0.02756101,0.01896890,0.05441776,0.00470302,0.01507638,0.05377914,0.02674314,0.01915965,0.01218064,-0.01320187,0.06658306,0.02342057,-0.02017562,0.04271726,0.02308650,-0.02080999,-0.01562025,-0.02278105,0.02282081,-0.00436537,-0.02305480,0.00486412,-0.04137589,0.03704226,0.07194731,0.00083753,0.02071175,0.07930353,-0.00721738,-0.01630043,-0.03835500,-0.00866495,0.00861237,-0.00041303,-0.00790633,0.07127139,-0.03234188,0.05068187,0.05881741,-0.11830840,-0.03492181,0.04374022,-0.00545449,-0.03797556,0.03218136,0.02495199,0.02615981,-0.00457449,0.04048688,-0.00285462,-0.08459141,-0.01893998,0.00740501,0.01003464,-0.04415262,0.02951985,0.01364630,0.03428838,-0.00997215,-0.00997827,-0.01138571,-0.01167018,0.02385210,0.03122619,-0.05791257,0.03040126,-0.01284529,0.04001156,-0.03366658,0.02349833,-0.00334200,0.01569599,-0.04208962,0.07023925,-0.03209496,0.01035098,-0.06065890,-0.00289546,-0.04576068,0.02787850,-0.01046156,-0.03732028,-0.00962691,-0.01488966,-0.07660912,0.01502822,-0.06060594,-0.00807185,0.03524505,-0.00744262,-0.06278978,0.01488932,0.02341844,0.02958525,-0.02423024,-0.01010522,-0.03346871,0.00517263,-0.02785659,-0.06834025,-0.02154553,0.06099817,-0.02994572,0.05411812,-0.04633828,-0.00317799,0.03639321,-0.01640468,0.03549958,0.00193907,-0.05770998,-0.07298984,-0.05756078,0.00163862,0.01763118,0.09120972,0.03464522,0.05946690,-0.00006826,0.04076580,-0.01453021,-0.01964490,0.02324912,0.03503582,0.07567385,-0.04802806,0.06406794,0.02760069,0.02426285,-0.03860496,-0.06744050,-0.01402186,0.01875680,-0.00993951,0.03433114,0.01484728,0.02012672,-0.01132849,0.03761256,-0.01950824,0.06920702,-0.05324462,0.01612489,0.00355124,-0.04305336,-0.04686926,-0.00370035,0.03999634,0.04181922,0.01740175,0.00139641,-0.02030408,-0.03358283,0.06555556,-0.01076713,0.04014005,-0.04430024,0.04025115,-0.04797366,-0.00896523,-0.06897549,-0.00097809,-0.00074921,0.01562485,-0.03609628,-0.07676060,-0.05015093,-0.02441487,-0.02499140,-0.00312867,-0.02312348,0.01666599,-0.00902629,-0.05139347,0.01555086,-0.04606347,-0.04115966,0.02951416,0.06447031,-0.01663338,0.00870596,-0.04826565,0.05184097,-0.03224998,-0.04457421,-0.02601865,-0.00218602,-0.02923996,-0.01031150,-0.01199365,0.00786547,0.03077075,-0.03814727,0.04814636,0.01969231,0.02437410,0.00747841,-0.03382045,-0.04941824,-0.05382388,-0.01129646,0.00936871,0.02087916,0.01735344,0.01117746,-0.05807384,-0.01414874,-0.01053009,-0.02609444,0.05362215,0.07479073,0.03869395,0.04120458,-0.02115889,0.01663571,0.06728724,0.02495726,0.02030412,0.00660535,0.07534447,-0.00184550,-0.00425769,-0.07878592,-0.01837421,-0.00269298,-0.01346079,-0.03434362,-0.06043765,0.03359522,-0.06500941,-0.02481878,-0.00904274,-0.04296844,-0.08133232,-0.02570181,0.03206784,-0.00831385,-0.01593407,0.00627390,0.10290041,0.06255659,-0.00267066,-0.03593059,-0.00922109,-0.01307630,0.01606027,-0.01737434,0.05652181,-0.01581689,-0.01122299,0.05992756,-0.01208195,-0.05500169,-0.06788023,0.07333241,-0.03823374,0.02094411,-0.04331060,-0.00211277,-0.00926891,-0.01006330,-0.04863653,-0.01195121,0.02332018,-0.00606992,0.00821366,-0.02550520
-0.02066467,0.02888895,0.00629042,0.02578247,0.01175688,0.01895376,-0.01081050,0.04069306,-0.00424327,0.01576975,0.05240053,-0.00562355,-0.01297107,0.04391353,-0.03089630,0.06849620,0.03183096,-0.00078859,0.01636322,0.02532953,-0.01057151,0.02923859,-0.02444772,-0.00368944,0.01185151,0.01805016,0.00730566,0.00674673,0.02937138,-0.01104826,-0.00541646,0.01419594,-0.01471942,0.01045088,-0.03096558,-0.03398683,-0.03354978,0.00974198,-0.03066876,0.00367183,0.00572856,-0.01757314,-0.01550066,0.04037169,0.05426463,-0.05375643,0.01398323,-0.03009868,0.02953199,-0.00439977,-0.04213241,-0.01743724,0.00426791,-0.20716794,-0.06321673,-0.01192233,0.01831149,0.03481584,0.01316472,0.00829490,0.02512879,-0.10184154,0.04035027,-0.00642386,-0.01310574,0.03165523,-0.00807332,-0.03418728,-0.02996981,0.02426037,-0.01500717,-0.01050957,-0.05094437,-0.06195281,-0.00773805,-0.00524241,-0.03410044,-0.06727064,0.01594348,-0.02352041,0.00249364,0.09597956,-0.06265412,-0.06604989,-0.09130431,-0.01739644,-0.00861648,0.00243708,-0.00634986,-0.00002554,0.02514580,-0.01484488,0.06504860,-0.03875453,-0.06528372,0.04837050,0.05837238,-0.08840171,0.04861278,-0.02789018,-0.05316115,-0.01724192,-0.03682535,-0.01349998,-0.02106778,0.06502330,0.00873543,-0.00777460,0.05774515,-0.06642063,-0.05050056,-0.02595633,0.02200995,-0.02900253,-0.02836199,-0.01197143,-0.01329789,0.03570925,-0.02331049,-0.07387417,0.06618140,-0.10983453,-0.01771335,-0.03922693,0.09299291,0.02119318,-0.03082645,0.01890952,0.00497224,-0.01799201,0.01558999,-0.02286485,0.03660911,0.04806139,-0.04509076,-0.02326803,-0.03772499,-0.03703591,-0.01693208,0.05526637,-0.02316185,0.03675425,-0.02891310,-0.04657982,0.01046755,0.02360754,-0.01064348,-0.00193589,0.02257871,0.01087405,-0.02462177,0.01388467,0.03116766,-0.02190236,-0.01027149,-0.06232663,0.09369699,0.05028082,0.05712855,-0.31190750,-0.07015956,-0.04231067,-0.00905323,-0.07100448,-0.00586301,0.03710435,0.04935767,0.01359001,0.13573527,-0.05840529,-0.03907418,-0.02905986,-0.03393934,-0.00872389,-0.00487096,0.13883591,-0.02439284,-0.01646346,-0.04208831,0.03203680,-0.00544025,-0.00158432,0.00957747,-0.00770223,0.01015476,-0.01869192,0.00587519,0.08621588,-0.00440124,0.02731072,0.02937533,0.02535477,-0.01694772,0.03327915,-0.07067373,0.03703547,-0.05615194,0.02407880,0.00144443,-0.05500238,-0.00550647,-0.00386676,-0.03600398,-0.01223874,-0.01674651,-0.03056492,0.01330420,-0.01841657,-0.01424357,-0.04088323,-0.03729004,0.01321049,0.03068629,-0.01516796,-0.00792049,-0.03225404,0.43394616,-0.03468688,0.00832226,-0.00904760,0.01401432,0.02405841,-0.03311406,-0.05284443,-0.00128788,0.10134053,-0.05253612,-0.00677302,0.01505889,0.01567131,0.04964888,-0.02001118,0.04940693,-0.03361697,0.02127829,0.02392287,-0.01072351,0.02359078,-0.00799115,-0.01480961,0.01876364,-0.00624136,0.04975114,0.01581888,0.00606371,-0.02217196,-0.01828714,0.00070766,0.00777702,-0.01308925,-0.00064062,0.00848144,-0.03899271,-0.00756244,-0.05176434,-0.01934352,0.03356740,0.01864117,-0.02887296,0.01197476,0.01409145,-0.01332149,0.08523411,-0.04728070,0.01111325,-0.00377404,0.03173252,-0.00565888,-0.03728295,-0.01324337,-0.06125626,0.05401989,-0.05471914,-0.02964475,0.02407634,-0.00057336,-0.00001033,-0.03085652,0.01755644,-0.00262077,0.00349748,0.04812301,-0.03788291,-0.07881757,-0.03784307,0.01586957,-0.01798357,0.00963812,0.02914992,0.03351262,0.02569672,-0.03710030,-0.01131979,0.02752522,-0.01213736,-0.03869798,-0.04729268,0.01493790,-0.01771837,0.00428662,-0.01683522,-0.02761099,0.05301248,0.00841551,-0.09357749,-0.01794915,0.01627910,0.01042848,-0.00640435,-0.00591286,0.01173384,-0.06158284,0.00480853,-0.01409087,-0.07670990,0.07106912,0.02982872,-0.03014730,0.01184977,-0.04641127,0.03057598,-0.00910216,-0.02657474,-0.02009264,0.01557860,0.02329878,0.00205031,0.03869952,0.00243486,0.01354991,-0.03212640,0.00029027,-0.09916154,0.00983381,0.02329898,0.01762978,-0.06745520,0.00416293,0.04773025,-0.03517284,-0.01828612,-0.06817229,-0.06808829,0.00345994,-0.03216318,0.03849225,-0.01389743,0.04687767,-0.05754234,-0.05854544,0.01438483,0.01855961,0.02478878,0.08859248,-0.00680864,-0.00404062,-0.01077040,0.03097910,0.09462497,-0.03319406,-0.03055186,-0.00828116,-0.02522657,0.01820562,-0.00606163,-0.03206322,0.02489091,-0.00896683,-0.00422041,-0.02837488,-0.01452246,-0.06259350,0.01117181,-0.03768345,0.04440860,0.03892767,-0.00297120,-0.05987753,-0.02075960,0.00418017,-0.04210160,0.01699864,-0.01449914,-0.04236886,-0.01138409,0.02439321,-0.01671208,0.06083051,-0.00617529,-0.04835577,-0.01039284,-0.01603169,-0.02093318,-0.03862694,-0.00848040,0.02143859,0.00533775,0.01496802,-0.04512535,-0.03050953,-0.03487562,-0.04456800,0.03178651,0.02459084,0.00368230,0.00482764,-0.01865620,-0.01493469,0.02166117,0.02648984,-0.00563570,0.03945716,0.02957735,0.08752967,0.03184300,0.02279316,-0.02035081,0.02667932,0.00756894,-0.08199599,-0.02596007,-0.00532929,0.02893172,0.00248352,-0.06568445,0.02094769,0.02981924,-0.04940852,-0.04595885,-0.02492840,-0.00276683,-0.00829335,0.01927426,-0.01796143,-0.01427349,-0.03987819,-0.02370554,0.05580876,0.00207197,0.02504647,0.06530596,-0.01712957,-0.01911273,-0.04489266,0.00020477,-0.08385887,-0.05961423,-0.06593161,-0.04949779,-0.04632746,-0.01841597,-0.03218228,-0.05675857,-0.03874965,-0.02647347,-0.01026685,-0.01803746,0.02358436,-0.00646073,0.00264511,0.03059263,-0.07930154,0.02234558,-0.00730156,0.03616392,-0.03160810,-0.00928013,0.03913642,0.02141897,0.00767831,0.00461576,-0.03012893,-0.01997690,-0.05474475,0.01553620,-0.03173218,-0.07624645,-0.01174944,-0.00188951,-0.02930620,-0.03543315,-0.02426055,-0.06498100,-0.01234542,0.03771792,0.00953623,-0.00016359,0.05609219,0.02327395,-0.02484885,-0.04036690,-0.02907985,-0.08901666,-0.07594723,-0.02257807,-0.00266513,-0.02301547,0.00565832,0.00665917,-0.02073104,-0.02444386,-0.02302896,-0.01366086,0.00355964,0.01329958,0.03326180,0.05272226,-0.00499301,-0.00433247,0.02478925,-0.03293896,-0.03456655,0.00952573,-0.01147929,-0.01444292,0.01004156,-0.02685199,0.03849036,-0.01969832,0.05522821,-0.02763291,0.07420239,-0.01292430,0.08878139,-0.03158038,0.01385524,0.00408992,-0.05072668,-0.02396092,0.34492841,0.02609013,0.09083206,0.04752118,0.00606861,0.03036681,-0.02716023,-0.06546257,0.01184465,0.01712313,0.06529116,0.00314828,0.09557302,0.04529080,-0.03685591,-0.04651360,-0.16301641,0.00128609,0.00568967,0.02777080,0.03082714,-0.02064651,0.00583368,0.02274518,-0.03254488,0.02069570,-0.02550241,0.06849515,0.00500195,-0.02637194,0.03017716,-0.04699552,-0.00870510,-0.00556564,0.03287011,-0.02077004,0.05202937,-0.03749165,-0.03183727,0.01686172,0.01367223,-0.03579520,0.00378545,-0.02806711,0.00486252,-0.01482032,-0.00386863,-0.01375732,0.08045234,0.02577743,0.01401300,0.02388901,0.02857265,0.03303979,0.03786840,-0.02795035,0.05552586,-0.04736714,0.08542170,-0.02286437,-0.00037051,-0.00521737,0.06671064,-0.02145335,0.04623013,-0.03543516,0.03596284,0.00583774,-0.00707619,-0.01489744,0.03946036,-0.00779428,0.07707521,0.06396176,0.03200934,0.02639810,0.04502556,0.01741054,-0.06189961,0.02519565,0.02288517,-0.05159933,0.02045519,0.01943556,0.01897158,-0.09780192,0.00732965,-0.06802465,-0.02092418,-0.01239259,0.01590814,0.03374537,-0.00622502,0.03435194,-0.00773431,-0.02084174,0.00819914,0.00306269,0.01460526,0.03045074,0.01906888,-0.05028245,0.07029974,-0.01059663,-0.03710787,-0.02953322,-0.02553231,-0.00136990,0.02072100,-0.00411637,-0.02184594,0.00371526,-0.01895145,0.01160790,-0.04372740,-0.02616862,-0.02625069,-0.01011063,0.01658252,-0.02247334,0.01681796,-0.04193627,-0.00442466,0.00488755,0.01661957,-0.14131811,0.03678705,-0.03370323,0.05343094,0.00496181,0.02918588,0.00368796,0.03078531,-0.02899632,-0.00024240,-0.00962936,-0.02032265,-0.00147190,0.04177289,0.00931087,0.00001603,-0.03112878,0.02347689,-0.04542715,0.03730646,-0.00049940,0.03091591,0.02203320,0.00884515,-0.02503138,0.05067419,0.01625525,0.03889607,0.01590641,0.05826820,0.01896065,0.04146644,0.03243479,-0.00383147,0.01564784,-0.02739697,0.00033196,-0.03130756,0.03178770,0.00758953,-0.00903845,0.02626732,-0.03778255,-0.02839939,-0.00747528,-0.03675364,0.05993662,-0.02306888,0.06860589,-0.03611921,0.02659181,0.04484273,-0.00556886,0.03720702,-0.03715490,-0.03348333,-0.01079091,-0.02083839,-0.01096311,-0.02302937,0.00595062,0.00479786,-0.06020858,0.02640793,0.03988234,-0.05018541,-0.02181128,0.02484520,0.03334606,0.05708103,-0.01240654,0.00859096,-0.01632835,0.00917931,0.03910738,0.01914701,-0.05199878,-0.01270677,0.00999586,0.10645822,0.03828074,-0.03916780,0.03260512,-0.00962566,0.00815288,-0.02635986,-0.00829545,0.01670092,-0.03405891,-0.01806554,0.03475211,0.02688508,-0.00416131,-0.00194492,-0.02786708,-0.01481819,-0.00818484,-0.02287864,-0.05548570,0.08705182,0.00354675,-0.07351700,0.03090524,0.00567804,-0.03211968,0.02662662,-0.01756295,-0.04724066,-0.09367847,-0.04868070,-0.03092945,-0.05079274,-0.02987356,0.02400356
0.01169770,-0.05075365,0.04080548,0.02352520,-0.02655922,-0.02854064,-0.05471516,0.00786557,0.03047413,-0.06879976,0.00830028,0.06787324,0.04007365,-0.05788632,0.01666422,-0.05905504,-0.03565033,0.00133488,0.00180559,0.00742559,-0.03918895,0.02999447,-0.02780602,0.03953172,-0.01047550,-0.02594054,-0.03762561,-0.03822504,0.03621995,0.00183599,-0.03511774,-0.02567346,-0.07522223,-0.03895830,0.03854110,0.03121765,0.00585471,-0.03216986,-0.00082705,0.01870579,-0.03547924,-0.01162825,0.05540341,-0.07972159,-0.02419316,0.03531364,0.01756041,0.04592010,-0.04696078,-0.05203708,0.01678989,-0.02164705,-0.00904123,0.05195824,-0.01849946,0.06341063,0.00782762,0.02790762,0.02379104,-0.00940769,0.01060908,0.03833313,-0.04877261,-0.03784013,0.01095766,0.01651400,-0.02731355,0.02362259,0.07949647,-0.00764703,-0.03068015,-0.00182930,0.00822875,0.00040400,-0.01222717,-0.10242181,0.01937235,-0.05738316,0.02217812,0.00120076,0.01851971,-0.01341826,0.04797650,0.02676696,-0.01866170,0.05783217,0.03756845,-0.00422463,0.03912680,-0.00218710,-0.02944765,-0.03815413,-0.06166093,0.02496943,-0.01409324,-0.09142037,0.07047085,0.08530010,-0.01915520,0.02904188,0.04267419,0.00312242,0.00546070,0.02141096,-0.02115679,0.03109067,0.03040700,-0.00732597,-0.04587936,0.05144889,0.01311789,-0.08326008,0.02694670,-0.01582342,0.00522171,-0.04252743,0.08248225,-0.01148023,0.02391000,0.03179057,0.00757785,0.03668673,-0.00914604,0.04502066,-0.06889395,-0.01463065,0.04553366,-0.01854037,-0.01283762,0.09588827,0.01881877,0.03917354,0.00451673,-0.03541420,0.00799473,0.00181068,0.04183635,0.03171033,-0.02515818,-0.04036250,0.00843443,-0.01131774,-0.00301608,0.00956690,-0.03010573,0.03555767,0.05747340,-0.05024299,0.00009706,0.02468571,0.00924316,-0.00023975,0.03648203,0.00594092,0.01029934,0.04627630,-0.04001504,-0.08057075,-0.02732536,-0.17347856,-0.00642867,0.04452072,0.02843378,0.03198765,-0.00264874,-0.01579232,-0.02879227,0.03689265,0.02237851,0.03783397,0.02762304,0.01729165,-0.05119384,-0.04261087,-0.04636807,-0.01743621,-0.01930651,-0.01823677,0.03440649,0.00599730,0.01604429,0.06239350,0.00382963,-0.04598993,0.00259962,0.05545632,0.02779810,-0.00941592,0.01911473,-0.06663278,0.03635161,0.01877762,-0.03431477,0.01542072,0.00722729,0.00051037,0.06397906,-0.04666471,0.02641934,-0.01472914,-0.08479873,-0.03291765,-0.05597399,0.01118680,0.02047139,0.03329772,0.04097418,-0.02644151,0.04229506,0.02865297,-0.00437795,-0.00323730,0.04190855,0.00002585,0.02720512,-0.02453831,0.04008888,0.01237077,-0.08050053,-0.05354815,-0.00275852,0.01436122,-0.01332521,0.02288529,-0.04836400,-0.16706152,0.03726624,0.05381204,0.02145539,-0.02378480,-0.01715420,0.02014772,-0.01040402,-0.00560346,-0.08504926,0.02123009,0.07638858,0.02087179,-0.04412224,0.10185419,0.05301092,0.00944620,0.01063589,-0.00398714,-0.00918054,-0.06170132,-0.00759713,0.01354115,-0.02513455,0.03861945,-0.06766091,-0.00687514,-0.01480063,0.01786664,0.03818241,-0.04176622,0.00569262,-0.08745197,0.02506427,0.00186727,0.00606890,0.03695988,-0.07041571,0.05403709,-0.04182596,-0.03722026,-0.01195149,-0.02734394,-0.01636701,0.01646395,0.04110487,-0.02382112,0.02801251,0.01997375,0.00172495,0.01946592,0.00380368,0.03632560,0.01426344,-0.02154622,-0.01137384,-0.01084092,0.01246166,-0.00404189,0.02719870,0.00193428,0.03413076,0.04345795,-0.01068674,0.05209358,0.05813117,-0.04375565,-0.00932300,0.04473852,-0.02971493,0.05287232,0.03309250,-0.03549257,0.06790896,-0.01122130,-0.05872368,0.03065209,-0.04650053,-0.04848732,-0.05861555,-0.01668912,0.03522366,-0.01794496,0.03682799,0.02778613,-0.00626733,-0.07626916,-0.02459601,0.06658492,-0.01143747,-0.01718301,0.00408329,0.05221814,-0.08113474,0.01796775,-0.01642882,0.01807615,-0.00337162,0.03514338,0.01012069,0.03017345,-0.04508553,-0.00991875,-0.01413204,-0.06899095,0.03153812,0.00322987,0.01265544,0.07816918,0.00155860,-0.00045515,0.07033791,-0.03434835,0.01768434,0.04694803,0.06393246,-0.02242268,0.09838773,0.03133803,-0.00287931,-0.01904628,0.05201141,-0.02021195,0.05387150,0.07939427,0.01534974,-0.01581643,-0.09260578,-0.08559145,0.01412224,-0.00307244,0.02557727,0.02359783,-0.09819948,0.01792749,0.03185625,0.01277701,0.03896905,-0.02189435,-0.01359121,-0.01609584,0.01497710,0.00782692,0.00865091,-0.02064223,0.04955329,0.00840192,0.05232679,-0.00844031,0.02971822,-0.02378569,-0.02686657,0.03780897,0.07094658,-0.00472560,-0.02000599,0.08671634,-0.05435302,0.06933910,-0.04159921,0.01453896,-0.01453092,-0.05264851,-0.02279057,0.04026643,0.01946265,0.06134338,-0.05278306,0.07312398,0.00114114,0.02275248,-0.01171365,-0.02570356,0.04191915,-0.00037999,0.00132688,0.00190659,-0.07490066,-0.04140525,-0.04447520,-0.01023170,0.06218642,0.02823841,-0.00423611,-0.00994167,-0.03352919,-0.00769778,-0.03390212,-0.02023956,0.01642983,0.00138011,-0.05721847,-0.05104811,0.00115756,0.04291463,0.04069325,0.01875714,-0.01607764,-0.01069842,0.01539854,-0.02115772,-0.01984135,0.01332716,0.04724088,-0.06107086,-0.01329116,0.03830401,-0.02773128,0.02772618,0.03911556,-0.00311528,0.02413969,-0.02354199,-0.00029680,0.00872472,-0.02183853,0.01089022,0.02668866,0.08925734,0.07391778,0.03620350,0.04650561,0.02831611,0.02832844,-0.00175663,0.02066920,-0.00840413,0.01856809,0.05790484,0.01038644,-0.02482522,-0.00547894,-0.03080443,0.01269074,-0.00663586,-0.01332356,0.01856974,-0.02549445,0.01544090,0.02008798,0.00877672,-0.05338908,0.06683058,0.02099509,0.00373490,-0.00008467,-0.03217518,0.04773078,0.01397076,0.01319010,0.00456103,-0.02372177,0.04566346,0.02000378,0.05053328,0.03136907,0.00729899,0.06239305,0.03603132,-0.06316020,0.04626731,-0.07126986,-0.01876724,-0.03677073,-0.05468095,0.05151742,0.02612335,0.01899283,0.01949046,0.02213414,0.02852100,-0.01744022,0.00787620,-0.01058449,0.06958095,0.03296455,-0.00293088,0.01871879,-0.04706965,-0.02653467,0.02292450,0.07362122,0.06577363,0.01045961,-0.02743447,-0.04376134,0.03960034,-0.02474726,0.00347350,0.06296515,0.00337383,0.06831979,-0.05524582,0.02051851,-0.03792023,-0.01165679,-0.07537911,0.01365522,-0.02657901,0.02300724,-0.01087045,0.02800762,0.00160011,-0.01467935,0.04872378,-0.01773465,-0.08010145,-0.04100356,-0.00011983,0.02156356,-0.00532841,0.01006475,-0.02685494,-0.06697407,0.02882337,-0.01325964,0.14256153,0.02551972,0.08723350,0.02567405,-0.01979429,0.01771360,0.00755583,-0.04799473,-0.06497386,-0.03237301,-0.03423152,-0.01721500,0.01360804,-0.02785993,0.02177146,-0.07096717,0.01907570,-0.02604812,-0.03206311,0.01535236,-0.00036827,-0.01917429,-0.07682692,0.02238130,-0.02815975,0.00425718,0.01947486,0.01818464,-0.04220967,-0.04438118,-0.02471987,0.01709441,0.06571001,0.04311464,0.00049223,0.02710717,-0.00977940,0.04750933,-0.00592573,-0.08336115,-0.00889109,-0.04809384,-0.05718101,-0.00616044,-0.06095543,0.04124485,0.00966823,0.05512525,-0.03927351,-0.02994854,-0.06160943,0.00920497,-0.01605620,-0.00139464,-0.04825129,-0.01993850,-0.01417208,-0.03330106,-0.03815685,0.01293490,-0.06598630,-0.01065805,0.02021034,-0.01544299,-0.01149530,-0.05597007,0.01160032,-0.03630813,-0.01186217,0.02125066,0.01112312,-0.00845235,0.04261906,0.02954919,-0.02070522,0.01578714,0.02932512,0.02659428,-0.05596665,-0.06116204,-0.00918218,-0.04251606,-0.00966207,0.00031614,0.01550828,-0.02265850,0.01125887,-0.00045976,-0.01945607,-0.04998449,-0.02328910,0.01847681,0.02908270,-0.01775164,-0.02133695,-0.03281702,0.00978759,0.01815484,-0.00661673,-0.04430445,0.04980946,0.00754256,0.04615723,0.06078164,-0.00850050,-0.03250740,-0.00599302,0.04077251,-0.02212935,-0.01250409,0.00823728,0.04535969,0.02228658,0.04362275,0.00073543,0.08485445,-0.03028003,0.00050277,-0.01008848,-0.03043729,0.03406736,-0.01382878,-0.00049551,0.00460865,0.02132317,-0.02635982,-0.08671472,0.03515889,-0.02417524,0.03328735,0.01891061,0.00288356,-0.04045559,-0.02205473,-0.02451544,-0.06437469,-0.03257780,-0.01048928,0.03410737,0.03397664,-0.02762686,-0.02168960,-0.00737845,0.01207317,0.02068643,-0.09017017,0.06706537,0.03304762,-0.00367014,0.01310043,-0.00414860,0.03217952,-0.00007873,-0.02439030,-0.05042983,-0.00751006,0.00519665,-0.04384303,-0.08674782,-0.00595890,0.04533057,-0.05361294,-0.04302649,-0.04349524,-0.00640178,-0.00796533,-0.06891228,0.04526186,0.01653413,0.04240957,-0.12080351,-0.07561117,0.04797067,-0.02804911,-0.05435289,0.03765791,-0.00262557,-0.05830308,-0.03820410,0.00855786,-0.02247084,-0.06194254,-0.04031191,0.00591676,-0.02633541,0.00066479,-0.05445703,0.03284683,-0.00990874,0.01798008,-0.01324922,-0.02689063,0.02706701,-0.07693318,-0.01095827,0.03169554,-0.00058786,0.00611420,-0.00791930,-0.04264767,-0.00742118,-0.04875888,0.07105978,0.00326741,-0.01043026,0.03420288,-0.00076182,0.02992004,0.01049418,-0.01554165,0.00671047,0.05167997,-0.03948851,-0.05303439,0.05759342,0.02084341,0.04090465,0.01904937,-0.04477651,0.04877126,0.01957234,0.00327510,0.02739684,-0.02167621,0.04042007,-0.00302408,0.01425228
-0.02844145,-0.01649651,-0.01688391,0.00161564,0.07031805,-0.00573647,0.13383523,-0.00274244,-0.01572760,-0.00923254,-0.04799044,-0.01986104,-0.02617197,-0.05442553,0.03602193,0.05155832,0.00742790,0.06234115,-0.02670255,0.00649498,0.02851919,-0.05668664,-0.02634068,0.00037491,0.01577605,-0.06559765,0.03782795,-0.02947683,0.01153627,-0.03058892,-0.00172235,0.01741155,0.00290740,0.01352718,-0.01641358,0.02910192,-0.02853878,0.01703659,0.01259016,-0.02706825,-0.01739018,0.03020118,0.01712929,-0.02948885,0.06453726,-0.02783533,-0.01903722,0.01967918,0.02694411,-0.04301292,-0.05794080,-0.00240411,0.03721998,-0.04179887,-0.01440002,-0.00394074,0.02909603,-0.01812168,0.03539735,-0.05169821,0.03052748,-0.03257409,-0.01370840,0.01917845,-0.00593616,0.00271218,0.03139495,0.00808502,-0.01291517,0.01848471,0.04301900,-0.03317526,0.00753317,-0.04789124,-0.04555051,0.00877869,-0.04176621,0.05557371,0.03678565,-0.02504724,-0.04103416,0.03361372,0.01544263,-0.03671395,-0.08678684,0.01639551,-0.02671894,0.03545000,0.02256570,0.00780874,-0.03706040,0.01745044,0.01497638,-0.00110102,0.00091946,-0.01442349,-0.05877678,-0.00551677,0.00922158,-0.00870234,-0.00352352,-0.01564063,0.00307193,-0.07848240,-0.06963153,0.01253902,-0.01971991,-0.00823431,-0.02571198,0.00240369,0.03352170,0.00880353,-0.03675649,-0.01187796,0.00115485,0.00190098,0.00308631,-0.01273873,0.01698417,-0.02601910,-0.00333342,0.00404011,0.00825021,-0.01900317,-0.00106878,-0.01705682,-0.04645921,0.05942818,0.01892347,0.02576544,0.00497755,-0.04392951,0.00631860,0.01562264,-0.02879708,0.02257910,-0.00841288,-0.03605275,0.01747049,-0.00112380,0.06039655,-0.02172454,0.04968452,-0.00846178,-0.06922281,0.01659651,0.00748294,0.00826558,0.02401804,0.04883665,0.07562678,0.00746380,0.05137743,-0.00332493,0.02875820,0.02803118,0.04649185,-0.00193437,0.05049590,0.03771219,-0.03271681,0.00862735,0.04648238,-0.06572505,0.02035072,0.04298670,0.03184646,-0.03449872,-0.03446472,0.04942983,-0.04057200,-0.00449338,-0.04641075,-0.01133577,-0.00997242,0.01368309,-0.04317294,0.08906136,0.02734256,0.02327697,0.00150950,0.00401034,0.06201753,0.02496502,-0.02614413,0.02689965,-0.05620548,-0.06803124,-0.05754449,-0.01574112,0.03561712,-0.00598807,-0.03454104,-0.00930684,0.04144131,-0.00436451,-0.01572205,0.06186356,-0.00895068,0.00526970,-0.00999525,-0.01160847,-0.07208717,-0.06198295,-0.01207281,0.03204542,0.02567452,-0.04046465,0.01745578,0.00002666,0.01925784,-0.01165266,0.03596421,-0.02827756,-0.00751659,-0.01097290,-0.09228904,-0.02405480,0.02133899,-0.05288472,0.03238053,-0.00524973,-0.04030787,-0.02820253,0.00993619,0.07962628,0.04985868,-0.01753736,-0.02878015,-0.01876897,0.05867787,0.00325501,0.02226437,-0.01630157,0.01940384,0.00797749,-0.05532655,0.00333277,0.01912414,-0.00221055,-0.00956267,0.02937161,0.03549628,0.02950418,-0.06976009,-0.05255082,0.07512958,-0.04939558,-0.03637027,-0.04262521,-0.00680453,0.02027673,-0.00225250,0.00126963,-0.03197148,-0.03862265,-0.01516029,0.08827152,0.00332738,0.03408258,-0.03695980,-0.02126738,0.05170646,-0.04233399,0.00011490,0.00845901,0.06816003,0.00684107,0.01129854,0.02405786,-0.00850793,-0.02342624,-0.01537430,-0.02307750,0.06413217,0.04787576,-0.04340208,0.01750528,-0.00294270,-0.01399726,-0.00175880,0.06502067,-0.01905540,-0.01445137,-0.02208166,0.01642737,0.02424097,0.01351884,0.02149364,-0.00631422,-0.07391965,-0.01674096,0.00816081,-0.03711588,-0.01394714,-0.06545175,-0.00233676,-0.01252458,-0.04106719,0.00376890,0.05462714,0.04726812,0.03033619,-0.04905378,0.03786094,0.00287464,-0.04852243,-0.04759379,-0.00878362,0.01938129,0.02575802,0.03982683,0.00107361,-0.06990704,0.01358637,0.02126726,-0.03040005,0.05078150,0.00173087,-0.06577393,0.00828962,0.06419620,0.03427104,0.02377838,0.06564235,0.01370698,-0.00651146,0.05455400,0.00948789,0.02779033,-0.04669957,-0.05920259,-0.01683465,0.01501788,-0.00794165,0.02419035,-0.00118050,0.07007164,-0.00819009,0.03041320,0.02373595,0.02278317,-0.10348689,0.04183483,-0.04990488,-0.04611849,0.08932595,-0.00317537,0.04365009,-0.00638670,0.00364293,0.01224548,-0.02347182,0.03300958,0.00721404,-0.02878547,-0.02082587,0.02342040,0.02674255,-0.05787540,-0.00209567,-0.04966356,-0.05318241,0.03452912,0.02228264,-0.03125954,0.03571788,-0.01891332,0.01223683,-0.04877836,-0.00512497,-0.03595287,0.01137540,0.05141484,-0.00728578,-0.03545117,0.00153368,0.03876285,-0.00102620,-0.04561509,0.03425043,-0.06217187,0.05450979,-0.00962184,0.05198397,0.02119962,0.03267703,0.00249531,-0.01279308,-0.03753097,-0.02822571,-0.06027618,0.05461246,-0.00275046,0.00717780,0.00813104,-0.05957513,-0.02767939,-0.00585070,-0.04967667,-0.00853588,-0.02623452,0.03050085,0.02743281,-0.01298295,-0.04699798,0.02561580,-0.00774795,0.01712471,0.06958888,0.04186616,0.01048608,-0.02442064,0.02554457,0.01306968,0.00240133,-0.02491558,-0.00477475,-0.00729934,-0.01797998,-0.04451028,0.05183583,0.02069240,0.05316711,-0.04550616,-0.02488538,0.02779594,-0.06777451,-0.07711472,0.03248012,-0.02292093,0.06152337,0.03639508,-0.00601241,0.02465690,-0.00317796,-0.02720243,0.06583096,-0.03581610,-0.01304805,-0.06738351,-0.02180465,0.03878975,0.00070828,0.00533837,0.02311939,-0.06228447,-0.08931550,-0.03638235,0.03667628,-0.04885432,0.00750400,0.01287077,0.02608792,-0.00291079,-0.03679128,-0.00924202,-0.06250775,-0.03177151,-0.01340831,0.04551343,0.04642880,0.00373463,-0.01689712,-0.04092231,-0.00252384,-0.00163188,0.00700566,-0.02775641,-0.02291707,-0.04925738,0.00485653,-0.05291997,0.02266826,-0.01057242,-0.00933391,0.02225668,0.00073921,-0.01365576,-0.01733257,-0.00245321,-0.03527609,0.02530866,-0.04876753,0.01537241,-0.01958774,0.01431001,0.04727772,-0.00380734,-0.00673388,-0.03859789,0.01670767,-0.06413434,-0.01050000,-0.05960582,0.07315059,-0.00105994,0.05798887,0.02739284,-0.11917463,-0.03303755,0.00413983,-0.03920379,0.04697538,0.03219301,0.04669806,-0.01656968,-0.02990423,-0.01462605,-0.01756920,-0.07497682,-0.03236020,-0.00013022,0.02270291,-0.00915423,0.03329644,0.00574614,0.04138349,-0.01805440,0.05286672,-0.03178361,-0.02907420,-0.03160465,-0.04753574,-0.00850747,-0.01870484,-0.04364336,0.00061361,-0.00148742,0.00604235,0.01876684,0.02392386,0.07558862,0.04627726,0.00978268,-0.03467776,0.02698081,0.12826404,0.00455689,0.00944577,0.00299679,-0.01272350,0.00602130,-0.00181144,0.06683289,0.03703216,0.05660827,-0.02531159,-0.00751070,0.03455212,0.03501160,-0.00866965,0.05047325,-0.05536518,0.04171004,-0.04103764,-0.02283987,-0.03878879,0.01754706,0.04377932,0.02669288,-0.01778166,0.00554934,0.02587161,0.02773187,0.00311585,-0.06514578,-0.01864102,0.03384934,0.02602628,-0.00137195,-0.02930860,-0.00902622,0.05290510,-0.04405143,0.02796128,-0.02763194,0.09569651,-0.00261235,0.02994332,0.01532495,-0.00457718,-0.00333334,0.03203439,0.02765420,-0.03581603,-0.03320274,0.02895917,-0.02338398,0.00826535,-0.00472278,-0.01965264,0.04623431,-0.01175027,-0.03245460,0.02218013,0.04114901,-0.01127561,-0.00524170,0.05980587,-0.09569289,-0.01623245,0.06176659,-0.02130387,0.04342385,-0.00769876,0.04177209,-0.03780950,-0.08305488,0.01483152,-0.09701352,-0.03629359,-0.04224087,0.00574872,0.10789601,0.03732089,-0.00618646,0.01941652,0.04197486,-0.04008554,-0.01126986,0.00783800,0.03501709,-0.01834373,0.04854663,-0.02082269,-0.06544994,-0.02111374,-0.02159054,0.05018140,0.04347625,-0.07694823,-0.03274001,0.03869530,0.00931998,0.04577811,-0.03706313,-0.02154387,0.03320081,-0.02476400,0.00888107,-0.05400090,-0.01144587,-0.04056434,0.03598267,-0.05504307,0.01407743,-0.02453857,-0.00075912,0.03274657,-0.03372939,-0.08412115,0.01682408,0.02991808,-0.02749089,-0.02608693,-0.00506259,0.07704579,-0.00237278,0.00662472,-0.00282798,0.03592817,0.00012870,0.05104635,-0.01331314,-0.01067052,-0.04081234,0.01487256,-0.01937151,-0.01297208,0.05323087,-0.01286411,-0.03313397,0.05193889,-0.02616544,0.00426890,-0.04353146,0.00717402,-0.02329815,0.02771254,0.05559199,-0.00074128,-0.00489443,0.05776014,-0.00637528,0.03811543,0.00437520,-0.02443239,-0.01148462,0.03048231,0.01685596,-0.00052938,0.02442105,-0.00062805,0.00828726,0.01615251,0.01243865,0.03406905,-0.00428713,-0.01424237,-0.06178727,0.04448653,0.02055010,-0.00442729,0.00354721,-0.00908558,-0.03913554,-0.01607282,-0.01238434,-0.07312749,0.04581166,0.01527894,-0.04821227,-0.01872251,-0.02515333,0.01464359,-0.01321362,-0.01944259,0.00924767,0.01122711,-0.04515311,-0.01441151,-0.00573020,0.03464400,-0.00739503,0.04427068,-0.01386554,-0.00475070,0.02607235,0.01221727,-0.04722367,0.02517430,-0.00306100,0.01267558,0.03072244,0.03394774,-0.02458215,0.00310475,-0.02830794,-0.01065976,0.03285956,0.04889700,-0.01409790,-0.03791871,-0.00542676,-0.00719767,0.05414652,-0.03736289,0.04058640,-0.00483466,-0.01615986,-0.01702983,0.06047740,0.03842683,0.03944312,-0.03973883,0.07051639,0.02264015,-0.04361868,0.01711305,-0.05261276,0.00610047,-0.03771684,-0.02221007,-0.01040922,0.00714123,0.01896646,-0.03925818
-0.03138220,-0.04271413,0.02033146,0.01185018,0.01084340,0.05940777,-0.03356727,0.01100177,0.02378980,-0.00493121,0.02368883,-0.04512573,-0.03817964,-0.00611740,0.01565427,0.00560509,-0.01725883,-0.04422726,-0.01364703,0.01881225,0.01897673,0.03257354,-0.02685242,0.02728636,0.00813839,0.03326912,0.06215754,-0.05468048,-0.02768410,0.07183809,0.02419226,-0.02239116,0.03376496,-0.02527537,-0.08802101,0.03084905,0.03587310,-0.03261574,-0.01319786,-0.01606412,-0.01747425,0.00471662,0.02338235,0.05768793,-0.01779291,-0.00923180,0.03607191,0.04366843,-0.04721187,0.00648140,-0.01584693,-0.03122612,-0.01374632,-0.00692838,0.02901236,-0.02411843,0.02462570,-0.02327992,0.01487290,0.02043767,0.01660881,0.03295812,0.00185130,-0.02129271,0.02570489,0.04284290,0.02386079,-0.03017117,0.06271823,0.00984602,-0.03679974,-0.03426723,0.03824302,0.01025811,-0.03206642,0.11586396,0.04076694,0.03291548,-0.03208072,-0.02212910,-0.01897369,-0.02050024,0.00454358,0.00770537,0.01381866,-0.03126172,-0.00863796,-0.01685051,-0.02838458,-0.01359021,0.03325276,-0.03010350,0.05528043,-0.00449671,0.01232294,0.00808879,0.03602859,0.05663194,0.03128832,0.01988299,0.04238720,-0.01866960,-0.00507049,0.02914885,0.02433427,-0.09632245,0.03498099,0.01068910,0.03251015,-0.09425686,0.00761624,0.01535624,-0.00716439,0.01595763,-0.01046400,0.04288056,-0.01796341,0.06674131,-0.00200537,-0.04727463,-0.05740939,0.07897922,0.03240383,0.03302297,0.04690135,0.06502908,-0.01927002,0.00483104,0.05637203,-0.06444000,-0.03143910,-0.05348787,-0.07685676,0.04614096,-0.04460834,-0.01054231,-0.00838571,0.03091158,0.04007882,0.09712686,0.04516977,-0.01938968,-0.05865264,0.04107623,-0.03793498,0.05427451,0.01797357,-0.01128159,0.00847165,-0.02603273,0.05763014,-0.02082857,-0.03596372,-0.00559313,-0.04286129,0.00135774,0.02111010,0.00598829,0.03928095,0.11487085,0.04113644,-0.10366049,0.03526061,0.02179193,-0.02867669,-0.02986992,0.02479128,-0.03564184,-0.03309539,-0.07615747,-0.03497805,-0.00321897,0.00932151,0.01753756,-0.03743356,-0.04336365,0.01922999,0.01585689,0.00332783,0.02318368,-0.00067886,0.02042832,0.04700906,0.01116327,-0.03150974,-0.01744848,-0.02003611,0.05036980,-0.02280095,0.00479840,0.02424226,-0.05981733,0.02557956,-0.04102578,0.04376306,0.04843459,0.02421474,-0.03335939,0.04548211,-0.01244260,0.02218446,0.00013900,0.06893845,0.00531860,0.04746813,-0.01248041,-0.00708645,-0.06132756,-0.03859400,0.02039645,-0.02127575,0.03017386,0.02078168,0.04618312,0.05487480,-0.02118563,0.03413651,-0.02359153,0.06186507,0.06737828,0.01627724,0.02116463,0.02493254,-0.01847142,0.03753125,0.03160780,0.02117006,-0.08548846,-0.00912921,0.03740669,-0.01367602,0.01516928,0.03434432,-0.04002521,0.04079813,0.00562668,0.04243489,-0.01345557,-0.01371899,0.01609606,-0.00851909,0.01418790,0.03965313,0.04245820,0.00909210,0.04442498,-0.06347846,-0.01417500,-0.06462668,0.03861973,-0.01122274,0.01280627,-0.01999930,-0.01030902,-0.04532788,-0.00029299,-0.04437124,-0.01162281,-0.00891303,0.03658913,0.00961457,-0.05209313,0.01891202,-0.00886532,0.03085763,-0.04189326,0.02256072,0.03058254,0.08575160,-0.01978640,0.00704684,-0.01013931,-0.03417771,0.00042343,0.00653833,0.00753337,-0.04674415,0.04774671,-0.03267051,0.04850536,-0.04981753,0.00816926,0.01328291,0.09238596,-0.00066021,-0.05132825,0.01287753,0.00189389,-0.04401423,0.03051230,-0.02036266,0.03829836,0.01760590,0.06014937,-0.07409552,0.00512984,0.05066785,0.01099911,0.01058955,0.07801557,0.03313195,-0.02294051,-0.00235050,0.05883896,-0.01892976,-0.02695960,-0.04408504,-0.00173357,0.02998195,-0.01216134,-0.02133796,-0.02417698,0.01611067,-0.01775659,0.00511922,0.02562558,0.04294855,-0.00249555,0.02678648,-0.01764818,-0.02899995,-0.07262185,0.02549526,-0.03670453,0.01704892,0.01176425,-0.00408817,-0.01311432,-0.01262013,0.01681918,0.02930530,0.04814460,0.03755305,-0.02414211,-0.01367307,-0.04850650,0.00559768,-0.02283191,0.02540863,0.01281681,0.03651577,-0.05119225,0.00920385,-0.01314676,0.05092732,-0.03467577,-0.01407061,0.01211827,-0.02684259,-0.02479890,0.01681025,-0.05694454,-0.00906274,0.02809155,0.00207745,0.04938284,0.00904306,-0.00138068,0.02173587,0.04001624,-0.01660016,0.05947153,0.01164931,-0.01513933,-0.01779044,0.01059144,0.05039951,0.03602716,-0.01757414,0.00032216,-0.01932236,-0.02054721,-0.00476672,-0.00771116,0.00719626,0.01191771,-0.03552265,-0.05125724,0.00923229,0.02867440,-0.01712846,0.12683122,0.00083688,0.01295065,-0.02180483,-0.00535864,-0.05328152,0.00166659,-0.01148260,0.03401090,0.03875384,0.01407445,0.01053904,0.06466395,-0.00940586,0.02620224,-0.00119886,-0.06254010,-0.01996317,-0.00211909,-0.02342949,0.02644556,0.06366353,0.03299655,-0.03978562,-0.01991867,-0.00958419,-0.05304480,-0.04594343,-0.02076006,-0.01427813,0.04421176,-0.02969438,-0.03990021,-0.01958449,-0.02863242,0.04115453,-0.00800518,-0.00176741,-0.05395243,0.02744061,-0.00937961,-0.00638582,-0.05573267,0.03402678,0.03179270,-0.05811934,0.00582202,-0.03269998,-0.02206794,0.05339530,-0.04925925,-0.01246003,0.01864184,0.06910972,-0.04798284,0.02140711,-0.02349800,0.02230729,-0.02606140,-0.02320376,0.01165401,0.00581056,-0.04735527,0.01615908,0.03175414,0.00799826,0.03194466,-0.00760807,0.01937043,0.03587562,-0.03609010,0.02100635,-0.01350002,-0.09193771,0.03881159,-0.06746823,0.02105301,-0.01873646,-0.02416233,-0.01792283,-0.05059609,-0.04251497,0.02860324,-0.04508000,-0.02133528,-0.00832666,-0.03602924,0.01910827,0.02190019,-0.04459374,-0.01083958,-0.02447174,0.02468616,-0.01212637,-0.06268905,-0.03020074,-0.03905087,0.00029087,-0.01946351,-0.03303192,0.02138471,-0.08031566,-0.03779604,0.00585575,-0.00303427,-0.04291529,-0.00938353,-0.00125904,0.01927244,0.01239816,0.00269192,0.03109966,0.03918806,0.05400670,-0.01344496,-0.02346298,-0.04116343,0.01114347,0.00310617,0.00606068,0.05049824,0.03175424,0.06448075,0.00450109,0.05354622,-0.01329457,0.00849002,-0.01885142,0.01681515,0.03359244,-0.03527355,0.06161607,0.02530198,-0.00276345,-0.03692590,-0.00695204,-0.00625280,0.01651150,-0.02509899,-0.00199890,0.03917399,0.00294006,-0.00682518,0.02627892,-0.00703820,-0.02585942,-0.02852189,-0.03036158,-0.06744178,0.01685879,0.01274204,0.02909035,0.00782172,0.01354751,-0.01313744,-0.02421059,0.00489848,0.00487288,0.01543320,0.04429967,-0.03948591,-0.02053884,0.00558001,0.01457895,-0.01871410,-0.02698616,-0.02094728,0.05318111,0.04129152,-0.00911780,0.04785357,-0.03599062,-0.02231578,-0.00330829,0.00148511,0.04114737,0.01092238,-0.04383536,0.02005789,-0.00627587,-0.07495220,0.00813679,-0.00645662,0.01354569,0.00391387,-0.01137978,0.01922289,0.02963861,-0.00651791,0.00882370,0.00177677,0.06541748,-0.05516178,0.00715002,0.04052145,-0.00510695,-0.08356368,-0.00590280,0.01203606,0.00349688,0.01878204,-0.03396048,-0.01262410,-0.00447558,-0.02056664,-0.03629072,-0.05944797,0.01868167,-0.02238398,-0.01556720,-0.02467568,-0.00503079,-0.00742497,0.03283399,-0.06044310,-0.01316019,0.01733157,0.02173661,-0.06678867,0.03438148,-0.03668970,-0.02470892,-0.06454992,-0.01878722,-0.01874331,-0.02552881,0.06843227,0.02104327,0.00691319,0.01619479,0.03047277,0.03561759,-0.01673903,-0.04583246,0.05423898,-0.03178607,0.00042637,-0.02591104,-0.03321013,0.03623572,-0.00707221,-0.01100780,0.00073118,0.00309294,-0.03452476,-0.03204202,0.04304165,-0.01741573,0.07232068,-0.00119999,0.02720269,-0.00463362,-0.00745661,-0.00429813,-0.00620445,0.02758380,-0.01330941,-0.02857699,0.01056400,-0.02456615,-0.02563388,0.02682452,-0.03713501,0.01554878,-0.02810033,-0.00107194,-0.05841820,-0.01508029,0.10392952,0.03576149,-0.06979471,0.00794262,-0.07924000,0.02065946,0.05091795,-0.05298763,-0.03942654,0.01502129,-0.00708658,-0.01777669,0.01701275,-0.04200659,-0.01311914,0.03513674,-0.07166354,0.00031642,-0.02556735,-0.02569323,-0.00519589,0.03894141,0.01406293,0.03492511,-0.04607066,-0.01802118,-0.02134824,0.01431195,0.02158595,-0.00815936,-0.01770368,-0.00480321,0.04483610,-0.01407157,-0.01317331,-0.06067256,0.02261370,-0.03971497,-0.02447103,0.00291159,0.00418725,0.00903634,-0.03298517,-0.07638498,-0.01654969,-0.02611551,0.00230751,0.04375464,-0.04569466,-0.01595621,-0.07026386,0.01645426,-0.02717999,-0.05180425,-0.00497246,0.02056586,0.07891525,0.02283717,-0.00186226,0.01170002,0.03547117,0.02992309,0.00571078,0.00180703,0.02745312,0.06801687,-0.00391937,-0.01719221,0.01978999,0.01933493,0.03630375,0.03501437,-0.01327954,-0.03231237,-0.06118134,0.01033785,0.02799114,0.02954730,-0.00388126,0.01142308,-0.03529841,-0.04878838,0.03500785,0.04881256,-0.00662340,0.05002172,0.00201639,-0.00614260,0.02619148,0.04150846,-0.01974035,0.03269224,-0.00485280,0.04912728,-0.00644335,0.02818958,0.02918802,-0.02883922,0.01526632,-0.03859734,-0.06170241,0.03075063,-0.03877808,0.01460433,-0.01171645,-0.04564673,-0.01141073,-0.01638358,-0.05710760,0.01261026,-0.05225591,-0.00516777,0.03101932,0.04472337,0.02061285,0.00666236,0.00753287,-0.01579143,0.02131970
0.07866485,0.01498843,0.02629318,0.01611019,-0.02953628,0.01852713,-0.01835331,0.02933279,0.00643208,0.06494350,-0.00816786,-0.00881221,0.07237986,-0.00349712,0.01312372,-0.00454682,0.05721244,-0.07947150,-0.07495555,0.03122181,-0.03428806,-0.01023400,0.01128918,0.00549812,-0.01046022,-0.02214245,0.06553587,0.05677752,-0.01102206,-0.05507813,0.02639806,0.02622924,-0.05723493,-0.03079206,0.05892883,-0.10042015,0.02020603,-0.00211646,-0.02407297,-0.01316257,0.05882333,0.00312258,-0.00779346,0.05147880,0.05436466,-0.04664144,0.02461848,0.04249034,0.00566094,0.00188756,-0.00190427,-0.01363517,0.01347171,-0.01782147,-0.01934494,0.03861059,0.02314941,0.02307676,0.00908853,-0.01855311,0.00699359,-0.04200303,0.02246376,0.01851212,0.02128102,-0.00838867,-0.00082384,0.04964846,0.03363416,0.00925084,-0.03917766,0.02933988,-0.04656908,0.00517122,-0.02326962,-0.02951454,0.05180416,0.02456225,0.00225335,0.05841597,-0.02643419,-0.00462441,0.02861288,0.02887445,-0.00243013,-0.01065785,-0.01436935,0.01334149,-0.00756437,0.00559238,0.01998276,-0.04146523,-0.04978504,0.02637443,0.01691032,-0.03886576,0.09546325,-0.00620286,0.04387434,0.01545460,-0.01240499,-0.04786845,-0.05520526,-0.02865422,-0.00504247,0.03595415,-0.06182484,0.04696727,0.02257135,0.00318265,-0.01834808,0.02457481,0.00686052,-0.00333400,-0.02304027,0.00262635,-0.01847488,-0.01802678,-0.04600366,0.08948026,0.06331284,-0.09381087,-0.00383013,-0.04668532,-0.02730379,-0.00934934,0.02278532,-0.03152764,-0.02821772,0.04399659,-0.01595723,0.02131679,0.07938366,-0.03668627,0.07491332,-0.00171463,-0.00555668,0.03384931,-0.03252517,-0.04627053,-0.01267756,0.05362307,-0.02739972,-0.02647781,-0.01957924,0.00685379,0.03236816,0.04335702,0.01849663,0.03515955,0.00413569,-0.00376379,-0.01924610,-0.02220109,0.03219435,0.07185293,0.00070517,0.07820778,-0.00440429,-0.03825760,0.00793525,0.02023344,-0.03048579,-0.06072548,0.00955840,0.04721247,0.02408875,0.03629244,0.13413091,-0.00667387,0.01909808,0.01036463,-0.04961630,-0.01561683,-0.02107259,0.04826754,-0.04278301,-0.04920676,-0.02581985,0.02534995,0.03472036,0.02822007,0.00279018,-0.00376998,0.00016935,-0.00592646,-0.03084554,-0.00700380,-0.02039093,0.03975634,-0.04600200,0.03030166,-0.01484830,-0.02380775,-0.01632804,-0.05462319,-0.02033100,-0.00018404,-0.00486680,0.05300100,-0.08885524,-0.05199062,-0.03524577,0.02562509,0.01609042,-0.01621714,-0.00037320,0.05950402,-0.01383029,0.02722212,0.03146367,-0.03839636,-0.03963264,-0.03477728,0.00747060,0.03655640,-0.05831186,0.03054757,-0.03822396,0.03828301,-0.01938747,-0.03133940,-0.01812077,0.01326829,-0.00177418,-0.01551524,-0.03342402,0.05405062,-0.00330865,-0.04040515,0.02509710,-0.00423591,-0.03095368,0.01841767,-0.02949967,0.00901770,0.03006575,0.03521759,-0.01102090,-0.00353673,-0.00345335,0.00326465,-0.00826892,-0.02353949,0.01533623,-0.05110490,-0.00716513,-0.03178541,0.02990149,0.01568364,-0.01406323,-0.08904331,-0.01328568,0.03808872,-0.02442821,-0.05334863,0.03821136,0.05626913,0.01133563,-0.00329975,-0.03621887,-0.01943065,0.05467737,0.04593005,-0.01058636,0.00485239,-0.06313078,-0.02164636,0.00319123,-0.04265903,-0.00738951,0.01112086,0.00801546,-0.05918922,-0.00159751,-0.08769603,-0.05794162,-0.00710894,-0.03861357,0.00076216,0.00021181,-0.01650629,-0.06981104,-0.05132258,0.00953998,0.02767169,-0.04036967,-0.01694546,0.01873997,0.04880983,0.05575499,-0.01667177,-0.03182961,0.01461423,0.05496835,-0.03391058,-0.07229440,-0.04118554,0.02006009,0.02214140,-0.02931705,-0.02591315,0.06307293,0.05800137,-0.04975776,-0.02401235,0.02851619,0.00539492,0.03057423,-0.02520036,-0.00942599,-0.06015285,0.01863444,0.06331033,-0.08342971,-0.00786596,-0.00320645,-0.01076127,-0.00995877,-0.01952423,0.02567962,-0.02226682,0.01473322,0.03119421,-0.04389557,-0.01175930,-0.04973520,-0.06082193,-0.00517025,-0.03590063,-0.03504791,-0.02172678,-0.02325755,-0.07654683,-0.00500383,0.00406995,-0.06240205,0.01057094,0.00957037,-0.01428983,0.02687368,0.04151509,-0.01157363,0.04722429,-0.01520956,0.05470232,-0.01314975,0.02083305,0.00047050,0.01293437,0.00807706,0.03046416,0.00919127,-0.01849644,-0.03139003,-0.03233004,0.04065821,0.07315147,0.10715196,-0.05228470,-0.04557949,0.01316932,-0.00345209,0.05581960,0.01713368,-0.06282353,0.00165670,0.01002151,0.04734921,0.05331067,-0.04711630,0.02685414,-0.02472566,-0.01089073,0.06026462,-0.01406299,-0.00869654,-0.03816297,0.06788230,-0.01581602,0.03749356,-0.01310498,-0.04651342,-0.00848537,-0.03871105,-0.01543162,-0.00624543,-0.01521718,-0.05990608,-0.03526820,0.05154753,0.01112698,-0.02712937,-0.02089709,0.07072598,0.00603501,0.01513273,0.06797188,-0.04063646,0.01981668,-0.02322789,0.06905989,-0.00067110,0.01946257,-0.02823502,0.01462827,-0.02654384,-0.07049865,-0.01704348,0.06593772,0.01615782,0.01855363,0.04231928,0.02930404,0.06006601,-0.01165260,-0.02012140,-0.03488697,-0.01079164,0.02244554,-0.03147446,-0.06130734,0.04322227,0.05598477,0.02645000,0.00191977,-0.02813839,0.06526408,0.02001070,-0.02105275,-0.05495142,0.01777160,0.00919593,-0.02200416,-0.02769183,-0.05012638,-0.02693161,-0.02160035,-0.04762579,-0.02018346,0.00154984,-0.03435536,-0.00776138,0.16865508,-0.04525125,-0.02147875,-0.04855231,0.00509009,-0.00548085,0.01679446,-0.04437030,-0.01265213,-0.03878031,0.01134648,0.04086280,0.01753515,0.01207067,0.03581962,0.04978667,0.02593245,0.00002924,0.01207222,0.00523284,0.01351555,0.06338782,0.02019247,0.03639041,0.02634077,0.00801153,-0.05196287,-0.02737906,0.00676759,-0.04683232,-0.06281494,0.01114978,-0.02003803,0.03623822,-0.03610631,-0.01994808,0.02558937,0.00775818,0.00805580,-0.01017507,0.00662168,0.05627228,0.06183130,0.04843456,0.03862858,0.01971759,-0.07061581,0.00057104,-0.01982596,-0.05488347,-0.00081983,-0.02261967,-0.00933839,-0.05049865,-0.01858558,-0.00686168,-0.03841903,0.00205971,-0.08825172,-0.07879608,0.00314364,0.04321181,0.00532160,-0.02329251,-0.00613926,0.00086981,0.07221572,0.06312928,-0.02943899,-0.01395772,-0.01001640,0.07102392,0.08724881,0.02684650,0.00249488,-0.04820391,0.03457529,-0.02523760,-0.01106314,-0.00214641,-0.00490470,-0.01260331,-0.02161803,-0.02747179,0.00592131,0.00175973,-0.07729666,-0.04416904,0.04871484,0.01831546,-0.01188159,0.00503170,0.01562550,-0.06461901,-0.01282335,-0.03502453,-0.03022888,0.02455046,0.01491863,-0.01589834,0.00488433,0.04315363,0.05431581,0.02449815,0.04564400,-0.01694551,-0.01695413,0.02244795,0.06108223,0.00309932,0.02730537,-0.01879528,-0.02643092,-0.00515658,-0.06639051,-0.02574018,0.05140924,-0.03078802,0.02453014,-0.00125358,-0.04173813,-0.07196949,0.03322455,-0.08100169,-0.01668162,0.02571955,-0.00155896,-0.01940236,-0.00756708,-0.00592588,-0.01121814,0.00755385,-0.00940630,0.01333540,0.08439811,0.01889160,-0.01262701,-0.02013979,-0.00799593,0.04517089,0.02750826,-0.03472331,0.01594057,0.01970811,-0.03852627,0.03711410,0.04282991,0.04594217,0.07763314,-0.04322390,-0.00260199,-0.02069293,0.03188382,-0.05020436,0.07017592,-0.01803296,0.08652227,-0.00595431,0.03610712,0.06189939,0.09916143,0.04840351,0.03157030,0.00115791,-0.09695089,-0.00897521,0.00373998,0.03237953,0.02364360,-0.01354913,0.03029535,-0.01400272,-0.00535284,-0.11961198,-0.00093428,-0.00757337,0.02984645,-0.07416639,0.04488547,-0.06295971,-0.02064594,-0.04319135,0.05140109,-0.00803071,0.01538750,-0.02413234,-0.02048936,-0.02760430,-0.04034843,-0.01033898,-0.05039509,0.00364739,0.00623188,0.00193401,-0.06295118,0.00577524,-0.02587744,0.00143416,-0.05346587,-0.01468188,-0.00981689,-0.01958371,0.03939854,0.03718429,0.03614016,-0.00662995,-0.02942020,-0.09563369,0.00480851,0.01641370,-0.04132545,-0.07400192,0.03085775,0.00578019,0.02366247,0.01700163,0.06838413,0.05021695,0.01527316,0.02800296,0.02505800,-0.05252766,0.02471880,-0.01344227,0.02303923,0.05663143,-0.00930996,-0.04532605,0.00859350,-0.03783078,0.01003882,-0.00747871,-0.02393164,0.02691815,-0.00444469,0.00789566,0.01196488,0.04490112,-0.00349074,-0.02631803,-0.04722806,0.04387713,-0.00246135,0.03214824,-0.01470457,0.01144441,0.00234148,0.00609310,0.02994142,-0.01230296,-0.00013807,0.01555476,-0.04518590,-0.06879660,0.06713796,-0.01129842,-0.00106123,0.02240284,0.03341702,0.02183912,0.00486679,-0.01591893,-0.03210205,0.00854221,0.01716384,-0.01580009,0.01679831,-0.01790366,0.02658508,-0.03891080,-0.04193580,-0.00226578,-0.03442830,-0.06036095,-0.02824693,-0.01992644,-0.03451762,0.01944163,-0.00957623,0.07356067,0.05309930,0.00567063,-0.00196498,0.06327693,-0.01091593,0.00892806,-0.00494093,0.00572783,-0.01447754,-0.01948067,-0.01760622,-0.03218270,0.02071232,-0.00305356,-0.01636152,0.02584771,0.00022086,0.00311556,-0.01407859,-0.06569600,0.03261121,0.00298393,-0.01236382,0.00352729,0.03549346,0.00114302,0.04872782,-0.00667501,0.04358162,-0.03617404,0.08315871,-0.02645769,-0.01993058,0.02423046,0.02668258,-0.01663873,-0.00399270,-0.01584172,0.00206309,-0.06116314,0.04552537,-0.03222337,-0.00071891,0.00964814,0.00934730
0.01238372,0.05416036,0.01448542,-0.02328911,0.02741705,0.00670616,-0.02325165,0.00963176,0.01046141,0.04998732,-0.04708505,-0.02236667,-0.02737590,0.02057286,0.04089044,0.05425788,0.05563685,-0.05009402,0.04660045,0.02192292,-0.01233659,-0.06266826,-0.04319777,0.02118886,0.00328708,-0.03543031,0.04131056,0.12709597,-0.02625689,-0.04627224,-0.06209902,0.00815079,0.06262229,0.01129890,0.03936333,-0.01576070,-0.02310018,0.03338348,-0.01034363,-0.01573006,-0.00442689,-0.00297838,-0.00325817,-0.00302150,0.07586369,-0.05376979,-0.02305809,0.00501217,-0.00503277,-0.04417073,-0.06178571,-0.00376310,0.00874856,-0.14442275,-0.04691293,-0.03222578,-0.01180791,0.02601746,-0.03842623,0.01754861,0.01947676,-0.06157371,-0.09697414,0.05945264,0.01382705,0.00495570,0.01291129,0.02901742,0.05634109,-0.00755324,-0.02109086,-0.03781102,-0.00663912,0.00789088,-0.04089222,0.01353019,0.06279050,-0.04842027,0.03192445,0.09229854,-0.00648098,0.01695902,0.00113198,0.02661232,-0.06537222,-0.02762230,0.01119415,-0.00974635,-0.00636194,0.01164911,-0.03487364,-0.00382305,-0.02287385,-0.01727031,-0.01965517,0.01212586,-0.04039635,-0.02008576,-0.01229447,0.01013566,-0.03249191,-0.02672074,-0.03533701,-0.07634464,0.04346755,0.01958803,0.01038246,-0.01343871,0.03244606,0.03581031,-0.01066379,0.02571923,-0.00110381,-0.03292434,-0.05355523,0.02287595,-0.02124579,0.00262243,-0.02700858,-0.01279052,0.02507354,-0.07558367,0.01371784,0.06524803,0.00646183,0.00248987,0.05339656,0.06279436,0.00068786,0.00909030,0.00060375,-0.03116686,0.07270286,0.04079608,-0.01560426,0.00107923,-0.04214146,-0.00784240,0.03944884,0.00191349,-0.05037752,0.01006886,-0.00269822,-0.06454188,-0.01904226,-0.10019339,-0.00025300,0.02824695,0.02513620,0.03066799,-0.00409876,-0.07338642,0.00467435,-0.01529535,0.01018468,-0.00690752,0.04277269,-0.01730847,0.01694679,0.01008284,-0.00921375,0.03574610,-0.04885734,-0.03222611,-0.06419886,0.03764440,0.07633429,0.02476210,0.00068138,-0.04349566,-0.02065843,0.05020614,-0.02404698,-0.01079718,0.01935242,0.10604203,-0.02571895,-0.03801360,-0.00036772,0.01634802,0.05157541,0.05800375,-0.00693126,-0.06114376,0.00582330,0.01598659,0.02130960,0.05509832,0.00544968,0.03524151,-0.02724877,-0.02829818,0.00264989,0.04588805,-0.00942839,-0.05274635,-0.05633955,0.03255280,0.06105582,0.02922597,-0.02623593,0.00440985,0.00117139,0.04508802,-0.04027710,0.03304978,0.03982195,-0.05901119,-0.01354166,-0.05349381,0.01789295,-0.02406398,-0.06318567,-0.01541744,0.00899716,0.04661506,-0.10381583,0.01546058,0.05913240,0.01836522,0.01463000,-0.07897494,-0.01083464,0.01978371,-0.01658015,0.06225904,-0.04622950,-0.00619731,0.01009638,-0.01977086,0.05049192,-0.02828592,-0.00641180,-0.03847373,0.00793802,0.00229781,-0.02408298,-0.00964358,0.02994093,0.00429844,-0.00766508,-0.02149914,0.02200695,-0.06659491,-0.00085048,-0.05835687,-0.01191823,0.01572694,0.03827038,0.04284242,0.03642970,0.01530497,0.04381575,-0.01295670,-0.01534104,0.03496985,0.07779054,0.10455696,-0.00103493,-0.02594942,0.01790314,-0.04178929,0.07432051,0.01155187,0.01175002,0.03295005,-0.01808237,-0.02508346,-0.01056824,-0.03350518,0.01512181,0.03259612,-0.04226435,-0.00698852,-0.02846668,-0.06557804,0.00504145,-0.05028003,-0.02817665,0.06136738,0.03264453,-0.02785635,-0.04441454,0.01041564,0.01456561,0.01359152,-0.04971443,0.03601361,0.04024966,-0.01751181,0.00185332,-0.04164310,-0.00652140,-0.10549015,0.00673039,-0.02417187,0.00751636,0.01913322,-0.02654178,0.03168131,0.00107220,0.00497434,0.01595249,0.03067451,-0.02203845,0.01295589,-0.04252920,-0.00457478,-0.03989151,0.00684329,0.00654121,0.03031101,0.02086886,0.02931462,0.03760441,-0.00645752,-0.01206299,-0.01732347,-0.00348221,-0.00275908,0.05204825,-0.05834286,0.04157777,-0.00582722,0.02602396,0.02276325,0.00468349,0.04461117,0.00656545,0.00782366,-0.00815486,0.00789747,0.00755873,-0.02530443,-0.00697631,-0.01289049,-0.00664303,-0.00003839,0.03696034,0.05011012,0.03672162,0.02024935,-0.00124083,-0.00428596,-0.00011913,-0.08414008,-0.02618151,0.02392373,-0.05775457,-0.01727160,0.00938628,0.00101056,-0.01479434,-0.08645588,0.00879124,0.01228638,0.01341858,0.08610290,0.05493785,-0.04559216,-0.03454270,-0.04478900,-0.01291481,-0.00682697,-0.01781066,-0.02984234,-0.04441998,-0.03181832,0.01753749,0.04786690,0.02203050,0.00474524,-0.02668187,-0.00948356,0.03564349,-0.01220351,-0.04222577,-0.07030392,0.01724435,0.01945185,0.00927239,-0.08426397,-0.00944648,-0.02356039,-0.04060369,0.01856541,0.04209110,0.03993110,-0.00737189,-0.02596128,0.04126294,0.00625901,-0.02880783,-0.02327404,0.00381818,-0.02306374,0.02057852,0.02970867,-0.02831656,0.00170101,-0.00614634,-0.02063030,-0.03370892,0.01890921,0.04331177,0.02367002,-0.03270535,-0.05870217,-0.01539360,0.04861095,-0.03848610,0.08226410,0.02253829,-0.03557561,0.07515328,-0.09123383,0.03069029,-0.00881308,-0.02516286,0.02194289,-0.05023454,-0.04596623,-0.01517791,0.05329836,0.00072770,0.03979752,0.00661148,0.01704035,-0.00009293,0.00731934,-0.01975516,-0.02501338,0.00917479,-0.03801114,-0.02844786,0.00894074,-0.04310229,-0.00638437,0.07560817,0.10006220,0.04008211,0.01680286,-0.01480257,0.02668357,-0.04398018,0.04261887,-0.06084726,-0.04383966,-0.01497371,-0.02360035,-0.07007214,-0.02353283,-0.06186743,-0.01398989,-0.03406193,-0.00478046,-0.01856702,0.01131131,0.03328877,-0.02198471,0.05886513,0.13750309,0.03512054,0.01201794,0.02900555,0.02148235,0.02239283,-0.04623236,-0.02440375,0.01386789,-0.01886604,0.02612897,0.01703458,0.00230756,-0.01036090,0.01899366,-0.01603801,0.02563003,0.02288634,-0.01175611,-0.03618975,0.00434890,-0.01358175,0.00197399,0.00972143,0.01595600,-0.06115312,0.05221804,0.02745434,0.01888759,-0.00802178,0.00037346,-0.05575870,-0.02129095,-0.00092920,-0.05921842,0.01729471,0.05232023,-0.00681625,-0.02088251,-0.05471810,-0.02350579,-0.01247947,0.07335127,0.04964199,-0.01227023,0.00108542,0.05580216,-0.01860221,0.03835629,-0.01811147,-0.03570271,-0.05833165,0.00537201,0.03305787,0.03735790,0.05302966,-0.02824489,0.10532331,0.02284846,-0.06851380,0.06823678,0.03084593,0.03736061,0.03895767,-0.04378026,-0.00320695,-0.02821201,-0.01799543,-0.14770105,-0.01288960,0.04923620,0.06334348,-0.02558208,0.04212942,-0.00996910,0.00068910,0.05949971,0.09864610,0.04573783,0.01216434,-0.05130229,0.01033418,0.04766377,0.04166087,-0.00851245,-0.00453109,0.02641516,0.01215243,-0.04636252,-0.02868368,0.01777006,-0.01958234,-0.05455600,-0.00077948,-0.03995568,0.05925374,-0.08746064,0.00308083,-0.00336282,-0.05017917,-0.10303589,0.03576791,-0.00865422,0.01355199,0.04997154,-0.03808086,-0.01889224,-0.05597410,0.00147467,0.00398358,0.02026167,-0.05156706,-0.04806305,-0.04511078,0.00275318,0.04720803,0.08227061,0.01510705,-0.03049126,-0.00862277,-0.04991616,-0.01192084,0.01148953,0.02936420,0.01132238,-0.05771663,-0.01910005,-0.00962480,-0.04140055,-0.03049236,0.03657522,0.03625943,0.00753980,-0.00800136,0.01596145,-0.01723943,0.05286124,0.02896172,0.02258511,-0.01759245,0.08363708,0.03503001,0.00802483,-0.00668613,0.05501979,-0.02561101,-0.03310404,-0.02604864,0.03606521,-0.03651898,0.01333504,0.06155304,-0.01394439,-0.00640017,0.03785932,-0.00174686,0.03539759,-0.00479106,0.05931402,-0.02442917,0.02007597,0.07837286,0.00347216,0.03848546,-0.00724199,0.03629266,0.03442859,0.01177710,0.00506280,0.00786448,-0.02267189,0.04975581,-0.01573992,-0.03106323,-0.01689732,-0.01510214,-0.02852726,-0.00980281,-0.03737106,0.00535938,-0.08307721,0.02081191,-0.05996962,-0.05862189,-0.04377085,-0.02052299,-0.03598450,-0.01520512,0.02195197,-0.03761127,-0.00280685,-0.01505358,0.03121180,-0.01819749,-0.07610755,-0.02152085,0.07268760,-0.02465049,-0.02215705,0.03175722,0.04848102,0.03011727,0.05357696,-0.04225961,0.03383595,-0.03004084,0.05527283,0.00292230,0.06208400,0.10150307,-0.00981392,-0.00974159,0.08554347,-0.02891252,0.04579143,-0.02430545,-0.02708204,-0.02926082,-0.03489042,0.02986651,0.00187651,-0.00843182,-0.00994899,-0.00185204,0.00632327,0.08388133,-0.04724329,0.03927700,-0.05688841,0.00177159,0.05465124,0.02388460,-0.01502816,-0.04595875,-0.01851346,-0.00579906,-0.01680049,-0.02750502,0.03646270,0.00836672,-0.05709010,-0.01634431,-0.04277671,0.03868357,0.01026729,0.03170504,-0.02239792,0.02335130,-0.00045075,-0.02803324,-0.03199804,-0.06312650,-0.07086010,-0.01633066,-0.01315979,-0.07053058,-0.01316669,0.05964141,-0.02936465,0.01413582,0.00616607,0.00352823,0.01780201,0.00962986,-0.04614330,-0.01162995,-0.02441065,-0.05063869,-0.04126692,-0.03916302,-0.00006447,0.07384006,-0.02521452,0.01968542,-0.08848909,-0.01939805,0.02653422,-0.01458242,-0.02939517,-0.04380113,-0.02839832,-0.02743463,-0.00216115,0.00587196,-0.01736300,-0.05381504,0.01894226,-0.01617202,-0.00601677,-0.02053665,-0.02729643,-0.03359945,0.08152058,0.01498911,-0.04484566,-0.02534190,0.01269846,0.04282218,0.00197972,-0.01026339,-0.01237997,-0.01356819,-0.04385209,0.00379805,-0.04125785,0.00514148,0.00636079
-0.00328820,-0.05734159,0.03747429,-0.03018595,0.02199689,-0.06350317,0.05533234,0.04496395,-0.01563483,0.02069160,-0.08580390,0.04890383,-0.02233930,-0.06611805,0.04115984,0.03597570,-0.03317970,0.02795489,0.02490045,-0.05068069,0.02793535,-0.01508019,0.02708035,-0.03626923,0.07701042,-0.04869190,0.05084762,-0.03643420,0.03582977,-0.07344300,-0.06095028,-0.08438557,-0.00080994,-0.01719123,-0.00791113,0.00434047,0.00654435,0.00955613,-0.01499739,-0.05570365,-0.02511137,-0.03628907,0.02722803,-0.00254303,0.02155469,-0.02300463,-0.01526393,-0.06437563,-0.02451844,-0.00259183,0.04098454,0.02226311,-0.01727589,-0.12339041,0.00336810,0.00743858,0.00823920,0.01269616,0.00845350,0.06854653,-0.00270117,-0.04833377,-0.05537891,0.02402261,0.02150712,0.01297516,-0.00717576,-0.02001821,0.01742943,-0.04882658,-0.02671987,-0.00746373,0.01158220,-0.00664343,-0.04304696,-0.01905952,-0.04355852,-0.04510702,-0.00791402,0.00563751,0.02204423,0.02018514,-0.01180631,0.00950576,0.00329039,0.01920272,0.05068916,-0.02660445,-0.01256884,-0.05274056,-0.06306949,0.03088351,-0.07379086,0.02033237,-0.05503295,0.00048334,-0.03339731,0.03398759,-0.04228987,0.04597999,0.01524603,-0.02386965,-0.03650156,-0.06482545,-0.01020849,-0.02053360,-0.01216723,0.03280547,-0.00425223,-0.02958759,0.00856385,-0.05081443,-0.03473352,0.00328433,0.01565678,-0.06027023,0.01409478,0.03243610,-0.04427296,0.02164324,-0.00192292,0.09302669,-0.04700037,-0.00709926,0.03596760,0.02992153,0.07831893,0.01896813,0.00523029,0.03168869,0.02418480,0.01092037,0.04392665,0.00141042,0.00991292,-0.02769239,0.08323722,0.01503513,0.01142706,-0.04263460,-0.02570090,-0.09375658,0.00986841,-0.02684174,-0.00691451,-0.00297700,0.00379577,0.04480551,-0.02254432,0.01566504,0.04381429,0.06285360,0.00132028,-0.03249122,-0.02496850,0.04462740,-0.03894176,-0.04283288,-0.01397397,0.08429073,-0.04220006,0.01451845,0.03004600,-0.01026997,-0.07555185,0.07025561,-0.01096161,-0.03254951,-0.02629404,0.01071107,0.03513540,0.05803556,-0.01897195,0.04135682,-0.03149187,-0.02579528,-0.00004908,-0.00473122,-0.03617185,0.05773874,0.02373805,-0.03718100,0.00818441,0.02688647,-0.02718812,-0.02281824,0.00876789,-0.03193825,-0.01699550,-0.02947578,-0.00234307,0.03439540,0.02017363,-0.01816673,0.02468219,-0.00437143,0.00919152,0.02233654,-0.00289718,0.02686209,-0.04253834,-0.01015573,0.10647027,-0.01270307,0.03933038,0.00979765,0.01597241,-0.03283983,0.01311902,-0.00846011,-0.01687272,0.02754848,0.06392307,0.00953570,0.02422569,0.08857080,-0.05745386,0.02706496,-0.05237829,0.01214650,0.04198546,0.00951607,-0.01200207,0.03056517,0.02283843,-0.00220866,0.00341275,-0.02395876,-0.03017014,-0.05387143,-0.02490231,-0.01654677,0.05347282,0.05831499,-0.02450301,-0.02765205,0.01476050,0.07141069,-0.06187544,-0.05384752,0.02829121,-0.00364122,-0.04225514,0.05973634,-0.01786492,-0.03268683,0.03335237,-0.01415392,0.03184592,0.01987119,0.04023084,0.03363905,-0.02925715,0.04311065,-0.02290023,-0.02904319,0.00317207,-0.04783600,0.03463669,0.04125509,0.01693018,0.07943834,-0.01144226,0.00701222,-0.03780853,-0.04201128,-0.00302344,-0.06327811,-0.00786567,0.02845825,-0.00461961,0.00512545,-0.01942146,-0.02409073,0.06211629,-0.03202716,-0.07482757,0.05959801,0.04350882,-0.01297786,0.03107240,-0.00846029,0.03791003,0.06277241,0.03030680,0.03582795,-0.07991631,0.02629772,-0.01576051,0.00062773,0.00833672,0.07163323,0.01220700,-0.02490866,0.02727671,0.00106846,0.02293241,0.00053834,0.04412847,-0.00132928,0.04157599,0.02566195,0.00121071,-0.00123763,-0.01307694,-0.00872653,0.06580797,0.00576331,0.02697673,-0.02705519,-0.02173534,-0.11029282,0.03581849,-0.08854514,0.04319937,0.04637486,-0.00547710,0.01026489,-0.01291188,-0.05007792,-0.02880656,0.01562911,-0.05808156,0.00009499,-0.01136886,-0.01388552,0.06675364,0.02090768,0.03654755,-0.04676467,-0.02501906,-0.04411294,-0.00638285,0.05832221,-0.03016682,0.01750397,0.08454776,-0.02114569,-0.00577407,-0.01003939,0.00139161,-0.02338576,-0.01524653,0.03297874,-0.03620011,0.07808977,-0.00137717,-0.03140438,-0.01362509,-0.02240091,-0.00735810,-0.00866073,-0.00554373,0.11465896,-0.02922001,-0.00512039,-0.04777593,-0.02033316,-0.02986702,-0.01568279,0.00914180,0.01927800,-0.02115119,-0.03123862,-0.01243035,0.00925265,0.05531317,0.00245281,-0.07917903,-0.04775387,0.00564704,-0.04329662,-0.00697416,0.05777251,0.03966708,0.03400249,-0.09410024,-0.00559091,0.03968307,-0.06143799,-0.03458001,0.02176470,-0.00808005,0.02364180,0.03096243,0.02442383,0.03727244,0.01633902,-0.02630964,0.00854253,-0.04684131,0.02950019,0.04826337,-0.04068433,0.04605697,0.03862450,0.03232251,-0.00185350,-0.00001296,0.02043647,-0.05183833,-0.04895788,-0.01161025,0.00137253,-0.00866318,-0.01391552,-0.00049027,-0.00965570,-0.01257815,-0.02523761,0.07058742,0.01911589,-0.00011119,0.04088178,-0.02354672,-0.01545072,-0.02141902,-0.06339896,0.08813065,0.09964222,0.03719244,0.01458832,-0.00892017,-0.01469917,0.03981116,-0.02368742,0.00955459,0.00352867,0.00061396,0.07618940,0.00841764,0.10160054,-0.00213694,-0.00906314,0.06373758,0.02391818,0.05669222,0.04661687,0.02110044,-0.00302551,-0.00981367,-0.01317549,-0.03043562,-0.00045891,-0.01438157,0.02197289,0.01543538,-0.01502130,0.03672485,-0.00297382,-0.01774334,-0.02507758,0.04662921,0.00202750,0.00895120,-0.03276163,0.06861343,-0.01835625,0.00508380,-0.02660961,0.03425100,0.02630671,0.01170444,-0.01898210,0.00802592,0.01717814,0.01376404,0.01480471,-0.05781425,0.00058624,-0.02531427,0.07059593,0.01721825,-0.00631363,0.01400457,-0.02055836,0.06912535,0.01745292,0.01824164,-0.00941328,0.06418457,-0.03372125,0.05015570,-0.02321135,-0.02730480,-0.09058770,-0.00663614,-0.02658885,-0.05387706,0.02141201,0.02731797,-0.01791904,-0.02287617,0.01255186,-0.01952819,0.04358254,0.06511546,0.04687505,0.03204219,0.06283333,-0.06693006,0.03844352,-0.00051209,-0.00960524,0.04541736,-0.04743749,0.01755074,0.01452877,0.04629738,0.01046780,-0.02363473,-0.00772793,0.06025935,-0.00216662,0.03916052,0.03652879,0.00879044,-0.00828903,0.02605332,0.02592429,0.00834128,0.00828762,-0.00007709,-0.02289060,-0.04157232,0.01602072,0.11582053,-0.01009933,-0.00629219,-0.01079510,-0.00736067,0.00568599,-0.03837676,-0.03887059,0.07110384,0.01378098,0.02515845,0.00138965,-0.02323570,-0.04371633,-0.02009707,0.01583603,-0.03054306,0.02462642,0.02121581,-0.12239479,0.00425965,0.00635428,-0.07012250,0.00731159,0.00440937,-0.04275028,-0.04712670,-0.02901166,0.05433126,-0.02966192,-0.05438983,0.03918586,0.03137672,0.04576536,0.01101828,0.06903762,0.01103449,-0.00696637,-0.00274420,-0.04895928,-0.05127098,-0.04273792,-0.04812949,0.00022382,-0.05655919,0.02116120,-0.01535244,0.02251897,-0.02134441,0.03309116,-0.04370987,-0.05815570,-0.07776871,-0.01220140,-0.01099358,-0.04434742,0.01128385,0.03052561,-0.05201769,0.01767666,-0.03045397,0.01904595,0.04936694,-0.03117518,0.00664176,0.03253029,0.02139483,-0.01623131,-0.07499889,-0.01144320,0.01841383,0.01171084,0.00679114,-0.03122656,-0.00491124,0.01742288,0.01335258,-0.04133371,0.00964739,-0.02072058,-0.03233895,-0.03743335,-0.03116985,-0.02132008,-0.06643479,0.05975743,0.00283139,0.03284921,-0.03888739,-0.04191303,0.01514709,0.03218529,0.06314646,-0.01585807,-0.04446982,-0.05482208,-0.01552581,-0.02214153,-0.03975082,-0.09890804,-0.03362202,-0.00409562,-0.01690115,-0.04946308,-0.01923291,0.00172349,-0.00225703,-0.00456464,-0.02765028,-0.00878597,0.04653239,-0.04846487,-0.07358772,-0.02644203,-0.08241224,-0.05097704,-0.03115369,-0.03675354,0.01762149,0.08068970,-0.01194064,0.06884782,-0.02685905,-0.07138259,-0.02579189,0.01656663,0.04869622,-0.00570470,0.02797219,-0.00765369,0.03877777,0.03059706,-0.01954093,-0.04907256,0.00036971,-0.00273494,0.00103553,0.00725915,-0.03118059,0.03285027,0.03828799,-0.01147440,0.01429732,0.05941592,0.14632277,0.03548680,-0.00113763,0.00265530,-0.00983288,-0.01391978,-0.04256049,0.00090331,-0.04690669,0.13366942,0.05414262,-0.06563178,-0.02352881,-0.00729671,-0.01691904,-0.00317343,-0.03320198,-0.01748752,-0.00550595,-0.04037818,0.00576678,-0.06373262,-0.07695661,-0.01114406,0.00642260,0.03259678,0.00183208,-0.01024156,0.00351433,-0.03447590,-0.05970534,0.00434809,0.03866614,0.04577975,-0.02070932,0.01802556,-0.03060348,0.03755547,-0.04500388,-0.03342441,-0.03042492,0.04029274,-0.01616377,0.05996300,-0.03922909,0.01426175,-0.00825405,-0.04314360,-0.03497736,-0.01438598,0.04117064,0.00548071,0.01916202,0.02519926,0.01036357,0.06267874,0.04823792,0.05017646,0.02115739,-0.02703343,0.03422500,-0.02264043,-0.00710269,-0.01261934,0.02431378,0.03891289,-0.01496731,-0.01687722,0.00592822,-0.04379857,-0.00716108,-0.01191435,0.06321874,0.01436052,-0.01762504,-0.01951100,0.06209694,-0.03968530,-0.01131267,0.01206060,0.02094234,0.04805463,0.05851486,0.03051208,0.00250641,0.03047399,-0.02206392,0.04115121,-0.02655671,-0.00854978,-0.03080752,0.02476983,0.00020767,-0.06179336,-0.00810832,0.02022828,-0.01966564,-0.01398916
