0.58452630
-0.33065808
-0.43035516
0.37298384
-0.29675460
0.41116989
0.01408271
0.29292032
0.23489857
-0.12878922
0.13552147
0.45243645
-0.10096555
0.10965616
0.43052137
0.56419319
0.03130811
-0.04766806
-0.31544667
-0.12007058
0.00618458
0.00596245
0.00316053
0.46903899
-0.02118324
-0.06145941
-0.07077578
0.58605456
-0.41845289
-0.00252676
0.31949210
-0.01921683
-0.13663620
-0.23940130
0.05938070
-0.07771177
-0.07189246
-0.12560692
0.54061782
-0.07883936
-0.24809326
-0.40649077
-0.37327948
-0.13755341
-0.71579939
-0.46672562
-0.12923685
-0.36007854
0.03398654
0.20876920
0.42725259
-0.00178786
0.67233956
-0.17643400
0.29904422
-0.29355222
0.41211772
0.08127230
-0.17615497
-0.27325583
0.64788944
0.06211175
-0.33108640
0.17167582
0.00211955
-0.31555665
0.08157684
-0.01963012
0.21909896
0.17474005
-0.26608127
-0.40944350
0.08100887
0.19274519
-0.04672904
-0.12691915
-0.19711594
-0.06478036
0.15860668
-0.13847043
0.06353263
-0.27349961
-0.06037185
0.23202303
-0.27954158
0.19173533
0.23259687
0.26159373
-0.08713424
0.22663438
0.35199291
-0.24024570
-0.15359713
-0.22516462
0.13866466
0.14416142
-0.08312616
0.00500796
-0.18282670
0.15364493
0.04123044
-0.05813335
0.27882665
0.18043123
0.77685857
-0.24195854
-0.24774390
0.14701012
0.00628601
-0.11144412
0.01089572
0.28827280
0.17992984
0.07775783
0.11564270
-0.66989976
0.11652557
0.07442574
-0.08614932
-0.25184670
0.14966296
-0.07376850
-0.08793072
-0.12229448
-0.17084123
0.07739281
-0.21536490
0.19911516
0.19612901
0.80564249
-0.53907114
-0.01166499
-0.00892985
0.10640731
-0.07668028
0.23619784
-0.15271555
-0.05482621
-0.20584230
-0.22938803
0.18741257
-0.05582775
0.25424841
-0.79333884
-0.09229085
0.02749730
0.19585454
-0.04914416
-0.07816879
-0.30874231
0.22202525
0.84764504
0.23730455
0.23187938
-0.52906203
0.28222066
0.25406563
0.08100349
-0.15299833
0.67532021
0.56927311
-0.52179748
0.39658731
0.26192239
-0.59833848
0.41748980
-0.00732956
-0.69961149
-0.20952074
-0.04672167
-0.46984041
-0.68618149
0.14548711
0.34823790
-0.17464352
-0.07427694
-0.69190651
-0.24608502
-0.12478020
0.84410477
-0.49739406
0.56931174
0.44650695
0.06348485
0.30383298
-0.09949208
-0.65283382
-0.18840483
0.57224959
-0.11397090
-0.49140835
-0.29254559
-0.80503482
0.11020815
0.16345689
-0.15504254
0.09775671
-0.01542707
0.48679319
-0.08343262
0.03449551
0.07346421
0.08991743
0.59909898
-0.08811206
-0.29649729
0.10575097
-0.15738921
0.12113336
0.14594069
0.48927826
0.00310519
0.22960669
-0.42991164
-0.27252081
-0.53058273
-0.55994821
-0.05801898
0.79812753
-0.05787456
-0.09877168
0.33013484
-1.05262971
0.13644966
0.01518511
-0.09190652
0.15293986
-0.09220949
0.10022394
0.63337415
0.65857667
0.06255925
-0.14775927
-0.35157359
-0.22177742
-0.19854380
-0.18931496
0.29901382
0.02311199
0.06660339
-0.43081096
0.07110400
-0.13023004
0.07978421
-0.10605225
-0.08057287
0.00919792
0.04497538
0.11990270
0.24703367
-0.69401324
-0.01485462
-0.03194934
0.12546913
-0.11349124
-0.15733050
-0.16690148
0.03714652
-0.23444702
-0.00403440
-0.10184888
0.36576200
0.31772763
-0.05779002
0.03306858
-0.21703739
-0.23610249
0.03759237
0.21068482
0.27302751
-0.05019421
-0.37360859
-0.12276115
0.42959872
-0.03080031
0.29679441
0.03754010
0.01298248
-0.09946289
0.14351431
0.31123164
0.18263683
0.36983430
0.35791093
-0.50073355
0.32617417
-0.04550022
-0.04134041
-0.05149151
-0.23707855
0.20753008
-0.11583348
0.13304368
-0.00056122
-0.33235830
0.01231542
-0.49848038
0.03305873
-0.00115001
-0.12548096
0.43506527
0.29460379
-0.24253170
0.19221498
-0.26298860
-0.23419829
-0.22634503
0.16714320
0.06267629
-0.22795206
-0.12866294
0.13716552
-0.21501291
0.02209544
0.45942131
0.18469846
-0.14055441
-0.17579859
0.11859676
0.34571713
-0.33443010
-0.26963729
0.38235620
-0.23200980
0.21509540
-0.30444992
-0.19158116
0.17084111
0.21195368
-0.25568548
0.09862493
-0.15281583
0.26724783
-0.02516211
0.08554016
0.45183656
0.03572092
-0.59069300
0.06472279
-0.08612676
-0.01419226
0.40828866
-0.44387582
-0.21294692
-0.20667790
-0.03117697
-0.47921062
0.09991540
0.12341413
-0.00915881
-0.45048490
0.03003698
0.19138354
-0.31393996
-0.40230241
-0.32489491
-0.62107974
0.40122950
0.15948649
0.00756981
-0.38692570
0.20774348
-0.00941090
-0.34089500
0.46470985
0.13807765
0.18089078
0.38513598
0.03385428
-0.10500385
-0.23819119
0.17912105
0.23481159
-0.13390721
-0.26674059
0.13428259
-0.29684263
-0.35089660
-0.11067381
0.10564405
0.00921280
0.41552037
-0.18899976
0.06934530
0.25171253
0.20032930
0.17379247
-0.30372119
-0.53690219
-0.09898087
-0.61742646
0.05918651
-0.11018944
-0.33916333
-0.33811203
-0.34899881
-0.62802231
-0.15986459
-0.20673409
-0.52646756
0.64212102
0.19320633
0.19167128
0.31509042
0.07595766
0.31855050
-0.19289051
0.17703047
-0.24500033
0.44107643
0.07688646
0.18483907
-0.26168370
-0.24409659
-0.01585518
-0.48629427
0.10407326
0.31806025
0.40957126
0.08664998
-0.16721883
0.67394561
-0.31949866
-0.29219934
-0.07852051
0.26210862
-0.23821351
0.26335579
-0.00472976
0.08451755
0.08680334
0.01803126
0.04775548
0.04960784
-0.06459305
-0.01655240
0.24534446
-0.15634041
0.42705798
0.29572058
-0.52529109
-0.03524115
0.16824773
0.18995084
-0.46314982
-0.40420964
-0.10433179
0.54043025
-0.09707622
-0.08280782
0.16744284
0.09852189
0.18369056
0.02373015
0.30367979
0.11974045
-0.03742072
-0.02314883
-0.00662447
-0.13833760
-0.06287969
-0.01166025
0.06243885
-0.08218414
-0.30728117
0.07190554
-0.02234368
0.01241309
-0.18315767
0.53473157
-0.34610912
-0.16693401
0.21461606
-0.13419773
-0.25031483
0.15587312
0.13748068
0.31890684
-0.35601607
-0.39126170
0.05614005
0.17791401
-0.03913774
-0.34940419
-0.33978873
0.12081397
0.09878550
0.07197348
0.19203661
-0.02909655
-0.14383841
-0.02382857
0.34666714
-0.01645016
-0.05734492
-0.12695052
0.12087675
-0.09787170
0.18291470
-0.12635387
0.16710450
0.35505939
-0.35204640
-0.10285069
0.01124196
-0.07028092
-0.01646521
-0.27788302
-0.02779711
-0.08312306
0.16611160
0.07518414
-0.03917837
0.23653397
0.07422230
0.32432762
-0.09468474
-0.12739287
-0.14932103
0.00399757
0.12385471
0.04662888
0.16827551
0.15669256
-0.07636049
0.09619802
-0.12152409
0.42665061
0.12577504
0.58782613
-0.09521138
-0.18082649
0.19947304
-0.16472460
-0.12693490
0.05932496
-0.40878111
-0.40634704
-0.22604135
-0.12070020
-0.03002152
0.29449841
-0.25045225
0.49312893
-0.09316798
-0.01739534
0.18301368
0.17258474
0.10285937
0.13243073
-0.16002543
-0.08943443
-0.00884998
0.18655428
-0.14454432
0.21227404
0.08265972
-0.14440896
-0.05944367
-0.27907676
-0.36299199
0.20045675
-0.07563779
0.53509575
0.22515136
0.37806642
-0.20462997
-0.32954925
-0.18925905
-0.23720320
0.08620755
0.11241184
-0.02488890
-0.01323659
-0.29624900
0.77676862
-0.34510615
-0.31154543
0.03043701
-0.10042413
0.35945615
0.18820073
0.08673547
0.08061012
-0.16031815
-0.45928976
0.11473333
0.20437835
-0.24891859
0.29737520
-0.01843414
-0.27895924
0.14526080
-0.17617184
-0.15740985
0.21274494
0.54347003
-0.12769742
0.03357024
-0.45310548
0.63541734
0.44179082
-0.13288525
0.24258485
-0.21642400
0.00788873
0.57429212
0.00385150
-0.01981055
0.08346155
0.24003501
-0.16483866
-0.02062876
0.35433123
-0.42555580
-0.20202689
0.31876040
0.22212449
-0.03525308
-0.01938611
0.44733971
-0.29809421
-0.35504761
0.09658203
-0.18994220
-0.39707956
0.26834679
0.26555216
-0.50917625
0.12510076
0.05375705
-0.15804899
0.55107820
-0.20687160
-0.37268886
0.17594187
0.41879150
0.40919274
-0.11716793
-0.34288177
-0.22355218
0.26482841
0.18063276
0.21032532
0.81396592
-0.33019608
0.29956964
0.57555193
0.21289445
0.29052648
0.11347859
0.11979817
-0.60380071
-0.21590263
0.09625728
-0.28964522
0.54118437
0.05337688
0.07600850
0.12695113
-0.11593411
0.06764607
-0.38318822
0.12225946
0.86370742
-0.00740353
-0.04234290
0.17102718
-0.13113283
0.28513858
0.03769665
0.07099691
0.62299848
0.06962947
-0.05316867
0.20273192
0.25594127
-0.21476519
-0.51038593
0.42364633
0.44597641
0.06396837
-0.35312477
0.08909454
-0.18393841
0.10927063
0.09596725
0.65070689
0.21672180
-0.32305524
0.16786571
0.06799158
0.01261135
0.10353052
-0.20217438
0.13412991
-0.09622493
-0.65910101
0.04173857
-0.02410307
-0.46561021
0.40891203
-0.07584666
0.42082137
0.12792097
0.24147624
-0.07317924
-0.32564408
-0.00800886
-0.11480359
-0.14132616
0.38361776
-0.26099014
-0.04329774
-0.09866218
-0.30692557
0.34907949
0.19468543
0.00891321
-0.11866195
0.13664252
-0.21555023
-0.02893320
0.32556552
0.33099502
-0.07784173
0.05412630
-0.06172810
-0.16113801
-0.31151772
0.02699523
-0.07107396
0.36248401
-0.25529671
0.27037102
-0.50819731
0.09191243
0.03166093
-0.13683873
-0.06664467
-0.21468168
-0.26169154
-0.35202461
0.05503536
-0.14265984
0.21193099
0.47530612
-0.04198079
0.23757765
0.21322004
0.20333327
0.12511581
-0.01356029
-0.15030001
0.02844846
0.14966014
-0.00632118
-0.15982452
-0.13585992
-0.01681074
0.20938292
0.05293128
0.31106839
0.01638365
-0.22358118
0.18540919
-0.11134918
-0.07634832
