0.01115983,0.00065576,-0.00781710,0.00687957,0.04169026,-0.02911763,0.01530737,-0.00518069,-0.03118119,0.03641343,-0.02714144,-0.03513849,-0.00060630,-0.02130055,-0.02777238,-0.03151377,-0.00260028,-0.02251708,-0.01918835,0.01465743,-0.04981303,-0.01209925,0.02213491,-0.02977734,0.02798835,-0.04810236,-0.00217943,0.01033728,0.02352201,0.04309146,-0.04197625,-0.01532213,-0.00826163,-0.00447613,0.02262317,-0.02730658,0.05755215,-0.02388096,-0.00159853,0.01032641,-0.04033926,0.00969733,-0.00673942,0.00324278,-0.00283947,-0.00591429,-0.02529898,0.02210033,0.01085270,0.00695925,0.03228114,0.01836654,-0.01639409,0.07012241,-0.05913354,0.00029555,0.01595425,0.00157208,0.01614680,-0.00870015,-0.05545820,0.01614388,-0.03879267,0.06023843,-0.00823973,-0.03718977,0.04890052,0.00965984,0.00691380,-0.00678969,-0.01239017,-0.03486745,0.02023950,0.02183658,0.01008547,-0.00522276,0.00288297,-0.00723809,-0.03114435,-0.02953521,-0.02646739,0.00896114,-0.01849896,-0.01871613,0.02510720,-0.02597456,-0.00955960,0.00800693,0.01180122,-0.02474755,0.01026243,-0.00478532,0.02393998,0.01377046,0.00898762,0.05193497,-0.02877725,0.01044606,0.02461686,-0.01483993,0.02866390,-0.02048645,-0.00343975,-0.07188044,0.03154721,-0.02454683,-0.03548590,0.01225400,0.03133661,-0.00936972,0.04443127,0.00237368,0.05634429,-0.02475301,0.00473663,-0.05512744,-0.04068583,0.01349704,0.03791486,-0.03030939,-0.05604977,0.03200959,0.00704079,0.00949710,-0.00280382,0.02322222,0.02303804,0.04670069,0.01119869,0.03361454,0.00751066,0.01814243,-0.00673306,-0.02410968,-0.02755269,-0.01207941,0.01928968,0.04673915,0.00959308,0.11293820,0.03895972,-0.05013780,-0.02215583,-0.00163540,0.01061250,-0.04367133,-0.00467652,0.01401526,-0.00754309,-0.01268290,-0.05823315,-0.05134317,0.04151971,0.00029882,-0.03186435,0.02270892,-0.02225638,0.00300578,-0.00992220,-0.01713227,0.05739297,-0.02944491,0.00609095,-0.03824630,-0.04816214,0.01375158,-0.03098237,-0.01908760,0.03035340,0.00938668,0.00595637,0.03748082,-0.03834020,-0.02057848,-0.03490123,0.04702366,0.05007923,-0.02447753,-0.04248341,-0.03863578,-0.00158975,0.00623403,0.03425604,-0.01185335,-0.03598195,-0.09234848,0.00517437,-0.00395212,-0.03355582,-0.00177610,0.03888352,-0.02985193,0.00846015,0.04104836,-0.02567418,0.02146347,-0.00928301,-0.03048659,0.02177288,-0.05128638,-0.02717876,-0.00778415,-0.00418473,-0.03813200,-0.02622798,-0.02513184,-0.03570992,0.00279531,0.00698713,-0.08093885,0.06636664,0.02794233,0.02027688,-0.05978930,-0.01561713,-0.03445440,-0.00734322,0.02722916,-0.02609773,-0.01818921,-0.02922137,-0.00318938,-0.04336366,0.02800315,-0.02432613,-0.03337666,0.06513217,0.02344727,-0.00126533,-0.01274267,0.01867767,-0.01523800,-0.00353439,0.02458743,-0.00769339,-0.00565290,0.02218367,0.00827657,-0.03006484,0.00338619,0.02472198,0.02416769,-0.03341524,0.00738428,0.04228557,0.03318809,0.04309487,-0.01621351,0.01410436,0.03841508,-0.04300794,-0.03140246,0.01424805,0.00120179,0.04537853,-0.01078684,0.00779430,0.02073715,-0.03656980,-0.04146668,0.00021194,-0.01499533,-0.03439746,0.04860274,-0.00786944,-0.05690819,-0.00344744,-0.06494964,-0.03017027,0.02577356,0.02660408,0.02889780,-0.05344791,-0.03781421,0.02514267,0.02921661,0.01090565,0.04697692,0.01291693,-0.03134248,0.00980481,-0.02963327,0.04596930,0.03037849,0.00110253,-0.01394450,0.02957720,-0.02267966,-0.02724515,-0.01001858,-0.02445370,-0.01564320,0.01165975,0.02080997,-0.02545848,0.04261954,0.01027323,-0.04414204,-0.00935040,0.00136170,-0.03489276,-0.04534353,0.02695948,-0.08092313,-0.01002437,-0.06075348,0.02277339,0.05435478,-0.03160299,0.02374627,-0.04696870,-0.02077172,0.02264925,0.04171142,0.00488689,0.03461147,0.00580024,0.00107688,-0.00938896,0.02447708,-0.00387938,-0.01197994,0.04439308,-0.00490821,-0.01661349,-0.02034288,-0.01747111,-0.01899344,0.02636472,-0.02698152,-0.05048795,0.07354114,0.01509226,0.00988147,-0.03301243,0.00218291,0.02871212,0.00182158,0.00472810,-0.01496128,-0.02643953,-0.02111624,0.01732658,0.03087169,0.02310268,-0.06160897,0.05673718,0.00595487,0.02921119,-0.04149715,0.03969447,0.00391525,-0.00777928,-0.00404870,0.05244824,-0.06349356,-0.06253279,0.00706963,-0.04825363,0.00998147,0.00353535,0.00056549,0.01937703,-0.00231035,0.00150812,-0.04719006,-0.03431889,-0.00047290,-0.01468728,0.01990231,0.01946404,0.00051073,-0.03015685,-0.00350957,0.00366237,0.01815791,0.00267663,0.00856760,-0.05154184,0.00272403,0.00376171,-0.01522372,0.00375962,0.01867304,-0.03089949,0.02612584,-0.02057051,0.02684860,-0.00214387,-0.00262632,0.02932090,0.01141353,-0.02708058,0.01510159,-0.02753323,-0.00369570,-0.02387926,-0.01790974,-0.00996978,0.01321797,0.00107935,0.04722486,0.03911640,-0.03583169,0.04339684,0.04769532,0.00445829,0.01770975,0.00143170,0.00861765,0.02041945,-0.00652094,0.03267787,-0.02078722,0.01152651,0.00080696,0.02505264,0.00393312,-0.00279581,-0.01120897,-0.02857842,-0.04251467,0.03360141,0.01003050,0.02243517,0.03347311,-0.00092744,-0.00290063,0.02302190,0.02598179,-0.00616533,0.02674527,0.05824880,0.00468556,-0.00731257,-0.02389741,0.01620817,-0.02176875,-0.01611132,0.05443729,-0.01405870,0.00223851,0.03569342,0.07733678,0.02462583,-0.01598021,-0.00562290,-0.01851951,-0.00928873,-0.05508219,-0.01539255,0.03117922,0.00544835,0.00272046,0.00890600,-0.01532996,-0.02961578,-0.02025790,-0.01991842,-0.01998139,0.03793576,0.04594096,0.00857151,-0.00985253,-0.01692094,0.04856220,-0.00828295,-0.02330366,0.00201052,-0.01949638,-0.03816197,0.00476354,-0.00281604,0.01809403,0.02202765,-0.02984958,-0.00447119,0.00842321,0.02957823,-0.00327598,0.02391941,0.04537160,0.01074537,-0.04546234,0.03071167,0.02789415,-0.01574396,0.00146638,-0.05427803,0.00471420,0.02622257,0.03313943,-0.04879916,0.01166814,0.05721228,0.01409085,0.03796761,-0.00140350,-0.00828150,-0.07877820,0.02141190,-0.00810676,0.01258508,-0.05465670,0.03020101,-0.03123132,-0.03458004,-0.02172201,-0.00744164,0.00710554,0.01923443,-0.01345283,-0.03030147,-0.00539958,-0.01977293,-0.00308751,-0.00486039,0.00592537,-0.01035473,0.02527476,-0.00832858,-0.09612882,0.01118630,0.00027715,0.03268324,-0.00587980,-0.04312991,0.01259912,-0.03492877,-0.01083207,-0.02448522,-0.03720370,-0.00274144,0.02078312,-0.03438276,0.00642146,0.00308190,-0.00508380,-0.00176653,0.02033574,-0.00052676,0.04377309,-0.01794556,0.01832977,-0.04052087,0.08803277,-0.00061531,0.03722765,-0.00256599,-0.03757806,0.02480110,0.02545289,-0.00816622,-0.04725081,-0.02150122,-0.01849442,-0.03387211,-0.02442799,-0.02558997,-0.00337750,-0.01803740,0.01918773,0.04244497,0.05048424,0.01365109,-0.02165114,0.00952293,-0.02116431,0.02746267,-0.02815749,-0.02197910,-0.02049039,-0.02070206,0.02411985,-0.03294138,0.01035078,-0.04747871,0.05889370,-0.00665163,0.01528026,-0.03536576,0.03321864,-0.02123349,-0.02769510,0.01220868,0.02585621,-0.01294843,-0.01256990,0.00738760,0.04621463,-0.00062406,0.01332590,-0.03405086,-0.00669929,0.01185903,0.01523836,0.02990002,-0.02841580,-0.06450202,0.03259171,0.01098472,-0.02819566,0.02108648,0.02436512,0.00610925,0.04530528,-0.00336481,-0.03634902,0.00392953,-0.01734983,-0.01331769,-0.00890478,0.00804206,-0.02834502,-0.06029835,-0.00575575,-0.02134878,-0.01907495,0.01175459,0.01180957,0.07940768,-0.01654891,-0.00943459,0.00385722,0.00197852,-0.00525319,-0.00825466,-0.01693771,0.01199484,-0.01964162,-0.03677133,-0.01204302,-0.00728619,0.00412983,0.05354213,0.04365725,-0.03164003,0.01082989,-0.05219170,0.02693356,0.04222718,-0.05444749,0.02572828,-0.03105941,-0.01718719,0.04815917,0.01377010,0.02802098,0.00338293,0.02638687,0.03362721,0.02596775,-0.00099438,0.00862449,0.03741099,0.05074492,0.01151376,-0.01242395,-0.05792739,0.00689655,0.01529417,0.00067444,0.01119976,-0.00351436,-0.03993690,0.02376364,-0.02163043,0.02038228,0.01632814,0.03304011,-0.02101379,0.01866833,-0.02570713,-0.02002677,0.01525457,-0.03473067,0.01402978,0.02845858,0.01535502,0.02175229,-0.03607460,0.02232104,-0.05612155,0.01303855,-0.00775353,-0.02833627,0.04468042,-0.00534653,0.01097218,-0.02268508,-0.02335589,0.00346663,-0.03722491,-0.02674691,0.01598586,0.03105048,-0.00132644,-0.01311996,0.01165905,-0.05405080,0.00506294,0.01751550,0.02940946,0.00776876,-0.01140299,0.03198847,-0.00715547,0.00381171,0.02386659,0.02751912,-0.00609254,-0.01786669,0.01360884,0.00183164,-0.01725991,0.00817455,0.04873612,-0.05585755,-0.00852201,-0.02967305,-0.03308315,-0.04554223,-0.00879564,-0.05188529,-0.00478507,0.03316669,-0.01191955,0.00050217,-0.02007138,0.03510567,-0.05038077,-0.00506939,-0.03370801,-0.01772353,-0.00817234,0.00821704,-0.06709211,-0.00266962,0.01929183,-0.04075257,-0.01918434,-0.02063529,0.00977850,0.01363427,-0.01711631,-0.00426652,0.04543877,0.03988893,0.01002696,-0.01523268,-0.02184398,0.03154082,-0.02819585,0.00767085,-0.01600646,-0.03635735,0.04587124,0.01026360,0.03598050,0.01801658,-0.01161722,-0.00350056,0.02890055,0.00361432,-0.01741971,0.02354042,-0.02838778,0.00108352
-0.02547526,-0.01268322,-0.04318606,-0.00623998,-0.02330080,0.00464238,-0.05982516,-0.02607540,0.01599078,-0.01499456,0.04804600,0.06035625,-0.00771082,-0.03773680,0.02060156,-0.02156866,-0.02182856,-0.00530330,0.00340444,-0.04300920,0.00265893,0.04106064,-0.03326040,-0.04194631,0.03566125,0.00376150,-0.04498030,0.01150244,0.01572719,0.02216107,-0.00378775,0.02052082,-0.00547601,-0.01733832,-0.00487373,0.00697615,-0.05670184,0.02287158,0.01967909,-0.01116376,-0.00423987,0.04119746,0.00869038,-0.01290410,0.04612236,0.01048054,0.00555609,-0.03050255,-0.02162957,0.03530392,-0.00554001,0.04083288,-0.00322695,-0.00066614,-0.01081999,0.02377686,0.00449772,0.00276042,0.00755835,-0.04080983,0.02715801,0.01504643,0.00470653,0.00568913,-0.03952153,0.00670571,-0.01896768,0.04478449,0.02522643,0.00361187,-0.00981221,-0.03842387,-0.00518929,0.01827036,0.03326207,-0.02654259,-0.00061199,-0.03007726,-0.00880270,-0.05901736,0.00589184,-0.02013694,-0.01913489,0.02463590,0.03203391,0.00010074,-0.02573650,-0.07438295,0.00711045,0.02445039,-0.01753384,0.03938593,-0.00825999,-0.00458790,-0.04837044,0.02666307,0.02465886,-0.03296492,0.00418558,0.03129803,-0.03372801,0.01871502,0.01229344,0.06238009,0.01520818,0.02997326,-0.02388248,-0.00766035,0.02151066,-0.02211552,0.02272199,0.04867826,0.01901773,-0.01483860,-0.03279375,0.01078998,0.05970854,-0.02731031,-0.00001572,-0.02881524,0.00522997,0.00643804,-0.00861023,0.01335414,-0.03095670,0.02997125,-0.03177525,0.00909559,0.05021653,0.01156663,-0.01505950,-0.01711495,-0.00329831,0.03710633,0.03449020,-0.00497459,-0.03285533,-0.02361106,-0.01523391,0.00664841,-0.00680377,0.02822006,0.01382860,-0.00186057,-0.05902820,0.00696304,-0.03573318,-0.01837125,-0.00235793,-0.01628195,-0.00178586,0.01134541,-0.02059581,0.04113248,0.00420529,-0.00532235,0.01666343,-0.01662861,0.03834660,-0.01798011,0.02309838,-0.00328869,0.02399496,0.00721084,-0.00468432,-0.00147670,-0.02276010,0.01102155,-0.02265307,0.05631984,0.03897025,0.03968895,0.01029422,-0.02301949,0.04372150,-0.00587980,0.01906234,-0.01130890,-0.05196830,-0.00642545,-0.00970487,0.01776803,0.04117540,-0.00023278,0.01537988,-0.04079942,0.01811771,0.02627650,-0.00636033,0.01671931,0.01095749,0.04989624,0.00401447,0.01013480,-0.02220285,0.00864236,0.01345523,0.03903397,0.00513394,0.04255098,-0.01908956,0.02802739,-0.01333868,-0.05121832,0.00984243,0.01788643,-0.03327746,-0.01111041,-0.04768529,-0.00468297,-0.01325007,0.00785810,-0.03053322,-0.05377573,0.03153185,0.01482152,-0.00372000,-0.01438450,0.02349395,0.01194814,-0.02664487,0.05108361,-0.04072534,-0.03111799,-0.02686740,-0.02141845,0.04160519,-0.01614743,-0.03057594,0.00363433,-0.01964686,0.01629552,-0.05623227,0.04152893,0.01726836,-0.02540967,-0.03158624,0.00052750,-0.01602712,-0.00614058,0.01808791,0.05295593,0.01007195,-0.02262711,0.06424271,0.03139388,-0.00416741,0.00034933,-0.00655077,0.00242292,-0.02892526,0.02372702,0.00758612,-0.01842631,-0.00996187,-0.03835532,-0.02737439,-0.02245896,-0.01639507,0.01572592,-0.07831141,-0.02033732,0.02382335,-0.00628063,-0.06524181,-0.01556651,-0.04075351,0.01530459,-0.00500666,-0.03533668,0.00317126,0.05326653,0.01596857,-0.02903262,0.01135721,-0.03592520,0.05043954,0.00866260,0.01661534,-0.00560821,0.01145281,-0.01650741,-0.01012077,0.01798505,0.00989341,-0.00425479,0.03162421,-0.00976470,0.04477273,0.04284620,-0.02244687,-0.02271171,-0.02025173,0.01918050,0.06230820,-0.00387369,0.02417990,0.00556370,0.03562710,0.01799910,-0.00347016,-0.00914631,0.01030874,-0.02309454,0.00379686,-0.00703837,-0.01256629,-0.02332199,0.00068629,0.03928503,-0.02602956,0.00859325,-0.01775836,-0.01667295,-0.01294561,0.01946643,0.00292014,-0.01205027,0.00194672,0.02045151,0.04302438,-0.04626359,0.03292792,-0.03946994,0.04277955,-0.00053265,0.01087672,0.01161595,-0.00060368,0.00696354,-0.01726949,-0.01628383,-0.00249887,0.03265679,0.01039375,0.01815127,0.01187968,-0.02916459,0.03125160,-0.05147290,-0.01038858,0.02861238,0.06232181,0.01168694,-0.00558030,-0.00331262,0.01151879,0.00966786,-0.01791438,0.02843447,-0.00015191,-0.02708274,0.00076305,-0.03350912,0.00875811,0.03187830,-0.01314816,-0.04274159,0.02977777,0.06245576,-0.06070169,-0.03676667,0.04586926,-0.04808449,0.01800696,0.05552488,0.00714332,0.01079284,0.00932719,-0.00409808,-0.01940884,-0.02559134,0.03522822,0.04014163,0.04422180,-0.01031309,-0.00008194,0.03831542,-0.01240906,-0.01139615,-0.00802188,-0.00628710,-0.05537078,0.03701204,0.00140734,-0.06961578,-0.00906059,0.00700915,0.02199776,-0.02381861,-0.02962226,-0.01880654,0.01916220,-0.02430275,0.01779073,-0.00490539,0.01255007,0.04743403,-0.01300440,-0.01059635,-0.04960093,-0.02661244,-0.05978940,0.02263502,-0.01375909,-0.05743236,0.01019418,-0.00866053,-0.00443144,0.01214173,0.01855357,0.00402873,0.06666217,0.03621127,-0.04391544,0.05848955,0.03728894,-0.01098488,0.00187493,0.00705126,-0.00348809,-0.02353763,-0.00666314,-0.04641226,0.00197879,-0.00708323,0.02349591,-0.01888694,0.00583328,-0.00142942,0.05146287,0.01396875,0.00484551,0.04840174,0.01427012,0.03671790,-0.02251639,-0.01774204,0.02295278,-0.05371701,0.01810327,-0.04283982,-0.01584915,-0.00370511,0.03176996,0.02948172,-0.03774685,-0.00257954,-0.03264236,0.01421781,0.01427284,-0.02660054,-0.03951159,-0.01853423,0.01123337,-0.01934914,-0.01576385,-0.03374909,-0.05475037,-0.01793940,-0.03407255,0.05385838,-0.00127739,-0.00390719,0.01425493,-0.02436793,-0.00922109,0.04108795,-0.01590392,-0.00053772,0.03238370,-0.00882189,0.00311581,-0.00934773,-0.01569244,0.03745360,-0.01665948,-0.04963476,-0.01757276,0.04643972,-0.02750134,-0.01277628,-0.01805106,-0.00883894,0.01538907,0.03730139,0.02384269,0.00352486,0.01638543,-0.00947404,-0.00575235,0.02225930,0.02895291,0.03992034,-0.01054463,-0.01182783,-0.00937936,0.01474448,0.00338162,-0.00306639,0.04280384,-0.01617176,0.01349327,0.01999325,-0.01473423,-0.01235520,-0.01524814,-0.03257447,-0.03815650,0.00678653,-0.00850530,-0.04621791,-0.04248350,0.01205747,-0.01747251,0.03146023,-0.00714939,0.02340658,-0.01712250,-0.04680051,0.06150771,0.05850247,0.00159755,0.01968581,0.01641947,-0.00512119,0.02120995,0.00781601,-0.06453180,0.00390699,0.03176998,-0.01354286,0.01448631,0.01920583,0.00822830,0.00941521,-0.03697402,-0.04006417,0.00278215,0.01326457,-0.01454698,0.00141735,0.00585919,-0.01448441,0.03188792,0.02550853,-0.04128035,-0.00534844,0.00400954,-0.01414467,0.04813432,-0.01750717,0.02315337,-0.00381916,-0.02759466,-0.00303727,0.02205826,-0.00062999,-0.00186142,-0.05322149,0.00298516,-0.00454423,-0.00356110,-0.00376335,-0.01506073,-0.04659425,-0.03813425,0.00263547,0.01238556,-0.01095120,-0.03795483,0.01767984,-0.02256952,-0.02388269,-0.00049755,0.02537251,0.01266181,0.00894164,0.02025435,0.02032128,-0.02049905,-0.02310110,-0.02952324,0.03335826,0.04052684,-0.03679083,0.02359410,-0.01245453,-0.03421205,0.02303583,0.00140229,-0.00174817,-0.01008858,0.00338172,-0.02673748,0.00072227,-0.00595496,0.01787777,0.02711742,-0.00876053,-0.02289446,0.01939533,-0.00253902,0.00657260,-0.02602041,-0.03639191,-0.01836766,-0.02245648,-0.01088179,-0.00536411,-0.02319958,-0.00957427,0.02331488,0.00030652,-0.02931734,0.04691416,-0.00247297,-0.04560380,-0.03116794,-0.05084931,0.00633524,0.04525467,0.03301871,-0.00811666,-0.01113141,0.02676582,-0.03870763,0.09184221,-0.04414219,0.02994189,-0.02490364,0.03027746,0.04533639,-0.02116165,-0.00512348,0.00857748,0.01666840,-0.02180023,0.00304054,-0.03670955,0.00387156,-0.00254639,-0.05228720,-0.01121533,0.06062869,-0.02134812,-0.00307649,0.01179428,-0.01101225,0.03761164,0.01047893,0.03244947,-0.05293635,0.01016095,0.00868015,0.01049877,-0.00043059,0.00325119,-0.06490590,-0.02542685,0.00086443,0.03776838,-0.00305491,-0.00554496,-0.01634171,0.04381379,0.04171137,-0.01851979,0.00332289,-0.01149217,-0.05665999,-0.04032806,0.01036597,0.01298822,-0.01815678,0.03202997,0.00685974,-0.02728816,-0.05267201,-0.03924558,-0.01196625,-0.02049221,0.00172828,0.00897358,-0.02132537,0.00885838,-0.00086323,0.00873976,0.00651745,0.01625739,0.03576186,0.02826353,0.03926879,-0.00867557,0.00911749,0.01297247,-0.04559870,0.01895262,-0.01274093,0.00814672,-0.00333499,0.05592275,-0.04626196,0.03094878,-0.05328284,-0.01599914,-0.02870837,-0.01088204,0.00274400,-0.03217845,0.00744122,0.02532357,0.07415393,-0.01724740,-0.01972205,0.03225967,0.00771623,-0.01339389,0.02388382,0.02242820,0.02355359,0.02006227,-0.01767734,-0.02105593,0.02926655,-0.01318799,-0.01359452,-0.01748917,-0.00525580,-0.01130084,0.04848253,0.03392550,0.01845280,0.01593425,0.00005065,-0.06361130,-0.00206133,0.00952766,0.03132779,-0.04040028,-0.04444096,-0.02255493,0.00726098,-0.00213081,0.00659270,0.02006288,-0.03669214,0.01568665,-0.01429779,-0.01261031,0.00692729,-0.05375853,0.00056200,0.05000370,0.02435250,0.00015642,-0.02475809,0.00464805,0.04222504,0.05331536,0.00116074,-0.03575106,0.00254706,-0.04418921,-0.00684950,0.05819881,-0.01138457,-0.02427135
0.01991869,-0.02387479,0.03133854,-0.02341746,-0.03199810,0.01520521,0.02430818,0.00680435,-0.01887250,0.04844075,-0.01099811,-0.02910399,-0.02208073,-0.01166233,-0.03382868,-0.02694818,0.05494585,-0.04885454,-0.00332645,0.00234255,0.00097245,0.05812776,-0.02522460,-0.00298043,-0.00222126,0.01558541,0.05181439,0.01557523,-0.02364988,0.00944484,-0.00946972,-0.00121916,-0.03488603,0.03476098,-0.01961691,-0.01015787,-0.01358113,-0.01008272,-0.00492227,0.00042187,0.05034900,0.01263589,0.01055121,0.02540329,-0.02532941,-0.05261432,0.03205081,0.01150285,-0.00303307,-0.03263724,-0.00833761,-0.00285698,-0.06906807,0.00234839,0.00678757,0.01443258,-0.00741255,0.02529712,-0.00720374,-0.02225167,-0.03843281,-0.01514661,0.02216048,-0.02626025,-0.05692774,0.05949967,0.01307105,-0.00531382,-0.02624067,0.01087359,-0.02942296,-0.01110559,-0.02072914,0.01179270,-0.02158599,-0.02073380,0.03331172,0.02650042,-0.03480902,0.00848280,0.00074627,-0.04151944,-0.00004839,-0.04931929,-0.06623396,0.01114995,-0.00951905,0.00418367,0.00169840,-0.04342845,0.02506581,0.01226813,0.04505135,-0.02790396,0.02157711,-0.01743268,-0.02126059,0.02602034,-0.01839874,0.02434328,-0.01287651,0.02783578,-0.01597844,-0.00573878,-0.02234274,-0.05476426,0.00905429,0.08047137,-0.00218933,0.03172753,-0.01049501,0.00915411,-0.00466925,-0.00285374,-0.00860756,0.03966916,0.01022155,0.02227636,-0.00284150,0.03714417,0.00913950,0.00961035,0.00324773,0.03599793,-0.01407714,0.00868283,0.02844086,-0.05361728,0.05399358,0.01025620,0.03342372,-0.01784172,-0.03045633,-0.01288200,0.02498475,0.03872174,-0.01295616,0.02908717,0.06095914,-0.01916224,-0.00304885,0.02986052,-0.00474734,-0.01506101,-0.01573817,0.01583954,0.05745547,0.04242237,-0.02280381,-0.00308912,0.05564483,0.00041809,0.00085481,0.00290882,0.05447602,0.02076756,0.02448907,0.02642692,0.03177758,-0.00256429,0.01021480,-0.01501491,-0.03603875,0.04268372,-0.02988457,-0.02255011,0.03312213,0.00497408,0.00245766,0.00960821,-0.04615161,-0.00711770,0.00231153,0.02546467,0.00553278,-0.00144238,0.04645218,0.03182224,0.02024585,0.00302455,0.01702361,-0.02468008,0.00325799,-0.00647820,0.01673149,-0.01911061,-0.02593302,0.02596219,-0.00992504,0.01337031,-0.00501466,-0.02519928,0.04946857,-0.02312410,0.03669285,-0.00808909,0.03883950,-0.06886133,0.03028783,0.05115792,0.00150921,-0.00638516,0.02161744,0.02624060,0.01992319,0.00965651,0.00104905,0.00782063,-0.00878443,-0.00967365,0.00388924,-0.01121215,0.04142316,0.01212439,-0.04890453,-0.00409256,-0.01402472,-0.02806560,-0.01635134,0.02014500,-0.03039239,-0.05396355,0.00615102,-0.01384042,0.00886811,0.04790782,-0.03652446,-0.01729580,0.00768249,0.01009348,0.06579645,-0.02231453,-0.00933129,0.00664118,-0.01235602,0.02581365,-0.00307228,-0.00861330,0.00967348,0.01033197,-0.02679622,-0.03624401,0.00827158,-0.03832464,-0.01735521,-0.02953744,0.01094272,-0.00405156,0.03499161,0.03006201,-0.00570608,0.00927761,0.01500480,0.03169093,-0.00803607,0.01717238,0.04783623,-0.01515667,-0.00789632,0.02536603,-0.05395887,-0.00526369,0.02593968,-0.00793055,-0.04241987,0.01582584,-0.01516326,-0.00833320,0.00812580,0.01016446,-0.02267396,-0.00997799,-0.00881687,0.06763110,0.01631691,0.03434309,-0.01455145,-0.00747426,0.00001178,-0.00590058,0.02687556,-0.01633422,-0.01295966,-0.00688942,-0.01278093,-0.02050346,0.01208033,-0.00899183,0.03075323,0.02858288,-0.01172556,-0.01232962,0.04511476,-0.00089341,0.00165501,-0.01059445,0.02707485,0.02060390,0.00033435,-0.02800357,0.00049699,-0.04645665,-0.00850894,0.03073771,0.00977940,-0.00087052,-0.02353847,0.01344523,0.00200566,-0.02467439,-0.00824726,-0.00381007,-0.08404656,0.00197918,-0.03686947,0.01779072,0.00368676,-0.05463303,0.01402633,0.01153244,0.03548252,-0.03265438,0.00988785,-0.00207878,-0.01416977,0.01117043,-0.03729259,0.03139645,-0.00295292,-0.01000575,0.01437499,-0.00347954,0.04537017,-0.01714926,0.01357569,0.01777660,0.04403619,-0.01362677,-0.02423795,0.00921129,0.01136710,-0.00337149,-0.00347195,-0.04326172,-0.03305492,0.04569230,-0.02630625,-0.01255821,-0.00075283,-0.00606346,0.01234515,0.00108570,0.00004671,-0.00580409,0.01046877,0.02678470,-0.02240068,0.04722099,0.02192567,-0.06036643,0.00683909,0.01892191,-0.00347522,-0.00028568,0.02167145,-0.03715450,0.00539387,0.01661637,0.01578528,-0.00257585,-0.00651925,0.02512431,-0.03439118,-0.06878601,0.02712526,-0.02244389,-0.01141464,0.00068610,-0.00013591,0.04931355,-0.03146889,-0.00197711,-0.00398101,-0.06365802,0.02997857,-0.00669195,-0.00373815,-0.04821019,-0.01640754,0.02234673,-0.00020806,-0.03658785,-0.05546504,-0.05332737,-0.02307714,0.00157891,-0.03016362,-0.01136158,-0.00572087,0.02392624,-0.01922776,0.02112284,-0.06819884,0.02820345,-0.01600150,-0.02628512,-0.02508706,-0.00275319,0.02111991,0.02587073,0.01251878,0.03005238,0.02566958,0.02482290,-0.05835623,0.05082258,-0.03805207,-0.03029752,-0.02250125,-0.01363944,-0.02688569,-0.00355878,0.03268310,-0.03379340,0.02733763,0.05515012,0.00246950,0.02362453,-0.00643408,0.00442207,-0.02753423,-0.04671508,0.02086378,-0.01273668,-0.06469619,0.00616462,-0.04112431,-0.04123928,-0.00627246,-0.00186864,0.01168597,0.08683516,-0.01260096,0.00317878,-0.04473228,0.04709705,0.02997033,-0.00264447,0.00607749,0.02650929,-0.01039132,-0.02846885,0.01415776,-0.05742456,0.02710389,-0.05031309,0.04579393,0.04796055,0.02570059,-0.00369061,0.01484016,-0.03556536,-0.01991904,0.02130195,0.01572453,0.04648598,-0.00727579,-0.06733809,-0.04027447,0.00925129,-0.01251968,0.03600398,-0.04331429,0.00787405,-0.01316782,-0.02601791,0.03302945,-0.03056405,0.03694847,0.02656006,-0.00158156,-0.01290227,0.01217564,0.04569491,0.00982567,0.00019818,0.04507508,0.02546256,-0.04105424,-0.01080624,0.02544506,-0.04621908,0.02377215,-0.00798091,0.00932668,-0.05447241,0.01178450,-0.01850737,-0.00116535,-0.00287345,0.01283799,0.04445684,-0.03249884,-0.03956540,-0.03676782,-0.01834406,-0.04469507,0.01242681,-0.00063487,-0.04810045,-0.00181621,0.04987751,0.02470142,0.00916286,-0.00202865,0.00152293,-0.00666978,-0.02797185,0.00565722,-0.01890185,-0.02769124,0.00904174,-0.00719101,-0.02509254,0.03792001,0.01897331,0.03426230,-0.00837895,0.00063854,0.00138050,0.00716598,0.00671967,-0.02063462,0.04342785,0.00846291,0.00165593,0.08236759,0.01555625,-0.00086971,0.02204746,-0.02633512,0.00392383,0.01445871,-0.04616270,0.04429678,-0.03176894,0.04700369,-0.05810111,0.03828912,-0.03609026,0.01955964,-0.01251367,-0.02184539,0.00337351,0.01453933,-0.02224598,-0.02339997,-0.00949064,-0.01306119,0.06101193,0.00554505,-0.06128175,-0.01840910,-0.03322702,0.00000839,0.00358532,-0.02227499,0.00940006,0.05332943,0.00784132,-0.02862162,0.03094367,-0.01250573,-0.01001969,-0.01951030,-0.03355043,-0.02309656,-0.00109953,0.02715860,-0.03248552,-0.02623853,-0.01861073,0.05911518,0.02231360,-0.07854407,-0.01824277,-0.02334045,-0.02016609,-0.01164732,-0.02130960,0.01431924,-0.01369687,-0.00377966,0.02048149,0.00926466,-0.01882779,-0.00986645,-0.01921855,0.00323675,-0.02871468,-0.00803318,-0.02528729,-0.02949641,0.01143302,0.05014359,-0.03464909,-0.00479898,-0.01212713,0.04287520,0.01768505,0.00504914,-0.02311537,-0.08562075,0.05252907,-0.00721002,0.00011648,-0.01610652,-0.01823408,-0.02827543,-0.02965410,0.01655496,0.02606435,-0.02990832,-0.01309677,-0.03963249,0.01630795,0.01010078,-0.02276059,0.05224332,-0.04105922,-0.04753363,0.02315051,0.04289923,-0.01962446,0.00367637,-0.01466524,0.01775130,-0.02015577,0.00283896,-0.02581945,0.00954272,0.02267893,-0.00687944,0.06176081,0.01421544,-0.00550651,-0.01776320,0.02386412,0.00032856,0.00574903,-0.00960077,-0.05981218,0.00929144,-0.03707879,-0.00212527,-0.02537896,0.00804034,-0.00022294,0.02445842,-0.00658062,0.01165518,-0.00508883,-0.00603206,0.03962716,0.00654077,0.05133972,-0.04679077,0.01282911,-0.01547268,0.00173030,0.02328995,-0.05427168,0.00663310,-0.01661842,0.00681847,0.00372359,0.00195613,-0.01167297,-0.01221364,0.00542892,0.02784883,0.03297041,0.00846609,0.03079064,-0.03085393,-0.00596751,-0.00651600,0.01658606,0.00684053,-0.00946395,-0.02206940,-0.04417187,-0.02172142,0.02522670,0.01990215,-0.01696802,-0.01545751,0.03881978,0.02371571,0.01775297,-0.01688719,-0.02678043,0.00133234,-0.02107611,0.00372684,0.03235225,0.05782932,0.01763305,0.03146731,-0.00265107,0.00851578,-0.02958318,0.01149580,-0.00715124,0.04189559,-0.00583212,-0.02229938,-0.02567288,0.01634597,-0.00337771,-0.02098196,0.07065453,0.00753011,-0.00522431,0.02622608,0.04584539,0.00371113,-0.00186181,-0.01415691,0.03600214,-0.00222791,-0.00388844,0.00321567,-0.01808256,0.02424297,0.04039336,-0.06767070,0.01023456,-0.01272199,0.00211690,0.03614929,-0.01118932,0.02748246,0.00262169,0.04054992,0.00595779,-0.02253832,0.03426237,-0.00139134,0.02755402,0.03634624,0.04916324,-0.02292415,0.02271247,-0.00558212,-0.00797270,0.04768632,0.02698322,0.04129037,0.00155611,-0.02152192,-0.04032456,0.04003323,0.00494108,0.02334509,0.00512398,-0.03873350,-0.02255531
-0.02252933,-0.04944295,-0.00059113,-0.04018969,-0.00128804,0.01067573,0.02171000,-0.03563204,-0.00888236,0.04145271,0.03165615,0.03787650,0.05155301,-0.00666072,0.01434853,-0.01895064,-0.00958445,-0.00312506,-0.00691482,-0.01216488,0.00009913,-0.05545045,-0.02444950,-0.01719297,0.00559079,0.04061017,-0.01491572,-0.01482906,0.00437062,0.00075245,0.02234839,0.02074025,0.00173189,0.02314126,-0.00232084,-0.02469988,-0.01770451,0.02623226,-0.03622447,0.01889274,-0.01617280,-0.00862614,0.01095955,-0.00479262,-0.00961004,-0.01208863,-0.01243262,-0.00742278,-0.00825526,0.01834477,0.00437721,0.02716513,0.00682352,0.00230653,-0.02443334,-0.02383916,0.00143004,0.05313959,-0.04382435,-0.02787727,0.00451296,0.02401655,-0.00707391,-0.02684455,-0.02107380,-0.01068381,0.02318834,0.02504849,-0.01781464,-0.04505445,-0.01395174,0.00769851,0.02019555,0.00091687,0.00614094,-0.00349251,-0.03616340,-0.01498050,0.02430720,-0.04028737,-0.03872481,-0.02661068,0.02578333,0.00516697,0.06122536,-0.06677609,0.00733329,-0.00842098,-0.00648136,0.00223125,-0.01964633,-0.03159347,-0.04329600,-0.02741516,0.01883398,-0.02996721,0.01368388,-0.01524299,-0.03341627,-0.00322108,-0.03712963,0.03407846,0.01530921,0.02152965,-0.03728367,0.00392980,0.04867206,0.00111865,-0.02326675,-0.03734326,-0.00920650,-0.02576876,-0.00667560,-0.01294342,-0.02744046,0.03086418,-0.02466950,-0.01095688,-0.01189599,0.05578909,0.02111572,-0.00765673,-0.04894817,0.01361173,0.02302459,0.01433307,-0.00850944,-0.00265834,-0.02336652,0.00275771,0.03388881,-0.02235515,0.01227255,-0.02791803,0.02268346,0.00941897,-0.02087194,-0.00601686,-0.02412917,-0.00779573,0.04086069,-0.04451231,0.03781065,0.04452915,0.03990557,-0.00189916,0.01864909,0.03074365,-0.01990394,0.00253140,-0.01349087,-0.03010365,0.04167952,0.06565961,0.00430136,-0.03493172,-0.00459579,0.00792881,-0.00904310,0.00527483,0.01648560,-0.00191936,0.07766780,0.05768109,-0.00584569,0.00621635,0.02809507,-0.00348398,-0.00739469,0.03663822,-0.00798729,0.01043254,-0.02960690,-0.02845889,-0.00230050,0.03141671,0.00597747,0.00272156,0.01713212,-0.01531283,-0.04095794,-0.03332584,0.00530747,-0.00140603,-0.00871471,-0.00013461,-0.01261181,0.00725735,-0.02123675,0.00679948,0.02738514,0.04381486,0.04086851,0.00624947,-0.03229356,-0.01068272,-0.01273664,0.00319045,-0.02270737,-0.01262671,-0.01098441,-0.02285348,0.00253466,-0.00524865,-0.05959549,-0.02306615,-0.00081250,-0.04680406,-0.01841764,0.00668938,-0.00108662,0.03206930,0.03116571,0.06840795,0.05698643,0.01720000,0.00450696,-0.02614976,0.01004996,-0.05641248,0.03970806,-0.01856918,0.00239822,-0.02033290,0.00879090,-0.05309907,-0.00506516,-0.03483605,-0.03803336,0.02513479,-0.00535220,-0.03135744,-0.02817994,0.04592192,-0.02870392,0.02450231,0.00330615,-0.00613309,0.02917356,0.04829628,-0.01387094,-0.04769298,0.00030226,-0.01793214,-0.03813764,-0.00653783,0.05931201,0.03241350,-0.02581174,0.00271810,-0.01523645,0.01173515,0.03649153,0.01405808,-0.04059407,0.03973007,-0.00347696,-0.03780984,0.01681364,0.03978053,-0.01277572,-0.03066129,-0.02548658,-0.01297249,-0.05093793,-0.03772956,-0.01333575,-0.01577201,-0.02572787,-0.04312210,-0.00653646,-0.04137317,0.02315640,-0.01232787,0.01324057,-0.02405102,-0.04549770,-0.02855348,0.05017506,-0.00785945,-0.01432169,0.01013738,-0.02807190,-0.03082327,0.03070469,-0.02614066,0.00883548,-0.01394949,0.00879389,0.02984746,0.06178445,-0.01837440,0.00887284,0.04565618,-0.01524507,-0.01089843,-0.00222394,0.00266597,0.03099705,0.04897932,-0.02611948,-0.00896606,0.03255869,0.02011027,-0.00289070,-0.04405954,-0.05703148,0.01290694,0.00369937,0.00938516,-0.03147992,0.02690695,0.03281493,-0.02984919,-0.01509897,0.03957624,-0.03203828,-0.00502690,-0.01510759,0.02351750,0.02477378,0.03578341,-0.03801842,-0.01223063,0.04090657,0.05272390,0.01401962,-0.00248542,-0.01153765,-0.01168751,-0.00242807,-0.00981119,0.00538348,0.00763492,0.03412060,-0.02523090,0.07352855,-0.02112556,-0.01570785,-0.00642861,-0.01689561,-0.00200262,0.02722025,0.00200869,-0.02923553,-0.00059138,0.02180149,-0.02220234,-0.04878125,-0.01242918,-0.00105765,-0.03658180,0.00963713,-0.00358605,-0.01783609,0.03269960,0.02429865,-0.05291333,0.01414536,0.00316400,-0.01550836,-0.01179898,0.01667765,0.01912388,0.00541773,0.02402331,-0.01263551,0.00052264,0.00795476,0.00034393,-0.02853487,-0.00300896,-0.03658868,-0.00162667,-0.01950073,-0.00403831,-0.02362817,-0.02152280,-0.01156011,0.03337951,0.00363010,0.01208018,0.01919907,0.00213292,0.04582163,-0.02374907,0.02312547,-0.00306444,-0.01875080,-0.02660617,0.00091699,0.02721018,0.00295086,0.02512976,-0.01296293,-0.00584309,-0.04274776,-0.02860658,-0.00705010,0.02419747,0.02982687,0.01718200,0.02711200,-0.00004368,-0.07572418,-0.02261112,-0.01018571,0.05570472,-0.00931032,0.03793755,-0.00245439,0.01053192,0.00313343,-0.02425828,0.06270311,0.00318289,-0.00257012,-0.00748127,-0.01901726,-0.02661239,-0.01489942,-0.00480135,0.00266003,-0.00488233,0.03652486,-0.05671738,0.03145251,0.03413577,0.02342975,0.00777712,-0.01970462,0.00125374,-0.00450181,0.04720776,-0.02839340,0.03811037,-0.00446416,0.02431493,0.02186340,0.00457289,0.00956541,0.00570270,-0.02613034,0.01472878,0.01136452,-0.02286026,0.02884246,-0.01591183,0.04186706,0.01377778,-0.02432991,-0.02236047,-0.03942743,0.03482672,-0.00966925,0.01850903,0.02127020,-0.01824915,-0.07764802,0.00598268,-0.01877793,0.00386943,0.01657674,-0.01395326,0.00959911,0.03096201,0.01328255,-0.03871725,0.01984595,0.04614602,0.02429760,0.03314748,0.02838747,-0.00699124,-0.02349060,-0.00966419,0.00806822,0.01738690,-0.00417213,0.01770197,0.00257206,0.00962029,0.04078428,-0.01397325,-0.03344847,-0.00144051,0.04041108,-0.01416201,-0.00293976,0.01604783,-0.01090772,-0.04252302,-0.00888499,-0.04252451,0.00483127,0.00407373,0.00608411,0.01011195,-0.02397984,0.03665439,0.01176998,0.01550526,0.02377526,0.03334928,0.03367503,-0.03565568,0.01266578,-0.01551844,0.00257319,-0.01199900,-0.00670214,0.05089684,-0.03707733,-0.01239174,0.00568967,-0.03633244,0.01594099,-0.00511920,-0.01365202,-0.00144306,0.03114605,0.03102458,0.03388672,0.02814816,0.03540558,-0.01317067,-0.01224108,0.00505042,-0.04002578,-0.00732170,0.01336004,-0.04603235,0.01766612,0.02045928,-0.03663921,-0.00704382,-0.06342965,-0.01229614,0.00840579,-0.03007292,0.02334994,0.00074138,-0.02233602,0.00187421,-0.00260584,-0.00198393,0.03275825,-0.02399162,-0.00985702,0.05781919,-0.00472329,0.01775551,0.04407625,0.03396154,-0.00128064,0.01227321,0.05075396,-0.03900952,-0.03033749,-0.04233130,-0.01735827,-0.01958461,-0.00498282,0.05222872,0.05576995,0.02714435,0.02670477,0.01360644,-0.00437329,0.02225942,-0.00393079,-0.03940708,-0.02657020,0.02171883,-0.01770536,0.00257459,-0.00506187,0.01337607,-0.06073911,-0.00226081,-0.05437788,-0.01029491,-0.06786683,-0.00256009,-0.01166144,-0.01845814,0.01598134,-0.00505709,-0.01851889,0.00671327,-0.02443142,0.01449723,-0.03681037,-0.01771241,-0.04506793,-0.06489422,-0.00392437,-0.01043865,-0.01363220,0.02384955,0.00514817,0.04449454,-0.02419554,0.01902224,0.05558274,-0.03839998,-0.03061952,0.00744385,-0.01126696,0.01244134,0.02590711,-0.00794021,0.00896065,-0.00566950,-0.00504284,0.03967222,0.01949064,0.03015723,0.02974496,0.00909044,-0.00920595,-0.00459574,0.01912179,0.01331173,-0.02008164,-0.03818454,-0.06295723,0.00881308,-0.02192688,-0.01091482,0.00282864,0.05031588,-0.04443910,0.03676291,-0.01650322,0.03580351,0.02107567,0.01344450,-0.03084999,-0.01667715,-0.01325847,0.01867401,0.00328067,0.00095592,0.04807961,0.01713584,0.00228342,0.03884140,0.01262428,0.02632844,-0.00424895,0.02470519,0.00598979,0.00513454,-0.00964735,0.03418894,-0.02913032,0.09848870,-0.01188047,0.01599261,0.00600189,-0.03252253,-0.02838171,0.02841833,0.08020017,0.01564554,0.00588152,-0.03320087,0.00207097,0.02343999,0.00508817,0.00991969,-0.02879711,-0.02413389,0.03969136,0.04324214,-0.03708472,-0.00700393,0.03119500,-0.01495650,0.00791588,-0.04324871,-0.03927774,-0.00319579,0.00076398,-0.02215366,-0.01219931,0.02311536,0.02659843,-0.00537299,-0.01127162,-0.07346889,-0.00226654,-0.00967237,0.00339680,-0.03036491,0.01797361,-0.02952319,0.01870790,0.03758191,-0.00976403,0.02945412,0.01282607,-0.03882249,0.05256341,0.02588989,0.03175794,0.00155164,0.00654474,0.02986547,-0.06688149,0.01394964,0.00894180,-0.00885763,-0.00063919,0.00338515,-0.04813632,-0.00262575,0.02138445,-0.03903015,0.01178570,-0.02071126,0.00574710,0.03936691,-0.01154006,0.01974286,-0.00571244,0.00637346,-0.04876545,-0.04507495,0.04797029,-0.04003522,-0.04535653,0.00712319,0.01231762,-0.00424711,0.01284013,-0.04102908,0.03344702,0.02946844,-0.01948716,-0.01839737,-0.02151803,-0.01375692,0.00835806,-0.01480581,-0.02732667,-0.02339987,-0.01195204,-0.06381045,-0.01831724,-0.02665363,-0.02202241,0.02928761,-0.00214976,0.03355535,0.05069098,-0.01445482,-0.03028793,0.03740903,0.00915251,-0.05999559,-0.04727079,0.01530801,-0.00746897,-0.02018042,-0.03740377,-0.01467213
-0.00401072,-0.03609376,0.00047253,-0.03875615,0.04839296,0.01008140,0.00053134,-0.01819230,-0.00449462,0.01375873,0.00097279,-0.01807986,0.00678091,0.02192957,-0.00268471,0.01069841,-0.00425297,-0.04600085,-0.02951496,-0.02159261,0.02285351,0.03060886,0.01054799,0.03948652,-0.05473763,-0.00841878,0.01171335,-0.00070277,-0.07419901,-0.00521966,0.04803779,-0.04539572,-0.01014517,0.01183462,0.00918894,-0.03558009,-0.03792383,-0.00888962,0.01216129,0.00176940,0.00140274,-0.02989202,0.02362911,-0.01563551,-0.02264775,-0.02171426,0.02639935,0.03177288,-0.00806074,0.02848727,0.08511245,-0.00880668,0.01308348,-0.01282952,0.00587005,0.02529055,0.01939838,0.02708417,-0.03397006,0.01681200,-0.01604089,-0.00061159,-0.06925118,0.00685119,0.02989889,0.03032820,0.03056592,-0.00888336,-0.00710465,0.02251985,-0.02178635,0.04142613,0.03616812,-0.00424910,-0.03795351,-0.02731951,-0.00656110,0.01113129,-0.00418735,0.01005832,-0.00299961,0.02140205,0.04757454,-0.00189842,-0.03012925,-0.05050283,-0.03070543,-0.06845223,0.05736242,0.00435876,0.01539850,-0.00634129,0.00871404,-0.03021434,0.01439991,0.01834874,0.01489296,-0.02163485,-0.02868420,0.00682578,-0.02733058,-0.01937049,-0.01285828,0.00264306,-0.02566123,0.00100268,0.00005006,0.06624042,-0.02728022,-0.00556665,0.01347943,-0.04644259,-0.01932599,0.00913093,-0.03466576,0.03926973,-0.00423898,0.01613902,-0.00405872,-0.01501229,-0.02876688,-0.00286262,0.02721620,0.04243061,0.00144973,-0.04365502,-0.02689348,-0.05344819,0.03267529,-0.02240653,0.00076428,0.00161285,-0.04537014,0.00773031,0.05314891,-0.01337721,-0.00566101,-0.02100337,0.00540068,-0.01370484,0.02027109,0.06013494,-0.03550488,-0.00080451,0.00494825,0.00979887,0.02900797,0.00721867,0.00431398,0.03629913,0.02796440,0.03511405,0.00614436,-0.02260776,0.02220224,-0.06572036,-0.02300949,-0.02459596,-0.00783597,0.01069703,-0.01255674,-0.01603504,-0.02651360,-0.04517526,0.01425085,0.01032232,-0.00169670,0.00904042,0.00466964,0.04731127,0.01753586,-0.01909216,-0.00955406,-0.00153503,-0.02008974,0.00704153,-0.01672025,0.04705845,0.02733766,-0.03651087,-0.00815923,0.03031030,0.00303166,0.03503120,0.05008077,0.03457286,-0.00789445,0.01881761,-0.01374845,-0.01560184,0.00765040,-0.04939995,0.02976782,-0.01119948,0.00133223,-0.03687575,0.00805152,-0.03518650,-0.01033028,-0.03635000,-0.03620419,-0.00693265,0.00765017,0.03998778,-0.03613371,0.04592712,0.03554406,-0.03486460,-0.02936639,-0.00755764,-0.02301505,0.02471513,0.00516695,-0.05842304,0.03182671,0.00695280,0.00576291,-0.02248132,-0.05063474,0.03698250,-0.03256778,-0.00063594,-0.00451044,0.01537282,0.00177393,-0.01938458,-0.04894237,-0.02344886,0.01172967,-0.01209171,-0.01990601,-0.01988903,0.01186361,0.00862632,-0.00571954,0.03647068,0.05036638,-0.00934402,0.02272719,0.02944469,-0.04915817,0.00038940,0.02412808,-0.01558994,-0.05868417,0.01406468,-0.00483769,0.00623339,-0.03496581,0.00255758,0.00784139,-0.00319442,-0.00762473,0.04348343,0.07598506,-0.00237528,0.02327932,0.03772818,0.00672634,0.02471428,0.00363046,-0.01300795,-0.00215680,0.05410843,0.03547011,0.03166648,-0.01344611,-0.01164334,0.04112744,0.01906214,0.01098930,-0.02095171,0.04565082,-0.02095319,0.03047330,0.02701558,-0.00175121,-0.00192050,-0.06176733,0.06702930,0.02126195,0.04694070,0.02054618,-0.02007297,-0.00615034,-0.01055950,-0.00789730,0.01186604,0.05758524,0.01319226,-0.00173615,-0.04507727,-0.04026238,-0.01448912,-0.00809922,-0.03443703,0.00664109,0.04213845,-0.03263278,-0.00966132,0.02150489,0.01246976,-0.03647355,0.04569143,0.00167615,0.01514840,0.03399802,-0.00532242,0.00843566,-0.08887371,0.01957774,0.01990492,-0.00880641,0.03434997,-0.03377097,-0.00747979,-0.01912142,-0.01779022,-0.03620149,-0.00610421,-0.02440216,0.05899048,0.01033111,-0.02492579,-0.04434266,0.02892832,-0.03113103,-0.02421543,0.00319822,-0.03470891,0.02486571,0.00939334,-0.00353493,-0.00714360,0.00579909,0.02378147,-0.00425409,0.00230825,-0.01134520,-0.03297257,0.02826035,0.04125712,0.01276325,-0.01483541,-0.01690897,0.02178719,0.05152921,0.02057520,0.05289023,0.02115466,0.02603678,0.02234418,-0.05232777,0.00849728,-0.00398245,0.00816092,0.03071623,0.00909837,-0.02229665,0.01587042,0.03570306,0.02410367,-0.01551457,0.06912546,0.00430815,-0.02418699,-0.02127739,-0.02245587,-0.00728381,-0.00813929,0.00800591,-0.01420766,-0.00814908,-0.02263279,0.03156152,-0.00264302,0.01509380,0.02409220,0.01772426,-0.04024635,-0.01829086,0.05728351,-0.04532278,0.02450410,0.00228724,0.01329752,-0.02316865,-0.07531270,0.03387095,-0.02516052,0.03519868,0.02511753,-0.01006736,-0.01112069,-0.00026430,0.02288613,-0.01103697,-0.05983158,0.03488201,0.03233280,0.04731940,-0.01021601,0.00395615,0.02142011,0.05120848,0.02688002,-0.03739401,-0.03535976,0.02523000,0.00874686,-0.04019978,0.00176534,0.02089717,-0.01765907,0.05687005,-0.00477521,-0.02133974,0.04012255,0.05347579,0.01460315,0.00274412,0.01596730,-0.00371079,0.00804505,0.00990951,0.05027515,0.01355467,0.03796500,0.02339933,-0.01013190,-0.01982978,0.02700581,-0.05562975,-0.00258817,-0.00485354,-0.00562294,0.01164076,-0.01523955,0.00472629,0.00329693,-0.04048427,0.00135797,-0.02174993,-0.01032182,-0.00059713,-0.00823601,0.00726584,-0.01793229,0.00260044,-0.02634397,-0.02697425,-0.02152385,0.02230234,-0.02543025,0.00784786,-0.02040492,-0.03388408,-0.00224181,0.02382660,0.02450810,-0.04235055,-0.01721588,0.01041382,-0.03967983,0.00290682,-0.02271092,0.01163588,-0.03487305,0.04675849,-0.01563975,-0.02072438,0.00943670,0.00348230,0.00986222,-0.00799082,0.01498238,0.04470267,-0.01022418,-0.02403903,-0.06030367,0.01082824,0.02033196,0.01617783,0.09386032,0.04859914,0.01586417,-0.02107387,0.00561100,-0.05010553,-0.01773610,0.03480961,-0.03781104,-0.05000976,0.02519636,0.00247807,-0.03403127,-0.00977790,0.01074089,-0.00722097,-0.00667086,-0.03997846,0.01252696,-0.00460122,0.03997144,0.00903937,0.05605858,-0.02966230,-0.01890635,0.01957754,-0.00303216,0.00745647,0.00148778,0.02073244,-0.00154774,-0.05942667,0.03067672,-0.00694239,0.02602699,-0.02207720,-0.06282681,-0.00850222,-0.05028506,-0.03073850,-0.01575465,-0.03193254,-0.03283165,0.04633310,-0.03343999,0.02076466,0.00075520,0.04131686,0.03079581,-0.03321044,-0.04986523,-0.04260722,-0.01857662,0.02804258,0.00596463,-0.03590680,0.02738955,-0.00358220,-0.00883659,-0.03584392,0.01051753,-0.02529238,-0.03587026,-0.01161756,-0.03642771,0.03905310,-0.03748760,-0.00522318,0.01206801,0.00971342,-0.00691175,0.00162012,0.05487534,0.01577142,-0.04434915,0.00548432,0.03942391,-0.03896339,-0.03335493,0.01506926,-0.03053257,-0.03278914,0.00155093,0.00593009,0.02573256,0.00041780,-0.01381374,0.02738373,-0.03529644,0.02312659,-0.00556427,0.06669550,0.00238530,-0.00508063,-0.00505524,-0.00172562,0.00927933,0.00536073,-0.02234183,-0.01355406,-0.01076825,-0.00180112,0.02930070,-0.01270077,0.01368386,0.00272246,0.00892065,-0.00271039,0.02935942,0.00444429,0.02784824,0.04713172,-0.01616947,-0.02925331,0.02979578,-0.02294361,-0.07363605,-0.01128259,0.00952451,0.00382397,0.03804482,0.00437494,-0.00929269,0.02461398,-0.01807592,0.04814640,-0.04299354,0.01403038,0.04043930,0.05016329,0.00881390,0.00783647,-0.06141902,-0.00345997,-0.04262239,-0.03795254,-0.00044335,-0.02427409,0.06426115,-0.03950443,0.00762535,0.01002729,-0.02827289,-0.01598939,0.02648025,0.01282633,0.03536039,0.00435998,-0.05538640,-0.02265650,-0.04980977,-0.01743253,-0.05436088,-0.02770934,0.00083231,0.01312096,0.00537867,-0.06508970,-0.02456633,0.05683197,-0.02397417,-0.01071769,-0.02034112,0.02981050,-0.01519966,-0.00464927,-0.00543293,0.04928760,-0.01135262,-0.00297487,0.04685653,-0.00952340,-0.02325380,0.01363428,-0.03044382,0.04799702,0.04611338,0.02415125,-0.03488332,0.02701628,-0.01014836,-0.01375730,0.05527077,-0.02219118,0.01855359,0.01009244,-0.06521045,0.02822701,0.03984690,0.00548049,0.00215147,-0.02693552,-0.01309238,0.01764429,0.03310022,-0.03167862,0.01494075,0.04980567,0.07486835,0.00541019,0.00989038,0.00905943,-0.01072597,-0.02617335,-0.03835104,-0.02639797,0.01302672,0.04092274,-0.03972418,0.02679146,0.03935472,0.01079913,-0.03712048,0.01306198,0.05146579,-0.00815526,0.01130456,0.01934059,0.00271872,0.01132193,-0.02035571,-0.02309896,0.01441764,0.02865512,0.04217281,-0.02343829,-0.00483563,-0.00846155,0.00324345,-0.01853475,-0.01086000,0.03587374,0.00009231,0.03733474,-0.02926031,0.01373729,-0.03468035,0.00283225,-0.01697994,-0.01014340,0.00221715,-0.02533035,-0.02517362,-0.01936674,-0.01350957,-0.00991054,0.05114252,-0.04646731,-0.04961311,-0.04669383,0.01686609,-0.01003558,0.02657808,-0.04054916,0.01711032,-0.05377529,0.03309096,0.01409937,-0.01940983,-0.00702548,-0.05537036,0.05139404,-0.00660157,-0.00473285,0.00824281,0.03372705,-0.00589658,0.00231398,0.00994574,-0.03392257,-0.01668432,-0.04527985,-0.02114494,-0.00393540,-0.00738826,-0.00196395,0.02546600,0.00279254,-0.00686263,-0.01502706,0.05869300,-0.03140617,-0.01543143,-0.02387812,-0.03956445
0.01789531,-0.00649489,-0.00569327,-0.01070888,0.02440775,-0.00441831,0.00602418,-0.02509905,-0.01442303,0.00825991,0.03922117,0.06356853,-0.00792994,0.00004149,0.01752427,0.03274807,0.02150492,0.00336003,-0.02102688,-0.02640563,0.00124049,0.03555205,0.01363675,-0.01443253,0.01216285,0.05804173,-0.00239569,-0.01690745,0.03286996,0.00709312,-0.02629489,0.01291081,0.00252138,-0.00683748,0.01117614,0.04727961,-0.03040991,0.02661885,0.00982279,-0.02964150,0.00143539,0.02451486,0.00793462,0.01522400,0.03021638,0.00205860,-0.03816253,0.03674290,0.00549850,0.01872815,0.01365956,-0.00952592,-0.06466327,-0.01328895,-0.00784926,-0.03225168,0.03912145,-0.04040455,0.00484354,0.01837463,0.03912898,-0.00893995,0.00661378,-0.05314133,-0.01626409,-0.00024099,-0.00182437,-0.03220097,0.00235566,-0.01389704,-0.00419745,-0.01445577,0.00989565,0.03810547,-0.01116862,0.06451451,0.00871227,-0.01125984,0.03305623,-0.04426603,-0.00711900,-0.01487520,-0.00493532,0.01917687,-0.00569943,-0.00055036,0.02315860,-0.02732255,-0.05673114,-0.02238796,0.01400172,0.07184505,0.04591580,-0.04107227,-0.01648324,0.03251091,-0.00052990,0.00323034,0.04267085,-0.00882228,0.01069230,0.01254484,0.02733377,-0.01541993,0.02446705,0.01655409,0.03993160,0.00933056,0.01505185,0.01345191,0.03019457,0.06105855,0.00331370,-0.00866685,-0.01345128,0.01550904,0.01634969,-0.01258376,-0.04815033,0.03391187,-0.00898967,-0.00543761,0.00426285,0.00927384,-0.01235715,0.00219089,-0.00667212,-0.02276778,0.02374567,0.01417917,-0.01728218,-0.05210900,-0.00893160,-0.03371664,0.01362745,0.00257107,-0.04236523,-0.02647720,0.03092146,0.01246590,0.00197551,-0.04135032,-0.02539078,0.02836302,-0.00918175,0.01036408,0.00063719,0.01236297,-0.01582288,0.04285790,-0.03491317,0.00662096,0.00745959,0.00310462,-0.00616969,-0.01586924,-0.02583649,-0.00457978,-0.03443003,-0.01743287,0.00785900,0.00871936,-0.01786348,0.00363518,-0.04994641,0.00418383,-0.00010127,0.02567204,0.00632640,0.00020380,-0.00299874,-0.04193347,-0.01075503,0.01919147,0.00453755,-0.02087445,0.05143427,-0.00709887,0.00828029,0.00763476,-0.00681538,-0.00022962,0.00743939,0.05588906,-0.01228595,0.03940882,0.02743261,-0.02585603,0.00319602,-0.00457252,0.01323107,-0.02299363,0.03199947,0.00372881,0.00352524,0.02764010,0.00836827,-0.00420148,-0.04277062,-0.00555730,0.00168847,0.02382641,0.02035186,0.08396725,-0.01023907,-0.00059319,0.01280369,-0.02279385,-0.00607945,0.03340342,0.02421691,0.05543501,-0.00953695,-0.02064350,0.01855577,-0.02833481,0.00437254,0.01473123,0.00469482,0.01665751,0.03583699,-0.00055656,0.00271320,-0.00708424,-0.02372066,-0.02092783,0.01295142,0.01951988,-0.01267113,0.01286997,-0.02623400,-0.01425258,-0.03034460,0.00777564,-0.00845824,-0.03415276,-0.01212402,0.00522465,0.01122628,-0.03562490,-0.02771424,0.05127256,-0.00016744,0.00089649,-0.02483636,-0.01147577,-0.07886339,0.01802607,-0.01409671,-0.00863585,-0.03583843,0.00153229,0.03185031,-0.00781954,0.02668312,-0.02525704,0.03571262,0.00913571,0.03701495,0.02678001,0.02081094,-0.00923023,-0.00601040,0.04199575,-0.00956633,0.01856386,-0.01332358,-0.03603173,0.00633458,-0.02427012,-0.04096206,0.00423388,0.01921240,-0.02159842,0.03427904,0.00994243,-0.01264292,-0.00469339,-0.01325290,0.02946470,-0.01101761,-0.00727687,0.01249301,-0.00410933,0.01491664,-0.03147559,-0.03679440,-0.01847515,-0.02713102,0.00771610,0.00415003,0.00676975,0.03637502,-0.01899934,0.00366197,-0.03386391,-0.03216512,-0.01149898,-0.01413576,-0.01153627,0.04966387,0.00525056,0.00651297,0.01088523,0.01505634,-0.02395172,0.02183165,0.01823721,0.00443369,-0.06341314,-0.00372908,0.01459422,0.00010102,-0.03401870,0.00395970,0.00633990,-0.06039583,-0.01867117,-0.05472712,0.01179280,0.00986766,0.01378878,-0.00482283,-0.01221414,-0.03188389,0.03265258,0.02648365,-0.00840718,-0.03615690,-0.01066233,-0.02663441,0.00504469,0.02122300,0.01265636,-0.00465800,-0.02244397,0.00893940,0.01220301,-0.00858432,-0.05822879,0.01995705,0.01286005,0.03871456,0.02255709,-0.00978618,0.01758296,0.02189178,-0.02425431,0.01202325,-0.00516832,0.00290471,-0.00428263,0.01609693,0.01189577,0.02793269,0.05672790,0.02541529,0.04137082,0.00276349,-0.01067707,0.00136882,-0.04252019,-0.02805265,-0.00777716,0.01133699,0.01569796,-0.02197179,-0.00494123,-0.00444098,-0.02301467,-0.02265271,0.01897927,0.01595415,0.01508800,-0.03420814,-0.04460286,-0.03517249,0.02189373,-0.01521300,0.03028506,0.01101711,-0.01320084,-0.03112956,-0.02804545,-0.00197709,0.01574898,0.00101427,0.02495048,0.00488251,0.05243675,0.00179122,-0.01210524,0.01662984,0.01425005,0.01071097,-0.03179920,-0.01071562,0.00688043,0.00641894,-0.02178101,0.03565108,-0.02037718,0.00379184,-0.02739522,-0.02893922,0.03857615,0.00648957,-0.03110551,-0.04926901,-0.00742560,0.01725804,-0.04201870,-0.03657442,0.00172613,0.04064572,0.01243582,-0.00888064,0.05977539,0.00723072,0.00528406,0.00816375,-0.00171175,-0.01374731,0.01364022,-0.00315081,0.02797689,0.00469496,0.02043859,-0.01807942,0.02200963,-0.02289921,-0.02994427,-0.01768454,-0.02925385,0.00585938,0.00707959,-0.01126041,0.02774763,0.03937665,0.00844298,0.01622042,0.00946826,0.00437233,0.00053380,-0.04674654,-0.02037892,0.06075753,0.01013877,-0.03081904,-0.01658721,-0.00062529,-0.00226770,-0.00293433,-0.04813949,-0.01806864,0.00473923,-0.01377476,0.03965312,0.05033697,0.00201981,0.01003973,0.01003099,0.03477891,-0.00989579,0.02736797,0.01262512,0.00784291,-0.02931520,-0.00357193,0.00991775,-0.02534640,0.01822174,-0.02816939,-0.02663936,0.00736580,0.02710544,0.02640002,-0.00400020,-0.03198893,0.05993096,-0.00082889,0.00172884,0.01591315,0.01149346,-0.00487659,-0.02113803,0.00036907,-0.00341440,0.05780847,0.01688813,0.01505704,0.00859636,-0.01686016,0.01134750,0.01316917,-0.02519353,-0.02691977,-0.04368543,-0.01586198,-0.02733655,0.03443542,0.04398403,-0.00578746,0.03443157,0.04124989,0.00947770,0.02071008,-0.02083564,-0.00663115,-0.02256461,0.00519245,0.01441176,-0.02620646,0.03915868,-0.02229419,0.03853780,0.01355168,-0.00587587,-0.05331283,0.01719275,0.04988614,0.03622225,-0.01287070,-0.03367019,-0.05015511,0.00279722,-0.01127277,-0.03522272,-0.00217735,0.00533988,0.00087929,0.03515261,-0.00482254,0.00110752,-0.00434317,-0.02889849,0.01468132,-0.02615688,-0.04217746,-0.03545582,0.02281612,-0.00786442,0.01914906,-0.02475365,0.03495395,-0.00528135,-0.00656174,-0.03661074,0.00882758,0.00654683,-0.00224937,0.00114225,-0.02522160,0.00674360,0.02003760,-0.01262251,-0.05477363,0.00148750,0.01242547,-0.02765947,-0.04457210,0.05279037,-0.03803624,-0.00106627,-0.02098532,-0.00845484,0.01515613,-0.04739072,-0.03878983,0.00579004,0.02221742,-0.03170590,0.00104073,-0.00172717,-0.00873885,-0.00671166,-0.01300353,-0.01070478,-0.00439669,-0.01859837,0.02218582,-0.04120237,0.01882665,-0.00866429,0.03499977,0.02347730,0.05109920,0.06327271,-0.01885014,-0.03126837,0.02918578,-0.00851932,-0.00547708,0.00912234,-0.01498782,0.01973839,-0.01634548,0.02302597,0.01929994,-0.01672682,0.00962970,0.01016724,-0.01525053,0.00289051,-0.03406057,-0.00921049,0.01821066,0.04207830,0.02143506,0.04322930,-0.01125100,0.00188292,-0.01121129,0.03828183,0.00453827,-0.00295480,0.02965829,-0.00795629,0.02975687,0.00549081,-0.00432013,-0.02135732,-0.00162659,0.02033355,0.00001385,-0.00354178,-0.02059323,-0.08212348,0.01084212,0.03176059,0.00827951,0.00387536,-0.00707372,-0.03665762,-0.04991657,0.00548491,0.02564543,0.00481594,0.03038874,-0.00434723,0.00232488,-0.00140106,-0.03370035,-0.01074875,-0.00425122,-0.01997166,-0.01652450,-0.04111952,0.00357687,-0.03297741,-0.01667927,0.01161666,-0.01281038,0.02760899,-0.01342091,-0.00960648,-0.01649664,-0.02490388,0.00064614,-0.00038603,0.04830279,0.01789274,-0.01579680,-0.00624562,0.01985844,-0.00851822,-0.04128881,-0.01688033,0.03341945,0.01681830,-0.00049810,0.02824212,-0.00703973,-0.01793902,0.00327237,-0.00682410,0.03478680,-0.01658707,0.03019728,-0.00620268,0.03148207,-0.01939857,0.01197300,-0.02393586,0.04491218,-0.01958680,-0.00740770,-0.02849734,-0.01359846,0.03195626,0.00546484,0.01096419,-0.00943902,0.02145560,-0.06505761,0.01463473,-0.01701852,-0.01714146,0.03054126,-0.01047118,-0.03843747,0.01460472,0.05963070,0.01191352,0.02249700,0.00719469,0.00706727,0.03482412,0.03463364,0.04574643,-0.03360400,0.01411383,-0.00464363,-0.04407546,-0.00552361,-0.00364578,-0.01596536,0.01593090,0.03633063,0.02480255,-0.04503871,-0.00889464,0.04311475,0.01377373,-0.04015502,0.02503585,-0.00104594,0.03251865,0.00838502,-0.01596912,-0.01334270,0.02666583,0.00110029,-0.01693878,0.02172212,0.02920352,-0.00072566,-0.03998029,-0.02542300,0.01788341,-0.00516676,-0.05078280,-0.01459914,0.01219351,-0.02137611,-0.02975015,-0.00199176,0.00121589,-0.06230972,0.01451954,0.03706900,0.01602824,-0.04606692,0.00411210,-0.00395258,0.01591382,0.03691232,0.07584064,-0.04098862,0.01387294,-0.01216701,-0.00346942,-0.03976916,-0.00493116,0.00430316,-0.03714330,-0.03011152,-0.00396264
-0.01857899,0.01056170,-0.04705944,0.01381487,-0.05225151,0.00965886,0.03498819,0.02210370,0.01808942,0.01073091,-0.04039124,0.00864005,-0.02600433,-0.01253317,0.02166750,-0.02581995,0.03257349,-0.03411804,0.00056264,0.02947555,0.00907460,0.01253431,0.01479388,-0.01128321,-0.03248627,0.05422353,0.04457992,0.06154721,0.00199963,-0.00080741,0.05010771,-0.01884170,0.02718427,0.02955247,0.02393925,-0.03804149,0.05638727,0.01928767,0.02889321,0.01375225,-0.00356599,-0.01272301,0.02233589,-0.00936751,-0.01614550,-0.06480064,0.03670850,-0.01988556,-0.01425357,0.03046596,0.01079829,-0.00928112,-0.03990157,0.00599014,-0.02384396,0.00430314,0.03938076,-0.03667577,-0.02235615,0.02867934,-0.04883256,-0.04600962,-0.01266885,-0.04245869,-0.01983302,-0.00737503,0.02344701,0.00763847,-0.01900609,-0.00924450,0.06507884,0.00065648,0.06169803,-0.04573101,0.00436286,-0.01584260,-0.00866649,-0.00815671,0.00091506,0.03203359,-0.00503514,0.01192570,-0.01558822,-0.03060619,-0.02783125,-0.00808121,0.01955137,0.00039204,0.00578912,0.01287537,0.01825801,0.00059999,0.03218063,-0.01954983,0.02439205,0.04669660,0.01320462,-0.02539892,-0.02599918,-0.03838237,-0.03470409,-0.01431070,-0.03798960,-0.00323093,0.04887934,-0.00139011,-0.05971996,0.02499649,-0.03258745,-0.03243869,-0.05348908,0.01420589,0.00104560,0.00062141,0.00694712,-0.00880223,-0.02358555,0.00541393,-0.02574850,-0.03283013,0.00528773,0.01038288,-0.03660387,0.03256318,0.01795169,0.00422951,-0.03133981,-0.03928757,-0.02527260,0.02052381,-0.04084699,0.06572583,-0.03288524,-0.02633524,0.00918972,-0.01674260,-0.03139138,0.00367479,-0.06638153,-0.04964408,-0.02382081,0.03627566,0.03437250,0.00151748,0.00453890,0.01117043,0.00548428,0.00044451,0.01914726,0.03565992,0.00534190,-0.00114772,0.02913558,0.00598539,-0.03442819,0.03109491,0.02156409,0.02592872,-0.01161001,0.00465939,-0.00521299,-0.01088677,0.01528941,-0.04743122,-0.00386445,0.05102994,-0.01353279,-0.00380038,0.01411812,-0.04960319,0.00028162,-0.02490125,0.01449092,0.02847511,0.00614441,-0.00691184,0.03294582,-0.03662568,-0.01986517,-0.00172316,0.06078950,0.02214538,-0.00935565,-0.01316564,-0.05106720,0.02060666,0.03369002,0.04038791,0.01836750,0.07154154,0.01173642,0.02026639,0.05288714,-0.03559244,0.05382012,-0.04494185,-0.00910876,-0.00570043,0.01452515,0.03230540,0.01794341,0.02629233,0.00400607,-0.02216952,-0.02007995,0.04821327,-0.00183127,0.04031725,-0.01373871,-0.02287226,0.02186497,-0.00941310,0.02519612,-0.07765809,0.04313278,0.01089338,0.00824253,0.02811031,0.02635620,0.02191970,0.00875844,0.00433825,0.02111632,0.01455393,-0.01808683,0.01008813,0.02116470,0.03675322,0.02240027,0.01969031,-0.03422380,-0.00030221,-0.04299860,-0.02516157,-0.03154983,-0.01071646,0.02046239,0.01537370,0.02407839,0.02677049,-0.00336254,-0.01847224,-0.03647101,0.01050794,0.01536937,0.01183014,-0.01240357,0.05737432,0.03371848,0.04039772,-0.02083265,0.00783468,0.01720519,0.02351029,-0.02260787,0.01400314,-0.00334926,0.01984467,0.00367052,0.04173760,-0.03771781,-0.00586836,0.05260001,0.02393821,-0.04361888,-0.06080236,-0.00736929,-0.01144200,-0.04022746,0.01670799,0.00103628,-0.03471573,0.03472500,0.05057741,0.01463810,-0.02790602,0.02878251,0.02403994,0.00994745,0.02231800,0.03402290,0.00557980,-0.02489582,-0.01270109,0.03924349,-0.01734604,-0.00328815,0.04333334,0.01784749,-0.00518705,0.04172254,-0.06507155,0.00292426,-0.02158332,-0.02220326,-0.02920225,-0.01556216,-0.01527553,-0.01226526,0.00496845,0.00867795,-0.00952415,-0.02334778,0.01843861,0.00871059,0.02757620,-0.03891099,-0.02898872,0.00840088,-0.02499281,-0.03559512,0.02172442,0.00566708,0.04996137,-0.04712583,0.04048073,0.05930405,-0.01590161,-0.02767999,-0.00066758,-0.01391165,-0.00997262,-0.03171874,-0.01533753,0.01123834,0.01387279,0.01928885,0.02975830,-0.03197015,-0.03439684,0.00449941,0.04858657,-0.01976218,0.05681141,0.03094028,0.01070016,0.00846124,0.01597874,0.04611789,-0.03700361,-0.00976366,-0.00560806,-0.03331412,0.02625707,-0.04298058,0.01340121,0.04188916,-0.04587651,0.01214482,0.04713765,0.04454548,0.01581605,-0.02434890,0.00951642,-0.00216762,-0.00564733,-0.00800114,0.06439652,-0.03918729,-0.04585491,-0.05049014,0.00498048,0.01162524,-0.01145695,-0.01484475,-0.00433639,0.05597043,-0.01812054,0.04159399,-0.04764424,0.05005288,0.05951424,0.00089813,-0.01942630,0.03556191,0.00515601,0.00845733,-0.02914471,-0.01730520,-0.01272004,-0.05968895,-0.01079839,-0.01796569,0.01377597,0.02712863,-0.01935157,-0.02329190,-0.01412703,0.00067606,0.03053344,0.00736361,0.01218313,0.03833783,-0.00235787,-0.00199729,0.04315992,-0.01672955,-0.00872559,0.02314459,0.01460265,-0.02118882,-0.01242419,-0.04012084,-0.02601637,-0.03972872,0.01917985,0.02270751,-0.04038807,-0.00191711,0.05229172,-0.06541666,-0.04915966,-0.04556892,0.02746114,-0.02801564,-0.00628177,0.05427107,0.04606675,-0.03089370,-0.01083727,0.03575516,-0.02424837,-0.02274724,-0.02046909,0.00175213,-0.03129965,-0.05217640,-0.06758152,-0.02815825,-0.01136451,-0.03722797,-0.02907010,-0.00031425,0.02633145,-0.01734816,-0.00512044,0.01172824,-0.02518918,-0.03282459,-0.07559688,-0.04186032,-0.00302646,-0.02161009,-0.03071651,-0.01435831,-0.04099252,-0.00453763,-0.01814218,0.01432162,-0.04819332,0.01389859,-0.00609263,0.06095773,0.01325038,0.01030106,0.01266660,-0.01255249,0.03136465,-0.03926459,-0.00780808,0.02957409,-0.00971203,-0.04081802,-0.04103321,0.01495243,0.01220177,0.01177931,0.05307203,0.02106102,0.03638249,0.01358669,-0.02726118,-0.02008506,0.00150418,-0.00862867,0.05425549,-0.01871815,-0.04942745,-0.00384571,0.00017640,0.02655690,0.02164958,-0.00950462,0.00682962,-0.00095693,0.01650243,-0.04927510,0.00406137,-0.04038197,0.01321978,-0.03457269,0.02440563,0.00746014,-0.01892300,-0.00915285,0.03194941,0.01915983,-0.00771261,0.01104932,0.00925324,-0.02552978,0.01695561,0.02252240,0.02856084,0.05336872,-0.01318538,0.00012000,-0.02053934,0.01661672,0.04401744,-0.00495206,0.02025970,0.06175038,-0.07178441,-0.03679556,-0.03281752,-0.00487490,0.01489890,-0.00150501,0.01388470,0.01777629,0.00161929,-0.03824854,0.03907582,-0.01857159,-0.00512180,0.00088455,0.02323336,0.02448488,0.00180817,-0.00012565,-0.03420051,-0.02776755,-0.02403573,0.01521439,-0.02955256,-0.00666669,0.02134176,-0.01124614,0.03275307,-0.00558727,0.00563607,-0.02278245,0.00835143,0.03745845,-0.01689438,0.01651764,0.01852408,0.01031187,-0.07513545,0.02400811,-0.01995235,-0.04063028,0.04385614,-0.00830819,0.01359464,-0.00073642,-0.03698270,-0.00791372,0.06207640,0.05584440,-0.01116933,0.02100314,-0.01391785,-0.03567839,0.00542875,0.00539553,-0.03946253,0.01363761,0.01040165,0.01692380,0.00327053,-0.00207295,-0.02309175,0.05458221,-0.01536412,0.00510506,-0.00297556,0.01170299,-0.00265883,0.02001652,-0.00262337,-0.01152294,0.00270411,-0.02255448,-0.00326939,0.04713015,0.00772436,-0.07472838,0.03409608,0.01125046,-0.01094990,-0.01859675,0.01131771,-0.01234677,0.05773557,0.01504385,0.06021022,-0.04277453,-0.00213026,0.03173238,0.01517240,0.01459414,0.01869966,-0.01172365,0.04097137,0.00909486,0.03683033,0.03190068,0.02161585,-0.01906422,-0.00942897,0.01689152,-0.06178105,0.00236429,-0.00494795,0.02719042,0.01753980,0.00728321,0.04135349,-0.04844308,0.05226562,-0.01108418,-0.01441116,0.06963947,0.00174547,0.01053098,0.01618118,0.02385910,0.01328490,-0.08227239,0.00467335,0.03446774,-0.04220145,-0.00587462,0.00814280,0.02239208,0.03880652,-0.05163546,0.07157734,-0.03437451,0.00610589,0.03459345,-0.03644991,-0.00775223,-0.01845119,-0.00632497,0.00192229,0.01837787,0.00875321,-0.02522332,-0.00684857,-0.02345473,-0.00786100,0.00324977,0.01344864,-0.00175132,0.05972330,0.03117453,0.02292655,0.01454395,0.02802671,0.02029320,0.00462023,-0.03221125,-0.03863718,-0.03639821,0.02514406,0.00724247,-0.02524463,0.00009772,-0.00942466,-0.00356880,-0.00503930,-0.02095370,0.01565140,0.00488324,-0.03678936,-0.01950487,0.01846424,-0.00590997,0.04391022,0.01164641,0.01002638,0.05648693,0.00030410,-0.02166263,-0.03507722,0.00454222,0.02216621,0.01421071,0.03657257,0.02689362,-0.03580469,-0.03342766,0.01962457,0.00354958,-0.02222767,-0.00063284,-0.02419227,-0.01996841,0.00105308,0.03960342,-0.00331122,-0.00692530,-0.05042875,-0.01250993,0.03683373,-0.03912305,0.00425798,0.00471850,-0.00237127,-0.03462553,-0.03137479,0.04329078,0.03117719,-0.05884682,-0.01858030,-0.00797681,-0.00148915,-0.03186048,-0.04715395,0.02637273,-0.03100520,0.05732505,-0.01310098,-0.01007162,0.02744032,-0.03897354,0.01632218,-0.02190133,-0.02297015,0.02851389,0.01836926,0.00355681,-0.00878683,0.00576331,0.02273138,0.04653201,-0.03700481,-0.01382506,0.03804586,0.01110608,-0.02007988,-0.05902429,0.00027084,0.05367188,-0.00550240,-0.01253362,0.01906293,0.01143175,-0.00976000,-0.03260099,-0.00002552,0.04383200,-0.02439521,0.01978730,-0.00024153,-0.01734947,0.00668123,0.01860585,0.04638901,-0.03768122,-0.01868839,0.02146848,0.02807179,-0.05198679,-0.03924613
-0.06493784,-0.04251336,-0.00713921,-0.00396293,-0.04243133,0.03376913,-0.01591394,0.00418741,-0.00815207,0.00315692,-0.05068168,0.02283965,-0.00163970,-0.07439833,-0.02626617,0.00534916,0.01243020,-0.00580273,-0.01692357,-0.00795908,0.01511919,-0.01225093,-0.02200545,0.04967602,-0.03967083,0.00477752,0.00675973,0.02301880,-0.06673174,-0.05476470,0.00195392,0.02411626,0.03204909,0.00208392,0.01017381,0.01540113,-0.01153085,-0.02834780,0.03511291,-0.01693142,-0.03917822,-0.01356430,0.03797478,0.02956365,-0.03446192,0.03608858,-0.00492698,0.02274349,-0.00783766,0.00977704,0.01851970,0.00104380,-0.03425151,-0.01770501,0.03845867,-0.03153331,0.00003776,-0.08345421,0.01545051,0.01727298,0.04646898,-0.00592946,0.00138376,-0.03553162,0.01343557,0.03616973,0.00890490,0.00511046,-0.00161530,-0.03847228,-0.01079026,0.00432197,-0.03944462,0.00160895,0.03012780,0.00119875,-0.01059699,0.00476404,0.03033358,-0.00057096,-0.05071610,0.01027984,0.06338085,-0.03413786,0.02214617,-0.06081242,0.02689021,-0.01885560,0.02124509,0.00144582,0.04322668,0.00356868,0.00452960,0.00377986,0.00019572,-0.01873618,-0.01300268,-0.04831757,-0.01386997,-0.01766893,-0.03125067,0.04391316,0.03516306,-0.04638580,0.04790544,0.01904066,0.06612862,-0.03542951,-0.06759901,0.02779241,-0.02925746,-0.00764759,-0.00838575,0.01930209,0.02906830,-0.03746109,0.01582645,0.00909452,-0.02307205,-0.00200551,0.03829092,0.00488801,0.00259182,-0.04543562,-0.00501671,-0.01116131,0.02861081,0.00642207,-0.03751874,-0.00261516,0.01623003,0.03676552,-0.01746620,0.00940435,0.00081609,0.02460180,0.04505260,-0.03318142,-0.00290787,-0.01083506,-0.03128355,0.00787435,-0.01225492,0.00970522,0.00094884,0.00380881,-0.00766393,-0.00935956,0.01568086,0.00232186,0.00613121,0.02003863,0.05087922,0.01635638,0.01219711,-0.01622465,-0.00946937,-0.00106513,-0.02857713,-0.00417366,-0.05866861,0.00704841,-0.06425674,0.04873519,-0.03670665,-0.01030924,0.00620137,0.03043437,0.00392458,0.04568459,-0.02170287,-0.00643759,0.02748559,0.00400429,0.00731221,0.01784867,0.01391005,0.00302181,0.01723359,0.02374808,0.01960016,-0.02127433,-0.01129188,-0.01755782,-0.02270483,0.02919624,-0.06321929,-0.03427245,-0.00817852,0.02970714,-0.03052258,-0.00845760,-0.00905360,-0.01310460,0.04277925,-0.03685790,0.06423250,-0.02011189,0.04751970,0.04088137,0.02225074,0.00501190,-0.03283341,0.04272130,-0.01337535,-0.02726689,0.05519223,-0.00247337,0.02730611,0.05825177,-0.02118185,-0.05767320,-0.04612261,0.03044306,-0.01619161,0.00271811,0.00284601,0.01696566,0.03884771,-0.03446386,0.03779876,-0.02844407,0.05411519,-0.03819352,-0.02189070,0.01268577,-0.03395350,0.01594874,0.01552472,0.01006257,-0.00125536,0.02077940,-0.04215341,-0.00096961,0.00816695,0.07185661,-0.01518483,0.02051894,0.00962594,0.01967331,0.01490571,0.00963265,0.03103096,-0.02192124,-0.01278418,-0.03175735,0.01040336,-0.01435880,0.04706534,-0.01811597,-0.01162874,-0.00808261,0.05409701,-0.05421568,0.00688083,0.00867251,-0.04375358,0.01816728,0.01327673,-0.01605528,-0.03976427,-0.01909726,0.06675665,-0.05778477,-0.01801687,-0.01802284,-0.00018587,-0.02139588,-0.00798456,0.03054576,-0.01535821,-0.00257963,0.01214792,0.04500220,-0.03754352,-0.01144314,-0.02406975,0.00333001,-0.01500597,0.00450698,0.07184632,-0.00954280,-0.03997596,-0.00485386,0.00525006,0.01683110,0.00167864,-0.02027795,0.02168522,0.06088502,-0.05116009,-0.01379136,0.01875350,-0.04949546,-0.01290474,-0.05076987,0.02345795,0.01562801,0.04356469,-0.00401795,-0.03704857,0.05514753,0.00154950,0.00945907,-0.02856224,0.05294736,-0.07050508,0.03774007,-0.00513960,0.01900539,0.01819028,0.00331513,-0.05299812,0.01906968,0.00954378,-0.05933992,0.04075428,-0.00579302,0.00792897,-0.00864456,0.02993323,0.01958949,-0.04738771,0.02806176,-0.00618035,-0.01336624,-0.02069264,0.05593403,-0.00232973,-0.01831994,-0.02638496,-0.00700817,-0.00238605,-0.01000743,-0.02112768,-0.03322006,-0.04081534,0.01594020,0.00178513,-0.03807372,-0.05283432,-0.01554417,0.02377877,0.01202356,0.03485568,0.03802197,0.00643122,0.02990539,-0.04025363,0.00060526,0.04646058,0.00555075,0.00750920,0.00478906,-0.00527053,0.06213181,-0.03289441,0.03332020,0.03090418,-0.02893921,0.00176528,-0.01893419,-0.04750304,0.04676206,0.03403205,-0.00534848,0.04679375,-0.00363077,-0.04358711,-0.03249720,0.00639396,0.00414239,-0.01679827,0.01990322,0.01819107,0.03985388,0.03107381,0.00857899,0.01416706,-0.01234674,-0.01799402,-0.02100904,-0.06275565,0.02576342,-0.01280494,0.01817892,0.00030597,-0.04262221,-0.01262502,-0.00574685,-0.04139237,-0.02659991,0.00960690,0.00653517,-0.04208626,0.04129717,0.01084332,0.01901760,-0.02824859,0.01684361,0.01715755,0.01835687,-0.00781537,-0.02759694,-0.00051048,-0.01361530,0.00248800,-0.04445080,0.00597475,0.04988939,0.02092302,-0.03583112,-0.00822484,-0.04441018,0.01948753,0.00152726,-0.02356135,-0.00683916,-0.04616887,0.00768311,-0.04630454,0.06090179,-0.01252501,0.00952461,0.01689989,0.01812920,-0.03018646,-0.02756176,0.01777299,-0.03360990,0.01542170,0.02633663,-0.02374115,0.00149483,-0.03062303,0.02182829,-0.02149634,-0.02212895,0.02449463,0.00740746,0.03620856,-0.03320049,0.02226040,0.00975439,-0.00200051,-0.02320975,0.01021533,0.03910421,-0.00511301,0.02877933,-0.02432193,-0.05106404,0.01787840,0.03139723,0.02617930,-0.00596200,0.03230419,-0.00385547,0.00868209,0.00727643,0.01078477,-0.01156868,-0.01904474,0.04277445,-0.00694839,0.06816033,0.00516223,-0.00137621,-0.01099374,-0.03037865,0.01086173,-0.00435996,-0.00362436,0.02489896,0.00225725,-0.02852270,0.08918612,0.03646195,-0.00734108,-0.02969593,-0.02609353,-0.03752373,-0.04564950,0.03591584,0.03504090,-0.01465583,-0.02664720,0.03063198,0.01905098,0.01609380,-0.03691207,0.01488894,-0.02662309,0.00157509,-0.00056680,0.00227102,-0.00737787,-0.00782184,-0.05288595,-0.07232212,0.03385239,0.04316560,0.02537521,-0.01510759,0.03034515,-0.02275024,-0.01957692,0.00272182,0.05482935,-0.01215757,-0.03778753,0.01905830,-0.01580075,-0.01338005,0.02286533,-0.05585559,0.01968746,0.01786159,-0.01660415,0.02145318,-0.00974573,-0.03060133,-0.03796219,0.03743370,0.04448166,0.05635394,0.04036430,-0.03015254,0.03382382,0.00694790,0.03964738,0.00311719,0.00264225,0.00040676,-0.01825374,0.02316227,0.05674237,-0.01357664,0.00667781,0.00126470,-0.05212131,0.00456571,-0.01060128,-0.01523247,0.05611194,-0.00397961,-0.02341909,-0.03179220,-0.05364148,-0.03063326,0.03399265,0.03204070,0.00062386,0.01306785,0.03049172,0.02175285,0.03465757,-0.01005365,0.01638665,-0.02166034,-0.01274100,0.04887322,-0.03559208,-0.01306247,-0.03427698,-0.00367246,-0.02011971,0.05694224,0.00784409,-0.04277158,-0.00464550,0.00068282,0.00904844,0.03442242,-0.03997624,-0.03390455,0.00577183,-0.02237189,-0.03119491,-0.02333606,-0.01156300,0.02343074,0.05171000,-0.02116953,-0.01842103,-0.00814591,0.01338282,-0.04642950,-0.06098051,0.01412743,-0.03432736,-0.02214749,0.01832151,0.05504340,-0.00003396,-0.00677221,0.02017649,-0.03783708,0.02528340,-0.01503091,0.01392767,0.00248280,0.00357726,0.01000153,0.03752660,-0.03806300,-0.01216944,0.05964161,0.06190097,0.03105028,-0.01043125,-0.01440974,-0.02410329,0.00174722,0.01006587,-0.01181708,-0.02072953,0.00161133,0.00376447,-0.03275027,-0.04343792,0.01436078,0.00907790,-0.03673837,0.02649641,-0.01099171,0.05379245,0.02005801,-0.05279509,0.03855347,0.00431023,-0.00063105,0.00829719,-0.02660308,0.03099630,-0.01938674,0.01282206,-0.01735483,0.02526545,0.02620583,-0.05575715,0.00493324,0.01903379,0.02849590,0.05024460,-0.00642734,-0.02834168,-0.02637522,-0.02916873,0.02677959,-0.01806671,-0.01045272,-0.00360239,0.03115382,0.00726525,-0.05098815,-0.03722857,-0.00754135,-0.03703804,-0.02246072,0.00329975,0.03644688,0.00079456,0.02536338,-0.02533394,0.03936783,-0.05907729,0.04507387,-0.00812898,0.02499301,0.00806914,-0.02638958,0.01885759,-0.05693306,0.00883292,-0.02394584,-0.06483311,0.01327939,-0.00539627,-0.01296440,-0.00753476,-0.00149519,-0.00770072,0.00005901,-0.01392066,0.02593104,0.01648433,-0.04091221,-0.00105290,0.03827979,-0.00699739,-0.02049899,-0.01119986,-0.01922907,0.02646563,0.05642676,0.03325500,0.00694215,0.01540488,0.00974935,-0.00295614,-0.03581408,0.00695822,-0.03335695,0.02380697,-0.00391029,0.03221816,0.00305473,-0.02178663,-0.03879037,-0.08241088,-0.05242180,-0.01748423,0.01065721,0.00320203,0.02265841,0.02102334,-0.04943328,-0.03607088,0.02610028,-0.04352076,0.01267545,-0.00126666,-0.01736731,0.00723387,0.00170020,-0.00985745,0.02221038,0.05946358,0.03083251,-0.00669533,-0.00960773,-0.02003256,0.03046179,0.01194056,0.05840288,-0.07090815,0.03431061,-0.01325223,-0.05519694,0.04414557,-0.02180521,-0.03058791,0.00104670,-0.03448445,-0.00112417,-0.05771728,0.04544004,0.05363605,0.01131400,0.06542169,-0.03193025,0.04943739,-0.04716501,-0.06279228,0.02690524,0.01390033,0.01798527,-0.03253390,-0.02554811,0.00595273,0.05634806,0.00672712,0.01100788,0.01159199,0.04674720,-0.00596883,-0.01548131
0.03909543,0.02715755,0.04007193,0.04227126,0.00343861,0.01855671,0.03161566,-0.02168750,0.01980043,0.02410723,-0.02927243,-0.04982630,-0.05669040,0.02379068,-0.01873778,0.01316438,0.02351451,0.00538424,-0.00927601,-0.00676851,0.04338497,-0.00127698,0.00113082,0.01501882,0.00440908,0.03233915,-0.03757210,0.01513015,0.04831058,0.01919820,-0.02397329,0.01747588,0.01759970,-0.01714801,0.03323274,-0.02798318,-0.00768683,0.02987840,0.01714773,0.03060566,-0.00326044,-0.01630228,0.00856541,0.04185213,0.00339795,0.02813833,-0.02150850,-0.00687497,0.01780823,-0.00956156,0.01045990,-0.00487432,0.01552506,-0.00638998,0.02051256,0.02649264,-0.03062531,0.01315863,-0.00384910,-0.00770667,0.01800087,-0.00616664,0.03235060,0.00006458,0.01314581,0.01910953,0.00851178,-0.00827627,-0.02426996,-0.04601652,-0.00994910,0.02055581,0.07841474,0.02224238,-0.00851190,-0.00630926,-0.03333079,0.00583983,0.00761667,0.02484680,0.01337310,-0.01163659,-0.00302416,-0.02087243,-0.05903681,0.02765376,0.03308690,-0.00464606,-0.04658020,-0.04190341,0.00132257,0.05657108,0.05166729,-0.04266279,0.00448708,0.00002845,-0.00622304,0.04088601,0.01475851,-0.02310501,0.00258538,0.02682149,0.00754176,0.05105953,0.05592941,0.01014624,0.03030038,-0.00211117,0.04519199,0.02483371,-0.00153393,-0.07206301,0.03778737,0.02140343,-0.02300376,0.00369871,-0.04055768,-0.02669457,-0.02529358,0.02059565,-0.01910884,-0.00494060,0.02812016,-0.01664242,-0.02746336,-0.00941384,-0.00289950,-0.01881404,0.02370215,0.02059460,0.03706431,-0.04701312,-0.03660068,-0.03096511,0.02832414,0.01205090,0.01915315,-0.03687340,-0.01434159,-0.04048627,0.01193320,0.05017647,-0.02196531,-0.02935078,-0.04830944,-0.00482584,0.02140910,-0.05395274,-0.02239505,0.04737067,-0.01886247,-0.00722945,0.01384256,0.02176626,0.00447183,0.04569820,-0.00605685,0.02439234,-0.01444343,-0.00425016,-0.02367958,-0.00567547,-0.00693786,-0.00323251,-0.02327495,-0.04072841,-0.01885565,0.02731162,0.00291009,0.01833799,-0.05294299,-0.01134218,0.00632588,0.04467236,0.01857453,-0.00236454,0.05378618,-0.02014726,-0.00579025,-0.01660021,0.01687029,-0.00990881,-0.04166115,0.03462819,0.03384899,-0.00386754,-0.03641360,-0.04396632,0.00218270,0.07396032,-0.00937371,-0.01758025,-0.02162686,0.00403272,-0.00244918,-0.00210824,0.00568609,-0.01989701,-0.00920307,-0.01602908,-0.01408250,0.04508990,0.01896607,0.06275658,0.04164979,-0.05457122,0.02749858,-0.01983366,0.00273726,0.00322213,0.02046986,0.02797062,0.00509341,0.00622281,0.00227026,0.01932740,-0.00603492,-0.01364395,0.00862314,-0.03308117,0.03862200,-0.00201271,0.02828719,0.03833357,-0.00547204,-0.01640949,-0.01147197,-0.03521862,-0.00121380,-0.01656362,-0.00606637,0.00820077,-0.00551945,-0.00691724,0.04148799,0.00898938,0.00001451,0.02699337,-0.02655231,0.02632013,-0.01014548,-0.00796142,-0.01908300,0.00411432,-0.00872761,0.00084599,0.00227351,0.00496883,0.04853435,0.02987101,-0.02431511,0.00784477,-0.02280468,-0.04492008,0.02496980,-0.00034147,-0.01647612,0.02422207,-0.00847015,0.01562730,-0.02432928,-0.01868562,0.01292209,0.02175659,-0.02339047,-0.06054818,-0.05763434,0.00879545,-0.00985653,-0.03047491,-0.01117580,0.00688660,0.05493188,0.01047236,0.00447529,-0.03420196,-0.03271829,0.01376373,-0.01315477,-0.00241062,-0.03263231,0.03775665,-0.00440261,-0.00857374,-0.01409494,-0.02411613,0.06066581,0.02778147,-0.03096979,0.01105114,-0.06384175,0.02372272,-0.01432331,-0.03921505,-0.00202199,-0.01044788,-0.01385742,-0.04978905,-0.01766127,-0.02561845,-0.01939156,0.00411038,-0.01359005,-0.00708224,0.01556431,0.00128471,-0.02473360,-0.02598893,0.00349647,-0.01349237,0.05112575,0.01073810,0.04399114,0.00594825,-0.00531124,0.06011178,0.00090912,-0.04866922,-0.02037228,-0.00682499,0.01728859,0.03593772,0.02671816,0.00741736,0.01735754,-0.00576506,0.05057899,0.04102987,-0.00524497,-0.01506796,-0.00669585,-0.01722210,0.01320646,0.02887918,-0.00925975,-0.00289255,-0.02032092,0.03800051,-0.00943527,-0.01898560,0.01357906,-0.01983808,0.00723998,-0.03537156,0.01239550,-0.04211555,-0.04129150,0.04580782,0.01745064,-0.00353381,-0.01930990,0.01853142,0.02661027,0.01459539,0.02913008,0.00124994,-0.02168740,0.00504821,0.02578120,0.00009062,-0.04954246,-0.00315244,-0.00510248,0.04505713,0.00010405,-0.02230282,0.05970787,-0.02461158,0.04557884,-0.02966983,-0.01728336,-0.03857740,-0.01984764,-0.02384480,-0.02839078,-0.00342394,-0.01808991,-0.01953033,-0.01312114,0.00734000,-0.01898634,0.01725880,0.01020584,-0.00691995,0.03760438,-0.02277685,-0.03778085,-0.01794240,0.00872841,-0.00990031,-0.04281433,-0.00232436,-0.04553712,0.00211566,-0.00952449,0.00302095,0.01636961,-0.00758668,0.02150831,-0.00104572,0.04159136,0.03837701,-0.03543598,-0.00170075,0.02824136,0.01635829,0.01679118,0.02348829,0.00349311,0.02805126,0.02440188,0.02238662,-0.00041522,-0.00129232,-0.00766997,-0.02456344,-0.01351766,-0.03793479,-0.04789010,0.00254522,0.00391215,-0.02432954,-0.04363542,0.01338306,0.00330121,-0.01833988,0.02599742,-0.01003564,0.00896512,0.02932126,0.01991598,0.01757584,-0.05563926,0.00237143,-0.03091188,-0.00518261,-0.01179886,-0.02653562,-0.00944887,-0.02130972,0.01847274,-0.01825739,-0.01703342,-0.00831558,0.02007463,-0.00573512,0.02362453,0.00251557,-0.04325500,0.03579824,0.00873436,-0.02955347,0.03090473,0.00923631,0.02217420,-0.01540891,0.01705253,0.01640447,-0.02780152,-0.02004684,0.03412498,0.01543418,0.01646116,-0.01115639,0.09107519,0.00156011,-0.01551947,0.01158436,-0.00435864,-0.00149823,0.00279677,-0.01170759,0.05250716,0.05142578,-0.00238902,0.04856602,0.05855320,-0.00833292,0.03691537,0.03605444,-0.05670395,-0.01487744,0.01476356,-0.00415720,0.01390028,0.03688593,-0.04379741,0.00367427,0.01626921,-0.01790775,0.01116188,-0.01933792,-0.03425106,0.05471130,-0.04412699,-0.05108072,-0.03735706,0.02060833,-0.02523298,0.00180059,-0.02331429,0.00574114,0.02374788,-0.01653438,0.00873527,0.01388191,-0.01082326,-0.01352131,0.00344680,-0.01234578,-0.01912132,0.03853601,0.02297757,0.02011198,-0.00813972,-0.02050466,0.04394485,-0.01525890,0.00939149,0.00566019,0.00888750,0.01398650,0.00041062,-0.02692052,0.00215146,-0.01767598,-0.04227608,-0.01017444,-0.02857835,-0.00092773,-0.01674109,-0.02783216,-0.00252215,0.00212430,0.03318049,0.02475983,0.05180316,-0.00899313,-0.03994862,-0.00322393,-0.03892151,0.00799009,0.00032248,0.05626557,-0.00005641,0.00383983,-0.03308329,-0.01104429,-0.01440701,-0.01487432,0.03384522,0.02939171,0.03651439,-0.03518821,0.01232095,0.00447788,-0.05478583,-0.04339448,0.01017356,-0.03474652,-0.07397699,-0.00798723,-0.02125410,-0.01362419,-0.01223831,-0.03571476,-0.03813341,-0.00023198,-0.04619848,0.00508142,-0.01210524,0.04466240,-0.00749525,0.08670741,-0.02732740,-0.00998286,0.02001425,0.01819142,-0.02030675,-0.03600078,0.01447216,-0.00313899,-0.00169110,-0.01434209,0.00878663,-0.00292776,-0.01421541,-0.01671591,-0.00837998,-0.00531161,-0.01468862,0.02477338,0.02103179,0.02206425,0.00629503,0.02653291,0.02891052,0.02324013,-0.01120602,-0.03395668,-0.00997321,0.00755137,0.01299657,0.00538181,0.01276312,0.00911019,0.01760771,0.02273021,0.06506591,-0.00277840,0.01035213,0.05272797,-0.00615283,-0.00072030,-0.00483731,-0.04626924,-0.01345616,-0.04203336,-0.05109457,-0.03707245,-0.01561745,0.03057637,-0.01773386,-0.00447284,0.01379449,-0.02968447,-0.01148374,-0.00533995,-0.00555828,0.02187076,-0.01428979,-0.05456406,-0.02399066,0.01088063,0.00106631,-0.06621219,-0.00213594,-0.01039651,-0.01779083,-0.01639158,0.00586646,0.07063438,0.01197690,-0.00961294,0.01516155,-0.02966858,0.03692395,-0.02798652,-0.03036201,0.00905117,-0.00965379,-0.03069063,-0.02144374,-0.00605947,0.00681129,-0.07499335,-0.02470814,0.02436576,0.00722152,-0.00178806,0.02944974,-0.01556278,-0.02256637,-0.01182342,0.03193103,0.03265199,-0.00671388,0.00379670,0.00079734,0.01888836,0.00300688,-0.00474671,-0.01531448,0.00235939,0.00553452,-0.00705383,0.01786943,0.00194659,0.02344389,0.01012909,0.05466452,-0.01042962,-0.00713863,0.05205095,0.00244894,-0.00018954,0.05649316,-0.00117342,-0.01474868,-0.00797815,0.01852706,0.01279700,0.03008905,0.02318452,-0.01572169,0.02804590,0.03974358,0.02764921,-0.01267051,0.00872360,0.00385297,-0.01072883,0.01740072,0.01154907,0.02231197,-0.01732674,0.03164514,0.03361331,0.01264790,0.02282595,0.01845279,0.01235186,-0.03072607,-0.01021032,-0.02010656,-0.02169735,0.01081066,-0.04473827,0.05064747,-0.02407600,0.03824876,-0.01877608,-0.02683121,-0.03800109,-0.02764518,-0.01881311,-0.00114746,0.03664296,-0.01987878,0.01418041,0.01883963,0.02050931,-0.00334910,-0.00602615,-0.06235607,-0.04498575,0.00984524,-0.00765547,-0.04206754,-0.04789427,-0.00644407,-0.03523553,-0.02700038,-0.01984800,0.07268266,0.00679601,0.02504935,0.01973228,-0.01131649,-0.05326353,0.02366738,-0.02241289,-0.00519744,0.02093693,-0.05857722,-0.03298838,0.02242408,0.03958236,-0.05015552,0.01318288,0.03318959,-0.00633063,0.01276526,0.00687099,-0.01765226,0.00882127,-0.00989889,-0.02382273
0.02409376,0.00281471,-0.04039763,-0.02479656,0.00263286,0.02787384,0.01389926,0.02667212,0.01716436,-0.02135726,0.01950922,-0.02003387,0.01386020,-0.02743469,0.03264593,-0.01360772,-0.06586216,0.01063467,-0.00075525,-0.00553842,-0.04419138,0.00647530,0.03891215,0.01318451,-0.00188551,-0.01301527,0.03648474,-0.01332640,-0.00192540,0.05219153,-0.03074559,0.02516794,-0.00554585,-0.02249887,0.01814615,0.02570138,0.03100796,0.01295590,-0.00704396,-0.02856249,-0.06888790,0.00988990,-0.01485710,-0.01368140,0.01633203,0.03269157,-0.00528705,0.00983548,0.04775970,-0.03862026,-0.00075744,0.00145455,-0.03153948,-0.00453086,0.03261961,-0.01420840,-0.02943981,-0.00925301,-0.01047132,-0.00822650,-0.03681779,0.01284542,-0.01768042,-0.03662680,0.00603153,0.00030820,-0.05787801,0.00062250,0.00682061,-0.02745556,-0.03146194,0.01410504,-0.00138990,0.03795394,0.00916504,-0.00467128,0.00279853,-0.00464481,-0.03062132,0.01480999,-0.02570832,0.00186304,-0.04904576,0.01361050,0.03024518,0.00920067,-0.00530396,-0.00534939,-0.01143947,0.02927868,-0.00843629,0.03541363,0.00218850,-0.01159408,0.00999979,-0.01383492,0.01637575,0.00889244,0.03194797,0.00623567,-0.00794767,0.00647744,-0.03719410,0.01873438,0.00971059,-0.01440622,-0.00850462,-0.01988111,0.00960207,-0.01864441,0.00074530,0.02847740,-0.03663399,-0.00737401,0.02175810,0.02477788,0.01129599,0.00814669,-0.01433155,-0.00386417,-0.01983717,-0.00054648,-0.01608430,-0.00108336,0.00823637,0.05546256,0.05583084,-0.01840932,0.05803041,0.00232786,-0.00327024,0.00276376,-0.00434907,0.03432238,0.01304113,-0.05105497,0.06596796,-0.03681993,0.03867409,0.00908641,0.01831932,-0.04225726,-0.01480325,-0.02307028,-0.01391022,0.00068452,0.03119338,0.01315095,0.05413679,0.01527796,-0.06273560,0.02998151,0.02222792,-0.02158443,0.02206419,-0.01738431,-0.01979509,0.02365761,-0.02783364,0.00715605,0.01050821,0.01496283,-0.01203293,0.01958471,0.01763794,-0.01501214,0.01427384,-0.01877843,-0.00241287,-0.00911020,0.06080157,0.00512899,0.01055043,-0.02402657,0.02765094,-0.02109658,0.00816184,-0.00403649,0.05372823,0.00851956,-0.00364775,-0.02044261,0.02096706,0.00966742,0.02039794,-0.02183054,0.05420533,-0.00612981,-0.00532537,0.01457355,-0.05155272,0.03007423,0.01096202,0.06293625,0.01813051,-0.03482524,-0.01203614,-0.00926510,0.01463423,-0.02621123,0.00634817,-0.00215110,-0.00406995,-0.06606977,0.00063541,0.03026167,0.00631821,-0.03729881,0.02312092,-0.06047303,-0.00412855,-0.00335044,-0.01164993,0.02895308,-0.04133681,-0.02029367,0.00170034,0.04099009,0.01712983,0.00071339,-0.00806039,-0.05552226,-0.01885767,-0.02470547,0.03347398,0.00789237,0.02912862,0.04126223,0.03037071,0.03319742,-0.00492446,-0.02755649,0.04194765,0.01689084,-0.01583579,0.00928509,-0.02838810,-0.00240140,-0.04506141,0.02675634,-0.00635347,0.03361185,0.00216630,-0.00915054,0.07290967,-0.00817592,-0.00983940,-0.05585934,0.01154999,-0.03849682,0.00125063,0.03645294,-0.04917906,0.02793598,-0.02315905,-0.01773592,-0.01004726,-0.00401545,-0.05453885,-0.05058203,0.00528851,0.01762206,-0.02931954,-0.01734458,0.02558332,-0.00301128,0.01065174,-0.04980655,-0.02308953,-0.00086833,0.01593071,-0.01355752,-0.00779512,-0.02542547,-0.03847165,0.02274364,-0.00986356,0.00068661,0.03421029,-0.04021995,0.01419169,0.00009464,0.05353139,-0.00819487,0.03490272,0.02239736,-0.01648759,-0.01489023,0.06712728,-0.04047278,0.03026129,0.01210650,-0.03011784,-0.00135837,-0.02331047,0.00029574,0.01188818,0.01914717,0.02950670,0.00771796,-0.02541556,-0.00055415,-0.01820491,0.03729171,0.02341912,-0.05835344,0.02340480,0.00799758,0.00179143,-0.02968096,0.01376218,0.00183026,0.01813107,0.02961582,-0.03904603,-0.02223768,0.01947568,0.02645011,0.00288585,-0.01013651,-0.01293506,0.04398834,-0.03379456,-0.03791909,-0.04178056,0.00305903,-0.00489916,-0.02000477,-0.02657661,-0.01149198,0.01397381,-0.00899247,0.00328612,-0.01277712,0.00229578,-0.04482819,0.02599086,-0.06688437,-0.00347275,0.00445919,0.02087351,0.01774729,0.03412039,0.03922357,0.02739448,0.01104848,-0.03907420,0.00844789,0.03741615,0.00736787,-0.03575662,0.03223914,0.01091462,0.00104083,0.06014363,-0.03227884,-0.00124520,0.02681176,-0.02095082,0.01724285,-0.00031652,0.00281374,0.00550994,0.02512266,0.01044243,0.03424306,-0.00419780,-0.01990250,0.03273760,-0.01139455,0.02917205,0.00858238,0.00190313,0.04449372,0.00650589,0.02787592,0.00213585,0.00370746,0.00989308,0.03126518,0.01923513,-0.00304044,0.01478450,0.00681380,0.00019532,0.00495892,-0.02316457,-0.01688686,-0.02072857,0.02457268,0.06842038,-0.01540799,-0.03747874,0.02403072,-0.01387220,0.01136065,0.02657748,0.00142799,-0.04072690,-0.01652877,-0.03955977,0.02538853,-0.02874605,-0.00119319,-0.01937360,-0.00959755,0.01168364,0.02219769,0.02253553,-0.01749772,-0.00132913,0.02171479,-0.00145185,-0.09542657,-0.03071388,0.01562924,-0.00753725,-0.01382373,-0.02102495,0.01303662,-0.01197514,0.00459589,-0.00142565,0.00734189,-0.01778245,-0.05198674,-0.00085659,-0.00840889,0.01750821,-0.01309124,-0.01969858,0.03902226,0.02430463,0.02224735,0.04183609,-0.06106265,-0.00439369,-0.02831906,0.01285522,-0.02610807,-0.02190508,0.00028419,-0.04945685,0.00693030,-0.00335332,-0.01172132,-0.00857706,-0.00646128,-0.01839350,0.01544669,-0.00558264,-0.00081925,-0.00414247,-0.00821004,0.01349968,-0.01078660,0.00587250,-0.01939625,0.01797417,-0.03156397,-0.03395220,-0.00781254,0.02037399,-0.00749642,-0.02843597,-0.03192437,-0.02845425,0.03516863,0.00014207,0.01318835,-0.00256398,0.02108301,0.01095039,-0.00827498,-0.06559032,-0.00784104,0.05291550,0.01512284,0.01889891,-0.01576461,0.02802062,0.03415843,-0.00778568,0.01844739,0.03600183,-0.02496161,-0.03071510,-0.00476350,0.03741772,0.01365791,0.01071588,0.01689517,0.02255837,-0.01729766,0.00788569,0.01088948,0.02081978,0.00066629,-0.01848541,-0.01529357,-0.03649326,0.01606515,0.01818318,-0.01383675,-0.00898448,0.01558895,0.03927542,0.02801789,0.01400607,-0.03358940,0.00763027,0.00036154,0.02260347,0.04399468,-0.04486367,0.00890179,-0.07190458,-0.02524203,0.01868613,-0.01849885,0.03883454,-0.02373517,0.00920019,0.00177013,0.02806607,0.00931283,-0.00676715,-0.00581088,-0.02777787,0.00219685,-0.02162469,0.01850793,0.00601788,-0.01517380,-0.00804269,0.02223627,-0.01811287,0.01395911,-0.01071703,0.01994159,0.00015451,-0.00624871,0.01165198,-0.00629894,0.05975406,-0.01069359,-0.01382214,-0.05919076,-0.04338570,0.06232790,0.00659668,-0.00900335,0.03493826,-0.01165803,-0.00467742,0.01737024,0.03010901,0.04936263,-0.04273931,0.06090809,0.03317330,-0.02521727,0.04997018,-0.00724631,0.01375221,-0.00069106,0.00466066,-0.02302257,0.05308264,-0.04112597,-0.01983820,-0.00090741,-0.01980552,0.03389036,0.01682573,-0.02161212,-0.00030339,-0.02685989,0.00009445,0.00042184,0.00411077,0.00758518,0.02185966,-0.01527260,-0.00395788,0.00855866,-0.00273931,-0.01822598,-0.01583893,0.00113732,-0.01011474,-0.01692522,-0.05985561,-0.02352745,-0.01894410,-0.01192259,-0.03365614,-0.00801974,0.02690898,0.01640643,0.00002929,0.01871067,-0.00863312,0.03480917,-0.00277147,0.06008931,0.03487761,-0.00217755,-0.02212950,0.03441341,-0.01059448,-0.01257209,0.01997864,-0.00072576,-0.02594797,0.00545356,-0.00310545,0.00499295,-0.00155781,0.03091559,-0.01257809,0.01837468,-0.00350560,-0.02369007,0.01310385,0.00228840,0.01380057,-0.04320781,-0.04241207,0.01982654,-0.05975046,0.01469578,0.03178382,0.00847501,-0.00625704,-0.00438379,-0.00134293,-0.03486129,0.03541457,-0.00379021,-0.02542840,-0.00177480,0.05463035,-0.03605947,0.04195350,0.00832901,0.01513189,-0.01815315,0.00470345,-0.03683699,-0.00310805,0.01248295,0.02594639,0.01615367,0.00598081,0.02274456,-0.05381371,0.00379062,0.00949207,0.00340243,-0.04569107,-0.01942186,-0.00078332,-0.02095096,0.03077843,0.03041934,0.01651827,-0.00403294,-0.01412536,0.02216638,0.00724209,0.01333988,0.01070643,0.02911998,0.01099742,-0.01168670,-0.01098462,-0.00926576,0.01039685,0.01513588,-0.00652405,0.00781908,0.01918139,-0.00350360,0.04807539,0.06394372,-0.02313251,-0.01234656,-0.01372484,0.01229309,0.01332689,0.00162577,0.02954248,-0.00156948,-0.05880236,0.01315485,0.02220480,0.00903393,0.02535016,0.01484984,0.01685288,0.02919599,0.07500544,0.00569659,-0.02884396,-0.03613826,-0.03315956,0.00981491,-0.02765880,0.01464376,0.06355148,-0.00701933,-0.02449348,0.03496139,0.03767188,0.00257085,0.01583312,0.00354715,-0.03868164,-0.01235546,0.01936820,-0.00252049,-0.01286362,-0.00179735,0.02133253,-0.00479453,0.01060842,-0.02049548,0.05781208,0.01001599,-0.01829518,-0.03241230,-0.01286527,0.04081063,0.03509358,0.05142987,-0.01824246,0.05378451,-0.02267248,-0.03170396,0.00008083,-0.00527198,0.01701315,0.01873993,-0.02595515,-0.01144762,0.05675199,0.01254963,-0.05138469,-0.01256761,-0.00337594,-0.02632205,0.05585327,-0.03293831,0.01075548,0.01815840,-0.01533259,-0.01566090,0.02445921,-0.03689556,-0.04309986,0.03283527,-0.00113116,0.02785528,0.01497495,-0.04670230,0.05118855,0.03753894
-0.00864862,0.03822009,-0.02447352,0.01096312,-0.03605886,-0.00665660,0.00115038,-0.01230077,-0.01932646,-0.02230197,0.01131391,0.03803720,0.02843679,-0.01534478,-0.00279599,0.02528415,-0.04370333,0.04871170,0.03560124,-0.00318336,-0.01052899,0.04213800,-0.03199941,-0.02708623,0.02271886,-0.00360121,0.02684355,0.00959655,0.00208160,0.03405289,-0.05010276,-0.04079747,0.04986593,-0.01031798,-0.05177917,-0.00050944,0.04324977,-0.00692714,-0.04376601,-0.01882902,-0.02510037,-0.00002328,0.00875011,0.01963355,0.03432316,0.01489003,0.06177223,-0.01780693,0.01286740,0.03592667,-0.01055255,-0.00840613,-0.02522513,-0.00852972,-0.06739588,-0.01319585,-0.00377661,-0.05307420,-0.04274242,-0.00875808,-0.04974314,-0.02182444,0.00137746,-0.06036536,0.01093138,-0.06098187,0.05239057,0.05099831,-0.00967524,-0.01219882,0.01505579,-0.02874553,0.03573597,0.00358601,-0.01545529,-0.01726045,0.02246293,0.01045592,0.02018936,-0.02885309,-0.00791466,-0.01267747,0.03500570,-0.02835379,0.00929161,0.01394646,-0.04761942,-0.01341656,-0.01991271,0.01020168,-0.04170866,0.02963269,0.00872030,-0.02205615,0.00258844,0.01754166,-0.00844999,0.01178724,0.02860549,-0.00847414,-0.00452408,0.02478315,-0.00175063,-0.05573151,-0.01869248,0.00620048,0.01507551,-0.01856616,0.01679175,0.01400854,-0.02597001,0.00383163,0.03578846,-0.02514545,-0.02711037,-0.00111311,0.03480669,0.00754689,0.03352842,-0.03898883,-0.00385082,-0.00233116,-0.00154519,0.01076550,0.02557692,0.03476513,-0.00057590,-0.01173163,-0.00051205,-0.01120545,-0.01350355,-0.00665627,0.09149252,-0.03010352,-0.03043858,-0.07012489,-0.03388191,-0.00086004,0.00877709,0.00108406,0.04385876,-0.01035759,-0.02524072,-0.00719551,-0.00201548,0.01196775,-0.04294663,-0.02995772,0.01865583,-0.02521393,0.02281675,-0.01910839,0.01522603,0.00610334,0.01904197,0.03777226,0.01956233,0.01739681,-0.02191120,-0.00391517,0.01200190,-0.01308661,0.02134433,0.03952716,-0.06076847,-0.00711898,0.01770068,-0.02087409,0.02455299,-0.02188673,0.02268188,0.01628479,-0.02873172,0.01842638,0.02900060,0.00307998,0.00166761,0.00111401,0.03546740,0.01370941,-0.03219899,-0.01457779,0.00146564,0.01990629,0.01609363,-0.06449957,0.01114530,-0.02341368,-0.00752187,-0.02570822,0.00648670,-0.01392727,0.02315595,-0.00787534,-0.02170267,0.01082425,-0.03223693,0.02398252,-0.00715810,-0.02665889,-0.00199802,0.02582534,0.00562297,0.00948614,0.01683740,-0.01080919,-0.00372605,-0.03442778,0.02064282,-0.00426203,0.00214208,-0.00995499,0.03188305,0.00746184,-0.03411035,0.02554764,0.01588148,-0.00565729,0.00738864,-0.06661847,-0.00009583,-0.02112933,-0.01789786,0.02911429,-0.02574896,-0.04561614,-0.04563010,-0.02427068,-0.00392252,-0.00913841,0.00830424,0.03942645,0.00368764,-0.00662561,0.01929106,-0.04824756,0.03041345,-0.01256971,0.00230039,0.01078440,-0.01434542,0.00203186,-0.02696085,0.00861396,-0.04195464,0.00202772,-0.02127623,-0.02957061,-0.02711489,-0.01013831,0.00107564,0.01270638,-0.01853088,0.01622639,0.00436177,-0.01652082,0.00753270,0.01204284,-0.09022021,0.02429872,0.00237928,0.00231522,-0.01197405,-0.02100687,0.01970710,-0.09621482,-0.01217743,0.02235675,-0.02328256,0.00223900,0.02420790,0.00879836,-0.01429882,-0.03497219,0.02952261,0.00837351,-0.03246303,0.02560824,-0.02549366,0.01570662,-0.02290921,0.00263220,0.04172217,-0.00809631,-0.01648997,0.00737071,-0.01701419,0.02436548,-0.01318273,-0.02770260,0.01525269,0.03715833,0.03356323,-0.02286027,0.01002425,0.05911041,-0.03354260,0.03658634,0.01326665,0.00472394,0.03774573,-0.00904078,0.02165230,0.00031051,0.02985384,-0.04807708,0.03331287,-0.02645514,-0.00050522,-0.03810571,-0.03825351,-0.03251521,0.00331455,-0.04565802,0.00489254,-0.00904317,0.04081072,-0.00146698,0.02515704,-0.00505765,0.00647023,-0.01872747,-0.03214139,-0.02403370,-0.01659424,-0.03067590,-0.01328113,0.00061209,-0.01436293,0.05669168,-0.00865561,0.05245644,0.00898193,0.05914782,-0.00690954,0.02516638,-0.01453583,0.01158947,0.00181334,0.01944306,0.03795543,-0.00609278,0.01541450,-0.00046467,0.03728215,-0.01826593,-0.01617633,0.00915028,-0.03777698,-0.05752742,0.02881981,0.02166402,0.00541346,0.01420451,0.02138966,-0.00299206,-0.01597215,-0.01944248,0.03325774,0.02149544,-0.01819241,0.02988324,0.00915276,-0.01637680,0.00985508,-0.01404445,-0.02896042,0.05235756,-0.02192957,-0.01087544,-0.00393878,0.03854263,0.00971171,-0.02632407,-0.03755887,0.04231364,-0.02104318,-0.00896336,-0.03770106,0.04003530,-0.01496573,0.01167676,-0.04172902,-0.02064094,0.03401524,-0.00965117,-0.00405908,0.01128083,-0.01746844,0.04315996,0.02667500,0.03109535,0.04353001,0.04149364,0.02096279,-0.03049510,0.00778013,0.01588594,0.01900012,0.02291237,0.00072177,-0.01924537,0.02457706,0.06135943,-0.00539597,0.01500973,-0.05096443,-0.01579907,-0.02661672,-0.01234481,-0.00363787,-0.01553163,0.00588967,-0.01310559,-0.04120098,-0.02278324,0.08044676,0.02615407,-0.00538603,-0.00039868,0.01763624,-0.01000038,0.00679229,-0.01162456,-0.03421846,-0.03298619,-0.03655729,-0.00326536,-0.03974621,0.01789657,-0.03538228,0.05011408,-0.00339377,-0.08649085,-0.01192865,-0.02120272,-0.00072682,0.05914848,0.02359236,-0.02011862,0.01080646,-0.00740301,0.02510795,-0.00385964,-0.01501619,0.02446603,0.00282248,-0.00366737,-0.03118955,-0.05567176,-0.04139872,0.00555714,0.04554485,-0.00998305,-0.00679471,-0.02377734,-0.06324611,0.00680823,-0.00010844,-0.01009741,-0.02515404,-0.00082859,0.00878129,-0.01505980,-0.02729463,-0.00331056,-0.01253871,-0.02112319,0.02371915,-0.00501905,0.00943674,-0.00159992,0.01848062,0.04169485,-0.00244360,-0.01831652,0.02076424,0.00904789,-0.06233018,0.00534555,0.02841210,-0.03305082,0.01111039,-0.05980117,0.03271689,-0.01124910,0.03245012,0.01877574,0.00699308,0.01203706,-0.03908884,0.00604709,0.06094621,-0.02142069,-0.00608707,0.00486754,0.05560707,-0.04246229,0.02115913,-0.01320344,0.00241148,0.03388322,-0.00299372,0.01778489,0.03261171,0.00528090,-0.02421810,-0.04396442,-0.01678904,-0.00206699,0.02277561,-0.03306175,0.01565444,0.00102632,-0.01056562,-0.00096221,-0.01407194,0.04013317,-0.01568190,0.01136175,-0.00788095,-0.03508854,-0.02687827,0.04070233,0.02792605,0.03354874,-0.01543580,-0.08727136,0.05892351,0.01845452,-0.02108534,0.01098452,0.03660979,0.05741836,-0.00434402,0.00949669,0.00743447,-0.01430859,0.00413948,0.01717533,-0.03658535,0.00765302,0.01565957,-0.05287451,-0.00439891,-0.02251142,-0.02575586,-0.03110724,0.00215181,0.01080984,0.01692049,0.00507048,-0.02042351,-0.05002090,0.02186212,0.05059465,0.00652544,0.00523008,-0.00994489,-0.03678271,0.02913628,0.03350705,0.07458730,0.01390910,0.00021634,-0.00043268,-0.05070459,-0.00049906,0.00820945,0.01150186,-0.01769792,-0.00327262,0.04195670,-0.00653098,0.00781437,0.00004270,0.00310262,0.01974713,0.00832919,0.04701253,-0.02597661,-0.02989009,0.00664085,-0.01015133,0.00967376,0.00168663,0.03612272,-0.00369506,0.02476469,0.02088002,-0.02503963,-0.04646995,-0.02946673,-0.00624083,0.00211448,-0.01375019,-0.00564019,0.02272701,0.01037142,0.01546365,-0.02770139,-0.02633172,0.04439413,0.00944695,-0.02362772,0.02616028,-0.02881665,0.01956639,-0.02880816,-0.03378864,-0.00296571,-0.00063107,-0.01719027,-0.01482608,-0.02800583,-0.01517853,-0.01389749,0.01968441,-0.02291840,0.01373724,0.07497658,0.01438160,-0.02246200,-0.00604032,-0.02211530,-0.00824242,-0.00396955,-0.04711316,-0.00407310,0.01045063,-0.05404455,0.04688911,0.01837755,0.01745155,0.00093605,0.00098262,-0.03516553,-0.03089292,-0.02331140,-0.00770012,0.02756975,0.01801041,-0.03457761,0.01090335,0.00985568,0.02328917,0.02166346,-0.01437475,0.02349146,-0.00260962,-0.03150137,-0.00692895,-0.02275047,-0.02532446,0.01128332,0.01594799,-0.05066914,0.00494468,-0.02413097,-0.01120177,-0.00932636,0.03427980,0.01185009,0.02080939,-0.04685176,0.04265988,-0.04115304,0.02644622,0.02058579,0.02793962,-0.05677728,0.00426494,-0.00429742,-0.02123173,-0.03039810,-0.05946473,0.03709374,0.00508766,0.00698463,-0.02689577,0.00501433,0.00870006,-0.01612079,0.02267843,0.01154545,0.02733833,0.01729710,0.00382371,-0.02398316,-0.00456046,-0.04435658,0.02409846,0.01086782,-0.00785632,-0.00399879,-0.04245084,-0.02492751,0.00772374,-0.02542607,0.03023667,-0.01644918,0.03822716,-0.01179762,0.00444364,-0.00543402,-0.02010456,0.02938064,0.06994111,-0.00944280,-0.02035237,0.01591678,-0.00771880,-0.00398759,0.02508107,0.03060937,0.01156018,0.01615058,-0.00876748,0.01062992,-0.03145581,-0.03367439,0.01981619,0.01417467,-0.02082342,-0.01766233,-0.01019935,0.02215446,-0.02374884,-0.02529069,0.02649388,-0.04327356,-0.00107478,0.00280275,0.03530917,-0.00042158,0.03933316,-0.01703758,-0.03215148,0.01164928,-0.03719715,0.02568009,-0.01000086,0.02463156,-0.02971079,-0.00215647,-0.03932149,0.05986390,-0.01163630,-0.05213978,0.01563872,-0.01046942,-0.02412109,0.01036574,0.00152628,0.03979976,-0.01326608,-0.02542026,-0.00844721,-0.01850106,-0.04950447,-0.01624291,-0.00239969,0.03149152,-0.02262514,0.05350429,0.01744120,-0.01250502,0.00872216
