-0.01266828
-0.01636893
-0.00323044
0.01705033
0.00586796
0.01059045
-0.02777299
0.01172282
0.01082446
0.00866339
-0.02063087
0.04085099
-0.00470317
-0.00591359
0.00938769
-0.00328681
0.02257143
0.00409865
-0.00863464
0.01711244
-0.03891739
0.00947798
-0.02019452
0.01831325
0.00203196
0.00317481
-0.00393847
0.02212418
0.01019173
-0.00028076
-0.01613167
-0.00924580
0.00920415
0.01855236
0.00000931
0.00861636
0.02267683
-0.00253644
0.01740927
-0.00059643
-0.01012544
0.00658510
-0.02305879
-0.01073143
0.00488639
-0.00591857
0.00255434
0.01921063
-0.01631969
-0.00934826
0.01259794
-0.01179958
0.00006217
-0.00841667
0.01154863
0.00791060
0.00786567
-0.00321562
0.00784277
0.01101144
-0.00934087
-0.00391964
0.01265477
-0.00530768
-0.00857842
0.01869285
0.01770960
-0.04234204
0.02341671
-0.00899377
0.02550702
0.02802196
0.02549447
0.03390919
0.01506785
-0.00606163
0.00108737
0.03147883
0.02417916
-0.02527855
0.04760101
-0.01751870
-0.00673473
0.01693761
0.02157758
0.00294156
-0.00327206
-0.05990375
-0.00133108
-0.00615009
0.05252451
-0.00926741
0.06332693
-0.02295400
0.03852131
0.00832221
-0.00377816
-0.01256412
0.04780334
0.03619154
0.00914168
0.04003078
0.03852623
0.04143045
0.01545256
0.00018054
-0.00012727
0.00071275
-0.02018806
-0.00938508
-0.05374921
0.00532142
0.02951862
0.02478296
0.02241786
-0.00822104
0.00839892
0.04581870
-0.01325606
-0.02921655
0.02530185
0.03990627
0.05341474
-0.02773152
-0.01710648
-0.00435980
-0.02877456
0.00120992
-0.01090845
0.02913066
0.04603591
0.04541184
0.00294315
-0.01300543
-0.04135904
-0.02220857
0.05826526
-0.08894780
0.04722926
-0.04695272
-0.00326897
-0.00758170
0.06964525
0.09427760
0.01227191
0.04538174
0.00958729
-0.02629864
-0.02476510
0.01778806
0.01919350
-0.09448326
-0.10997061
0.03089437
-0.02955260
0.00660621
0.00516144
0.01415208
0.04592849
0.01152443
0.04318289
-0.03696402
-0.02293243
0.02326861
-0.00077680
-0.06720131
-0.01304862
0.00726692
-0.02097691
0.01080898
0.01226981
0.00904644
0.06653182
0.06237011
-0.01530355
-0.06615509
0.03648803
-0.03125188
-0.02603702
-0.10279663
0.00044306
-0.06726713
-0.04814205
0.03878527
-0.00005569
-0.01328667
-0.04026118
0.02556852
0.04569666
0.00011692
-0.02486587
-0.06040132
0.12095401
-0.17065437
0.08069716
0.08642585
0.07770082
0.02960759
0.01835359
0.12524931
-0.04113133
-0.01228460
0.11191966
-0.00132220
0.03519200
0.04474537
-0.07289325
-0.01118663
0.12070371
-0.06201953
-0.00461930
0.04826752
0.10877260
0.12804560
-0.10313113
0.00063011
0.05780113
-0.16814375
0.13977979
-0.05366728
-0.02092342
0.01979469
-0.09467985
0.10482477
0.06866267
0.03292376
-0.04900409
-0.07421609
0.01468120
0.00705198
0.07615376
0.01633780
0.05743245
-0.11443588
-0.01436707
0.02713414
0.11809810
0.14655121
-0.12436607
-0.06749054
-0.03289079
0.05783065
-0.05594480
-0.05332977
0.12131498
-0.08794225
0.05376003
-0.08978155
-0.03612357
-0.06548270
0.01689265
-0.07865489
-0.17831357
0.02090744
-0.10172270
-0.08834188
0.03453259
-0.00006948
-0.00107497
0.03630947
-0.02584038
0.01131907
0.01891843
-0.01999715
0.01705526
-0.02651899
-0.08584514
0.10654350
-0.02101701
0.00250159
0.02319296
0.00144939
-0.00255074
-0.02242228
0.02281354
-0.00986483
-0.04488589
0.03141382
-0.02096260
-0.02584044
-0.01661980
0.03386667
0.01105910
-0.00617466
-0.01788944
0.02351546
0.01323005
-0.00379304
-0.02641734
-0.00376582
-0.01375882
-0.01388113
-0.00800848
0.02420577
0.03809793
-0.00954728
-0.01974121
-0.01592566
-0.00089892
-0.01162399
0.02420316
0.08625344
-0.13693202
0.00604132
-0.00042422
-0.04804045
0.00269013
-0.01074371
0.00568162
-0.00924511
-0.02954418
-0.00356876
0.00189994
0.00970745
-0.01218099
-0.00224389
-0.01461351
-0.00311254
-0.00411626
0.00399963
0.02798858
-0.02649620
0.00178542
-0.03469808
0.01412913
-0.02016678
-0.02478940
-0.00748967
0.00420410
-0.01545133
0.02516383
-0.04325424
-0.02640752
-0.01632996
0.01234870
0.00371267
-0.00436283
-0.01793733
-0.01178118
0.01487981
0.00293482
-0.00775167
-0.02148389
0.00231586
0.00658115
-0.03210644
-0.03978589
0.00843050
0.01517392
-0.00496896
-0.00912874
0.00163137
0.01444322
0.01246995
0.01416314
0.02691409
0.00780122
-0.01003167
0.01572386
0.00574464
0.04055877
0.02723795
-0.01354904
0.02976898
0.00097957
-0.03145604
-0.01948023
0.01355802
0.01208643
-0.00479994
-0.01037879
0.02171584
0.01081101
-0.01400948
-0.04437615
0.00194832
0.00920275
-0.03207643
-0.00810122
0.00294303
-0.00433195
0.03114677
0.00524398
-0.01815805
-0.00057652
-0.00151775
0.01188102
-0.00326115
0.00473918
0.00868458
0.01006009
-0.02034890
-0.00000338
-0.01780363
0.00538159
-0.02200172
0.01839142
-0.01230399
0.02817864
-0.00024173
-0.01011626
-0.00059159
-0.00603209
0.00595063
0.01617005
0.00177600
0.00476220
0.01613476
-0.01213272
0.00458926
0.05133821
-0.00904539
0.00289085
-0.01108005
0.00387823
0.00001239
-0.00310949
0.01049439
-0.00134948
-0.01109670
-0.00994351
0.07770932
0.01279427
-0.00416078
-0.00781034
-0.00797366
-0.02007307
-0.05259454
0.01003649
0.00125768
-0.01270054
-0.00151531
-0.00544703
-0.00129175
0.00515229
-0.00253894
0.00481561
0.00139569
-0.07527550
0.00396869
0.00711602
-0.00902989
0.00021039
0.00946265
0.01267884
-0.00640574
-0.01157264
-0.01232520
0.02230575
0.00482512
0.01777354
-0.01296129
-0.00218496
0.01984864
-0.01352903
0.00066850
0.00301104
0.02863945
0.01564636
0.01695315
0.01678234
-0.00919890
0.01764140
-0.01340943
-0.00446033
-0.01367734
0.09152389
0.00585315
-0.00136719
-0.00477349
-0.00241546
-0.00535917
0.01584333
0.00108803
-0.00088814
-0.00311735
-0.01163586
-0.00679800
0.00399950
-0.01498001
-0.05373094
-0.00237108
0.01241751
-0.00733253
0.00478758
0.00245704
-0.00898891
0.00352234
0.01323397
-0.03818623
0.00132867
-0.00062619
0.03947813
0.03736506
0.03685384
-0.02091915
0.01240197
0.01239366
0.00856038
0.02145523
-0.00406539
0.01536932
-0.01644729
-0.01652282
0.01099860
-0.00046517
0.00316207
0.00395351
0.00078835
-0.00204016
-0.01862371
-0.01519819
-0.01416558
0.02796826
0.05098559
0.02747125
0.04573317
-0.01373393
0.00208254
0.02492253
0.02658964
0.00318564
0.03434032
-0.04557262
0.00378481
0.00576868
-0.02207106
0.01540198
-0.01633996
0.00173994
-0.02384293
0.01953165
0.03152981
0.05647984
0.06777319
-0.02990264
-0.01220419
0.01576499
0.00788075
-0.06248472
-0.03541736
0.02043512
-0.03163563
-0.00435724
-0.03165638
0.03237773
-0.03317991
-0.03906411
0.00560155
-0.03124718
0.00016508
0.02981290
-0.02338983
-0.00764149
0.00211626
0.00089500
-0.02030798
-0.01572403
0.00423823
-0.02784649
-0.01468755
-0.02488517
0.02235897
0.00604928
-0.00650775
0.01765194
-0.05150766
-0.00652981
0.02540476
-0.00648000
0.01010553
0.00298218
0.04359521
0.01785218
0.05689754
-0.00297183
-0.00363159
0.00809515
0.00216318
0.01872912
0.01287755
0.00962940
0.00321045
-0.01402025
0.02823439
0.01894086
-0.00265222
0.00309423
0.06466714
0.00706727
0.01988416
0.00284808
0.02765695
-0.01055658
0.02716893
0.01624862
0.01426922
0.00339282
-0.01280402
0.00902116
0.03533330
-0.01040603
0.03323573
0.00345754
-0.01203001
0.00157772
0.03662949
-0.01919611
-0.00483530
0.00039593
-0.02191002
-0.03974671
-0.00284085
0.00124702
0.03314709
0.00516697
0.00639025
-0.00114835
-0.00997740
-0.00968262
-0.02858525
-0.01928283
0.05521996
-0.03064436
0.02307193
-0.00779144
0.01200490
0.02066970
0.09108632
0.01052151
-0.00301562
0.01439235
0.02042185
0.00348116
-0.01975651
-0.04240808
-0.00755150
0.00939002
0.00449650
-0.04837155
-0.00775378
0.15727079
-0.06404916
0.03326628
0.09570932
-0.07995990
-0.00466917
0.04245369
0.07340328
-0.01306419
0.02139457
-0.11882757
0.08313774
-0.10676371
-0.04456047
-0.00532691
-0.01437946
-0.04989423
0.09850645
0.00954848
-0.16102429
-0.01479553
-0.01591639
0.12212113
0.05900797
0.04128465
-0.06551687
0.09780952
0.03346060
-0.17175525
-0.05409534
0.06570467
0.00072275
-0.05548028
0.05504166
0.02067056
-0.07673488
0.10430463
0.24973717
0.03973094
-0.05594752
0.10926212
0.08638797
-0.05344929
0.09181184
-0.02390817
-0.03622714
0.06731137
0.04942800
-0.04757750
-0.11272877
-0.10027435
-0.05437912
0.13200116
-0.01981959
0.02680958
-0.02609218
-0.11208366
0.00117670
0.02380807
0.08618543
-0.05418014
-0.06878309
0.06595139
0.01495011
0.00267318
0.00904846
-0.02067734
-0.01116185
0.00572805
0.01294160
-0.00729259
-0.01687657
0.00732838
0.00750505
0.01340938
0.00021614
0.02497297
0.00968494
0.01462822
-0.00830606
0.01339003
0.00623634
-0.01835755
-0.00288151
-0.00371407
-0.01557125
0.01401493
0.00989687
-0.01973743
0.02787144
-0.01755953
0.00290765
0.01593506
0.02262682
0.00137150
-0.00273346
-0.01243121
-0.00107763
-0.00348471
-0.00764004
-0.00699437
-0.00414497
-0.00741916
-0.03622689
0.01849457
0.00251745
0.00809391
-0.00477557
0.02649113
0.02139508
-0.02166191
0.00437758
0.01023294
0.01238877
0.02185337
0.00323885
0.00066362
0.01148266
0.00507149
-0.01244643
0.02653573
0.00449057
-0.00235456
0.00090245
-0.02044761
-0.00608622
-0.00235175
