-0.00424695
-0.00011874
0.00460531
-0.00315490
0.00433968
-0.00026361
-0.00506184
-0.00138752
-0.00540139
0.01651650
-0.00013880
-0.00340304
0.00465608
-0.00017445
-0.00094747
-0.00249294
-0.00516165
-0.00493555
-0.00378511
-0.00070042
-0.00483094
-0.00194591
0.00562689
-0.00645912
0.00500986
0.00733667
0.01070272
-0.01273007
-0.00591611
0.00079962
-0.00714778
0.00052928
0.00004059
0.00403214
0.00326367
0.00465397
0.00418439
0.01084414
0.01081442
0.00662834
0.00041219
0.00375501
-0.00157554
-0.00111536
0.00971617
0.00187255
0.00704659
0.00201082
-0.00445938
0.00602862
-0.00153542
-0.00381231
-0.00422446
0.01186669
-0.00204838
-0.00814223
-0.00400555
-0.00623505
-0.00604463
0.00535844
0.00518975
-0.00861494
-0.00045435
0.00350411
-0.00185026
-0.00567468
-0.00429648
-0.00030329
0.00712762
0.00080269
0.00128567
-0.01158611
-0.00307648
-0.00512944
-0.00191850
-0.01206241
0.00683851
-0.00373470
0.00116810
0.00083326
0.00517550
-0.00494694
-0.00094209
-0.00640761
-0.00321155
0.00577239
-0.00845979
0.00802654
0.00109241
-0.01944825
0.01587283
-0.00198578
0.00446228
-0.01060476
-0.00386323
0.00307830
-0.00098672
0.00106165
0.00349448
0.00246144
0.00611427
0.00314176
-0.00747083
0.00071260
-0.00198825
0.00760093
-0.00380939
-0.00619178
0.00064256
-0.00314277
-0.00571853
0.00608478
0.00002556
-0.00499229
-0.00115459
-0.00071769
-0.00460475
-0.01207433
0.00926894
0.00511692
0.00412751
-0.00452115
0.00318239
0.00194674
0.00781788
-0.00417011
0.00022217
0.00680804
-0.00757150
0.00831963
-0.00098524
-0.00117394
-0.00521018
0.00206404
0.00366276
0.00792413
-0.00196645
0.00263727
-0.00747610
0.01066343
0.00860358
-0.00346770
-0.00482660
-0.00565753
0.02006773
-0.00436245
0.00805432
0.00677223
0.00222012
0.00207544
0.00478382
-0.00277551
-0.00455072
-0.00344992
0.00063253
0.00203568
-0.00666335
-0.00482118
-0.01318149
0.00013787
-0.00974252
0.00498487
-0.00022593
-0.00897545
-0.00348911
-0.00740690
-0.00580917
-0.00393372
0.00790278
0.00800112
-0.00002074
-0.00329142
0.00032645
0.00107160
-0.00269581
-0.00552905
-0.00181529
0.00062159
0.00279988
0.00192575
0.00658276
0.00441966
0.00674979
0.00465359
0.00318323
0.00429390
0.00323314
0.00136199
0.00034364
0.02161822
0.00352891
-0.00245063
-0.00549798
0.00334090
-0.00989562
-0.00652077
-0.00445332
0.00230838
0.00248262
-0.00203233
-0.00082241
-0.00228922
0.00508476
0.00476519
0.00065229
0.00094289
0.00346628
-0.00156407
0.00137062
-0.00256902
-0.00971878
0.00116860
-0.00183916
0.00151047
-0.00020024
-0.00539784
-0.00019130
-0.00418737
0.00989970
-0.00314376
-0.00685731
-0.00306176
-0.00015540
-0.00054926
-0.00391813
-0.00072825
0.01059174
0.00198104
0.00269327
-0.00131822
-0.00510869
0.00529737
-0.00130046
0.00042344
0.00026961
0.00606051
0.00343136
-0.00005387
0.00305984
0.00285429
0.00289105
0.00426833
0.00120325
0.00760218
0.00366049
-0.01108776
0.01060134
0.00114104
-0.00784612
-0.00125270
0.01281260
0.00433005
0.00389643
-0.00206989
-0.00144667
-0.00796858
-0.00350840
0.01439511
-0.00464105
0.00214414
0.00554087
0.01170391
-0.00208007
0.00663259
-0.00830753
-0.00197960
-0.00258625
0.00677655
0.00150736
-0.00139974
0.00183824
-0.00760771
-0.00842873
0.00754351
0.00288235
0.00200501
0.00276849
0.00327273
-0.00109607
-0.00653650
0.00098236
0.00354870
0.00528397
-0.00232744
0.00067647
0.00074483
-0.00705031
-0.00727587
0.00222365
-0.00155024
-0.00013404
0.00675950
0.00402431
-0.01282771
0.00570018
0.00088795
-0.00136222
0.00086186
-0.00971067
0.00172508
0.00048936
0.00609615
0.00548730
0.00621410
0.00608238
0.00346546
-0.00836707
0.00006288
-0.01058573
0.00383132
-0.00696411
-0.00445032
0.00561744
-0.00587893
0.00535437
0.00124965
-0.00480335
-0.00984417
-0.00867669
0.00059064
0.00014249
-0.00091107
-0.00591932
-0.00031239
-0.00387658
-0.00283311
0.00306505
0.00791597
-0.00568333
-0.00794542
-0.01187385
-0.00641258
0.00981588
0.01177991
-0.00445068
-0.00144711
0.00235686
0.00119581
-0.01329344
0.00139673
0.00085470
-0.01104375
0.00264874
-0.01275993
0.00020564
-0.01109596
0.00153742
-0.00340009
0.00263224
0.00420264
0.00226843
0.00996244
-0.00603396
-0.00067542
0.00362683
0.00030709
-0.00297435
-0.00913405
-0.00600641
-0.00471246
-0.00255376
0.00178352
0.00444439
0.00186711
0.00425772
-0.00624276
-0.00718350
-0.00016790
-0.00209896
-0.00608661
-0.00033981
0.00032943
0.00158620
0.00308965
0.00394640
0.00598659
-0.00621759
0.00088218
-0.00681525
-0.00933636
0.00236043
-0.00080970
-0.00249570
0.01060107
-0.00665743
-0.00354040
0.00274293
0.00290132
0.00557170
0.00199056
-0.00236879
-0.00155643
0.00199052
0.00316737
0.00408149
0.00048608
0.00670227
-0.00469097
-0.00138696
-0.00967593
-0.00009807
0.00511795
-0.00227950
0.00120766
-0.00435460
0.00051944
0.00464188
-0.00726752
0.00698997
0.00272376
-0.00306995
-0.00498450
0.00267452
0.00157526
0.00638297
-0.00290142
-0.00142069
0.00026333
-0.00182443
-0.00810933
0.00519298
-0.01013016
-0.00160650
-0.00248412
-0.00284819
0.00591848
0.00240875
0.00191373
0.00800226
-0.00090489
0.00208553
-0.00097164
0.00216459
0.00279125
0.00737772
0.00459428
0.00183829
-0.00654461
0.00726988
0.00485354
0.00305532
-0.00081528
-0.00006409
0.00654949
-0.00014039
-0.00719933
-0.00376154
-0.00444095
0.00306691
0.00929103
-0.00366777
0.00064766
-0.00130302
-0.00337952
-0.00239324
-0.00047533
-0.00195267
-0.00204160
0.00194841
0.00417283
0.00081075
0.00194846
0.00036366
0.00178288
-0.00299927
-0.00284388
-0.00013299
0.00133975
-0.00025848
0.00400278
0.00022823
-0.00262787
0.00690671
-0.00378010
0.00126347
-0.00030563
-0.00253660
0.00622866
-0.00501922
-0.00379660
0.00793784
-0.00241367
0.00061482
-0.00230740
-0.00160992
-0.00310656
-0.00094732
-0.00861744
-0.00174377
0.01086297
-0.00674268
0.00146624
-0.00392740
0.00273340
-0.00206761
-0.00290809
0.00367297
-0.00809624
-0.00205142
-0.00004841
-0.00254481
-0.00164563
0.00415393
0.00039483
0.00385195
-0.00037072
0.00590876
-0.00176574
0.00038462
0.00137033
0.00043375
-0.00919511
-0.00067337
-0.00249716
0.00208170
0.00781622
0.00413925
-0.00454828
0.00242978
-0.00541777
-0.00298427
-0.00251486
-0.00298389
0.00092877
0.00062006
0.00425170
-0.00614007
0.00469299
-0.00353144
-0.00126030
-0.00339727
0.00190613
-0.00056313
-0.00146497
-0.00885750
-0.00442568
0.00624309
0.00058091
-0.00938432
0.00550464
-0.00046704
-0.00155452
-0.01143682
0.00635467
0.00249747
-0.00714031
-0.00176842
-0.00583295
0.00034663
-0.00239965
-0.00505607
0.00746424
0.00323183
0.00081091
-0.00038308
0.00007315
0.00713404
0.00272119
0.00188165
-0.00627281
0.00449131
0.00493695
-0.00173988
0.00074642
0.00353579
0.00461330
0.00109547
0.00887805
0.01235495
0.00429630
0.00604662
-0.00039773
0.00565098
-0.00272420
0.00042503
0.00048134
-0.00296960
0.00401665
0.00174019
-0.00550172
-0.00469530
0.00247185
0.00040812
-0.00183471
0.00108830
-0.00578842
0.00834607
0.00475394
0.00916545
-0.00353313
-0.00656517
-0.00280775
0.00392259
0.00027975
-0.00064337
0.00115911
0.00569437
-0.00024640
-0.00872885
0.00028723
0.00611304
0.00035973
0.00676504
0.00197362
-0.01082468
0.00322219
-0.00063770
-0.00310556
0.00173342
-0.00156436
0.01046125
-0.00362135
-0.00086677
-0.00728348
0.00098688
-0.00407752
0.00298613
-0.01427334
0.00180933
-0.00146237
0.00301756
0.00011789
0.00138004
-0.01213015
-0.00321135
0.00803014
0.00359163
-0.00024682
-0.00945941
-0.00582539
0.00362462
-0.00405012
0.00299143
0.00755387
-0.00388288
-0.00027707
0.00477814
0.00570359
-0.00002948
-0.00112271
0.00947127
-0.00293574
-0.00109904
-0.00552058
-0.00320260
-0.00186967
0.00367083
-0.00062555
-0.00434981
-0.00035308
-0.00868104
-0.00122132
-0.00017671
0.00545224
-0.00608945
-0.00278352
-0.00086134
-0.00422462
-0.00167603
-0.00061201
0.00276352
0.00873582
0.01273997
-0.01040494
-0.00155337
-0.00350778
0.00568987
-0.00608961
0.00529248
0.00124125
0.00647504
-0.00399077
-0.00712034
0.00406182
-0.00120248
0.00302337
0.01813827
0.00485809
-0.00143956
-0.00402475
-0.00142028
-0.00416691
-0.01217185
-0.00393169
0.00378625
0.00275747
0.01413811
-0.00447470
0.00070983
0.00034298
0.01440887
-0.00677672
-0.00007296
-0.01076022
0.00087125
-0.00114446
-0.00239550
-0.01820476
0.00158441
0.00406821
-0.02310788
-0.00555399
0.00863720
0.00175196
-0.00555600
-0.00277171
-0.00090162
-0.00407987
0.00102448
-0.00082999
-0.00191708
-0.00287520
-0.00008521
0.00227779
-0.00543215
-0.00110944
-0.00115248
-0.00027819
-0.00523386
-0.00134466
0.00098808
0.00098360
0.00005494
-0.00229062
0.00614154
-0.00360645
0.00195562
0.00655357
0.00090280
-0.00028533
0.00044127
-0.00233149
-0.00211235
-0.00345733
-0.00057468
0.00090428
-0.00104597
-0.00008486
-0.00379491
-0.00209433
0.00095584
-0.00105713
0.00497051
0.00073039
-0.00342634
0.00363113
0.00738556
-0.00416883
0.00318345
-0.00262199
-0.00511176
-0.00064422
0.00664688
-0.00218973
0.00230299
0.00416776
-0.00656749
0.00140777
-0.00174292
-0.00267517
0.00349075
0.00287534
-0.00177181
-0.00309780
-0.00309856
-0.00234007
-0.00527558
-0.00037335
