-0.17328872
0.27635232
0.16881169
-0.11076682
0.16479802
-0.11577683
-0.25969821
-0.13692752
-0.30819422
-0.45435497
0.10626266
-0.08419981
-0.09898656
-0.02131518
0.11759693
0.07867972
-0.10989976
0.07986336
0.03476661
-0.06864537
-0.00098519
0.23195685
0.12199590
0.14427148
-0.07758270
0.15560567
0.00058267
0.10299215
0.13977052
-0.16069704
0.09749110
-0.07720495
-0.19481611
-0.19069782
0.10310353
0.05391711
-0.04954657
-0.06675543
-0.37731856
-0.07049805
-0.10143947
0.02655004
0.08736879
-0.15187988
-0.19999893
0.03468521
0.09426557
0.01073596
-0.11965644
0.03000683
0.09057520
-0.56339157
0.01653363
-0.19062252
-0.10496243
0.42989424
-0.13144848
0.02173809
0.05498259
0.01327139
0.06210349
-0.12399305
-0.15239881
-0.02637988
0.04687220
0.06871001
-0.04572439
-0.14270984
0.02850754
0.11966828
0.08406159
-0.11861897
-0.02833496
-0.10182819
-0.01108791
0.01843467
-0.04640592
0.10335490
-0.02775650
-0.00337908
0.03674362
0.07762965
-0.08648415
0.02801404
-0.01017901
0.00852675
0.04838892
0.15916200
0.02778195
-0.37486923
0.02409938
-0.05201669
-0.14042802
-0.03645944
0.10481467
-0.08471325
0.00361889
0.01660670
0.03841211
0.03940069
0.10507169
0.00689440
0.00114275
0.10808010
0.02762516
-0.06820901
-0.17903589
-0.12132572
-0.00919633
0.00593236
0.04262578
0.05938056
0.03622068
-0.00878470
0.02984198
-0.02692623
0.05125022
-0.12242929
-0.06213771
-0.03694531
-0.03940378
-0.10546107
0.06220057
-0.11076929
0.02436534
-0.01767440
0.05722877
0.03446887
-0.05638786
0.10331350
-0.02966524
-0.01754341
-0.00639810
0.05285266
0.03548933
0.31036782
-0.00547281
0.03059169
0.03519616
0.04828657
0.05566928
-0.03734376
-0.04337946
-0.00899667
0.29353979
0.02868895
0.16730556
0.18490864
0.06932680
0.00615032
0.00306749
0.01999228
-0.05749959
-0.08889107
0.03370706
-0.15150838
-0.01335523
-0.03341080
-0.08458471
0.02755833
-0.04009655
-0.00446620
-0.02991120
-0.04172736
0.01025649
0.04712797
0.01863039
0.02455869
0.06046804
0.03443667
-0.01375888
-0.02282795
0.01421340
-0.03163390
-0.07264342
-0.02827163
-0.00435019
0.07771011
0.01981152
0.01303253
-0.00184195
-0.01904091
-0.01404390
0.02112833
0.05327339
-0.00038269
-0.04173025
0.06849852
-0.05915557
0.39238974
-0.06140067
0.07775871
0.00917321
-0.10321100
0.07912137
0.15128781
0.03225436
-0.05885634
-0.05480885
0.14772892
-0.01301945
0.06153783
-0.03167414
0.06733319
0.41367525
-0.09604508
-0.01801264
0.08926672
-0.07134236
-0.14485094
0.19845602
-0.06599681
0.20078360
-0.00826097
-0.04546516
0.24258199
0.13574876
0.09564354
-0.06272928
-0.07143407
0.03098066
0.03408248
-0.12069471
0.10147656
0.04345662
-0.03984823
-0.27391288
0.07889634
0.01750714
-0.05316480
0.18070085
-0.06029847
0.01941434
0.03465159
0.05065712
-0.00799704
-0.02443296
-0.02375223
-0.01568483
-0.05556906
0.00563351
-0.13026161
-0.06003909
-0.03537138
-0.16999999
0.07183377
-0.20360790
-0.02346003
0.59205091
-0.03312367
-0.36471045
0.13912910
0.00640023
-0.05638235
-0.45280576
0.53302461
0.01507070
-0.53536838
-0.08136285
-0.27860484
-0.05035055
-0.08408523
-0.12801869
-0.05049295
0.40623790
-0.09406375
0.03020021
-0.04638797
-0.25750747
0.09366972
-0.02396659
0.10573068
0.25167677
-0.02454857
-0.07818490
-0.11601328
-0.00825731
-0.17762664
-0.40771344
-0.06934576
-0.10678134
0.01508615
-0.06806988
-0.06930243
-0.08816356
0.06016450
-0.00075665
-0.00910344
-0.17860708
-0.16062768
-0.21422340
0.08394238
-0.30240369
0.11087048
-0.01039578
-0.00579550
0.06048953
-0.07134344
0.05853986
0.10733345
-0.13453713
0.08188040
-0.60105628
-0.03554853
0.07214484
-0.05630172
0.04436029
-0.11571173
0.05381401
-0.15579151
0.11332917
0.10680877
-0.04694379
0.17816706
0.13891779
-0.03807452
0.11939730
0.00842172
-0.18189441
0.07937244
-0.06216772
0.05141411
-0.07580049
0.02325770
0.01522262
-0.13607296
-0.06874595
0.13666408
0.11244181
0.21667752
0.17088918
-0.01814217
0.02478683
-0.04504279
-0.07458890
-0.06634721
-0.22728992
0.21434344
0.23625039
0.03169065
-0.13347672
0.07497559
-0.01846363
-0.28523347
0.06075564
0.18121493
-0.34593478
-0.17867935
-0.15306079
-0.04276619
-0.07386444
-0.22189538
0.07018346
-0.02126540
-0.15941383
-0.00502941
0.00387375
-0.09282403
0.32752067
0.03950577
-0.07073225
-0.11512059
-0.05109774
-0.38200247
0.08079538
-0.08346563
-0.04448069
0.04173495
-0.03547857
-0.12656026
0.06623043
0.31453076
-0.09551588
0.02682169
0.20493901
-0.25532275
-0.19108216
-0.08143506
-0.07788720
-0.04968553
-0.00250998
-0.17544165
0.29102314
-0.14594607
0.45135608
0.02360003
-0.06572818
-0.32128397
0.09489415
-0.03134732
0.09011075
0.09871890
-0.03833074
0.00757616
-0.02676562
0.12021272
0.12215082
0.06319037
0.13873473
0.20293298
-0.01084792
-0.03355207
-0.29541093
-0.06052218
-0.15522777
-0.01765549
-0.08601002
-0.10018522
0.12996781
-0.02052311
0.07212275
-0.02296765
-0.05509972
0.03250587
-0.00222406
-0.01906791
-0.03634044
0.04291875
0.06814865
0.18336947
-0.04450114
0.07436013
-0.01713218
0.20822553
-0.14878467
-0.00635864
0.03577172
0.12741950
0.08152428
0.02631479
0.15137216
0.02574228
0.01242980
0.04152342
0.06243122
0.01394954
0.01070338
0.10843040
0.05415176
0.02370474
-0.01291975
-0.00312592
-0.09285498
0.00685836
0.03358014
0.51993060
0.11674904
-0.03715096
0.01416398
0.06103722
-0.09997082
0.02422596
-0.09016384
0.03482300
-0.11284294
0.05088253
0.00036077
0.00888779
-0.01112411
-0.05662419
0.03827821
-0.12815647
-0.18740836
-0.05950967
0.02168322
-0.00417839
-0.00484510
0.06168609
-0.02240545
0.12227628
0.01258179
0.04038886
0.06361938
-0.11403655
0.05919747
-0.01210875
-0.08483676
0.03701919
-0.08595816
-0.04373999
0.15674572
0.02618780
0.02830662
-0.01609887
0.07251456
0.11135122
-0.06712852
0.07554298
-0.00785106
0.04653831
-0.16348578
-0.00041631
0.00303738
0.01986269
-0.05338737
-0.02658885
-0.04695853
0.01145834
-0.06232598
-0.06029566
-0.11391974
-0.08102555
-0.06028619
0.04768895
-0.00337611
-0.01766302
0.12991507
0.00260452
0.04748744
0.00580445
0.01336724
-0.09828373
-0.03998183
0.05801385
0.04100756
-0.03805121
0.02794965
0.17828706
0.00726439
0.16369924
-0.01019210
-0.09145151
0.05566425
0.01638803
-0.11211493
-0.16511130
-0.05756561
0.20516975
-0.08123256
-0.01180873
-0.12204642
-0.03912674
0.02860971
-0.11089022
-0.03997903
0.05548472
0.12571628
0.00712981
-0.01609602
0.09590628
0.06359516
-0.04748182
-0.04854768
0.16422907
-0.15721552
-0.04249801
-0.14422372
-0.07263462
-0.10015899
0.11105358
-0.13596708
-0.02096366
0.02931826
0.05838766
-0.19369668
0.03863261
-0.08858296
0.18893179
0.15342258
-0.05024442
0.14359431
-0.07124469
-0.01686814
0.04360092
-0.10572765
-0.04266594
0.24211401
0.03509568
0.09059536
0.06504200
-0.13374332
0.09288333
0.13511935
-0.01583872
0.06967999
-0.04900034
-0.06756521
0.02847666
0.04463241
-0.11084334
-0.23143104
-0.00786747
-0.02393549
-0.15947947
0.01156453
-0.10912045
0.00334415
-0.01937072
0.13860977
-0.04759388
0.03320846
0.01994798
0.14713559
0.01489738
-0.02694575
0.07104791
0.13010965
-0.05297589
-0.05449233
0.04657426
-0.06230587
-0.03466311
0.02337791
0.09971105
-0.00426979
0.06356088
0.02090007
0.03531281
0.03484268
-0.14809704
-0.12544931
0.04108158
-0.05035134
-0.06430726
0.00558262
0.06106832
-0.01905808
-0.00731686
0.02829364
0.00950712
-0.12070841
-0.23841719
0.03259399
-0.35957548
-0.16162838
0.19863185
-0.07943542
0.01065715
-0.29801163
-0.22523348
0.09968250
0.00686267
0.12110887
-0.03865532
-0.02500723
-0.14767161
0.14589505
-0.10609407
0.04056950
0.12461212
-0.03560895
-0.01409731
-0.11735889
-0.01007479
0.14203160
0.10883032
-0.01769798
0.06101801
-0.05488705
0.00937550
-0.02755609
-0.06698835
0.26301071
0.03334158
-0.05392566
0.11014961
-0.03314325
-0.01327104
0.05573833
0.12664165
-0.07426169
0.18295333
-0.06526328
-0.09860045
0.03914138
0.09032709
0.03375424
-0.09198520
-0.02485600
0.06473645
-0.00089166
-0.00028925
0.03742573
-0.05532670
-0.10022211
0.05578443
-0.55938423
-0.05817157
0.01186905
0.16302997
-0.01150783
0.05202956
0.12032545
0.07665957
-0.00676402
0.07861045
-0.06351689
0.04717364
0.10154998
-0.14589992
-0.45944995
-0.03621587
-0.06528398
0.36910862
-0.17821902
-0.08621982
0.06921770
0.10210717
0.00551561
-0.05180025
0.46460298
0.06221761
-0.04818461
0.13734837
0.01335229
-0.01457858
0.23897122
-0.01759457
-0.10686985
0.10169297
0.04664217
0.03627345
0.15919603
0.00275203
0.02413357
-0.00342526
0.03508006
-0.01711109
0.01078760
-0.02448695
0.03290300
0.03667462
-0.04621118
0.00661579
-0.11545498
0.04447702
-0.11707854
0.03801021
0.05017094
0.05159105
-0.00827729
-0.02400830
0.13650461
0.16269684
-0.00691709
-0.06336150
-0.03985793
-0.02177326
0.02822501
0.01654222
0.02298018
-0.16446845
-0.04589958
-0.11389934
0.05176826
0.22890262
-0.06201752
0.02603539
0.05302432
-0.02009987
0.07121023
-0.00710807
-0.46667719
-0.00937916
-0.02202940
-0.18381746
0.00541459
0.09563576
-0.02494781
-0.02156845
-0.04630222
-0.17180194
-0.00944066
-0.07568438
-0.00186235
0.04719350
-0.00126784
-0.34667340
