-0.03471797
0.01827710
-0.00257448
-0.01411073
-0.00426392
0.04836886
0.00789840
0.00295578
0.02742751
0.02072309
0.00610804
0.00314656
-0.01218566
0.01398802
-0.01009911
-0.01627929
-0.01530355
0.01651724
-0.00079450
0.00537630
0.01903864
-0.00424282
0.01488102
0.04433440
-0.01662891
-0.01719920
0.01410944
-0.01748507
0.02703093
-0.01282827
0.04443877
0.01704072
-0.01265438
-0.01763155
-0.00087808
0.01649781
-0.05405974
-0.01954320
-0.00729997
-0.00241787
0.03317216
0.00301963
0.00126243
-0.01736243
0.00658526
-0.01188796
-0.00458481
0.00210734
-0.00404984
0.02551978
0.00825059
0.00140688
-0.02421150
-0.00184476
-0.01838441
-0.01229911
0.00314056
0.00462367
-0.01184547
-0.00242543
-0.00639532
-0.00472090
0.01975634
-0.00005453
-0.02301470
0.00660233
0.00897672
0.00271832
-0.02260278
0.02176411
-0.00388510
-0.04112117
0.01402824
-0.00942884
0.03198435
-0.01433652
0.01480802
-0.01295270
0.03595662
-0.04126463
0.00900154
0.01748569
0.01475790
-0.02841833
-0.03295355
0.00262373
0.04206142
0.00678475
0.01351414
0.02459505
-0.00389357
-0.02513284
0.02480103
0.01251842
0.00402100
-0.01747688
-0.03779358
0.04256194
-0.02259252
-0.05988413
-0.00489423
-0.01371585
-0.01581597
-0.00268181
0.03494700
-0.01448035
-0.01217178
0.02420283
0.02646189
0.00591044
-0.00494907
0.01791470
0.03343629
0.01516155
0.00768122
0.01410285
0.00682743
0.06179172
-0.03060581
0.01101447
-0.01347215
0.01924316
0.02367506
0.01814468
-0.02217382
-0.01647964
-0.00062818
0.01286563
-0.05689299
-0.00039936
-0.01094423
0.02408866
0.00039554
0.01175364
-0.01887951
-0.04101270
0.01233480
-0.02812257
-0.00886129
-0.03252706
-0.04000124
-0.05050143
0.02733431
-0.02299853
-0.00068771
0.01686087
0.03240530
-0.03214224
0.00103823
-0.01862339
0.00275029
-0.01386258
-0.02877801
-0.00421232
-0.01712931
-0.01269245
0.04477878
-0.02039235
-0.02184708
-0.03230451
-0.02806477
0.02254743
-0.00282990
0.03543547
0.01110581
-0.03401440
0.01229491
0.00159716
0.01753594
0.00722043
-0.05789880
0.02148861
-0.01615137
0.01035826
0.01426234
0.04225404
0.00698755
0.05607706
-0.03323555
-0.00115481
-0.00499312
0.00510956
-0.00712204
-0.02911444
0.00187014
-0.00695112
-0.07483894
0.01333232
-0.05646428
-0.05968434
0.01565150
0.01795024
-0.00760578
0.00624340
0.05441546
0.05158211
0.00003908
-0.01575589
0.05775142
-0.00307064
0.02949338
0.00942358
-0.00663147
-0.03379209
0.00244913
-0.03252812
-0.10228831
-0.06534692
0.02327117
-0.01334285
-0.00870471
0.01645786
-0.01785925
0.01230083
0.06169730
0.02073468
-0.02067298
-0.02847431
0.09499158
0.00494751
-0.06519811
0.02090222
0.05556824
-0.03531027
-0.01471838
0.03807789
-0.06496663
-0.01782667
0.04334646
0.05836742
0.04526785
0.05864149
0.02579844
0.02537312
0.02863588
0.01583420
0.00397334
-0.03957834
-0.00355010
0.02668752
-0.02252126
0.00925488
-0.03191477
-0.05328269
-0.06708435
0.01879243
-0.06636254
-0.02483802
-0.00431320
-0.03324511
-0.02928720
0.01032119
0.03551441
-0.04291479
-0.15060833
-0.05920355
-0.03318234
0.02054079
0.01153967
0.02215708
-0.03411512
0.02084439
-0.00138297
0.01854182
0.00245531
0.01605683
-0.00102524
0.00105235
0.00688077
0.04440831
-0.00930031
-0.03520816
0.01041407
0.03639499
-0.00227455
-0.02872265
-0.02488663
-0.00424809
-0.01138595
0.01435699
-0.02485199
0.01172930
-0.00765472
0.03961832
0.00934832
0.00305088
0.00417281
0.00982732
-0.02871440
-0.03104967
0.00277565
-0.01408448
0.02649438
-0.00731525
-0.02905311
-0.02515831
-0.02062884
-0.00004878
0.01266191
-0.02423317
-0.02355066
-0.02466046
0.00461814
0.03877059
0.00399752
-0.00800155
0.00685454
0.01078876
0.00351376
-0.02535352
-0.00103074
0.01262938
-0.00678053
0.01360651
0.00289214
-0.03806733
0.01954025
0.00847796
-0.01111292
0.00770177
-0.00419525
0.00582206
-0.01702693
0.00640299
0.00437249
0.01999014
0.00234505
-0.01661653
0.00745936
0.00509162
0.01220407
-0.00633534
0.00136147
-0.02490303
-0.03694905
-0.01421363
-0.01263783
0.00769304
0.01940381
-0.00775826
0.01378124
-0.00344458
-0.03065619
0.00795611
0.01839501
0.00724175
0.00967999
0.01254080
0.00552941
-0.04826987
0.00072972
-0.00909365
-0.00009642
-0.01087832
-0.00828379
-0.02590908
-0.01228763
-0.02393978
-0.00385420
-0.00601361
0.01738308
0.01595134
0.00085804
0.01504744
0.03853713
-0.00537374
-0.00595644
0.00183125
-0.00087904
0.00032427
-0.00748620
0.00197063
-0.00181308
-0.00303948
0.00815378
-0.00527448
0.01352037
0.02099190
-0.00014967
0.01961649
0.01562209
-0.05072270
0.01099867
0.02382899
0.00804034
-0.01404352
0.00790875
0.09894533
0.12144934
-0.02998526
-0.07881168
0.04936182
-0.00798571
0.03987399
-0.03383226
0.01918889
0.10067821
-0.00575430
-0.01089329
0.04893072
-0.04451864
-0.03336464
-0.04033870
0.00371467
0.04293268
-0.05166898
-0.04616096
-0.00361366
-0.04406262
0.03836277
0.03315321
0.00626583
-0.06598785
0.12137246
-0.04367049
-0.08010681
-0.01365628
-0.02577986
-0.03566834
0.07906540
-0.05511524
-0.00224327
0.01427819
-0.13142906
0.01547320
0.00352445
-0.06384313
-0.15745723
0.11122566
-0.02797589
-0.02181931
0.02593496
-0.00257021
0.01958892
0.00213566
0.02788642
-0.03400839
0.02087157
0.02041837
0.07643623
0.00886650
0.04034720
-0.04282832
-0.02636923
-0.04630608
-0.08040546
0.06103191
-0.10490968
0.00787819
-0.01530121
0.00155917
0.01782347
0.00042429
0.00174278
-0.00442240
-0.00230281
0.03325131
0.00729945
-0.00798861
-0.01112427
-0.00058482
0.03221738
0.01479351
0.01243910
-0.01140160
0.00256731
0.02750059
0.00169081
0.01867461
-0.01863142
0.03799191
0.00996047
0.00313550
0.01952438
-0.00486779
-0.00643161
-0.01508150
0.01641450
-0.02200305
-0.00268112
0.00397880
0.00700555
0.00468260
0.00401350
0.01857949
0.00975019
0.02825344
0.00802036
0.00675304
0.02688760
-0.00790458
0.00194397
-0.00432428
-0.02721159
0.03359527
-0.02851469
-0.00144276
-0.01001913
0.00730298
-0.00772503
0.00633315
-0.01275358
0.01157966
0.01325639
-0.00911378
0.00423591
-0.00772336
-0.00225482
0.00573732
-0.00036097
-0.01328894
0.00046915
0.01395107
0.00034138
-0.00816745
0.03802873
-0.01600807
0.00638331
-0.00066945
-0.06643421
0.00248705
-0.03221913
-0.06854948
-0.00341807
-0.00650316
0.00859881
-0.01906626
0.01196119
-0.04264860
0.03395325
-0.00544271
-0.00214508
-0.03254700
-0.02188311
0.08362161
0.01449962
-0.04336699
-0.00747856
0.01546823
0.00400220
-0.01411752
0.01792468
0.00838478
-0.00016214
0.01420073
0.03910710
0.02390769
0.02807223
-0.00708061
-0.00106798
0.03683732
0.02033239
-0.00013811
-0.00740563
0.01167978
0.01012151
-0.00491775
-0.00022687
0.02317744
0.00603973
0.02844127
0.05668227
-0.00104305
-0.00581017
-0.06789411
0.06714982
0.02012640
-0.02938108
0.01424875
-0.02519949
0.01186866
0.01960562
0.11059507
0.01946646
-0.01295291
0.00382887
0.05631143
-0.03195681
0.02977849
-0.04638759
-0.00033818
-0.03098699
-0.01261254
-0.01366941
-0.03867725
-0.02676084
0.06675791
0.06901997
0.04796277
0.04129603
0.02918107
0.00902441
0.04667431
-0.03045054
0.05143475
-0.04957745
-0.01935142
0.01024223
0.01092363
0.05027827
-0.07242011
0.00308390
-0.04323929
-0.04226456
0.00599653
0.04055169
-0.01534713
-0.05487406
-0.05747516
0.00629836
-0.01215886
-0.04453702
0.02736386
0.07215244
0.08908908
0.04053593
-0.00167845
-0.00082735
0.02572990
-0.07308906
-0.03457163
0.00921841
0.04388641
-0.00293684
-0.01545182
-0.07025199
0.01495607
0.06196463
0.04724267
-0.01902578
-0.11015651
-0.03357835
-0.01655218
-0.03498572
-0.02419867
0.03029527
0.00022443
-0.00102299
0.00074510
-0.04448199
0.00721157
0.01044817
-0.01463321
0.01357984
-0.00499051
0.03249141
0.03204974
-0.00371284
-0.01340367
-0.00861140
-0.01065357
0.00329983
-0.01895040
0.04148597
0.09797623
-0.02230904
-0.00607463
-0.06087353
-0.01248685
0.03063910
0.04920703
-0.03179102
-0.07776993
0.01046742
-0.03729722
0.01772299
0.00505481
0.03681533
0.07614818
0.04337878
0.03244352
0.01375229
0.04355081
-0.00055189
-0.00845137
0.04345027
-0.00985039
0.00171591
0.01497137
-0.06052938
-0.03572804
0.00324086
0.03719662
-0.00578463
0.01632462
-0.01400543
0.01759052
-0.01952680
0.04716007
0.00414952
0.08451594
-0.03741457
-0.01997298
-0.02180773
-0.03496104
-0.01055358
-0.01348953
-0.01867257
-0.03592939
0.01319702
-0.09799360
-0.01204312
-0.02579941
0.02930085
0.02924309
-0.00438859
-0.08575058
0.15873885
0.05510980
-0.03760858
0.04959597
-0.00256250
0.11349727
-0.00960934
-0.05800032
0.02454970
0.01481750
-0.06377628
-0.04036478
-0.10669021
0.05062241
0.04402178
0.14147419
0.00399594
-0.02294052
-0.04145383
0.01054616
0.01521610
-0.00980965
0.00627609
-0.05489584
-0.09090679
-0.03820710
0.10259568
-0.01531605
0.00042292
0.00938758
0.06775568
0.06580799
0.01224428
-0.02483937
0.01923395
0.09938182
0.06247786
-0.02579921
0.03406562
-0.10359138
0.01009327
0.10668075
0.06797554
0.04747088
-0.04119097
-0.00330674
0.00929515
0.04377689
0.12452608
-0.04379093
0.00795119
-0.04818376
-0.06803784
0.03230367
0.06877017
0.01943332
0.00477871
-0.03270245
-0.06204289
-0.02468839
-0.01651993
