-0.00074970
0.00731466
0.00088330
0.00346920
0.00044533
0.01141020
-0.00579947
0.00672671
-0.00160577
-0.00181825
-0.00064315
-0.00317370
0.01225074
0.00548534
-0.00341115
-0.00237530
0.00288424
0.00121246
0.00837137
0.01789888
-0.00508323
0.00210483
0.00057948
-0.00094643
-0.00206633
0.00311065
0.00277388
-0.01054182
0.00369683
0.00250211
0.01227095
0.00958139
0.01338241
-0.00664749
-0.00023657
-0.00288457
-0.00801160
-0.00556621
-0.00657272
0.00725919
0.00081150
-0.00600404
0.00421903
-0.00353796
-0.00161774
-0.01895772
0.00388112
-0.00860333
-0.00921274
0.00130782
0.00062147
-0.00501212
0.00246675
-0.00850957
-0.00593364
-0.00241896
-0.00287465
-0.00265815
0.00639892
-0.00299154
0.02026436
-0.00119869
-0.00180859
0.00471837
-0.00243838
-0.01328721
-0.00786887
-0.00209189
0.00104497
0.00374428
-0.00344653
-0.00316990
-0.00357868
0.01083961
0.00560672
-0.00091286
0.00913842
-0.01176234
-0.00304597
0.00779656
0.00080754
-0.00416362
0.01026358
-0.01084756
-0.00272847
0.00750360
-0.00245460
0.00709943
0.01298105
0.00392613
0.00027627
0.01084648
-0.00709621
0.00022383
-0.00541547
0.00326402
0.00459679
0.00157585
-0.00119213
0.00159420
-0.00546942
-0.00382245
-0.00188460
-0.01093805
0.00223954
0.00103472
0.00019745
0.00702598
0.00757487
-0.00075801
-0.00541876
-0.00617753
-0.00179169
-0.00450146
-0.00435645
-0.00987421
-0.00132617
-0.00242031
-0.00125583
-0.00322659
0.00052867
-0.00153221
-0.01168465
0.00360807
-0.00287284
-0.00091112
-0.00013500
-0.00590135
0.00230730
-0.00177440
0.01374259
-0.00228884
-0.00531140
0.00174579
-0.00021778
0.00017794
-0.00652141
-0.00129972
0.00157013
0.00467881
-0.00304076
-0.00679151
0.00364650
0.00483447
0.00091415
-0.00388291
0.00424415
-0.00465832
-0.00007297
0.00307637
-0.00366746
0.00285882
-0.00653075
0.00244415
0.00083429
-0.00594370
0.00969190
0.00281150
-0.00127378
0.00645278
-0.00137069
0.00011757
0.00156171
-0.00563747
0.00346115
0.00211483
0.00798803
0.00297152
-0.00995503
0.00031518
0.00011894
0.00338566
0.00245947
0.00046807
-0.00340676
0.00288270
-0.00288112
0.00534079
0.00345888
0.00249062
-0.00192013
0.00522613
0.01772933
-0.00647899
-0.00841522
-0.00585173
0.00278677
-0.00369169
0.00017400
0.00072339
0.00085633
0.00707730
-0.00239681
-0.00286112
0.00643619
-0.00353065
0.01068763
-0.01392792
-0.00434678
0.00532144
0.00416068
-0.00557672
-0.00292623
-0.00271672
-0.00231468
0.00533555
0.00220059
0.00836954
-0.00240414
0.00216469
0.00033797
0.00094378
0.00180151
0.01088031
0.00024452
0.00870471
0.00052870
-0.00740548
-0.00095285
0.00620171
-0.00190595
-0.00354153
0.00299445
-0.00283087
-0.00075689
0.00514363
0.00061599
-0.00697500
0.00589819
-0.00197625
0.00791996
0.00095561
-0.00037730
-0.00153585
0.00446000
0.00747257
-0.00412989
-0.00433696
0.00581163
-0.00900314
-0.00078960
0.00027103
0.00225187
0.00315908
-0.00011308
0.00666734
-0.00022548
0.00155641
0.00169883
-0.00263718
-0.00699284
-0.01224673
-0.00108863
-0.00326308
-0.00591219
-0.00419018
0.00109352
0.00174715
0.00273239
-0.00358953
0.00103943
-0.00234836
-0.00356072
-0.00289953
0.00006320
-0.00402647
0.00311791
0.00398808
-0.00417410
-0.00468924
0.00500552
-0.00017859
0.00684921
0.00145894
0.00200590
-0.00046551
-0.00086715
-0.00062170
-0.00168853
0.00476884
-0.00155669
0.00306953
-0.00704917
0.00227294
-0.00231656
-0.00538996
-0.00205240
0.00502721
0.00317797
-0.00334428
0.00599230
0.00211427
0.00005453
0.00080128
-0.00042212
0.00182441
-0.00328961
-0.00186279
0.00136277
0.00322281
0.00042480
-0.00037827
0.00215970
-0.00238093
-0.00463910
0.00330496
-0.00790113
-0.00350117
-0.00494488
0.00312103
0.00336438
-0.00438205
-0.00595209
0.00229678
0.00141505
0.00342447
0.00287072
-0.00113557
-0.00000726
0.00312184
-0.00102129
0.00770845
-0.00243683
-0.00084621
0.00579920
-0.00493163
0.00148358
-0.00568028
-0.00788856
0.01075231
0.00466773
-0.01617894
-0.00239542
0.00487093
-0.00387680
-0.00978799
0.00353700
0.00649938
0.01120752
-0.00465640
-0.00073948
0.00262747
0.00463875
-0.00046534
0.00181678
0.00163098
-0.00294236
0.00145269
-0.00195574
-0.00472323
-0.01043263
0.00307103
-0.00037484
-0.00794898
-0.00146259
-0.00422882
0.00912498
-0.00135713
0.00470223
0.00370341
-0.00178216
-0.00162133
0.00443996
0.00575916
0.00353097
-0.00319814
-0.00677730
-0.00125874
-0.00689284
0.00321523
0.00095230
-0.00411983
-0.00232516
0.00320543
-0.00891382
-0.00239933
-0.01654038
0.00456802
-0.00257209
-0.01156622
0.00639808
0.00389559
0.01276382
-0.00956663
-0.00812112
-0.00366387
-0.00173894
-0.00218844
0.00850531
0.00588202
0.00510598
0.00171180
-0.00363271
-0.00416673
0.00566156
0.00415641
-0.00102965
-0.00365946
0.00132259
0.00024709
0.00633840
-0.00315327
-0.00236824
-0.00330106
0.00106039
-0.00032900
0.00853958
0.00134727
0.00621086
-0.00375739
0.00480703
-0.00025498
0.00202693
0.00322081
0.00006835
-0.00693013
0.00649580
-0.00155054
-0.00216464
0.00387397
0.00377785
-0.00016630
-0.00019817
0.00044306
0.00063043
-0.00399535
-0.00208918
-0.00584315
0.00318196
0.00100801
0.00535412
0.00023520
0.00038523
-0.00549629
0.00037403
0.00080569
0.00127452
0.00498461
0.00057907
0.00076200
0.00421426
0.00082626
-0.00060967
-0.00386817
-0.00237017
-0.00373362
0.00435170
-0.00269027
-0.00924077
0.00840454
-0.00252627
0.00658159
0.00790389
0.00586034
-0.00113540
0.00059700
0.00279681
0.00279360
-0.00462275
-0.00067984
0.00227000
-0.00431806
0.00089572
-0.00385458
-0.00657316
-0.00674125
0.01070188
0.00191656
0.00491355
-0.00078178
-0.00212613
-0.00106391
0.00451829
0.00471307
-0.00185112
0.00022119
-0.00007080
0.00534033
0.00104242
-0.00506641
0.00307676
-0.00108181
-0.00941839
-0.00415562
-0.00405966
-0.00417180
-0.00545369
-0.00133853
-0.00486577
-0.00114422
0.00005603
0.00151904
-0.00237437
0.00115115
0.00075630
-0.00220638
-0.00196373
0.00323887
-0.00087239
0.00289646
0.00130272
0.00426207
0.01143395
0.00386844
-0.00081775
0.00056637
0.00665488
-0.00063934
0.00756053
0.00090712
-0.00066814
-0.00182784
-0.00131563
0.00128462
0.00444519
-0.00852640
0.00192745
-0.00268822
0.00849558
-0.01239031
-0.02135240
-0.00106110
0.00156797
0.00721225
0.00891527
-0.00453786
0.00490662
0.01237714
-0.00291739
0.00338134
0.01369460
-0.00004358
-0.00353420
0.00645911
0.00623656
0.00270208
0.01299601
0.00053142
-0.01162306
-0.00131826
-0.00226432
0.00829789
0.01333462
0.00178160
-0.00403620
0.00050693
0.00048911
-0.00725110
0.00229585
-0.00363623
0.01472895
-0.01561596
-0.00171093
-0.00615680
0.00343034
0.00958726
0.00504647
0.00399382
0.00409248
0.00389636
0.00083744
0.00059977
0.00437385
-0.00812768
-0.00225992
-0.00658424
0.00701772
0.00150303
0.00917725
-0.00676724
-0.00255508
0.01404089
-0.00708282
-0.00946657
-0.00229526
0.00535729
-0.01251414
0.01262160
-0.01076244
0.00746297
0.01426214
-0.00187031
0.00216140
-0.00773257
-0.00417774
0.00174323
0.00677608
0.00043689
0.00087992
-0.01444769
0.00282155
0.00500857
-0.00625149
-0.00264851
-0.00189005
0.00587202
-0.00275215
0.00420892
-0.00576243
-0.00114274
-0.01168621
-0.00054202
0.01038224
-0.00128517
-0.00854297
0.00006317
-0.00059316
0.00432735
-0.00048308
-0.00001639
-0.00340802
-0.00603586
0.00904092
-0.00314842
0.00420954
-0.00404653
0.00603697
-0.00103932
0.00549052
-0.00588935
0.00640904
-0.00811441
0.00217510
0.00936983
0.00658058
0.00189012
0.01082742
0.00592592
-0.00484325
0.00216810
-0.00749874
-0.00269314
0.01132103
-0.00050952
-0.00207107
0.00781936
-0.01117554
0.00860598
0.00867385
0.00906723
0.00819291
-0.00256899
-0.00559288
0.00258485
-0.00169125
0.00174591
0.00295450
0.00432301
-0.00288895
0.00360872
0.00088600
0.00408729
0.00221317
0.00201186
-0.01009288
0.00364381
-0.00127973
-0.00122070
-0.00575222
0.00045307
-0.00163166
0.00076585
-0.00526640
0.00233902
0.00345330
0.00037839
-0.00454214
0.00485466
-0.00361937
0.00349604
0.00627512
0.00664800
0.00336212
-0.00242933
-0.00445801
-0.00445886
0.00214028
-0.00945151
-0.00125257
0.00158586
0.00133619
0.00285278
-0.00077744
-0.01135911
0.00590690
-0.00051139
-0.00648960
-0.00909854
-0.00298562
-0.00517155
0.00302586
-0.00462895
0.00017465
-0.00071460
-0.00482594
-0.00021886
-0.00084591
-0.00290867
0.00002088
-0.00149221
0.00158881
-0.00217291
-0.00153890
-0.00148722
0.00165501
0.00063011
0.00336309
-0.00160720
0.00762862
-0.00651755
0.00001102
0.00070661
0.00331754
-0.00312454
-0.00023613
0.00005148
-0.00081009
0.00532708
0.00116633
-0.00299411
-0.00558753
0.00646693
0.00320007
-0.00811217
-0.00042645
-0.00560141
-0.00482289
-0.00062266
-0.00352172
-0.00566325
0.00098261
0.00055754
0.00400857
0.00797540
0.00369530
-0.00195677
0.00024338
0.00011505
-0.00079849
0.00784973
0.00728863
0.00269179
0.00247666
0.00724528
-0.00090162
-0.00372729
0.00167332
-0.00341426
0.00124526
-0.00354188
0.00491676
-0.00616763
-0.00734998
0.00306078
-0.00473535
0.00370831
0.00737678
-0.00212813
-0.00115811
-0.00153831
-0.00315243
-0.00171975
0.00084751
-0.00669602
0.00362713
0.00852635
-0.00967421
0.00172175
