-0.00026007
-0.00280582
0.31209934
0.04502638
-0.01310977
0.02573043
-0.06784105
-0.03941751
-0.03283080
-0.06257533
-0.00159774
-0.06438664
-0.03483808
0.01601049
-0.01181103
-0.09548030
0.25057027
-0.03456569
-0.02643315
0.26218590
0.04030030
-0.04184208
0.02563379
-0.22713204
0.01330740
0.04260708
0.09319073
-0.10384062
-0.04565944
0.00057031
0.16995098
0.02412570
0.04321460
0.02094079
0.00034746
-0.00775883
-0.01435844
0.20628947
0.07406726
0.05282320
0.01410915
-0.03604730
0.06258586
0.09449064
0.08886827
-0.04477739
0.05394384
0.05256406
-0.02167118
-0.06417925
-0.01892988
-0.00759182
0.01503572
-0.00657493
0.04884591
0.02285089
0.03466054
-0.01019714
-0.04088854
-0.01711028
-0.01970286
0.02637975
0.03036336
-0.01943027
0.02938510
0.09924649
-0.01866651
0.04441767
-0.02298097
-0.02646806
0.09048808
-0.33161324
-0.19627883
0.18825267
-0.01731330
0.02064790
-0.02682805
-0.16379778
-0.02871471
0.02768238
-0.07881442
-0.22692363
0.30417651
-0.14782961
-0.38434553
0.39114559
0.03323390
0.12501651
0.19957238
-0.04985259
0.15036583
0.58867246
-0.08257931
-0.12421222
-0.19947895
0.19495088
0.16764562
0.05005208
0.08283237
0.03159412
-0.10718167
0.01207410
-0.02198376
-0.15891576
-0.01780919
-0.02627516
-0.29918271
0.18779349
0.39176199
-0.08798246
-0.04128400
-0.07421835
0.00520386
0.07000437
-0.11747462
-0.12802447
0.00714857
-0.11029746
0.02952901
-0.11008853
0.13552119
-0.01151757
-0.27517071
-0.04675864
0.19827618
-0.13769004
-0.00196044
-0.15791762
-0.07761819
0.07692683
0.04844893
0.02658325
-0.04188205
-0.10049389
-0.04539022
0.16513744
-0.09993887
0.12620324
0.02013451
0.04142224
-0.05741640
-0.09900637
0.02349638
0.05979451
0.01358171
0.01089550
0.12876323
0.04768395
0.00629501
0.04445850
-0.05868955
0.10214590
-0.04491658
0.09643432
0.12560697
-0.13736847
0.05668205
0.00279570
-0.13569818
0.11085686
-0.05376178
0.05365988
0.05088390
0.34787706
-0.49098182
0.06461816
-0.03307521
-0.03199453
0.00184589
-0.09895108
0.04581583
0.00733658
-0.01137938
0.14111088
0.07236993
0.10035894
-0.08063108
0.00210603
0.06926450
-0.02238263
-0.13480805
0.11056850
-0.58793020
0.14014545
0.24072528
0.07559523
0.06852041
-0.07343893
-0.01235438
0.04864497
0.01437274
-0.04270750
0.04290324
0.02076581
0.09255034
-0.02979529
-0.00952308
0.14343859
0.08144558
0.00728605
0.16926123
0.06118425
-0.30298185
0.04750445
-0.08339911
0.09197906
-0.05413800
0.10700045
0.18766549
-0.04732664
-0.30083811
0.09116685
0.00885123
0.05723871
0.09568113
-0.08842671
-0.36871898
-0.02387929
-0.05803489
0.14147705
-0.13658674
-0.07931793
0.16521914
-0.38008469
-0.00015174
0.13753869
-0.04799840
-0.28510973
0.04467050
0.36379805
-0.01172078
-0.09600975
-0.11182960
-0.03537856
-0.02635079
0.09550082
0.36449873
0.04238210
-0.05495110
0.46881434
0.04950681
-0.10488855
0.05527863
-0.06087578
0.01769653
-0.00861293
0.10346010
0.00971847
0.03706366
-0.03547845
-0.18788616
0.10311908
0.02783445
-0.39303377
0.10651607
-0.04603260
-0.07107135
-0.01158268
-0.01733348
-0.06466093
-0.09731506
0.02935418
-0.12212113
0.03988131
-0.11278389
-0.09754706
0.14726827
0.12180847
-0.07798023
-0.11561398
0.03653746
-0.00446497
0.15212940
-0.04941120
0.09754620
-0.01007632
0.01538868
-0.00753185
0.01402474
0.18428747
0.00047181
-0.00665203
0.13016930
-0.08189249
0.03160423
-0.15001112
-0.07185689
-0.07730482
0.19968531
-0.06821581
0.20133583
-0.22657672
0.05877393
0.03739562
0.03572113
0.20091479
-0.10350192
-0.28730181
0.16487299
0.02211352
0.11612190
-0.01647578
0.17604241
-0.08640474
-0.11254407
-0.09393198
-0.09821282
-0.17047624
0.02333203
0.24558949
-0.04057750
-0.06688753
-0.00656741
-0.03857441
0.00680652
-0.00239150
0.09868331
0.01684563
0.10024814
0.08208770
0.09093923
-0.05491442
0.01941707
0.10425503
0.01145335
0.16553172
0.15456823
0.10336725
-0.15623271
-0.11991186
-0.01358029
0.16726196
-0.16466895
-0.08211946
-0.06898337
0.00034493
-0.13756153
-0.35242316
0.17833200
-0.00378181
0.08231259
-0.39471170
0.07515410
-0.10840057
0.00889957
-0.32198706
0.01748115
0.03101571
0.13071123
0.01995371
0.00285929
0.06721173
-0.14455663
-0.11126208
0.03791607
0.16724697
0.01899757
0.03647142
0.08566512
-0.07702512
0.02276062
-0.03165072
0.04345797
0.01945608
-0.21532844
0.00291848
0.03775418
-0.11826017
-0.17984031
0.01005577
0.04790903
-0.03926408
-0.06857459
0.05716914
0.06890998
0.17164588
0.15359488
-0.11874291
0.12563249
-0.12346507
0.14734982
0.01218599
-0.29868227
-0.11598773
-0.07721623
0.01068659
-0.17002383
-0.22288240
-0.05827506
0.15084480
0.06077119
-0.11445701
0.16743056
-0.15728265
0.16327703
0.43640506
0.15055475
-0.07284131
0.00075956
0.19176160
-0.00396292
-0.13961190
0.00979825
0.40870035
-0.13853128
0.23029660
-0.10836291
-0.30299881
0.00057603
0.15499814
-0.31729391
0.17432782
0.03521886
-0.09618824
-0.06768816
-0.10831553
-0.09499568
-0.04142708
-0.11106988
-0.11429654
-0.05233841
0.03181013
-0.17165297
-0.09664614
0.05413875
0.01122516
-0.04718807
0.16985871
-0.01370740
0.15242459
-0.27203363
0.07885679
0.01293704
0.01568078
0.07438999
-0.06135248
0.04932779
-0.86464846
-0.07085420
-0.03134540
-0.13752878
0.23579170
0.09947976
0.38462344
0.20206323
0.04099668
0.29637986
0.40069726
-0.14144783
0.17697191
0.15137814
-0.03976610
0.10820221
0.25898591
0.07349448
-0.06369410
0.01824043
-0.06663390
-0.03137215
-0.08065160
-0.64398926
0.56112307
-0.56103367
-0.50198466
0.10548991
-0.01360475
0.19043709
-0.05898285
-0.04471897
0.06796324
0.03842765
-0.18493262
0.02491247
0.08851051
0.01295937
0.00217080
-0.05501927
-0.00082512
0.01195050
0.01418179
-0.09404949
-0.10310672
0.05787405
-0.07106312
-0.06781177
-0.33101726
-0.06694943
0.03249906
-0.35520422
-0.03071197
-0.06706230
0.16210814
0.08287379
0.10153765
0.03161114
0.11688808
-0.08812233
0.00400123
0.07311863
0.05293801
-0.09054830
0.07996085
-0.15397149
-0.07325735
-0.16823283
-0.03466697
-0.02316745
-0.07818390
0.08553161
-0.13961022
-0.05258179
-0.08194932
-0.03729066
0.07739466
-0.05535638
-0.12565115
-0.10778034
0.00156363
-0.00553638
0.07182485
0.29294881
-0.02996900
-0.04059497
0.03762293
0.07731313
0.00781791
0.04905944
0.07316984
0.00399746
-0.00951543
-0.02704692
0.04495388
0.05826305
-0.11140478
0.04135016
-0.07117478
-0.10632897
0.07539558
0.10852532
0.00786062
0.03699670
-0.43058327
-0.10970316
0.02100992
0.13048702
-0.00791900
0.02483569
-0.02253755
0.15038358
-0.03135642
-0.07523277
0.53041703
0.02419249
-0.02673009
-0.01145719
-0.16161151
0.02462119
-0.03727390
-0.01995204
0.01473150
0.02796983
0.10622919
-0.05238485
-0.07072099
-0.08635218
-0.01503726
-0.27805635
0.01633775
0.03038459
0.03424497
-0.13311705
-0.20355235
0.00032847
-0.03692874
0.05547382
0.00312191
0.03656909
0.07608348
0.03164177
-0.04072284
-0.06583951
-0.03293266
0.17292288
-0.08217668
0.07148552
0.01101349
0.03138784
-0.03359441
-0.07967009
-0.00125177
0.15129332
-0.07726046
0.02390013
0.11743118
0.04148093
0.02295999
0.10843556
0.13717030
0.06111650
0.08547788
0.11030538
0.05119581
-0.19642466
-0.00528500
0.05771795
0.07655124
0.02128324
-0.03855451
0.12454896
0.10814895
-0.01622784
-0.00626334
-0.16690592
-0.03090772
0.08225612
-0.01624611
-0.12927261
-0.10963364
-0.00200216
0.06985483
-0.07462132
0.00755827
-0.05564871
-0.01771230
-0.09868366
0.06493272
-0.41919842
0.03586504
-0.38916019
-0.03124421
-0.10747862
0.00129099
-0.06612107
0.04658775
0.12738775
0.03259119
-0.02526308
-0.07024243
-0.17861931
-0.40035591
-0.19090334
0.07139155
0.00865473
0.03380547
0.00054510
0.07692830
-0.06117178
-0.22860941
0.01134070
0.12623705
-0.12810345
-0.55831575
-0.07576059
-0.18726788
0.07440501
-0.13414703
0.01410702
0.01958425
0.04379522
-0.06845823
-0.03524970
0.11588265
-0.08349081
0.05253318
0.10346818
-0.06507514
0.03772096
-0.04067771
0.07314947
-0.14256619
-0.15061313
0.05384653
-0.03865144
0.09786285
-0.02194050
0.10909089
-0.00845920
0.22919719
0.52530271
-0.13099413
-0.03973971
0.09926236
-0.18702208
0.26194903
0.04728060
-0.02056754
0.03043957
0.11841583
0.07621555
-0.02379818
-0.19049972
0.02148669
0.09702500
-0.11370540
0.10426366
0.13629058
0.06466631
0.07907022
-0.10357717
-0.14963335
0.01729453
-0.08496045
0.07028978
0.03055248
-0.16134076
0.14280249
0.04095368
-0.05354896
-0.09667838
-0.07054203
-0.36900190
-0.18094561
0.01271988
0.05193871
0.03071749
-0.04953723
-0.00123399
-0.13907312
0.03469295
-0.72837341
-0.04239804
-0.15947306
-0.07876429
-0.05895745
-0.11449390
0.17373286
0.09962807
0.06122051
-0.00250796
0.06616791
-0.10525282
0.05510064
0.20591107
-0.00818600
0.13056567
0.00320683
-0.03343033
-0.08323446
0.16128711
0.09110033
0.01347939
0.25681776
0.03671976
-0.05465933
-0.23414838
0.13143978
0.03776521
0.06905223
-0.01154661
-0.04798442
0.08443356
-0.15019558
0.06570515
0.07221365
-0.00769346
0.04335341
0.08046611
-0.06296567
0.05042978
0.11558513
0.58823657
-0.04532405
-0.06483002
0.04370834
0.02658203
-0.23039737
-0.02107502
-0.04686827
