-0.00203924
-0.05522298
-0.06261770
0.06020472
-0.18705814
0.00117468
-0.08550783
-0.11072508
-0.01991575
0.02073483
0.00002668
-0.08882770
-0.00207300
-0.06866936
0.00915249
-0.06766907
-0.05009529
-0.03680872
0.01899329
-0.11391000
-0.15263237
0.04661871
-0.08758932
-0.18852648
-0.02013496
-0.14748803
-0.08751761
0.03833049
0.05147493
-0.04760085
-0.03451218
-0.03835740
-0.11527558
0.06443147
-0.05387975
-0.02707205
0.05209368
-0.10915191
-0.10982207
0.13896796
0.01423777
0.04084298
-0.06903354
-0.09412605
-0.02633467
0.05694954
0.00264518
0.02870286
-0.04830641
-0.02061447
0.08602624
0.01004649
-0.14425908
0.10854488
-0.07164112
-0.03823007
-0.04801146
0.06791195
-0.04495140
-0.00918310
0.01117458
-0.08151703
-0.00531618
0.02367811
-0.04940228
-0.07654680
-0.02177032
-0.00129176
-0.02947595
0.02617624
0.07649165
-0.06342075
0.01841333
-0.00166441
-0.08438325
-0.00154417
0.02244325
-0.07906234
-0.03451507
-0.07196544
0.00648944
-0.06519510
-0.06568987
-0.12470902
-0.02059574
0.04987258
-0.01977255
-0.04040175
-0.05642822
-0.06200944
0.00460685
0.06377183
-0.27377117
-0.00301263
-0.06193219
0.00306435
-0.11346115
0.03449808
-0.02481030
0.00989164
-0.07540497
-0.06438279
-0.03297082
0.00733780
-0.06227260
-0.03434348
0.00715318
0.00428262
-0.00136835
-0.04314611
0.04144960
-0.05367701
0.08827054
0.05027953
-0.02538536
-0.04344383
-0.06373163
-0.01513896
0.04463572
-0.10166947
0.01863249
0.04098807
-0.01174562
-0.06543810
-0.06464311
0.05314912
-0.00110353
-0.10506017
-0.00984835
-0.01156004
-0.02004686
-0.10237074
0.02537326
0.02449274
-0.00769112
0.03208148
-0.01627806
-0.05381458
0.03661214
0.02317757
-0.00643436
-0.02737035
-0.04127167
-0.04359931
-0.04502305
0.11720881
-0.00613130
-0.02971064
-0.01253390
-0.14085047
-0.06368079
-0.11097558
0.00970520
-0.04886264
-0.04548626
-0.07117163
-0.08666101
-0.14314321
-0.07661190
0.03256222
-0.05157050
0.04484597
-0.01748848
-0.07649757
-0.04330709
-0.08675047
-0.11177084
-0.00427211
0.16886969
0.03350255
0.01885310
-0.02655835
-0.02952941
-0.15259002
-0.04616651
-0.12174962
-0.04669395
-0.12109984
-0.11295946
-0.01796035
-0.01101614
-0.04952083
0.00776020
-0.11069039
-0.06587036
-0.00327827
-0.15443508
-0.10046886
-0.08692216
-0.06519131
-0.01022748
0.07195301
-0.15206468
-0.00385407
-0.06681188
-0.09456746
-0.02133619
-0.13322477
-0.04609741
0.00393128
0.07877624
-0.05391104
-0.07504585
-0.07182156
0.02759721
-0.10681586
-0.07865822
0.02091536
-0.06085259
-0.05502834
-0.00251718
0.01295648
-0.05340548
-0.09023877
-0.07134128
0.00236286
0.03928225
-0.01027163
-0.08574259
0.02351279
-0.00500503
-0.12017920
-0.01263331
-0.04756678
0.02676260
-0.10299266
-0.06292499
0.04719027
-0.06775220
-0.00258664
-0.04739768
-0.02082783
-0.06136148
-0.02478548
-0.01989071
-0.10062158
-0.02403432
0.01228800
-0.03046769
0.06318924
-0.03673785
-0.07876077
0.01969505
-0.07480725
-0.03781058
-0.03069334
0.03082070
-0.06691874
0.07324746
0.09874886
-0.04813854
-0.18101071
-0.04372419
-0.02102482
-0.01543713
0.01399865
0.08350494
-0.01885373
-0.05013618
-0.00342781
-0.05939681
0.02968316
-0.08538323
-0.04116177
-0.00528949
-0.00650423
0.00330084
-0.03875578
-0.07491270
-0.04091096
-0.05378476
-0.04532382
-0.01515018
-0.07747203
-0.00777334
-0.08665283
0.00360850
0.04267188
0.02310999
0.04166248
-0.09549133
-0.04818208
-0.01350791
0.06691921
0.07581868
-0.07275531
-0.12537158
-0.14737611
-0.07880732
-0.01430373
-0.08849531
0.02690446
0.03856910
-0.03653447
-0.12406205
-0.00414426
-0.03140708
-0.18799505
-0.04354089
-0.01596680
-0.02182481
-0.08751001
0.03985677
-0.06085083
-0.18508166
-0.02623850
0.00198467
-0.01566068
0.40425664
-0.01542933
0.00124518
0.00321989
-0.08432641
-0.03069208
-0.00577471
-0.06316772
-0.08291180
-0.04568866
0.00288636
-0.04472567
0.04438113
-0.07343878
-0.10048936
0.11633540
-0.00438480
-0.09380240
0.00443085
0.01222786
-0.02143174
0.01530753
-0.01163913
-0.02009852
-0.05289244
-0.13016090
-0.01471701
-0.05756536
-0.00210023
0.03122077
-0.03087916
-0.03128920
-0.02961604
-0.07029516
-0.09051155
-0.00614734
-0.02477951
-0.02759586
-0.07736912
0.01780545
0.04374032
0.07052724
0.02869732
-0.05999319
-0.07615726
-0.01815567
-0.04909575
0.00828097
-0.08120546
-0.05814267
-0.04033562
-0.06151130
-0.06254242
-0.04464227
-0.03382492
-0.06505120
-0.07754064
0.01115157
-0.00643617
-0.08595508
0.03176532
0.00785093
0.01533187
0.00524211
-0.08348540
0.00916238
0.05514066
-0.05585374
-0.04053322
0.00541706
0.03595040
-0.09026001
-0.02256051
-0.39395911
-0.07224662
0.06011379
-0.07034067
-0.00135960
0.10262358
-0.08317587
0.00574750
0.00940631
-0.05790028
-0.05521096
-0.11315218
0.00404464
-0.07166716
-0.00840580
0.04491681
0.04345344
-0.06032519
-0.00672101
0.00508490
0.04815285
-0.09612028
0.01830103
0.00954570
0.04060305
-0.07995501
-0.00569253
-0.10939272
0.02873402
0.02623183
-0.01733755
-0.06076770
-0.06346352
0.03267213
-0.04834375
-0.02051793
-0.03298416
-0.08483444
-0.02221758
0.01691269
0.04841314
-0.05190486
-0.02696054
0.05037098
-0.10347781
-0.07351209
0.04812167
0.05824643
-0.08453955
-0.05930816
0.05660735
0.06056887
-0.12509903
0.03828486
-0.11286666
0.05995486
-0.03081463
0.05777593
0.01533394
-0.06870074
-0.07089637
-0.07316440
0.02847270
-0.03979658
0.01435073
0.05587430
-0.06810747
-0.00353716
0.06446529
-0.03610518
-0.04208779
-0.12962474
0.04905801
-0.12698829
-0.04268271
-0.00225198
-0.09468257
0.01357484
0.01174228
-0.05458710
0.05060182
0.00615616
-0.12791105
-0.13042296
0.03510428
0.00114926
-0.02153450
-0.03658588
-0.03933474
-0.06294423
0.02401495
-0.00346869
-0.03044908
-0.02165440
-0.00785218
0.02285374
-0.07806419
0.05688476
0.00080930
-0.07308888
-0.09012289
0.01882086
-0.03733134
-0.01138793
-0.02106316
-0.06998594
-0.10409382
0.05999845
-0.00923174
-0.01308602
-0.05313278
-0.07733958
-0.04262936
-0.01026445
0.00886410
-0.03120789
-0.05346339
-0.01484876
-0.05079168
-0.06253979
-0.06718072
-0.02575434
-0.02238807
-0.03015450
-0.02961964
0.01538583
-0.01941682
0.03465505
-0.05103670
0.01005302
-0.03181339
-0.02547125
0.01540868
0.00153461
-0.16172393
0.02054348
-0.01890287
0.09191692
-0.06609212
0.03228230
-0.15020245
-0.09219566
0.02046418
-0.01176790
-0.00580427
-0.03895110
-0.00824949
-0.07814664
-0.09636947
-0.01209642
0.01900261
-0.01839220
-0.01369767
-0.06295066
0.02471249
-0.02236517
-0.03671419
-0.05857321
0.13027987
-0.04668368
-0.02977109
0.02602084
-0.03673095
0.02185743
0.18477035
0.06548396
0.00594967
-0.13616677
-0.10896675
0.01119674
0.02301942
-0.06959266
-0.08370157
-0.05570869
-0.01287581
-0.03711233
-0.05485846
-0.10318150
0.00118024
-0.00092835
0.05103403
-0.02171896
-0.05289621
0.03273305
-0.06204732
-0.07944865
0.01979107
-0.02921098
-0.00243179
-0.02715660
-0.06336662
-0.04929684
-0.00377715
0.01403647
-0.02721105
0.06120858
0.01057160
-0.12313157
-0.02444818
0.04383076
-0.05728796
-0.10385972
0.02261926
0.03521643
-0.04155351
-0.22495507
-0.03361348
0.00205126
-0.07525914
-0.05265495
-0.00471823
-0.08429740
-0.05489204
-0.08030719
-0.03449953
-0.08265348
-0.04027312
-0.08123405
-0.04431378
-0.05277233
-0.04461378
0.02651278
-0.10785885
-0.10431064
-0.10357589
-0.10029318
-0.07210287
-0.07672637
-0.03206934
-0.03476754
0.03154548
-0.00637170
-0.04466278
0.05098058
-0.04863476
0.00640265
-0.02128546
-0.02274458
0.00676960
-0.07061162
-0.02814949
-0.11804210
-0.07568080
-0.01426868
-0.08863338
-0.15605685
0.02322448
-0.06980710
-0.03968627
-0.11818650
-0.08997688
-0.06243778
-0.15240891
-0.05263152
-0.05851597
-0.03450571
-0.07931041
-0.09370621
-0.11320066
0.00408631
-0.08484207
-0.08400397
-0.01437827
-0.01864750
0.04541531
-0.06373923
-0.03032511
-0.01668166
-0.03728210
-0.02275829
-0.11548348
-0.07794359
-0.08373812
0.03423236
-0.01353892
-0.05139934
-0.03505904
0.01094889
-0.01133055
-0.08272129
-0.04013943
-0.09939642
0.02007129
-0.06324686
0.00686913
-0.09806497
-0.08913154
-0.08477540
-0.07639433
-0.04117146
-0.06779502
0.01796951
-0.03679370
-0.07591233
0.02859834
-0.17966583
-0.11506627
-0.15138729
-0.01381390
-0.05713398
-0.01848567
-0.15454817
-0.02329710
0.04928548
0.00041074
-0.09615079
-0.01497064
0.03193790
-0.04713627
0.00368634
-0.05139508
-0.06000548
-0.04777154
-0.03650856
-0.04765140
0.04915534
-0.03003430
-0.06564008
0.02575510
-0.09218211
-0.01642504
0.00466285
-0.01909980
-0.07384092
-0.02086237
-0.12129144
-0.08967924
-0.07119485
-0.11474528
-0.03910246
-0.06096001
-0.06109302
-0.10260971
-0.03668330
-0.11352061
-0.02357354
-0.09243454
-0.03424006
-0.02508191
0.02397275
0.03061209
-0.01616560
-0.03774704
-0.08277035
-0.01877377
-0.01879221
-0.01647403
0.03028418
-0.05188101
-0.03063199
-0.10334324
-0.09462147
-0.11387861
-0.17818694
-0.02727162
-0.04229205
-0.07591428
-0.00619604
-0.04609352
-0.04500940
-0.03491021
-0.05171532
-0.01755419
-0.01179879
-0.07153409
0.01259625
-0.01350556
-0.09807345
-0.04826763
-0.04171360
0.03817822
0.00540257
-0.09397174
0.05281134
0.02062606
0.05763933
-0.10068106
0.02661037
-0.04050110
-0.05364794
-0.08295677
-0.04944661
0.05690352
0.02996292
-0.03335388
-0.04086154
-0.05727858
