0.00000019
0.06036450
0.00205128
0.03865600
0.06640644
0.00007569
0.04689888
0.06385760
-0.03645843
0.00717512
0.00650833
0.01201630
-0.04265860
0.10258804
0.01369127
0.02146901
0.01715661
0.03573162
0.00439490
0.01034674
0.03266299
0.00571584
0.03877882
-0.04766021
0.01531475
0.11001231
0.04628178
0.01774417
-0.13990290
0.04682537
0.06917685
0.00584442
-0.01228832
-0.05926377
0.01025643
-0.01038911
-0.01380781
-0.02272755
-0.02641338
0.01510007
-0.00000918
-0.03107924
0.02442348
-0.02216018
0.00348792
0.02489634
0.04602274
0.06246220
0.02197415
-0.08046526
-0.00411357
-0.02088019
0.02401253
-0.04884255
0.05853770
0.08029913
0.04387894
-0.11746521
0.00973469
-0.06268957
-0.01981507
0.15334447
-0.06760236
0.04608873
0.02806479
0.06239887
-0.03470582
0.03961446
-0.02682715
-0.06634796
-0.10014700
0.01563920
0.00686825
-0.02177112
0.00790283
0.09072826
0.00221841
-0.04946399
-0.01777264
0.00194114
0.09883008
0.01257987
0.00326070
0.01930402
0.06916451
-0.07095072
-0.00325571
0.06108544
-0.03310897
0.02187627
0.02158208
-0.03672707
0.07007280
-0.04179597
0.12781152
-0.08705448
0.19366129
-0.09302498
-0.04548031
-0.06482850
-0.05105457
-0.00847406
0.00434201
-0.02699006
0.02758655
-0.04711743
0.03616112
-0.03761009
-0.08945294
-0.05698804
-0.07107893
-0.01323318
-0.02887507
0.00494280
-0.07032786
0.03742607
-0.03074431
-0.00206378
-0.02606163
0.04718980
-0.05441596
-0.03602237
-0.02187579
0.02592079
0.11056109
-0.07431301
-0.01957740
0.11803191
-0.00338159
-0.04407243
0.02563230
0.01331924
-0.01707595
-0.02901179
0.08650009
0.00383165
0.06976074
0.09912125
-0.08091722
0.00050169
-0.05295736
0.08106533
0.05837996
-0.01282269
-0.00059819
-0.06493603
0.07648341
0.02056889
-0.12636460
0.10560386
-0.05451757
0.04683869
-0.20141983
0.03497015
-0.04166140
-0.09154704
0.04184204
0.02363931
-0.00863198
-0.11851279
0.06228731
0.00228538
0.04043239
0.03222122
-0.04673309
0.10631001
0.00096037
0.03077394
-0.06689318
0.04183879
0.04280240
0.08972464
-0.07918812
0.00584156
0.01543039
-0.03344157
0.01329991
0.01820997
-0.00772406
-0.06517341
0.01021976
0.01271620
-0.07154720
0.01884840
-0.00456008
-0.06340063
-0.01628439
0.02691168
0.02201709
-0.03928002
-0.00428339
-0.01431360
0.00959510
-0.03834006
0.10379278
0.04487643
0.03596623
0.07182097
-0.05381245
-0.01650937
-0.04720045
-0.03093076
0.04980025
0.05623141
0.01121933
0.01208843
0.02991550
-0.02008931
0.00668950
0.05964634
-0.00884755
-0.04947181
0.11593455
0.06560251
0.03108925
0.03960543
-0.12352346
0.00147119
0.07391939
0.02067837
0.07259402
0.06336974
-0.00538609
-0.00475141
-0.00133198
0.08158727
-0.01452173
0.07583718
0.03452913
0.01129625
0.00843676
-0.02053947
0.00115002
0.02443196
-0.04613880
-0.04353107
0.00143637
0.02293339
-0.01465433
-0.02021753
0.06486423
-0.07639959
-0.05922538
0.04947010
0.05142536
0.03131345
-0.04349348
-0.05104516
0.00929139
-0.06143554
-0.04022487
0.01479558
-0.00817328
0.00544121
0.03575338
-0.04355707
-0.03037922
-0.03755936
0.04625334
0.00211670
0.00694699
-0.02942085
-0.03439219
0.06531787
0.02165489
-0.05230968
-0.01396869
-0.02764321
0.03221327
-0.03362150
-0.00125753
0.00245145
-0.07610571
0.03595525
-0.00624535
-0.09355874
-0.07370476
-0.02828105
0.01275722
-0.07721529
0.06347384
-0.01307829
-0.02749530
-0.07833783
-0.00070937
0.02277115
0.02797997
0.07004272
0.04921046
0.04219738
0.01441534
-0.01031662
-0.09263877
-0.07998735
0.01477900
0.05862968
0.10393321
0.04155957
0.02919883
0.00276573
0.06317810
0.02705029
-0.00686230
0.14006421
0.04552620
-0.02625802
-0.05939491
0.00721983
-0.61504352
0.03653592
-0.02263534
-0.06148554
0.05085869
0.03706028
-0.04247797
0.00072455
-0.03419122
-0.00678069
-0.05322913
0.02690841
-0.04340814
0.05659962
0.04985088
-0.12310748
0.00755632
-0.05238225
-0.01113506
0.03037035
0.02207608
-0.01471501
0.05553732
0.00347684
-0.01391582
0.04340168
-0.00550306
0.02175617
-0.08686687
-0.05990935
-0.03588898
-0.04040003
0.01712894
0.03490556
-0.03193831
0.08903612
0.00997888
0.00081561
0.01188905
-0.02858595
0.00063096
0.03971817
-0.01416490
-0.01718249
0.01466826
-0.08811449
0.04308845
-0.00795143
0.02891494
-0.01378801
0.02580968
0.00719281
0.03348695
-0.02396750
0.05782269
0.06502717
0.02265484
0.06331810
-0.09345236
0.01103875
0.01048984
-0.01221915
-0.02931711
0.06936739
-0.03179848
0.00962786
0.01587768
0.00700157
0.02368418
-0.09119968
-0.08883575
0.00859094
0.02104074
-0.27227733
-0.01941110
-0.04805436
0.02828697
-0.01161719
-0.06143129
0.05180291
-0.05521113
-0.10573507
0.02578726
-0.01480350
0.01200524
-0.06839924
0.06214531
0.01368556
-0.06486160
-0.11424737
-0.00034859
-0.02003445
-0.08148759
-0.01226744
-0.03893396
0.01555373
0.06080633
-0.02799875
-0.00588683
-0.00159465
-0.01698066
-0.00511237
0.03984201
0.03150438
0.00084282
0.01644063
-0.08331479
0.06088464
-0.10396127
0.02310588
0.01875352
0.09721210
0.00807295
-0.06250545
0.05897839
-0.02815315
-0.09128685
0.03529061
0.01598104
-0.04798993
-0.05302961
-0.00008959
0.00786492
-0.09877408
-0.01490397
-0.00517955
-0.10184694
0.00364692
-0.07757537
-0.04673657
0.01821415
-0.06533476
-0.07105163
0.00204901
0.07974304
-0.01164575
-0.01426001
-0.01185728
-0.02637439
0.00029603
-0.01999540
-0.07974019
0.01483498
-0.02855835
0.06087329
-0.05597823
-0.00076272
0.10029477
-0.03305820
-0.03742740
-0.11063370
-0.06211397
-0.00722234
-0.15209800
-0.03568955
-0.04044205
0.11071775
0.04569260
0.03109349
-0.11356504
-0.02980862
0.06911866
-0.01144347
-0.00587375
-0.02220533
-0.06761905
0.01631314
-0.07539547
-0.07172435
-0.00019524
-0.04409905
-0.12350697
0.06309310
0.00978496
-0.01843972
-0.09109956
-0.08694060
0.02168434
0.05531380
0.03808784
-0.09493678
-0.01369654
-0.01203996
-0.03770908
-0.03123668
0.05562514
0.01570287
0.03685707
0.05954397
-0.01202200
0.03474699
0.00612240
-0.01559916
-0.04296340
-0.01642144
-0.00799522
0.01608288
0.07692662
0.01852222
0.00135980
0.00229762
0.04736007
-0.07851063
-0.04636687
0.02505704
0.03193881
-0.00475503
0.10585563
-0.07706355
-0.08543162
-0.07163239
0.06811013
-0.03114297
0.09319963
0.03560465
0.01328355
-0.05682879
0.07709809
-0.02120585
-0.04816698
0.01023793
-0.02727261
-0.02817804
0.03239480
-0.05629043
-0.01723319
0.11331966
0.03516668
-0.05030896
0.07621930
-0.04093247
-0.10004693
-0.00250567
-0.08294120
-0.03269189
0.03487051
-0.06143893
-0.02550905
-0.03391913
0.10661914
0.07648963
0.02324305
0.00820042
-0.02401600
0.02443820
0.00848946
-0.01272377
0.00251963
-0.01717923
0.08241105
-0.02115186
0.02390854
-0.02481366
0.09591594
-0.03779235
-0.03109422
-0.02523087
-0.01280534
-0.02435325
0.03859069
0.00620086
0.00179496
-0.01315122
0.01269695
0.01701713
-0.00053229
-0.07014563
0.01805284
0.08143887
0.02631566
-0.01464800
0.03293067
-0.14413458
0.07692169
0.07942704
-0.03009265
-0.00726579
-0.01793689
0.13724588
0.00493815
-0.00597613
0.01200040
0.01925134
-0.04331049
0.01338051
0.03316856
-0.03052695
-0.05972423
-0.00440237
0.12961981
0.04146170
0.03627597
0.05107168
0.05377708
-0.04085840
-0.05504744
-0.00207553
0.01709818
0.02008265
0.01945259
0.01450645
0.05698513
0.00834428
-0.01780783
0.03473625
-0.06789277
-0.14668439
-0.02384339
-0.07117108
0.02039054
0.04065004
-0.05405279
0.07060067
0.07033004
-0.02792799
0.04988622
-0.01559046
0.04373183
0.02032890
-0.01531889
-0.07052864
-0.01829969
0.08367942
0.00696923
0.01330589
0.11178067
-0.02709399
-0.00756777
-0.00864378
0.06385513
0.11469987
0.01518299
-0.09929223
0.07549711
-0.00326094
-0.07280034
-0.02862191
0.00830529
0.02388141
0.06794374
-0.04528339
0.04931745
0.01906324
0.01181508
-0.01195571
0.04669769
0.06299438
-0.00457575
0.06408556
0.03356671
0.04265525
-0.12442978
0.07394554
-0.01617921
0.00381299
-0.00178060
-0.00333502
0.00098574
0.04506025
0.12460486
0.01327661
-0.04373349
0.02902386
0.01326126
0.05257278
-0.06355399
0.03567497
-0.00823237
0.03791047
0.01372230
0.00776386
-0.03434278
-0.00950096
-0.04889583
0.13166749
-0.01713143
-0.00810984
-0.02539439
0.06338828
0.04435621
-0.01963050
-0.02066145
0.04066784
-0.00781445
0.03696524
0.01554906
0.00707619
0.04146293
-0.07905988
0.03288835
-0.06291270
-0.00346121
0.01650008
-0.09447118
0.07734676
0.07439749
0.01460269
0.09206730
0.03436475
-0.07862975
0.08043188
0.05679174
-0.01658527
0.05068766
0.01220715
0.05412612
-0.05813725
0.05389105
-0.03374570
-0.01439420
-0.00004891
0.04841269
0.00805310
-0.01364575
0.00164191
-0.02882337
0.02362876
0.01461246
0.00647597
-0.06917825
-0.00316700
0.09576297
0.04221699
0.07290235
0.05106612
-0.03387209
0.06058091
-0.11027921
0.00455213
0.06101099
0.01073745
-0.00451446
0.01306110
-0.02121750
-0.03237841
0.07755565
0.01694047
0.02785214
-0.00158560
-0.05885340
0.11238172
-0.00031298
-0.00600808
-0.05327251
-0.02484843
0.08449740
-0.09121075
0.08111344
-0.14972655
0.00218773
0.13248472
-0.03635158
-0.07662293
0.03112007
-0.04598372
-0.03509924
-0.05761692
-0.01539673
-0.03352352
0.02416281
