0.00922331
0.00520436
-0.02794879
-0.22353622
0.28244346
-0.10362836
0.21000326
0.05190806
0.00919436
-0.10104614
-0.09573571
0.21427380
-0.06621509
0.10008515
0.01627322
0.07889365
-0.11238512
-0.02839220
-0.07802951
0.24297620
0.24578735
-0.22912553
0.11264432
0.30373535
-0.02244766
0.26348072
0.12821950
-0.24418733
-0.24715215
0.06492292
-0.04866210
0.03121412
0.24180783
-0.19532070
0.08160602
-0.01365125
-0.15022267
0.23295280
0.16787012
-0.40394577
-0.08198848
-0.18630183
-0.01647439
0.11192328
0.00878524
-0.13932970
-0.10522605
-0.09696033
0.02167766
-0.10960147
-0.23730335
-0.05294732
0.22880156
-0.39715803
0.03917673
-0.07227541
0.08069430
-0.25024411
-0.00152066
-0.07724091
-0.05747531
0.04962050
-0.21258540
-0.15033966
0.02448074
0.10624701
-0.02299329
-0.06660685
0.01553791
-0.19646063
-0.33079270
0.09141564
-0.08978137
-0.11636277
0.09840742
-0.06148992
-0.03863564
0.15895665
0.04574153
0.05797777
-0.00988205
0.01271947
0.07681742
0.13751048
0.00372896
-0.07857235
-0.08509649
0.05840384
0.00029179
0.08862372
-0.03246299
-0.15780668
0.72376311
-0.07852880
0.06485705
-0.08472916
0.11326291
-0.14431475
-0.07388353
-0.07318868
0.06556639
0.11105576
0.02251663
-0.13030280
0.01381124
-0.20577939
-0.11204030
-0.10569353
-0.00869003
0.02964763
-0.10439394
0.00599014
-0.30158982
-0.15709049
-0.08327275
0.01185618
-0.03244267
0.01326415
-0.11235880
0.12289658
-0.09733684
-0.29752943
-0.08334313
0.05036675
0.07068307
-0.19565284
-0.07678819
0.08854967
-0.04537242
-0.07779881
-0.00288873
0.04252767
-0.11067340
-0.09444898
-0.01007028
-0.11510299
-0.04421058
0.09982953
-0.21928987
-0.19631642
-0.11421216
0.00918953
0.00232103
-0.01078170
0.05014405
-0.60983849
0.01116495
0.03109095
-0.10273588
0.40330857
-0.00960321
0.16995400
-0.28864235
0.01592424
0.06648391
-0.01742287
0.10530996
0.21831840
0.10019903
-0.09935994
0.04233430
-0.08724742
-0.12185949
0.07055694
-0.11523521
0.08010110
0.12511827
-0.09672388
-0.69718975
-0.10950902
-0.13604294
0.00750155
-0.04583896
0.39039239
0.04440770
0.21411815
0.04459485
0.09798373
0.04571613
0.10767727
-0.01898324
0.03821648
-0.11884034
0.14706384
0.08192688
-0.07145924
0.21454722
0.15680236
0.13755232
-0.03495990
-0.03983283
-0.25203598
0.17387545
-0.02543702
0.11362749
0.09614091
-0.08182035
0.18748073
-0.02232778
-0.11092178
-0.24924004
0.03133399
0.07133695
0.12806185
-0.13067114
0.12919153
0.06656678
0.00147602
0.07713936
-0.00614219
-0.03762762
-0.15021554
0.07052030
0.13089874
0.09936172
-0.09168261
-0.04527917
-0.07326206
0.06739032
-0.21317151
-0.06294794
0.10228869
-0.03794896
0.05322808
-0.08631051
0.36377460
0.12698685
-0.06689578
0.08129963
-0.02903878
0.08136251
-0.07393955
0.04125897
-0.05901857
0.03126622
0.12480047
-0.10232590
-0.00986612
-0.00729083
-0.23894833
-0.04558151
0.06027004
-0.07482526
-0.01231210
0.03274911
-0.04937802
-0.25810358
0.05783297
-0.22535902
-0.50379980
0.00533968
0.22881785
-0.07632780
-0.10333508
-0.00837003
-0.08779602
-0.21806468
0.00942772
0.03733560
-0.03675234
-0.00183990
-0.09297191
0.08420888
0.00271830
-0.03894334
-0.08048617
0.02723566
0.05749017
0.04645879
-0.01176797
0.03890815
-0.03956380
-0.08901687
-0.04622040
-0.08434673
0.13263413
-0.14867243
-0.14290009
-0.15519214
-0.14443432
0.12749656
0.03436730
0.02350192
-0.09887078
-0.18056686
0.00503555
0.18339069
0.23228697
0.13688655
-0.03925534
0.06028787
-0.08718640
-0.15450789
-0.01825146
0.13447902
-0.11992816
-0.06551872
0.26224774
0.07999067
-0.03615958
-0.03480777
0.06602600
-0.12874094
0.05654609
0.35387850
-0.04592023
-0.26984328
-0.09926809
-1.29428899
0.01061648
0.01202537
-0.05451814
-0.01018580
-0.01693984
-0.01900100
0.03408079
0.02202630
0.06630298
-0.07165793
0.20330001
-0.18378237
0.06075258
0.16223001
-0.22975709
-0.05206827
0.09981462
-0.05748728
-0.12912838
-0.03876575
0.03053086
-0.07484026
-0.04072626
0.05360410
0.17557058
-0.04835618
0.02557459
-0.14105353
-0.13253689
-0.01216288
0.07476260
-0.00109117
0.01202704
0.05232421
-0.04310461
-0.03847158
0.23401880
-0.02163415
-0.21304864
-0.10239393
-0.30519414
-0.11235165
0.10469532
-0.00891715
0.17489599
0.01698613
-0.07926031
0.02660724
-0.00371395
-0.08544077
0.09511993
0.03516448
-0.00328042
-0.05089464
0.07611942
-0.01422185
-0.14098245
-0.08243074
0.10569136
-0.13698706
-0.02685841
-0.11997686
-0.02142487
0.06463447
-0.07237515
-0.14094354
0.01026607
0.00426406
-0.00955096
-0.10589451
0.05596981
-0.09051693
-1.09145188
0.09709938
-0.28587738
0.03608663
-0.07839906
-0.24323919
0.10105427
-0.06626314
-0.15200363
-0.01248038
-0.03951644
0.11943091
-0.00675293
0.06344499
-0.03901932
-0.18456204
-0.17731766
0.04969242
-0.11194193
-0.01580161
-0.11462178
0.01762029
-0.12967876
-0.14799184
-0.22334652
0.09168282
-0.07231457
0.19797094
-0.06513177
-0.07006877
-0.15162960
0.03148410
0.07296586
-0.11313125
0.02408094
-0.02641291
0.00682599
-0.02047362
-0.05405785
-0.06479096
-0.34721035
0.03834152
-0.11238706
-0.19027625
0.13783975
0.05527470
-0.14858228
-0.19038057
0.13102914
0.05007950
-0.22381485
-0.26590768
0.16400243
-0.06767085
0.10891306
-0.20291016
-0.05435973
-0.15593873
-0.18796581
0.07222950
-0.05145594
0.10518011
-0.07899028
-0.00714895
0.02108466
-0.22993857
0.08908411
-0.09265693
-0.31622767
-0.01529531
0.01380976
0.16433729
-0.19843702
0.05720075
-0.05002740
-0.01706044
0.09620791
-0.04723001
-0.07893430
0.03221218
-0.24866070
-0.07329993
0.16462609
0.17282131
-0.06684463
-0.10818426
0.04279321
0.03331488
0.00307925
0.00156721
-0.24137609
-0.01196777
-0.10550589
-0.14368199
-0.08064661
-0.15748584
0.04378307
-0.20929933
-0.06366784
0.04781330
0.12439318
-0.17476076
-0.02039362
0.04455460
0.00496405
0.08093535
0.14523491
-0.25581747
-0.05339843
-0.03977400
0.01472856
0.06658318
-0.03858153
-0.09904901
-0.09938761
-0.14697038
0.01949928
-0.04841919
0.13693494
0.06071004
0.02917657
-0.08479286
0.02288489
-0.06726313
-0.01102723
-0.17925775
-0.02672286
-0.11235237
-0.03371694
-0.11194215
-0.07633471
0.03953557
-0.07401515
-0.11720619
0.25593045
-0.09224904
-0.09772795
-0.32524282
-0.02872891
-0.13881734
0.21202181
0.05758404
-0.18933477
-0.15042132
-0.03097215
0.03544430
-0.01697922
0.07026967
0.08913296
-0.06960657
-0.06000677
-0.00356878
-0.06814999
0.00491969
-0.08404267
-0.05993656
0.00544603
0.01351017
-0.24886623
-0.01373974
-0.08637792
-0.17312804
0.05170429
-0.13743857
-0.73334986
-0.16770448
-0.09431244
0.20223430
0.07906688
-0.08666561
-0.05950331
0.15458131
0.04986398
0.03604237
-0.09901962
0.02227137
0.04749390
0.09393760
-0.07024724
-0.16993192
-0.25558680
-0.13233501
-0.00467463
-0.07511558
0.00080462
0.11451522
-0.05732173
-0.01735646
-0.00552700
-0.00846254
-0.00235320
0.03751332
0.09131209
-0.14566016
-0.06249676
-0.13703333
-0.15679003
0.15870433
-0.05870378
-0.15997890
-0.00726764
0.12592538
-0.06666851
0.00196414
0.00863473
0.40461934
-0.04994319
-0.05772876
-0.01887664
0.04526927
-0.01460197
0.09426637
0.02405448
0.20386243
-0.01279382
-0.02569951
-0.00571968
0.09223600
-0.03285051
-0.02777182
0.04770243
-0.17971060
0.04357653
0.05057266
0.18624537
0.03739225
0.18244420
-0.00555703
-0.05342717
-0.00903563
-0.13939090
-0.09402420
0.00263007
-0.12785850
-0.03696908
-0.03629525
-0.01201559
-0.08089383
-0.00965842
0.07714722
-0.06700141
0.08661791
0.05246447
-0.09747205
0.23272593
0.25431943
-0.18171120
0.12424231
0.10965809
0.17917790
0.23454049
0.04594316
0.14239962
0.03188767
0.07291298
-0.01363046
0.03923311
0.03676033
0.18325895
-0.17405875
0.15732196
0.11639687
0.00426534
-0.04726474
-0.11055053
0.14527506
-0.11625852
-0.08755787
0.04277552
0.00612431
0.17293468
0.08389606
0.13128094
-0.16199523
-0.09846606
0.06060931
0.01588254
-0.06481193
-0.02561183
0.05862970
-0.02568008
0.08810931
-0.17783535
0.07214668
-0.08583198
0.08325385
0.03761261
0.01635322
0.08073973
0.05875386
0.00122552
-0.12018001
-0.09977828
0.05390492
-0.13954143
0.26777747
0.19149610
0.22406490
-0.11085883
0.00284745
-0.13001172
0.25943625
-0.08846424
-0.12244365
-0.05437735
0.13270782
-0.09827381
-0.14059217
-0.01155587
-0.04224328
0.04431149
0.11753939
0.06515807
-0.12500556
0.08045651
-0.16476017
-0.09546553
0.00349806
-0.08911394
0.09075857
0.01303876
-0.13412191
0.00492500
0.08171154
0.00136565
0.10622987
0.07790621
0.06236296
0.15228641
-0.16340835
0.11144556
0.15675326
0.12399220
-0.02184835
0.11215611
0.00303645
0.12191965
0.03543817
-0.07852204
-0.09635064
-0.19918391
-0.03732044
-0.04625864
0.10423267
-0.01506251
-0.07202814
-0.02346659
-0.07939707
-0.00354203
-0.06994205
0.10653680
0.16450858
0.13985610
0.28136277
-0.04443485
0.11185326
0.06088214
-0.03630630
0.02304974
0.07182641
-0.01203594
0.05374182
-0.07794551
-0.00507568
0.18605010
-0.09584027
-0.07553303
0.07087056
0.01170435
0.03201907
-0.14577238
-0.10971478
0.14975405
-0.21911417
-0.03262430
-0.29154810
0.11422396
-0.11388112
0.07159637
0.02197581
0.18972714
0.04754354
-0.25509915
-0.09952498
-0.01205208
0.03688034
0.00836043
