0.03037793
0.00476748
-0.02667085
-0.03279928
-0.00530776
0.05233999
-0.03864886
-0.03211976
-0.03557847
0.02313096
-0.00913627
-0.05025442
0.05900674
-0.06008282
-0.01454248
0.05719239
0.00418473
0.03791736
0.00427720
-0.03669479
-0.10774783
-0.00240245
-0.04860145
-0.01256238
0.03694008
-0.03008005
-0.01906624
0.02033538
0.04630318
0.02632385
0.02463098
-0.03849366
-0.01717359
-0.01601448
0.00821855
0.03621115
0.05138480
-0.03080691
0.03819400
-0.00762873
-0.02368394
0.01814520
0.02612951
-0.05802617
0.00935408
-0.00154149
-0.00828876
-0.00728169
-0.02457097
-0.02396310
0.06218810
-0.00533305
-0.03462948
0.04581609
0.06380858
-0.01437658
-0.03801336
-0.00575508
-0.02593127
-0.06116394
-0.01630380
-0.01941164
0.03072546
0.06013075
-0.06724150
-0.03045533
-0.00689327
-0.01258289
-0.04830225
0.01555338
0.03476905
-0.01022016
0.09685863
0.00881909
-0.03930691
0.02437175
0.04758159
-0.10802975
-0.01468752
-0.10246174
0.00499084
0.01949361
-0.04954455
-0.02197497
-0.02872424
-0.02901633
0.03760799
-0.08200878
-0.01774437
-0.02513445
0.01760106
0.00118370
-0.06227898
0.07012600
0.01865197
-0.00103009
0.03593813
0.01755400
0.03949301
0.03186501
-0.03234047
-0.04682773
-0.01045650
0.02860849
-0.03986744
-0.00083309
-0.00741851
-0.00558078
-0.01365613
0.00060804
-0.05546014
-0.01343946
0.03741878
0.04311731
0.02274328
-0.02740577
0.00480219
-0.00097437
0.03282886
-0.02360229
-0.04524888
0.11900774
0.02410680
-0.02684673
0.02427571
0.03672187
0.01329343
-0.03652248
0.05973468
0.06789818
0.01698817
-0.06268945
-0.06927738
-0.02080925
-0.00228424
0.01430510
0.01187322
-0.02512345
0.01842017
-0.05010874
-0.00261835
-0.00943655
-0.02994615
0.03825047
-0.02520722
0.06547312
-0.00847326
0.04238438
0.03011516
-0.06490016
-0.02938047
0.01243748
0.11569241
-0.01327996
-0.00674419
0.03473164
-0.01153405
-0.05593634
-0.01216237
-0.06556182
-0.00586787
-0.01291007
0.06456846
0.00438466
-0.02395603
-0.03887005
-0.02569926
-0.00843815
0.16333297
0.01234755
0.01007229
-0.03197493
-0.03682270
-0.02995062
-0.02546545
-0.02955862
0.00531773
-0.00227850
0.03609255
-0.02478418
-0.02618355
0.00526354
0.00324532
0.00190255
-0.04252939
0.03186794
-0.01857840
-0.03882439
-0.02107347
-0.02771043
-0.00081655
0.04073613
-0.04456343
-0.04520433
-0.02449023
-0.02189252
-0.00214368
-0.03101613
-0.04174953
0.03153021
0.02270633
-0.04091421
-0.03003983
-0.02232218
0.02048676
-0.02317329
-0.02456913
0.00254570
-0.03600815
-0.00306007
-0.00582489
0.04848194
-0.03679522
-0.06579299
-0.01289168
0.04850612
0.00265197
0.03308272
-0.09162958
0.06239569
0.00158779
-0.00984624
-0.00841612
0.01499339
-0.01510319
-0.09753904
-0.04665361
0.01307059
-0.01713216
-0.00882238
-0.04545196
-0.03342428
-0.04801251
-0.00668724
0.01618747
0.00863103
-0.02068353
0.03509101
0.00384293
0.05325629
-0.05542062
-0.00991568
0.05751757
0.03236775
-0.05350637
0.06488410
-0.00841434
0.00381731
0.07749444
0.12895814
0.02091254
-0.03767662
-0.00540107
0.00621037
-0.04721402
-0.02618117
0.03192058
-0.00875171
0.03061538
0.01798933
0.01855149
0.04522630
-0.01172124
0.00872091
-0.07288882
0.02750176
-0.01378328
0.00065777
0.00174228
0.00490646
-0.04036705
0.02077052
0.01874691
-0.01204810
0.02980652
-0.06742857
0.01573228
0.03068007
0.04474972
0.02852257
-0.01024313
-0.01638142
-0.02054872
0.06194328
0.02636602
-0.01092787
0.00949644
-0.01764781
-0.00556404
0.02038253
-0.00649104
-0.00667474
0.04530486
0.01785741
0.02572463
-0.05937002
-0.11086883
0.00220890
-0.00469943
-0.04661971
0.00299839
0.02243056
0.02447341
0.01662018
-0.09307042
0.00025567
0.04917379
0.00627279
0.52322435
-0.02735736
0.02626234
-0.06654727
-0.03212006
-0.04954232
0.01322519
0.02352499
-0.02323593
-0.00586976
0.01077728
-0.14346854
0.02934980
-0.00223431
-0.02564017
0.05904447
-0.02450767
-0.03638894
-0.05545875
0.01150535
-0.02510306
-0.00670117
0.02640398
-0.03053317
0.00092277
-0.03390978
0.02329301
-0.04291274
0.01336483
0.03560428
-0.01862772
-0.00985041
0.04911255
-0.03273878
-0.08903101
-0.00007597
0.00031515
-0.07699350
-0.01782588
-0.01403763
-0.00661605
-0.01821379
0.00510539
-0.05347835
0.03649595
-0.06545096
0.02521401
-0.03956255
0.03255962
-0.00312197
-0.03884878
-0.03717193
-0.03180445
-0.02634105
0.00746509
-0.03974225
-0.01747050
0.00888269
-0.03671666
-0.03540869
-0.02000708
0.05004498
0.02773649
0.00015046
0.00024250
-0.04127714
-0.01295065
0.01867797
-0.02745562
0.04605128
0.09676051
0.02679650
0.00410871
0.06031282
-0.03158817
0.03488865
-0.00777474
0.04891067
-0.03137017
0.00518420
0.01836011
-0.00923260
0.01204371
-0.01298304
0.01350232
-0.00265396
-0.00624070
-0.02319176
-0.03868341
0.04757209
-0.02089678
-0.01065805
0.01219202
-0.03204365
-0.00147476
0.03249034
0.03090836
0.02848337
-0.01341674
0.02417905
-0.00013435
0.02744307
0.03834225
-0.02930114
0.00753842
-0.01216862
0.04040805
-0.06134240
0.02152993
-0.00741647
0.00951424
-0.09482319
0.04223199
0.07045003
-0.01159886
-0.03310868
0.06536593
-0.01223998
-0.04868130
0.02936934
-0.02481253
-0.06414811
0.03762512
0.02401272
-0.00485109
0.00489760
0.00112914
-0.02465795
-0.00940830
0.06237897
0.02104094
-0.01230933
0.07021680
-0.04366721
0.01628676
-0.00048626
0.03425051
-0.02881210
-0.02156275
-0.04660325
0.04693341
0.07035702
0.00635096
0.01987500
-0.07499398
0.00873056
0.01453222
0.00439967
0.02593574
-0.02144792
0.00695052
0.05333884
0.01676242
0.09253910
-0.02398270
-0.01504686
0.00195377
-0.08248605
0.02402604
-0.01802832
-0.00416393
0.04023290
-0.01530538
-0.00640400
0.02248297
0.01386779
0.06880731
0.02607013
0.04572670
-0.04675898
0.01156602
0.03220053
-0.05463798
-0.01428778
0.04239661
0.01682555
0.00909409
0.01651189
-0.01016291
-0.02480579
0.06294847
-0.02145618
0.01729805
-0.01376162
-0.09015735
-0.03624109
0.00854409
0.02574506
-0.02438156
0.01954192
-0.01426517
0.00115482
0.03057088
-0.00525679
-0.02209804
-0.04999017
0.07290568
-0.01834289
-0.04089727
0.01083053
0.03229935
-0.01774533
-0.01036349
0.04468392
0.01790612
0.01908991
0.01626192
-0.05608145
0.05868320
0.05126731
0.04570543
-0.00189193
0.01530379
-0.03024267
-0.00028276
0.02731171
-0.03650843
0.01285995
-0.04241430
0.01758580
-0.00593908
0.07977508
0.03271888
0.08505268
0.01954494
-0.05844472
-0.01646573
0.00409041
-0.02665316
0.01224202
0.04791715
0.01777893
0.02844077
0.04756035
0.02816751
-0.00749124
0.00046486
0.09801061
0.01513015
0.01920959
0.02463343
-0.03005647
-0.02119548
0.04933305
-0.01583209
0.00477607
0.02287139
0.01264877
-0.05932787
0.05121897
-0.00370779
0.01902549
0.01034495
0.01023372
0.08377531
0.02820889
-0.00450581
-0.01871752
-0.00228606
0.02008038
-0.05901274
0.01723632
0.02545290
0.01046580
-0.04087240
0.05363764
-0.00285425
-0.00131330
0.02446538
0.05083709
-0.01764752
0.02631421
0.04779909
-0.00036883
-0.04029482
-0.03608052
0.03170756
0.00471363
-0.04679484
0.01882588
0.05496992
0.03989618
-0.02122662
0.02444197
-0.02760701
0.03567299
-0.01375042
0.03836907
0.01681116
0.00148001
0.01192434
-0.03569443
-0.03680510
0.00144962
0.04623523
0.02377079
0.03101124
-0.05097143
-0.00236664
0.03523728
-0.00924668
0.05038638
-0.00129048
0.04508260
0.01373626
-0.04607672
-0.00084624
0.02512663
-0.02034062
-0.00510476
0.03082264
-0.03453630
-0.04899681
0.02903965
0.01225061
0.01699403
-0.05511155
-0.00742227
-0.03520733
-0.05232818
-0.03059050
-0.00434707
-0.07895321
-0.04104445
0.00416294
-0.04969507
0.01444767
-0.00667568
0.00645703
0.00478761
-0.05241736
0.02481523
-0.00439359
-0.03508395
-0.00184451
-0.02288402
0.00173555
0.00463224
0.00788212
-0.00548328
0.01509942
-0.00601130
0.01742155
-0.03271372
-0.03416977
-0.00649157
0.04489265
-0.02158822
0.04390276
0.00531884
0.02098658
0.06325261
-0.03855556
-0.03223278
-0.03629471
0.00227690
-0.01043809
0.06265633
-0.00851834
0.02351269
-0.01885680
0.00938366
-0.03526023
-0.00983016
0.03869811
0.01089472
0.01132207
0.02866587
-0.02377009
-0.01993724
-0.02333298
0.08015970
-0.00099473
-0.02323304
-0.02594348
0.02487230
0.01319914
0.08555537
-0.03818708
-0.01802121
-0.01437493
0.03754968
-0.04893976
-0.00037121
0.02290786
-0.00017191
0.07168978
-0.07772058
0.05224703
-0.01327692
0.00632353
-0.13068281
-0.01713514
0.00289700
0.01729497
-0.02719770
-0.03069110
-0.01704415
0.01640194
0.00930385
0.02524782
0.00117603
0.09877867
-0.04338452
0.00610565
-0.01182052
0.00527411
0.01321273
-0.04232467
-0.00574729
0.01202403
-0.02209056
-0.05037453
0.01999530
-0.01904115
-0.01449148
0.01962604
-0.00680040
0.00195610
0.03647776
0.07269963
0.01389673
-0.03764694
-0.02222952
-0.01995464
0.00261166
-0.03119563
-0.02695190
-0.02963563
-0.01946056
0.01419164
0.01253371
0.04954977
-0.02402496
-0.02466786
0.05529859
0.01318387
-0.09132665
-0.02511582
0.00960012
0.00717726
0.01132413
-0.00208297
0.03377019
-0.05276321
0.04162892
-0.00580234
-0.04608293
0.11603833
0.00003839
0.00316479
-0.04733917
-0.02419565
0.01955055
-0.01221605
0.00506660
0.02677081
-0.03511882
0.02227202
-0.02004012
