-0.10209475
-0.00469283
0.04331787
0.09400963
-0.10670719
0.07765881
-0.18839811
-0.08971651
-0.02338914
-0.04511086
-0.04245168
-0.10286445
0.13539720
-0.20966595
-0.12212952
0.01755930
0.14269784
0.07408515
-0.08054754
-0.26138192
-0.12544961
0.06029385
-0.17933691
-0.12675619
0.05783877
-0.13602665
-0.17563628
0.02702610
0.03836619
-0.02526031
-0.03249408
-0.02088401
-0.15893774
0.05881035
-0.10066130
0.03736526
-0.02023740
-0.02916189
-0.07934166
0.14888041
-0.00516602
0.05934918
-0.03225746
-0.07405841
0.03637152
0.03498623
0.01485114
0.04512601
-0.05111068
-0.06652751
0.05842197
-0.05185166
-0.24991995
0.32997909
-0.06746922
0.00329663
-0.07297868
0.14053071
-0.00651821
0.02314206
0.01844650
-0.05095538
0.17166911
0.12805447
0.02218619
0.03461500
-0.05689743
-0.07889911
-0.03296013
0.00339501
-0.06755067
-0.05506432
0.09622230
0.05335296
-0.07931160
-0.15189436
-0.08607625
-0.06091803
-0.03277767
0.03694688
-0.05825305
-0.04904170
-0.09000171
0.01898119
-0.08636270
-0.10914645
0.01000760
-0.02346762
-0.08688346
-0.02862114
-0.07436613
0.04037713
-0.41501874
-0.07420594
-0.02486229
-0.05870081
0.01225988
0.04766438
-0.04977203
0.00989332
0.00480870
-0.09001274
0.00327551
0.00715141
-0.09772764
-0.01866712
0.08691792
-0.02044238
-0.12925862
-0.06304015
0.03997822
-0.15647911
0.21446484
0.10303580
-0.10070106
-0.04129807
-0.11795793
-0.10134853
-0.01052139
-0.05653668
0.01897813
0.21436049
0.00326375
-0.08239172
-0.07649820
-0.01341317
0.00270762
-0.06024229
-0.08492360
0.03285424
0.01596099
-0.15983145
0.05624925
-0.08376507
0.03018681
0.06403579
0.13507356
0.04308998
0.11354914
0.23064610
-0.01847771
-0.03560779
-0.01058719
-0.05350890
-0.13399443
0.41741130
0.01573605
0.04362197
-0.07088248
-0.07980509
-0.08278786
-0.11233188
0.01885707
-0.05129258
-0.04110612
-0.03128409
-0.14848718
-0.14023577
-0.07447696
-0.18019739
0.08480614
-0.12035770
-0.02303574
-0.04235661
-0.08756234
-0.08017608
0.02887401
0.06972246
0.12646250
0.04015290
-0.08214286
-0.10888900
-0.13627422
-0.13439752
-0.04399521
-0.29701963
-0.02856895
-0.11541385
-0.12579727
-0.02598780
-0.00431807
0.02382758
-0.21549919
-0.16682105
-0.13301753
-0.04602016
-0.14004655
-0.25201601
-0.06725586
-0.02193376
0.09531158
0.12122921
-0.31032735
0.10385205
0.04632866
-0.04098891
0.00823300
-0.10532657
0.00598063
-0.07717640
-0.03876510
-0.20970692
-0.15076278
-0.15216678
-0.02139833
-0.11770227
-0.15295850
0.04727609
0.01061379
0.02786236
-0.00021184
0.00484020
-0.13714845
-0.11200739
-0.05757751
0.15993239
0.00482289
0.01098184
-0.22964878
-0.11396478
-0.11615299
-0.16968349
-0.11042429
0.12966488
-0.08199777
-0.07769068
0.00028876
0.07788156
-0.02403127
-0.07444458
-0.09033950
-0.00111931
-0.09173638
-0.01791650
-0.07822241
-0.09774335
-0.09606081
-0.13199483
-0.08086096
0.09184282
0.03039067
-0.06301016
-0.07413960
-0.15235715
-0.00762356
-0.19368915
0.10167410
-0.05925066
0.06812886
-0.03601335
-0.15694892
-0.24974231
0.03037249
-0.00197927
-0.02640961
0.03935873
0.12880187
0.03209965
-0.08739369
-0.04418661
-0.11061446
-0.02353132
-0.09307119
-0.07281408
-0.26216155
-0.12709343
-0.03180158
-0.07469055
-0.04067615
-0.04340258
-0.09399273
0.01378987
-0.02626632
-0.01315861
-0.01248302
-0.10319950
-0.03160125
0.05906398
-0.02868462
0.03799922
-0.09235063
-0.05761854
-0.03055160
-0.06111443
0.01923650
0.10570893
-0.00634317
-0.07256354
-0.07107969
-0.05093062
-0.03451352
-0.19531864
0.06103764
-0.01567604
-0.03116772
-0.01688355
-0.00978798
-0.30035678
-0.01215008
0.00811733
-0.06213279
0.06551479
-0.01220254
-0.10273253
-0.24502425
-0.06883667
-0.13735689
0.04529582
-1.32498622
0.02672877
-0.07632151
-0.06095638
0.03016702
0.03352557
-0.14786413
0.03967427
-0.08115791
0.05325214
-0.04118703
0.02336448
-0.04739220
-0.00001534
-0.08905745
-0.02250129
-0.09765834
-0.14454103
-0.06395777
-0.04947316
-0.02989711
-0.08171798
0.00570120
-0.10018394
0.07603744
-0.04846465
-0.03929967
-0.10338752
-0.02635182
-0.12771465
-0.03600615
-0.11973464
-0.07784588
-0.10190395
0.03867096
-0.11264346
0.05859967
-0.07233134
-0.04703240
0.08340404
0.08578596
0.05035875
-0.00354400
-0.05944313
-0.02618262
-0.17171359
0.00835959
0.06414318
0.05055271
0.06645200
0.03770152
0.00099548
-0.12990269
0.03013826
-0.01701803
-0.04063646
-0.00472584
-0.10636453
-0.01286671
-0.04022346
-0.04659348
-0.16788904
0.07969200
-0.03936544
-0.08993434
-0.09257990
0.00339020
-0.00487366
-0.00996103
0.00607501
0.00797653
-0.04725714
-0.07225740
0.14410855
-0.09307378
0.08689781
0.02930630
-0.01286554
0.05265054
-0.07183578
-0.04682857
0.05545503
-0.02655857
-0.03546316
-0.20394783
-0.17123577
-0.10444292
-0.09504538
-0.09278939
-0.03181264
-0.05377229
0.01087933
-0.12068169
0.05970602
-0.05095900
-0.01881160
-0.12504838
0.01375934
-0.08535316
0.02245957
-0.05651761
-0.04532630
0.08031866
0.00298471
-0.00822731
-0.02316830
0.03591822
-0.01632542
-0.07329020
-0.02863353
-0.07938015
-0.01999734
0.10108879
0.04784349
-0.09675658
0.04522899
0.02519585
-0.06531477
-0.08324920
0.00032327
-0.07923837
-0.00411124
-0.07171272
-0.01213224
-0.01035410
-0.05022038
-0.06982441
-0.08097602
-0.04756159
-0.03933982
0.04118321
0.01333648
-0.05874451
-0.04918111
-0.00582314
0.27670410
-0.00128789
-0.08855203
0.07083184
0.01243033
0.02946185
-0.04709529
-0.00470193
-0.06504329
-0.17981994
0.04366404
-0.06053019
-0.01565527
-0.05917244
-0.05664961
0.04272295
0.03889421
-0.12159415
0.09410620
-0.10753483
-0.11490414
-0.15019317
0.14122845
0.07886934
-0.18303992
-0.11940348
-0.01210610
-0.07909109
0.01497590
0.01255129
-0.00035970
-0.08446747
-0.13031480
0.10684811
0.00549474
0.04518088
-0.00180998
0.06970873
-0.09841997
-0.20524837
-0.04936815
-0.02636240
-0.05873708
-0.05460497
-0.12136621
0.06254266
0.02060146
0.03546524
0.09130926
-0.13288917
0.08117992
0.15207583
0.00127891
0.25053611
-0.06467382
0.04687707
-0.03524715
0.01083520
-0.08830513
-0.05204360
-0.06487142
-0.07489774
0.00046013
-0.15308778
-0.00946428
0.08007706
-0.06762510
0.01180656
0.08400393
-0.20734273
-0.06370059
0.06208770
-0.13165586
0.01650175
-0.02320261
0.09321482
-0.02142948
0.04291737
-0.10142723
-0.06375308
-0.00754164
0.04742062
-0.05851294
-0.05903573
-0.03863041
-0.05903284
0.01626829
0.01050729
-0.00321078
-0.10650884
0.02210692
-0.00571263
-0.00888916
0.05065935
-0.13311541
-0.07032984
-0.14177167
-0.16190492
0.24348499
0.01828078
-0.10956902
-0.05232091
-0.03599649
0.14340608
0.12068596
-0.11685361
-0.19893046
-0.06675058
0.01824126
-0.07016444
-0.08094491
-0.06549557
-0.02219116
-0.10244667
-0.12135162
-0.06908161
0.01457859
-0.06197203
0.10903400
0.11420381
0.02850425
-0.07169997
-0.05960593
-0.06690446
-0.03345915
0.06070789
-0.03216315
-0.08169442
-0.00466852
-0.02248707
0.10789435
-0.11268000
-0.03399147
-0.06703421
0.06925287
-0.02579667
-0.06702921
-0.07321692
0.05862411
-0.20197827
-0.10261855
-0.02707977
-0.10803853
-0.22705470
-0.05698889
0.04615062
0.00989123
-0.05228670
0.09495527
-0.09929653
-0.08058761
-0.13077779
-0.05016535
-0.07498908
-0.08239553
-0.06338846
-0.07007565
-0.07587263
-0.11230257
-0.00420385
-0.01594544
-0.05887384
-0.13508128
-0.15725847
-0.09892131
-0.06558277
-0.04092726
-0.05393372
-0.08148742
-0.04732967
-0.06568033
-0.19428390
-0.04410866
-0.11597104
-0.01750183
-0.09506498
-0.17227191
-0.05362768
0.01953105
-0.08494248
-0.05044996
-0.03016276
0.00148272
-0.03852020
0.01015033
-0.06033932
-0.00901646
-0.07071997
-0.04753655
-0.01065114
-0.03989362
-0.09954872
-0.02696343
-0.05831487
-0.07043976
-0.10040382
-0.10743784
0.01410336
0.00459246
-0.09528348
-0.04797835
0.07216717
0.00667517
-0.17433691
-0.04052025
-0.04101023
-0.10527182
0.02787846
-0.03324653
0.03124815
-0.09570003
0.38068923
-0.07019359
0.03177391
0.00696000
-0.03665261
-0.10275254
-0.02831463
0.00705460
-0.09500170
-0.08635766
-0.08164600
0.06975147
-0.05089755
0.16505970
-0.07501798
0.00891636
0.12927794
-0.16738853
-0.03625765
0.00743640
-0.03790649
-0.12819825
-0.22830898
-0.12495816
0.00513118
0.11269136
-0.09694951
-0.04077649
-0.20326377
-0.02972291
-0.05196598
0.05551237
-0.10230879
0.05251561
-0.01626605
-0.06196004
-0.07857665
-0.19023468
-0.01487640
-0.00727484
0.02221660
-0.16836743
0.01596146
-0.01369334
-0.06631827
-0.02088072
-0.13929863
-0.07471915
0.16219765
-0.13642624
0.05042659
-0.09285203
-0.09943469
-0.14887497
-0.02418762
0.06199652
0.02088580
-0.12330853
0.05663624
-0.02723247
-0.00952531
-0.14143531
0.02229074
-0.04376071
-0.02829026
-0.08724352
-0.02628949
0.05362459
-0.11533886
-0.07301743
-0.14106104
-0.03438397
-0.00192937
-0.06633197
0.08081403
-0.07574771
0.00576761
-0.08981708
0.03057100
-0.06992657
-0.21888451
-0.08207291
-0.04566329
0.07949239
0.05834069
-0.05854204
0.01865605
0.02150700
-0.16860591
0.02870025
-0.08704779
-0.04637113
-0.04015894
-0.05680543
0.03311284
-0.09963746
-0.02613766
0.03348044
0.00487643
-0.20366868
-0.01562422
-0.09218518
0.12703876
-0.11242499
0.07573451
-0.12334382
-0.09684336
-0.04391314
0.01368507
0.04054653
-0.06877024
-0.10657965
0.00452051
0.02831820
