-0.04829721
0.19765286
0.02195277
0.02946691
0.04432141
0.03874813
-0.05272300
0.05652222
0.01929940
0.08736385
-0.00970789
0.03802745
0.04030492
-0.10673664
-0.12327445
0.07071745
0.23325157
-0.05274827
-0.04699891
-0.03964962
-0.06204536
-0.09608507
-0.01272019
-0.05937101
0.01794150
0.01752057
-0.14953594
0.08907983
-0.11159705
-0.04762108
0.04951928
-0.01971436
0.04183999
-0.00348388
0.00330135
0.12080781
0.01621531
0.06159699
-0.04650865
0.01917322
-0.02489850
0.04258993
-0.01033092
-0.03121510
0.02865474
-0.04829118
0.03342997
0.11393097
0.05981581
-0.11047136
-0.07591308
-0.02103481
0.09622147
0.14444204
0.00384299
-0.03305061
-0.03500328
-0.03057320
0.04514208
-0.16666874
-0.05445577
0.04781251
-0.24744786
-0.12170541
-0.00938885
0.06322309
-0.10654538
-0.02454135
-0.00322077
0.10919943
-0.13950959
0.04362159
-0.02935127
-0.02437875
0.07158045
0.00054912
0.02214790
0.11152107
0.08662503
0.08668336
0.04992155
-0.04707968
-0.01180661
0.09219782
0.05065965
-0.13406160
-0.01057780
0.04225804
-0.04797705
0.05374420
-0.03798934
-0.04445323
-0.24580632
-0.07267002
0.08152802
0.06267942
0.17124161
0.01240144
0.03777627
-0.03099999
-0.01607252
0.00947233
0.00726773
-0.00729223
0.08298111
0.16293310
-0.02575391
0.02012349
-0.07906409
-0.12378950
0.02780745
-0.12449278
0.01812229
0.06835508
-0.09786914
0.05030109
-0.06536905
0.04539083
-0.04438495
-0.01018000
-0.05101198
0.33764407
-0.07616642
0.02830402
0.07095997
-0.04796268
0.04215059
0.03196559
-0.00391619
0.12507300
0.01870641
-0.08710522
0.13062419
-0.02002914
0.04757042
0.03404516
0.06901630
-0.07103453
0.00709914
0.32620206
-0.00736501
0.06739195
0.07702576
0.04492613
-0.06031973
-0.18927917
0.07283945
0.14496921
-0.03466595
0.07862416
-0.02568196
0.05179325
-0.05893714
0.07834452
-0.00995299
-0.07710616
0.03150814
0.02744101
0.05684538
0.09828316
0.09387074
-0.03298998
0.02208004
0.07251164
-0.01321278
0.09577780
0.09391952
-0.07659062
0.26679626
0.05331313
0.01922072
0.03827669
-0.02508375
0.02785442
0.02497485
0.15342323
-0.00102373
-0.08455937
-0.06055974
-0.06293876
0.04587349
0.02102966
-0.07041434
0.01538131
-0.04782714
0.06372061
-0.00553550
0.01922406
-0.01783476
-0.05642322
-0.02918818
0.04780425
-0.06205324
0.00837635
0.04798036
0.04441381
-0.02150485
-0.01216448
-0.07772809
0.01002804
0.01992958
-0.04044120
0.02657342
-0.03445139
0.04676624
-0.08269709
-0.02506044
0.06719668
0.02891716
0.08229341
0.13524601
-0.01722834
0.00149162
-0.04189356
-0.01780915
-0.04919561
-0.18246125
-0.01671046
-0.03397830
-0.05737171
-0.02192052
-0.00229709
-0.05099290
-0.01794293
0.12254401
-0.15821162
0.01989652
0.15745986
-0.03969930
-0.04780233
0.04067501
-0.05340432
0.08047652
0.05033658
0.02183066
0.00579697
-0.00808325
-0.01162431
-0.02546331
0.16072220
-0.01710824
-0.03508939
0.01597652
0.02081914
-0.01620350
-0.44519368
-0.12791204
-0.00582902
0.08061094
-0.18067022
0.00302305
0.04519512
-0.05812132
0.06261241
0.03780780
0.03145862
-0.01255760
0.07518154
-0.01909417
-0.02322515
-0.01723435
-0.07427961
0.09239727
0.00498296
-0.06412625
0.04589371
-0.04343465
0.02591426
0.05441220
0.01371373
0.02845082
-0.05028169
0.02547910
0.10676382
-0.02148003
-0.09606820
-0.05310737
0.04664782
0.03258617
0.03912366
-0.06204055
-0.02342920
-0.05047532
-0.26459792
0.00402072
0.07637913
0.00164640
-0.03368470
0.00540702
0.03476640
-0.02752170
-0.05466475
-0.04938354
0.00451291
0.09812339
-0.06230342
-0.10711662
-0.03824748
-0.00536591
-0.00731394
0.05388777
0.09344316
0.12619264
0.01669463
-0.06747522
0.07669520
-0.09094213
0.00598813
0.06521760
0.03289748
-0.09280928
0.13314463
-0.02997058
0.09513325
-0.08291443
0.04944216
-0.00388371
0.00669158
-0.05736295
0.15333624
0.04476499
0.05932394
0.04743450
-0.14227325
0.00548583
-0.08016818
-0.04470360
-0.03630641
-0.05192365
-0.01223391
0.06606935
-0.52480894
0.04043015
0.09552950
-0.04599536
-0.00641629
-0.00603149
-0.07727316
0.01541010
0.01516898
-0.16595724
-0.04590610
-0.06625076
0.06959745
-0.04377918
0.23871809
-0.02517127
0.02113554
0.18794160
-0.00537507
0.08538622
0.02394441
-0.04058019
-0.25423732
0.00715718
0.09121046
0.00652670
-0.00860555
-0.00472548
-0.07037817
0.04090078
-0.00642374
-0.07835890
-0.01762230
0.02515890
-0.03351511
-0.09192648
-0.03506649
0.00281296
-0.10442538
-0.03753174
0.13369094
-0.03740610
0.08255625
0.00288480
0.07896975
0.00902769
-0.08767866
-0.04193876
0.00048443
0.01837466
0.03982345
-0.00036232
-0.05858298
0.08027779
0.05735873
-0.08168320
0.05253825
-0.09264731
-0.00763252
-0.03489947
-0.05540524
-0.01094797
-0.17826459
0.04316781
-0.01256372
-0.04767985
-0.07958006
0.10868021
0.09208501
-0.05525003
0.13352042
-0.06968900
-0.07013199
-0.05879692
-0.06411533
-0.01084892
-0.04697062
-0.04616312
-0.10023879
-0.00593937
0.06818850
0.05534473
0.08958776
-0.02100550
-0.01050397
0.02542168
0.10878231
0.04085407
0.11475638
0.02560509
-0.12194347
0.03068393
0.06263137
0.09588137
0.05020108
-0.08099915
-0.03027810
0.00091150
0.02205403
0.03976627
0.02259230
-0.06681424
-0.12760890
-0.04814250
0.01215032
-0.08053949
-0.02133885
-0.02676203
-0.01454265
-0.02289530
-0.01831692
0.07682755
0.07653237
0.04354757
0.03279331
0.00296231
0.08866585
0.02698298
-0.12380105
-0.06654937
0.00242334
0.02682132
0.00847931
0.01846195
0.04835892
-0.01897472
-0.03033720
-0.02606302
-0.00824170
-0.02593796
0.04723073
-0.10297565
-0.02408380
-0.01371221
0.03820646
-0.02432683
-0.13834205
-0.09546462
0.11782926
-0.01400823
-0.00685224
0.01860043
0.01882960
-0.04584809
-0.07727373
-0.09087458
-0.00191003
-0.02759563
-0.02733625
0.03785217
-0.05600297
-0.39746618
-0.14669383
-0.09829985
0.00668279
0.05760430
-0.02524651
-0.11904290
0.04765683
0.00159968
0.02089068
-0.05667160
0.11521120
0.00164658
-0.10091309
-0.11223784
-0.02620423
0.04980571
0.08352581
-0.03553103
0.02958687
-0.01403252
-0.01371928
0.09318616
-0.03537741
0.00310772
-0.00760683
-0.13071541
-0.01743240
0.01732250
-0.00082960
0.01418983
0.00862339
-0.07766160
0.01230236
-0.12948775
0.08888974
0.02125004
-0.01953618
0.07790101
-0.05312165
0.02397824
0.10315348
-0.05281611
0.04791228
-0.04881911
-0.04285709
0.00571118
0.15442547
0.04998841
-0.05289424
-0.00063340
-0.08780717
-0.03089156
-0.03582102
0.02919560
0.03121724
-0.01425494
-0.10760047
-0.02077479
0.04763706
0.01577260
0.08143117
-0.06743152
-0.14318211
0.02974382
0.00161671
0.00717754
-0.01272611
-0.04928395
-0.01855158
-0.01020961
0.00873263
-0.00767810
-0.01108701
-0.07900036
0.00874198
-0.03340689
0.01475362
-0.01498487
0.02430769
0.00107536
0.03308314
-0.03233735
-0.01265783
0.00969549
-0.00995306
-0.00928651
0.03501709
0.12798168
0.10051230
0.03079090
0.02997916
0.00919182
0.02419495
0.01073962
-0.21059315
0.03535988
0.06027244
-0.17330284
0.09944728
0.05952885
-0.14829256
0.02568599
-0.09934890
-0.00302320
0.05673832
0.01725400
0.18236248
-0.00156008
0.03662431
-0.05672961
0.04891882
-0.00352537
-0.09853256
0.01237674
0.01964114
0.03523095
-0.05915770
0.00279974
0.05360254
0.03966071
0.09629296
0.00163879
0.01656209
-0.07329978
0.25781941
0.02284349
0.05277225
0.02919007
0.09587607
0.09817884
-0.11326952
-0.33066005
0.05451477
0.01910645
0.00845163
-0.09538854
-0.10164062
0.04125443
0.07526452
-0.07199471
-0.00390438
-0.08477122
0.12545723
0.10209634
-0.05477386
0.04684910
0.07312219
0.03650177
-0.12760635
-0.04795374
0.05615518
-0.10474548
-0.01728179
-0.06007836
0.08862967
-0.12834509
0.09429143
-0.00686929
-0.08854143
0.06920218
-0.14640705
0.06569993
0.03897198
-0.02385583
-0.09358658
-0.00141513
0.04645562
0.11757766
0.07180349
0.09806196
0.07684825
0.12103881
-0.12696739
-0.09132205
-0.04854072
0.06406666
-0.07681099
-0.01133106
0.03983153
-0.05394700
0.03954436
-0.00745022
0.01147784
0.02023196
-0.00237890
0.00005599
-0.04283777
-0.21903449
0.00282028
0.00357814
-0.09806353
0.05686390
-0.14077860
-0.00813945
0.02686292
0.01703862
0.00527247
-0.06238142
-0.03629526
-0.00735112
0.01516455
0.06413404
-0.00802454
-0.04012874
0.04357637
-0.01864333
-0.08033466
0.00083245
-0.08451539
0.05630191
0.06358805
0.12424852
-0.00090678
-0.05948175
-0.00619194
-0.18346938
-0.19915754
0.02223739
-0.10033557
-0.01227095
0.06253539
-0.00023040
-0.06838550
-0.00586558
-0.15526317
0.03827886
0.05394353
0.12049594
0.04362386
-0.06388586
0.07074318
-0.13686626
0.03448001
0.08041284
-0.05678037
0.05504980
0.01520747
-0.04727711
0.00365793
-0.04857419
-0.07109954
0.04859738
-0.00860739
0.04123816
-0.11419425
0.10073716
-0.02399714
-0.00568860
0.02660011
0.07385705
0.10138869
0.03006815
-0.04046560
0.03692062
0.02042637
0.04811775
-0.05973634
0.06417207
0.02139199
0.01259610
0.07344549
-0.02297171
0.04140680
-0.05915733
-0.19166872
0.06778263
-0.03269766
0.09491583
-0.05509273
-0.08532077
0.06657222
-0.07077125
0.06264643
-0.06548919
-0.02896706
0.21001951
-0.11077812
0.01706941
0.13733265
0.01406229
-0.04193917
-0.05396104
0.03346153
-0.00919346
-0.00945390
