-0.00588812
-0.00235446
0.00281255
0.00172826
-0.00546282
-0.00175705
-0.00444307
-0.00382957
-0.00218863
0.00745863
0.00438619
0.00131727
-0.00359019
0.00176670
-0.00632263
-0.00451220
0.00680421
0.00640538
-0.00518273
0.00406317
0.00050171
0.00206796
0.00320885
0.00054359
-0.00475209
-0.00070855
0.00043173
-0.00793962
0.00120713
-0.00331387
0.00295119
0.00206841
0.00139769
0.00503114
-0.00312427
-0.00437615
0.00065590
0.00078077
-0.00581415
-0.00196768
-0.00191464
0.00291445
0.02214396
-0.00092073
-0.00017721
0.00009043
-0.00674992
-0.00103664
-0.00129778
0.00073433
-0.00086869
0.00336408
-0.00023917
-0.00351952
-0.00060131
-0.00150350
-0.00280898
-0.00098223
0.00586886
0.00216873
0.00217718
-0.00346456
-0.00133595
0.00433585
0.00003970
0.00061167
-0.00346297
-0.00029161
0.00021361
0.00015145
-0.00092045
0.00124466
-0.00061202
-0.00161046
0.00048499
0.00035727
0.00243801
-0.00168944
-0.00047719
-0.00153807
0.00147952
-0.00062338
0.00135421
0.00353422
-0.00122686
-0.00045192
-0.00021215
0.00069202
-0.00023174
0.00057781
-0.00292374
0.00150946
-0.00258974
0.00243289
0.00115150
0.00089717
0.00312182
0.00147381
0.00045890
0.00350362
-0.00142170
-0.00028320
-0.00054303
0.00378690
-0.00346993
0.00086423
-0.00138153
-0.00190530
-0.00181710
-0.00097368
0.00002567
-0.00114428
-0.00005296
-0.00210181
-0.00150949
0.00319352
-0.00020318
0.00393027
0.00079365
0.00132813
0.00221737
-0.00107342
-0.00587102
0.00122674
-0.00374686
0.00078606
-0.00164749
-0.00173847
0.00529087
0.00071213
-0.00054243
-0.00468875
0.00446028
-0.00341731
-0.00254553
-0.00368781
-0.00337898
-0.00350746
-0.00368897
0.00154510
0.00055498
-0.00026449
0.00230797
-0.00105568
0.00860600
-0.00093841
0.00021885
0.00366453
-0.00136948
0.00401709
-0.00015297
-0.00208281
0.00216963
0.00033936
-0.00006099
-0.00596642
-0.00371260
-0.00072651
-0.00791416
-0.00129226
0.00193763
0.00648047
-0.00046506
0.00851792
0.00354207
0.00002333
-0.00021851
0.00421300
-0.00244242
0.00072536
-0.00159438
0.00070852
0.00797122
0.00248079
-0.01101597
-0.00009264
-0.00114857
-0.00253127
0.00011961
-0.00142367
-0.00502116
0.00107493
0.00203394
0.00683918
0.00266594
0.00335336
-0.00264983
-0.00526781
0.00265690
-0.00110839
-0.00144496
0.00167531
0.00033467
-0.00262194
0.00542735
-0.00799147
-0.00266205
-0.00583532
-0.00205217
-0.00520413
0.00377188
-0.00073702
-0.00353710
-0.00241388
0.00159800
0.00165334
0.00092431
-0.00450885
0.00579486
0.00459589
0.00209755
-0.00196739
0.00533745
-0.00833284
0.00100998
-0.01015787
-0.00110022
0.00699159
-0.00836432
-0.00417558
0.00622754
-0.00624870
-0.00042563
-0.00509515
0.00870113
-0.00355131
-0.00174266
-0.00350968
-0.00319094
0.00126569
0.00283705
-0.00674452
0.00699334
-0.00306052
0.00103814
0.00451016
0.00275735
0.00216050
-0.00552347
-0.00150261
0.00130273
0.00048727
0.00767366
0.00834166
0.01745222
0.00366471
0.01062001
-0.00031829
-0.01680403
0.00375520
-0.00722688
-0.00106024
-0.00431106
-0.00310807
-0.00076585
-0.00593637
-0.00109346
0.00728721
-0.00490362
0.00039335
0.00127299
-0.00052903
0.00223082
-0.00154506
0.00197310
-0.00174025
0.00113743
0.00030562
-0.00201274
-0.00058999
-0.00157383
0.00025114
0.00086850
-0.00099843
0.00367186
-0.00412635
0.00390053
-0.00100598
0.00239089
0.00082830
0.00121107
-0.00118459
0.00210132
-0.00013911
-0.00129038
0.00356118
-0.00599816
-0.00225392
0.00166542
-0.00290793
0.00384916
-0.00152059
-0.00422375
0.00483966
0.00507422
-0.00041993
0.00422660
0.00054348
-0.00429771
-0.00642309
0.00175314
-0.00483124
-0.00102595
0.00134490
0.00187812
-0.00040895
-0.00017169
0.00151963
0.00158146
0.00141774
0.00282476
0.00884995
-0.00134626
0.00311129
-0.00138106
0.00501686
0.00164934
0.00188479
0.00106391
0.00321431
-0.00303684
0.00410476
-0.00836007
0.00518435
0.00163558
-0.00466804
-0.00012132
-0.00062347
-0.00873268
0.00560619
0.01466962
-0.00326446
-0.00665384
-0.00338927
0.00046289
0.00010924
0.00740629
0.00669705
-0.00405696
-0.00398668
-0.00482860
-0.00501431
-0.00296978
0.00285257
0.00353252
-0.00290379
0.00888892
0.00541070
0.00771462
-0.01691794
-0.00545086
0.00495703
0.00384113
0.01115637
0.00403957
-0.00518680
0.00236732
0.00079514
-0.00833444
0.00317949
-0.00986504
0.01319315
-0.01517574
-0.00376098
0.01053888
-0.00156944
-0.01112579
-0.00168425
-0.00243855
0.01371886
0.00038691
0.00465914
0.00473612
0.00072026
0.00851551
-0.01006611
0.00562951
0.01743722
-0.00056694
0.00474633
0.00352489
-0.00510648
0.00638490
0.00289331
0.00700103
0.00095507
-0.00126131
0.00014712
0.00803342
-0.00549779
0.00132666
-0.00207988
0.00375020
-0.00642371
-0.00007720
0.00148855
-0.00745725
0.00182498
0.00179260
0.00137465
0.00156350
0.00397479
0.00287972
0.00192269
-0.00191385
-0.00839140
-0.00281343
-0.00156627
-0.00423220
-0.00699269
-0.00354674
0.00174209
0.00421317
0.00599701
0.00751630
0.00437281
-0.00256010
-0.00726487
0.00235641
-0.00492484
-0.00550483
-0.00153286
-0.00124126
0.00221526
0.00377982
0.00006990
-0.00658043
-0.00188937
0.00379738
0.00054522
0.00448675
0.00170290
0.00250565
-0.00368561
0.00195596
0.00350390
-0.01233580
0.00691979
0.00214146
-0.00289668
0.00479074
-0.00037231
-0.00442313
0.00801922
0.01046450
-0.00274924
0.00243135
0.00527530
0.00079398
0.00086194
-0.00138898
0.00150805
-0.00112294
-0.00248873
0.00160451
-0.00637687
-0.00527928
-0.00419699
0.00952723
-0.00158281
0.00182075
-0.00031064
0.00185559
-0.00668972
0.01014123
-0.00146182
-0.00105582
0.00513456
-0.01146390
0.00433141
0.00770162
-0.00243436
-0.00317697
0.00056027
0.01163878
-0.00790900
0.00253550
0.00449211
-0.00454104
-0.00253416
0.00719556
-0.00076082
0.00408464
0.00087705
0.00698308
0.00272600
-0.00191522
0.00258651
-0.00901844
-0.00116310
0.00195050
0.00362140
0.00665849
-0.00189082
0.00384362
0.00060162
0.00233948
-0.00138342
-0.00437559
-0.00174831
-0.01257370
-0.01476535
0.00309757
-0.00778380
0.00576765
0.00158783
-0.00582080
-0.00323091
0.00262698
-0.00007852
0.00101780
0.00341558
0.00500999
0.00500473
0.00090863
0.00967287
-0.00234910
-0.00126982
0.00271550
0.00094094
0.00307952
0.00751837
-0.00650503
-0.00622740
-0.00028978
-0.00448234
-0.00103711
-0.00189538
-0.00255386
0.00000401
0.00091531
0.00459042
0.00033240
-0.00528655
0.00496091
-0.00079136
-0.00194428
-0.00056913
0.00657951
-0.00351053
-0.00372434
-0.00500744
0.00126312
-0.00510587
0.00022085
0.00975464
0.00645293
-0.00320337
-0.00038755
0.00561416
-0.00544698
-0.00166459
-0.00452703
0.00158084
0.00691822
-0.00411204
0.00002550
0.00203256
0.00694645
0.00414327
-0.00151186
-0.00492892
0.00788608
-0.00911430
-0.00774489
-0.00225994
-0.00038198
-0.00222688
0.01234656
-0.00130874
0.00453966
0.00207080
0.00591592
-0.00119247
0.00160970
-0.00542760
0.00639203
-0.00199013
0.00295319
-0.00453403
0.00227013
0.00150799
-0.01751686
0.00316841
0.00225893
0.00108969
-0.00541496
-0.00632098
0.00306770
-0.00307066
-0.00444233
-0.00122291
0.00150307
0.00034953
0.00461703
0.00080572
-0.00974405
0.00277130
-0.00729195
-0.00052921
0.00511467
-0.00363481
-0.00116419
0.01186026
-0.00124532
-0.00321038
0.00432277
-0.00961737
0.00143885
-0.00353782
0.00441960
0.00508347
0.00383078
0.00519740
-0.00734275
0.00038784
0.00614248
0.00752548
-0.00518909
0.00090472
0.00470081
-0.00521570
0.00014734
-0.00056071
0.00056953
-0.01517246
-0.00926312
0.00708782
0.00201187
-0.00109780
0.00670605
0.00093553
-0.00154342
0.00082117
-0.00201248
0.00639831
-0.00090511
-0.00016514
0.00240478
-0.00271774
-0.00279004
0.01041820
0.00441523
-0.00419279
-0.00150864
-0.01145441
-0.00551377
-0.01751060
-0.00553101
0.00259346
0.00141719
0.00319174
0.00382855
-0.00442961
0.00041385
0.00551270
0.00169223
-0.00276673
-0.01046266
-0.00075925
0.00128526
-0.00063388
0.00937967
-0.00399487
-0.00331668
0.00265946
0.00074751
-0.00115833
0.00013692
0.00533210
0.00518540
0.00654695
-0.00113884
0.00159448
-0.00139550
0.00624961
0.00207146
0.00382239
-0.00069512
-0.00387116
0.00043846
0.00167868
0.00450923
0.00397874
-0.00450626
-0.00290728
-0.00716446
-0.01583518
-0.00454334
0.00850984
-0.00283903
0.00314014
-0.00321632
-0.00075897
0.00413686
-0.00386322
-0.00500458
-0.00310756
-0.00720931
-0.00349331
-0.00233944
0.00483289
0.00061326
-0.00403762
0.00224332
0.00659091
-0.00486361
-0.00370766
-0.00401093
-0.00151440
-0.00367461
0.00327213
-0.00123136
0.00274589
0.00551125
0.01234341
0.00136537
-0.00231774
0.00097935
0.00060684
-0.00118988
0.00561144
0.01020556
0.00501538
-0.00519473
0.00356196
-0.00695446
0.00680223
0.00110603
0.00177058
-0.00323809
0.00048930
0.00212359
-0.00092616
0.00207154
-0.00653868
-0.00076880
0.00341714
0.00456477
0.00518102
0.00410225
0.00941066
-0.00586442
0.00316906
-0.00556118
-0.00483085
-0.00224543
0.00428313
0.00928846
0.00883407
-0.00920444
0.00339116
0.00574728
-0.00116299
0.00235107
0.00018060
-0.00472000
-0.00605960
0.00501255
-0.00155191
-0.00462081
0.00360972
0.00073027
-0.00557934
-0.00130325
0.01315717
-0.00346660
-0.00039265
