0.07131936
-0.13485743
-0.05318912
0.00183551
0.12621227
-0.02414924
0.00034476
-0.00450989
-0.08126757
-0.21949552
-0.07414341
0.10215789
0.09695625
-0.15517464
-0.04120420
0.03716861
-0.06886370
-0.06149559
0.11375316
-0.03297954
0.11283803
-0.17043667
0.10483196
0.01826817
0.04287631
-0.15476596
0.01489998
-0.00107459
-0.03694490
0.08104139
-0.05427714
-0.23039269
-0.04536273
-0.08134820
0.11520357
0.11989197
-0.00092945
-0.02561574
0.05489105
0.01706974
-0.06953650
-0.13887340
0.07652757
0.03685993
-0.04826735
-0.09700228
0.28680336
0.04902180
0.10820869
0.02382052
0.01820299
0.09371503
-0.15236695
-0.05650413
0.02560141
0.10241926
-0.02318813
0.03666636
0.09719343
-0.11146863
0.03109354
-0.03009667
-0.04753124
-0.04623166
0.03405688
0.06059114
-0.11441665
-0.05662984
0.05633985
0.03739170
0.14750996
-0.05320289
0.03145346
-0.06082013
0.04996515
0.03576219
0.11075112
-0.14575648
0.06289314
-0.02257702
0.05456240
0.19958937
0.19430634
0.04553360
-0.03522626
-0.06839310
0.00859082
0.10148333
0.03185311
-0.08403087
-0.12761201
0.08592774
0.01285771
-0.07261494
0.20516017
0.14583193
0.15893966
0.22028555
0.03692625
0.08742270
0.09630539
0.06689070
0.05981152
0.02430375
-0.13545698
0.11989958
-0.10196369
-0.19949655
0.04199778
0.19109093
-0.02500261
0.03717034
-0.24050193
0.02310348
0.00950998
0.01977721
-0.07001023
-0.11343808
0.20056321
0.08931905
-0.00756046
-0.16263297
-0.30299595
0.08284452
-0.31728393
-0.16818757
0.13063595
-0.02845545
-0.26244742
0.41170186
0.12350547
-0.19131660
0.12601875
0.22361906
0.18642102
0.09210881
0.41714558
0.21255253
-0.23873791
0.13626428
0.05622810
0.37945741
-0.49360844
0.19844367
-0.41013959
0.14045857
0.32275450
-0.16935605
0.03685417
-0.08349452
0.32502943
-0.27115718
-0.36788234
-0.13758397
0.13201067
0.25089869
0.00123650
-0.08870339
0.16864321
-0.48378533
-0.06200688
-0.09035677
-0.37221962
-0.26671916
-0.11085302
0.50111002
-0.07984883
-0.41354454
-0.03348636
-0.26125300
0.10908366
-0.06095230
-0.11332169
0.10445770
0.35092852
0.29767072
-0.03964557
0.24012937
-0.04866935
0.44303140
0.12827365
-0.06979964
-0.45086747
-0.13347848
-0.22052264
-0.03590548
0.07068553
-0.01733831
-0.13613310
-0.15325780
0.11470925
0.05866171
0.26565909
-0.20600179
-0.12002603
0.24796398
-0.11801379
0.42999327
-0.20754081
-0.31647155
-0.11601856
-0.08401787
0.13984536
-0.10967029
0.02362220
0.62540942
0.36378464
0.16690853
-0.29657364
0.13966322
-0.72225487
0.01103346
-0.18679950
0.00821618
0.19857261
-0.17031865
-0.04736519
0.16135223
0.15476418
0.14186688
0.10607512
0.01378110
-0.28283250
0.14140287
0.01385349
-0.00663753
-0.03451848
-0.02056536
-0.21225721
0.14064491
0.25185636
0.08350682
0.15620640
-0.05727539
0.19326130
0.09534424
-0.32044679
0.18709426
-0.57005525
-0.07386020
0.26017866
0.03470209
-0.01708839
0.23361689
-0.11689054
0.09031038
0.01770051
0.01143547
0.01158029
0.03937259
0.23793429
-0.06377923
0.11082092
0.02277419
0.07322168
0.26809955
-0.02696302
-0.01361393
0.09436236
0.02846075
-0.10337427
0.06630073
-0.07736789
-0.08140267
0.08335302
-0.00662376
0.10622787
0.07104070
0.09285300
0.06478531
0.04221287
-0.12631072
-0.07670868
0.04661348
-0.14906895
0.24513587
-0.05634726
-0.03079651
0.26499015
-0.10600845
-0.05204201
-0.30994686
-0.01503305
-0.17389071
0.34201625
0.01407188
0.34644875
0.37185159
0.13751094
-0.02134859
-0.14137083
-0.14959443
0.07750349
0.03149432
0.09081692
-0.05485194
-0.04533165
0.13986731
0.12717988
-0.02171496
-0.21482642
0.19452630
-0.01606480
0.11497945
-0.02221825
0.13730317
0.07599689
-0.17886777
-0.08987614
-0.18635155
-0.08394688
0.02844463
-0.03670237
0.08921049
-0.07885838
-0.30040938
0.07575801
-0.08517773
0.04513481
0.22232883
0.03986466
-0.01638405
-0.13350151
0.02482306
-0.01660098
-0.07125629
-0.15453599
0.02422538
-0.03237161
-0.06548657
0.03771871
-0.16797461
-0.03133252
-0.07601461
-0.01818004
-0.02250079
0.02024706
0.02945348
-0.03656865
-0.08781543
-0.51990843
-0.04288914
-0.26251653
0.04869816
0.21216226
0.09731159
-0.07852125
-0.06159634
-0.00721037
-0.16145760
0.00794978
-0.01350970
0.00349565
0.08050901
0.06279059
-0.10959744
-0.11163566
-0.27678949
0.17036407
0.23516475
-0.05086251
0.44360569
-0.02273896
0.19315363
-0.07209200
0.08306106
-0.04796897
-0.04675826
0.06898980
0.11466714
-0.02540439
-0.24921443
0.15726596
-0.08272528
0.05060976
0.01186393
-0.01960664
0.06997786
0.02785304
-0.02817196
0.07066917
-0.16760752
0.00942179
0.02336513
0.04786325
-0.15411067
0.12343546
-0.03237326
-0.15892369
-0.09537079
0.25207198
0.14147234
0.21592829
-0.12670304
0.05559582
-0.02803524
-0.21862464
0.02415387
0.08403680
-0.17097923
0.20384113
0.03496301
0.37872529
-0.01851999
-0.28670171
0.04791670
0.17721148
-0.06779372
0.17024063
-0.00329790
0.11324250
-0.06602781
-0.15294936
-0.02782511
0.03987340
-0.01254488
-0.07877848
0.19722690
-0.11263089
0.14705329
0.08915254
0.06024080
-0.01778747
-0.12605058
-0.07128863
0.13719888
0.00010851
-0.07372576
-0.10475985
0.34091905
-0.05165420
0.03403867
0.09879873
0.18201914
0.09229635
-0.07860564
0.14956664
-0.05747533
-0.12017512
0.00649240
-0.03877432
-0.15224147
0.08874866
-0.29816037
0.02838755
-0.21839029
-0.30530226
0.01884418
0.01894794
0.09954791
0.50433713
0.02864985
-0.04705307
-0.34265062
-0.24744534
-0.03668495
-0.20055741
0.08322568
-0.37045464
-0.14560817
0.14621544
0.07503843
0.10610159
-0.01052440
0.22144929
-0.20420602
0.38730362
0.25060147
0.28215450
-0.08796587
-0.04737820
-0.13792714
-0.25894779
0.12423971
-0.13588156
-0.19894992
0.08770508
-0.07074064
0.14884196
0.00070516
-0.03003290
-0.36434755
0.37913355
-0.14078759
0.00189843
-0.04615068
0.22525692
-0.01393861
0.02201446
0.21526495
0.00934889
0.29870760
-0.08691336
-0.08514521
0.19172642
0.31970581
0.07665328
0.14146586
-0.28964290
-0.03673919
-0.05292928
0.07352022
0.10251842
0.08130108
0.08367239
0.06379872
0.00129654
-0.05274059
-0.11257860
-0.00521235
0.33736828
-0.12888303
-0.02792019
-0.08886613
0.01461480
0.03648384
0.08233984
0.06386583
-0.02494508
0.03034445
-0.11428156
-0.04580334
0.04554635
0.06342105
0.01961643
0.00868500
-0.10344081
0.00940788
0.01559046
-0.03078273
0.08969498
0.06344613
0.04904037
0.05637464
0.01482223
-0.04425577
-0.01352005
0.01632896
-0.03829547
0.03680792
0.02080760
0.09048427
-0.01180364
-0.01426495
-0.01909574
-0.11076021
-0.08345074
0.11026994
0.01572333
-0.04456955
-0.01444176
-0.00940033
0.02627618
-0.01799817
-0.02625378
0.03038816
-0.07549874
0.01144105
0.02114367
-0.02114911
-0.34716162
0.01073960
-0.06341419
0.00844653
0.04018520
-0.01696895
0.00358611
0.00433405
-0.07599305
0.11851216
-0.03374698
-0.02075237
-0.02298137
-0.00755690
-0.04118989
0.02471076
-0.03460322
-0.07200836
-0.07862467
0.06358224
-0.08866855
-0.03435442
0.10942142
0.11977432
-0.00990415
0.02970876
-0.03393825
0.01873182
-0.04301781
-0.00259975
-0.03165279
-0.03678766
-0.06841057
-0.03665469
0.00564134
-0.03299595
0.04812341
0.05270176
0.04419466
-0.01035513
0.01380015
-0.07950412
-0.04123567
-0.05248070
-0.00056422
0.13296670
-0.06624271
0.01740500
-0.03707996
-0.03008882
-0.00811791
-0.03956010
0.04099473
0.01102830
0.06511135
0.06145821
0.07191727
0.05303533
-0.09501117
0.04368352
0.05543177
-0.06428437
0.03958642
0.02145388
0.03876900
0.25422212
0.02977125
-0.12021179
0.08613857
-0.00105251
0.00975531
0.02411497
-0.04907005
0.10395057
-0.00882962
-0.06389328
0.03332693
-0.04516422
-0.02561408
-0.01232100
-0.00404254
-0.09379115
-0.26002046
0.12527947
0.02844864
0.08362431
-0.03516319
0.48471248
-0.02951922
-0.13977894
-0.05429765
0.02930039
-0.03876695
0.02147462
0.10574289
-0.03842758
-0.02012654
-0.02497430
0.05192987
-0.01844407
-0.01989869
-0.01356542
-0.06967941
-0.04005244
0.03253860
-0.08088434
-0.09781121
-0.00890258
-0.03509365
-0.05440317
-0.02826536
-0.24171883
0.01775583
-0.05406748
0.04037572
-0.05099464
0.06935713
-0.16958822
0.04500873
-0.01456184
0.04341514
-0.10845371
-0.05140352
-0.10638984
0.05175801
0.03502103
0.02485830
0.39016709
-0.01164590
-0.29657665
0.01438375
0.17008832
-0.00997037
-0.02317737
-0.01461892
0.03880810
-0.02409144
0.04791115
-0.10113209
-0.08560653
-0.00106937
0.10756777
0.12452652
0.12425089
0.01045564
0.04945980
0.09827735
-0.03915887
0.04038058
0.01691131
0.38335544
-0.02519634
0.06155782
-0.00747315
0.00901935
-0.62578321
-0.01069087
-0.13123648
-0.16607410
0.04077377
-0.09531905
0.11988974
-0.33043218
-0.13444416
-0.07705057
0.06335668
-0.04978550
0.04691201
-0.06353308
-0.07835618
-0.02577408
-0.01618471
0.01503631
0.01871856
-0.12563884
-0.02339405
0.09337699
-0.07328368
-0.05579120
-0.01984153
-0.07141191
-0.31550971
-0.10763796
0.00078768
0.20586666
-0.00178451
-0.05771064
-0.02622585
-0.07708212
0.14166217
-0.04114544
0.03691077
0.03612697
0.01173027
0.07422285
0.05313770
-0.01841033
-0.00206766
0.04624258
0.02457898
-0.19985701
0.10476761
0.09304977
0.10800595
-0.06641058
0.06044783
-0.00578468
0.27519271
