-0.01129031
-0.02690971
0.03065074
0.02291524
-0.04247848
0.02887773
0.01190958
-0.00636981
0.02068869
0.02211199
0.01183703
-0.01256738
0.02800806
-0.02046433
0.00180840
0.01870317
0.04137483
-0.00846728
-0.01001205
-0.01019240
0.03004728
-0.00175994
-0.00253743
-0.02227115
-0.00791611
-0.01699386
0.01657807
-0.01240358
-0.00966339
0.01645625
0.02492710
0.01139553
-0.00967097
-0.02114940
-0.03898581
0.01142155
0.04444774
-0.00123305
-0.04593571
-0.03496492
0.00087432
0.06124749
0.02960032
0.04260233
0.01766538
0.00663828
0.04150188
-0.00204847
-0.00683339
-0.02090707
-0.04992343
0.04740807
0.01379401
0.03026710
0.01224859
-0.00851973
0.02495232
-0.01130290
-0.02721980
-0.00035952
-0.02665933
0.03682390
-0.02312204
-0.01464044
-0.01278879
0.00160184
0.01518346
0.00060116
0.00779020
0.02417063
0.01288334
-0.00219062
-0.00028681
0.02369940
-0.00433962
0.01415441
-0.01147880
-0.00561254
0.02546682
0.00162235
-0.00701323
0.01113635
0.01220119
0.02726400
0.00718202
-0.00734188
-0.00894401
0.01011842
-0.00175382
-0.00544054
-0.02303919
0.01523060
0.01492018
-0.04208989
-0.00034254
0.00667840
0.02484497
-0.00934433
-0.01090194
0.01706384
0.01331798
0.01857661
-0.00850029
0.00813149
0.07590048
-0.01884242
0.00680309
0.01450543
-0.00390285
0.01306701
0.00003280
-0.02266190
0.00272540
0.00489385
-0.00250810
0.00456781
0.02135068
0.00689108
0.02352589
0.00121101
-0.00004427
0.02273094
0.01373543
0.00603811
0.01088628
0.02270137
0.00552312
-0.00877156
0.03458637
0.02142761
-0.01400777
0.00503204
0.02181616
0.01090836
-0.00513514
-0.00716440
0.01502695
-0.02821371
0.01121374
0.00903696
0.06256843
-0.00546575
-0.00041988
-0.01798604
-0.00360460
0.00620966
-0.02570904
-0.01852200
-0.00859752
0.02003695
0.01864514
-0.01950367
-0.03218877
0.03723558
-0.00033910
-0.00518775
0.00301811
-0.00765603
-0.00059698
0.00083949
0.03326736
-0.01782248
-0.02727923
-0.01546706
-0.04191227
0.02542940
-0.01239625
0.00827847
-0.07066821
0.00237711
0.02408698
-0.00677684
-0.02332425
0.00875430
-0.00737666
-0.00675540
-0.03620879
-0.01772216
0.01449643
-0.01079694
-0.02668341
0.00479017
0.00456399
0.00204214
-0.00607496
0.00421073
-0.01744086
0.02125658
0.03923763
-0.00806000
0.00770267
0.00776289
-0.00301390
-0.00649702
0.03291116
0.00540720
-0.00800363
0.00158527
0.00572850
-0.04625959
-0.01436509
-0.06037587
0.01359402
-0.01699296
-0.04681740
0.01733244
-0.02141224
-0.00615071
-0.01468478
0.05092933
0.04000513
-0.02209768
-0.00915967
0.03799523
-0.07235922
0.03186994
0.03323787
-0.00648479
-0.00452399
0.05416299
0.00668899
-0.00961948
-0.02858694
-0.04363355
-0.03922563
-0.00966346
-0.00071724
0.05381140
-0.01399364
-0.05898127
0.00401353
-0.00120552
-0.02260471
-0.00641933
0.04532957
0.10775802
0.00430952
-0.04038006
-0.04962561
-0.01382388
-0.00788690
-0.01279093
0.03365787
-0.01005953
0.01074520
-0.00891377
-0.05070037
0.00283437
0.01338840
-0.02557769
0.10097820
-0.00726581
0.02725863
-0.00953471
-0.00031634
0.03728707
0.00256677
-0.00317322
-0.00633348
0.00738614
0.00252180
-0.00271961
0.00250516
-0.00867033
-0.02189343
-0.01791548
0.00169612
0.00072646
0.01411413
-0.01673884
0.00656139
-0.00778951
0.00188003
-0.01049187
-0.00572389
0.00737579
-0.01113318
-0.01817563
-0.01128725
-0.00440748
-0.00439608
-0.00328391
-0.00654667
-0.00707052
-0.01017493
-0.02419486
-0.00337924
-0.00885747
0.02385516
-0.01722262
-0.02350743
-0.00911798
0.00849311
0.00717560
-0.00800970
-0.03407838
0.00553158
0.00016142
0.00355141
-0.00097218
-0.00862581
0.01536085
-0.00546154
0.02790478
-0.01379858
0.01108563
-0.00297288
-0.00579004
0.00386772
-0.00844648
-0.00179336
0.01880295
-0.01838119
0.02231233
-0.01691795
-0.01333737
-0.01165085
0.00769766
-0.01131643
-0.00812552
-0.02526009
-0.05401123
-0.01804331
0.00420727
-0.00707465
0.06255540
0.01021717
-0.00654788
-0.00668990
-0.01142765
0.01640937
0.01319309
0.04678565
-0.03446735
-0.01277043
-0.05386534
-0.00374479
-0.01186964
-0.03707474
-0.05206514
-0.00099297
-0.04942297
0.01604452
-0.01872426
0.02468415
0.00656867
-0.02005350
0.01971383
0.02392255
-0.03671193
-0.00022622
-0.02369776
-0.05042261
0.01410055
0.02395624
-0.02436445
0.04852994
-0.00618158
-0.03551863
0.00903524
-0.00880910
-0.06585702
0.00959400
0.01414267
-0.04349830
-0.01325495
0.01297321
-0.03736283
-0.00074015
-0.00555851
-0.00382185
0.03493749
0.02701859
-0.00041923
0.02644335
0.01095718
0.02796661
0.01219388
0.02751374
0.02468892
0.00533479
0.01501274
-0.01700071
0.02856813
-0.01245436
-0.00457703
0.00261394
0.00083667
0.01969359
0.01605854
0.00312808
0.01488786
0.02134636
-0.00627740
0.00209506
-0.00632147
-0.00101181
0.01354909
-0.01042130
0.00634003
-0.00329318
0.00671270
0.00104746
0.00237004
-0.01011566
-0.01420230
0.01034468
0.02351566
0.01241792
-0.00276022
0.00264161
0.00380216
-0.00003837
0.00175133
-0.01172617
0.00610355
-0.00645208
0.01633650
-0.00572945
0.02166160
0.02743824
-0.02657019
0.00840203
0.01901845
0.02138023
0.00003468
-0.01236389
0.00424820
0.00908380
0.00168938
0.00480589
-0.02850329
0.02433687
-0.00043046
-0.01244794
0.01851595
0.00332550
0.00652525
-0.02720389
-0.00431879
0.02604476
-0.01153675
-0.01608431
0.00265005
-0.00538824
-0.00559945
0.00966163
0.01080738
0.01863438
-0.00804021
0.02632559
-0.03196176
0.02099983
0.03117016
0.04332956
-0.00299888
-0.01482613
-0.02078190
0.01372294
-0.01372475
0.02977813
0.00972107
-0.02717066
0.00290490
-0.08000971
-0.00174060
-0.02196425
0.00673388
0.00167929
-0.02517678
-0.00853197
0.01063762
-0.01822850
0.01242485
0.00209190
-0.02262791
-0.01164653
-0.03423759
0.01840742
0.04742588
-0.05029294
0.01976739
0.00914578
0.02402134
-0.01284376
0.03418747
-0.04578266
-0.04643122
-0.04704238
-0.02666502
-0.01406367
0.02535041
0.01835285
-0.00824783
-0.06477924
0.03209066
0.02735303
0.01807485
-0.02020910
-0.03954312
-0.00555016
-0.02904890
-0.01706045
-0.01460616
0.00456038
0.02585269
-0.00367643
0.03962721
0.02286437
0.02057392
0.01153726
0.00392926
0.01462634
-0.02629502
0.02916072
-0.01520019
0.03419160
0.01738430
-0.00783232
-0.02890499
0.00275486
0.00873998
0.01435079
-0.00440841
0.02050488
-0.03784667
-0.00261780
0.00288046
0.00239088
-0.01576094
0.00027258
0.06770669
-0.00536778
-0.01596379
-0.02465472
0.02820653
-0.01395391
-0.01385619
-0.00834987
0.02969766
0.00421389
0.02107872
0.00002520
-0.01914499
0.01119894
0.00768979
-0.00683622
-0.00140424
-0.03527962
0.02076798
0.01609638
0.00802020
-0.00630988
0.01045123
0.00839081
0.04006371
0.01551872
0.00387795
0.02775942
0.00230521
0.00914417
0.00754370
0.02734403
0.02929592
0.01046272
-0.00802535
0.00892572
-0.00237150
-0.01052403
-0.01920014
-0.01761631
0.01331412
0.01101545
0.03560979
0.02346271
-0.01940321
0.00042768
-0.01319649
0.00291337
0.02448494
0.03729642
0.00836923
0.01755961
0.01766232
0.00234221
-0.01111676
-0.01133857
0.00856416
-0.00198629
-0.02254084
-0.01130147
0.01164618
0.03216918
-0.05212852
0.00342583
0.00119443
-0.00507825
-0.02126361
-0.01761173
-0.01450472
0.01146418
-0.01181390
0.00080033
0.03209668
-0.03125405
-0.06706990
0.00016932
-0.03072158
-0.01298234
-0.01755866
-0.01163409
0.01554367
-0.00514843
0.00108413
-0.01243339
0.02264861
-0.01523925
-0.02499950
-0.00874934
0.01216529
-0.01872704
0.00386944
-0.00848668
-0.01238080
-0.02541444
-0.01280456
-0.01804236
0.00120393
0.01551167
0.02250118
0.01823347
-0.03093089
0.01416953
-0.01458461
-0.04878880
-0.00138674
-0.01373046
-0.00178101
0.01715961
0.00034361
-0.01317766
-0.01529866
0.00175993
-0.02886922
-0.00615082
-0.00253930
-0.01773607
0.00968793
0.00121347
0.01159387
-0.01141530
0.00491114
-0.01159636
-0.01420790
-0.02007547
0.02918610
0.02552865
0.00369651
-0.00880880
-0.00630809
-0.00977696
-0.02095925
0.01404440
0.00775241
-0.00975718
-0.00435943
0.03042395
-0.03256175
-0.00711079
-0.00025320
-0.01340006
0.01233655
-0.01585252
0.01571607
0.01030776
-0.00979419
0.01049365
-0.02330945
-0.02476103
0.00905377
0.01518729
0.00461871
0.00453745
0.01695946
0.02065943
0.01103902
-0.01105547
-0.00985761
-0.02162473
0.00218574
-0.01544775
-0.01954973
0.00738515
-0.00610953
0.02724908
0.01110756
-0.02825544
-0.01459173
-0.00666340
0.01776785
-0.03341332
-0.02865113
0.04392301
-0.00420206
-0.00408254
0.00951247
0.02566447
-0.04365944
0.00976558
0.00183600
0.02972798
-0.01266743
-0.07368564
0.07753056
0.00740620
0.16625524
-0.04090399
-0.02052582
0.01315871
0.07399394
0.03504000
0.05317669
0.14280315
-0.02470129
0.01117459
-0.00294952
-0.01650371
-0.00027065
-0.04445431
0.00152262
0.00471224
-0.03112682
-0.02640582
-0.09744611
0.00576458
-0.01170959
0.02600714
-0.01858267
0.00602724
-0.06829277
0.02046035
0.08632734
0.05754715
0.00090029
0.01002361
0.06193645
-0.08093209
-0.01737615
-0.10639203
-0.03688145
-0.09092899
-0.01593499
-0.06352375
0.09286691
0.01268235
-0.15956604
0.01181954
-0.01966904
0.01236203
0.04605345
-0.04754895
0.02604556
0.00910209
-0.08832972
0.04562784
-0.04363213
-0.04986969
0.05942263
