0.02922499
0.05745947
0.01340703
0.02019872
0.00791423
-0.03212053
-0.06690818
0.00052894
0.01825381
-0.05789595
0.00561562
0.08538542
0.05877905
-0.11003736
0.02607933
0.09540868
0.04355216
-0.02905138
0.01812345
-0.03335546
-0.10882359
-0.01899621
-0.04243878
0.01141890
0.00522334
-0.00914884
0.02444517
0.06715628
0.05407917
0.10598924
0.06199182
-0.05205426
0.02537324
0.02138734
0.02595159
0.04102746
0.03342438
0.05542047
-0.02069031
0.04758256
-0.05705539
0.00464625
0.04866816
0.03258072
0.02325114
0.01204303
0.00728306
-0.02824676
0.01530774
-0.00829993
0.02804768
0.01259421
0.01401637
0.04486569
0.10869352
-0.01931873
-0.11818976
-0.02471285
-0.03448627
-0.03555092
0.06703566
0.01215957
-0.13843013
-0.03843303
-0.06744110
-0.04627734
0.01784702
-0.05198450
-0.10844670
0.02345709
0.05006879
-0.00721092
-0.02914688
-0.14905679
-0.04472973
-0.06432454
0.03799101
-0.04743885
0.03706109
-0.06807440
0.01430597
0.07207499
-0.07112663
-0.01592595
-0.05049963
-0.05445088
0.10475510
-0.13993938
-0.04478987
-0.03052406
-0.02580988
-0.02763962
-0.10212636
0.07147706
0.00080093
0.04095975
-0.08207463
0.10508507
0.05020147
-0.04048600
-0.03762732
-0.06771459
-0.07906419
0.09247787
0.04596138
-0.28849274
-0.05418273
-0.03373970
0.05341545
-0.13689405
0.02010585
0.00829844
0.06976978
0.08198548
0.02453157
0.00610914
-0.05741078
-0.01010028
0.03179770
-0.01518109
-0.06818364
-0.08695394
-0.04226168
0.08845885
0.08513546
0.00059195
0.02743604
-0.06448659
0.15271652
0.13051066
0.00077660
0.01487388
-0.03673222
0.01034565
-0.01130173
-0.01120631
-0.04228366
-0.13749821
0.04092747
-0.05019983
-0.02200702
-0.04666387
-0.05946106
0.09937269
-0.09549697
0.01353990
-0.01224692
0.05487974
-0.05833633
0.03668651
-0.01579798
0.09506784
-0.04305056
0.02825074
0.10520659
0.05189911
-0.01996689
-0.04852975
0.08114424
-0.01146658
0.02071641
-0.03640686
0.13981578
-0.01258595
-0.01601346
-0.06414583
-0.00343846
-0.05239920
0.23758855
-0.01995277
0.09258550
0.00244875
-0.02765634
-0.00649278
0.02027075
0.03029880
-0.07538361
-0.02509640
0.00463385
0.02502384
0.02065083
0.00180942
-0.03902702
0.00260073
-0.06179659
0.09156299
0.04323725
-0.04334905
-0.06722620
0.01749349
-0.09205718
0.03251691
0.04679579
0.00948760
-0.02625593
0.03738815
-0.06375553
-0.08883133
-0.09571883
0.03362065
0.10017899
-0.02722296
-0.19190945
0.02212766
0.03221853
-0.00992714
-0.08671754
0.04566960
-0.01148874
0.03888897
-0.01336614
0.01538994
-0.11017280
-0.04117627
-0.03267514
-0.09469641
-0.05487448
0.03981781
-0.27478635
0.00385295
0.00234838
0.01432602
-0.02400246
0.02993482
0.03738874
-0.18935454
-0.10707954
0.02912599
-0.00855400
-0.06122940
-0.01043187
-0.04371213
0.05562271
-0.01954235
0.04433877
0.02993285
-0.12011403
-0.07511944
-0.00838321
-0.01878746
-0.14002922
0.06918516
0.04625637
0.01395018
-0.01967508
-0.19174111
0.07101192
0.05586454
0.07945799
0.06140866
0.03114288
0.03588137
0.02914008
-0.02241367
-0.03597093
0.00276690
0.05045055
0.03751681
0.02213172
0.02298561
-0.03914408
0.05508622
0.00640467
0.03030869
-0.12908258
0.00774206
-0.06940599
0.03230322
-0.06376202
-0.00412718
-0.00570764
0.08215366
0.00561336
0.06999164
0.01370815
-0.08002301
-0.06155958
-0.04065264
0.05665141
0.04550255
-0.14267683
0.02928059
-0.02086853
0.00495376
0.03727875
0.03540889
0.01556395
-0.01416668
0.02095612
-0.00913962
0.02434243
-0.05462935
0.09290406
-0.02984446
0.01881613
-0.02618704
-0.15481254
0.00632040
0.04623955
-0.03510338
-0.00101224
0.04611392
0.08900535
0.09336911
-0.03448167
0.01328999
0.01944062
-0.05167788
-0.20163862
0.04426132
0.07248139
0.02343668
0.01624362
0.02901788
-0.05903145
0.15200500
-0.04058739
-0.00092352
0.01054412
0.01159521
-0.05513557
0.08883356
0.03302661
-0.00508408
-0.08362568
-0.07041886
0.01608237
-0.01512423
-0.06871624
0.01339754
0.02154973
-0.25630254
0.08155444
-0.05656971
0.02030799
-0.03903956
-0.07336562
0.00555774
0.00014154
-0.02522826
-0.05053027
0.01360692
-0.03830935
-0.02732297
-0.12502576
-0.14712906
-0.00244991
-0.05441392
-0.00271939
-0.08941021
0.03702551
-0.00373029
-0.01086945
-0.15476479
0.01831960
-0.02665951
-0.02767067
0.00398216
0.00536142
0.03059230
-0.10327771
0.05639805
-0.02838228
-0.04482730
-0.03410631
-0.02679088
-0.11108436
0.05513018
-0.04077247
0.09909776
-0.10770147
0.00421638
0.02559856
-0.00697887
-0.04454614
0.00151615
-0.01244103
0.02681533
0.06639578
0.00563604
0.03900651
-0.02459053
0.00304255
-0.02361772
-0.00226244
0.02274010
0.01670336
0.01625241
-0.05193809
0.02471922
0.02720220
0.06633255
0.01353373
-0.05723083
-0.02328861
0.00868967
-0.06337531
0.00136121
0.01063941
-0.05204815
0.08567891
0.07403211
-0.05356343
-0.04771496
0.01816643
-0.01276726
-0.05960739
0.03369739
-0.05105332
0.02670205
0.00832893
-0.00071519
-0.00838090
0.05124296
-0.00023671
-0.03918803
0.02726090
0.12419735
-0.01065261
-0.06623561
0.08901986
0.10416225
-0.02957465
0.02634873
0.05027745
0.02694075
-0.08684266
-0.00020553
0.02430619
0.00900767
0.09100270
0.06545106
-0.04126203
-0.02987046
0.01690096
-0.08914687
0.06828324
0.04127317
0.03447399
-0.04078175
0.12512229
0.00679206
0.02045632
0.00309679
0.03799147
-0.01304666
-0.04385595
-0.04876671
0.11466929
-0.01627389
-0.06180665
0.03658120
0.02334620
-0.00015253
0.01360574
-0.01563817
0.05028473
0.05053931
-0.00282073
0.06436422
0.15115991
0.02896448
-0.04014406
0.00463711
-0.02507458
0.02620049
0.05696094
0.00201836
-0.09223788
0.02547817
0.02208707
0.00658202
-0.01438085
0.00537827
0.05352857
0.03109908
-0.07532100
-0.06035490
0.00377508
0.02174216
0.03107863
-0.07495087
-0.11061115
-0.06480286
-0.04669336
0.05857188
-0.09439374
0.04210974
0.05704102
0.01011865
0.03634302
0.02969511
-0.23307011
-0.04409609
-0.06012899
-0.04261004
-0.06441697
-0.02838400
0.03057763
-0.02598431
0.05196195
0.03724729
-0.00233647
-0.04034888
0.15001720
-0.02452272
0.08112464
0.03748702
-0.05647367
-0.02462318
-0.01523952
0.02503960
0.04193892
-0.04773268
-0.03393601
-0.00733000
-0.02820519
-0.04583549
0.07098955
-0.00143726
0.05234687
0.01701965
0.01160384
0.10075326
-0.08670495
0.03631996
-0.04783203
0.00342120
-0.03872311
0.11361028
0.05513618
0.12086955
-0.00927927
-0.08369493
-0.06230584
0.03352864
-0.02715145
0.05057836
-0.00856507
-0.09300458
0.00826014
-0.10317875
0.00885774
-0.02413353
0.07947934
0.02018528
0.05357305
0.05877374
0.07769698
-0.04179018
-0.03216527
0.06644088
0.00314015
0.02917900
-0.05637440
0.01230339
-0.07540391
0.05990740
-0.04393407
0.00354635
0.00021865
-0.08907092
0.03213715
0.04873751
0.05430929
-0.09059773
0.06160202
0.04839986
0.01801493
-0.03547326
0.10878754
0.03602692
0.00333943
0.06032425
0.02081897
0.01208564
-0.00284606
-0.18991698
0.01931777
0.05542619
0.02781196
0.08645435
-0.02351472
-0.04043722
0.04563707
-0.01285425
-0.06161133
0.04140119
-0.00965022
0.06260380
0.05976209
0.03513128
-0.02116223
0.03649691
-0.05675270
-0.01490667
0.00274362
0.04565232
0.07199005
-0.04206982
-0.03731889
-0.01699474
0.04744167
0.08547250
0.07103094
0.03857240
-0.04568857
0.09818800
-0.00988025
0.01742850
-0.00238911
0.08550689
0.01006176
-0.00016546
-0.10044158
-0.03333084
-0.00181947
-0.05203719
-0.02816699
-0.05726521
0.02526058
0.03099157
0.01121020
0.08108428
-0.08559533
0.05270441
0.04450307
-0.08011168
0.05164163
0.09157160
0.01995001
-0.08571615
0.09488345
-0.00783954
-0.04917618
0.03689742
0.00035318
0.02000705
-0.09801339
0.04744297
0.00697888
0.00730327
-0.02054930
-0.11188501
0.03759322
0.04068277
0.08123469
-0.08095058
0.07045087
-0.03498273
0.02326256
0.00800675
-0.05484765
0.06290743
-0.17432433
-0.01658750
0.10484719
-0.04552297
0.01531389
0.07448043
-0.01777712
-0.05498089
-0.02566507
-0.04741936
-0.04023382
0.05133000
0.02348333
0.01722128
0.00285559
0.04636738
-0.07670958
-0.02306653
-0.01619678
0.02680583
0.04584226
-0.00492263
0.05352354
0.03455585
-0.02600043
0.04704558
-0.06583919
0.05464569
0.02959927
0.06987733
0.05178323
0.09930769
-0.04386634
-0.07582599
-0.05336408
0.00086867
-0.05490047
0.03980122
0.04948847
0.02963859
0.06190622
-0.06848423
0.06353629
0.02163669
-0.00889433
-0.05676765
-0.02107615
-0.00513680
-0.01861791
-0.00928234
-0.03289024
0.01560253
-0.01048277
-0.03032193
0.01818791
0.06286789
0.04569355
0.05364642
0.05540523
0.00580117
0.02952093
0.07845932
0.04752809
-0.05263821
0.01882495
-0.03490410
0.01534495
0.03037789
0.00753428
-0.01647023
0.01010697
0.01503053
-0.00814004
-0.09368129
0.16512373
-0.00230896
-0.03746282
-0.01193006
0.01308660
-0.01555085
0.01559176
-0.05731110
-0.04081837
0.06339819
-0.02480591
-0.01302469
0.12473791
-0.01729166
0.00297811
0.03755774
0.02075936
-0.08722107
-0.09259986
-0.06408037
-0.00817275
0.04589751
0.02445892
-0.03497873
-0.07682507
0.08949227
-0.07354876
-0.08936007
0.02676234
0.06848438
0.04548830
0.01902278
-0.05013360
0.05668015
-0.02100698
-0.05154091
-0.03566384
-0.09522289
-0.00029787
0.01436081
