0.08522361
0.14213152
-0.08523199
-0.18721101
0.21035838
-0.24396150
0.27314112
0.16500492
0.03236366
0.11044981
-0.02117708
0.24021785
-0.18301585
0.30232027
-0.00513044
-0.01416002
-0.11280528
-0.29003766
-0.05453625
0.51606107
0.20921877
-0.36653391
0.19993508
0.10064174
-0.17535217
0.22406182
0.11768249
-0.17899875
-0.19971566
0.09733937
-0.03948214
0.03936680
0.20852503
-0.19799198
0.12013590
-0.07476621
-0.14148258
0.06868342
0.12633951
-0.31772619
0.02498604
-0.18115138
-0.01613827
0.11727691
-0.10557526
-0.19702108
-0.06081012
-0.07021258
0.09440032
-0.01474235
-0.41324571
0.08453769
0.42277125
-0.43958113
0.10828475
-0.32033011
-0.07461803
-0.32157600
0.04353814
-0.25400317
-0.09423037
-0.01437324
-0.49407345
-0.42558050
-0.07210408
0.06136267
-0.05860197
-0.04615337
0.02260495
-0.09361774
-0.06368383
0.03672763
-0.36690557
-0.30218711
0.22466829
0.13071376
0.03301140
0.23159572
0.04266884
0.02539747
0.01170063
0.05002204
0.05280876
0.08050276
0.06039551
0.01363211
-0.18596576
0.13785186
0.03298645
0.08935402
-0.03171322
-0.08803050
0.54488963
-0.14182319
0.08949433
-0.04941393
0.26925224
-0.19583829
0.02056988
-0.03154838
-0.03568977
0.15259430
-0.04135830
-0.07426038
0.12923340
0.04101274
-0.29248509
0.03546530
0.11130325
0.00145717
0.01225643
0.01741289
-0.47742644
-0.25736219
-0.05279643
-0.02160595
0.09337722
0.12379951
0.02382135
0.10344543
-0.22650377
-1.27624810
-0.15361024
0.10538112
0.07140737
-0.08161682
-0.11523162
0.07848396
0.12425061
0.00140943
-0.01941596
0.17991050
-0.07864814
0.04574547
-0.05356082
-0.16858275
-0.22672707
-0.17775139
-0.25579810
-0.41514972
-0.05100944
-0.00521671
0.01523360
0.01871829
0.00622871
-0.96766847
-0.07086673
-0.11294002
0.07640863
0.08786503
0.11063860
0.08016209
-0.12652074
0.08207882
0.04616927
0.07275395
0.27571839
0.26041436
0.18021402
0.04583794
-0.01033058
0.00344542
-0.05244437
0.06550095
0.01530912
0.06648246
0.00069409
-0.29992396
-0.97429538
0.00873690
-0.07494438
0.09836093
0.04304174
0.35663173
0.16423438
0.47058526
-0.03585074
0.05179771
0.03723441
0.01337388
-0.05237796
-0.05437034
0.07414290
0.23684405
0.12264290
0.08943423
0.29565388
0.23870765
0.10861699
-0.08282176
-0.19932768
-0.26600000
0.36703297
-0.07531193
-0.08337504
0.05805245
-0.07409878
0.07917563
-0.02835445
-0.02091900
-0.12052927
0.21866855
0.07437690
0.27884910
0.02387964
0.07314044
0.19003615
-0.05472768
0.00564625
-0.02757321
0.10116476
-0.11956111
0.19270071
0.07159928
-0.05277655
-0.12053952
-0.40605128
-0.05179173
0.16420859
0.02490427
-0.06756265
0.26540184
0.19184054
-0.19474436
0.10790660
0.01523319
-0.02091632
-0.01004664
-0.03986911
-0.01202927
0.17564176
-0.03899017
0.22277887
-0.04603820
0.05958842
0.13926169
0.04162140
0.02741180
-0.04686711
-0.05408210
-0.17194797
0.04746166
0.04056509
0.07361826
0.08860793
-0.16136147
-0.20668812
-0.02037976
-0.02884471
-0.35789722
0.12678792
0.27285016
-0.06270929
-0.08648276
-0.06321364
-0.14939266
-0.16971740
-0.20261151
-0.00069747
0.00579310
0.16862777
-0.08410719
0.21500078
0.09050080
0.29856607
0.12605655
-0.03669050
0.06371166
0.10795800
0.01297150
0.10026078
0.00795957
-0.03831698
-0.10171834
-0.20160601
-0.03593188
-0.03673691
-0.20042878
-0.12505977
-0.05892683
0.06482162
0.10526098
-0.00955890
-0.11901174
-0.13933235
-0.08063609
0.10945680
0.22117095
0.24659424
0.04002001
0.05134398
0.01328987
-0.14744636
-0.01780348
0.13334362
-0.01070105
-0.32471880
0.44542357
-0.06681365
-0.11972342
0.07421497
-0.19627342
-0.05990466
0.12335017
0.26633927
0.21132655
-0.13980137
-0.15667984
-2.46155262
-0.12714659
0.01370492
0.24121980
-0.07694750
-0.11224147
0.01858182
-0.04000570
0.07801764
0.04970209
-0.06261121
0.27326193
-0.05376340
-0.06360456
0.00363962
-0.07340526
0.02067536
0.14022094
0.02907369
-0.01780069
-0.06560965
0.03651594
-0.22520564
-0.39781243
-0.08897811
0.18313269
-0.05399719
-0.04354303
-0.00718065
-0.03020539
0.10213337
0.28442997
-0.11742838
0.18480074
-0.07189317
0.06261806
-0.26073638
0.32803077
0.04847321
-0.21902423
-0.06626588
-0.38736609
-0.08406731
0.27152893
-0.06584209
-0.07712499
-0.05811082
-0.20203765
-0.12823004
-0.07889884
-0.14962135
-0.01354676
0.15074216
-0.09568580
-0.09857910
0.05088459
-0.07339892
-0.08876725
-0.07734200
-0.01712887
0.00116650
0.05532658
-0.23715051
0.04692149
0.10707630
0.08945739
-0.26958370
-0.01971276
-0.01043135
-0.08746868
-0.04089613
-0.01382502
-0.05795750
-0.39689344
0.15792604
-0.31624645
0.02782170
-0.04033536
-0.26988029
0.13112307
0.01759517
-0.14554381
-0.13555516
-0.06145009
0.20595643
-0.02864296
0.08004760
0.05659074
-0.10935907
-0.13334502
0.01708758
0.02673015
0.01441545
0.01653647
-0.07654213
-0.17339267
0.09360410
-0.20586748
0.12174045
-0.02684129
0.02131121
-0.05383623
-0.23575187
-0.09669112
0.08906391
0.13549031
-0.05154759
-0.11779586
0.05935152
0.12761872
0.05664973
0.03109179
-0.09807112
-0.24299423
0.16239785
-0.06492200
-0.10694898
0.02540159
0.00827490
-0.01917235
-0.08457943
0.00067064
0.13856947
0.00921369
-0.07173602
-0.06085327
0.06280699
0.20465711
-0.21886493
-0.07938773
-0.12193162
-0.24152496
0.12254037
-0.02084113
-0.09139692
-0.43853036
0.05036665
0.07466521
-0.24089646
0.01655220
0.04637570
-0.16050805
-0.13809000
0.08710754
0.24783982
-0.22858262
0.12208661
0.01826256
-0.00202448
0.06922725
-0.09608261
-0.13627750
0.13297413
-0.06278528
0.01482075
0.25987628
0.15909809
-0.26323545
-0.30578256
0.10841708
0.02364800
0.08493192
0.05196075
-0.06737283
-0.07030193
-0.02131155
0.00486828
0.05907086
-0.19468345
-0.03796339
-0.15885441
-0.11839592
-0.09659680
0.11762267
0.00273994
-0.05384180
0.01256167
0.10448641
0.01976646
0.28887552
-0.26288712
-0.04827714
0.01939665
-0.13303925
0.14800568
-0.08442940
-0.27470830
-0.23304893
-0.70527971
-0.01267334
-0.07516813
0.02869053
-0.06407059
0.06928445
0.03229697
0.05919506
0.15008837
-0.15003321
0.09709628
-0.07930408
-0.24116336
0.08418888
0.04769228
-0.11339947
0.22798210
0.07476865
-0.24116543
0.19957802
-0.20839572
-0.10450120
-0.27144650
-0.03208730
-0.00289963
0.10587396
0.06941088
-0.09551608
-0.25283495
-0.11130819
0.03977884
0.01415795
0.01074315
-0.07799771
-0.07650986
-0.00096026
0.11795557
-0.15876605
-0.02671409
-0.18839058
-0.16643105
0.11410736
0.09338041
-0.32113034
0.15959987
-0.80268610
-0.17245890
0.19618316
0.02595863
-0.67418921
-0.22346058
-0.24738976
0.23994686
0.15085283
-0.04263928
-0.14960457
0.04049726
0.12854035
0.10181025
-0.04009939
-0.04032595
0.24893850
0.13021280
-0.13405579
-0.10806139
-0.30073071
-0.18273762
-0.07054180
-0.03193986
-0.03519240
0.00000451
-0.07354710
-0.04246303
-0.05964052
0.23084535
0.07842578
-0.02733381
-0.09061868
-0.03783368
-0.02568407
-0.01852862
-0.26088631
0.02391451
-0.00712326
-0.12571178
-0.17224054
0.22748478
-0.06550975
0.02719012
0.01807652
0.41365555
0.05058867
-0.04636576
-0.06527141
0.08005793
-0.03281783
0.02661398
-0.06495306
0.08970930
-0.04275868
0.08936732
-0.04629638
0.12742548
-0.02481204
0.13820985
0.14797741
-0.15255816
0.04865460
-0.00223548
0.29217845
0.03323165
0.31561968
0.02478098
-0.05957211
-0.03288552
0.05883016
-0.04868915
-0.05023754
-0.12923422
0.01653415
0.06208701
-0.07132717
0.11043628
0.17617996
0.13317846
-0.11331616
-0.02602552
0.00708828
-0.07394108
0.08587503
0.28852603
-0.21549511
-0.03862985
0.07205103
0.04504132
0.06808790
-0.20489222
0.16202234
0.08766031
-0.07586040
0.04347763
0.10682838
-0.05970281
0.34261885
-0.21990252
0.04315429
0.13211316
-0.11731930
-0.05738939
0.05717480
0.20655011
-0.10766613
-0.03927543
0.15357439
0.02707960
0.04291367
-0.05189598
0.09142081
-0.81652474
-0.07212295
-0.21521737
-0.10265439
-0.01261100
0.08736075
0.11615535
-0.14344330
0.09376638
-0.06353562
-0.00255152
-0.10844944
-0.04307072
-0.17197406
0.01476558
0.01799616
-0.24430303
0.13986979
-0.01171293
-0.13900368
0.01659323
-0.10323083
0.46555439
0.19627589
0.14474249
-0.10931530
-0.00266735
-0.04006117
0.28911924
-0.08044535
-0.01150216
-0.12362906
0.10649402
-0.18902273
-0.13437793
0.05997505
0.13953491
0.12246096
0.05807827
0.10924275
-0.10599692
0.30442944
-0.18417062
-0.09666475
-0.05861663
-0.18154888
0.11566585
-0.10681870
-0.30151787
0.16506961
-0.08305731
0.00759096
0.19861294
0.02292836
0.12989721
0.02210487
-0.02634459
0.24315496
-0.11147777
0.07125270
-0.20757163
0.18443194
-0.10250559
0.05093706
0.02180459
-0.07372805
-0.16907193
-0.13025787
0.02999946
0.01816413
0.17746718
0.01244838
-0.05076057
-0.05255974
-0.17598797
0.09698315
-0.10249081
0.19735804
0.04189556
0.11404746
0.22834505
0.01235172
0.10043262
-0.00780159
-0.21205923
0.01271069
0.03482774
-0.02306510
0.17758736
-0.03438538
0.09197479
0.14450295
-0.09089494
-0.07043162
0.05177284
-0.03454266
0.10432673
-0.26747030
-0.19365335
0.30126470
-0.11049148
0.06150042
-0.45004982
0.11797917
0.05428631
0.01797738
0.01217663
0.15119576
-0.03083180
-0.19893536
-0.06767630
0.02511608
0.01081647
0.00800402
