-0.03846164
0.08441996
-0.03922218
0.01890469
0.12960018
-0.03428915
0.00979712
0.10448550
-0.00335374
-0.02574760
-0.05266219
0.10261662
0.06896919
0.00960965
-0.02566383
0.03235125
0.08333148
-0.02809163
-0.03493775
-0.00802257
0.00872222
-0.12445886
-0.03425221
-0.06139480
-0.04737195
0.07199603
-0.03878632
0.03216927
-0.23089856
0.00977717
0.08218904
-0.01481317
0.08210976
0.01413354
0.00712331
0.05761506
0.00289889
0.03690875
-0.02598286
-0.05186610
-0.00833652
0.01579913
0.01668878
0.02611418
-0.00842646
-0.02968535
0.01912213
0.09638386
0.03744967
-0.15085229
-0.05029492
-0.05647149
0.05913845
-0.16548948
0.02997096
0.04115074
0.08550924
-0.17544770
0.00266786
-0.07125302
0.05394945
0.15961620
-0.16515674
-0.10861239
0.06156150
0.11928713
-0.07510356
-0.04562593
0.01657666
-0.00565065
-0.18286419
0.06335460
-0.00808742
0.01621957
0.02472891
-0.01227481
-0.02506992
0.08545691
0.01546544
0.04637967
0.01905830
-0.01592954
-0.00462185
0.04656634
0.04675144
-0.16391677
-0.03604655
0.04131986
0.00154181
0.07529183
0.00375651
-0.09037033
0.12113486
-0.06764292
0.10318822
-0.07424922
0.08523379
-0.05538816
-0.04779885
-0.10823531
0.02602945
0.02427516
0.00683234
0.01014503
0.11719612
-0.16877881
0.00703253
-0.04597873
-0.06296708
-0.09917908
-0.01181143
0.02502015
-0.11797265
-0.00797706
-0.07038514
0.04265050
-0.05850410
-0.00125400
-0.03041273
0.00634051
-0.05968838
0.06499153
-0.04011168
-0.00484674
0.16822970
-0.23698539
-0.01092081
0.05055866
-0.06869467
-0.03557292
0.01003075
-0.04937205
-0.03400638
-0.05416699
0.02824216
-0.02196907
0.04181175
0.09311977
-0.04757251
0.06226020
-0.04237425
0.05516076
0.04731028
-0.03022969
-0.03648537
-0.10395240
0.09917258
0.06102397
-0.07741541
0.20622638
0.00541517
0.12049040
-0.20409530
0.02738488
-0.04179870
-0.10712023
0.07334843
0.09947420
-0.00311877
-0.14363639
-0.00266155
0.00952482
-0.02281078
0.05478256
-0.01483937
0.15802830
0.03821964
-0.13567591
-0.07768907
-0.04940283
0.03429041
0.09582426
-0.10216839
0.09040761
0.04993554
0.01033960
-0.00435559
-0.01516849
0.01772736
-0.01997012
0.01770598
0.00535316
-0.02000660
-0.00756163
0.00754844
-0.00820318
-0.01429162
0.11517350
0.00374851
-0.03633540
0.02328077
0.00668801
-0.02928349
-0.10621252
0.20118430
0.10619301
-0.01551326
0.15928704
-0.01416465
0.00205805
-0.10619975
-0.00056570
0.14007655
-0.02365362
-0.00877309
0.01658967
0.02018989
-0.02569716
-0.01740121
0.03185125
0.01487048
-0.07158104
0.04834147
0.03460751
0.10358750
0.13813670
-0.14452262
-0.01916323
0.07627479
-0.06955583
0.04275095
0.06161650
-0.05308076
0.01023041
0.03841006
-0.01182968
0.05002331
0.05923419
0.00955201
0.03539243
0.05708079
0.00151740
0.02542858
0.00708818
-0.01694066
0.01966361
-0.06517889
0.09176481
-0.08120319
-0.04849625
-0.00469399
-0.05527394
-0.02402503
-0.00252137
-0.00582524
-0.02042278
-0.16762017
-0.07811036
-0.00489098
-0.17706785
-0.03188727
0.02375811
-0.00419445
0.07272407
0.03565054
-0.01826057
-0.14393142
0.04336547
0.02202782
-0.00357782
0.01341441
-0.07443680
0.03458060
0.12538064
-0.04560624
-0.03880634
0.00977644
0.03764978
0.07085337
0.02462057
-0.00263061
-0.02870831
-0.08629543
0.13709427
0.00359180
-0.04324110
-0.11393027
0.03098630
0.04136124
-0.04513082
0.06382626
0.00922545
-0.07177577
-0.10333270
-0.00999043
0.02954810
0.04751682
0.09150201
0.03414025
0.00915254
-0.03979949
-0.12109176
-0.14503738
-0.07944451
0.06112130
-0.11997472
0.04943591
0.09518455
0.05184950
-0.00005969
0.04336527
0.06254941
0.02179897
0.09833157
-0.01075135
-0.04580365
-0.10164586
0.05301703
-0.60626066
0.00552036
-0.01463504
0.01620493
0.02088927
0.06810637
-0.00884119
0.01838627
0.01338526
-0.06302842
-0.06170223
0.14788391
-0.06740893
-0.00242568
0.06895028
-0.10953257
0.03130266
-0.02141658
0.01200118
-0.02712920
-0.00586423
0.07485845
0.05540106
-0.18607648
0.02405804
0.07231668
0.02191524
0.00169979
-0.13518241
-0.12280537
-0.01813833
0.04473921
0.02984368
-0.04441921
-0.00536026
0.05850387
-0.02888685
0.08306498
-0.02006769
-0.00137002
0.05146547
0.05015805
-0.03915627
-0.05149146
-0.02547632
-0.09414762
0.01821154
-0.05049523
0.03370988
-0.00903133
0.03900289
0.04618474
0.06440227
-0.03607164
-0.02205194
0.01277684
0.05125690
0.07934330
-0.11465460
-0.03592095
-0.02684440
-0.11844843
-0.09638561
0.10193735
-0.07105188
0.07335800
0.00652840
0.02808949
0.01729062
-0.06974747
-0.08613133
0.05861846
0.03862774
-0.18478525
0.00041594
-0.04233938
0.01192437
0.03313383
-0.06999456
0.05826330
-0.12615703
-0.11431384
0.05949123
-0.05733533
0.05833685
-0.13455284
0.08973091
-0.02348280
-0.06968170
-0.14740328
0.01410089
0.00564151
-0.02871094
0.09893634
-0.03518565
-0.01919400
-0.00710722
-0.04724732
0.01837485
-0.07147021
-0.00133873
0.02291535
-0.01298771
0.08091559
-0.00232705
0.04162388
-0.09826983
0.04891654
-0.14931048
0.02214969
0.02616636
0.08581493
0.03079379
-0.08558275
0.02366080
0.02588889
-0.01484974
0.09776689
0.03837342
-0.02774632
-0.05334523
0.02568662
0.00309288
-0.10855992
-0.04781095
0.07702466
-0.08261314
0.04237620
-0.08330745
-0.07452117
-0.01070551
-0.14544258
-0.09498996
0.00975648
0.08490563
0.01803022
-0.02811784
0.02543510
0.01952820
0.06400151
-0.04332732
-0.16003235
-0.00387003
-0.01253978
0.13038218
0.01719002
0.00662722
0.04771506
0.04729397
0.00050710
-0.13543379
-0.04990108
-0.01345401
-0.25321880
-0.05157755
-0.02028747
0.08285660
0.05156754
-0.09881046
-0.05862447
-0.06425112
0.11785493
-0.03263052
-0.05515055
0.09214624
-0.04301290
-0.01123091
-0.11234272
-0.12846521
-0.00753362
-0.11020493
-0.09156579
0.09750606
-0.02816960
-0.13752735
-0.16175468
-0.00412255
-0.04907038
0.05571254
-0.01780958
-0.09503714
0.04034001
-0.05118392
0.01697345
-0.01925463
0.06966355
-0.03768427
-0.00737971
-0.00518784
0.03963413
0.04411825
0.05028387
0.05256592
-0.02802436
-0.04752889
0.05911769
0.00281692
0.04531762
0.00252311
0.00083890
-0.09955814
0.05755361
-0.01070353
-0.03701358
0.12559521
-0.04456774
-0.03982737
0.16263400
-0.05472087
-0.15701391
-0.06963657
-0.01133396
0.05136705
0.01734551
0.03499961
0.05669280
-0.12425516
0.00772486
-0.09851941
-0.00494891
0.04087794
0.03416513
0.08372633
0.00202722
-0.01711447
-0.03513870
0.02807102
-0.04314544
-0.06385323
0.03048050
-0.08903851
-0.10228693
-0.10239581
0.00130830
-0.02772174
-0.00641458
-0.04983262
0.03758658
0.04092032
-0.02293234
0.07100539
0.04152343
0.02882280
-0.03784978
0.06507531
-0.00141284
-0.00794249
0.02684003
0.01547304
-0.01617355
0.02485775
0.02478595
-0.04629477
0.08659445
-0.03564285
-0.01779912
0.01601380
0.01569084
0.02697347
0.00851263
0.05936062
0.07706787
0.00593627
0.02517887
0.05081677
0.09183574
-0.03667356
-0.00756399
-0.01477767
-0.19039463
0.01541626
0.03679392
-0.26525256
0.05706363
0.15411504
-0.11875121
-0.03791985
-0.01864944
0.11557223
0.00098884
-0.04482868
0.03911109
-0.04279499
-0.01432514
0.02334180
0.16437197
-0.03712726
-0.07437148
-0.00799552
0.07273348
0.02199914
-0.01293972
0.03628723
0.05927012
-0.05000322
0.08051046
0.04611883
0.02761162
-0.00029778
0.10772235
0.01693542
0.04715415
-0.00990772
0.00748021
0.00806109
-0.06197233
-0.19247308
-0.01341015
-0.07500155
0.02295043
-0.01608294
-0.05592834
0.09526012
0.09032603
-0.01535535
0.04680911
-0.04821650
0.14695913
0.08811339
-0.04031325
-0.04916281
0.04054984
0.11885699
0.00922526
0.04934180
0.13082531
-0.04911222
0.02365654
-0.02565527
0.06396876
0.04914961
0.04389842
0.02596921
0.01694078
0.01318309
-0.01661568
-0.00117996
0.04006127
0.05042239
-0.00717284
-0.00834648
0.07444795
0.04015703
0.10803002
0.04775029
0.12748161
-0.12732625
-0.04446657
0.03563825
-0.02196276
-0.01406559
-0.13465770
0.03248394
0.00300465
0.00794064
-0.03030187
0.01632068
-0.00495188
0.06363823
0.03935944
-0.05747871
0.02740319
-0.07820165
0.02791474
0.01184351
-0.03889029
0.05047525
-0.14716028
0.04749357
0.06367738
0.03043388
-0.04767572
-0.00651596
-0.05546830
0.11792892
0.03475049
-0.04555540
0.02161838
0.05289781
0.01403945
0.02433160
0.00512685
0.04187304
-0.06969509
0.02535011
0.05917276
0.01165701
0.08788429
-0.07715236
-0.04668133
-0.07318904
-0.03476635
0.03377517
-0.05506000
0.10706024
0.07946474
0.03346239
0.04368515
-0.07914384
-0.08216155
0.07540718
0.10314605
-0.04691184
0.14177772
0.01254812
0.14181004
-0.06261089
0.07534889
-0.01779893
-0.01878531
-0.00098445
0.00838784
-0.01118211
-0.03918980
0.02617675
-0.02092743
0.06499039
0.03444185
0.03065150
-0.04321831
0.04359364
0.04006847
0.04275998
0.09037561
0.03389924
0.01893976
0.15703210
-0.11839486
-0.00443411
0.08112819
0.03603291
0.06329431
0.00133816
-0.03228006
0.03625118
0.09258022
-0.08135698
0.07149278
-0.06252190
-0.10348108
0.14143869
0.00401741
0.05544625
-0.01095664
-0.02187174
0.11874070
-0.12564759
0.14938089
-0.18694878
-0.05461051
0.10279792
-0.00766056
0.01627851
0.08250540
-0.01106569
-0.05426064
-0.08411248
-0.03485061
0.03615785
0.02753625
