-0.08007060
-0.06902260
-0.03309895
0.05240379
-0.09659084
0.06977562
-0.13379152
-0.09142908
-0.02423941
-0.01757615
-0.02012802
-0.13722454
0.06030766
-0.12613468
-0.00574736
-0.02187092
0.00827327
0.01968580
-0.00044143
-0.22346510
-0.15702888
0.09292201
-0.11518218
-0.08650072
-0.01985536
-0.14734462
-0.09421849
0.00028531
0.05517703
-0.04414488
-0.02253644
-0.08603770
-0.08688898
0.03423915
-0.06875901
0.01822077
0.02701668
-0.11777138
-0.11526190
0.04319582
-0.05120802
0.05288456
-0.03787153
-0.10865412
-0.02832190
0.00580670
-0.02258636
0.01360631
-0.06903686
-0.01058166
0.09970171
-0.02953187
-0.15331374
0.07822330
-0.05081698
-0.01613590
-0.05159346
0.08743893
-0.09188809
0.00801460
0.01797267
-0.00723563
0.04313867
0.06011482
-0.02897052
-0.07286503
-0.04502650
-0.02865870
-0.03670572
0.03226236
0.05269555
-0.06329231
0.03238821
-0.00378163
-0.12158252
-0.05352356
-0.03879221
-0.06754072
-0.07249220
-0.07104522
-0.02985794
-0.04112897
-0.08094124
-0.11936399
-0.05167462
-0.02410475
0.06613226
-0.09873744
-0.04688039
-0.04587832
-0.02227978
-0.01174281
-0.25696725
0.01424755
-0.06143901
-0.00729872
-0.12949067
0.02951377
-0.01168746
-0.00508369
-0.08874359
-0.08788778
-0.05895916
0.00150968
-0.07898054
-0.03393308
0.03423206
0.00024480
-0.05673392
-0.05441196
-0.02199054
-0.06016874
0.06364479
0.05463059
-0.01858993
-0.01276476
-0.04170987
-0.03761368
-0.00380278
-0.12231211
0.00186574
0.12289546
0.01788901
-0.02559587
-0.03377065
0.02974566
-0.00520745
-0.07568292
-0.05568607
-0.02501026
-0.07269674
-0.08295777
0.03564664
-0.00572621
0.00862109
0.04544577
-0.02051714
-0.05403157
0.04121398
0.07056485
-0.03206993
-0.05635238
-0.02645773
-0.04796243
-0.04588105
0.15226711
-0.02913753
-0.00093813
-0.02024800
-0.13031358
-0.03476373
-0.09507532
0.03861064
-0.07155602
-0.05656287
-0.01228530
-0.10813538
-0.17036596
-0.06788131
-0.01554570
-0.01179410
-0.01530698
-0.01186720
-0.06570657
-0.01828110
-0.13669454
-0.04993706
0.05974486
0.17381309
-0.01620179
-0.03793318
-0.08103241
-0.01338616
-0.16658522
-0.08244722
-0.10878833
-0.03398448
-0.04355400
-0.02994615
-0.08194369
0.00977569
-0.06636710
-0.01814084
-0.13303992
-0.10783718
-0.01115497
-0.10552920
-0.08688225
-0.10502327
-0.03677338
-0.00230567
0.06940290
-0.13630866
-0.00442920
-0.06134327
-0.08132241
-0.02284797
-0.11246648
-0.00049020
0.01679604
0.00748713
-0.10739167
-0.04993081
-0.06307576
0.01323682
-0.08984166
-0.07531572
-0.03107401
-0.06109557
-0.01533477
-0.02756677
0.01430509
-0.09590354
-0.11630330
-0.01901440
0.00132929
0.04035879
-0.00543287
-0.12993446
0.00730328
-0.03575660
-0.08198233
-0.05352053
-0.03297491
-0.03815072
-0.13978966
-0.09386410
0.02029018
-0.09005054
-0.03949602
-0.08831146
-0.03023119
-0.06711724
-0.01757964
-0.03037362
-0.08271070
-0.05210704
-0.04959429
-0.00860642
0.03770402
-0.02209852
-0.04394212
-0.00358500
-0.05718670
-0.04185878
-0.00586422
0.03653305
-0.05631836
0.02487837
0.10129285
-0.05295677
-0.11299504
0.00214328
-0.00266996
0.00085403
0.04341132
0.06051705
0.03853793
-0.05763050
-0.05606731
-0.08997580
0.01332414
-0.12114825
-0.07248024
-0.10830080
-0.05641443
-0.02236994
-0.04763861
-0.07331686
-0.05270842
-0.03771518
-0.03285548
-0.04517904
-0.03401704
0.01782237
-0.04630467
0.01630789
0.07086438
-0.01136677
0.04853749
-0.09083386
-0.03583129
-0.04021953
0.02700521
0.08571248
-0.03619269
-0.06802671
-0.13556603
-0.09531735
-0.04243791
-0.04898848
-0.02601009
0.03219013
-0.00219477
-0.11120279
-0.05520704
-0.01907611
-0.19198419
-0.03541769
-0.02179360
0.00931486
-0.02434060
0.02707252
-0.09017406
-0.16660088
-0.12843356
0.04657021
0.01187717
0.07663579
-0.01474027
0.01271676
-0.08905510
-0.04130086
0.01143793
-0.06681221
-0.03722190
-0.05391954
-0.04540651
0.00196449
-0.05833391
-0.01235289
-0.03788443
-0.08700904
0.05488194
-0.04008869
-0.11045757
-0.05123600
-0.02154271
-0.01362686
-0.04903707
-0.00947260
-0.02784570
-0.04147055
-0.12998016
0.01061450
-0.06734647
-0.01085798
0.00927516
-0.02886858
-0.03306008
-0.01584833
-0.09778269
-0.06865211
-0.01006136
-0.01892818
-0.09634763
-0.01213963
0.03686927
0.03092409
0.04789763
0.00997224
-0.11674266
-0.00744447
-0.06788189
-0.03325864
0.00618373
-0.02121158
-0.06819618
0.02615259
-0.04013064
-0.05006345
0.02823221
-0.04178753
-0.07792509
-0.04677770
-0.00322092
-0.00044754
-0.05574780
0.00576618
0.02398488
0.00008420
-0.04198348
-0.07719506
-0.08771875
0.03171957
-0.04816518
-0.03708258
-0.01150250
0.05000605
-0.01642305
-0.02086474
0.11345674
-0.08235864
0.09066945
-0.03665836
-0.03038079
0.02517250
-0.09355781
-0.01338061
0.01553203
-0.05982408
-0.06512924
-0.09473320
-0.01448056
-0.11416680
-0.02927693
0.00908830
0.05052489
-0.02386162
-0.02546425
0.00718073
0.00681958
-0.02360044
0.04883930
-0.04545011
0.11146928
-0.06433564
-0.06241212
-0.06448406
0.00485551
0.04307396
0.00500922
-0.05215210
-0.06287969
-0.01337788
-0.06632806
-0.04041517
-0.03013986
-0.04419526
-0.01915226
-0.01302752
0.03576490
-0.09756077
-0.03562206
0.07111867
-0.05711087
-0.03260390
0.00598241
0.05177689
-0.08982212
-0.03672797
0.01403350
0.00191027
-0.05061430
-0.05807833
-0.11523088
0.06702664
0.02364578
0.01409230
0.04354701
-0.03317261
-0.03182160
-0.03042659
0.01472711
-0.03583613
0.00787868
0.01194188
-0.06470144
-0.01370543
0.05542539
-0.01132271
-0.03338299
-0.12371530
0.06140368
-0.08783571
-0.01050801
-0.05012559
-0.06348080
0.00544015
0.03034313
-0.06164212
0.05018296
-0.05985947
-0.12428862
-0.09099350
0.02508904
0.05706103
-0.03415145
-0.07496346
-0.05012421
-0.05381174
0.02792071
-0.00367941
-0.02161592
-0.03558347
-0.01149867
-0.02200445
-0.03146754
0.03641216
-0.01053989
-0.06541700
-0.12892658
-0.01812245
-0.03041183
-0.01547008
-0.03999799
-0.05565924
-0.07947746
0.07978751
-0.03954511
-0.05285886
-0.02232250
-0.12440541
-0.03814893
0.02616335
-0.03854360
0.00264595
-0.07312460
-0.01634803
-0.07125697
-0.02264982
-0.04378545
-0.04942632
-0.00367524
0.00618353
-0.01934115
0.00140176
-0.04363393
0.00055884
-0.04457634
-0.02161579
-0.01175752
-0.04044748
-0.05795783
0.06434308
-0.10992296
0.02545927
-0.00932191
0.04074648
-0.07747868
0.01480120
-0.08028743
-0.07590687
0.01874215
0.04621085
0.00221572
-0.05685537
-0.04394684
-0.05022157
-0.04575610
0.03815036
-0.02819790
-0.03832583
-0.00513611
-0.02484844
-0.01427531
-0.01842055
-0.07813558
-0.03653893
0.04425694
-0.06788263
0.04347297
-0.00353636
-0.03417725
-0.01984154
0.02240735
0.00645292
0.00581364
-0.10215351
-0.09910686
-0.04367070
0.03950916
-0.09247778
-0.07653742
-0.11741994
0.03615429
-0.07645500
-0.03668482
-0.10389449
-0.03476850
-0.00382340
-0.00218425
0.02873684
-0.00268405
0.00919104
-0.05442534
-0.04209142
0.00975405
-0.03922362
0.01043017
-0.05396549
-0.04575267
-0.05221793
-0.05484959
-0.02195105
-0.05325060
-0.01035948
0.02444765
-0.07806460
-0.03421199
0.02875991
-0.01742083
-0.09905428
-0.03227763
-0.00981410
-0.06810641
-0.19414468
-0.04775338
0.00442318
-0.02396911
-0.08450938
0.01288900
-0.04763195
-0.02689437
-0.07011161
-0.02189793
-0.07789058
-0.08121669
-0.08912957
-0.05622504
-0.08749118
-0.07959552
0.03109883
-0.06030091
-0.09876034
-0.05526379
-0.05671800
-0.08493752
-0.05158228
-0.00399087
-0.02952618
-0.00055115
-0.03980852
-0.01580510
-0.01177625
-0.07485066
0.01576477
-0.02938448
-0.03162555
-0.08456103
-0.06889550
-0.00753915
-0.03880202
-0.04436636
-0.02359992
-0.07210431
-0.15677918
0.01814057
-0.02254706
-0.03895724
-0.09947351
-0.10202197
0.01234696
-0.14429660
-0.08080038
-0.03853268
-0.06859896
-0.06377440
-0.08702310
-0.09472810
0.01424177
-0.04616770
-0.05683739
-0.03780983
0.00450514
0.00557869
-0.09732184
0.00177356
0.01727680
-0.10369807
-0.02489142
-0.04113832
-0.05918863
-0.08785898
0.05201434
-0.01857290
-0.02413795
-0.01941776
-0.04391544
-0.01649046
-0.05776567
-0.00852731
-0.07844428
-0.00287769
-0.03280585
-0.01817671
-0.05982830
-0.04247376
-0.08131337
-0.03692818
-0.03989919
-0.06597152
-0.00756690
0.00037974
-0.06005751
0.01348417
-0.11270206
-0.05870171
-0.10864905
0.01154463
-0.05466438
-0.00650953
-0.13758995
0.00378018
-0.02482045
0.02739976
-0.11991875
-0.00463965
-0.01820538
-0.06385857
-0.03613349
-0.11767701
-0.05804734
-0.06474081
0.00031586
-0.11384831
0.03068944
-0.00580500
-0.04923725
0.02988945
-0.09166240
-0.00359370
-0.00425938
-0.07142003
-0.02578760
-0.05963320
-0.12330293
-0.08220973
-0.08607256
-0.07859790
0.04323568
-0.08726016
-0.05100095
-0.07887555
0.04858945
-0.07145166
-0.02955511
-0.06554221
-0.07774077
-0.07085796
0.01472858
0.01322567
-0.02410990
0.00499186
-0.08444895
-0.02307861
-0.01892512
-0.02486663
0.01227921
-0.07615940
0.00986810
-0.08765239
-0.06629553
-0.08348908
-0.11888063
-0.07572606
-0.10340665
-0.03665685
0.00279869
-0.01223240
-0.00439523
-0.03873987
-0.11228076
0.01550219
-0.03415088
-0.09230031
0.00677691
-0.01940117
-0.08020636
-0.03184390
-0.05370891
0.05807640
-0.01502345
-0.06554897
-0.00693087
-0.04939250
0.11167528
-0.09839539
-0.01893456
-0.05893367
-0.06438404
-0.08459141
-0.03674650
0.01099393
0.01094536
-0.02974534
-0.00886978
-0.05020234
