-0.09054635
-0.06348861
0.06825596
-0.09719068
0.08301754
0.09345099
0.16229299
0.16977105
-0.12090321
-0.16260923
0.01201068
0.01336384
-0.20011915
0.06472583
0.00344157
0.24300705
0.20029756
0.06784773
-0.08902634
-0.04811220
0.19878961
-0.02202472
-0.03460221
0.09221654
0.00199638
0.09010500
0.06968238
-0.12671225
-0.09455933
-0.03464353
0.13520364
0.00011748
0.13679679
-0.14362754
-0.08690815
0.05042603
-0.16264522
-0.08819659
-0.04824746
-0.16090074
-0.09835766
-0.17169093
-0.08845200
0.08608388
0.03264960
-0.01834770
0.15757371
0.08578146
-0.03118917
-0.02281903
-0.29118317
-0.03135111
0.19864413
-0.07773498
0.09835460
0.12688825
-0.05610515
-0.13920049
-0.15928024
-0.15855089
-0.06428927
0.08694752
-0.03472828
-0.10928816
0.01356119
0.14653219
-0.03273165
0.01981496
-0.18053743
-0.04982524
-0.09649748
0.06452873
-0.09259361
-0.06353527
0.10898363
-0.02014597
-0.13009806
0.06131282
0.04887170
0.03213898
-0.03243633
0.09261239
-0.03810437
0.08071554
-0.01397060
-0.11158215
0.06845166
-0.10452934
-0.18348958
0.11347309
-0.12591693
-0.14664170
0.08593189
-0.08813708
0.07874265
-0.00968636
0.08734989
-0.05960275
0.05585807
-0.12699185
-0.10953657
-0.08033966
0.10839239
-0.07610336
-0.08057065
0.03676530
-0.08568831
-0.17900696
-0.10565462
0.03731751
-0.07794582
-0.01530851
-0.06810249
-0.17258394
-0.07638794
0.04206350
-0.03562860
-0.10780593
-0.07933894
-0.05586586
-0.05655810
-0.07934844
0.00129174
1.04343593
0.02540423
-0.27425990
-0.03630715
0.06561606
-0.11398800
0.02458401
-0.00950283
0.02563129
-0.07130922
-0.07742637
-0.16310763
-0.02114735
0.02739395
-0.06558062
-0.07134674
-0.08154946
-0.10267533
0.00667492
-0.01068452
0.10808273
0.14361611
-0.05391845
-0.08363139
-0.27358401
-0.10526571
0.08873417
-0.06243071
0.11382920
-0.09933574
-0.06023886
-0.12436877
0.05498883
-0.01405646
0.02813486
0.02799120
-0.16919279
-0.02088788
-0.10378030
-0.04208844
-0.01304393
0.18526164
0.04685187
0.07597244
0.10527425
-0.12711494
-0.04122067
-0.08305205
-0.14633429
-0.06565383
-0.07954720
-0.03646073
0.05435803
0.09476244
-0.01956197
0.04892857
0.05565839
-0.44936416
0.10583663
-0.03901917
-0.04409511
0.02178122
-0.00461345
0.27934900
-0.06736995
0.09157962
0.01858903
-0.14865376
-0.00483930
0.14123675
-0.14626122
0.02654542
-0.10229028
-0.09101997
-0.04362433
-0.01855206
-0.02192031
0.00350136
0.01385020
-0.02770697
-0.14884651
-0.09155744
0.03988957
-0.04934473
-0.09450339
0.01174279
0.03382980
-0.16393912
-0.04034271
-0.00340424
0.11160095
-0.02988622
-0.04147761
-0.20157611
-0.04888722
0.11933289
-0.13173309
0.01240489
0.15231840
-0.07522627
0.05120101
-0.04576635
0.41219097
0.05076983
-0.16891491
0.09714825
-0.06396268
-0.16266431
-0.07375528
0.32496792
-0.13721582
-0.09004271
-0.03870340
-0.05201011
-0.01501709
0.09535370
-0.30439636
0.04830379
0.07550463
-0.20972951
0.13394637
-0.05352672
-0.09173653
0.06277846
0.00476319
-0.10185425
-0.07201295
-0.19004010
0.14537363
-0.04862652
-0.10837366
0.01172183
-0.09046188
-0.06305275
-0.13702114
-0.04652156
0.10427655
0.12000098
-0.00773302
-0.04221160
-0.03024837
-0.02128184
-0.24541169
0.00541617
-0.00019345
0.03213473
0.02825227
-0.02683970
0.05907254
-0.12658390
0.04071527
-0.04417775
-0.08970695
-0.00062399
-0.00156256
-0.07620478
-0.08652455
0.00332843
0.10865272
-0.03609889
-0.10281149
-0.28213805
-0.06244258
0.15243857
-0.05053305
-0.03248465
-0.11331858
-0.06156199
-0.00466656
-0.18415073
-0.02920596
0.18171474
0.03207123
-0.07072093
0.00949487
0.11509823
-0.06724232
-0.10994344
0.12850459
-0.01504475
0.07211165
0.08946083
-0.04680595
-0.10091587
-0.13465683
-1.03247797
-0.00273194
-0.15112323
-0.10343001
0.12789181
0.07514284
-0.13464817
0.08824946
-0.04868898
-0.06749938
-0.05339331
-0.08651982
-0.02576832
0.16650176
0.06268501
-0.27893952
-0.07968689
-0.11869401
-0.01437809
0.18326856
-0.02488513
-0.08767023
0.06834647
0.07920934
0.05292382
0.17061859
-0.05246225
-0.10548852
-0.14098465
-0.02759036
0.00470500
-0.13595691
0.01193076
0.10530049
0.06876197
0.04983643
-0.04037128
-0.17272268
-0.01308929
-0.23022051
-0.08973133
-0.26310074
-0.06130386
-0.10213929
0.22937834
-0.07204171
-0.01688120
-0.06562725
-0.09927859
0.12821893
0.02454722
0.00684515
-0.01813935
-0.21175089
0.11037700
0.01820849
0.05670054
0.01599717
-0.10120045
0.00615819
-0.16407204
-0.10703651
-0.27492490
-0.05288152
-0.02814493
-0.20014688
-0.26329789
-0.02215351
0.11690529
-0.16179043
-0.21453084
0.01102227
-0.06318634
-1.48337197
-0.10994930
-0.17155920
0.24698552
-0.04968154
-0.09198312
0.07769988
-0.05323208
-0.17507870
-0.13983373
-0.00835053
0.00205216
-0.17419837
-0.10191955
-0.06151992
-0.18559140
-0.15249723
0.17885202
-0.07547429
-0.03335547
-0.12587926
0.09949181
-0.09665417
-0.13548256
-0.05857760
0.02973416
-0.19106545
0.08196428
-0.05969483
-0.05168054
0.00770269
-0.01716856
-0.08684174
-0.04835594
0.05108952
0.02636733
-0.12109131
-0.00970725
-0.02795299
-0.02070674
-0.07782449
0.02278220
-0.14136036
-0.00979088
0.01704363
-0.10238995
-0.19537507
-0.14019734
0.08653245
-0.13680303
-0.15188165
-0.07567244
0.09211662
-0.07942908
0.03332337
0.04742698
-0.18336920
-0.03629678
-0.05688431
0.05385895
0.01445109
0.01071174
-0.16971657
-0.10412133
-0.35030714
-0.19213338
0.09336956
0.03741255
-0.09673817
0.06108382
-0.11029349
0.13455500
-0.11097549
0.18243647
0.11732402
-0.04464087
0.05479372
-0.34754378
-0.27451104
-0.01714722
-0.17725827
0.01768149
0.12123362
0.21136232
-0.08618347
0.13943373
-0.32222015
-0.00271591
-0.05192351
0.01512695
-0.06464116
-0.09620846
0.10545631
-0.11864057
-0.16785993
-0.06174173
0.03858250
-0.16150199
-0.08023827
-0.04714016
-0.06316652
-0.11672205
0.09635121
-0.15909570
-0.11257090
-0.04928493
0.13014533
-0.02342071
-0.04507723
-0.16595514
-0.10813776
0.00245598
0.01878442
-0.04646146
-0.10536909
-0.17336389
-0.02838668
0.01802915
0.11169382
0.04182500
0.11356276
-0.08757526
-0.14540707
-0.04575481
-0.00385383
-0.15230374
0.04348998
-0.21492702
-0.07552782
-0.10489760
-0.06876787
-0.03478076
-0.09258375
-0.03485667
0.17226784
-0.02138569
-0.11086633
-0.19174953
0.01478768
-0.05097818
0.06205202
0.03211691
-0.08854961
-0.01828627
-0.10574302
-0.10732863
-0.05930982
0.01576229
0.03637736
0.01243150
-0.03242669
-0.14930631
-0.00942612
0.04511958
-0.14788172
-0.01973270
-0.13491179
0.01102125
-0.33812383
0.03101595
-0.04624692
0.04330974
-0.06612959
-0.15350011
-0.10536638
-0.09778696
-0.00456088
0.13063443
0.08894345
-0.09912679
-0.09295420
0.10193286
-0.02868777
0.00639827
-0.05349335
-0.07388914
0.12781858
-0.01252156
-0.08559482
-0.12905937
-0.08380585
0.14729081
-0.10681350
-0.13132592
0.01072933
-0.01968129
0.05764240
-0.05320038
0.02522879
-0.12709512
-0.00468957
0.15401894
-0.02324392
-0.11182583
0.05622558
0.03186181
-0.29828000
0.02033442
-0.26428068
-0.07238241
0.05678516
0.06181985
0.02784809
-0.15188314
-0.13959894
0.20051584
-0.07752468
-0.13341902
-0.06715842
-0.06704468
-0.11004054
0.02780075
-0.06709129
-0.04188824
0.05010339
-0.13486677
-0.03026398
0.02081255
0.06132250
0.00016805
-0.05163988
-0.12179870
0.10847586
0.05342127
0.14020029
-0.02220792
0.01979778
-0.20072170
0.00793426
0.05382575
-0.11344253
-0.05569589
0.02087866
-0.03644662
-0.13808411
-0.18548146
-0.04684202
-0.10109060
-0.17947738
0.19095367
-0.01455265
0.04338962
-0.02879326
0.00464618
0.06759254
0.15359247
-0.06338303
0.01703519
0.01761793
0.12577234
-0.00409517
0.12167941
0.25321665
-0.03684632
0.01211587
0.10519617
0.03645524
0.10209719
-0.01625407
-0.11709450
0.20147279
-0.15598166
-0.24271514
-0.04355563
-0.31521732
0.00762546
0.22769812
0.07515056
0.19151485
0.10511801
0.07024749
0.14494522
0.08159928
-0.06992954
-0.10041986
0.08194255
0.10285804
-0.00911167
-0.10304821
0.02115844
-0.08934897
0.09450103
-0.07768109
-0.00949984
0.01394530
-0.03473907
0.20440641
0.13875879
0.17511712
0.12873623
-0.05905010
-0.16199970
-0.07018229
0.18705115
-0.09284540
0.07794113
0.02538148
-0.03228551
-0.06227595
0.02854728
-0.08331790
0.07209502
-0.06810655
-0.03396461
-0.04266323
0.03007168
0.15009265
-0.16389263
-0.03164159
-0.08938702
-0.09339411
-0.05172704
-0.00038891
0.04206536
-0.02408851
-0.20062712
-0.06783289
-0.06062671
0.06144646
0.17131025
-0.00920974
-0.10444620
-0.00842594
0.17172015
0.03812317
0.27099818
0.07550752
-0.02007916
0.03006942
-0.08886849
0.07019646
0.05319218
0.04036038
-0.09515786
-0.01127782
-0.21069145
0.02610718
0.04757356
-0.04138633
-0.67413771
-0.01318854
-0.09257273
0.05679659
0.09864395
-0.15466091
-0.08281329
-0.13443252
-0.08848464
-0.06898689
0.04935867
0.01311084
-0.08665627
0.07017602
0.23604245
-0.06339261
-0.10945114
0.21244983
-0.11289568
0.05134485
-0.03519830
-0.02801315
-0.23247980
-0.14077154
0.04038339
0.07721976
0.01882499
-0.20915081
0.06866833
0.07879239
-0.08395088
-0.08415435
-0.07940746
0.15112408
-0.16505368
-0.04538175
-0.29553112
0.06843691
-0.08851431
-0.15576340
0.06207976
-0.13777618
0.05503473
-0.16081728
-0.16716602
-0.04948635
-0.07255122
-0.06726653
