0.02416167
0.05066798
-0.06849819
-0.00791770
0.00817586
-0.05175495
-0.03498309
-0.06200259
0.02490584
-0.03310788
0.01907004
-0.01920846
0.05742558
-0.04964329
-0.05769670
-0.01179484
-0.03005535
0.00033336
-0.06594522
0.04318008
-0.06625934
0.01086745
-0.04600005
0.01067604
0.03359078
-0.03702849
-0.11338256
-0.06915709
0.18220565
-0.02696388
-0.00294107
0.03103404
-0.06627348
-0.00751854
0.01744906
0.03772678
0.02892705
0.00179966
0.01865860
0.06724267
-0.01731329
-0.01446887
0.09368047
0.00899001
0.04082097
-0.03584701
0.02568270
-0.04958943
0.06743246
0.02053601
0.10656489
-0.00099912
-0.10839894
0.05877246
0.01629226
-0.03597168
0.05526500
-0.07526632
-0.05575488
0.03070452
-0.07208673
0.06612822
-0.07867674
-0.03202136
0.01993809
-0.01161235
-0.03968555
0.05060083
-0.03921144
0.02175727
0.07029804
-0.01954165
-0.04297275
0.11257813
-0.08484341
0.09080408
-0.06384383
-0.06232713
-0.02876332
-0.08876630
-0.07746423
0.01351217
-0.00150303
-0.03122601
0.03646185
0.09567422
-0.08592848
0.10460772
0.01558801
-0.04731848
0.07725013
-0.02890418
-0.15409166
-0.02218287
-0.00547700
0.04859487
0.00574451
-0.00238710
-0.04340975
-0.01841617
0.07669260
-0.04126228
0.02804297
0.07711860
0.09580209
-0.03031323
-0.11850554
0.02148591
0.04115609
0.05200892
-0.03713591
0.01066454
-0.00730068
0.04167829
0.06127782
-0.05761866
-0.03702208
-0.00700737
-0.05435005
0.02991151
-0.05827108
-0.05798265
0.02055645
-0.11566887
-0.03013782
0.04673013
-0.01622580
-0.09311345
0.00326009
-0.02217669
0.00953328
-0.10983045
-0.05917443
0.03030840
-0.03763601
-0.03613149
-0.02353328
-0.09204941
-0.02687862
0.05255257
0.12766966
-0.01367941
-0.02958490
0.02435186
-0.02154101
0.02249608
0.05990318
0.08330942
-0.06960216
-0.02532623
0.02823262
-0.02503332
0.01395554
-0.02000062
0.03122966
-0.08503009
-0.05813655
0.02476974
-0.01612568
-0.04908420
-0.03710754
0.01669957
0.08948743
0.02202402
0.04641613
0.04522922
-0.06073197
-0.04772881
-0.12452661
0.00399975
0.01705710
0.06715391
0.01403814
-0.01545555
-0.01231019
0.08489154
-0.04593004
-0.07380228
-0.03591881
0.02897375
0.14384133
-0.03023382
-0.06889219
-0.01749753
-0.02481308
0.02501489
-0.09162709
-0.00803524
-0.00783408
0.00253580
0.07064443
0.01601381
-0.10892533
0.01568392
0.05756637
-0.03333905
0.02956472
-0.04093689
-0.03081123
-0.07492022
0.03112929
-0.09491323
-0.00470050
0.07131756
0.08326131
0.00354688
0.02654732
-0.02525417
-0.06044049
0.05534427
0.03849636
0.12332816
-0.07774922
-0.01233891
-0.08820541
0.08095888
0.03254388
0.05578749
0.02625417
0.06883133
0.00919848
-0.04863840
-0.07597733
0.06638569
0.04759461
-0.08391324
0.02755128
0.04608476
-0.02721613
0.00724411
0.04844052
-0.00405702
-0.09395001
0.03606006
-0.03145286
0.05596762
-0.04675037
-0.00685911
-0.03297861
0.03648259
-0.00608012
-0.05995614
0.15649581
-0.10118338
0.07987239
0.06216126
-0.05296733
-0.02324717
0.00760156
-0.02209412
0.02721027
-0.16089517
0.00476895
-0.07749752
-0.08090531
0.08298294
0.04728580
0.07696801
-0.03335025
-0.05687945
-0.01233616
-0.07405171
0.01737178
0.03536331
-0.11636018
0.06500197
0.06532788
-0.03888449
-0.05712971
-0.04699068
-0.07793144
-0.01704887
-0.04150386
0.00905338
-0.01258196
-0.00579587
0.03307186
0.02610960
-0.02497453
-0.06170645
0.02416785
-0.07643932
-0.03426662
0.14763318
0.03061628
0.04519704
-0.09335221
0.06709767
0.03763990
-0.07065648
-0.03608799
-0.07389649
0.06379549
0.00299849
0.00072325
-0.01733859
0.04850763
-0.01165261
0.00408781
-0.04073785
-0.01723611
-0.00823419
0.05717963
-0.00668176
-0.16153313
0.08485697
0.04780455
-0.00070489
0.64592183
-0.04369335
0.01180190
-0.03626647
-0.00697164
-0.05346447
-0.02103276
-0.02581243
-0.03747296
-0.07904292
0.09937762
-0.09050497
0.03959627
0.00364526
0.05688734
0.04100016
-0.02326499
0.06313562
-0.14951733
-0.00128505
0.01833428
-0.06379131
0.09962635
-0.05048802
0.07611093
-0.08470713
0.15236169
0.05126298
0.08662366
-0.01608870
-0.08276770
-0.06271926
-0.03102822
0.03111232
-0.11227345
-0.02479332
-0.00199496
-0.00308769
-0.03255930
-0.00828887
0.03447549
-0.00598350
0.06281251
0.03925050
-0.03734453
0.02649060
-0.01466943
0.00495578
-0.01305043
0.00135804
0.07024723
-0.03494450
-0.06118950
0.01036165
-0.04097405
0.04304051
-0.03621946
0.01853549
0.06870289
-0.01930056
-0.05932264
0.00453344
0.07518467
-0.03950078
0.03267884
0.02575125
0.00532526
-0.00099895
-0.00542273
0.00325817
0.07618703
-0.06284608
-0.03594614
0.22222289
0.09943968
0.07772541
-0.02919498
0.03453701
0.08556641
0.05908427
0.08029605
0.00384142
0.00737370
0.00050993
-0.04523579
0.07394768
0.02634060
-0.08677153
0.13672146
0.02484892
-0.01549782
0.03657934
-0.04802608
0.05986505
-0.13644785
-0.04031602
-0.00098165
0.06267380
0.02657956
-0.03131767
0.00681389
0.05348661
0.03826364
0.03283919
0.04141030
0.00082603
-0.00066109
0.05401021
-0.07850202
-0.05304001
0.04309846
0.00116290
-0.00116457
0.05592240
-0.03570352
0.11753634
-0.01258615
0.00125048
0.00837619
0.02144164
0.04226930
-0.00190732
-0.06441522
0.02411095
0.05730755
-0.11516742
0.04227871
0.02420108
-0.05358546
0.04275924
-0.02830958
-0.02159946
-0.04064010
-0.00237463
-0.04281684
0.00283957
0.02103610
0.03511460
0.03327261
0.10771544
-0.00869021
0.03130263
-0.07496429
0.01318382
-0.06665657
-0.01248475
0.01972837
-0.04317213
0.04384975
0.02306823
0.06296458
-0.00697954
-0.07442788
0.07471021
0.04665981
-0.06535410
-0.02977167
-0.08699842
-0.10209187
-0.01678340
0.02653810
0.14152572
0.02726428
0.06920379
-0.00567531
-0.04239905
0.12172424
0.02454181
-0.00896294
0.00818847
0.00036715
-0.04059999
0.03206239
0.10717397
0.00812055
0.03837205
0.03024315
-0.02311200
-0.05423997
0.05616933
-0.03806912
-0.10003622
0.00611340
-0.04122078
0.01633131
0.00198074
0.09518634
-0.00250967
0.11389884
-0.03910159
-0.10684578
0.01629302
0.00702138
-0.04591179
0.01106759
0.08365510
0.11163378
-0.04131132
0.04617888
0.08042002
0.11193059
-0.04543247
0.13477409
-0.05672135
0.02684834
0.01549711
0.01879969
-0.04382414
0.04971622
0.00554899
0.04715348
0.09042327
-0.07086280
0.01455255
0.06889817
0.02432562
0.01131088
0.01131765
-0.02259580
0.05240640
-0.08335239
-0.05353660
0.01995054
-0.04533599
-0.07837999
-0.10426447
0.06094791
-0.00105745
-0.09971285
-0.00547119
-0.12239553
0.07288234
-0.00144020
-0.02040803
0.05320080
0.03947580
0.07362616
-0.10089370
-0.00516381
0.00836898
-0.10103263
0.00928675
0.05509311
0.00528334
0.06873585
-0.02014458
0.02862748
0.00350172
0.03971722
-0.03875856
-0.00121071
0.04719385
0.02922762
-0.01804564
-0.01468592
0.02079931
-0.06604152
0.01371754
-0.03972496
-0.09808128
-0.03175045
0.06368947
0.04933485
-0.03471157
-0.11331636
0.06384041
0.11289050
0.09510157
-0.02015559
0.13574152
-0.05724704
0.05515322
0.04205873
-0.03153141
-0.14343169
0.00252807
0.02871913
-0.06695547
-0.08160599
0.03949282
0.04633667
-0.13195938
-0.02110168
-0.03194800
-0.00927850
0.11545925
0.01957557
-0.03584458
0.00369948
-0.01330559
-0.02415066
0.03240144
-0.10022465
0.02844243
-0.01039573
-0.03424857
-0.01630748
-0.02369905
0.05260817
0.05868364
0.02716930
-0.08968169
0.00275537
0.03552829
0.09440442
0.10810292
0.07317361
0.01962268
0.06984169
0.08508766
-0.02353572
0.03375871
-0.11284664
-0.01506340
0.00029645
0.00984967
0.05913480
-0.03411677
-0.07694735
0.04802075
-0.07990482
0.04091056
-0.08150303
0.05739670
-0.01347579
-0.02111501
-0.01318517
0.00290747
0.04123508
-0.00715097
-0.07456910
-0.02884716
-0.02492791
-0.02451311
0.09762172
0.05193045
-0.00113268
0.12187367
0.01011357
0.01811283
0.03819167
-0.04435237
0.00585634
-0.05013000
0.00543910
0.00679183
-0.01414514
0.08530743
-0.01466047
0.02298175
-0.02339670
0.03975346
-0.01808734
-0.06173430
-0.08698737
-0.00300361
-0.03558755
-0.00655147
0.04136346
0.00155386
-0.07280943
-0.10955822
-0.09835184
-0.07478052
0.01984259
-0.03361349
-0.02632859
0.06242968
-0.06785830
-0.04190492
0.04688721
-0.01717923
0.00455570
0.04218432
-0.08141813
0.02587334
-0.02477228
-0.01265530
-0.02232565
-0.06583295
0.00699767
0.04002654
0.02010993
0.04140946
0.05115064
0.02241780
0.00037447
-0.05463793
-0.00144474
-0.00468505
0.02466434
-0.01284632
-0.04741291
-0.00879405
0.08389016
-0.00127727
-0.10856550
-0.00623204
0.08483995
0.01097326
-0.05483771
-0.05584908
0.03110527
0.03982022
0.01931281
0.07914151
0.04292697
-0.02330349
0.11438061
-0.03101034
-0.03666217
-0.01854722
-0.05853558
-0.04389577
-0.04951530
0.09337620
-0.04523439
0.01927332
0.08182425
0.05489125
0.04201852
0.02208958
-0.05659341
-0.03558198
0.02233194
-0.04337153
-0.03400934
0.03584133
0.03189069
-0.12595066
0.03928836
-0.06567603
0.01105844
-0.03582766
0.04392200
0.08399152
-0.08510169
-0.05436687
-0.08829582
-0.04200281
0.02456504
-0.02744853
-0.02167834
0.00142343
0.10453102
-0.06349137
-0.00911096
0.04970569
0.09794539
-0.03562609
0.04306676
0.04977109
-0.03255494
0.02314879
-0.08741728
0.00652881
0.11430666
-0.06518704
-0.06195128
-0.06678922
