0.00188364
-0.00379632
-0.01020807
0.00969803
-0.00094075
-0.00917543
-0.00670175
-0.00684543
0.00104655
0.01121805
-0.00062832
-0.01465188
-0.00172602
-0.00016812
-0.00594802
-0.00209633
-0.00377986
0.00893303
0.00068645
-0.00916145
0.00751254
0.00087128
0.00657143
-0.00691192
0.00483846
-0.00116175
0.00555779
0.00498595
0.00129870
-0.00370476
-0.00270492
0.00820223
-0.00333702
0.00408959
0.00795423
0.00301216
0.00594106
0.00258810
0.00036355
0.01144066
-0.00160900
-0.00321916
0.00273964
0.00266968
-0.01137273
-0.00720048
0.00213629
-0.00007103
0.00752685
0.00532999
0.00076864
-0.00255243
-0.00677222
-0.00254384
-0.00335517
0.00096814
0.00594979
0.00855905
-0.00930417
-0.00220877
-0.00315015
-0.00130997
-0.00549599
0.00143383
-0.00345431
-0.00208357
0.00181103
-0.00270756
0.00896884
0.00653752
-0.00445817
-0.00180955
-0.00055444
-0.00081242
0.00222273
-0.00631669
-0.00232963
0.00097242
-0.00252317
-0.00053374
0.00126667
-0.00009563
0.00031169
-0.00113699
-0.00307790
-0.00427435
-0.00474364
-0.00212303
0.00432801
-0.00135078
-0.00176137
-0.00203234
-0.00195297
-0.00003734
-0.00348929
0.00143509
-0.00152669
-0.00923482
-0.00232370
-0.00022589
-0.00246716
-0.00944996
-0.00262192
-0.00756237
0.00319178
-0.00289690
0.00117850
0.00762703
0.00017380
-0.00060876
-0.00032292
0.00065557
0.00318760
-0.00210109
-0.00544998
0.00316199
-0.00396269
-0.00452917
0.00347906
0.00088378
0.00267802
0.00176855
-0.00040460
-0.00519223
0.00168442
0.00164841
-0.00419571
-0.00576658
-0.00461791
-0.00147814
0.00154965
-0.00062830
-0.00149285
0.00028364
0.00185940
-0.00611810
0.00060409
-0.00041923
-0.00190107
-0.00153963
-0.00179494
0.00517782
-0.00318452
0.00047524
-0.00082597
0.00038172
-0.00158523
0.00016762
-0.00123228
-0.00442070
0.00068121
-0.00038348
0.00202206
-0.00102305
0.00058351
0.00105372
-0.00149063
-0.00008625
0.00039208
0.00011812
-0.00509336
0.00091224
-0.00222615
0.00209677
-0.00022876
0.00786702
-0.00257447
-0.00083114
-0.00129650
-0.00449330
0.00238368
0.00141313
0.00161150
-0.00128735
0.00178069
-0.00039152
-0.00644497
0.00019124
-0.00158484
0.00061587
0.00334971
-0.00207672
-0.00108690
0.00277265
-0.00249598
-0.00040152
-0.00221207
0.00204213
-0.00247032
0.00226850
-0.00091389
-0.00098808
-0.00236996
0.00924497
-0.01473301
0.00412906
0.00867284
0.00185651
0.00222683
-0.00796806
0.00035619
0.00239910
-0.00113683
0.00556611
-0.00368063
0.00503869
-0.00178516
0.00082918
-0.00737345
0.00599508
-0.00174672
-0.00810086
0.00649256
0.00576215
0.00293744
0.00572178
0.00463378
0.00596151
0.00483888
-0.00155281
0.00111320
0.00459863
0.01501020
-0.00202482
-0.00488066
-0.00020877
-0.00517364
0.00174564
-0.00186982
0.00011118
-0.00566911
0.00211600
-0.00728948
0.00226413
0.01016280
0.00188438
-0.00147045
-0.00372272
-0.00268190
-0.00168901
-0.00631229
0.00434781
0.00464747
-0.00594460
0.00849785
0.00299224
-0.00048838
0.00138925
-0.00830864
0.00436205
0.00432569
0.00138475
0.00279627
-0.00111680
-0.01353779
-0.00231610
-0.00231195
0.00111606
0.00576684
-0.00084587
0.00027306
-0.00088849
0.00030535
-0.00046525
-0.00203610
0.00662712
-0.00304724
0.00091361
-0.00090490
-0.00011752
0.00299150
-0.00339543
0.00160780
-0.00318869
0.00248452
-0.00006076
-0.00145085
0.00257418
-0.00073732
0.00778304
0.00484645
-0.00059820
-0.00466858
-0.00799827
0.00098869
-0.00032829
0.00044888
-0.00101378
0.00153142
-0.00040200
-0.00327437
-0.00675353
0.00052639
0.00203691
0.00141872
0.00299924
-0.00387585
-0.00056287
-0.00341639
0.00003546
-0.00371098
-0.00353917
0.00188482
-0.00518598
-0.00173191
-0.00086453
-0.00208421
0.00618254
-0.00335273
0.01038451
-0.00329019
0.00510476
-0.00088711
-0.00136133
-0.00734590
0.00081351
0.00073750
0.00247089
0.00301309
0.00391285
0.00383096
0.00982554
-0.01202631
-0.00593050
0.00286978
-0.00266062
0.00058679
0.00016633
-0.00908446
-0.00113708
-0.00460492
-0.00582003
0.00204090
0.00559117
0.00001579
-0.00428287
-0.00883327
-0.01179399
0.00547895
-0.00478920
-0.01564309
-0.00224385
0.00351969
-0.00086887
-0.00415468
-0.01083664
-0.00974658
0.00163800
0.00871230
-0.00633448
-0.00480074
0.00128800
-0.00326197
-0.00475410
0.00533036
-0.00997937
0.00744108
-0.00416394
0.00325193
-0.00908989
0.00426300
-0.00422483
-0.00152429
-0.00243888
0.00957191
0.00446945
-0.00361741
0.00757530
-0.00592681
-0.01022626
-0.00633384
0.00671020
0.00639860
0.00672001
-0.00167225
0.00413668
0.00713378
-0.00030198
-0.00704781
-0.00979636
-0.00519487
-0.00864878
-0.01495726
-0.00181802
0.00046910
0.00473223
-0.00595212
-0.00005871
0.00066943
0.00238624
-0.00214377
-0.00414319
-0.00092842
0.00301841
0.00129938
-0.00116179
0.00126777
-0.00148673
-0.00131629
0.00036713
-0.00166421
-0.00113680
-0.00184519
-0.00090377
0.00113768
0.00012619
0.00122676
-0.00501497
-0.00109718
-0.00352484
0.00193853
0.00406138
0.00420274
0.00020504
0.00099829
-0.00394865
0.00141652
0.00237488
-0.00123177
-0.00086150
-0.00769784
0.00160048
-0.00196359
-0.00201892
0.00147075
0.00278344
-0.00022551
-0.00261350
0.00431417
0.00293677
-0.00004826
0.00076808
0.00342988
0.00182564
-0.00071861
-0.00386643
0.00087577
0.00240387
0.00099335
-0.00295591
0.00304106
0.00479387
0.00052221
-0.00210628
0.00655616
-0.00401868
-0.00192328
0.00629514
-0.00224696
0.00370848
0.00060151
-0.00225833
0.00559936
0.00166706
-0.00073569
-0.00077544
-0.00119324
-0.00330685
0.00292255
-0.00120053
0.00110824
0.00425904
-0.00310628
-0.00069079
-0.00428820
0.00453423
-0.00024876
-0.00220728
0.00146262
0.00007193
0.00147030
-0.00054380
0.00128528
-0.00293813
0.00175187
0.00259716
-0.00059069
-0.00000204
0.00174328
0.00597544
-0.00385932
0.00357571
-0.00042325
-0.00157338
0.00161213
0.00203161
-0.00173880
-0.00242297
-0.00131949
-0.00003772
-0.00142757
-0.00177580
-0.00280010
-0.00145394
0.00294433
-0.00116005
0.00054267
0.00106657
-0.00166568
-0.00180026
0.00350276
0.00138184
0.00025983
0.00040713
-0.00111993
0.00240990
0.00665557
-0.00233561
-0.00170768
0.00026571
0.00352953
-0.00416745
0.00087030
0.00251213
0.00616164
0.00044111
0.00459335
-0.00253021
0.00298141
-0.00331378
0.00180436
-0.01235536
0.00039805
0.00411550
0.00184575
-0.00245563
-0.00634880
0.00743548
-0.00000305
-0.00201137
0.00425436
0.00591220
0.00179183
0.00133549
0.00410767
-0.00238578
-0.00298652
-0.00469057
-0.00022115
-0.00128378
-0.00105533
-0.00348527
-0.00316784
0.00164385
0.00311831
0.00106703
0.00035785
-0.00045995
-0.00636499
-0.00270824
-0.00436286
-0.00536312
-0.00377857
-0.00249121
-0.00896105
0.00717182
-0.00287337
-0.00148963
-0.00447215
-0.00204244
0.00429973
-0.00516198
0.00803804
0.00439522
0.00049509
-0.00093956
0.00372579
-0.00325074
-0.00740248
0.00276546
-0.00011616
-0.00134608
-0.00741332
-0.00238193
-0.00192119
0.00403102
0.00403152
0.00192019
0.00525870
-0.00805319
-0.00776703
0.02150916
-0.01102480
0.00520145
-0.00490523
0.00005301
0.00477499
-0.00709848
0.00667059
-0.00180009
-0.00034958
-0.01245321
0.00047977
-0.00236372
-0.00200347
-0.00038523
-0.00271527
0.01172018
0.00667697
0.00741427
-0.00110461
0.00066374
-0.00021471
0.00070017
0.00778525
-0.00319816
0.00584781
0.00459907
-0.00134350
0.00726298
-0.00568447
0.00324619
0.00261252
0.00315362
-0.00050269
-0.00883639
0.00066488
0.00745138
0.00201623
-0.00481910
0.00596917
0.01467404
0.00024133
-0.00445560
-0.00447551
-0.00511481
0.00239979
0.00584263
0.00754258
-0.00054244
-0.02186964
0.01656568
-0.00640904
0.00253386
0.00253191
-0.00275176
-0.01205957
0.00561906
0.00046988
-0.00601793
0.00310851
-0.00212383
-0.00076355
-0.00018389
0.00487792
0.00117149
-0.00377893
-0.00237425
0.00248735
-0.00672694
-0.00323975
-0.00001671
0.00531370
0.00091039
0.00077841
0.00406794
0.00428876
0.00884752
0.00341033
-0.00647445
-0.00629525
-0.00360312
-0.00377273
-0.00509861
0.00853407
0.00463480
-0.01057596
-0.00061401
0.00049071
-0.00366459
-0.00040954
0.00446042
0.00442715
0.00013445
-0.00817684
-0.00072616
-0.00208576
-0.00092149
0.01471419
0.00817572
-0.00195149
0.00225270
-0.00590069
0.00064080
-0.00031891
0.00479108
0.00265786
0.00171914
0.00057182
0.00382557
0.01216560
0.00610218
0.01103159
-0.00484036
-0.00197081
0.00591280
-0.00212225
-0.00613272
0.00324920
-0.00682750
-0.00635766
0.00345086
-0.00396824
0.00902303
0.00552964
-0.01610987
-0.00674221
0.00823766
0.00136931
-0.00260377
0.00213574
0.00012272
0.00964404
-0.00396732
0.00495130
-0.00206721
-0.00191831
-0.00673622
0.00305489
0.01237003
-0.00004598
0.00125540
-0.00233947
0.00861991
-0.00687200
-0.01179457
-0.00376459
0.00559717
0.00798422
0.00073438
-0.00124633
-0.00524031
0.00833900
-0.00155390
-0.00292967
0.00169685
-0.00058176
0.00828918
-0.00408256
-0.00627905
-0.00079661
0.00020329
0.00400103
-0.00690011
-0.00113522
0.00510155
-0.00282874
-0.00324006
-0.00781240
0.00044285
-0.00377527
-0.00082098
-0.00315220
0.00212025
-0.00452262
0.00146582
0.00706625
0.00180505
-0.00143730
-0.00248728
-0.00194566
0.00605742
-0.00090206
0.00157562
0.00038295
0.00346349
-0.00310237
0.00188046
