0.09811230
-0.19327050
0.04321308
0.17866766
-0.08053422
0.24196488
-0.11242865
-0.07966496
0.13836585
-0.24288081
0.19787195
-0.32073408
0.03625134
0.57253009
-0.06085788
-0.02474812
0.09957957
-0.04695759
-0.20611468
0.00047191
0.30357382
0.05073898
-0.02944306
0.23911566
0.19398910
0.10754381
0.28056848
0.06324174
-0.17294911
0.04873200
0.01896265
-0.60574216
0.39359975
-0.07771856
0.16316248
-0.13449578
0.03949621
-0.18008727
-0.37062240
-0.09780740
0.25025108
-0.50286484
-0.12780027
0.18033180
0.26853281
-0.03212191
0.04134357
-0.23275393
-0.22172786
-0.76913363
-0.14135560
-0.03115936
0.15337472
0.02265013
-0.11461347
0.51546639
-0.06184157
0.10841127
0.22978926
-0.06123926
0.15900837
0.30665231
0.01536840
-0.17009354
0.02607824
0.03448777
-0.04472271
0.11600114
-0.01042045
-0.24717455
0.20307952
0.05183733
0.08354220
-0.03696389
-0.09431069
0.10965583
-0.05765489
0.05547552
0.06914499
-0.02168100
0.00365822
-0.04045809
-0.03673708
-0.04970775
-0.10668544
0.03501007
-0.03975178
-0.10864710
-0.07199028
0.00903315
0.00902875
-0.07069499
-0.08711680
0.00373553
-0.06610580
-0.02252129
-0.00735770
0.07022503
0.01512757
0.09889726
-0.03356188
0.06951749
-0.09622367
0.07216907
0.07653197
0.11131618
0.00974251
0.04774482
0.04419566
-0.07393917
-0.00786028
-0.04149454
-0.01599992
-0.09736758
-0.14645100
-0.04772711
-0.10475910
-0.01391433
-0.03757295
0.07648606
0.04223696
-0.09863766
-0.01944124
0.20123276
-0.14962226
-0.06767824
-0.10133643
-0.08502629
-0.00336019
-0.11624329
0.04729082
-0.03439619
0.06480313
-0.07796440
-0.02378594
0.06689601
-0.07845558
-0.17095536
-0.03750081
0.02375388
0.04292907
0.02631498
0.14557223
0.04089282
0.00016200
-0.04992943
0.03045723
0.03693121
-0.07995561
0.05969653
-0.03092890
0.00089880
0.04068212
0.12890522
-0.08717597
0.04155536
0.10125937
-0.07498580
-0.00117445
0.03671010
0.04802025
0.04614079
-0.01866171
-0.07672411
0.05776149
-0.04382522
0.07881743
0.05103249
0.02210740
0.03969760
0.06208185
0.03491858
-0.12379693
0.02423405
0.05577940
0.05302490
-0.03694100
0.07181890
-0.00063954
-0.05598864
-0.01031526
-0.04440313
0.04867476
0.03682925
-0.01618162
0.00187677
-0.10585654
0.03815493
-0.02983540
-0.03503610
0.01263710
0.03171408
-0.06621307
0.00911411
-0.01848269
0.00966880
0.25862122
-0.02575835
0.02373771
-0.02591685
-0.07396749
0.05013342
0.07778882
0.02802688
-0.06684731
-0.00486035
0.01614773
0.13515311
0.11924839
-0.01271993
-0.14130318
-0.17691758
0.01251464
0.13429157
0.08300062
0.11163986
-0.00469132
0.05414893
0.02227423
0.00617627
0.00333980
0.02338600
0.20787621
0.09566256
-0.03461865
-0.17776346
-0.01010611
-0.00035025
0.01587822
0.00202560
-0.04861848
-0.00982891
-0.09341796
-0.06616448
0.11816084
0.01164152
0.00647644
-0.01103875
0.07735852
0.05939652
-0.08780346
-0.06292962
0.01760282
-0.03604013
-0.06065767
0.02316899
0.01843487
-0.00849554
-0.07396449
0.09333417
-0.02901832
-0.04901232
-0.02957474
-0.00039343
-0.13512161
-0.01190174
-0.03517587
0.08956679
-0.01172559
0.00698178
0.01629509
0.04953153
-0.03187156
0.06507015
0.02321513
0.16916007
0.02171805
0.08096293
0.02450995
0.00481366
0.04806902
-0.02049629
0.05054270
0.03339851
0.02429420
-0.02104512
0.00765214
0.07144205
-0.02073441
0.15927915
0.02221072
0.08472428
0.02515464
-0.05252383
0.03336354
0.08473648
0.11472870
0.03311345
-0.01987678
0.08379304
0.02841126
-0.08769514
0.09165101
0.09414836
-0.01286658
-0.08468323
0.00724862
0.01219716
-0.07676745
0.00739940
-0.05613609
-0.08324627
0.01931945
-0.06738231
-0.06832321
0.02378568
0.01468833
0.11040454
-0.08799007
0.10216949
-0.05146395
0.03480174
-0.03618916
0.04732830
-0.08638947
-0.02367238
-0.01586302
0.02609007
-0.02417257
-0.00310731
0.08745242
0.28048557
-0.25153252
-0.01663423
-0.01483989
-0.00264602
-0.03211877
-0.03241035
-0.11268275
0.05703905
-0.01055495
-0.00950033
0.08796541
0.07404418
-0.12645306
-0.21086483
-0.03030563
-0.13930924
0.06491005
-0.09440994
-0.12935781
0.09908673
0.01517056
-0.04312522
-0.08679859
-0.00586988
-0.24070221
0.05648878
0.10202941
-0.00278618
-0.10106654
0.09544412
0.05771879
-0.11265468
0.19181836
-0.14955263
0.06366777
-0.04402066
-0.07349951
-0.03706416
0.02618114
-0.05166646
0.03274598
-0.03067248
0.40606800
0.02228398
0.03269531
0.04063877
-0.00655261
-0.03481215
-0.09064856
-0.03396771
0.04028978
0.06995652
-0.01022607
0.03072670
0.09441552
-0.04328129
-0.06450598
-0.30258211
-0.22481827
-0.41166225
-0.43679222
0.07607106
-0.24992175
-0.08254397
-0.03436031
0.17835885
-0.10430090
0.02231927
-0.20421103
-0.01217917
0.03737874
0.22038588
-0.12421883
0.03858935
0.05611616
0.00171219
-0.08414402
-0.17241810
-0.06187158
-0.10138495
0.02961516
-0.18069568
0.04764640
-0.03905049
-0.06442628
-0.15087673
-0.03798142
-0.03555191
-0.24647021
0.00531752
0.13222617
-0.00845299
0.08973767
-0.29107291
0.27734780
0.10747167
0.04013034
-0.15681194
-0.09484763
-0.17393427
-0.04619297
-0.06575051
-0.05886621
0.00092822
0.06087617
0.13456388
-0.07196888
0.07136486
-0.08643059
0.08277611
0.01060131
0.03254894
-0.07143472
0.02023017
-0.11352919
0.01533000
0.06753789
-0.21972674
0.00038884
-0.02518341
-0.32329202
0.01541690
0.08028676
-0.03489082
-0.14721330
0.07215111
-0.00033667
0.04638625
0.25588265
-0.47260198
-0.06458018
0.48109528
0.26122940
0.35281810
0.39187968
-0.34649718
-0.19308139
-0.09896232
0.09045200
-0.05652210
-0.16304035
0.15276985
-0.38743904
-0.20510221
-0.22963889
-0.21913615
-0.08468721
-0.14917280
-0.19974935
-0.27119014
-0.12686898
-0.16970894
0.21864410
-0.15416811
-0.23916075
0.21446851
-0.25273591
0.42807814
0.00472175
0.04042962
-0.46563089
-0.02886251
0.21003728
0.16299750
0.00034894
0.18573268
-0.13802560
0.34350210
-0.56584495
-0.27506137
-0.50461888
0.28281555
-0.58653283
-0.69952965
0.28573045
0.33420715
-0.17979825
0.21778677
0.02258845
-0.30142629
0.10033979
-0.17930935
-0.11083988
0.07252575
-0.39573434
-0.10107772
-0.10599808
0.08112941
-0.05866231
-0.52935791
0.06312793
0.03653023
-0.05285921
-0.06150937
-0.02831762
0.00587659
0.04808594
-0.06702179
0.09579163
0.03680828
-0.02039351
-0.04153309
0.03945776
-0.11231598
-0.10582032
-0.00780856
-0.01907323
-0.06947850
-0.02881589
-0.12030835
-0.05117604
0.09885064
-0.06732305
-0.06115008
0.03185367
-0.14780723
-0.01572995
-0.06169748
0.00120938
-0.00790087
-0.12869798
0.04743358
0.09757575
-0.02503168
-0.03223237
-0.02592702
0.03166028
-0.02798026
-0.01700073
-0.01172945
-0.08433919
-0.05565042
0.04570372
0.05839629
-0.02326345
0.01934186
-0.07189412
0.00551193
-0.01366602
0.07607076
-0.00475628
0.15856931
0.05768137
-0.02035328
0.10267300
-0.02119521
-0.03183424
0.05176723
0.03090191
0.05490856
-0.01748277
-0.02684790
0.05364254
0.05370124
0.03176761
-0.27874714
-0.17846753
-0.03659656
0.08043286
-0.09191201
0.26559433
0.05398189
0.52679497
0.02431334
-0.02767187
-0.11532531
0.08303002
-0.00662120
0.12461461
0.04723155
0.13364469
-0.06805600
-0.07470549
-0.07520929
-0.07530502
-0.13234805
-0.43474805
-0.36421451
-0.02384960
-0.00185993
-0.01042693
-0.02743115
0.01914346
-0.00178032
0.10699441
-0.10138553
-0.06390587
0.06325497
0.02151238
-0.10377259
-0.10511599
0.04208713
-0.00606962
-0.00185635
-0.14609131
-0.02815161
0.00534262
0.05434221
-0.24064213
-0.22572543
-0.16560879
-0.00842044
0.02925812
-0.00206961
-0.23622793
-0.10165209
-0.10179965
0.00580268
0.35101816
-0.12512745
-0.00118892
0.02394455
-0.12874280
0.19353040
0.09358756
-0.01537304
0.06868544
0.00991780
0.00610956
0.07326747
0.05590937
0.07828345
0.07515389
-0.14296558
-0.02920325
-0.09249119
0.10051017
-0.06033446
-0.11812146
0.09486636
0.00408188
-0.02783808
0.07222674
0.11041994
-0.03792487
0.08491661
-0.02266307
0.08698152
-0.01123549
0.12746589
-0.01737208
-0.04926165
0.04235252
0.02252880
0.03305024
-0.06142139
-0.05734741
0.03750002
0.12590539
-0.02651635
0.02256462
0.00006210
-0.01118629
-0.12241463
0.05376390
0.03264958
0.11346501
0.13928822
-0.00681856
0.01160215
-0.11932227
-0.02165700
0.09636089
-0.11002817
-0.03992356
0.11612130
0.07459976
0.07698930
-0.01458776
-0.02588529
0.18465738
-0.01687536
-0.36308977
0.06212216
0.03467614
-0.18243645
-0.05482271
0.01309793
-0.01178152
0.01025421
0.12362657
0.05976437
0.04502317
0.12640174
-0.05078024
-0.28975102
-0.02564828
-0.03620187
-0.27948266
-0.00286994
0.02000135
-0.01834207
0.03604569
0.10155419
-0.03039682
0.14453724
0.02839302
0.09200142
0.01758932
-0.06740803
-0.00522553
-0.17870180
0.07639777
0.14987209
0.01381453
0.01480783
-0.03414083
-0.06876714
-0.02526206
0.00337699
-0.30262214
0.01385947
0.01526162
-0.06751101
-0.04683753
-0.02462025
0.03298627
0.04561190
-0.00146196
0.00775996
-0.05457595
-0.03358958
0.00240861
-0.00724634
-0.07485437
0.00858411
-0.09933556
-0.17544797
0.05970725
-0.00771921
-0.00833411
-0.00096377
-0.14193818
0.02882610
0.13130355
-0.04495594
0.00353275
0.04787034
0.14250435
-0.06564068
0.04442076
0.02849373
0.03492446
-0.02871711
0.00967119
0.06130362
