0.04730563
0.05400353
0.00675256
0.00600201
0.01203121
-0.06066658
-0.03818452
0.05117111
-0.02781853
-0.01395078
0.07611748
0.00138882
-0.02225161
-0.03956929
-0.03094108
0.00059510
0.03452998
-0.00512672
-0.00115552
-0.05857131
-0.08220921
0.00921122
-0.03117938
-0.01887483
-0.05866999
0.12956919
-0.02407667
0.04269348
-0.01715532
-0.02017798
0.00476575
0.00554389
0.02459109
-0.02544059
0.03735790
0.01209875
-0.05572290
0.05010823
-0.05500445
-0.05603397
-0.02686484
0.02731509
0.03499358
0.09192542
-0.04017979
-0.02029772
-0.02731229
-0.01662602
0.03570299
-0.06763694
0.01852574
-0.01901339
0.03083410
-0.00795860
-0.10720955
0.03111416
0.04039958
-0.02184132
0.08816238
0.00668965
-0.03521346
0.02482500
-0.00372571
-0.01317842
-0.02096724
-0.03149675
-0.01023119
0.01379134
-0.02116101
0.00646447
-0.00160098
-0.00978078
0.02742352
0.00017633
-0.01270340
0.01403849
-0.00994430
0.00997304
0.01747496
-0.00714626
-0.01600897
-0.00012020
-0.02630095
0.01129932
0.00581953
-0.00390016
-0.00670358
0.00866597
0.00176170
-0.00124446
0.02646314
0.02019956
-0.00491823
-0.01557738
-0.01554667
-0.01904674
0.00839765
-0.01654948
-0.00794577
-0.03086041
-0.00011804
-0.01249908
-0.00920881
-0.00707862
0.01422856
-0.00724174
0.00058260
0.00568632
0.01627132
0.00334418
-0.01421529
-0.00134119
0.02077295
0.01233590
-0.00678728
0.01455942
0.00628277
-0.01483069
-0.00392913
0.00452260
0.00615499
-0.00734028
0.01137246
-0.01085549
0.01862133
-0.00765197
0.01019588
-0.01568675
-0.02872439
0.00381192
0.00729717
0.02116990
0.01376123
-0.01196196
0.01379677
0.00190450
0.03982826
-0.00064192
-0.01687734
-0.01330414
-0.00302313
0.02628708
0.03108501
0.00995821
0.02557500
-0.01871092
-0.02844186
-0.00629085
0.02367993
-0.02531736
-0.03096468
-0.02956341
0.00273227
0.00976532
-0.00864701
0.00869844
0.01039849
0.00815986
0.04018212
0.01399071
0.01039129
0.02615926
0.01779962
0.01321694
-0.01603901
-0.02714276
0.02316846
-0.01164381
0.00752740
0.00242002
0.01164749
-0.01888297
-0.00938299
0.00178003
0.01221935
0.02929010
-0.03122868
0.00749320
0.01219527
-0.00798434
-0.00658468
-0.01753050
0.00968970
-0.00871777
-0.00356509
0.01101783
0.03490043
-0.03038540
-0.00116593
-0.01652304
-0.01551532
-0.01691923
-0.00627365
-0.01477961
-0.01427274
-0.05856247
0.00953287
-0.03656454
0.01028675
0.00516442
-0.00610891
-0.03627573
0.00152555
0.01371592
0.00863086
-0.01608159
-0.02894458
0.01152093
-0.00312638
0.00782766
-0.00090726
0.00696620
-0.00237560
-0.00811666
-0.01788859
0.02818702
0.00641249
0.00253303
0.01693389
0.02109478
0.02852065
0.01515303
0.00874906
-0.00889831
0.02609934
0.00921629
-0.00886686
-0.01074434
-0.00470690
0.00494880
0.03102377
-0.01001288
0.01618291
-0.01747759
0.00055428
-0.00824337
-0.00462907
-0.00918096
-0.00482230
-0.01906721
0.00799295
-0.00552983
0.01469899
0.04223444
-0.03682597
0.02092162
-0.00867782
0.01406512
0.03477951
0.02222818
-0.01549575
-0.01631673
-0.01859361
-0.01820713
-0.00248873
-0.01404329
-0.02954790
0.00003513
0.01401880
0.00911625
-0.00476408
-0.00109399
0.01685928
0.00421946
0.02041022
-0.01109456
0.00717960
0.02012368
-0.00758576
0.01464715
-0.00625683
0.00416517
-0.00444031
0.00973418
-0.00496114
0.00849365
0.00153228
0.00764965
-0.01868100
-0.01520050
0.00895351
0.00479689
0.01321060
0.02002212
0.02540722
0.00955786
0.00417847
0.02563079
-0.02160970
-0.00248376
0.01682032
0.01857504
-0.02600793
-0.00037581
0.02088938
0.00686881
-0.01120015
0.00149282
0.01520731
0.00625454
0.00135008
0.01536224
0.00929237
-0.00855214
0.02522691
-0.01103218
-0.01613983
-0.02001005
0.01016595
0.00248550
-0.00788424
0.00747088
0.01884989
-0.00863917
-0.02605927
0.00516524
0.00454364
0.01148277
-0.01491364
0.00082005
0.04008805
0.09052127
-0.02390299
-0.08811992
-0.01643804
-0.01498368
0.04305586
-0.03996549
0.02535747
-0.03986463
-0.00070622
-0.03014009
0.01734196
0.00609653
0.01461580
0.08035361
0.00546036
-0.00915491
-0.02104673
-0.00272837
0.00369065
-0.01658271
0.03583133
-0.00778367
-0.01666370
-0.01496970
-0.11808155
0.02539260
0.02526778
-0.03413287
0.22838905
0.06432620
-0.02657419
-0.06686586
0.08079004
-0.01135669
0.05964875
0.02944190
-0.00752474
0.04272515
0.00239573
0.03441776
-0.25937665
0.03208070
0.07011844
-0.03972245
-0.02367779
0.03730286
0.01795602
0.05315448
0.07517300
-0.00645167
0.03533750
0.00740164
0.04594702
-0.05732485
0.02555474
0.05983246
-0.07388130
-0.00584037
-0.01814459
0.00379868
-0.04458553
0.09207363
-0.01519322
-0.02508494
0.03367770
0.00636960
-0.01497787
0.03681588
0.01896023
-0.04149658
-0.01801683
0.01616133
0.02084246
0.05553687
0.02521591
-0.00531871
-0.00164737
0.00490876
-0.00280880
-0.02239162
0.03432857
-0.00646534
0.03180630
0.03632142
-0.01133265
-0.01797366
-0.02428625
0.01540211
-0.01549398
-0.00452369
0.00019527
0.00381431
-0.00291989
-0.00827391
0.01839378
0.00295901
0.03215307
0.01307758
-0.03269089
0.01950227
0.01374900
-0.02071537
-0.00852398
0.01304456
0.00633103
0.01456307
-0.02675165
-0.02601366
0.02726397
-0.03117299
0.00393071
-0.02083883
-0.01317550
-0.02426803
0.02573320
-0.02172041
-0.01367106
0.01667860
0.03231452
0.01559295
0.02748037
0.01189178
0.00230072
0.00479557
-0.00855380
-0.03727705
0.01527963
0.03388698
-0.03133158
0.06807186
0.00409156
-0.01566212
-0.02231212
-0.01056593
-0.00011975
0.00543383
-0.00160709
0.00224068
-0.02206998
0.01644911
-0.02104892
0.01377502
0.00140035
0.00981657
0.00891107
-0.00705871
0.01495979
-0.03115074
0.00777139
-0.00444015
0.00985527
0.00343250
-0.01079563
-0.02569913
-0.03627247
0.00991052
-0.01459624
0.00146799
0.00091156
0.01052217
0.00189956
0.00878098
0.01924858
-0.00660224
-0.01274205
0.02248069
-0.02813900
-0.02726168
-0.01321323
-0.02865302
0.04345072
-0.01906444
0.02165789
0.01765352
0.00865875
0.01039899
0.05825341
-0.00155981
0.01411918
-0.00310564
-0.01732585
-0.01740219
0.00166942
0.06324527
0.02133138
0.01113123
-0.01473404
-0.00342210
-0.00788338
-0.00732766
0.01545806
-0.00066390
-0.01125589
0.01123683
-0.01478924
-0.00618522
-0.00247582
0.00879623
-0.00279339
-0.01860276
-0.00261425
-0.00211095
0.00530608
0.00040498
-0.01190832
-0.02717585
-0.02886769
0.01446247
0.01399128
0.00432600
-0.00709548
-0.00173560
0.02275346
0.01575729
-0.00383735
-0.00897241
-0.01153349
0.02290116
-0.00079153
-0.01702309
-0.01613161
-0.00987299
-0.02511248
0.00764111
-0.00182625
0.00643522
-0.00583609
-0.01102448
0.02517732
-0.00168710
0.02007351
0.00247318
-0.01186885
-0.02697149
-0.01621660
-0.00200640
-0.01147938
-0.00962074
-0.01198707
-0.01432208
0.02944531
0.00133373
-0.02054860
-0.00207134
0.00317523
-0.01720676
-0.00677247
-0.03083186
-0.00547018
-0.00904155
0.00459568
0.00977269
-0.00688591
-0.00993371
0.00338362
-0.04388326
0.04014880
0.01790581
0.01756576
-0.13315240
0.01463592
0.04251637
-0.03032479
0.04049141
-0.07200867
0.03136858
-0.02567142
-0.10016400
-0.04257941
0.01184489
-0.07252987
0.02960234
0.10711228
0.05058298
0.07039376
-0.05436524
-0.01107720
-0.07323308
0.05544518
0.03984343
-0.05574287
0.06807865
0.02674111
-0.00958805
0.00840164
0.03281274
-0.04297505
0.02129314
0.01631821
0.02153796
0.32077527
0.02676889
-0.04917318
-0.06994497
-0.00807372
-0.04127176
0.03374333
0.09023456
0.00093396
0.00201673
0.01923872
-0.01600323
0.04495797
0.04750317
-0.03868134
-0.03241045
0.03046436
-0.07678159
0.13124095
-0.00902118
0.05083670
0.00518276
0.04028734
-0.02688669
0.04073547
-0.02295627
-0.04652217
0.05054699
-0.00363052
0.00538882
-0.00121801
-0.00346968
-0.01325726
-0.00070256
0.00408022
-0.01888188
0.01588025
0.00090274
-0.00909855
0.00753299
-0.00466737
-0.00314914
-0.00693495
-0.02874379
0.01035842
0.00957117
0.00766537
-0.01830201
-0.00902291
-0.00155753
0.02060480
-0.00126097
-0.01229879
0.00140492
0.00062748
0.00181460
-0.00635694
-0.01478827
-0.00581202
0.01672631
-0.00308739
-0.00049872
0.01028834
-0.03499889
0.01913143
-0.01003862
0.00650838
0.00431372
-0.00324709
0.01306313
0.02786351
0.03151825
-0.02848716
-0.01099923
-0.01157612
0.01419627
-0.01269498
-0.00050660
0.01091386
0.00402452
-0.00512329
0.01675963
0.01571331
0.00767931
0.00540537
-0.00327252
-0.03072567
0.02998992
-0.01429265
-0.01129503
-0.00551164
0.00915916
-0.04206615
-0.04542201
-0.01492507
-0.02951758
-0.02501174
-0.00205438
-0.02871423
0.01179846
-0.01261172
-0.00265541
0.01335135
-0.06983588
0.02624848
0.02771637
0.01927086
0.01070218
-0.00739841
0.04998500
-0.00523072
-0.00701933
0.04406144
-0.02589767
0.01538156
0.00361410
0.00450638
0.00296205
0.00510524
0.01323256
-0.02270856
-0.00884630
0.00128751
-0.00372266
0.01550027
0.01149987
0.01332995
0.01202087
0.06869627
0.02318805
-0.03173384
0.03165693
0.01525944
-0.01222694
0.01681745
0.02524945
-0.03691293
-0.01936447
0.00406670
0.06238716
-0.03792036
-0.01476851
-0.02480235
0.05494639
0.00603790
0.03352947
0.02225572
-0.03089436
-0.00706919
-0.00687101
0.05192379
-0.02407876
0.00606931
-0.00868785
0.00205397
-0.03559047
