-0.06072433
0.04611946
0.08742770
-0.14334212
-0.05470116
-0.01046929
0.25057212
0.09060933
-0.08203193
-0.17206895
0.04178440
0.10975211
-0.14934123
0.02479163
-0.08866271
0.29534441
0.19542551
0.09705797
-0.06846844
0.00018091
0.17482093
-0.00629066
-0.04729269
0.09872340
0.04630756
0.08779088
-0.00706453
-0.02906783
-0.17890117
0.07352735
0.00076413
0.05730828
0.20193237
-0.09964059
-0.08470657
0.10037729
-0.21115823
-0.14554429
-0.05059912
-0.10556020
-0.17625226
-0.11122397
-0.04249694
0.09120061
0.06101505
-0.04133931
0.05406462
0.09083527
-0.09663887
-0.04933358
-0.13240501
0.06516085
0.23602948
0.02787573
0.08461117
0.08379777
0.05039573
-0.25761044
-0.05158760
-0.20279913
0.04681208
0.18064497
-0.00204218
-0.09438726
-0.04898741
0.12793478
-0.11135785
0.01051669
-0.12225740
-0.12189699
-0.08148772
0.12370277
-0.09241404
-0.06487995
0.03225381
0.00133662
-0.08966970
0.01742591
0.12423816
0.05994350
-0.00055186
-0.03618868
0.12877941
0.11490257
0.06138423
-0.13136281
-0.02971666
-0.09885853
-0.18660654
0.08259898
-0.12013724
-0.20621178
0.21082091
-0.02129283
0.01579612
-0.02116036
0.06724650
-0.05832565
0.08047481
-0.16055168
-0.04144848
-0.10730030
0.15973015
-0.08578431
-0.00222776
-0.02334065
-0.06118760
-0.16150920
-0.10316388
0.04013498
-0.07751872
0.01778729
-0.07537414
-0.09041530
-0.09316278
0.02634216
-0.05794426
-0.12402138
-0.02118983
0.01835287
-0.02087042
0.02495245
0.04567421
0.21610229
0.11287395
-0.27922863
0.04971831
0.05546949
-0.18279581
-0.02667124
-0.08308356
0.00821258
-0.13421783
-0.01324054
-0.19401205
-0.04487678
0.13918783
-0.01957135
-0.00180630
-0.02473948
-0.07444533
-0.03414659
-0.06494603
0.11662173
0.13484284
-0.18109585
-0.02764354
-0.10045747
-0.19589178
0.17341927
-0.19088975
0.13193397
-0.16672771
-0.00305019
-0.15709953
0.04914265
-0.00725089
-0.00550940
-0.05445901
-0.02197128
-0.05992004
-0.10985652
-0.05957889
-0.10413189
0.09739621
0.01628589
0.15991959
0.08592431
-0.20735219
0.01803246
-0.07759375
-0.13379167
-0.06895430
-0.08238028
-0.04322802
0.12460754
0.10133754
-0.07299601
0.02472860
-0.02756221
-0.08227281
-0.00490795
-0.06308186
-0.12852553
0.01050060
-0.11820279
0.01755768
-0.13375345
0.16389818
-0.02697138
-0.12013119
-0.13815072
0.13023002
-0.19414790
0.11374275
-0.04495385
-0.05078088
0.16589797
-0.03706620
-0.09781835
-0.16527224
-0.02718517
0.01834672
-0.20035480
-0.10047489
-0.00164634
-0.05471332
-0.01184667
0.02158930
0.11648293
-0.14123455
-0.09921859
0.02220309
0.25077897
-0.10266764
-0.03579710
-0.27310902
-0.07431336
0.24008134
-0.17347859
0.04299321
0.11878889
-0.06825983
0.06330772
-0.14672203
0.36359540
0.06842031
-0.17588224
0.05183349
-0.01595065
-0.25613788
0.03151723
0.17421214
-0.12395755
-0.09409152
0.02246305
0.01741800
-0.14353029
0.12610911
-0.16826329
0.00570104
0.18382132
-0.28261033
0.01550221
-0.07346292
0.00703877
-0.03106360
-0.06169202
-0.09779070
-0.02655406
-0.17901625
0.25713250
0.09051137
-0.09413382
0.14666651
-0.02584203
-0.18978129
-0.20218937
0.13602632
0.05924412
0.01140258
-0.01572119
-0.05374968
-0.02765797
-0.09859203
-0.31664386
-0.01436204
-0.06120493
0.05610341
-0.00214618
-0.07470213
0.09471464
-0.16839352
0.09425218
-0.00703481
-0.00304566
0.00108481
0.01222556
-0.04155694
-0.15221322
-0.10079023
0.12174294
-0.18670051
-0.06724250
-0.07842968
-0.02496515
0.01330382
-0.12820143
-0.09792035
-0.08656459
-0.00900056
0.00593300
-0.13197981
-0.01306661
0.10379556
-0.00903274
0.02898617
0.13022131
0.19467340
-0.12030505
-0.11923919
0.09845363
-0.08249243
0.13329719
0.27767321
-0.10946032
-0.09175727
-0.14858632
-0.27825361
-0.16669171
-0.13917740
-0.20036684
0.12944497
0.04510411
-0.03168673
0.04306237
-0.05848381
-0.06955460
-0.09949065
-0.04088485
-0.03534145
0.07709866
0.09258189
-0.30587411
-0.10184658
-0.13433696
0.08400106
-0.03693936
-0.11770314
-0.09657910
0.10310257
0.00635312
0.08003084
0.00373703
-0.18104544
0.04663666
-0.11636338
-0.08135602
-0.08634143
-0.20784663
0.07536566
-0.01111559
0.09628631
0.00927420
0.04179512
-0.17089489
-0.01737037
-0.29006919
-0.00905772
-0.18068197
-0.15258428
-0.18115495
0.06053707
-0.09960940
-0.05120809
-0.04846886
-0.07400252
0.18427494
-0.06309215
0.04787770
-0.08845053
-0.02356738
0.05250826
0.09648488
0.11526477
0.07613918
-0.06489372
0.04249132
-0.15758628
-0.05642238
-0.10658641
-0.15459098
-0.03525500
-0.08006227
-0.18385789
-0.05718917
0.01716844
-0.15934314
-0.16994360
-0.12715888
-0.01732934
-1.74625599
-0.13243598
-0.17876355
0.11085522
-0.07378804
-0.10798395
0.07102648
0.02613246
-0.19499207
-0.09531328
0.06098351
0.00214481
-0.17878404
-0.05511336
-0.05927953
-0.06980805
-0.04889577
0.15528595
-0.13573220
-0.12713961
-0.01887895
0.12102126
-0.04471701
-0.32278699
-0.12598857
-0.03350801
-0.19953629
0.16283146
-0.08954192
-0.06758748
-0.04720258
-0.12181756
-0.07566053
-0.08277249
0.11493562
-0.02824153
-0.23349573
-0.05169326
-0.04075300
-0.01782995
-0.13544793
0.06714707
-0.17120260
-0.06811062
0.09355839
-0.05276289
-0.28209987
-0.15467399
0.06702238
-0.22605260
-0.24329750
-0.19262168
0.13698374
-0.00972383
0.06699918
0.12351441
-0.14357701
0.05876729
-0.02586888
0.02605092
-0.07302304
-0.02127695
-0.16473885
-0.06987171
-0.00711232
-0.15603371
0.06938219
0.01360354
-0.03463903
0.04953052
-0.07564683
0.01368296
-0.08814028
0.18359125
0.09690066
-0.12744100
0.01485064
-0.30055737
-0.13597935
-0.08308411
-0.15060805
0.05585127
0.16013798
0.15633963
-0.04709712
0.11211117
-0.33828247
0.09302977
0.00030068
-0.03232303
-0.03082246
0.00761513
0.16135806
0.00005620
-0.14003798
-0.01726176
-0.07744653
-0.05569869
-0.25972158
0.01564775
0.06306697
-0.20776933
-0.04119229
-0.17058256
-0.07586896
0.01619202
0.14497587
0.00489669
-0.00759960
-0.12706150
-0.09504002
-0.04328859
-0.04354050
0.00744855
-0.00623675
-0.05333884
0.00569113
0.00617360
0.07500558
0.09077282
0.18322262
-0.17423713
-0.25730830
-0.07838374
0.04938448
-0.04471171
0.06080068
-0.16157147
-0.12064416
-0.14933619
-0.06481409
-0.08275665
-0.13136378
0.01211762
0.25838667
0.01921464
0.01763642
-0.06489076
-0.05010903
-0.08027605
-0.00563505
0.12484346
-0.18455555
-0.03043738
-0.16207650
-0.18297286
-0.10405379
-0.01200817
0.06470891
0.09839000
-0.11956685
-0.11323444
-0.00750998
0.05676334
-0.24953580
0.08987577
-0.10455369
0.06551509
-0.20053689
0.01040419
0.01712944
0.03589036
-0.00017083
-0.09019671
-0.08577177
-0.04136612
-0.04361650
0.15031493
0.11121897
-0.02965032
-0.04159281
-0.01402293
0.01080455
0.02843988
-0.16392341
-0.02097676
0.12358364
-0.00547015
-0.07083708
-0.05018268
-0.00382488
0.11511506
-0.14322123
-0.11378234
0.06312446
0.01935718
0.03057394
0.04961910
-0.02386773
-0.06462415
0.00142527
0.17284140
-0.02446967
-0.07526824
0.06204445
0.08530652
-0.25575265
0.07910160
-0.30524319
-0.13198914
0.08395436
0.01924768
-0.03908268
-0.14552107
-0.13451493
0.20478162
-0.07656003
-0.14445838
-0.08532223
-0.05994472
-0.10998214
0.02983124
0.01431863
0.03106611
0.02944673
-0.08591125
0.04986857
-0.06548074
0.13298924
-0.05272894
0.00169514
-0.15438516
-0.00823492
0.09585499
0.11593322
-0.01290896
0.10037827
-0.10980717
0.03584958
-0.02283585
-0.15903486
-0.02358292
0.10593265
-0.09281960
-0.09474129
-0.07045656
-0.02754477
-0.10046268
-0.16260096
0.10895366
-0.05268079
-0.04640423
0.07679603
0.02353428
0.02017302
0.20089018
-0.03757096
0.04182439
-0.05531580
0.04125123
0.10135395
0.12233280
0.25196472
-0.01203999
0.03052727
0.13388835
-0.04761330
0.14438435
-0.10376684
-0.08561085
0.10306478
-0.06861452
-0.24629773
-0.09683754
-0.21998636
-0.03158904
0.04632853
0.07362490
0.30213913
0.03514445
0.01576055
0.13232766
0.14744954
-0.05034445
-0.06927633
0.13034360
0.13743594
0.09054220
-0.16625032
0.03343035
-0.21504666
0.13754267
-0.14466311
0.02932183
-0.08900994
-0.07363815
0.16966240
0.17366734
0.08618346
0.22739379
-0.08895002
-0.17242238
-0.01941580
0.14733346
-0.00192086
0.11988328
0.02785451
-0.12289885
-0.08370655
-0.04348332
-0.16013084
0.09436207
-0.09821112
-0.05196409
0.10369446
0.05715807
0.12536299
-0.13063537
-0.03018077
0.02652081
0.01607369
-0.12165264
-0.10973358
-0.01049280
0.04435972
-0.19196999
-0.08829047
-0.13755199
-0.09615378
0.14345923
0.00266165
-0.06991708
0.01722592
0.15456107
0.10064318
0.26287192
-0.02048775
-0.03670393
0.04421157
-0.05556992
0.00790166
0.06037916
0.07797175
-0.05756916
0.05905561
-0.11191134
-0.00595792
0.09464739
-0.05531972
-0.17690988
0.00614523
-0.08594609
-0.08947854
0.12262280
-0.11132810
-0.07393370
-0.13212863
0.04740524
-0.13898872
-0.02225313
0.07998470
-0.01265559
-0.10915873
0.21318617
-0.09910312
-0.01299542
0.31945398
-0.12366436
-0.02793794
-0.04682559
0.03851667
-0.14107573
-0.07955922
-0.03739446
0.09328206
0.02093390
-0.14757036
0.01101219
0.13243845
-0.07954596
-0.08745018
-0.05429135
0.14925295
-0.20068437
0.05881876
-0.08745789
0.07911500
-0.08266705
-0.12836732
-0.04293538
-0.07579297
0.08633312
-0.12482696
-0.23615929
0.00186079
-0.08665120
-0.05371581
