0.01374156
-0.05333178
-0.06239283
0.00509633
0.02411391
-0.07356391
-0.02978789
0.00474224
-0.01386441
-0.03004434
0.04133742
-0.00089436
0.02972427
-0.02741048
0.02138303
-0.10359991
-0.07149804
-0.07558513
0.02518904
-0.02809220
-0.07966369
0.02372821
-0.06192562
-0.05345841
0.01115572
-0.03892058
0.03447187
-0.02837233
0.04016968
-0.05640916
0.00277613
-0.01218260
-0.08299413
0.05494932
0.00185034
0.02477296
0.00114279
0.05634638
-0.03210811
-0.00397506
0.02689076
0.01820937
0.02161755
-0.03039384
0.04236536
-0.00215753
-0.00704556
-0.04236654
0.06265689
-0.01059371
0.05174228
-0.01525658
-0.09681318
0.00339992
0.04575463
-0.01523435
-0.03934632
0.04025226
0.00908749
0.07362612
-0.02012176
0.00960698
0.02212844
-0.08336753
-0.03006578
-0.01040583
0.01832444
-0.01429261
-0.00911820
0.04766477
0.02429403
-0.06031794
-0.01499992
0.04693320
-0.07934639
0.11349494
0.06334049
-0.08443423
-0.06744306
-0.05408007
-0.06318718
0.02392228
0.00073827
-0.05105121
-0.05646524
-0.00596074
0.00229231
0.01174004
0.00737485
0.03497232
-0.00106991
0.03047362
-0.15395112
-0.03409307
0.04426616
0.00737902
0.01389975
0.00250108
-0.03383244
0.01502957
0.02234056
-0.01046972
-0.08481669
0.06245872
-0.00228218
0.00764835
0.00881519
-0.02231639
0.08400899
-0.01054870
0.00339762
0.05524033
0.00691674
0.00571289
0.02111700
-0.02431306
-0.00274077
0.05003812
-0.03331649
-0.06953716
-0.02720770
0.06615559
0.01603739
-0.10334170
-0.04788247
0.02320913
-0.00362458
-0.01565221
0.03495755
0.08950337
0.00618613
-0.01173624
-0.07463056
-0.07767754
0.01628903
0.01338623
-0.10770812
-0.02821972
-0.02103867
-0.10113439
0.02085538
-0.00454370
-0.02380114
0.00464049
-0.06088386
0.05089889
-0.01178325
0.05235977
-0.00848153
-0.04800782
0.09649141
0.02238528
0.01354154
0.00564306
0.02342423
-0.03181258
-0.03333531
-0.03737322
-0.01764318
-0.08694441
-0.03252466
0.00231083
0.02030466
0.05120534
-0.00323526
0.01806735
-0.06004557
0.00548305
0.07660017
0.00097734
-0.03167605
0.02948079
0.03561969
-0.00126131
-0.01389865
-0.03366734
-0.02917252
0.02696427
0.06004835
0.04156431
-0.00457836
-0.02358929
0.02722951
-0.00075802
-0.00818901
0.05508207
-0.04211291
0.02780649
-0.10432166
0.00850134
0.02759405
0.11835906
-0.06220241
0.04125198
-0.03646157
-0.11853652
-0.04164712
-0.10214107
-0.04824227
0.05753265
0.07067635
-0.06715741
-0.01358854
0.09706391
0.02276635
0.05918299
0.04278307
-0.04687686
-0.00945887
-0.03357556
-0.04895145
0.05159451
0.01014065
-0.06144913
-0.01710618
-0.00609242
0.10391589
0.05745455
-0.06039529
0.06688694
0.03010792
-0.03858396
-0.03897831
-0.07702284
-0.01160664
-0.09207252
-0.02618357
0.07042573
-0.06421268
0.02546399
0.06670634
-0.01549779
-0.05430412
0.06249428
0.00265395
-0.02480814
-0.04682222
0.05835644
-0.09168409
0.03898127
-0.02964291
-0.08090771
0.11661290
0.02118153
0.06769313
-0.01461477
-0.05739142
0.05630291
0.04824033
-0.02701497
0.01203700
-0.19161709
-0.05821209
-0.02880421
-0.11083154
0.07715438
0.03466123
0.03033599
-0.08661904
0.03350877
0.03871916
0.03868153
0.00286198
0.01945903
-0.00529759
0.10363994
-0.02396229
0.03347166
-0.02815182
0.02154285
0.00241293
-0.00905268
-0.02602456
-0.04947310
-0.00625635
-0.05765591
-0.04156737
0.00234613
-0.07702429
0.03996966
0.02604518
-0.03829455
-0.01889144
0.08721977
0.01884700
-0.03486600
-0.01969217
0.06479374
0.03439790
0.03421665
-0.07784188
-0.10769001
0.00234031
0.01023879
-0.03984480
-0.02090172
-0.02640208
-0.02665273
-0.05499243
-0.02871110
-0.01610786
-0.00020910
-0.00713460
0.01082994
-0.19569454
0.07407801
-0.00934100
-0.01388189
1.21643174
0.03179689
0.04047725
0.02121062
-0.00375024
0.00729935
-0.05001777
-0.06075573
-0.03471673
-0.02552839
0.02554742
-0.03061766
-0.00534188
-0.05075537
-0.06292936
0.11000379
0.00892721
0.02096605
-0.05600292
0.04278062
-0.01036803
0.04894289
-0.03782625
-0.03136252
0.00138547
-0.04756115
0.08345672
0.01105577
-0.04285856
0.02329999
0.01959763
0.04717456
-0.06250239
-0.01759590
-0.10556804
0.00346015
0.02002137
0.04425741
0.00891683
0.03809771
-0.02167647
-0.00452799
0.03756532
0.05942314
0.00599360
0.04651216
-0.01626242
0.01330374
-0.02545401
-0.08270678
0.05311668
-0.02873480
0.06874643
-0.03234210
-0.02055988
-0.03936689
-0.04002658
-0.02573721
-0.04886452
-0.07519571
-0.03611668
0.00014374
0.02883364
0.06130907
-0.00554301
0.02342418
-0.03363742
-0.03310241
0.01901609
0.01202211
0.07160728
-0.00049742
-0.03563161
0.22565234
0.00945081
0.03087423
0.01424146
-0.02271268
0.05760533
0.01713426
-0.03617954
0.04641028
0.02792317
-0.01152772
-0.05128748
0.01369866
-0.05118909
0.02122895
0.04725873
0.02298910
-0.03782484
-0.01545472
0.07378890
0.00226992
-0.10810729
-0.00693231
0.06643063
0.01341350
-0.02567456
-0.01063386
-0.00502036
0.01546082
0.01819674
0.01872062
0.02305170
0.01971201
0.02705947
-0.02875952
-0.01575075
0.06669746
0.01020329
-0.05009591
-0.01080853
0.06939067
-0.04036111
0.06182884
0.02215259
-0.05155015
-0.02790317
0.01527353
0.08181146
-0.01367922
0.06216545
0.03037592
0.07261381
-0.05601284
-0.01925586
-0.02627637
-0.05588924
0.04271213
0.00796881
-0.05370043
0.02676529
0.00527944
-0.00919018
0.09580145
-0.02900257
0.00029655
0.00232943
-0.01678894
0.06366253
-0.03448899
-0.05482755
0.04477862
-0.02561746
0.03605390
-0.00732608
-0.02522822
0.04397897
-0.00984640
0.05325504
0.00850744
-0.01915029
0.10627811
0.00242443
0.01211054
0.03625555
-0.07490834
-0.02512338
0.06925015
0.00639810
0.02858925
0.02502106
-0.03897500
0.01383995
-0.02850428
-0.00876975
0.05506656
-0.02815256
-0.00601945
0.02999581
0.05442720
0.03879112
-0.00422092
0.02947246
0.01513585
0.01051137
-0.00248224
-0.05364054
-0.04892147
0.02501322
-0.04353766
0.06935983
0.00149192
-0.00257964
0.02207006
0.02063630
-0.02659030
-0.01366687
0.02333639
-0.08052442
-0.01634057
0.00236872
-0.08190685
-0.00223188
0.05298673
0.01820319
-0.03442431
0.02056455
0.00934292
0.04767787
-0.02553451
0.02222410
-0.00938896
0.08582620
0.04363770
0.05749632
-0.12155102
0.02090839
0.00716539
0.01063491
0.09241778
0.00259534
-0.01628790
-0.00819404
0.04400778
0.01080084
0.05050719
0.04573598
0.02660850
-0.02418540
-0.06620244
-0.00173434
0.02379033
-0.02495777
-0.06761954
-0.00618489
0.07338888
-0.07210232
0.04618876
-0.05023945
0.04192458
-0.02896306
-0.01030644
-0.00131343
0.03597016
0.00758596
0.05570010
-0.00593547
0.00237343
-0.04270599
0.00293285
0.03499853
0.04229481
0.04216602
0.00066326
0.06503971
0.03253377
-0.02930127
-0.04032206
-0.01972470
0.02623178
0.01581154
0.02635168
0.00062686
0.02738656
-0.02859241
-0.00980687
-0.00403567
0.04902956
-0.03195814
0.01990803
-0.02086379
0.05257486
-0.07093856
-0.00850572
0.02647138
-0.07872721
-0.00891575
0.09524020
0.03204069
0.01150895
0.05666630
-0.07677241
-0.02673373
0.06213130
0.05741846
0.03041833
-0.07479236
0.02415799
-0.01438906
0.00219234
0.03031160
0.03636498
-0.00702644
0.03189681
-0.01656417
0.01366155
-0.04676351
0.01632891
0.02933286
-0.01406557
-0.04823104
0.00935310
0.01550382
-0.04133644
-0.00554835
-0.03532503
0.01743303
0.01634956
-0.02663859
-0.00654802
0.01406704
0.05173241
0.03556665
0.02203829
0.05336957
0.04475717
0.02305221
0.00412570
0.03136909
0.05192412
-0.07258747
0.05902733
0.01664438
-0.00094136
0.04152617
0.00987011
-0.06406424
-0.08155578
-0.08476185
0.03702006
-0.03409673
-0.04324857
-0.03377493
-0.10561181
0.00695350
-0.01064215
-0.04412929
0.01119184
-0.11770837
0.02999614
-0.03353830
-0.03258051
-0.01138101
0.02297890
0.06738880
0.04862006
0.01126337
0.03351426
0.04920830
-0.06688680
-0.02821373
-0.00416995
-0.05126807
0.02308417
-0.03061977
0.04694045
-0.11237644
-0.03424095
-0.02467888
0.03361335
-0.01947218
0.04056279
-0.10634454
0.04591174
-0.01071272
-0.00730018
-0.01139537
0.02438251
-0.10029133
-0.05092964
-0.10136531
-0.01353990
0.06509846
-0.01079081
-0.02905058
0.06468071
-0.05899855
-0.11598239
0.02965850
0.00389787
-0.01113343
0.01934375
-0.04164864
0.03339526
0.01426387
0.01025007
-0.06761701
-0.02736974
0.01432261
0.02529144
-0.04052643
-0.03024811
0.06575638
0.03519104
0.02297038
-0.04432308
0.05442539
-0.01818306
0.04939519
0.01461928
0.02557279
-0.02897512
0.06902622
-0.02488654
-0.04100617
-0.05172024
-0.03551605
-0.01291703
-0.00126585
0.01143817
0.04235363
0.04356283
0.00070085
0.02897118
0.01366223
-0.05857134
-0.00722709
0.00268439
-0.01486305
0.03887765
0.00890367
-0.04151686
-0.04413094
0.03219755
-0.05877216
0.01613516
0.10040819
-0.00959527
0.02104837
0.02397700
-0.00377775
-0.01901248
-0.00589109
-0.03472956
-0.02275098
0.06891359
0.02854744
-0.05828173
0.01611979
0.03200020
0.03780710
-0.03694814
0.06025182
0.02352904
-0.04567618
-0.06917657
-0.00063207
-0.01091557
0.01017848
-0.07911422
-0.00084007
0.02655850
0.06228137
-0.02249146
0.05698888
0.05087340
-0.02082418
-0.04270081
0.03163881
0.05266980
0.00814918
0.02159070
-0.10612152
0.04277531
0.09888069
-0.03225747
0.01673067
-0.00618267
